-7.672502994537353516e-01
8.947468549013137817e-02
-2.548689022660255432e-02
-3.493874967098236084e-01
5.167706608772277832e-01
-7.983453571796417236e-02
1.080490499734878540e-01
-4.571135044097900391e-01
-1.554126977920532227e+00
9.049946665763854980e-01
-7.808416150510311127e-03
-2.359441369771957397e-01
4.237518310546875000e-01
-3.459893167018890381e-01
3.523513674736022949e-01
-1.890038698911666870e-01
-2.748660445213317871e-01
-1.040946319699287415e-01
-7.005469799041748047e-01
6.174291372299194336e-01
1.832910180091857910e-01
-3.061806857585906982e-01
-1.978572010993957520e-01
1.609409451484680176e+00
1.516874432563781738e+00
2.011916227638721466e-02
1.071842238306999207e-01
5.968445539474487305e-01
7.350050806999206543e-01
-9.729615598917007446e-02
-4.400854408740997314e-01
-1.308408975601196289e-01
-3.749816212803125381e-03
-1.768476665019989014e-01
1.481788009405136108e-01
-2.035245150327682495e-01
3.319019377231597900e-01
-3.860313296318054199e-01
-1.356007456779479980e-01
-2.081967443227767944e-01
5.390161275863647461e-01
-8.695553988218307495e-02
9.264876842498779297e-01
-9.760608673095703125e-01
7.333675026893615723e-01
6.381986290216445923e-02
1.018564999103546143e-01
7.365438938140869141e-01
3.373293876647949219e-01
1.442524939775466919e-01
-2.206922695040702820e-02
1.036198139190673828e+00
3.674965202808380127e-01
-1.338669061660766602e-01
-6.614021956920623779e-02
5.075908824801445007e-02
-1.791982203722000122e-01
-1.589230261743068695e-02
3.233689069747924805e-01
8.035039305686950684e-01
6.212752461433410645e-01
-6.450148224830627441e-01
-1.048490405082702637e+00
-4.541167318820953369e-01
-2.422615140676498413e-01
2.080892324447631836e-01
1.652842611074447632e-01
7.706972956657409668e-02
-1.583946943283081055e-01
4.021580815315246582e-01
-4.404113814234733582e-02
1.302803009748458862e-01
-1.900721788406372070e-01
-1.637336730957031250e+00
-6.449108123779296875e-01
1.411115825176239014e-01
8.813313394784927368e-02
-3.461886942386627197e-01
1.967430830001831055e+00
3.275603353977203369e-01
3.409831523895263672e-01
-6.291152834892272949e-01
-4.591385424137115479e-01
-3.053819760680198669e-02
9.671208262443542480e-01
-2.898390293121337891e-01
-2.800876200199127197e-01
7.926127314567565918e-01
2.110078781843185425e-01
-3.738232553005218506e-01
1.243399262428283691e+00
2.530250549316406250e-01
-2.130723744630813599e-02
1.554802954196929932e-01
5.403067469596862793e-01
1.010371565818786621e+00
3.543755114078521729e-01
-5.652080178260803223e-01
6.928658485412597656e-01
-2.930270731449127197e-01
3.231080174446105957e-01
2.235651016235351562e-01
2.579500675201416016e-01
-3.596875965595245361e-01
2.512785494327545166e-01
-5.906023383140563965e-01
-7.123818993568420410e-01
6.341613531112670898e-01
6.977689862251281738e-01
-3.417588472366333008e-01
-8.945562839508056641e-01
9.484685063362121582e-01
5.841211080551147461e-01
2.795520126819610596e-01
-1.342728883028030396e-01
1.461503952741622925e-01
4.499682784080505371e-01
-8.666072487831115723e-01
-1.519873887300491333e-01
3.348231315612792969e-01
-8.927837014198303223e-03
5.300294756889343262e-01
3.339714705944061279e-01
-6.101577281951904297e-01
-5.006034858524799347e-03
-2.041692495346069336e+00
-1.088497191667556763e-01
5.991838574409484863e-01
