-1.868721097707748413e-02,-4.062954336404800415e-02,5.267715826630592346e-02,7.737966626882553101e-02,1.608457416296005249e-01,1.190924644470214844e-02,4.020024836063385010e-02,5.538316443562507629e-02,-1.190624833106994629e-01,1.645130291581153870e-02,-7.907181046903133392e-03,-8.254593238234519958e-03,3.194601461291313171e-02,-3.773078788071870804e-03,7.644117344170808792e-03,3.782842308282852173e-02,2.410888485610485077e-02,-1.305672377347946167e-01,-1.626010611653327942e-02,9.404269605875015259e-02,2.496293932199478149e-02,6.206487864255905151e-02,2.685153111815452576e-02,1.588913053274154663e-02,-4.986046254634857178e-02,-1.436289697885513306e-01,3.279875963926315308e-02,1.471226196736097336e-02,5.954880639910697937e-02,1.146155893802642822e-01,3.936425223946571350e-02,-6.403380632400512695e-02,7.481405138969421387e-02,-1.100870501250028610e-02,-1.828685253858566284e-01,-1.690916717052459717e-02,-7.459423691034317017e-02,3.836875781416893005e-02,-3.064213134348392487e-02,1.037859916687011719e-01,-6.530687958002090454e-02,-1.243521459400653839e-02,-5.143116228282451630e-03,8.835261315107345581e-02,-6.416147202253341675e-02,-1.328292787075042725e-01,6.102844700217247009e-02,1.404846608638763428e-01,1.294480822980403900e-02,1.539579629898071289e-01,-5.152428895235061646e-02,-9.772955439984798431e-03,-5.256123468279838562e-02,-3.104334883391857147e-02,1.474153250455856323e-01,4.514878615736961365e-02,1.210886389017105103e-01,6.602874398231506348e-02,-1.718381233513355255e-02,-6.747604906558990479e-02,1.533294618129730225e-01,7.025121152400970459e-02,1.628429591655731201e-01,-1.185407787561416626e-01,-1.712976545095443726e-01,7.352563738822937012e-02,-1.326768696308135986e-01,-8.932019770145416260e-02,9.788525104522705078e-02,1.606917381286621094e-02,-2.039603888988494873e-01,1.475317683070898056e-02,1.031419709324836731e-01,-1.877081021666526794e-02,5.029218271374702454e-02,-1.104639694094657898e-01,-2.713258005678653717e-02,-1.500123590230941772e-01,-4.102049022912979126e-02,-1.299589276313781738e-01,1.376162767410278320e-01,-2.165884971618652344e-01,5.070949345827102661e-02,-1.946890912950038910e-02,1.265605911612510681e-02,-8.478080853819847107e-03,3.183414787054061890e-02,8.355242013931274414e-02,-1.776631176471710205e-02,1.286079827696084976e-02,-3.146358951926231384e-02,-1.062762066721916199e-01,3.183051571249961853e-02,-2.227869033813476562e-01,7.198318094015121460e-02,2.026428841054439545e-02,8.911250531673431396e-02,1.061870083212852478e-01,1.150093600153923035e-01,-5.730738863348960876e-02,2.030862867832183838e-02,1.518884599208831787e-01,1.193252503871917725e-01,6.837183237075805664e-02,-5.818746984004974365e-02,-7.152923941612243652e-02,2.798145823180675507e-02,2.834595926105976105e-02,-2.151317596435546875e-01,4.524378478527069092e-02,-6.219612061977386475e-02,-6.551285088062286377e-02,-1.657126657664775848e-02,8.711206167936325073e-02,-6.319969147443771362e-02,1.875646971166133881e-02,-2.164758974686264992e-03,-2.601659484207630157e-02,-6.211428716778755188e-02,1.682398617267608643e-01,-5.181217938661575317e-02,-8.636401966214179993e-03,2.810456417500972748e-02,-5.768682807683944702e-02,-9.429947286844253540e-02,-1.169493496417999268e-01,2.383438870310783386e-02,3.994314372539520264e-02
1.285021286457777023e-02,-7.424483541399240494e-03,3.081394359469413757e-03,7.576017081737518311e-02,1.162157505750656128e-01,-3.408306464552879333e-02,-8.966977708041667938e-03,8.301672525703907013e-03,4.203603044152259827e-02,4.701106809079647064e-03,-5.634620040655136108e-02,-2.530604302883148193e-01,-1.805628538131713867e-01,5.186410993337631226e-02,-6.468228530138731003e-03,-1.494417786598205566e-01,-6.492436863481998444e-03,5.732879787683486938e-02,-1.527485437691211700e-02,2.145579084753990173e-02,2.868016064167022705e-01,6.936111301183700562e-02,4.050299525260925293e-03,4.869636148214340210e-02,9.702228009700775146e-02,1.145705580711364746e-01,-6.818907707929611206e-02,-7.395456731319427490e-02,-1.089773625135421753e-01,1.073241457343101501e-01,5.162325128912925720e-02,1.920575350522994995e-01,-3.626896440982818604e-02,-6.355042755603790283e-02,5.544532090425491333e-02,-2.270614914596080780e-02,3.659995971247553825e-03,1.039002165198326111e-01,2.435545437037944794e-02,1.142960265278816223e-01,-1.427457034587860107e-01,1.321923583745956421e-01,2.164885587990283966e-02,-8.348305523395538330e-02,-4.145277664065361023e-02,1.498699039220809937e-01,-2.257096469402313232e-01,-1.707988530397415161e-01,4.083586111664772034e-02,1.257648766040802002e-01,9.906326979398727417e-02,-1.279917657375335693e-01,-2.405229769647121429e-02,8.553912490606307983e-02,4.056376963853836060e-02,1.444450765848159790e-01,-1.549066510051488876e-02,-9.655250608921051025e-02,-4.105089977383613586e-02,-3.738315135706216097e-04,-3.313406184315681458e-02,1.330365687608718872e-01,1.715254969894886017e-02,-1.252798736095428467e-01,-4.305534064769744873e-02,4.868066683411598206e-02,4.796859342604875565e-03,-9.844231419265270233e-03,4.007166251540184021e-02,1.053195912390947342e-02,1.928908675909042358e-01,1.898493319749832153e-01,-2.166330115869641304e-03,-1.482238024473190308e-01,1.101831570267677307e-01,4.609156772494316101e-02,4.988502338528633118e-02,-3.970056772232055664e-01,1.009992957115173340e-01,2.417062520980834961e-01,-1.127799898386001587e-01,1.839755475521087646e-01,-6.464200466871261597e-02,-6.425419449806213379e-02,1.906667137518525124e-03,-6.985116750001907349e-02,1.317139621824026108e-02,4.493036866188049316e-02,8.741261065006256104e-02,2.035702019929885864e-01,1.176591292023658752e-01,-2.245444804430007935e-01,-1.579207554459571838e-02,7.726705819368362427e-02,-4.157855734229087830e-02,-2.941833138465881348e-01,1.322170794010162354e-01,-9.359368681907653809e-02,4.263276606798171997e-02,-8.154100179672241211e-02,-5.250548943877220154e-02,5.305920541286468506e-02,-6.779987365007400513e-02,-1.994703859090805054e-01,-1.510199755430221558e-01,-5.433087050914764404e-02,1.036525964736938477e-01,-1.771914213895797729e-01,9.534108638763427734e-02,-9.029272198677062988e-02,1.567483395338058472e-01,5.748740956187248230e-02,-8.145190775394439697e-02,9.944596141576766968e-02,-1.964263170957565308e-01,-3.464920818805694580e-02,-2.051770091056823730e-01,9.026811271905899048e-02,1.574655920267105103e-01,8.088561147451400757e-02,1.066088676452636719e-01,8.146068453788757324e-02,6.084663793444633484e-02,7.951357960700988770e-02,-2.815556339919567108e-02,7.841032743453979492e-02,-7.602560520172119141e-02,-9.839338064193725586e-02
-5.258647724986076355e-03,-1.339953690767288208e-01,3.774915635585784912e-02,-4.082461819052696228e-02,2.319820038974285126e-02,1.042785793542861938e-01,1.084366887807846069e-01,-6.732994318008422852e-02,-2.298149839043617249e-02,1.295389980077743530e-01,-2.071579396724700928e-01,-4.541586712002754211e-02,-1.506113260984420776e-02,1.169128939509391785e-01,3.866596519947052002e-02,5.829348787665367126e-02,-3.787031024694442749e-02,8.328764140605926514e-02,-4.569480568170547485e-02,2.065344341099262238e-02,-6.677607446908950806e-02,-5.655955895781517029e-02,6.882620602846145630e-02,1.910120807588100433e-02,-1.007391586899757385e-01,-3.178453817963600159e-02,5.242231488227844238e-02,9.973941743373870850e-02,5.839705467224121094e-02,-1.443434786051511765e-02,-4.270323365926742554e-02,-6.172293052077293396e-02,5.703628808259963989e-02,1.936966180801391602e-01,1.762868836522102356e-02,6.202881410717964172e-02,-3.210240229964256287e-02,-7.258316036313772202e-04,7.029744982719421387e-02,9.904407709836959839e-02,-1.734384708106517792e-02,-1.120616309344768524e-02,-1.768735586665570736e-03,1.749053895473480225e-01,1.755140349268913269e-02,5.158679932355880737e-02,1.098861694335937500e-01,-1.203224137425422668e-01,4.918409045785665512e-03,-7.113689929246902466e-02,8.327460289001464844e-02,-1.164854988455772400e-01,-1.078610192053020000e-03,4.421143606305122375e-02,-9.427297860383987427e-02,4.210253804922103882e-02,-6.153656635433435440e-03,3.254181146621704102e-02,3.289858251810073853e-02,1.101898252964019775e-01,-5.367571860551834106e-02,7.783780246973037720e-02,9.019327908754348755e-02,-7.465470582246780396e-02,3.867974504828453064e-02,1.074448823928833008e-01,3.397167474031448364e-02,-1.576669141650199890e-02,4.070862382650375366e-02,8.486445993185043335e-02,1.120750821428373456e-04,8.247125148773193359e-02,-5.382674932479858398e-02,-6.693711131811141968e-02,-2.460242360830307007e-01,-4.676110297441482544e-02,-4.213742446154356003e-03,5.553007125854492188e-03,5.178780853748321533e-02,-5.199378821998834610e-03,-4.715926200151443481e-02,-4.471610486507415771e-02,7.787446677684783936e-02,5.067113414406776428e-02,9.127075225114822388e-02,-7.802720181643962860e-03,9.245737642049789429e-02,-7.853826135396957397e-02,1.092498153448104858e-01,-5.353050306439399719e-02,6.731089204549789429e-02,3.965960443019866943e-02,-1.507766451686620712e-02,-1.087355520576238632e-02,-7.824012637138366699e-02,-9.583151340484619141e-02,3.734606876969337463e-02,2.036417126655578613e-01,-1.429415494203567505e-02,9.743760526180267334e-02,2.155570685863494873e-02,5.682847276329994202e-02,-1.209844499826431274e-01,-3.239983692765235901e-02,-4.798579588532447815e-02,8.139226585626602173e-02,-1.249080225825309753e-01,1.569149829447269440e-02,-3.687080740928649902e-02,-4.984555765986442566e-02,3.176999976858496666e-03,-1.619873382151126862e-02,5.737801268696784973e-02,-1.256065163761377335e-02,1.860195025801658630e-02,-5.695581063628196716e-02,1.083309724926948547e-01,1.582069396972656250e-01,2.958121336996555328e-02,1.855351477861404419e-01,-7.942263036966323853e-02,9.201111644506454468e-02,8.268310874700546265e-02,-3.109155595302581787e-02,6.281921267509460449e-02,-3.266856446862220764e-02,1.484805792570114136e-01,4.633094742894172668e-02
-1.476661264896392822e-01,-2.795903012156486511e-02,3.422468155622482300e-02,4.205268248915672302e-02,-5.617141351103782654e-02,-1.586019247770309448e-01,1.296317428350448608e-01,3.028829954564571381e-02,1.522656679153442383e-01,-1.240499019622802734e-01,4.207283630967140198e-02,1.307779829949140549e-02,-8.445807732641696930e-03,-6.253061443567276001e-02,2.037539705634117126e-02,1.554349213838577271e-01,9.195393882691860199e-03,-1.069101765751838684e-01,-4.121590405702590942e-03,1.546964496374130249e-01,-4.930777102708816528e-02,-3.442478552460670471e-02,-2.340736985206604004e-01,7.081717997789382935e-02,-3.090164065361022949e-02,1.122079864144325256e-01,6.044389214366674423e-03,1.874126791954040527e-01,-3.067240864038467407e-02,4.956219345331192017e-02,5.714590102434158325e-02,-1.432530232705175877e-03,-3.658208623528480530e-02,-5.316682532429695129e-02,7.750891149044036865e-02,-2.053932519629597664e-03,9.836865216493606567e-02,-1.585691124200820923e-01,3.419886156916618347e-02,-3.575959801673889160e-02,4.948736727237701416e-02,5.989789590239524841e-02,-2.388702239841222763e-03,2.584931254386901855e-02,1.123762317001819611e-02,-7.284893095493316650e-02,2.796149253845214844e-02,-3.794823586940765381e-02,3.733714669942855835e-02,1.159895956516265869e-01,-6.002428755164146423e-02,7.051502168178558350e-02,-4.722117260098457336e-02,9.911825507879257202e-02,3.379840776324272156e-02,-7.654149830341339111e-02,1.917017623782157898e-03,1.498090382665395737e-02,4.957478865981101990e-02,-4.962021857500076294e-02,1.484934687614440918e-01,-3.970258682966232300e-02,-8.294452726840972900e-02,-1.486402601003646851e-01,-1.369870752096176147e-01,1.925384509377181530e-03,-4.147646017372608185e-03,1.180965378880500793e-01,-3.171633929014205933e-02,-9.058941900730133057e-02,-1.899294406175613403e-01,1.758057996630668640e-02,-4.266292974352836609e-02,1.279528737068176270e-01,2.491126395761966705e-02,5.477037047967314720e-04,2.036251872777938843e-01,-5.504154786467552185e-02,-2.240440621972084045e-02,2.934970706701278687e-02,1.956289447844028473e-02,-1.676062680780887604e-02,-4.556970298290252686e-02,-7.900202274322509766e-02,-1.567139178514480591e-01,5.985011532902717590e-02,-6.192693486809730530e-02,-4.740596748888492584e-03,-1.835231110453605652e-02,4.015902057290077209e-02,9.978923946619033813e-03,2.846583910286426544e-02,-9.172306954860687256e-02,-4.498296231031417847e-02,-7.665897905826568604e-02,9.447155892848968506e-02,2.468013844918459654e-04,-8.627106249332427979e-02,-2.782617881894111633e-02,1.023795455694198608e-01,7.824702188372612000e-03,-2.506317198276519775e-02,-1.124622225761413574e-01,-1.415636539459228516e-01,-1.061629503965377808e-01,-2.358405850827693939e-02,-1.559460908174514771e-01,1.758115016855299473e-03,-8.743547648191452026e-02,1.046293601393699646e-01,-6.383593380451202393e-02,-1.873684376478195190e-01,-6.045129150152206421e-02,-3.273708047345280647e-03,8.449109736829996109e-04,-4.168108850717544556e-02,-1.578413508832454681e-02,1.035702303051948547e-01,-7.908429950475692749e-02,-3.123109601438045502e-02,1.788863539695739746e-01,2.578585036098957062e-02,-4.288744181394577026e-02,-2.248140238225460052e-02,4.344508517533540726e-03,-6.834261119365692139e-02,-6.220802664756774902e-03,-1.031110715121030807e-02
-1.942228758707642555e-03,4.314860701560974121e-02,3.979085013270378113e-02,-2.474424988031387329e-02,-1.147819235920906067e-01,-9.854501485824584961e-02,6.891799718141555786e-02,-3.850474953651428223e-02,-1.912131719291210175e-02,2.035924978554248810e-02,-8.932513743638992310e-02,4.422711208462715149e-02,1.308750510215759277e-01,3.103757090866565704e-02,1.296265982091426849e-03,-1.132827950641512871e-03,3.323619812726974487e-02,-5.054411664605140686e-02,-2.061843425035476685e-01,-6.155598163604736328e-02,-1.260595768690109253e-01,4.706919938325881958e-02,-2.328856475651264191e-02,2.162011899054050446e-02,2.265747450292110443e-02,-1.783315092325210571e-01,-9.621694684028625488e-02,-2.541627548635005951e-02,-7.214212417602539062e-02,-7.734913378953933716e-02,-4.628280550241470337e-02,-5.816694721579551697e-02,-1.150630181655287743e-03,2.602023072540760040e-03,8.092474937438964844e-02,-2.500083856284618378e-02,-4.480537027120590210e-02,7.758026570081710815e-02,4.946411028504371643e-02,4.206337779760360718e-02,7.042102515697479248e-02,1.039259210228919983e-01,1.240188069641590118e-02,-1.507256031036376953e-01,-5.228079482913017273e-02,5.550896376371383667e-02,-1.596833467483520508e-01,-5.161540210247039795e-02,2.222873969003558159e-03,-2.732550799846649170e-01,-1.339062601327896118e-01,3.867172077298164368e-02,-2.572999522089958191e-02,6.990426778793334961e-02,1.864859014749526978e-01,1.325587090104818344e-02,-4.851742833852767944e-02,-4.821942374110221863e-02,-1.207750290632247925e-01,3.826730698347091675e-02,1.225988343358039856e-01,-1.409972179681062698e-02,1.073529273271560669e-01,1.788900606334209442e-02,9.606182575225830078e-02,-5.457470566034317017e-02,-3.724910318851470947e-02,8.145726472139358521e-02,-1.570252329111099243e-02,4.751190170645713806e-02,5.253305658698081970e-03,4.735971242189407349e-02,-1.176477000117301941e-01,3.865336254239082336e-02,-1.095755994319915771e-01,-1.090896874666213989e-02,-1.769199371337890625e-01,-1.325511485338211060e-01,-5.861932411789894104e-02,-8.970151841640472412e-02,1.603194326162338257e-02,-1.746204681694507599e-02,1.959725320339202881e-01,-7.037295401096343994e-02,-1.059589013457298279e-01,-4.393849894404411316e-02,-5.052133277058601379e-02,-3.261815011501312256e-02,-8.337192237377166748e-03,-9.993838518857955933e-02,9.523987025022506714e-02,-1.030961871147155762e-01,1.700269617140293121e-02,1.159883588552474976e-01,-1.429630517959594727e-01,5.120729282498359680e-02,8.319588005542755127e-02,3.540441021323204041e-02,7.489381730556488037e-02,-8.233143389225006104e-02,-9.757910668849945068e-02,1.813346520066261292e-02,8.875758945941925049e-02,-1.481560915708541870e-01,5.071702972054481506e-02,-5.403232946991920471e-02,-4.568039253354072571e-02,6.494499277323484421e-03,7.011052966117858887e-02,3.729373589158058167e-02,-2.372550591826438904e-02,3.914005309343338013e-02,6.804051250219345093e-02,-1.727300137281417847e-02,1.459365934133529663e-01,-5.731067806482315063e-02,2.032886631786823273e-02,-2.731119515374302864e-03,-9.284715354442596436e-02,3.595802932977676392e-02,2.303826063871383667e-02,-1.000222656875848770e-02,6.449101865291595459e-02,2.050091326236724854e-01,-8.014586754143238068e-03,-1.488101631402969360e-01,2.794401487335562706e-03,-6.128504872322082520e-02
1.850100420415401459e-02,-6.768376380205154419e-02,1.302528083324432373e-01,-2.476075477898120880e-02,4.235720727592706680e-03,7.208134233951568604e-02,1.303029507398605347e-01,-6.914111319929361343e-03,9.810545295476913452e-02,-3.481663390994071960e-02,-1.224392466247081757e-02,-3.428696468472480774e-02,2.519713342189788818e-02,-8.611597865819931030e-02,-1.262432546354830265e-03,8.187813684344291687e-03,-4.509276524186134338e-02,6.699243932962417603e-02,-3.431758284568786621e-02,1.145856305956840515e-01,-1.511008739471435547e-01,-8.261046558618545532e-02,-1.287142485380172729e-01,4.641813039779663086e-02,9.558890759944915771e-02,1.743617802858352661e-01,-4.616397898644208908e-03,3.874548152089118958e-02,3.441524878144264221e-02,-1.028547286987304688e-01,-9.433095157146453857e-02,6.415951251983642578e-02,-5.219860747456550598e-02,-6.223290413618087769e-02,-5.217559263110160828e-02,-3.315484523773193359e-02,-1.420962437987327576e-02,1.802722662687301636e-01,7.442950457334518433e-02,1.073191612958908081e-01,1.746764183044433594e-01,-1.460090577602386475e-01,-7.864953950047492981e-03,4.569330066442489624e-02,-1.949244588613510132e-01,1.964553743600845337e-01,-4.275771789252758026e-03,6.031863018870353699e-02,7.853699475526809692e-02,-4.753621667623519897e-02,-9.576116502285003662e-02,-5.528409034013748169e-02,3.652902320027351379e-02,-2.072334885597229004e-01,-2.236699312925338745e-02,-2.045021951198577881e-02,1.429261565208435059e-01,-1.811040937900543213e-01,4.386434331536293030e-03,-1.301169097423553467e-01,1.307530999183654785e-01,1.314649824053049088e-02,-2.037631720304489136e-01,1.667749583721160889e-01,1.044263411313295364e-02,8.100771158933639526e-02,1.806416511535644531e-01,-3.630069643259048462e-02,2.370319664478302002e-01,3.278440609574317932e-02,-2.524175643920898438e-01,1.330921500921249390e-01,-6.510727852582931519e-02,-3.176250681281089783e-02,1.231627240777015686e-01,-1.270993053913116455e-01,1.300416607409715652e-02,9.096713364124298096e-02,2.552845329046249390e-02,7.609567791223526001e-02,-4.763470590114593506e-02,2.845979854464530945e-02,-1.688483953475952148e-01,6.404983252286911011e-02,3.516267240047454834e-02,9.393696486949920654e-02,-5.348100140690803528e-02,-6.186998635530471802e-02,-1.454473733901977539e-01,1.180729046463966370e-01,7.783797383308410645e-02,-1.355512291193008423e-01,5.504129081964492798e-02,1.017420440912246704e-01,-6.844017654657363892e-02,-3.121934644877910614e-02,1.603509783744812012e-01,2.647968754172325134e-02,-1.985022425651550293e-01,9.877814352512359619e-02,1.147998943924903870e-01,1.609381474554538727e-02,-4.994693677872419357e-03,1.051029562950134277e-01,1.176102012395858765e-01,-9.525831788778305054e-02,9.433161467313766479e-03,4.449653252959251404e-02,-4.432414844632148743e-02,8.868648856878280640e-02,6.818859279155731201e-02,6.692397873848676682e-03,-3.819471970200538635e-02,-1.089440807700157166e-01,3.810437023639678955e-02,6.055906042456626892e-02,1.995153725147247314e-01,-4.420831799507141113e-02,-5.256741493940353394e-02,-1.280301809310913086e-01,1.880498602986335754e-02,1.602399349212646484e-01,5.759908258914947510e-02,-2.976706624031066895e-01,-2.293882817029953003e-01,9.770768694579601288e-03,7.244323194026947021e-02,2.796605601906776428e-02
5.884378030896186829e-02,1.223777309060096741e-01,5.120268464088439941e-02,2.661710791289806366e-02,-1.807527989149093628e-02,-2.354162484407424927e-01,-2.432268410921096802e-01,1.245910152792930603e-01,8.371033519506454468e-02,-1.617104262113571167e-01,-1.822090446949005127e-01,1.115456968545913696e-01,-2.658843994140625000e-03,-1.344102472066879272e-01,4.419100284576416016e-02,6.174503639340400696e-02,1.715600341558456421e-01,1.821243017911911011e-02,-2.417786121368408203e-01,-2.045405795797705650e-03,-8.456698805093765259e-02,1.851140856742858887e-01,9.860226511955261230e-02,1.210776343941688538e-01,1.267986446619033813e-01,-1.113059893250465393e-01,-5.227538570761680603e-02,2.492758259177207947e-02,-1.730933487415313721e-01,3.929504007101058960e-02,6.492491066455841064e-02,-3.309464827179908752e-02,5.224458873271942139e-03,3.709301352500915527e-02,1.689013391733169556e-01,1.048537790775299072e-01,-1.780522614717483521e-01,-1.761929243803024292e-01,-1.221619918942451477e-01,2.899796664714813232e-01,9.242808446288108826e-03,3.746752440929412842e-02,4.891899600625038147e-02,1.090345829725265503e-01,9.046657383441925049e-02,-1.066467836499214172e-01,-2.290263772010803223e-01,-8.928666822612285614e-03,8.392203599214553833e-03,1.047850549221038818e-01,-9.570989757776260376e-02,-1.734109781682491302e-02,1.949387937784194946e-01,-1.124200224876403809e-01,-2.181091010570526123e-01,-1.783410757780075073e-01,8.547117561101913452e-02,1.018164679408073425e-01,-8.419854566454887390e-03,2.387457899749279022e-02,1.450282800942659378e-02,2.085172943770885468e-02,-5.564375780522823334e-03,-6.137623265385627747e-02,1.053361743688583374e-01,-4.019723087549209595e-02,4.337587580084800720e-02,6.961547303944826126e-03,7.708898186683654785e-02,-2.411487698554992676e-01,-7.713307440280914307e-02,-1.301821917295455933e-01,-1.174538508057594299e-01,6.977751851081848145e-02,-9.370217472314834595e-02,-3.440891951322555542e-02,-2.763549983501434326e-01,-4.569887649267911911e-03,-1.561941355466842651e-01,-3.752770647406578064e-02,-1.110860407352447510e-01,-9.005093015730381012e-04,6.095432862639427185e-02,1.410915404558181763e-01,2.021072208881378174e-01,3.903746232390403748e-02,2.508172690868377686e-01,2.086403034627437592e-02,-1.252891123294830322e-01,8.874180167913436890e-02,-2.650561034679412842e-01,-8.781021088361740112e-02,-9.456085413694381714e-02,7.155692577362060547e-02,-8.971767872571945190e-02,1.330389678478240967e-01,9.954012185335159302e-02,7.927879691123962402e-02,4.311685636639595032e-02,1.885922104120254517e-01,-1.297820475883781910e-03,1.631945669651031494e-01,-8.865734189748764038e-02,7.168747484683990479e-03,9.847594797611236572e-02,-1.919521205127239227e-02,2.206169664859771729e-01,-1.100218221545219421e-01,7.478883117437362671e-02,3.216196782886981964e-03,-6.867968291044235229e-02,-8.291163295507431030e-02,-1.454404592514038086e-01,-6.856109201908111572e-02,-4.098330438137054443e-02,-3.474723547697067261e-02,4.592167958617210388e-02,7.343301177024841309e-02,-2.806568741798400879e-01,-1.195961982011795044e-01,1.929493993520736694e-01,-9.437532722949981689e-02,2.653787657618522644e-02,-2.666315734386444092e-01,3.696742653846740723e-02,2.648522853851318359e-01,5.816776305437088013e-03,1.315864548087120056e-02
1.711497157812118530e-01,-3.737432509660720825e-02,-1.450529098510742188e-01,-8.428264409303665161e-03,7.835213840007781982e-02,-5.196968838572502136e-02,3.126262128353118896e-02,5.626723635941743851e-03,1.688564429059624672e-03,1.887695342302322388e-01,1.008253619074821472e-01,7.410486042499542236e-02,-1.041080355644226074e-01,1.215024143457412720e-01,-4.734634980559349060e-02,-4.795665666460990906e-02,6.681368220597505569e-03,-6.870741397142410278e-02,7.062713056802749634e-02,-1.529043726623058319e-02,1.023239269852638245e-02,1.075321137905120850e-01,-8.936028182506561279e-02,-1.272147744894027710e-01,6.554500758647918701e-02,-7.272241264581680298e-02,-2.527136122807860374e-03,-1.272901296615600586e-01,1.348723769187927246e-01,3.515245020389556885e-02,4.159756004810333252e-02,-1.511532906442880630e-02,1.034085303544998169e-01,1.026294007897377014e-01,1.899215728044509888e-01,-7.303426042199134827e-03,-1.384340785443782806e-02,6.071956083178520203e-02,1.802026033401489258e-01,1.692401021718978882e-01,6.987638026475906372e-02,6.359214894473552704e-03,8.060833811759948730e-02,-5.472972989082336426e-02,9.575630724430084229e-02,-9.681187570095062256e-02,-4.497291520237922668e-03,-2.405454777181148529e-02,1.088519617915153503e-01,6.571444869041442871e-02,-5.589873716235160828e-02,-6.240025907754898071e-02,-1.792353689670562744e-01,2.220157533884048462e-02,2.359440624713897705e-01,-2.882112935185432434e-02,4.129438474774360657e-02,-7.153167575597763062e-02,1.200081631541252136e-01,5.169530399143695831e-03,-1.175637915730476379e-01,-1.142905801534652710e-01,1.324061863124370575e-02,1.166737303137779236e-01,7.546409964561462402e-02,-2.572796074673533440e-03,-1.614990760572254658e-04,-5.548862367868423462e-02,-7.631526142358779907e-02,-7.501779496669769287e-02,5.144292488694190979e-02,6.009896099567413330e-02,-1.611513346433639526e-01,-6.859618704766035080e-03,1.292118523269891739e-02,1.718759983777999878e-01,-8.600252866744995117e-02,-6.083006411790847778e-02,3.573607886210083961e-03,1.161563862115144730e-02,-1.019844040274620056e-01,-1.829656511545181274e-01,-3.877671808004379272e-02,2.104984074831008911e-01,-6.004735454916954041e-02,-2.394930571317672729e-01,-7.704841345548629761e-02,4.875639826059341431e-02,9.598337113857269287e-02,3.032448887825012207e-02,-4.895291849970817566e-02,-1.965317688882350922e-02,2.355123162269592285e-01,-1.755230575799942017e-01,1.125096827745437622e-01,6.561784446239471436e-02,-6.283525377511978149e-02,-6.864267587661743164e-02,-1.135657876729965210e-01,3.004565089941024780e-02,-4.045616835355758667e-02,7.673203200101852417e-02,-2.792032808065414429e-02,-1.365593913942575455e-02,-9.222634136676788330e-02,-9.603558480739593506e-02,1.844886541366577148e-01,4.544125497341156006e-02,-1.227829977869987488e-01,-9.001245722174644470e-03,-6.133604794740676880e-02,1.015369370579719543e-01,-4.481016192585229874e-03,8.731051534414291382e-02,4.554088786244392395e-02,-4.256892204284667969e-02,1.599273234605789185e-01,-4.041429609060287476e-02,-8.256546407938003540e-02,4.834299907088279724e-02,-1.613739505410194397e-02,6.879918277263641357e-02,9.312935173511505127e-02,1.813442260026931763e-01,-4.963459074497222900e-02,2.458662539720535278e-02,-3.292207419872283936e-02,5.800696462392807007e-02
3.007475100457668304e-02,1.334663331508636475e-01,1.999620720744132996e-02,-8.609510213136672974e-02,1.427231431007385254e-01,5.204740911722183228e-02,-6.640153378248214722e-02,1.102929860353469849e-01,5.359163880348205566e-02,-4.179970547556877136e-02,-7.283700257539749146e-02,-4.270539432764053345e-02,1.095240712165832520e-01,8.842100948095321655e-02,1.011895108968019485e-02,-6.610196083784103394e-02,3.896814212203025818e-02,-6.373699754476547241e-02,8.815073966979980469e-02,-4.599644616246223450e-02,-1.421667635440826416e-02,7.592040300369262695e-02,5.791782587766647339e-02,-5.715356767177581787e-02,2.777750231325626373e-02,-5.015857145190238953e-02,-2.914094924926757812e-02,7.578376680612564087e-03,1.902386359870433807e-02,-7.571223378181457520e-02,8.193641901016235352e-02,-1.736459285020828247e-01,5.187484622001647949e-02,2.240376919507980347e-01,5.870281159877777100e-02,-4.763551801443099976e-02,2.670675329864025116e-02,-2.908044680953025818e-02,-6.612759083509445190e-02,4.093766957521438599e-02,5.078683141618967056e-03,-8.656355203129351139e-04,7.806278020143508911e-02,1.763587258756160736e-02,3.343363991007208824e-03,5.290251970291137695e-02,-9.018244221806526184e-03,5.156335607171058655e-02,-3.739015385508537292e-02,-3.796552494168281555e-02,2.052347809076309204e-01,-9.856836497783660889e-02,-4.636862501502037048e-02,2.877411805093288422e-02,4.386166855692863464e-02,6.838423758745193481e-02,5.145566072314977646e-03,-5.600922927260398865e-02,8.511549793183803558e-03,2.689896337687969208e-02,-6.243884563446044922e-03,-1.232740208506584167e-01,-1.012222189456224442e-02,-4.253943637013435364e-02,1.201946064829826355e-01,-7.926717400550842285e-02,-2.507409080862998962e-02,-7.204554229974746704e-02,1.025497913360595703e-02,-6.453570723533630371e-02,4.277644678950309753e-02,-1.577432826161384583e-02,9.174154698848724365e-02,5.322067439556121826e-02,1.237861625850200653e-02,-7.385524362325668335e-02,5.578416958451271057e-02,-1.820241101086139679e-02,-7.410544902086257935e-02,-6.526637822389602661e-02,-5.471197515726089478e-02,2.363236434757709503e-02,-1.484467387199401855e-01,-7.589313387870788574e-02,2.160250209271907806e-02,5.616465210914611816e-02,-2.552331425249576569e-03,-1.150416880846023560e-01,1.729829423129558563e-02,-7.354248315095901489e-02,1.482650078833103180e-02,4.512165486812591553e-02,-2.184077538549900055e-02,-5.744868889451026917e-03,1.276043802499771118e-01,-8.325243741273880005e-02,2.695654891431331635e-02,-3.052512649446725845e-03,1.931173913180828094e-02,-1.370661556720733643e-01,-3.213968127965927124e-02,-2.229645103216171265e-01,3.935878723859786987e-02,-3.048358112573623657e-02,4.918450486002257094e-06,-1.068396717309951782e-01,1.229259595274925232e-01,4.194196313619613647e-02,9.695203974843025208e-03,1.090948283672332764e-01,7.594893127679824829e-02,3.366521000862121582e-02,-4.700304567813873291e-02,-1.957794278860092163e-01,1.047248989343643188e-01,-3.483423590660095215e-02,7.066616415977478027e-02,4.091043025255203247e-02,3.753262385725975037e-02,1.719416119158267975e-02,1.380636077374219894e-02,-4.502993449568748474e-02,6.480626016855239868e-02,-5.375533550977706909e-02,2.487328462302684784e-02,1.080314218997955322e-01,-7.259194552898406982e-02,-7.317667454481124878e-02
-1.727934740483760834e-02,1.511158607900142670e-02,-1.855050586163997650e-02,3.346091881394386292e-02,-5.591786652803421021e-02,-1.066050678491592407e-01,8.988714963197708130e-02,6.922595202922821045e-02,1.012935414910316467e-01,-2.569763362407684326e-02,-5.703855678439140320e-02,-7.756853103637695312e-02,-7.019540667533874512e-02,1.290945112705230713e-01,-3.409788012504577637e-02,2.045753002166748047e-01,1.414249688386917114e-01,7.373610511422157288e-03,3.300836309790611267e-02,-1.828398704528808594e-01,-6.764560937881469727e-02,1.254269294440746307e-02,1.097127348184585571e-01,1.751112937927246094e-02,-6.500286608934402466e-02,-1.740261167287826538e-01,1.286548376083374023e-01,2.792416699230670929e-02,-6.592406332492828369e-02,1.374366581439971924e-01,2.744483388960361481e-02,-1.567051261663436890e-01,1.204134300351142883e-01,4.193332046270370483e-02,-1.314981281757354736e-01,3.751980513334274292e-02,3.173723071813583374e-02,-4.227475821971893311e-02,5.129915662109851837e-03,-1.059732213616371155e-01,9.571233391761779785e-02,-1.493703275918960571e-01,1.583499647676944733e-02,1.323990523815155029e-01,-6.296017020940780640e-02,-3.967485204339027405e-02,-2.126317005604505539e-03,8.215609192848205566e-02,5.092860385775566101e-02,5.723558366298675537e-02,2.234145300462841988e-03,-3.775894269347190857e-02,1.292036473751068115e-01,2.646911889314651489e-02,-1.272825449705123901e-01,3.412801772356033325e-02,1.305161863565444946e-01,-1.275531649589538574e-01,-5.394009873270988464e-02,-2.495003491640090942e-01,1.531723290681838989e-01,-7.695473730564117432e-02,-1.623575240373611450e-01,-8.048799633979797363e-02,9.372038394212722778e-02,-1.429407745599746704e-01,1.065961178392171860e-02,3.227286040782928467e-02,-1.013571396470069885e-01,6.092921644449234009e-02,-2.072767540812492371e-02,-1.394558046013116837e-02,8.243642747402191162e-02,6.697955727577209473e-02,-2.688838168978691101e-02,-1.349253356456756592e-01,2.218775600194931030e-01,8.882793597877025604e-03,-1.507329475134611130e-02,-6.968041509389877319e-02,1.660211011767387390e-02,8.073823153972625732e-02,-1.085972413420677185e-01,8.568366616964340210e-02,-8.055920153856277466e-02,-1.271896660327911377e-01,-1.554590314626693726e-01,1.843348890542984009e-01,-3.030606731772422791e-02,6.253635883331298828e-02,8.459175378084182739e-02,-1.418701708316802979e-01,4.260037839412689209e-02,-1.385299265384674072e-01,1.622659415006637573e-01,-8.257316052913665771e-02,-2.886046096682548523e-02,2.393488883972167969e-01,7.888043671846389771e-02,-1.715563535690307617e-01,-7.685236632823944092e-02,7.571981102228164673e-02,9.411615133285522461e-02,-5.849246308207511902e-02,1.962534897029399872e-02,1.070489883422851562e-01,-2.773914933204650879e-01,3.014709427952766418e-02,-5.859947577118873596e-02,-6.815058737993240356e-02,-5.313564091920852661e-02,4.885912407189607620e-03,1.020847186446189880e-01,2.299028448760509491e-02,2.824246138334274292e-02,8.014509826898574829e-02,-4.164857417345046997e-02,-4.246514290571212769e-03,4.033071920275688171e-03,-2.255547493696212769e-01,2.021272480487823486e-01,-4.184872657060623169e-02,7.505601271986961365e-03,-1.479953248053789139e-02,1.258756369352340698e-01,-3.178810700774192810e-02,1.923946081660687923e-03,6.732346117496490479e-02
1.518143154680728912e-02,3.891111537814140320e-02,6.187082082033157349e-02,-2.803440392017364502e-02,-8.813322335481643677e-02,-1.100953966379165649e-01,-8.532894775271415710e-03,-5.807375162839889526e-02,-6.534818559885025024e-02,7.135848701000213623e-02,7.648044847883284092e-04,-1.111792027950286865e-01,1.474299933761358261e-02,3.737979382276535034e-02,-3.579137101769447327e-02,-5.080183967947959900e-02,-2.361013293266296387e-01,5.824004113674163818e-02,9.165273606777191162e-02,-7.861494272947311401e-02,9.141646325588226318e-02,-5.881302058696746826e-02,-4.669779445976018906e-03,-4.706085473299026489e-02,1.270233094692230225e-01,-1.101743988692760468e-02,8.016875945031642914e-03,1.127884723246097565e-02,1.914542727172374725e-02,4.459182918071746826e-02,5.417207255959510803e-02,4.302166029810905457e-02,-9.045392274856567383e-02,-2.022980749607086182e-01,3.550728037953376770e-02,-3.815691173076629639e-02,1.083686277270317078e-01,1.286660041660070419e-02,-3.610317409038543701e-02,2.875759452581405640e-02,1.676893234252929688e-01,-1.071925833821296692e-01,1.339895278215408325e-01,-2.981865406036376953e-02,3.155634552240371704e-02,-3.131964802742004395e-02,-1.362429186701774597e-02,3.511667996644973755e-02,-4.269202798604965210e-02,1.501926034688949585e-01,-1.084403842687606812e-01,-6.249263882637023926e-02,-1.083658859133720398e-01,6.755988299846649170e-02,-1.166863963007926941e-01,-9.521856904029846191e-02,3.870458155870437622e-02,-5.611835047602653503e-02,1.080035511404275894e-02,3.084723278880119324e-02,-1.353167649358510971e-02,-1.931381039321422577e-02,-7.935775816440582275e-02,3.230898380279541016e-01,8.096877485513687134e-02,-7.620346546173095703e-02,6.209181249141693115e-02,1.286437385715544224e-03,1.405359357595443726e-01,1.960542052984237671e-01,-1.085176169872283936e-01,-2.622656524181365967e-02,-7.421661168336868286e-02,-4.568475484848022461e-02,-1.462575942277908325e-01,-4.810829460620880127e-02,-2.671153051778674126e-03,6.593007594347000122e-02,-2.154428511857986450e-02,-1.052824221551418304e-02,4.010256752371788025e-02,-1.940329559147357941e-02,1.084264218807220459e-01,6.571675091981887817e-02,-7.783238589763641357e-02,7.041702419519424438e-02,5.214081611484289169e-04,5.943045485764741898e-03,1.514985226094722748e-02,4.358806108939461410e-06,3.342707827687263489e-02,-1.495145168155431747e-02,-1.646843850612640381e-01,-1.966392397880554199e-01,4.837073013186454773e-02,1.738407462835311890e-01,1.190420687198638916e-01,-4.069969430565834045e-02,-1.814624294638633728e-02,1.269115600734949112e-02,-2.319412538781762123e-03,2.080377638339996338e-01,-4.548652842640876770e-02,-7.477728277444839478e-02,-2.508644573390483856e-02,-9.767974726855754852e-03,8.288580179214477539e-02,2.329621650278568268e-02,9.822242707014083862e-02,-1.601685024797916412e-02,1.566858775913715363e-02,-9.892875328660011292e-03,1.820827275514602661e-01,6.091263890266418457e-02,2.457531541585922241e-02,-4.904318228363990784e-02,1.842432469129562378e-01,3.702374920248985291e-02,4.227874800562858582e-02,4.640887677669525146e-02,1.898773312568664551e-01,1.606677323579788208e-01,-4.793299734592437744e-02,6.414069235324859619e-02,6.882450729608535767e-02,2.523706853389739990e-02,5.199844017624855042e-02,6.187391653656959534e-02
2.376829460263252258e-02,8.362032473087310791e-03,-9.930535405874252319e-02,-1.876416206359863281e-01,-1.188786029815673828e-01,8.016484230756759644e-02,-1.249081939458847046e-01,-3.365575894713401794e-02,7.199069857597351074e-02,-9.276189655065536499e-02,5.335033684968948364e-02,-7.609964907169342041e-02,-8.194550126791000366e-02,-6.421831250190734863e-02,6.901763379573822021e-02,6.286390125751495361e-02,6.005341559648513794e-02,9.437090158462524414e-02,-2.010028660297393799e-01,2.680077590048313141e-02,2.055084705352783203e-01,1.434883028268814087e-01,1.803209446370601654e-02,2.906559966504573822e-02,-4.062634333968162537e-02,-7.172417640686035156e-02,9.779606014490127563e-03,1.470508873462677002e-01,9.093756228685379028e-02,9.625805169343948364e-02,-2.135260775685310364e-02,7.400625944137573242e-02,-3.627061098814010620e-02,-5.704429000616073608e-03,-1.405874341726303101e-01,-1.454551070928573608e-01,-4.202401265501976013e-03,-1.432051695883274078e-02,3.695062175393104553e-02,-1.678153872489929199e-01,1.101924013346433640e-02,5.172879993915557861e-02,1.211014315485954285e-01,-1.087284162640571594e-01,-4.810514301061630249e-02,1.336769312620162964e-01,8.833395689725875854e-02,5.918770655989646912e-02,3.525036573410034180e-02,-1.932698339223861694e-01,8.425922691822052002e-02,-7.535029202699661255e-02,4.826341941952705383e-02,7.746704667806625366e-02,7.005785126239061356e-03,9.898915886878967285e-02,-2.405158802866935730e-02,-3.054720535874366760e-02,-8.625002950429916382e-02,-6.856090575456619263e-02,-1.523107849061489105e-02,-3.155461326241493225e-02,3.135458752512931824e-02,-4.090804234147071838e-02,-1.504687499254941940e-02,1.112732589244842529e-01,-3.889911249279975891e-02,2.612620033323764801e-02,5.804771557450294495e-02,9.546406567096710205e-02,-1.130893751978874207e-01,-9.263429045677185059e-02,5.669482052326202393e-02,-1.014786437153816223e-01,-2.288678586483001709e-01,-2.599752508103847504e-03,6.852737814188003540e-02,9.617838263511657715e-02,9.397280961275100708e-02,-1.162624582648277283e-01,1.623486131429672241e-01,-8.776988089084625244e-02,-6.197195127606391907e-02,-1.394966989755630493e-01,-3.988696727901697159e-03,5.680606234818696976e-03,-1.212355718016624451e-01,-6.981623172760009766e-02,9.912008792161941528e-02,-6.212960556149482727e-02,-2.595537528395652771e-02,-2.393792942166328430e-02,2.093103379011154175e-01,3.315386176109313965e-02,1.305659413337707520e-01,-1.007816940546035767e-01,-2.037976495921611786e-02,-1.395061239600181580e-02,6.820514053106307983e-02,-1.527642458677291870e-01,-1.071066781878471375e-02,-1.271117031574249268e-01,1.703495159745216370e-03,1.476883441209793091e-01,-1.830488294363021851e-01,7.342845201492309570e-02,2.420510165393352509e-02,6.963249295949935913e-02,4.492291714996099472e-03,1.598649471998214722e-01,-1.128461584448814392e-01,-1.730459928512573242e-02,-1.988491117954254150e-01,-5.644185841083526611e-02,-7.465957850217819214e-02,3.999961912631988525e-02,-6.716640293598175049e-02,1.252112239599227905e-01,-9.705956093966960907e-03,-4.760140553116798401e-02,-2.295638471841812134e-01,1.167270094156265259e-01,7.745449896901845932e-03,-6.994019448757171631e-02,-1.248011961579322815e-01,1.576801687479019165e-01,-4.097688570618629456e-02,8.614482730627059937e-02
1.850860752165317535e-02,-1.482111215591430664e-01,4.463756922632455826e-03,-8.444701135158538818e-02,1.574221416376531124e-03,5.934818461537361145e-02,-8.264597505331039429e-02,-3.813690319657325745e-02,-5.096196662634611130e-03,1.219133287668228149e-01,-1.036634817719459534e-01,1.813657581806182861e-02,-2.872528322041034698e-02,1.795787066221237183e-01,1.625893712043762207e-01,-7.105992734432220459e-02,8.141393214464187622e-02,6.246414501219987869e-03,-1.131671294569969177e-01,2.265849411487579346e-01,-7.177665084600448608e-02,1.048031449317932129e-01,-1.045789420604705811e-01,-7.130674272775650024e-02,-1.945991218090057373e-01,3.416568413376808167e-02,8.781266957521438599e-02,4.711174219846725464e-02,-1.656607091426849365e-01,1.952296644449234009e-01,3.997421264648437500e-02,3.842785954475402832e-02,-3.916120901703834534e-02,-1.503121405839920044e-01,-1.911036204546689987e-03,1.640144288539886475e-01,-1.243013963103294373e-01,1.665233820676803589e-02,-1.925052516162395477e-02,1.274482160806655884e-01,9.731428325176239014e-02,7.553477585315704346e-02,-7.448524236679077148e-02,1.907127946615219116e-01,1.749392896890640259e-01,-8.832079172134399414e-02,-8.434049040079116821e-02,-1.263205558061599731e-01,-6.103856489062309265e-02,1.270972937345504761e-01,-1.225055530667304993e-01,7.511220872402191162e-02,3.265450149774551392e-02,-1.536318361759185791e-01,8.437314629554748535e-02,1.119957342743873596e-01,-4.210091754794120789e-02,-2.926213899627327919e-03,8.813291043043136597e-02,2.672499604523181915e-02,-5.960237979888916016e-02,-1.266660988330841064e-01,-1.683708578348159790e-01,-2.989512123167514801e-02,1.035368144512176514e-01,5.762345716357231140e-02,9.061150997877120972e-02,2.227278240025043488e-02,1.882551051676273346e-02,8.950044214725494385e-02,5.245211068540811539e-03,4.103663563728332520e-02,1.747583001852035522e-01,-5.295350775122642517e-02,3.810624033212661743e-02,6.724172830581665039e-02,-4.964938852936029434e-03,4.891353473067283630e-02,1.113286986947059631e-01,4.930657893419265747e-02,-3.128814324736595154e-02,-1.757960170507431030e-01,-6.459978409111499786e-03,-5.879344791173934937e-02,-6.652753055095672607e-02,6.665136665105819702e-02,1.060223430395126343e-01,5.044522136449813843e-02,-8.409607410430908203e-02,2.049288004636764526e-01,1.030667349696159363e-01,-1.632679626345634460e-02,8.420628309249877930e-02,7.964862510561943054e-03,3.590873628854751587e-02,8.961456269025802612e-02,6.240909919142723083e-02,8.177031576633453369e-02,3.022567555308341980e-02,-2.381556034088134766e-01,4.357312340289354324e-03,-4.755293950438499451e-02,2.530280351638793945e-01,1.037230268120765686e-01,-1.741801649332046509e-01,-1.337517611682415009e-02,-2.210465371608734131e-01,-2.837773179635405540e-03,1.098873168230056763e-01,7.270076870918273926e-02,4.406791925430297852e-02,2.510999143123626709e-02,-7.570056617259979248e-02,5.975520983338356018e-02,-1.064431201666593552e-02,1.037946045398712158e-01,1.168934106826782227e-01,7.920343428850173950e-03,1.080490425229072571e-01,2.784364670515060425e-02,1.903472989797592163e-01,-1.338004507124423981e-02,-3.152027202304452658e-04,-1.720568537712097168e-01,5.376799777150154114e-02,7.500735577195882797e-03,-1.764895617961883545e-01,8.997730165719985962e-02
1.293049007654190063e-02,-4.852578043937683105e-02,1.261777281761169434e-01,-1.059960201382637024e-02,2.356635034084320068e-02,-4.000219702720642090e-02,9.445977956056594849e-02,-2.877482473850250244e-01,1.186841279268264771e-01,-1.601620763540267944e-01,-1.076416373252868652e-01,-5.530036240816116333e-02,-1.380101889371871948e-01,1.346537172794342041e-01,-3.725038468837738037e-02,1.502837147563695908e-02,6.603683531284332275e-02,2.009569555521011353e-01,-7.893895357847213745e-02,1.656572706997394562e-02,1.883211918175220490e-02,1.061720475554466248e-01,9.736853837966918945e-02,2.999589778482913971e-04,-1.295845024287700653e-02,5.274930223822593689e-02,-2.058865502476692200e-02,-5.691501125693321228e-02,-2.461032941937446594e-02,-3.266404941678047180e-02,4.621858149766921997e-02,1.236341372132301331e-01,-1.315015256404876709e-01,-5.862557142972946167e-02,-2.694720029830932617e-01,1.902448572218418121e-02,-2.307575382292270660e-02,1.317289173603057861e-01,-3.763971850275993347e-02,6.871096324175596237e-03,3.485869243741035461e-02,-8.493742346763610840e-02,1.637845784425735474e-01,-8.073015511035919189e-02,8.530399948358535767e-02,4.094138741493225098e-02,1.095942482352256775e-01,1.123764738440513611e-02,4.158845171332359314e-02,5.466057732701301575e-02,-1.068357601761817932e-01,-2.646475844085216522e-02,-2.975118346512317657e-02,-6.619832664728164673e-02,1.338523626327514648e-01,1.087555661797523499e-01,-1.428554356098175049e-01,-1.241748183965682983e-01,1.046913340687751770e-01,2.892100997269153595e-02,-1.359822694212198257e-03,3.331904485821723938e-02,3.382499888539314270e-02,-3.589632362127304077e-02,-7.244472857564687729e-03,1.023838669061660767e-01,5.692894384264945984e-02,2.665656618773937225e-02,1.474674493074417114e-01,-3.155964314937591553e-01,2.443903237581253052e-01,-1.119185388088226318e-01,1.531656682491302490e-01,-1.170889590866863728e-03,5.908817052841186523e-02,1.070978268980979919e-01,1.234681308269500732e-01,1.579563319683074951e-01,-2.754377573728561401e-02,-6.577350199222564697e-02,-6.991355866193771362e-02,-6.739510595798492432e-02,6.487074424512684345e-04,5.872859805822372437e-02,-1.054840255528688431e-02,7.635340839624404907e-02,-6.078190729022026062e-02,1.877659372985363007e-02,4.615892842411994934e-02,1.241721492260694504e-02,7.371742278337478638e-02,2.098158895969390869e-01,8.800485730171203613e-02,1.003767922520637512e-02,-1.061663217842578888e-02,9.887220710515975952e-02,-1.778021752834320068e-01,-1.870880275964736938e-02,1.243093609809875488e-01,5.952173471450805664e-02,-2.966987267427612096e-05,7.778593897819519043e-02,2.932999469339847565e-02,5.957256257534027100e-02,-1.545735895633697510e-01,-1.428679674863815308e-01,2.396694570779800415e-02,-1.646511703729629517e-01,5.334458872675895691e-02,-1.765862703323364258e-01,7.862825691699981689e-02,5.804217979311943054e-02,-1.636643856763839722e-01,1.835359930992126465e-01,-4.290259629487991333e-02,5.366645380854606628e-02,2.251894176006317139e-01,3.937916085124015808e-02,-7.707814872264862061e-02,-1.775638200342655182e-02,1.005207821726799011e-01,-7.394556701183319092e-02,-1.645477712154388428e-01,-1.298305299133062363e-02,-5.879996344447135925e-02,5.540007725358009338e-02,9.864421933889389038e-02,-3.754594177007675171e-02
-6.702160090208053589e-02,3.250155597925186157e-03,2.623644284904003143e-02,1.008566319942474365e-01,-2.606526762247085571e-02,6.349619477987289429e-02,-5.554677173495292664e-02,3.606669232249259949e-02,-1.576709151268005371e-01,-2.075068205595016479e-01,1.331233531236648560e-01,9.665655344724655151e-02,-5.347392335534095764e-02,9.184853173792362213e-03,-7.856921851634979248e-02,2.154153957962989807e-02,-4.941067844629287720e-02,2.289016395807266235e-01,-7.275155931711196899e-02,4.342883359640836716e-03,-6.422939151525497437e-02,8.141108602285385132e-02,-1.125699505209922791e-01,-4.105202853679656982e-02,-1.187617257237434387e-01,-1.579202525317668915e-02,-1.142048463225364685e-02,-8.885773271322250366e-02,-4.585285857319831848e-02,-7.276451587677001953e-02,1.106563210487365723e-01,-4.255814477801322937e-02,-4.442491382360458374e-02,-2.199900895357131958e-02,2.102483958005905151e-01,1.294763833284378052e-01,1.184963434934616089e-01,4.543856158852577209e-02,-1.171692982316017151e-01,-1.663469970226287842e-01,-8.605594187974929810e-02,1.232190728187561035e-01,6.877624243497848511e-02,9.821888804435729980e-02,4.179820045828819275e-02,-6.189484894275665283e-02,8.327192813158035278e-02,1.180375590920448303e-01,2.872555702924728394e-02,-1.626147329807281494e-01,8.788762241601943970e-02,-1.087618768215179443e-01,-1.965691708028316498e-02,8.670508116483688354e-02,3.615817055106163025e-02,-1.774925924837589264e-02,7.138969749212265015e-02,-1.000229734927415848e-02,1.783749461174011230e-01,1.787897385656833649e-02,1.456925719976425171e-01,-2.259150706231594086e-02,1.416923999786376953e-01,1.744101792573928833e-01,-1.724722832441329956e-01,-1.792111545801162720e-01,3.046322427690029144e-02,3.151760622859001160e-02,6.649613380432128906e-02,7.889061421155929565e-02,-1.010557115077972412e-01,8.913104236125946045e-02,-1.336095631122589111e-01,-3.487301059067249298e-03,1.252698451280593872e-01,8.125876775011420250e-04,-2.588742785155773163e-02,-6.331147253513336182e-02,9.220333397388458252e-02,-8.612466603517532349e-02,-4.793763160705566406e-02,-1.193218119442462921e-02,-3.953000009059906006e-01,-2.438525855541229248e-01,3.570901975035667419e-02,-4.760891199111938477e-02,-1.189674362540245056e-01,4.141174629330635071e-02,-9.393911063671112061e-02,-2.071686089038848877e-02,-5.845341086387634277e-02,1.759593784809112549e-01,-2.522788010537624359e-02,5.855180323123931885e-02,-9.853250533342361450e-02,-1.156803146004676819e-01,-4.064169526100158691e-02,2.262551486492156982e-01,-2.081111967563629150e-01,-1.437184363603591919e-01,-5.424324423074722290e-02,3.574776463210582733e-03,-7.179205864667892456e-02,-8.508438616991043091e-02,-1.212993338704109192e-01,2.131529338657855988e-02,1.046317350119352341e-02,2.627434441819787025e-03,4.831616580486297607e-02,-3.381153196096420288e-02,-1.415321603417396545e-02,-9.619980119168758392e-03,3.346147481352090836e-03,-1.281475126743316650e-01,-1.085915863513946533e-01,-2.089985460042953491e-02,8.662845008075237274e-03,-6.646583974361419678e-02,3.573878481984138489e-02,1.651996374130249023e-01,2.148093096911907196e-02,-8.059595129452645779e-04,-2.086151763796806335e-02,1.915639191865921021e-01,1.928454190492630005e-01,-1.478177756071090698e-01,-1.173071712255477905e-01,-7.010255753993988037e-02
1.767902635037899017e-02,-4.649294912815093994e-02,2.770757861435413361e-02,-3.610325744375586510e-03,-5.387637019157409668e-02,5.083344504237174988e-02,1.632769256830215454e-01,-3.060628473758697510e-02,1.676924899220466614e-02,-1.404061913490295410e-02,-2.971940673887729645e-02,-1.251196563243865967e-01,6.469062529504299164e-03,-1.252339482307434082e-01,2.419495582580566406e-01,1.515389084815979004e-01,1.251323670148849487e-01,-5.067506060004234314e-02,-6.145486608147621155e-02,-1.677686125040054321e-01,-8.306029438972473145e-02,8.300683647394180298e-02,-7.799881696701049805e-02,2.246580570936203003e-01,5.409276112914085388e-02,-1.196925044059753418e-01,-1.491636335849761963e-01,-2.346179261803627014e-02,-3.263165056705474854e-02,7.284428179264068604e-02,-1.748078316450119019e-01,-8.512359112501144409e-02,2.672548294067382812e-01,9.927169978618621826e-02,-1.154248937964439392e-01,8.875983208417892456e-02,-8.293438702821731567e-02,1.916094869375228882e-01,-2.109108865261077881e-01,1.643259972333908081e-01,1.793113052845001221e-01,-6.199062243103981018e-02,-3.240551799535751343e-02,-8.362896740436553955e-03,1.744439005851745605e-01,1.682671718299388885e-02,-1.558189541101455688e-01,-8.948189020156860352e-02,-1.487844437360763550e-01,-1.689070612192153931e-01,-9.038076549768447876e-02,5.220643058419227600e-02,-1.407516561448574066e-02,-1.325301826000213623e-01,1.637052446603775024e-01,-1.120165660977363586e-01,-1.636934727430343628e-01,1.828956604003906250e-01,1.007215231657028198e-01,2.012693881988525391e-01,-4.786914959549903870e-02,2.533176448196172714e-04,3.127634525299072266e-02,-1.063498854637145996e-01,1.371546685695648193e-01,6.742936372756958008e-02,-1.805337667465209961e-01,3.460328280925750732e-02,-7.424791902303695679e-02,-6.136600859463214874e-03,-4.766212776303291321e-02,1.533783227205276489e-01,1.938092112541198730e-01,4.515416920185089111e-02,-2.341459132730960846e-02,3.869967535138130188e-02,-1.204193010926246643e-01,1.462024450302124023e-01,-1.784398555755615234e-01,-5.435666441917419434e-02,8.389500528573989868e-02,2.397374063730239868e-01,9.763183444738388062e-02,1.701060235500335693e-01,4.820459336042404175e-02,-1.546357274055480957e-01,-1.685762852430343628e-01,-1.444009840488433838e-01,1.151559352874755859e-01,-2.475340813398361206e-01,-3.035676293075084686e-02,-3.513265401124954224e-02,6.467954069375991821e-02,1.008271519094705582e-02,-3.107220679521560669e-02,-2.585685253143310547e-01,8.909318596124649048e-02,-2.011066228151321411e-01,-2.226005196571350098e-01,1.168415024876594543e-01,5.680679902434349060e-02,-8.282903581857681274e-02,-8.917649090290069580e-02,-6.756526976823806763e-02,-4.315427690744400024e-02,5.902573466300964355e-02,1.121752858161926270e-01,1.567978225648403168e-02,-2.091739773750305176e-01,-5.217757448554039001e-02,6.217345967888832092e-02,1.250510364770889282e-01,3.372317254543304443e-01,2.294532805681228638e-01,-1.250582486391067505e-01,8.608775585889816284e-02,-1.500147581100463867e-02,-2.548452652990818024e-02,1.272771656513214111e-01,2.480247244238853455e-02,-1.376491389237344265e-03,3.378993598744273186e-03,7.950212061405181885e-02,-1.210797205567359924e-01,1.979821361601352692e-02,1.127611100673675537e-01,-2.996919304132461548e-02,1.059888973832130432e-01
9.933258593082427979e-02,5.112795904278755188e-02,3.888132423162460327e-02,8.768962696194648743e-03,-1.764532923698425293e-01,-9.256298840045928955e-02,1.312565803527832031e-01,-2.555078081786632538e-02,-3.411798551678657532e-02,1.571177840232849121e-01,-7.655855268239974976e-02,-2.426016889512538910e-02,1.214917749166488647e-01,-1.886777728796005249e-01,6.118049100041389465e-02,-1.305887550115585327e-01,-4.870422184467315674e-03,-1.125615388154983521e-01,5.140336230397224426e-02,1.044061258435249329e-01,4.358798731118440628e-03,1.573446206748485565e-02,-1.066494062542915344e-01,-8.117337711155414581e-03,-1.949255019426345825e-01,-9.499772451817989349e-03,1.177028119564056396e-01,5.634401738643646240e-02,6.319268047809600830e-02,1.066704397089779377e-03,7.153185550123453140e-03,7.945762015879154205e-03,2.618215978145599365e-01,-9.187075495719909668e-02,4.361915215849876404e-02,-1.076254099607467651e-01,-9.258979558944702148e-02,1.050500273704528809e-01,7.389328628778457642e-02,-7.325779180973768234e-03,-5.570706352591514587e-02,6.328262388706207275e-02,1.225081011652946472e-01,-8.396227844059467316e-03,1.142800971865653992e-01,2.201566658914089203e-02,7.373024523258209229e-02,4.282883554697036743e-02,1.111164763569831848e-01,1.150243654847145081e-01,-9.024793282151222229e-03,-5.658776313066482544e-02,1.523185670375823975e-01,-6.812842935323715210e-02,-1.161094009876251221e-01,-3.917560353875160217e-02,-4.907210357487201691e-03,-2.851888909935951233e-02,-1.444407552480697632e-01,-3.641636669635772705e-02,-6.162552163004875183e-02,-7.624252699315547943e-03,2.803466916084289551e-01,9.752315282821655273e-02,5.952189862728118896e-02,-7.453604787588119507e-02,-2.702286839485168457e-01,-8.010315150022506714e-02,1.458052545785903931e-01,-1.149143278598785400e-01,4.292707890272140503e-02,-2.275190129876136780e-02,-1.466224808245897293e-02,-7.437770813703536987e-02,-1.011469215154647827e-01,2.022559568285942078e-02,1.590155363082885742e-01,1.876545399427413940e-01,8.615881204605102539e-02,-1.712611317634582520e-02,1.708826571702957153e-01,1.158820688724517822e-01,-2.064245790243148804e-01,3.471764549612998962e-02,-1.414730697870254517e-01,1.389977335929870605e-01,-5.481321364641189575e-02,3.435457125306129456e-02,-6.377935409545898438e-02,6.016078591346740723e-02,9.854014962911605835e-02,6.756156682968139648e-02,-1.375630497932434082e-01,1.546215564012527466e-01,5.248499661684036255e-02,6.337912380695343018e-02,1.362857371568679810e-01,-1.694776676595211029e-02,-4.776423051953315735e-02,3.984884172677993774e-02,1.020102202892303467e-02,-1.325549483299255371e-01,2.711032144725322723e-02,6.599617004394531250e-02,-1.931082829833030701e-02,2.357252985239028931e-01,1.007885858416557312e-02,-6.981757283210754395e-02,1.125441305339336395e-02,-7.421597838401794434e-02,7.712567690759897232e-03,1.417406350374221802e-01,-9.864920377731323242e-02,8.545163273811340332e-02,1.549584865570068359e-01,-1.038982868194580078e-01,-1.912605576217174530e-02,-3.083994612097740173e-02,-1.080281212925910950e-01,4.765345156192779541e-02,-4.484771192073822021e-02,8.277761191129684448e-02,-2.227257564663887024e-02,1.234295740723609924e-01,2.495719045400619507e-01,3.797683119773864746e-02,-4.813141003251075745e-02,8.022524416446685791e-02
6.037574633955955505e-02,-1.703103631734848022e-02,-3.969248756766319275e-02,-8.200935274362564087e-02,1.296107321977615356e-01,3.253888338804244995e-02,-9.521315246820449829e-02,4.913240298628807068e-02,2.691038826014846563e-04,7.675387710332870483e-02,-8.319608122110366821e-02,-4.358255490660667419e-02,-4.219263792037963867e-02,9.851570241153240204e-03,-4.329526796936988831e-02,-6.449033319950103760e-02,8.743748068809509277e-02,-8.279460668563842773e-02,1.553889596834778786e-03,-4.902590066194534302e-03,9.656418114900588989e-02,-2.330636233091354370e-01,-1.250875741243362427e-02,8.231010288000106812e-03,2.893548086285591125e-02,1.250213682651519775e-01,-5.598367005586624146e-02,3.570316359400749207e-02,-2.995008043944835663e-02,-7.326890528202056885e-02,2.274094521999359131e-02,-2.713797800242900848e-02,1.167836226522922516e-02,1.717032492160797119e-01,2.438679188489913940e-01,1.628686934709548950e-01,1.543939411640167236e-01,1.363090239465236664e-02,1.016326472163200378e-01,2.243440598249435425e-02,4.343559220433235168e-02,-5.645024031400680542e-02,2.042893171310424805e-01,8.700244873762130737e-02,-1.582844108343124390e-01,-2.901765052229166031e-03,1.177428588271141052e-01,5.996152758598327637e-02,6.291803717613220215e-02,-1.121459677815437317e-01,-1.155090034008026123e-01,8.391311764717102051e-02,7.998650521039962769e-02,-9.846992790699005127e-02,1.997007429599761963e-01,-9.147892147302627563e-02,-4.806006699800491333e-02,1.348246634006500244e-01,-1.201395317912101746e-01,-1.581537537276744843e-02,-5.125946179032325745e-02,1.688026934862136841e-01,-3.736823424696922302e-02,4.040021449327468872e-02,9.867732971906661987e-02,-5.913707613945007324e-02,4.934944584965705872e-02,1.670517027378082275e-01,1.148992031812667847e-01,-1.065408214926719666e-01,4.691218957304954529e-03,6.171396933495998383e-03,-1.162278577685356140e-01,8.612513542175292969e-02,3.648287057876586914e-02,1.013703718781471252e-01,6.723457574844360352e-02,9.779392182826995850e-02,2.662336453795433044e-02,2.262710630893707275e-01,1.638685911893844604e-01,-1.629330217838287354e-01,1.158610060811042786e-01,5.371595919132232666e-02,1.032092347741127014e-01,2.048024982213973999e-01,1.236269772052764893e-01,-3.434623405337333679e-02,3.128066658973693848e-02,-1.006265133619308472e-01,-1.317228674888610840e-01,7.499777525663375854e-02,-1.940499842166900635e-01,-4.509784653782844543e-02,-9.845112264156341553e-02,1.110662445425987244e-01,-1.163137238472700119e-02,1.518953889608383179e-01,2.052338272333145142e-01,-1.570847481489181519e-01,-2.725268341600894928e-02,1.122282147407531738e-01,-3.813434392213821411e-02,5.151938647031784058e-02,5.275965109467506409e-02,1.626215428113937378e-01,-4.919495433568954468e-02,-1.559453457593917847e-02,-6.314328312873840332e-02,3.702375665307044983e-02,-1.695990860462188721e-01,2.848406881093978882e-02,7.113441079854965210e-02,-6.530026346445083618e-02,-2.119691297411918640e-02,-2.272609807550907135e-02,-1.775041520595550537e-01,-7.750701159238815308e-02,1.242375224828720093e-01,-4.360033944249153137e-02,5.169111117720603943e-02,1.133825853466987610e-01,1.925007998943328857e-01,1.642570346593856812e-01,-3.904573619365692139e-02,-1.881421357393264771e-02,-7.505274843424558640e-03,6.225325912237167358e-02
1.216473728418350220e-01,-5.110663361847400665e-03,3.482104092836380005e-02,2.385812252759933472e-01,7.656974345445632935e-02,-3.398545458912849426e-02,6.904464215040206909e-02,5.745922774076461792e-02,-8.913839608430862427e-02,-7.292666286230087280e-02,4.053186997771263123e-02,6.793404370546340942e-02,2.758037485182285309e-02,1.609512045979499817e-02,-1.118991225957870483e-01,-2.831380628049373627e-02,-6.239183619618415833e-02,2.375619560480117798e-01,1.169354394078254700e-01,1.997587271034717560e-02,1.521218568086624146e-01,-2.118583582341670990e-02,-9.187439084053039551e-02,3.711103647947311401e-02,-1.810604706406593323e-02,-1.908259242773056030e-01,-9.078572690486907959e-02,1.567818969488143921e-01,-1.784861460328102112e-02,-1.905424892902374268e-02,3.733529150485992432e-02,-4.040180519223213196e-02,3.081633895635604858e-02,2.139792889356613159e-01,1.115965396165847778e-01,4.303634166717529297e-02,-6.550188176333904266e-03,5.757540836930274963e-02,-3.769756481051445007e-02,-2.655939664691686630e-03,-4.040100052952766418e-02,-4.589366540312767029e-02,-8.648600429296493530e-02,1.437948495149612427e-01,-1.060554012656211853e-02,1.075650975108146667e-01,5.018403753638267517e-02,-3.582378476858139038e-02,-4.855237156152725220e-02,-3.375520557165145874e-02,1.338588893413543701e-01,1.248343847692012787e-02,-6.108131259679794312e-02,-4.155092686414718628e-02,-1.338834911584854126e-01,-8.624234050512313843e-02,-4.475208744406700134e-02,-9.281490743160247803e-02,1.162009313702583313e-02,3.683551028370857239e-02,-9.516716748476028442e-02,-1.852774247527122498e-02,-1.135875433683395386e-01,-1.009238809347152710e-01,-7.788736373186111450e-02,1.481635123491287231e-02,-1.038416475057601929e-01,5.449521541595458984e-02,-5.947552155703306198e-03,1.087860688567161560e-01,4.925560951232910156e-02,6.445514503866434097e-03,6.524203717708587646e-02,-3.436426445841789246e-02,6.076677888631820679e-02,-1.035190597176551819e-01,-1.233724411576986313e-02,2.430654130876064301e-03,-4.019657522439956665e-02,1.894875802099704742e-02,2.837775088846683502e-02,1.417875140905380249e-01,2.685119025409221649e-02,5.865370854735374451e-02,-2.191687375307083130e-01,-5.899845063686370850e-02,3.983706980943679810e-02,4.255362786352634430e-03,8.052536845207214355e-02,1.302399784326553345e-01,3.806252032518386841e-02,4.317266121506690979e-02,3.183835744857788086e-02,1.024253517389297485e-01,3.780385851860046387e-02,2.007423527538776398e-02,5.852079764008522034e-02,1.548609286546707153e-01,3.748174756765365601e-02,7.802900671958923340e-02,-7.046790421009063721e-02,-5.563511699438095093e-02,-1.695194281637668610e-02,5.966242775321006775e-02,-9.901706874370574951e-02,-4.363933205604553223e-02,-6.550692766904830933e-02,-1.854811906814575195e-01,-1.684601902961730957e-01,5.431329831480979919e-02,8.665827661752700806e-02,4.793191328644752502e-02,4.538270086050033569e-02,-4.593005031347274780e-02,1.950786858797073364e-01,1.573834717273712158e-01,-1.850796341896057129e-01,-2.504551112651824951e-01,4.571051895618438721e-02,7.858695834875106812e-02,1.128110364079475403e-01,3.487486392259597778e-02,1.546208858489990234e-01,-1.662351787090301514e-01,6.743784993886947632e-02,-1.249912604689598083e-01,-3.670315816998481750e-02,3.918072581291198730e-02
4.040380194783210754e-02,4.940470308065414429e-02,-9.842583537101745605e-02,6.266857683658599854e-02,9.540584683418273926e-02,-2.703939937055110931e-02,1.055598929524421692e-01,-2.268886938691139221e-02,5.648792162537574768e-02,2.318947911262512207e-01,5.135994404554367065e-02,1.188564002513885498e-01,-6.162149831652641296e-02,3.888016566634178162e-02,6.215186417102813721e-02,1.738585880957543850e-03,-4.926307499408721924e-02,8.388050645589828491e-02,1.151805371046066284e-02,2.342788875102996826e-02,2.123463153839111328e-02,-1.175440102815628052e-02,8.721470087766647339e-02,-3.430423885583877563e-02,-7.239670306444168091e-02,2.158813178539276123e-01,-3.601715201511979103e-03,5.836784094572067261e-02,-2.039988636970520020e-01,-1.632047258317470551e-02,3.090533241629600525e-02,1.647016033530235291e-02,5.031531676650047302e-02,5.533220828510820866e-04,-2.247486636042594910e-02,-4.675625823438167572e-03,2.755171805620193481e-02,-2.234899997711181641e-02,-1.311556994915008545e-01,-7.165294140577316284e-02,3.646431863307952881e-02,-1.182629689574241638e-01,8.561933785676956177e-02,-1.354164481163024902e-01,9.295008331537246704e-02,-3.602641075849533081e-02,-8.866943418979644775e-02,1.681158840656280518e-01,-1.546798199415206909e-01,9.490817785263061523e-02,-8.845863491296768188e-02,-5.010218918323516846e-02,5.916862189769744873e-02,1.881899088621139526e-01,1.254352480173110962e-01,1.235722750425338745e-01,1.373252570629119873e-01,-5.121420323848724365e-02,-4.616271704435348511e-02,3.541696816682815552e-02,1.448720693588256836e-01,-5.353185161948204041e-02,-7.997341454029083252e-02,-2.313177473843097687e-02,-5.488988012075424194e-02,2.575671114027500153e-02,1.200158372521400452e-01,-1.562726944684982300e-01,-1.003532335162162781e-01,1.115465257316827774e-02,-8.078579604625701904e-02,-7.894755154848098755e-02,4.827349260449409485e-02,-1.293155699968338013e-01,-1.934954710304737091e-02,3.040848299860954285e-02,1.706888899207115173e-02,6.007816269993782043e-02,-4.881224781274795532e-02,9.817759692668914795e-02,2.593247294425964355e-01,1.480852998793125153e-02,-1.465280055999755859e-01,1.371458768844604492e-01,1.656695455312728882e-01,1.234635058790445328e-02,-3.342589735984802246e-02,1.291581522673368454e-02,1.186345219612121582e-01,1.756507530808448792e-02,3.802150115370750427e-02,-5.683244764804840088e-02,-6.202969327569007874e-02,-2.975127426907420158e-03,-1.497848778963088989e-01,1.848456561565399170e-01,4.443424195051193237e-02,9.153195470571517944e-02,6.651477515697479248e-02,-1.097885891795158386e-01,-2.939116023480892181e-02,1.488590091466903687e-01,-7.044248282909393311e-02,1.063771247863769531e-01,2.666592225432395935e-02,-1.339670387096703053e-03,-6.567458808422088623e-02,2.071664668619632721e-02,-1.849589049816131592e-01,1.362291574478149414e-01,1.970248669385910034e-02,6.414962466806173325e-03,1.110042259097099304e-01,-4.889180883765220642e-03,7.052578032016754150e-02,3.311009332537651062e-02,-1.251277327537536621e-01,2.185298204421997070e-01,6.009768322110176086e-02,-3.712773695588111877e-02,5.045429989695549011e-02,-2.314218506217002869e-02,1.044162586331367493e-01,-5.963808298110961914e-02,5.611508339643478394e-02,-5.066837184131145477e-03,-3.326246514916419983e-02,3.704739734530448914e-02
1.521543413400650024e-01,1.334766298532485962e-01,3.022911027073860168e-02,-4.438078030943870544e-02,-8.358325809240341187e-02,3.327558748424053192e-03,-1.079173292964696884e-02,-2.845010533928871155e-02,1.879007816314697266e-01,3.909512609243392944e-02,-1.198176443576812744e-01,-4.353629425168037415e-02,-1.852875947952270508e-02,-3.324722126126289368e-02,4.802403599023818970e-02,4.260935261845588684e-02,-4.751509428024291992e-02,1.279085576534271240e-01,5.270169675350189209e-02,-8.647550642490386963e-02,2.506859600543975830e-02,-2.359054237604141235e-02,-7.893580012023448944e-03,6.154554337263107300e-02,-6.213847175240516663e-02,2.170023322105407715e-01,-8.330076187849044800e-02,1.596676371991634369e-02,-9.032250940799713135e-02,2.417596755549311638e-03,-1.499038636684417725e-01,-3.729373216629028320e-02,-1.087872907519340515e-01,1.154458224773406982e-01,-1.353695522993803024e-02,5.766160786151885986e-02,-4.589466005563735962e-02,-2.103253453969955444e-01,8.611350506544113159e-02,8.046057075262069702e-02,1.399846225976943970e-01,-2.512023784220218658e-02,7.732137292623519897e-02,9.600320458412170410e-02,4.924051836133003235e-02,-1.392427831888198853e-01,2.119768783450126648e-02,-1.479822583496570587e-02,1.789193600416183472e-01,-1.487444341182708740e-01,1.533807069063186646e-01,1.778202022251207381e-05,-1.277561038732528687e-01,1.300518661737442017e-01,-5.845950916409492493e-02,1.005038619041442871e-02,3.763660043478012085e-02,1.549917906522750854e-01,-1.596366427838802338e-02,-1.371688991785049438e-01,9.294489026069641113e-02,3.355541825294494629e-02,1.161586493253707886e-01,7.237919420003890991e-02,8.207623846828937531e-03,-6.361517310142517090e-02,-8.350201696157455444e-02,-7.011611014604568481e-02,-1.545870751142501831e-01,2.332389168441295624e-02,2.270704694092273712e-02,9.366939216852188110e-02,-3.908620402216911316e-02,-2.890151517931371927e-04,7.297494262456893921e-02,-1.125729680061340332e-01,-7.920161634683609009e-02,1.164418458938598633e-01,-1.586287170648574829e-01,1.833071559667587280e-02,1.469539850950241089e-01,-6.667783483862876892e-03,3.817030787467956543e-02,-1.384048014879226685e-01,-1.921320855617523193e-01,3.258524835109710693e-02,1.671109795570373535e-01,-2.548295557498931885e-01,6.545821577310562134e-02,1.053161993622779846e-01,8.186802268028259277e-02,2.676728665828704834e-01,-2.131299301981925964e-02,-2.705416828393936157e-02,4.430389776825904846e-02,1.031983494758605957e-01,-1.748123392462730408e-02,-7.240079343318939209e-02,-1.537094414234161377e-01,1.293974649161100388e-02,-2.530075982213020325e-02,-6.339861452579498291e-02,1.137859076261520386e-01,-5.776672810316085815e-02,-1.473325937986373901e-01,7.833592593669891357e-02,-3.054848127067089081e-02,1.376191973686218262e-01,-3.385014832019805908e-02,9.539901278913021088e-03,-1.118690222501754761e-01,-1.847530156373977661e-02,7.725954055786132812e-02,1.133360490202903748e-01,-7.796739810146391392e-04,-9.266316890716552734e-03,-6.986474990844726562e-02,-3.498793020844459534e-02,5.768409743905067444e-02,-1.395571976900100708e-01,5.741842836141586304e-02,1.009863056242465973e-02,8.712975308299064636e-03,-9.026628732681274414e-02,-2.431651800870895386e-01,-1.374331563711166382e-01,-1.587197333574295044e-01,-1.595825999975204468e-01
1.202294323593378067e-02,-8.054509758949279785e-03,3.203381225466728210e-02,1.234185975044965744e-02,-6.221186369657516479e-02,-2.952713519334793091e-02,-5.519097670912742615e-03,1.688163429498672485e-01,-4.411950707435607910e-02,-1.219083275645971298e-02,4.781902953982353210e-02,-7.494637370109558105e-02,8.879747241735458374e-02,7.500071078538894653e-02,-4.966854676604270935e-02,1.803625933825969696e-02,4.967244714498519897e-02,-2.835945226252079010e-02,-2.682151198387145996e-01,-1.378422975540161133e-01,-9.174145013093948364e-02,4.453727230429649353e-02,1.061185896396636963e-01,1.549469083547592163e-01,1.122461631894111633e-01,-6.654613651335239410e-03,7.733002305030822754e-02,1.451608687639236450e-01,-1.676927506923675537e-01,4.492158815264701843e-02,-4.535508528351783752e-02,-2.214673534035682678e-02,-7.197389006614685059e-02,6.222571711987257004e-03,-1.129662171006202698e-01,-1.597812473773956299e-01,-2.276650629937648773e-02,2.384889172390103340e-03,-5.397475138306617737e-02,9.778404235839843750e-02,-3.130342811346054077e-02,1.344769448041915894e-01,-3.844396770000457764e-02,4.746580496430397034e-02,-2.925159351434558630e-04,1.115657039918005466e-03,3.216098546981811523e-01,-1.743365428410470486e-03,-3.587732315063476562e-01,1.800947450101375580e-02,-1.704113036394119263e-01,-2.080204486846923828e-01,9.223070740699768066e-02,-1.297116279602050781e-01,5.471905693411827087e-03,1.460384130477905273e-01,-2.175322026014328003e-01,1.722730137407779694e-02,-4.273192957043647766e-02,1.096527725458145142e-01,-2.236569859087467194e-02,8.572630584239959717e-02,-2.033295035362243652e-01,5.666650086641311646e-02,-1.657957285642623901e-01,-7.073222100734710693e-02,1.686958223581314087e-01,-6.256476789712905884e-02,-7.281862199306488037e-02,-1.061325594782829285e-01,3.292939811944961548e-02,-7.113608717918395996e-02,-1.400257498025894165e-01,1.025703325867652893e-01,1.710616499185562134e-01,-3.298473358154296875e-02,-1.297366432845592499e-02,-9.872725605964660645e-02,-1.911595463752746582e-02,5.029143765568733215e-03,-6.592050194740295410e-04,-1.222832500934600830e-01,1.157441213726997375e-01,1.267459094524383545e-01,2.383546829223632812e-01,-1.812775135040283203e-01,7.166096568107604980e-02,-2.135309576988220215e-01,2.290986478328704834e-02,1.549278348684310913e-01,-1.248618215322494507e-01,-6.179346144199371338e-02,-1.615293882787227631e-02,1.404750794172286987e-01,1.302757859230041504e-02,1.480555385351181030e-01,8.485283702611923218e-03,1.724121570587158203e-01,-2.093459516763687134e-01,1.935253739356994629e-01,8.535689860582351685e-02,-3.570531308650970459e-02,-9.913542866706848145e-02,7.224693149328231812e-02,-7.983757555484771729e-02,1.417281478643417358e-01,3.881439939141273499e-02,-3.650664165616035461e-02,1.296709179878234863e-01,-8.799917250871658325e-02,-1.981429010629653931e-01,8.955211937427520752e-02,-2.067830264568328857e-01,-6.588122993707656860e-02,5.544519796967506409e-02,8.043398708105087280e-02,-5.719820037484169006e-02,-9.094405919313430786e-02,-7.923672348260879517e-02,-1.634096950292587280e-01,-1.175829470157623291e-01,-1.034312918782234192e-01,8.783414028584957123e-03,-7.317028939723968506e-02,1.454917043447494507e-01,-1.663939356803894043e-01,-4.687418788671493530e-02,1.016590744256973267e-01
1.372185070067644119e-02,1.472229212522506714e-01,-1.365172863006591797e-02,-6.578971445560455322e-02,-6.596262007951736450e-02,1.538377907127141953e-02,5.214123986661434174e-03,3.247218206524848938e-02,-6.192961242049932480e-03,2.801439538598060608e-02,-1.267699599266052246e-01,-1.496741827577352524e-02,1.702050305902957916e-02,-2.678108029067516327e-02,-2.437638491392135620e-01,-1.614507883787155151e-01,-2.628321051597595215e-01,2.164371162652969360e-01,-1.661493033170700073e-01,1.363937109708786011e-01,-1.043804660439491272e-01,-1.105779558420181274e-01,-1.987760365009307861e-01,2.181102894246578217e-02,-4.292587935924530029e-02,5.656345188617706299e-02,3.035049140453338623e-02,7.883120328187942505e-02,1.903886049985885620e-01,5.967678129673004150e-02,2.138567715883255005e-01,2.440258301794528961e-02,6.038916483521461487e-02,1.992967724800109863e-01,-2.735998630523681641e-01,4.913745075464248657e-02,3.758869692683219910e-02,-5.489615257829427719e-03,3.206875324249267578e-01,6.292788684368133545e-02,-1.992052979767322540e-02,3.364326804876327515e-02,5.923550575971603394e-02,5.867360904812812805e-02,8.097502402961254120e-03,1.075477227568626404e-01,-5.395946651697158813e-02,-2.025621086359024048e-01,-2.547902241349220276e-02,-1.077532768249511719e-02,1.019334420561790466e-01,1.569200493395328522e-02,-8.289988338947296143e-02,-3.812845051288604736e-02,-1.394088417291641235e-01,7.664196938276290894e-02,1.325499713420867920e-01,1.416789889335632324e-01,1.012310087680816650e-01,3.966057207435369492e-03,1.188150569796562195e-01,6.866869330406188965e-02,-1.625109016895294189e-01,-1.315244287252426147e-01,-3.874674811959266663e-02,4.296111315488815308e-02,9.363008290529251099e-02,-2.221550643444061279e-01,-2.412401326000690460e-02,1.506809145212173462e-01,1.569800972938537598e-01,-9.371695667505264282e-02,2.835934236645698547e-02,2.803098410367965698e-02,-1.599769890308380127e-01,-2.025713920593261719e-01,3.069185912609100342e-01,2.413325384259223938e-02,4.628546908497810364e-02,-2.129666507244110107e-02,-1.525717973709106445e-01,-1.294570714235305786e-01,2.370049431920051575e-02,-5.101133882999420166e-02,-3.930566087365150452e-02,-7.545909285545349121e-02,-1.155894622206687927e-01,-1.186699345707893372e-01,9.033565968275070190e-02,-9.756131470203399658e-02,-1.072107255458831787e-01,7.046983391046524048e-02,1.751489937305450439e-01,-1.608364731073379517e-01,-3.258728682994842529e-01,4.846584424376487732e-02,1.533253341913223267e-01,4.862280189990997314e-02,-1.900925338268280029e-01,1.655295342206954956e-01,1.079740151762962341e-01,2.200441360473632812e-01,-2.933746278285980225e-01,8.826620876789093018e-03,6.964288651943206787e-02,6.798814982175827026e-02,-4.103076830506324768e-02,9.518977254629135132e-02,2.421676814556121826e-01,5.602195113897323608e-02,1.569470465183258057e-01,6.775965541601181030e-02,-1.460863351821899414e-01,-5.478261411190032959e-02,8.084285072982311249e-03,-1.036955881863832474e-02,2.076091244816780090e-02,-3.315784782171249390e-02,5.234926939010620117e-02,6.377439945936203003e-02,1.585950553417205811e-01,2.233722992241382599e-02,2.559106051921844482e-01,8.074147254228591919e-02,2.217696309089660645e-01,1.990986764430999756e-01,8.550457656383514404e-02,-3.041048161685466766e-02
-3.481503203511238098e-02,-4.360598325729370117e-02,-5.414015799760818481e-02,1.236100420355796814e-01,-8.958369493484497070e-03,-5.360188707709312439e-02,-3.292503207921981812e-02,-7.682240102440118790e-04,-1.458453387022018433e-02,-6.227889563888311386e-03,4.825644567608833313e-02,1.863406039774417877e-02,-6.720627844333648682e-02,6.618838757276535034e-02,-1.678384244441986084e-01,-8.376771211624145508e-02,1.871295087039470673e-02,2.889657765626907349e-02,-4.852994531393051147e-02,1.110351458191871643e-01,-2.462488971650600433e-02,7.704095449298620224e-03,-5.378890037536621094e-02,-4.788913205265998840e-02,5.909585207700729370e-02,6.960129737854003906e-02,-3.921905905008316040e-02,-4.599732533097267151e-02,-1.259577553719282150e-02,2.894414030015468597e-02,-1.366295665502548218e-02,8.595312386751174927e-02,1.184554323554039001e-01,-1.812151446938514709e-02,9.098456054925918579e-02,6.069166120141744614e-03,1.714689843356609344e-02,-2.581635862588882446e-02,6.708018947392702103e-03,1.126669272780418396e-01,-4.782551527023315430e-02,1.565472036600112915e-02,2.060618251562118530e-02,-1.518657896667718887e-02,-1.255772560834884644e-01,-9.378924220800399780e-02,-4.424661025404930115e-02,2.861817367374897003e-02,-2.064763940870761871e-02,-5.593528971076011658e-02,-5.481839552521705627e-02,-3.996827080845832825e-02,1.567369848489761353e-01,4.451172426342964172e-02,-1.025417745113372803e-01,3.044690378010272980e-02,-6.900111585855484009e-02,3.877159580588340759e-02,9.190977364778518677e-02,-3.258418664336204529e-02,-9.021709859371185303e-02,5.256744474172592163e-02,5.835035815834999084e-02,-1.311298273503780365e-02,9.872156381607055664e-02,1.090707909315824509e-02,2.331543155014514923e-02,1.674391888082027435e-02,-3.357864916324615479e-02,-3.512071818113327026e-02,1.124333441257476807e-01,-6.707700341939926147e-02,5.075326561927795410e-02,-1.870425641536712646e-01,1.299708038568496704e-01,5.034916475415229797e-02,1.408659107983112335e-02,3.984421025961637497e-03,3.887040168046951294e-02,8.351576328277587891e-02,-4.764159023761749268e-02,2.570889703929424286e-02,8.671092987060546875e-02,-5.060866475105285645e-02,-8.212930709123611450e-02,-1.046325266361236572e-02,-1.343889441341161728e-02,-4.379821941256523132e-02,3.150270320475101471e-03,-8.091552555561065674e-02,-8.067865669727325439e-02,-7.851725444197654724e-03,1.850169897079467773e-02,-5.522457137703895569e-02,-1.236591562628746033e-01,2.255591936409473419e-02,5.997162312269210815e-02,-5.802555382251739502e-02,-3.098285011947154999e-02,-4.590496420860290527e-02,-2.500416710972785950e-03,-8.871893584728240967e-02,-1.160994097590446472e-01,2.821403788402676582e-03,-1.659832745790481567e-01,-1.272589862346649170e-01,-8.555308729410171509e-02,1.061640828847885132e-01,-2.427757345139980316e-02,-8.602264523506164551e-02,1.048966646194458008e-01,-3.073206357657909393e-02,-9.011642634868621826e-02,-8.048735558986663818e-02,7.451208680868148804e-02,-6.111674755811691284e-02,3.524668887257575989e-02,1.280527412891387939e-01,-2.226543799042701721e-02,6.033920869231224060e-02,-9.518812596797943115e-02,-1.095774397253990173e-01,-4.203334450721740723e-02,-1.189731433987617493e-01,8.582295477390289307e-02,9.622237086296081543e-02,7.870747148990631104e-02,3.888339269906282425e-03
-9.551285207271575928e-02,-2.110365964472293854e-02,1.032261364161968231e-02,-7.983449846506118774e-02,-1.103069186210632324e-01,1.199038252234458923e-01,9.066357463598251343e-02,-1.537278592586517334e-01,8.638931065797805786e-02,-7.779036462306976318e-02,1.936402022838592529e-01,-1.082880273461341858e-01,6.174610555171966553e-02,-1.242215931415557861e-01,-4.992264881730079651e-02,1.150529738515615463e-02,-1.530817430466413498e-02,-7.797880470752716064e-02,2.493973635137081146e-02,4.299559071660041809e-02,2.228866098448634148e-03,5.164469406008720398e-02,-7.594575732946395874e-02,-1.304322108626365662e-02,1.517899483442306519e-01,2.265067584812641144e-02,-6.935231387615203857e-02,7.980263233184814453e-02,-8.187018334865570068e-02,1.104997377842664719e-02,-5.579064786434173584e-02,1.950470358133316040e-02,-9.608791023492813110e-02,5.347374826669692993e-02,-1.154909376055002213e-02,8.516440540552139282e-02,-4.333904385566711426e-02,4.557149112224578857e-02,-3.983061760663986206e-02,4.827187582850456238e-02,3.406631946563720703e-02,-2.730455249547958374e-02,-2.056055516004562378e-02,-1.180472224950790405e-01,2.038773382082581520e-03,2.662285231053829193e-02,-9.754251688718795776e-02,1.076262965798377991e-01,-1.234359666705131531e-01,1.176177710294723511e-01,9.969998896121978760e-02,-3.988533467054367065e-02,-4.264907445758581161e-03,-2.079092711210250854e-02,-3.825757279992103577e-02,-1.454314449802041054e-03,6.785987317562103271e-02,1.913921348750591278e-02,4.655162803828716278e-03,-1.559234969317913055e-02,-3.837297856807708740e-02,-8.301656693220138550e-02,7.846716046333312988e-02,7.792289555072784424e-02,-1.731033250689506531e-02,-1.248770207166671753e-01,-3.643628209829330444e-02,1.281365454196929932e-01,-1.361854672431945801e-01,-1.215454712510108948e-01,1.010298579931259155e-01,3.023258782923221588e-02,8.336107432842254639e-02,1.672276295721530914e-02,-3.797910409048199654e-03,-2.018344588577747345e-02,6.516753882169723511e-02,5.328633263707160950e-02,4.285572469234466553e-02,4.267137125134468079e-02,7.623868528753519058e-03,3.339453041553497314e-02,-3.097247146070003510e-02,-2.400113036856055260e-03,1.387975458055734634e-02,3.060848638415336609e-02,-2.067911624908447266e-02,2.702631056308746338e-02,4.663798958063125610e-02,2.010717522352933884e-03,6.265966594219207764e-02,5.291612818837165833e-02,4.974994063377380371e-02,-1.746122911572456360e-02,1.170387640595436096e-01,6.453353166580200195e-02,9.320919215679168701e-02,2.817866392433643341e-02,7.511346787214279175e-02,9.617301076650619507e-02,-4.454001784324645996e-02,2.420101501047611237e-02,1.086838692426681519e-01,-6.495977193117141724e-02,-2.918325737118721008e-02,6.796502973884344101e-03,9.959154576063156128e-02,-8.640342950820922852e-02,-6.530596315860748291e-02,-2.120782854035496712e-03,1.608892716467380524e-02,-1.229145526885986328e-01,1.261730641126632690e-01,-2.161909043788909912e-01,-2.043382637202739716e-02,-9.948165714740753174e-02,-9.287263453006744385e-02,4.188057407736778259e-02,3.975500538945198059e-02,-2.105591632425785065e-02,1.117823179811239243e-02,2.219976484775543213e-01,1.499742120504379272e-01,4.292844387236982584e-04,3.469470888376235962e-02,1.589465290307998657e-01,9.987159073352813721e-02,6.753200292587280273e-02
-6.829915195703506470e-02,-2.116227746009826660e-01,-2.819898538291454315e-02,9.781529754400253296e-02,-5.618436634540557861e-02,-7.861974299885332584e-04,7.879846729338169098e-03,-6.237334012985229492e-02,-1.131569128483533859e-02,2.953212261199951172e-01,-9.149865806102752686e-02,4.139180108904838562e-02,-4.915109649300575256e-02,-1.451068371534347534e-02,4.591926559805870056e-02,-1.194918602705001831e-01,-4.541335627436637878e-02,6.662394851446151733e-02,5.531249567866325378e-03,7.015234231948852539e-02,1.138619054108858109e-02,8.373099565505981445e-02,1.366988010704517365e-02,-3.084896504878997803e-02,-8.172206580638885498e-02,-4.666538536548614502e-02,-7.121288031339645386e-02,-3.629129379987716675e-02,-8.768605440855026245e-02,1.257573068141937256e-01,-3.621860593557357788e-02,5.943195521831512451e-02,-3.215190768241882324e-02,4.546379670500755310e-02,1.143785100430250168e-02,6.964457780122756958e-02,1.506615281105041504e-01,-1.515116840600967407e-01,1.304441839456558228e-01,4.570781439542770386e-02,-1.878255233168601990e-02,-5.901082977652549744e-02,-3.126092255115509033e-01,-1.241805702447891235e-01,1.545111387968063354e-01,5.165949836373329163e-02,1.316241174936294556e-02,1.397424750030040741e-02,-1.440002173185348511e-01,8.309092372655868530e-03,-2.610200271010398865e-02,1.757083684206008911e-01,1.825925707817077637e-01,1.691618561744689941e-02,2.775995433330535889e-01,-8.192796260118484497e-02,-1.529264897108078003e-01,1.564757376909255981e-01,-2.988024801015853882e-02,-1.527532041072845459e-01,1.548002846539020538e-02,6.587944459170103073e-03,-7.951494306325912476e-02,-7.856504619121551514e-02,6.522940099239349365e-02,-5.214639380574226379e-02,1.990296989679336548e-01,2.383428961038589478e-01,-9.594656527042388916e-03,-9.010799229145050049e-02,3.892052546143531799e-02,4.842416197061538696e-02,1.939908564090728760e-01,-5.283850431442260742e-02,7.689350098371505737e-02,3.873251378536224365e-02,-5.263734236359596252e-02,-2.345610642805695534e-03,5.581212788820266724e-02,-1.398458480834960938e-01,4.168741032481193542e-02,-6.900950800627470016e-03,3.940373659133911133e-02,-9.369141608476638794e-02,8.678485453128814697e-02,1.027878597378730774e-01,1.520963758230209351e-01,1.243545394390821457e-02,-3.843757510185241699e-02,7.755756378173828125e-02,-1.633907854557037354e-01,1.301775276660919189e-01,-1.861271820962429047e-02,4.050744231790304184e-03,9.981370717287063599e-02,1.083069518208503723e-01,-6.416103243827819824e-02,-1.385701000690460205e-01,-1.645975857973098755e-01,-3.887693956494331360e-02,-1.833218783140182495e-01,1.290210988372564316e-03,6.775674968957901001e-02,9.964646399021148682e-02,-2.149065956473350525e-02,2.031098455190658569e-01,2.229244560003280640e-01,-2.038900405168533325e-01,1.709747612476348877e-01,1.347006410360336304e-01,-1.384860090911388397e-02,-3.161635017022490501e-03,1.183028444647789001e-01,-1.098483726382255554e-01,-2.521227858960628510e-02,-2.471021562814712524e-02,8.182017505168914795e-02,1.781325489282608032e-01,-8.685645461082458496e-02,-1.802384108304977417e-01,-5.493865534663200378e-02,-1.612478196620941162e-01,1.093623638153076172e-01,6.696071475744247437e-02,-9.423860348761081696e-03,1.517684012651443481e-02,-8.613167330622673035e-03,1.471025049686431885e-01
-2.247811667621135712e-02,3.334052488207817078e-02,5.396485701203346252e-02,-8.277116715908050537e-02,-5.911315977573394775e-02,-7.753388583660125732e-02,2.183738537132740021e-02,-9.984582662582397461e-02,-1.454485058784484863e-01,1.675337366759777069e-02,4.117319732904434204e-02,-9.899916499853134155e-02,1.175133138895034790e-01,1.651831418275833130e-01,-1.173629239201545715e-01,1.006771773099899292e-01,-7.539379596710205078e-02,6.909709423780441284e-02,1.094642728567123413e-01,-1.459365636110305786e-01,5.929045379161834717e-03,-1.716415137052536011e-01,-4.301586747169494629e-02,1.598841547966003418e-01,-6.670644041150808334e-03,-4.614080488681793213e-02,1.482564061880111694e-01,1.236989814788103104e-02,-6.132154539227485657e-02,-7.165935635566711426e-02,1.281094923615455627e-02,-1.040845513343811035e-01,-2.476178109645843506e-01,1.532805413007736206e-01,-6.261250376701354980e-02,8.128333091735839844e-02,3.613716363906860352e-02,1.061138734221458435e-01,1.162452623248100281e-01,1.045316904783248901e-01,-1.564590334892272949e-01,7.030098885297775269e-02,-1.638138890266418457e-01,2.553603649139404297e-01,-1.671539247035980225e-02,-2.329389452934265137e-01,1.804041862487792969e-01,-4.455760493874549866e-02,-3.480210900306701660e-02,-1.414756476879119873e-01,1.075887903571128845e-01,-1.126391366124153137e-01,-8.691364526748657227e-02,5.171843618154525757e-02,2.782037481665611267e-02,-4.871467500925064087e-02,-2.114593833684921265e-01,2.262610383331775665e-02,6.488446146249771118e-02,-1.474952325224876404e-02,2.198001295328140259e-01,-1.979173123836517334e-01,-1.015377268195152283e-01,5.916361883282661438e-02,3.379361703991889954e-03,2.055930197238922119e-01,-1.847685426473617554e-01,-1.764290928840637207e-01,1.020991951227188110e-01,-3.800188750028610229e-02,1.078078672289848328e-01,-8.442234247922897339e-02,-6.682806462049484253e-02,5.041836574673652649e-02,8.276558667421340942e-02,9.192058816552162170e-03,-1.289826929569244385e-01,2.589853703975677490e-01,-2.063211798667907715e-02,2.120292559266090393e-02,1.896924227476119995e-01,1.101834401488304138e-01,-1.217586696147918701e-01,-1.203318387269973755e-01,-5.987170152366161346e-04,-3.716596588492393494e-02,4.156160727143287659e-02,7.845068722963333130e-02,-4.751272499561309814e-02,-1.314140260219573975e-01,-3.239171206951141357e-02,-2.217244356870651245e-01,7.568642497062683105e-02,-7.201505452394485474e-02,8.754688501358032227e-02,5.623138323426246643e-02,-1.087383478879928589e-01,3.644988313317298889e-02,1.566229313611984253e-01,-1.003401800990104675e-01,-3.656169772148132324e-02,-8.013440296053886414e-03,-8.544673770666122437e-02,1.181307286024093628e-01,-1.078490614891052246e-01,-6.013697758316993713e-02,5.953523516654968262e-02,9.185453504323959351e-02,5.645875632762908936e-02,-1.332723349332809448e-02,-4.062359407544136047e-02,-1.808700114488601685e-01,9.989576786756515503e-02,1.411443948745727539e-01,3.385886922478675842e-02,-3.615831956267356873e-02,-3.794014081358909607e-02,-7.413967046886682510e-03,-2.527183480560779572e-02,-4.675388708710670471e-02,2.395282238721847534e-01,3.253794461488723755e-02,7.607751339673995972e-02,5.862788856029510498e-02,-3.591099008917808533e-02,2.384384348988533020e-02,2.473687939345836639e-02,-8.430626988410949707e-02
3.111985698342323303e-02,6.237583607435226440e-02,5.673072487115859985e-02,-2.250525541603565216e-02,-4.135033488273620605e-02,-4.365836735814809799e-03,-3.778421506285667419e-02,3.941936045885086060e-02,1.698728650808334351e-01,5.855701118707656860e-02,-4.135849419981241226e-03,3.792244568467140198e-02,2.010150998830795288e-02,8.796813338994979858e-02,2.582832872867584229e-01,1.300693750381469727e-01,-1.362918764352798462e-01,1.768065057694911957e-02,6.874958425760269165e-02,-1.329551786184310913e-01,-6.637404114007949829e-02,-1.156563684344291687e-02,-1.624301671981811523e-01,1.723381578922271729e-01,-4.345264658331871033e-02,3.740180283784866333e-02,-2.093084901571273804e-02,-1.446704119443893433e-01,5.966557562351226807e-02,-8.081836998462677002e-02,9.661363065242767334e-02,-3.726236522197723389e-02,-1.048242226243019104e-01,-3.231127187609672546e-02,7.195499539375305176e-02,-1.434252262115478516e-01,-9.069577790796756744e-03,-6.704273074865341187e-02,8.062735199928283691e-02,1.309777945280075073e-01,-1.977385580539703369e-01,-2.108760178089141846e-01,-4.106374457478523254e-02,1.162789091467857361e-01,1.029485985636711121e-01,-1.880319416522979736e-02,-3.245581686496734619e-02,-5.850495025515556335e-02,-5.998899787664413452e-02,1.611183956265449524e-02,6.521071773022413254e-03,2.897767908871173859e-02,1.464110165834426880e-01,-5.104988813400268555e-02,5.798300355672836304e-02,-9.774573892354965210e-02,-3.721669316291809082e-02,3.037518821656703949e-02,5.349218845367431641e-02,1.344846487045288086e-01,4.468464478850364685e-02,4.184530675411224365e-02,7.232523057609796524e-03,1.726301461458206177e-01,1.342587172985076904e-01,-2.084442973136901855e-02,1.378464847803115845e-01,8.233728818595409393e-03,2.098687291145324707e-01,-8.374901115894317627e-02,-1.990893483161926270e-01,-1.211853139102458954e-02,-9.894908219575881958e-02,6.494659185409545898e-02,-1.080339848995208740e-01,-2.630841173231601715e-02,6.775157153606414795e-02,-7.565563917160034180e-02,-1.233092546463012695e-01,2.848574146628379822e-02,-1.503971684724092484e-02,1.877035386860370636e-02,3.083531372249126434e-02,-1.638928428292274475e-02,1.298977732658386230e-01,-4.258661344647407532e-02,-1.166388690471649170e-01,-2.886782214045524597e-02,-1.886834797915071249e-04,-5.480428412556648254e-02,4.350190609693527222e-02,7.459104061126708984e-02,3.002787195146083832e-02,7.270079368026927114e-05,1.773946359753608704e-02,3.834849968552589417e-02,4.000002052634954453e-03,-1.522833704948425293e-01,2.346233837306499481e-02,-2.932626381516456604e-02,-6.202555447816848755e-02,3.680058568716049194e-02,-4.223576933145523071e-02,1.093057543039321899e-02,-6.791153550148010254e-02,2.299759350717067719e-02,-2.207823395729064941e-01,-7.863682694733142853e-03,-4.357210919260978699e-02,-9.436080604791641235e-02,-1.917480677366256714e-02,-6.434667855501174927e-02,-2.049031108617782593e-01,-1.619405150413513184e-01,5.150391533970832825e-02,8.162433654069900513e-02,-6.424508988857269287e-02,-5.190755054354667664e-02,-1.447127852588891983e-02,6.854096055030822754e-02,-1.303914235904812813e-03,2.367641590535640717e-02,1.296557933092117310e-01,7.439028471708297729e-02,-9.667830169200897217e-02,-8.879554271697998047e-02,-1.269069015979766846e-01,8.996392786502838135e-02
-7.042127195745706558e-03,-6.307588517665863037e-02,1.475537288933992386e-02,-8.897662162780761719e-02,1.010438650846481323e-01,-1.435121148824691772e-01,1.683748066425323486e-01,2.049079537391662598e-02,4.043660312891006470e-02,7.798316329717636108e-02,-9.285753220319747925e-02,7.145065069198608398e-02,9.114877134561538696e-02,1.067227199673652649e-01,7.981105893850326538e-02,6.685882061719894409e-02,-6.997405737638473511e-02,-1.023053675889968872e-01,-5.472952499985694885e-02,-4.804110154509544373e-02,-1.076259613037109375e-01,7.426741067320108414e-04,1.184745598584413528e-02,-1.124842651188373566e-02,2.717955708503723145e-01,-7.762436568737030029e-02,6.187541410326957703e-02,4.272124543786048889e-02,6.859758496284484863e-02,1.142049115151166916e-02,-2.099750936031341553e-02,1.152854412794113159e-01,3.092131577432155609e-02,6.433620303869247437e-02,1.095771491527557373e-01,5.377186089754104614e-02,-1.744511276483535767e-01,1.035341154783964157e-02,4.990154504776000977e-02,-1.222705021500587463e-01,-4.474112391471862793e-02,-1.264281123876571655e-01,1.528726369142532349e-01,1.162243634462356567e-02,1.210648939013481140e-01,-2.687447704374790192e-02,-1.985498815774917603e-01,-5.660053715109825134e-02,8.377970010042190552e-02,2.846424281597137451e-01,1.288093626499176025e-01,1.144277229905128479e-01,3.064603358507156372e-02,8.153203129768371582e-02,1.111567020416259766e-01,6.013039872050285339e-02,-3.857592120766639709e-02,2.007386982440948486e-01,-1.028115302324295044e-02,-4.595769569277763367e-02,-1.173113123513758183e-03,2.058393321931362152e-02,-1.957796327769756317e-02,-8.758151531219482422e-02,3.710237890481948853e-02,-3.855986520648002625e-02,3.172773122787475586e-02,-2.205044031143188477e-01,5.710253026336431503e-03,1.304464936256408691e-01,-1.438850760459899902e-01,-1.601534187793731689e-01,-4.425070062279701233e-02,8.303403854370117188e-02,8.683647960424423218e-02,7.098142057657241821e-02,-3.272956982254981995e-02,6.071239337325096130e-02,-7.603502273559570312e-02,-6.315385550260543823e-02,1.805180460214614868e-01,-5.919171497225761414e-02,1.848280876874923706e-01,-4.754825681447982788e-02,3.556871088221669197e-03,-4.447154700756072998e-02,-4.310646653175354004e-02,-1.061924500390887260e-03,-3.846581603283993900e-05,1.053788438439369202e-01,-1.064585447311401367e-01,-2.466132864356040955e-02,4.018141329288482666e-02,2.537117898464202881e-01,1.296560317277908325e-01,-7.444332540035247803e-02,1.361009664833545685e-02,-1.091613844037055969e-01,1.225581616163253784e-01,1.610995680093765259e-01,-1.545107066631317139e-01,-4.409876465797424316e-02,-9.344542771577835083e-02,2.928504906594753265e-02,-2.514481078833341599e-03,-1.678779274225234985e-01,1.046497747302055359e-01,6.350260227918624878e-02,1.183926612138748169e-01,5.603579059243202209e-02,-1.249566078186035156e-01,1.411839015781879425e-02,2.395536191761493683e-02,1.186971087008714676e-02,-1.478127241134643555e-01,2.438290603458881378e-02,-5.426520481705665588e-02,3.671610355377197266e-02,-8.854540437459945679e-02,7.411248236894607544e-02,3.886603191494941711e-02,-4.132729489356279373e-03,-1.156134009361267090e-01,-5.307179689407348633e-02,5.175083130598068237e-02,-7.671709358692169189e-02,-8.161904662847518921e-02,9.224104136228561401e-02
-7.439909130334854126e-02,4.943153634667396545e-02,9.573580324649810791e-02,1.535511016845703125e-01,-1.804340034723281860e-01,4.463660717010498047e-02,2.495982870459556580e-02,3.850153088569641113e-02,-1.494363695383071899e-01,3.651250004768371582e-01,3.810887411236763000e-02,2.061690837144851685e-01,7.247469574213027954e-02,-1.238395497202873230e-01,-8.960638195276260376e-03,-8.101304993033409119e-03,1.793521344661712646e-01,-1.441437453031539917e-01,6.339739263057708740e-02,-4.782669618725776672e-02,-8.132276684045791626e-02,9.293886274099349976e-02,-9.091097116470336914e-02,1.095491349697113037e-01,-1.018166765570640564e-01,3.507374972105026245e-02,-1.222108112415298820e-04,9.967063553631305695e-03,-2.663712203502655029e-01,-1.760269403457641602e-01,1.192524433135986328e-01,-6.516450643539428711e-02,1.604485064744949341e-01,1.760870367288589478e-01,2.677043341100215912e-02,4.430833831429481506e-02,-1.554487738758325577e-02,-1.481389403343200684e-01,1.630444079637527466e-01,-1.694831550121307373e-01,1.921968460083007812e-01,-1.302244216203689575e-01,-5.085941404104232788e-02,-1.039783656597137451e-01,6.245779246091842651e-02,6.867469102144241333e-02,-3.222644701600074768e-02,-1.291775703430175781e-01,7.425823807716369629e-02,-1.021990701556205750e-01,-2.105089835822582245e-02,-1.902436167001724243e-01,-4.476279485970735550e-03,-1.646130234003067017e-01,5.550679564476013184e-02,-3.191331028938293457e-02,1.139056384563446045e-01,1.008216515183448792e-01,-3.091425634920597076e-02,9.377313544973731041e-04,2.743915095925331116e-02,1.553386747837066650e-01,1.364043634384870529e-02,5.775495991110801697e-02,3.375549614429473877e-02,-7.312189787626266479e-02,4.817164689302444458e-02,-2.193678915500640869e-01,2.568163909018039703e-02,-1.193778961896896362e-01,-5.216429010033607483e-02,-1.590896844863891602e-01,-9.719363600015640259e-02,3.444872051477432251e-02,5.994074512273073196e-03,-2.917822822928428650e-02,2.253264561295509338e-02,-5.368965864181518555e-02,1.742125600576400757e-01,-5.602766573429107666e-02,-2.274888753890991211e-02,-8.648038655519485474e-02,1.187922284007072449e-01,4.294382408261299133e-02,1.755944266915321350e-02,7.363654207438230515e-03,1.049067229032516479e-01,4.771649092435836792e-02,7.213987410068511963e-02,-9.811700135469436646e-02,1.081630587577819824e-01,9.617578238248825073e-02,4.534370452165603638e-02,5.525233596563339233e-02,1.970543265342712402e-01,-1.019174084067344666e-01,-2.464421279728412628e-02,-1.097621768712997437e-02,-2.147443592548370361e-02,1.680701225996017456e-01,-1.530210301280021667e-02,-1.837738901376724243e-01,6.619612872600555420e-02,-1.453283876180648804e-01,-6.120703369379043579e-02,-5.143484100699424744e-02,2.165834754705429077e-01,4.086848720908164978e-02,6.109945476055145264e-02,-4.143265634775161743e-02,-1.433272361755371094e-01,1.224511787295341492e-01,8.019395917654037476e-02,2.231289744377136230e-01,-2.293698489665985107e-03,7.507245242595672607e-02,-1.537647843360900879e-01,9.148500859737396240e-02,-9.424009919166564941e-02,-1.002224385738372803e-01,-1.385946422815322876e-01,4.350395873188972473e-02,-3.868204774335026741e-03,-1.906316429376602173e-01,-3.313436359167098999e-02,-5.038202181458473206e-02,6.668680906295776367e-02,5.187029391527175903e-02
