1.048738807439804077e-01
-6.096106767654418945e-02
1.797256916761398315e-01
2.977610938251018524e-02
1.933375746011734009e-01
1.502597481012344360e-01
1.167057547718286514e-02
-1.343140304088592529e-01
-3.076477348804473877e-01
1.773838996887207031e-01
-4.742699861526489258e-02
3.410364314913749695e-02
-1.770840771496295929e-02
-7.228414714336395264e-02
1.199117279611527920e-03
-4.922373965382575989e-02
-1.893326938152313232e-01
1.130850054323673248e-02
6.322009116411209106e-02
2.074002474546432495e-01
-2.734677307307720184e-02
-4.898235201835632324e-02
-1.243175789713859558e-01
2.062890678644180298e-01
3.377836346626281738e-01
-2.324338071048259735e-02
-2.359973080456256866e-02
1.140164807438850403e-01
1.642787456512451172e-01
7.099687308073043823e-02
-3.449407964944839478e-02
1.492052078247070312e-01
2.353255450725555420e-01
-1.745309531688690186e-01
-2.151970751583576202e-02
-3.632649034261703491e-02
1.667910367250442505e-01
-4.780643433332443237e-02
-1.458092313259840012e-02
-1.337096691131591797e-01
-3.491354361176490784e-02
-4.008973762392997742e-02
-4.200194776058197021e-02
-2.542405128479003906e-01
9.707275778055191040e-02
1.576262712478637695e-01
-1.376112550497055054e-01
3.371084481477737427e-02
9.051882475614547729e-02
-1.854711212217807770e-02
-2.861788570880889893e-01
1.103373095393180847e-01
4.546236246824264526e-02
-2.084921300411224365e-01
-9.734324365854263306e-02
5.162267759442329407e-02
-1.867973655462265015e-01
5.456186085939407349e-02
9.358384460210800171e-02
6.700213998556137085e-02
6.955498456954956055e-02
-9.895086288452148438e-02
-9.508831053972244263e-02
-2.543562054634094238e-01
-2.075444161891937256e-01
1.576498746871948242e-01
6.790760159492492676e-02
1.026257425546646118e-01
1.045159716159105301e-02
1.096507906913757324e-01
-4.798893630504608154e-02
-3.744895160198211670e-01
-2.684410512447357178e-01
6.093523502349853516e-01
-6.657978892326354980e-02
7.377143204212188721e-02
-4.082877188920974731e-02
-1.923716627061367035e-02
4.152206182479858398e-01
-2.388783395290374756e-01
3.449526727199554443e-01
-8.968150615692138672e-02
-2.119565606117248535e-01
1.771052926778793335e-02
1.290057152509689331e-01
-1.654911190271377563e-01
6.109588220715522766e-02
2.964312769472599030e-02
-7.575079053640365601e-02
-9.951879829168319702e-02
1.993939131498336792e-01
3.579571247100830078e-01
-5.406168103218078613e-02
-1.834319531917572021e-01
4.033952653408050537e-01
-1.815907657146453857e-01
-1.662564575672149658e-01
-2.641353905200958252e-01
7.024098932743072510e-02
-1.209381669759750366e-01
2.154263406991958618e-01
-1.088158339262008667e-01
1.917597353458404541e-01
-1.167957298457622528e-02
4.324654489755630493e-02
-1.749444901943206787e-01
-5.054197460412979126e-02
6.751932203769683838e-02
4.398406296968460083e-02
-2.189552336931228638e-01
-1.720080673694610596e-01
3.621376454830169678e-01
8.063843846321105957e-02
1.610903069376945496e-02
-1.849846243858337402e-01
1.975067146122455597e-02
3.746243715286254883e-01
-5.458930507302284241e-02
1.060596928000450134e-01
1.095257028937339783e-01
-2.784941792488098145e-01
1.345514953136444092e-01
6.670346111059188843e-02
-2.084311693906784058e-01
8.638693392276763916e-02
-4.400734901428222656e-01
4.918050765991210938e-02
1.405509114265441895e-01
