0.01626708544790744781494140625
-0.04169471934437751770019531250
-0.05533702671527862548828125000
-0.14423751831054687500000000000
0.01104301493614912033081054688
-0.05181643739342689514160156250
-0.07316326349973678588867187500
0.09744153916835784912109375000
-0.12801614403724670410156250000
0.01264398731291294097900390625
-0.00918859522789716720581054688
0.08254069834947586059570312500
0.04170168563723564147949218750
-0.02585471794009208679199218750
0.01080097071826457977294921875
0.04064767807722091674804687500
-0.04975156113505363464355468750
0.04890130460262298583984375000
-0.06808574497699737548828125000
-0.03428993374109268188476562500
0.05546259507536888122558593750
0.00396847119554877281188964844
-0.06993645429611206054687500000
-0.05124408751726150512695312500
0.00127916189376264810562133789
0.08023567497730255126953125000
0.01922981813549995422363281250
-0.00830159150063991546630859375
0.00849576387554407119750976562
-0.01069468259811401367187500000
-0.03782351315021514892578125000
0.05401779711246490478515625000
-0.01193492580205202102661132812
-0.04445322602987289428710937500
-0.00776489498093724250793457031
0.03536862507462501525878906250
-0.02759007364511489868164062500
-0.01418275386095046997070312500
0.04575658962130546569824218750
0.06529255211353302001953125000
0.00989957526326179504394531250
0.05723888054490089416503906250
-0.06069707497954368591308593750
-0.01587784290313720703125000000
0.03812231868505477905273437500
-0.02733508311212062835693359375
-0.10166656225919723510742187500
-0.02653855457901954650878906250
-0.01034625526517629623413085938
-0.03853257745504379272460937500
-0.01278693787753582000732421875
-0.01855629123747348785400390625
0.07462196797132492065429687500
-0.02827884256839752197265625000
-0.03444219380617141723632812500
-0.04882710427045822143554687500
-0.04676428809762001037597656250
0.04334346204996109008789062500
-0.05919134616851806640625000000
-0.04007374122738838195800781250
-0.06613126397132873535156250000
-0.03772563859820365905761718750
0.05652396753430366516113281250
0.03074249811470508575439453125
-0.06514184176921844482421875000
0.09397948533296585083007812500
-0.06809714436531066894531250000
-0.02928270772099494934082031250
0.05748692154884338378906250000
0.01967261731624603271484375000
-0.02302943356335163116455078125
-0.04615748301148414611816406250
-0.05319561809301376342773437500
-0.02081795409321784973144531250
0.05418226122856140136718750000
0.04161944985389709472656250000
0.07172719389200210571289062500
0.07211985439062118530273437500
-0.00930599682033061981201171875
0.00009024360042531043291091919
-0.01269386988133192062377929688
0.00214116368442773818969726562
0.00767876254394650459289550781
-0.04651329666376113891601562500
0.05258866026997566223144531250
0.00035116984508931636810302734
0.01472015772014856338500976562
0.02713924646377563476562500000
-0.08652615547180175781250000000
-0.05748938024044036865234375000
0.02400091290473937988281250000
-0.03130923211574554443359375000
0.01709117740392684936523437500
-0.06219895556569099426269531250
-0.01274065393954515457153320312
0.01664127968251705169677734375
0.05235183984041213989257812500
0.01087613869458436965942382812
0.01367201190441846847534179688
-0.00505049666389822959899902344
-0.08624288439750671386718750000
-0.07669310271739959716796875000
0.01350188627839088439941406250
0.01417665369808673858642578125
-0.03221037983894348144531250000
-0.03125293925404548645019531250
0.04363843426108360290527343750
0.00993986334651708602905273438
0.00755662750452756881713867188
0.02938715927302837371826171875
-0.02460442110896110534667968750
0.03946939855813980102539062500
0.11001423001289367675781250000
-0.04407957568764686584472656250
-0.02697116695344448089599609375
-0.06369833648204803466796875000
-0.06383591145277023315429687500
-0.00996417179703712463378906250
0.09687619656324386596679687500
-0.06789595633745193481445312500
-0.07353149354457855224609375000
0.02513720281422138214111328125
0.05713943392038345336914062500
-0.05327502638101577758789062500
-0.04766107723116874694824218750
0.02258684113621711730957031250
0.02212882973253726959228515625
-0.04548649117350578308105468750
-0.01265945192426443099975585938
-0.04953632131218910217285156250
-0.06652858108282089233398437500
-0.03971045091748237609863281250
0.03633670136332511901855468750
-0.00435845647007226943969726562
0.00161046790890395641326904297
0.04378281906247138977050781250
-0.00439846748486161231994628906
0.08469469100236892700195312500
-0.04324422776699066162109375000
0.00368523318320512771606445312
-0.05373793095350265502929687500
0.06916671246290206909179687500
0.05736188217997550964355468750
-0.02864943072199821472167968750
0.00588346645236015319824218750
0.10464514046907424926757812500
-0.04915306717157363891601562500
-0.13920225203037261962890625000
-0.00110622798092663288116455078
-0.06158664822578430175781250000
0.01324455440044403076171875000
-0.03521715849637985229492187500
-0.01023645699024200439453125000
-0.01357529684901237487792968750
-0.01773226074874401092529296875
-0.14010229706764221191406250000
-0.00669356482103466987609863281
0.02424473315477371215820312500
-0.05718529969453811645507812500
-0.01189881842583417892456054688
0.05676180496811866760253906250
0.05058927461504936218261718750
-0.00686629116535186767578125000
-0.03231341019272804260253906250
-0.06060319021344184875488281250
0.04335265979170799255371093750
0.08511501550674438476562500000
-0.04275879263877868652343750000
0.02241005189716815948486328125
0.09484423696994781494140625000
-0.09968572854995727539062500000
-0.00831088703125715255737304688
0.00528843095526099205017089844
-0.10837652534246444702148437500
-0.12878690659999847412109375000
-0.06140423566102981567382812500
-0.05005073174834251403808593750
0.03630027920007705688476562500
0.02626378461718559265136718750
0.02643987350165843963623046875
0.09104444831609725952148437500
0.01158601697534322738647460938
0.00008105116285150870680809021
0.01533049438148736953735351562
0.00522351963445544242858886719
0.08525112271308898925781250000
-0.03922348096966743469238281250
-0.10048754513263702392578125000
-0.06177544221282005310058593750
0.07818752527236938476562500000
-0.02818059921264648437500000000
0.01658959500491619110107421875
0.13458384573459625244140625000
0.00681635690852999687194824219
0.07587813585996627807617187500
0.08015520870685577392578125000
0.00038908130954951047897338867
0.12493974715471267700195312500
-0.01939029619097709655761718750
-0.00877907685935497283935546875
0.00291893561370670795440673828
0.10185552388429641723632812500
0.00952062662690877914428710938
-0.02295344881713390350341796875
0.06639582663774490356445312500
-0.02817847952246665954589843750
0.01755289919674396514892578125
0.02700639516115188598632812500
0.01849235221743583679199218750
-0.02557403221726417541503906250
-0.04949267581105232238769531250
-0.07889063656330108642578125000
0.07626570761203765869140625000
-0.02212076820433139801025390625
-0.11939308792352676391601562500
-0.01738717593252658843994140625
0.02179372869431972503662109375
0.04414548352360725402832031250
0.00558221107348799705505371094
0.01728302612900733947753906250
0.11949488520622253417968750000
-0.11185222864151000976562500000
0.00050970207666978240013122559
0.02334824949502944946289062500
-0.00488979322835803031921386719
-0.09575828164815902709960937500
0.15925541520118713378906250000
-0.02729002572596073150634765625
-0.06160094216465950012207031250
-0.08585563302040100097656250000
-0.03877535089850425720214843750
0.00728189526125788688659667969
-0.07326138764619827270507812500
0.01773718371987342834472656250
0.06368815153837203979492187500
0.02643600292503833770751953125
-0.04763256758451461791992187500
0.00015185358643066138029098511
0.01172570791095495223999023438
0.06741224229335784912109375000
-0.03425525128841400146484375000
0.00662925513461232185363769531
-0.04374562576413154602050781250
0.14494755864143371582031250000
0.02294384129345417022705078125
0.03259327262639999389648437500
-0.01902667805552482604980468750
-0.00924968160688877105712890625
0.03979253396391868591308593750
-0.03645118325948715209960937500
0.05710587278008460998535156250
0.00347588816657662391662597656
0.01646671071648597717285156250
0.12666343152523040771484375000
0.05346528440713882446289062500
-0.07180091738700866699218750000
0.00891827698796987533569335938
-0.02288656309247016906738281250
-0.00119068613275885581970214844
0.12078242748975753784179687500
-0.00910935644060373306274414062
-0.02472595125436782836914062500
-0.02443261817097663879394531250
0.04216594249010086059570312500
-0.03771997988224029541015625000
0.08569315820932388305664062500
0.01050453912466764450073242188
0.05848574265837669372558593750
0.02635650336742401123046875000
0.04374159500002861022949218750
0.00901671033352613449096679688
0.01438583526760339736938476562
0.12730208039283752441406250000
-0.05854802951216697692871093750
-0.04912725090980529785156250000
-0.01057355664670467376708984375
0.02692290581762790679931640625
0.00832093600183725357055664062
-0.01525346003472805023193359375
-0.00724541256204247474670410156
-0.04880908504128456115722656250
-0.00829256139695644378662109375
0.02784168720245361328125000000
-0.03171411901712417602539062500
0.00536496425047516822814941406
0.00547630013898015022277832031
0.01056000683456659317016601562
0.03593550622463226318359375000
0.00764702027663588523864746094
-0.06118843331933021545410156250
-0.02580101788043975830078125000
-0.01185417640954256057739257812
-0.01348601281642913818359375000
0.01908252015709877014160156250
-0.04988804832100868225097656250
-0.00464654667302966117858886719
0.13092117011547088623046875000
-0.00260211853310465812683105469
-0.03689644858241081237792968750
0.08618133515119552612304687500
0.11975247412919998168945312500
0.01833663508296012878417968750
-0.04750858992338180541992187500
-0.01657794043421745300292968750
0.00857735052704811096191406250
-0.03689068183302879333496093750
-0.04250403121113777160644531250
-0.06466972082853317260742187500
0.01234257593750953674316406250
-0.01860949769616127014160156250
0.02819979004561901092529296875
-0.02295241691172122955322265625
0.00874516181647777557373046875
-0.04037666693329811096191406250
-0.01606078445911407470703125000
-0.01598156616091728210449218750
-0.00736427959054708480834960938
0.04670435562729835510253906250
0.02515857294201850891113281250
0.03801367804408073425292968750
-0.01892255991697311401367187500
0.03895731270313262939453125000
0.02027435787022113800048828125
0.01221640035510063171386718750
0.02553213946521282196044921875
-0.02050195448100566864013671875
0.00510603748261928558349609375
0.03450025618076324462890625000
0.11104145646095275878906250000
0.03396889567375183105468750000
0.01593147590756416320800781250
-0.07417703419923782348632812500
-0.00560265872627496719360351562
-0.04208863899111747741699218750
-0.01906998641788959503173828125
-0.01136509981006383895874023438
0.01244762726128101348876953125
-0.03322231769561767578125000000
0.01199539005756378173828125000
0.00512638222426176071166992188
-0.02713823691010475158691406250
0.10140831023454666137695312500
-0.04866772890090942382812500000
-0.01061585638672113418579101562
-0.04126722738146781921386718750
-0.00296247797086834907531738281
0.00285657960921525955200195312
0.06857457756996154785156250000
0.06328397244215011596679687500
-0.04554354026913642883300781250
-0.06331822276115417480468750000
0.02325651049613952636718750000
-0.01208947319537401199340820312
0.00367346778512001037597656250
0.01611182093620300292968750000
-0.00570227205753326416015625000
-0.04740528017282485961914062500
0.07437036931514739990234375000
-0.01485820859670639038085937500
-0.00945826247334480285644531250
-0.02261155098676681518554687500
0.05226001515984535217285156250
-0.01453610882163047790527343750
-0.02212486043572425842285156250
0.01196964643895626068115234375
-0.00738128367811441421508789062
0.04043718799948692321777343750
0.03004466369748115539550781250
0.06312131881713867187500000000
0.04776145145297050476074218750
0.02237159758806228637695312500
0.01671466976404190063476562500
0.01487260311841964721679687500
0.00232886034063994884490966797
0.05484306439757347106933593750
0.01054658461362123489379882812
0.03334006294608116149902343750
0.06016580015420913696289062500
-0.02682072669267654418945312500
0.00252789328806102275848388672
-0.00563197396695613861083984375
0.00015136721776798367500305176
0.02851492911577224731445312500
0.04292315617203712463378906250
-0.03210066258907318115234375000
-0.00514236371964216232299804688
0.03592476621270179748535156250
0.03504683449864387512207031250
-0.01390073914080858230590820312
0.05848254263401031494140625000
0.04384303465485572814941406250
0.03387678787112236022949218750
-0.05484965071082115173339843750
-0.11155708879232406616210937500
0.03238826245069503784179687500
0.02511672116816043853759765625
-0.01491288002580404281616210938
-0.07179922610521316528320312500
0.02969463169574737548828125000
-0.02547998353838920593261718750
-0.15375487506389617919921875000
0.03845183178782463073730468750
0.03109468519687652587890625000
-0.00430597504600882530212402344
-0.00447284523397684097290039062
0.03214042261242866516113281250
-0.00179584685247391462326049805
-0.06004795804619789123535156250
-0.28917723894119262695312500000
0.00237477943301200866699218750
0.00793554820120334625244140625
-0.01894218847155570983886718750
-0.00593859609216451644897460938
0.08839575946331024169921875000
0.17411561310291290283203125000
0.01460541971027851104736328125
-0.01647530309855937957763671875
-0.45997762680053710937500000000
0.09117668122053146362304687500
0.02382833510637283325195312500
0.04275003075599670410156250000
-0.04310128837823867797851562500
-0.05916750803589820861816406250
0.02466362714767456054687500000
-0.14138694107532501220703125000
-0.03737408295273780822753906250
-0.12660761177539825439453125000
-0.08695575594902038574218750000
-0.19862349331378936767578125000
-0.20037835836410522460937500000
0.01659214310348033905029296875
0.05356405675411224365234375000
0.00367804244160652160644531250
0.02185130678117275238037109375
-0.00462076347321271896362304688
0.05602952837944030761718750000
-0.27880859375000000000000000000
-0.00900065712630748748779296875
-0.00915238820016384124755859375
0.03036179207265377044677734375
0.01080014184117317199707031250
-0.02583389356732368469238281250
-0.01369192916899919509887695312
-0.06114632263779640197753906250
0.12153425067663192749023437500
-0.08769231289625167846679687500
0.02967648580670356750488281250
-0.55608999729156494140625000000
-0.05018253624439239501953125000
-0.04219152033329010009765625000
0.02723373286426067352294921875
0.00191791413817554712295532227
0.02596346475183963775634765625
-0.01577592082321643829345703125
-0.16608065366744995117187500000
-0.05354303121566772460937500000
-0.04119930788874626159667968750
-0.08127556741237640380859375000
0.19161319732666015625000000000
-0.04164620116353034973144531250
-0.04643352329730987548828125000
-0.03211752325296401977539062500
0.06897974759340286254882812500
0.02670746855437755584716796875
-0.00126235792413353919982910156
-0.07377810031175613403320312500
-0.15178458392620086669921875000
0.00087557057850062847137451172
0.08912795037031173706054687500
-0.10532303154468536376953125000
-0.00889984332025051116943359375
-0.10410507023334503173828125000
0.35758107900619506835937500000
0.05550250783562660217285156250
-0.02585275843739509582519531250
-0.02958204038441181182861328125
-0.00864965841174125671386718750
0.07375115156173706054687500000
-0.04328393936157226562500000000
-0.01013196446001529693603515625
0.03240944817662239074707031250
0.02860984764993190765380859375
0.01892257854342460632324218750
-0.09783639013767242431640625000
0.08982704579830169677734375000
-0.03643071651458740234375000000
0.30178615450859069824218750000
0.03720549866557121276855468750
0.01021429896354675292968750000
-0.03382090851664543151855468750
0.03259012848138809204101562500
0.00896351039409637451171875000
0.00306379701942205429077148438
0.02194662205874919891357421875
-0.22806601226329803466796875000
-0.04810793325304985046386718750
0.05145611241459846496582031250
0.08049299567937850952148437500
0.08334061503410339355468750000
0.04506306350231170654296875000
-0.00736555084586143493652343750
0.01552503090351819992065429688
-0.14157943427562713623046875000
-0.09930608421564102172851562500
-0.05825930833816528320312500000
0.09192473441362380981445312500
0.09339879453182220458984375000
-0.02708549052476882934570312500
-0.04338229820132255554199218750
0.13188546895980834960937500000
0.04214413091540336608886718750
0.03559685871005058288574218750
0.02819264866411685943603515625
0.09325714409351348876953125000
0.00941482186317443847656250000
-0.13676522672176361083984375000
0.15165668725967407226562500000
-0.08861701935529708862304687500
-0.00167354522272944450378417969
-0.03645198047161102294921875000
0.00933175161480903625488281250
0.01750145852565765380859375000
-0.07154162228107452392578125000
-0.00778256449848413467407226562
0.00877719279378652572631835938
0.10882774740457534790039062500
-0.03952547162771224975585937500
0.17382480204105377197265625000
-0.03451716527342796325683593750
-0.06394485384225845336914062500
-0.00967205036431550979614257812
-0.06916405260562896728515625000
0.05380575358867645263671875000
0.15308713912963867187500000000
-0.03996380046010017395019531250
-0.02969813905656337738037109375
-0.05666730180382728576660156250
-0.05323740467429161071777343750
-0.01689909212291240692138671875
0.00339423376135528087615966797
-0.01726125180721282958984375000
-0.01036625541746616363525390625
0.00927597749978303909301757812
0.02706542797386646270751953125
-0.05780880898237228393554687500
0.12788000702857971191406250000
-0.04415206611156463623046875000
0.01648348756134510040283203125
-0.02547030895948410034179687500
0.06678792089223861694335937500
0.01002854574471712112426757812
0.08100058138370513916015625000
-0.00817200914025306701660156250
0.09284145385026931762695312500
0.02745758555829524993896484375
-0.02236033417284488677978515625
0.10671485960483551025390625000
0.01557872351258993148803710938
0.06193175539374351501464843750
0.01251884642988443374633789062
0.05477517470717430114746093750
-0.08895546197891235351562500000
0.04732620343565940856933593750
-0.05703145265579223632812500000
-0.10158460587263107299804687500
0.03161360695958137512207031250
-0.01807729899883270263671875000
0.05643472075462341308593750000
0.00258366880007088184356689453
0.03152034804224967956542968750
-0.08526752144098281860351562500
0.02312560752034187316894531250
-0.07436697185039520263671875000
-0.15576215088367462158203125000
-0.01179103087633848190307617188
0.03165157884359359741210937500
-0.15598922967910766601562500000
0.00269121769815683364868164062
0.02955715917050838470458984375
0.08729173243045806884765625000
0.00922723207622766494750976562
-0.11230936646461486816406250000
0.02806014753878116607666015625
0.00745704583823680877685546875
0.04224665462970733642578125000
-0.02926735952496528625488281250
-0.08238979429006576538085937500
-0.09380229562520980834960937500
-0.02480803988873958587646484375
0.06928914785385131835937500000
0.02218212001025676727294921875
0.12524749338626861572265625000
0.03496775031089782714843750000
0.04169026762247085571289062500
0.01497253309935331344604492188
0.01255827955901622772216796875
-0.08437627553939819335937500000
0.07804672420024871826171875000
0.00931171048432588577270507812
0.00418080762028694152832031250
-0.07439028471708297729492187500
-0.07572015374898910522460937500
-0.02610810101032257080078125000
-0.08190015703439712524414062500
-0.06963310390710830688476562500
-0.07059141993522644042968750000
-0.03034001775085926055908203125
0.00288600125350058078765869141
-0.05704653263092041015625000000
-0.03390568867325782775878906250
0.01763445138931274414062500000
0.01468413323163986206054687500
-0.00357564655132591724395751953
-0.00908754952251911163330078125
-0.09308981150388717651367187500
0.12062522023916244506835937500
-0.04011423140764236450195312500
-0.01759506948292255401611328125
-0.12304361909627914428710937500
0.04561226069927215576171875000
-0.01692592352628707885742187500
-0.12850493192672729492187500000
0.00646267924457788467407226562
-0.01806299947202205657958984375
-0.08461534231901168823242187500
-0.02941328659653663635253906250
-0.00991436559706926345825195312
-0.02197903022170066833496093750
-0.04311630129814147949218750000
-0.01570089906454086303710937500
-0.02469382807612419128417968750
0.03271555900573730468750000000
-0.04585849866271018981933593750
-0.02378049306571483612060546875
-0.02999622374773025512695312500
0.07110615074634552001953125000
0.00079430156620219349861145020
-0.00032809106050990521907806396
0.03030292876064777374267578125
-0.03079407103359699249267578125
0.02026768773794174194335937500
0.00426420848816633224487304688
-0.04752289503812789916992187500
-0.01234313007444143295288085938
0.06050143390893936157226562500
0.02671285159885883331298828125
0.03170935437083244323730468750
0.06146631017327308654785156250
0.09092037379741668701171875000
-0.03512613102793693542480468750
-0.05989856272935867309570312500
0.03399056941270828247070312500
-0.06875613331794738769531250000
0.14577989280223846435546875000
0.15513667464256286621093750000
0.08834941685199737548828125000
-0.05004397034645080566406250000
-0.03447982296347618103027343750
0.01282911468297243118286132812
0.04776013642549514770507812500
0.04970153421163558959960937500
0.08921882510185241699218750000
-0.00018880488642025738954544067
-0.03614746779203414916992187500
-0.01766203530132770538330078125
-0.00010117980855284258723258972
0.09404459595680236816406250000
-0.11903386563062667846679687500
0.02860397100448608398437500000
0.02375135943293571472167968750
0.03788337856531143188476562500
0.07739298790693283081054687500
-0.03162223473191261291503906250
0.00178192800376564264297485352
0.02152726054191589355468750000
0.04327356815338134765625000000
-0.00964871142059564590454101562
0.20370243489742279052734375000
-0.10079344362020492553710937500
-0.00726181920617818832397460938
-0.00988385919481515884399414062
0.02804498746991157531738281250
-0.03936548158526420593261718750
-0.03788492828607559204101562500
-0.08043996244668960571289062500
0.10691921412944793701171875000
0.01528486236929893493652343750
-0.07739334553480148315429687500
-0.05661427974700927734375000000
0.04008904099464416503906250000
-0.10943911224603652954101562500
0.06460610777139663696289062500
-0.17111346125602722167968750000
-0.08320131152868270874023437500
0.06450656056404113769531250000
-0.04253817722201347351074218750
-0.05436512082815170288085937500
-0.01696682535111904144287109375
-0.02237112633883953094482421875
0.04780260846018791198730468750
-0.03661540150642395019531250000
0.02605231851339340209960937500
0.00379576720297336578369140625
-0.01319294143468141555786132812
0.01683587208390235900878906250
0.03692998737096786499023437500
0.00758743472397327423095703125
-0.01717541739344596862792968750
0.05073745548725128173828125000
-0.07388512045145034790039062500
0.04079541936516761779785156250
-0.02590800635516643524169921875
0.02342570386826992034912109375
-0.05673344805836677551269531250
0.00782899372279644012451171875
-0.01458579674363136291503906250
0.04799292236566543579101562500
0.01051599346101284027099609375
-0.03148033842444419860839843750
0.04610424488782882690429687500
-0.03529573976993560791015625000
-0.11699260771274566650390625000
0.05661487579345703125000000000
-0.00987840350717306137084960938
-0.09465713053941726684570312500
-0.00215552025474607944488525391
0.06384783238172531127929687500
-0.06171004101634025573730468750
0.00258557056076824665069580078
0.03399021551012992858886718750
0.05768408626317977905273437500
-0.04806494712829589843750000000
-0.02382450550794601440429687500
0.04784467443823814392089843750
0.03620367869734764099121093750
-0.03497420251369476318359375000
-0.11147352308034896850585937500
0.03856541588902473449707031250
-0.02028947323560714721679687500
-0.02791782096028327941894531250
-0.04537244141101837158203125000
0.00716300960630178451538085938
-0.02287013456225395202636718750
0.00269805220887064933776855469
0.06995236128568649291992187500
-0.03319475427269935607910156250
-0.06544081121683120727539062500
0.01272208709269762039184570312
0.00290814251638948917388916016
0.07496951520442962646484375000
-0.03511790931224822998046875000
0.01357333175837993621826171875
0.03066626563668251037597656250
-0.01400022208690643310546875000
0.02037673071026802062988281250
0.09715434908866882324218750000
-0.11877449601888656616210937500
0.09322365373373031616210937500
-0.10654374957084655761718750000
-0.03275852650403976440429687500
-0.02048909291625022888183593750
-0.05740883201360702514648437500
0.07952931523323059082031250000
0.06503336131572723388671875000
0.04983769357204437255859375000
0.10507679730653762817382812500
-0.00253981328569352626800537109
-0.04971230030059814453125000000
-0.06033387780189514160156250000
-0.04950258508324623107910156250
-0.03236726671457290649414062500
-0.10249929875135421752929687500
0.16085004806518554687500000000
0.00461469218134880065917968750
0.02143273875117301940917968750
0.07666345685720443725585937500
0.11815565079450607299804687500
-0.05377936735749244689941406250
0.04156876727938652038574218750
-0.04852232709527015686035156250
-0.00805990491062402725219726562
0.04238374903798103332519531250
0.02567904815077781677246093750
0.04004824161529541015625000000
0.01988311856985092163085937500
-0.03627860173583030700683593750
-0.01430714037269353866577148438
0.00147246639244258403778076172
-0.06773579865694046020507812500
-0.01431645825505256652832031250
0.05784200131893157958984375000
-0.04039010405540466308593750000
0.09088522940874099731445312500
0.09627334028482437133789062500
-0.09636026620864868164062500000
0.00604903930798172950744628906
0.11436069756746292114257812500
0.04195978865027427673339843750
0.02474950253963470458984375000
-0.04814878851175308227539062500
-0.00588343571871519088745117188
-0.02210404910147190093994140625
-0.01385118719190359115600585938
0.02912029996514320373535156250
0.01623630151152610778808593750
0.08754242956638336181640625000
-0.04386430978775024414062500000
0.03242594748735427856445312500
-0.04017251729965209960937500000
-0.04775497317314147949218750000
-0.05214354768395423889160156250
-0.03153962269425392150878906250
0.03681613877415657043457031250
-0.10092502087354660034179687500
0.01618321985006332397460937500
0.00506719201803207397460937500
0.05090614780783653259277343750
-0.00033907641773112118244171143
0.00377096561715006828308105469
-0.01511465385556221008300781250
-0.04454785585403442382812500000
0.04501452296972274780273437500
0.08580844104290008544921875000
0.06473044306039810180664062500
0.03695776313543319702148437500
-0.05256657674908638000488281250
-0.10295907407999038696289062500
-0.01242041308432817459106445312
0.00882439222186803817749023438
-0.11261207610368728637695312500
0.00723752332851290702819824219
-0.06059439852833747863769531250
-0.00362319336272776126861572266
-0.03608314692974090576171875000
-0.05789389461278915405273437500
-0.04131856560707092285156250000
-0.02999008074402809143066406250
-0.07306888699531555175781250000
-0.03264053538441658020019531250
0.02447794936597347259521484375
-0.08504569530487060546875000000
-0.04634268581867218017578125000
-0.02667670696973800659179687500
-0.00615080073475837707519531250
-0.04537126794457435607910156250
0.00322654959745705127716064453
0.01980210468173027038574218750
0.00143709697294980287551879883
-0.05296330899000167846679687500
0.06171004101634025573730468750
0.03018040768802165985107421875
-0.01838078163564205169677734375
-0.03990616649389266967773437500
-0.02339171431958675384521484375
0.07858829200267791748046875000
-0.05215861275792121887207031250
-0.15735112130641937255859375000
0.00553960446268320083618164062
-0.06400261819362640380859375000
0.01585865765810012817382812500
-0.07555907964706420898437500000
0.09470855444669723510742187500
0.00593694392591714859008789062
0.03215096518397331237792968750
-0.00355811812914907932281494141
0.00481689767912030220031738281
-0.11846581846475601196289062500
-0.06317372620105743408203125000
-0.01708109863102436065673828125
0.03661855310201644897460937500
-0.04547016695141792297363281250
-0.04033191502094268798828125000
0.07223659753799438476562500000
0.00559736182913184165954589844
0.01833377778530120849609375000
-0.00846032425761222839355468750
-0.01092926040291786193847656250
0.01991165429353713989257812500
-0.05626893416047096252441406250
0.09026481956243515014648437500
-0.05104934051632881164550781250
0.00190230167936533689498901367
0.01419609133154153823852539062
0.03731178492307662963867187500
-0.00602988898754119873046875000
0.08337389677762985229492187500
-0.08635020256042480468750000000
-0.01058740075677633285522460938
0.02685554884374141693115234375
0.01023288536816835403442382812
0.03641106560826301574707031250
0.02304785326123237609863281250
0.03814766183495521545410156250
-0.10449096560478210449218750000
0.07385879755020141601562500000
-0.04722291603684425354003906250
-0.03558116033673286437988281250
-0.05997847393155097961425781250
-0.00421245861798524856567382812
-0.03127717971801757812500000000
-0.01535102725028991699218750000
-0.11169192939996719360351562500
-0.08066271990537643432617187500
0.05987658351659774780273437500
0.02813000045716762542724609375
-0.00105410791002213954925537109
0.00926164351403713226318359375
0.07425090670585632324218750000
0.05327944830060005187988281250
0.03148620203137397766113281250
0.03005396761000156402587890625
0.04172096773982048034667968750
0.01111758965998888015747070312
0.07583510875701904296875000000
-0.07292170822620391845703125000
-0.00335309188812971115112304688
-0.03957192227244377136230468750
0.07896828651428222656250000000
0.00364176766015589237213134766
-0.01792722940444946289062500000
0.02367770671844482421875000000
0.05382948368787765502929687500
0.00893518794327974319458007812
-0.01105731073766946792602539062
0.01765730045735836029052734375
0.00066810398129746317863464355
0.01431447919458150863647460938
0.04012132808566093444824218750
0.03905778005719184875488281250
0.01056744344532489776611328125
0.05837308987975120544433593750
-0.02700980566442012786865234375
-0.00676736840978264808654785156
0.07001721858978271484375000000
0.08298084139823913574218750000
0.05380374193191528320312500000
-0.03366511687636375427246093750
0.03853927925229072570800781250
0.02708591148257255554199218750
-0.04801081866025924682617187500
-0.02219855226576328277587890625
-0.02782917767763137817382812500
0.01253453269600868225097656250
-0.03686914220452308654785156250
-0.05027268454432487487792968750
-0.01842357218265533447265625000
0.03862619027495384216308593750
0.00600560987368226051330566406
-0.03388429805636405944824218750
-0.02728128805756568908691406250
0.00858175661414861679077148438
-0.04236976057291030883789062500
-0.02111390419304370880126953125
-0.04124140739440917968750000000
0.02027941495180130004882812500
0.01613124087452888488769531250
0.01560367830097675323486328125
0.07432166486978530883789062500
0.00760383252054452896118164062
-0.00936624594032764434814453125
-0.12271236628293991088867187500
-0.08410616964101791381835937500
-0.11413422226905822753906250000
-0.02537908032536506652832031250
0.03009477071464061737060546875
0.00168837409000843763351440430
0.02876610867679119110107421875
0.01068470254540443420410156250
-0.01059250626713037490844726562
-0.05112789943814277648925781250
-0.00089774426305666565895080566
0.10574430227279663085937500000
-0.03605139628052711486816406250
-0.07808751612901687622070312500
-0.05667204037308692932128906250
0.00941742304712533950805664062
-0.04481221362948417663574218750
0.01401516981422901153564453125
0.06272319704294204711914062500
-0.06582619249820709228515625000
0.00531188445165753364562988281
-0.02564151957631111145019531250
-0.00322062429040670394897460938
-0.00198097806423902511596679688
0.02007750794291496276855468750
0.00768062472343444824218750000
0.05651501938700675964355468750
-0.03638751804828643798828125000
-0.02259223163127899169921875000
-0.00274708587676286697387695312
0.02589634619653224945068359375
0.00143875321373343467712402344
-0.03893033787608146667480468750
0.07053411751985549926757812500
-0.02390418574213981628417968750
0.02802452445030212402343750000
-0.04854004457592964172363281250
0.05916647985577583312988281250
0.10137996822595596313476562500
0.14567860960960388183593750000
-0.00055583269568160176277160645
0.02535261586308479309082031250
-0.00040127633837983012199401855
-0.01977133937180042266845703125
0.07940973341464996337890625000
-0.07667711377143859863281250000
0.02318215928971767425537109375
0.03485602512955665588378906250
-0.06802517175674438476562500000
0.00913352053612470626831054688
-0.04014925658702850341796875000
-0.06081451103091239929199218750
0.02972127497196197509765625000
-0.11605185270309448242187500000
-0.03720305860042572021484375000
0.04931832104921340942382812500
-0.10346727818250656127929687500
-0.06584585458040237426757812500
-0.08884041756391525268554687500
0.02157037518918514251708984375
-0.02725851349532604217529296875
0.09500855952501296997070312500
0.04046330228447914123535156250
-0.04731969907879829406738281250
0.02684983611106872558593750000
0.01341093610972166061401367188
-0.02982730604708194732666015625
0.03982078284025192260742187500
-0.01337692607194185256958007812
0.03120950236916542053222656250
0.08335633575916290283203125000
-0.06154823303222656250000000000
0.00959871895611286163330078125
-0.10668019205331802368164062500
-0.07053837925195693969726562500
-0.00885391980409622192382812500
-0.02289667166769504547119140625
-0.04130125418305397033691406250
-0.00704778218641877174377441406
0.02189320884644985198974609375
-0.12300769984722137451171875000
-0.05306593701243400573730468750
-0.03055993281304836273193359375
-0.02597242221236228942871093750
0.01721819117665290832519531250
0.06174509599804878234863281250
-0.00331992423161864280700683594
0.01128303259611129760742187500
-0.02334060519933700561523437500
-0.12058072537183761596679687500
0.08227694034576416015625000000
0.03637124598026275634765625000
0.01998885348439216613769531250
0.05989319831132888793945312500
0.01171691808849573135375976562
0.01164513267576694488525390625
-0.01921598240733146667480468750
0.04679964855313301086425781250
-0.05022979155182838439941406250
0.05595021322369575500488281250
0.07039611041545867919921875000
-0.01203768886625766754150390625
-0.02424710988998413085937500000
0.03030801378190517425537109375
-0.07125835120677947998046875000
-0.08596821129322052001953125000
0.02878815867006778717041015625
-0.05746287479996681213378906250
0.01157878059893846511840820312
-0.04531635344028472900390625000
0.11189915984869003295898437500
0.03214329481124877929687500000
-0.02389460429549217224121093750
0.02704688161611557006835937500
0.00482607679441571235656738281
0.10868947207927703857421875000
0.03770666196942329406738281250
0.00997197441756725311279296875
0.05364555865526199340820312500
-0.06558036059141159057617187500
-0.00092510593822225928306579590
0.05289123207330703735351562500
0.01312738098204135894775390625
0.07073766738176345825195312500
-0.03542184829711914062500000000
-0.03775780647993087768554687500
0.10972718894481658935546875000
0.03515380620956420898437500000
-0.02457552775740623474121093750
0.07529847323894500732421875000
-0.04792579263448715209960937500
-0.03327750414609909057617187500
0.02947469055652618408203125000
0.02307746931910514831542968750
-0.03670269250869750976562500000
-0.06434135884046554565429687500
-0.05008534342050552368164062500
-0.00851443968713283538818359375
0.04394324496388435363769531250
0.07985939085483551025390625000
0.09806836396455764770507812500
-0.09520789980888366699218750000
0.02774159424006938934326171875
-0.01207718718796968460083007812
0.07101429253816604614257812500
-0.03252978995442390441894531250
-0.02740586921572685241699218750
-0.04138063266873359680175781250
-0.01641472429037094116210937500
-0.03667242452502250671386718750
-0.03992765396833419799804687500
-0.01567849516868591308593750000
0.06157749146223068237304687500
0.04870093241333961486816406250
0.02157509513199329376220703125
0.02883532084524631500244140625
0.01123338192701339721679687500
0.13857215642929077148437500000
-0.06275031715631484985351562500
-0.10017473995685577392578125000
0.02738619036972522735595703125
0.02901881374418735504150390625
0.00406907591968774795532226562
0.10040590167045593261718750000
-0.02104755863547325134277343750
-0.09067746251821517944335937500
-0.00235341209918260574340820312
0.02109979651868343353271484375
0.07073026895523071289062500000
-0.02474561333656311035156250000
-0.04723118618130683898925781250
0.04753097146749496459960937500
-0.02183580026030540466308593750
-0.16447834670543670654296875000
-0.04172618314623832702636718750
-0.02121673151850700378417968750
-0.01533219218254089355468750000
-0.08573113381862640380859375000
-0.04992390424013137817382812500
-0.08893993496894836425781250000
-0.00964956730604171752929687500
-0.02222713269293308258056640625
0.07914805412292480468750000000
-0.05145896971225738525390625000
-0.03046304173767566680908203125
-0.00737437466159462928771972656
0.02869511209428310394287109375
0.04903392121195793151855468750
0.04478841647505760192871093750
0.03307318314909934997558593750
-0.02191303484141826629638671875
0.09610939025878906250000000000
-0.03927441313862800598144531250
0.05676701292395591735839843750
0.02211844176054000854492187500
0.06434388458728790283203125000
-0.01794762350618839263916015625
0.05699212849140167236328125000
-0.02333861030638217926025390625
0.01524823531508445739746093750
-0.05865803733468055725097656250
0.04703342169523239135742187500
-0.03110038302838802337646484375
0.07719566673040390014648437500
0.06773904711008071899414062500
-0.01160718686878681182861328125
-0.03047228790819644927978515625
-0.00046666228445246815681457520
0.04506735503673553466796875000
-0.05523502454161643981933593750
-0.12834712862968444824218750000
0.01225019805133342742919921875
-0.07240699231624603271484375000
-0.02488209307193756103515625000
0.03438566997647285461425781250
0.01131774671375751495361328125
-0.02306074276566505432128906250
-0.03225919604301452636718750000
0.00019245764997322112321853638
-0.02084142342209815979003906250
-0.00203720224089920520782470703
-0.06778948754072189331054687500
-0.04673844575881958007812500000
0.01886020973324775695800781250
0.08395598083734512329101562500
-0.01796596124768257141113281250
-0.02935930155217647552490234375
-0.05036835744976997375488281250
-0.03728129714727401733398437500
-0.02384246699512004852294921875
-0.05646707862615585327148437500
-0.01620161905884742736816406250
0.08483587950468063354492187500
0.02969843521714210510253906250
0.05700246989727020263671875000
0.04293527454137802124023437500
0.00566957239061594009399414062
0.03022599779069423675537109375
0.03626967221498489379882812500
0.02764116972684860229492187500
-0.02056306414306163787841796875
-0.06103827431797981262207031250
-0.02932076342403888702392578125
-0.03519178926944732666015625000
-0.00814515724778175354003906250
-0.05689340457320213317871093750
-0.04396954178810119628906250000
-0.03922566398978233337402343750
-0.02256252430379390716552734375
-0.02400913089513778686523437500
0.02321194298565387725830078125
0.06088143214583396911621093750
0.02742261998355388641357421875
0.01044507790356874465942382812
0.02942176535725593566894531250
-0.01857833936810493469238281250
-0.07928870618343353271484375000
0.01232503913342952728271484375
-0.00515967607498168945312500000
0.01162628922611474990844726562
0.01939521543681621551513671875
-0.06601279228925704956054687500
0.01803705841302871704101562500
0.02885366044938564300537109375
-0.00026899704243987798690795898
-0.04022740572690963745117187500
0.04394426569342613220214843750
-0.03137310594320297241210937500
0.04311556741595268249511718750
0.10258769989013671875000000000
-0.02266937308013439178466796875
0.02577861957252025604248046875
0.05322447791695594787597656250
-0.01160313375294208526611328125
0.01933119259774684906005859375
0.02273451536893844604492187500
0.03470369800925254821777343750
0.01007152441889047622680664062
0.02658199332654476165771484375
0.04854615777730941772460937500
-0.01129611767828464508056640625
-0.05557158961892127990722656250
0.04262438416481018066406250000
0.05607314780354499816894531250
0.01357648335397243499755859375
-0.06068548560142517089843750000
-0.10938388854265213012695312500
-0.01719627901911735534667968750
-0.03193338960409164428710937500
0.01417262572795152664184570312
-0.02531388588249683380126953125
0.07053326815366744995117187500
0.00820405595004558563232421875
-0.00846177712082862854003906250
0.03700903058052062988281250000
0.02146610617637634277343750000
-0.02253230474889278411865234375
0.03001075237989425659179687500
0.02867716550827026367187500000
0.02703767642378807067871093750
-0.04322417080402374267578125000
0.03061549551784992218017578125
0.01656677760183811187744140625
-0.02269833162426948547363281250
0.05102119594812393188476562500
0.06086412817239761352539062500
0.08263476192951202392578125000
0.04660391062498092651367187500
-0.06242498755455017089843750000
-0.07012455165386199951171875000
0.00488853920251131057739257812
0.06907703727483749389648437500
0.00795017927885055541992187500
0.04983814433217048645019531250
0.00550978211686015129089355469
-0.03066705726087093353271484375
-0.02506417036056518554687500000
0.09013307094573974609375000000
-0.02700207941234111785888671875
-0.03866651281714439392089843750
-0.05017141625285148620605468750
-0.02979374118149280548095703125
-0.02337120287120342254638671875
0.00468126544728875160217285156
-0.02632116340100765228271484375
0.00655684014782309532165527344
-0.08932802081108093261718750000
-0.05415366962552070617675781250
-0.11699751764535903930664062500
0.14387400448322296142578125000
0.05844154953956604003906250000
0.06282191723585128784179687500
0.02089405991137027740478515625
-0.02271387167274951934814453125
-0.03489197790622711181640625000
-0.07059255242347717285156250000
0.07789359241724014282226562500
0.07960995286703109741210937500
0.02569162286818027496337890625
0.03286491334438323974609375000
-0.03930486366152763366699218750
0.00237192795611917972564697266
0.06868931651115417480468750000
-0.04373022168874740600585937500
-0.05069353058934211730957031250
0.07535855472087860107421875000
-0.05081392452120780944824218750
-0.00032016585464589297771453857
0.05892446637153625488281250000
-0.09651384502649307250976562500
0.14534406363964080810546875000
0.03497629612684249877929687500
0.00768306944519281387329101562
0.00132361927535384893417358398
0.00335690751671791076660156250
0.04898247867822647094726562500
-0.10075929015874862670898437500
0.01017404720187187194824218750
0.03386281803250312805175781250
0.00491564720869064331054687500
0.03710751980543136596679687500
0.11747729778289794921875000000
0.00816094409674406051635742188
0.05316365510225296020507812500
0.07391888648271560668945312500
0.06112845987081527709960937500
0.07777040451765060424804687500
-0.02797158248722553253173828125
-0.02424337901175022125244140625
0.12557347118854522705078125000
0.01079625077545642852783203125
0.02237333357334136962890625000
-0.05637648701667785644531250000
0.02750803157687187194824218750
0.00764298811554908752441406250
-0.09023576229810714721679687500
-0.05095626413822174072265625000
-0.04061301425099372863769531250
0.00542900431901216506958007812
0.03327541798353195190429687500
0.06616066396236419677734375000
-0.02377580478787422180175781250
0.01784501411020755767822265625
-0.02549154311418533325195312500
-0.03225133940577507019042968750
0.07573041319847106933593750000
0.03122303634881973266601562500
-0.00143911479972302913665771484
0.03894050791859626770019531250
-0.07116840779781341552734375000
0.00082232203567400574684143066
-0.02840897254645824432373046875
-0.04454841837286949157714843750
-0.08046793937683105468750000000
0.10467439889907836914062500000
-0.00400335527956485748291015625
0.03226460143923759460449218750
-0.10040015727281570434570312500
-0.00149563408922404050827026367
-0.02237233147025108337402343750
-0.04426139220595359802246093750
0.04760565981268882751464843750
0.04358030483126640319824218750
0.05745714902877807617187500000
-0.06958995014429092407226562500
-0.04106741398572921752929687500
0.03191130235791206359863281250
0.00625716475769877433776855469
-0.07681249082088470458984375000
-0.09974858909845352172851562500
-0.02191852964460849761962890625
0.01843370683491230010986328125
-0.04613729938864707946777343750
-0.16909611225128173828125000000
-0.03690118342638015747070312500
0.04766709730029106140136718750
-0.00664996542036533355712890625
0.11505644023418426513671875000
-0.03526067361235618591308593750
0.01284686475992202758789062500
-0.03349937871098518371582031250
0.03304635733366012573242187500
-0.01605829782783985137939453125
0.05343201383948326110839843750
-0.08016771823167800903320312500
-0.05579995736479759216308593750
-0.05515218898653984069824218750
-0.05806516483426094055175781250
0.06591577827930450439453125000
0.08369561284780502319335937500
-0.09025955945253372192382812500
0.05231743305921554565429687500
0.02538277581334114074707031250
0.00616472726687788963317871094
0.04672239720821380615234375000
0.02660170011222362518310546875
-0.10485484451055526733398437500
0.10124420374631881713867187500
0.13313101232051849365234375000
-0.07578188180923461914062500000
0.06936153024435043334960937500
0.01731475628912448883056640625
0.00007011940033407881855964661
-0.03599628433585166931152343750
-0.01748371683061122894287109375
0.00461565097793936729431152344
0.09501005709171295166015625000
-0.01422862522304058074951171875
0.00144788564648479223251342773
0.02575301378965377807617187500
-0.00222449307329952716827392578
-0.12814813852310180664062500000
0.07724143564701080322265625000
0.04467884451150894165039062500
0.08160337060689926147460937500
-0.08310361951589584350585937500
0.03800460696220397949218750000
0.10000293701887130737304687500
0.04101319983601570129394531250
-0.05475312098860740661621093750
-0.09963256120681762695312500000
-0.08152819424867630004882812500
0.00140902481507509946823120117
-0.08725614100694656372070312500
0.00416043726727366447448730469
0.09810604900121688842773437500
-0.04752446338534355163574218750
-0.04645708575844764709472656250
-0.06139235943555831909179687500
0.01158609148114919662475585938
0.02100376412272453308105468750
-0.01910064369440078735351562500
0.02612821571528911590576171875
0.06377209722995758056640625000
0.03989343717694282531738281250
0.02144386060535907745361328125
0.03063423931598663330078125000
0.03871539607644081115722656250
-0.00210739136673510074615478516
-0.03168793767690658569335937500
0.00299216713756322860717773438
-0.14677728712558746337890625000
0.01650865003466606140136718750
0.02338433451950550079345703125
-0.10342237353324890136718750000
0.11056367307901382446289062500
0.00158130552154034376144409180
-0.07325787097215652465820312500
-0.06019471213221549987792968750
0.20936074852943420410156250000
-0.06596597284078598022460937500
-0.06921732425689697265625000000
-0.05492439866065979003906250000
-0.08960880339145660400390625000
-0.08948295563459396362304687500
-0.00055757467634975910186767578
-0.00511770602315664291381835938
-0.02230319567024707794189453125
0.06875170022249221801757812500
-0.01734580472111701965332031250
0.08133417367935180664062500000
-0.01701478660106658935546875000
-0.01662607304751873016357421875
-0.00050388945965096354484558105
0.00404308224096894264221191406
-0.03770393133163452148437500000
0.07183436304330825805664062500
-0.05924863740801811218261718750
-0.04492383822798728942871093750
-0.08128318190574645996093750000
-0.02821982279419898986816406250
-0.02485926076769828796386718750
0.00256613804958760738372802734
-0.03864360600709915161132812500
-0.12296126782894134521484375000
0.00458136433735489845275878906
-0.01299572177231311798095703125
0.12753160297870635986328125000
0.03572496399283409118652343750
-0.01370991859585046768188476562
-0.01730154640972614288330078125
-0.01801633276045322418212890625
0.03089123591780662536621093750
-0.04303206875920295715332031250
-0.02989321760833263397216796875
-0.00827916804701089859008789062
-0.00961790606379508972167968750
-0.03774161636829376220703125000
-0.01680729538202285766601562500
-0.00071619957452639937400817871
-0.02099326625466346740722656250
-0.02002224512398242950439453125
-0.01211095228791236877441406250
-0.02001352794468402862548828125
-0.09523276984691619873046875000
-0.03163547068834304809570312500
-0.17365975677967071533203125000
0.09100288897752761840820312500
0.00343888625502586364746093750
0.02265615202486515045166015625
0.14994964003562927246093750000
-0.24049088358879089355468750000
-0.07198599725961685180664062500
0.01176307164132595062255859375
-0.00739744771271944046020507812
-0.04217860847711563110351562500
0.06303163617849349975585937500
0.04125984385609626770019531250
-0.02873490005731582641601562500
-0.06671627610921859741210937500
-0.02839290723204612731933593750
-0.01124440599232912063598632812
-0.16903163492679595947265625000
-0.02718527428805828094482421875
-0.01813850365579128265380859375
-0.00101856980472803115844726562
-0.03476646170020103454589843750
0.08849830925464630126953125000
0.02797737531363964080810546875
-0.03021903894841670989990234375
-0.05681250989437103271484375000
0.05562425404787063598632812500
0.01053790561854839324951171875
-0.09155743569135665893554687500
0.04577245935797691345214843750
0.00900670327246189117431640625
0.10699087381362915039062500000
0.10564693063497543334960937500
0.04663360118865966796875000000
-0.00519936345517635345458984375
-0.03482809662818908691406250000
-0.01472668256610631942749023438
0.03953851759433746337890625000
0.04429271444678306579589843750
-0.04271374270319938659667968750
0.02992092631757259368896484375
-0.02385661751031875610351562500
0.00699300738051533699035644531
0.02089061774313449859619140625
0.00359199382364749908447265625
-0.03663488477468490600585937500
0.04069735854864120483398437500
0.07068525254726409912109375000
0.12839680910110473632812500000
-0.00119737675413489341735839844
0.05855030938982963562011718750
0.00599558465182781219482421875
0.00822504609823226928710937500
-0.14626622200012207031250000000
0.04587594047188758850097656250
0.00704401452094316482543945312
0.05003364756703376770019531250
0.02096955664455890655517578125
0.04718370735645294189453125000
0.06910959631204605102539062500
-0.08208649605512619018554687500
0.03283029794692993164062500000
-0.12370695173740386962890625000
0.05381050333380699157714843750
-0.07091899216175079345703125000
-0.00828433595597743988037109375
0.07705768197774887084960937500
-0.03647327423095703125000000000
-0.03599955886602401733398437500
0.08113065361976623535156250000
0.02586218342185020446777343750
-0.17338271439075469970703125000
0.09991718083620071411132812500
-0.08830000460147857666015625000
0.02120078355073928833007812500
0.06060549989342689514160156250
0.03827980905771255493164062500
-0.05249769613146781921386718750
0.01311837323009967803955078125
-0.00154319230932742357254028320
-0.01172930188477039337158203125
0.05866712704300880432128906250
0.04375037923455238342285156250
0.03809141367673873901367187500
0.04298003390431404113769531250
-0.01656503044068813323974609375
0.10979475080966949462890625000
-0.06211152672767639160156250000
0.04619672149419784545898437500
0.00253038364462554454803466797
0.00316881737671792507171630859
-0.06929478049278259277343750000
0.01016241963952779769897460938
0.01810949854552745819091796875
0.02688836678862571716308593750
-0.02746519632637500762939453125
-0.06122934445738792419433593750
0.05893016234040260314941406250
0.02768687345087528228759765625
-0.02888467349112033843994140625
0.01139403600245714187622070312
0.06549328565597534179687500000
0.05128779634833335876464843750
-0.00070123601472005248069763184
0.04433286935091018676757812500
0.01065595261752605438232421875
0.00429409090429544448852539062
-0.06965105980634689331054687500
-0.05456146225333213806152343750
0.06975679844617843627929687500
-0.03542447462677955627441406250
0.00639383122324943542480468750
0.02950640767812728881835937500
-0.05919852480292320251464843750
-0.02247632294893264770507812500
-0.06231901422142982482910156250
-0.08680096268653869628906250000
-0.06041242554783821105957031250
-0.02087566629052162170410156250
-0.03207530826330184936523437500
0.04116217419505119323730468750
0.04759355634450912475585937500
0.03761355951428413391113281250
0.11856947839260101318359375000
0.02576864510774612426757812500
0.08969905972480773925781250000
0.02657879330217838287353515625
0.00564966769888997077941894531
0.03584746643900871276855468750
0.04053480923175811767578125000
0.04273660853505134582519531250
0.03427436575293540954589843750
-0.09835812449455261230468750000
0.12658897042274475097656250000
-0.07448285818099975585937500000
0.07308196276426315307617187500
0.00284096202813088893890380859
-0.01065910793840885162353515625
-0.05351859331130981445312500000
-0.04583738371729850769042968750
0.03862583637237548828125000000
0.01759785041213035583496093750
-0.00086180941434577107429504395
0.05680083855986595153808593750
0.06981869786977767944335937500
-0.03612341731786727905273437500
-0.01611628197133541107177734375
0.08923021703958511352539062500
0.00988931581377983093261718750
0.01347889844328165054321289062
-0.06994997709989547729492187500
0.05773952230811119079589843750
0.08096722513437271118164062500
0.01287069264799356460571289062
-0.10020514577627182006835937500
-0.11670728772878646850585937500
-0.01131951343268156051635742188
0.00727443210780620574951171875
0.01060594711452722549438476562
-0.11195685714483261108398437500
-0.11965833604335784912109375000
0.01046148128807544708251953125
0.04545376077294349670410156250
0.04676961526274681091308593750
-0.05152649804949760437011718750
-0.03870255127549171447753906250
0.05367819592356681823730468750
0.00128766975831240415573120117
-0.06267910450696945190429687500
0.01711801253259181976318359375
0.03516418114304542541503906250
0.02148691751062870025634765625
-0.12314066290855407714843750000
0.00046763493446633219718933105
0.05004995316267013549804687500
0.05362726375460624694824218750
0.02287490479648113250732421875
0.14004397392272949218750000000
-0.03218905627727508544921875000
-0.06095823645591735839843750000
-0.06827740371227264404296875000
0.02097136154770851135253906250
0.04846786707639694213867187500
0.05234389007091522216796875000
0.01470047701150178909301757812
-0.02896641381084918975830078125
-0.05007424950599670410156250000
0.05681502074003219604492187500
-0.09932830929756164550781250000
-0.06093188747763633728027343750
-0.02580899931490421295166015625
0.01271632034331560134887695312
0.03967179358005523681640625000
-0.02352582849562168121337890625
0.07006826996803283691406250000
-0.03108546510338783264160156250
0.01150066033005714416503906250
-0.01266258023679256439208984375
0.01518378872424364089965820312
-0.00480793975293636322021484375
-0.07018553465604782104492187500
0.00296968733891844749450683594
0.04256169125437736511230468750
-0.00871666241437196731567382812
0.03774335980415344238281250000
0.02284490317106246948242187500
-0.12065798044204711914062500000
0.06304821372032165527343750000
0.06290927529335021972656250000
-0.06147815287113189697265625000
-0.05577826127409934997558593750
0.04074649885296821594238281250
-0.01058019883930683135986328125
-0.08523044735193252563476562500
0.09235178679227828979492187500
0.10175275802612304687500000000
0.01367435883730649948120117188
0.04185833036899566650390625000
-0.00122722517699003219604492188
-0.06699294596910476684570312500
0.01538026146590709686279296875
-0.04584387317299842834472656250
-0.07324552536010742187500000000
0.07847516238689422607421875000
0.12137385457754135131835937500
0.05242220312356948852539062500
0.01906308345496654510498046875
0.02847901917994022369384765625
0.03098604083061218261718750000
-0.04665846750140190124511718750
0.04587719216942787170410156250
0.09288012236356735229492187500
-0.02528030239045619964599609375
0.06405083835124969482421875000
0.04694249480962753295898437500
-0.07296988368034362792968750000
-0.11880321055650711059570312500
-0.09334761649370193481445312500
-0.07862554490566253662109375000
0.03382283076643943786621093750
-0.02330370433628559112548828125
0.01336361002177000045776367188
0.03126804903149604797363281250
-0.10914780199527740478515625000
0.10320187360048294067382812500
0.05021974816918373107910156250
-0.02112435176968574523925781250
0.04158487915992736816406250000
0.00825271755456924438476562500
-0.09276799112558364868164062500
0.04332881793379783630371093750
0.00759383989498019218444824219
-0.10280489176511764526367187500
0.00644146464765071868896484375
-0.01017369609326124191284179688
0.00274165463633835315704345703
0.04224029555916786193847656250
0.01412641908973455429077148438
-0.04570010676980018615722656250
-0.00548276072368025779724121094
-0.07627827674150466918945312500
0.10543958097696304321289062500
0.04543618112802505493164062500
0.02609226480126380920410156250
-0.06343371421098709106445312500
-0.07360241562128067016601562500
-0.07692916691303253173828125000
0.07289744168519973754882812500
0.00178978790063410997390747070
0.08089342713356018066406250000
0.01260834466665983200073242188
0.01407335139811038970947265625
-0.05234213918447494506835937500
0.00706686684861779212951660156
-0.03390690311789512634277343750
-0.00859885755926370620727539062
0.00771977799013257026672363281
0.01160828582942485809326171875
0.02740209177136421203613281250
-0.02622746489942073822021484375
0.07791800796985626220703125000
-0.09219602495431900024414062500
0.03961321339011192321777343750
-0.08146436512470245361328125000
-0.00765747530385851860046386719
-0.12118090689182281494140625000
0.08690512180328369140625000000
-0.09813740849494934082031250000
0.04668621718883514404296875000
-0.00448219664394855499267578125
-0.02904544025659561157226562500
0.00823990814387798309326171875
-0.01420455984771251678466796875
0.04537637904286384582519531250
-0.07267224043607711791992187500
-0.07451838254928588867187500000
0.01126074139028787612915039062
0.04400067403912544250488281250
-0.05236584320664405822753906250
-0.00271800905466079711914062500
0.08889561891555786132812500000
0.01934223622083663940429687500
0.05581372603774070739746093750
0.08675203472375869750976562500
-0.02907546237111091613769531250
0.03645507991313934326171875000
0.02974664047360420227050781250
0.02573731355369091033935546875
0.01711763814091682434082031250
0.04075642675161361694335937500
-0.06108985841274261474609375000
0.12446066737174987792968750000
-0.12861426174640655517578125000
0.03654418885707855224609375000
0.01457536313682794570922851562
0.01390978042036294937133789062
-0.01474419049918651580810546875
-0.09584287554025650024414062500
0.01843718625605106353759765625
0.12090314179658889770507812500
-0.03637120500206947326660156250
0.03743702918291091918945312500
-0.01025259029120206832885742188
-0.07652837038040161132812500000
-0.01923325285315513610839843750
0.09682843089103698730468750000
-0.00117809907533228397369384766
0.01283133774995803833007812500
-0.07017930597066879272460937500
0.00741422874853014945983886719
-0.09947265684604644775390625000
-0.00361015810631215572357177734
0.02678841352462768554687500000
-0.03141893446445465087890625000
-0.00184404535684734582901000977
0.06632956117391586303710937500
0.01137119252234697341918945312
0.09175863862037658691406250000
-0.03704245015978813171386718750
0.06483526527881622314453125000
0.03293893486261367797851562500
0.09602270275354385375976562500
0.02672258578240871429443359375
0.04974111914634704589843750000
0.01739619672298431396484375000
-0.01627253554761409759521484375
-0.05605900287628173828125000000
0.07386888563632965087890625000
-0.01834292151033878326416015625
0.02162539213895797729492187500
-0.00314269703812897205352783203
-0.00723647885024547576904296875
0.06243390589952468872070312500
-0.10801065713167190551757812500
-0.09466331452131271362304687500
-0.06066721305251121520996093750
0.03174789622426033020019531250
0.13135761022567749023437500000
-0.04681310430169105529785156250
-0.00650472007691860198974609375
-0.03056854009628295898437500000
0.08565116673707962036132812500
0.03288491442799568176269531250
0.04945079237222671508789062500
-0.00266116252169013023376464844
-0.04494920000433921813964843750
-0.04682680219411849975585937500
0.08659111708402633666992187500
0.01170442905277013778686523438
-0.01068631187081336975097656250
0.01126950420439243316650390625
-0.04716919362545013427734375000
-0.03612860664725303649902343750
-0.01689436100423336029052734375
0.06138760223984718322753906250
0.06544860452413558959960937500
-0.01329991500824689865112304688
0.09062379598617553710937500000
0.06653679907321929931640625000
0.05203600600361824035644531250
0.01429093629121780395507812500
-0.00151598744560033082962036133
0.03947451338171958923339843750
-0.10348954051733016967773437500
0.01639853417873382568359375000
0.09829775989055633544921875000
-0.01560529321432113647460937500
0.00913536269217729568481445312
0.08455405384302139282226562500
-0.00480687338858842849731445312
0.02475235983729362487792968750
-0.04797419160604476928710937500
-0.01567140035331249237060546875
-0.06617175042629241943359375000
0.07541287690401077270507812500
0.05225742608308792114257812500
0.04635249823331832885742187500
0.12814949452877044677734375000
-0.00341798015870153903961181641
0.04396739974617958068847656250
-0.03764238581061363220214843750
0.01175308227539062500000000000
-0.01318266149610280990600585938
0.04410450533032417297363281250
-0.01009946037083864212036132812
0.04276410862803459167480468750
-0.00885411351919174194335937500
-0.00509638199582695960998535156
0.02009289152920246124267578125
-0.04435001686215400695800781250
-0.02655320800840854644775390625
-0.03474387153983116149902343750
0.09931857138872146606445312500
0.06021571159362792968750000000
0.03407524526119232177734375000
-0.03068451397120952606201171875
-0.04342878982424736022949218750
-0.07599214464426040649414062500
-0.00182741135358810424804687500
0.08447317034006118774414062500
-0.01274503581225872039794921875
-0.07897569239139556884765625000
-0.02512042783200740814208984375
-0.04458483308553695678710937500
-0.04119879007339477539062500000
0.02882800064980983734130859375
0.08198469132184982299804687500
-0.06004910916090011596679687500
-0.01915310695767402648925781250
-0.01901129446923732757568359375
-0.18756380677223205566406250000
-0.02818839438259601593017578125
-0.08487264811992645263671875000
-0.11276068538427352905273437500
-0.00269863312132656574249267578
0.00407147174701094627380371094
0.00619519688189029693603515625
-0.02494799904525279998779296875
-0.05756593495607376098632812500
-0.01155658718198537826538085938
0.11658057570457458496093750000
-0.00616352818906307220458984375
0.06275640428066253662109375000
0.01698320731520652770996093750
-0.00577118434011936187744140625
-0.02503294683992862701416015625
-0.04875757545232772827148437500
0.03392595052719116210937500000
-0.00848628301173448562622070312
-0.02258597873151302337646484375
0.00544183142483234405517578125
0.06537121534347534179687500000
0.04429804906249046325683593750
0.04979113861918449401855468750
0.00358873791992664337158203125
-0.06864298880100250244140625000
0.04626180231571197509765625000
0.01356831844896078109741210938
-0.00493987882509827613830566406
-0.17594984173774719238281250000
0.00245379284024238586425781250
0.00469069555401802062988281250
-0.03324531391263008117675781250
-0.05325703322887420654296875000
-0.01066657807677984237670898438
0.00127126870211213827133178711
-0.00841177161782979965209960938
-0.03320100903511047363281250000
-0.00938235037028789520263671875
-0.08294970542192459106445312500
-0.01122466940432786941528320312
-0.02794050239026546478271484375
0.11034488677978515625000000000
0.02447204850614070892333984375
0.00065971555886790156364440918
0.01054654642939567565917968750
0.00821908004581928253173828125
0.07521921396255493164062500000
0.04731991142034530639648437500
-0.07235390692949295043945312500
0.00952280219644308090209960938
0.08925527334213256835937500000
-0.03272991627454757690429687500
0.13036867976188659667968750000
-0.07906614243984222412109375000
0.00305510964244604110717773438
0.13704374432563781738281250000
0.01550283562391996383666992188
-0.00863224640488624572753906250
-0.05235766246914863586425781250
-0.03150063008069992065429687500
0.09011717885732650756835937500
-0.03228766098618507385253906250
0.01207068841904401779174804688
-0.08945417404174804687500000000
-0.09413716942071914672851562500
-0.00083939480828121304512023926
-0.04114008322358131408691406250
0.01135049015283584594726562500
0.01836433634161949157714843750
-0.01442163065075874328613281250
-0.02174030430614948272705078125
0.00485826563090085983276367188
-0.05444001778960227966308593750
0.03864023461937904357910156250
-0.17086195945739746093750000000
-0.02234318852424621582031250000
-0.00379411829635500907897949219
0.04292640835046768188476562500
0.06505737453699111938476562500
-0.00578756816685199737548828125
0.02678486518561840057373046875
0.00113299814984202384948730469
-0.10059611499309539794921875000
-0.00707274302840232849121093750
-0.09650576859712600708007812500
-0.05402472615242004394531250000
0.08713398873805999755859375000
0.00326460180804133415222167969
-0.15068702399730682373046875000
-0.00469965161755681037902832031
-0.05101105943322181701660156250
-0.10512416809797286987304687500
0.03096716292202472686767578125
0.00878190994262695312500000000
-0.05871278420090675354003906250
-0.01639974117279052734375000000
0.02906564436852931976318359375
-0.03782027959823608398437500000
0.00538120465353131294250488281
0.01623872481286525726318359375
0.06361731141805648803710937500
0.01856108754873275756835937500
-0.16277857124805450439453125000
-0.03428604453802108764648437500
0.04884042590856552124023437500
-0.04401583597064018249511718750
0.06243029609322547912597656250
-0.08217429369688034057617187500
0.06570196151733398437500000000
0.05787491798400878906250000000
0.13997399806976318359375000000
0.02841836214065551757812500000
0.01937975361943244934082031250
-0.02081834711134433746337890625
0.00346085708588361740112304688
0.05834657698869705200195312500
0.02130649238824844360351562500
0.00164515804499387741088867188
0.01181470416486263275146484375
0.07487732172012329101562500000
0.04187033325433731079101562500
0.00808951817452907562255859375
-0.02574330195784568786621093750
0.12604999542236328125000000000
-0.00183491804637014865875244141
0.00165940704755485057830810547
0.01286117266863584518432617188
-0.03213083371520042419433593750
-0.01448071468621492385864257812
-0.02849980629980564117431640625
-0.05304025486111640930175781250
-0.08132635802030563354492187500
-0.02068254724144935607910156250
-0.01579311862587928771972656250
-0.02821741625666618347167968750
-0.04230538755655288696289062500
0.07833642512559890747070312500
-0.01282235793769359588623046875
-0.05776747688651084899902343750
0.03442494943737983703613281250
0.00105550442822277545928955078
0.03437273204326629638671875000
-0.05119876191020011901855468750
-0.00067862163996323943138122559
0.04246068373322486877441406250
-0.00648975232616066932678222656
0.01435152813792228698730468750
0.04555735737085342407226562500
0.03886558488011360168457031250
0.00182685628533363342285156250
0.04333556815981864929199218750
0.00634695589542388916015625000
0.04248498752713203430175781250
0.04800478368997573852539062500
0.02734070271253585815429687500
-0.00902486592531204223632812500
-0.08359863609075546264648437500
-0.00603037001565098762512207031
0.02935594134032726287841796875
0.06723576784133911132812500000
0.02638147771358489990234375000
0.03173857554793357849121093750
-0.05872217565774917602539062500
-0.04367047548294067382812500000
0.03926085308194160461425781250
-0.06126466020941734313964843750
-0.03078223764896392822265625000
0.06880441308021545410156250000
-0.07006775587797164916992187500
0.05402236059308052062988281250
0.00162646512035280466079711914
-0.04375736787915229797363281250
0.00315147149376571178436279297
0.00861760508269071578979492188
-0.00438688835129141807556152344
-0.02900310419499874114990234375
-0.05849276110529899597167968750
-0.03925922885537147521972656250
-0.04319729283452033996582031250
-0.03911801800131797790527343750
0.03951852023601531982421875000
0.01318781264126300811767578125
0.03909391164779663085937500000
-0.02679798193275928497314453125
0.01173517666757106781005859375
0.04284783452749252319335937500
-0.03814208507537841796875000000
-0.02996684610843658447265625000
-0.03687588125467300415039062500
0.02981387637555599212646484375
0.05892877280712127685546875000
-0.02426894754171371459960937500
-0.00676594767719507217407226562
-0.02202119678258895874023437500
-0.04747096449136734008789062500
-0.09627867490053176879882812500
0.07025954872369766235351562500
-0.02632773481309413909912109375
0.01212680712342262268066406250
0.03609523177146911621093750000
-0.03404951095581054687500000000
0.04409114271402359008789062500
0.06827041506767272949218750000
0.03013046272099018096923828125
0.00203649094328284263610839844
-0.00637536728754639625549316406
-0.03855833783745765686035156250
-0.03192471340298652648925781250
-0.02863466925919055938720703125
-0.03633324056863784790039062500
0.05664326250553131103515625000
-0.03321645036339759826660156250
0.04985857382416725158691406250
-0.02248607389628887176513671875
-0.01386914309114217758178710938
0.10092139244079589843750000000
-0.04891699552536010742187500000
-0.02977935969829559326171875000
-0.02799808792769908905029296875
0.13317961990833282470703125000
0.00600584130734205245971679688
0.00693381344899535179138183594
0.05265249311923980712890625000
-0.10197018831968307495117187500
0.05141344666481018066406250000
0.02196944132447242736816406250
0.05517995357513427734375000000
-0.02335216477513313293457031250
-0.03503073751926422119140625000
0.04653673246502876281738281250
0.05807651951909065246582031250
0.07339771091938018798828125000
-0.05235645920038223266601562500
-0.02175100892782211303710937500
0.04158793762326240539550781250
-0.07484385371208190917968750000
0.05534915626049041748046875000
-0.01417457964271306991577148438
-0.02851803414523601531982421875
-0.05635155737400054931640625000
0.03882833942770957946777343750
0.02849831990897655487060546875
-0.02870012819766998291015625000
-0.02334042824804782867431640625
0.04488831013441085815429687500
-0.03931554034352302551269531250
0.01752100884914398193359375000
0.02419867925345897674560546875
-0.01013675238937139511108398438
-0.17115992307662963867187500000
0.01508340612053871154785156250
0.05018570274114608764648437500
0.04037324339151382446289062500
-0.18563729524612426757812500000
-0.04064994305372238159179687500
-0.00428425660356879234313964844
-0.00998258311301469802856445312
0.06959708780050277709960937500
0.02993696928024291992187500000
-0.02103917300701141357421875000
-0.07932581752538681030273437500
0.01077345944941043853759765625
0.06279094517230987548828125000
0.07229584455490112304687500000
-0.03039190545678138732910156250
0.01341492868959903717041015625
-0.05158921331167221069335937500
-0.04358572512865066528320312500
0.04257388785481452941894531250
-0.08949355781078338623046875000
-0.06320540606975555419921875000
0.16032058000564575195312500000
0.02541019208729267120361328125
-0.00570080056786537170410156250
0.04031115770339965820312500000
0.05374014377593994140625000000
-0.05435330420732498168945312500
0.08628018945455551147460937500
-0.00865397695451974868774414062
-0.02431657724082469940185546875
-0.02822043560445308685302734375
0.03055406175553798675537109375
-0.00260439701378345489501953125
0.03700780496001243591308593750
0.08134602010250091552734375000
0.00014004785043653100728988647
-0.00881165079772472381591796875
0.00873926468193531036376953125
-0.00167122506536543369293212891
0.00586738204583525657653808594
-0.05389423668384552001953125000
0.04991110414266586303710937500
0.06247673183679580688476562500
-0.03477192670106887817382812500
0.02271737158298492431640625000
-0.06662651896476745605468750000
-0.00537089584395289421081542969
-0.02542026154696941375732421875
0.03598821908235549926757812500
-0.05124310776591300964355468750
0.09650313109159469604492187500
-0.01698707230389118194580078125
-0.00319240288808941841125488281
0.00578339723870158195495605469
0.06911934167146682739257812500
0.03804456070065498352050781250
-0.08385637402534484863281250000
-0.05825424194335937500000000000
-0.11100401729345321655273437500
-0.01967199891805648803710937500
0.07963874191045761108398437500
-0.03067916259169578552246093750
-0.10964760184288024902343750000
-0.00337220169603824615478515625
0.06373210996389389038085937500
0.05475108325481414794921875000
0.06240804493427276611328125000
0.00309287803247570991516113281
-0.02847942151129245758056640625
-0.00564750516787171363830566406
-0.00625334354117512702941894531
-0.03141362965106964111328125000
-0.08401847630739212036132812500
-0.04667476192116737365722656250
-0.01128862518817186355590820312
0.00830183457583189010620117188
0.00357461208477616310119628906
0.01946297474205493927001953125
0.04607922583818435668945312500
-0.00309677585028111934661865234
-0.03526064753532409667968750000
0.00202665245160460472106933594
-0.02309550158679485321044921875
-0.01475406903773546218872070312
-0.09173865616321563720703125000
0.04078925773501396179199218750
0.03357810899615287780761718750
-0.01800185255706310272216796875
0.06133030354976654052734375000
-0.00844243820756673812866210938
-0.01671858504414558410644531250
0.01230980828404426574707031250
0.05832259356975555419921875000
-0.02590706758201122283935546875
0.07130257040262222290039062500
0.01925796642899513244628906250
-0.00497348560020327568054199219
-0.07908390462398529052734375000
-0.04039559140801429748535156250
0.03964124619960784912109375000
-0.04791206866502761840820312500
0.02210376225411891937255859375
0.04668891429901123046875000000
0.04366201162338256835937500000
-0.05185713618993759155273437500
-0.04676547273993492126464843750
0.00553791830316185951232910156
0.00505137676373124122619628906
0.03555957227945327758789062500
0.05404295399785041809082031250
0.00924176909029483795166015625
-0.02578184194862842559814453125
-0.07534090429544448852539062500
0.01133728399872779846191406250
-0.08708000183105468750000000000
-0.06802393496036529541015625000
0.09739367663860321044921875000
-0.06682436913251876831054687500
0.04681709408760070800781250000
0.01315577980130910873413085938
0.00996485631912946701049804688
-0.02685367502272129058837890625
0.01789645105600357055664062500
0.00818682741373777389526367188
-0.03546036407351493835449218750
-0.01450746227055788040161132812
0.04135235026478767395019531250
-0.01435663271695375442504882812
0.00461682351306080818176269531
0.02111325971782207489013671875
0.09478420764207839965820312500
0.09537339955568313598632812500
-0.10920463502407073974609375000
0.10399732738733291625976562500
0.08775422722101211547851562500
0.05589665099978446960449218750
-0.01412641722708940505981445312
-0.00167398492339998483657836914
-0.00382248032838106155395507812
-0.02451515011489391326904296875
-0.02253638394176959991455078125
-0.03630929440259933471679687500
-0.06512723863124847412109375000
-0.06442800164222717285156250000
-0.03725777938961982727050781250
0.05064163357019424438476562500
0.02751945517957210540771484375
0.06279835850000381469726562500
0.01321391575038433074951171875
-0.02974300831556320190429687500
-0.04758722707629203796386718750
0.03196837753057479858398437500
0.01262665167450904846191406250
-0.02290453203022480010986328125
0.08324233442544937133789062500
0.10083486884832382202148437500
-0.05762416124343872070312500000
-0.05224897339940071105957031250
0.03106946498155593872070312500
-0.10938193649053573608398437500
-0.01518735289573669433593750000
-0.00675287982448935508728027344
-0.06076458096504211425781250000
-0.00691282330080866813659667969
-0.00328351324424147605895996094
0.00965721718966960906982421875
0.00202818121761083602905273438
-0.06298945099115371704101562500
-0.07305927574634552001953125000
0.04415343701839447021484375000
0.04511421173810958862304687500
-0.06430176645517349243164062500
-0.14261066913604736328125000000
0.00326426839455962181091308594
0.04906209930777549743652343750
-0.03056249208748340606689453125
0.03339140862226486206054687500
0.06838025897741317749023437500
-0.08841892331838607788085937500
0.03802868723869323730468750000
0.07411971688270568847656250000
-0.02201715484261512756347656250
-0.00592748494818806648254394531
0.15615803003311157226562500000
-0.05049484223127365112304687500
0.08777332305908203125000000000
-0.06058805435895919799804687500
-0.06436382234096527099609375000
-0.04888312146067619323730468750
0.03181517869234085083007812500
-0.04913742467761039733886718750
-0.00326397642493247985839843750
0.01759484596550464630126953125
-0.04485873505473136901855468750
0.02080713585019111633300781250
-0.01222747936844825744628906250
-0.16751515865325927734375000000
-0.09206403046846389770507812500
-0.00418483093380928039550781250
-0.02877553924918174743652343750
0.01373863685876131057739257812
-0.00596028380095958709716796875
-0.08166036009788513183593750000
0.10165004432201385498046875000
-0.02271239832043647766113281250
0.05605996027588844299316406250
0.00161899323575198650360107422
-0.11417271941900253295898437500
-0.02622555010020732879638671875
0.00062214536592364311218261719
0.00398680055513978004455566406
-0.04609986022114753723144531250
-0.00071165175177156925201416016
-0.03656118735671043395996093750
-0.02603612281382083892822265625
0.02032032981514930725097656250
-0.10311865061521530151367187500
-0.04510043188929557800292968750
0.09673892706632614135742187500
0.04227894172072410583496093750
0.05767470970749855041503906250
-0.03917717933654785156250000000
-0.05060389637947082519531250000
0.00268255593255162239074707031
-0.02035995572805404663085937500
-0.11926478147506713867187500000
0.01685222610831260681152343750
0.03864538297057151794433593750
-0.03656203672289848327636718750
0.08426825702190399169921875000
0.03414806723594665527343750000
0.04571950435638427734375000000
-0.03204334899783134460449218750
-0.01935285516083240509033203125
0.00136308791115880012512207031
-0.03136010095477104187011718750
-0.05695382878184318542480468750
-0.04173734039068222045898437500
0.05927856266498565673828125000
-0.05047951638698577880859375000
-0.04296962916851043701171875000
0.02723027579486370086669921875
-0.00898706074804067611694335938
0.05960634723305702209472656250
0.03800094500184059143066406250
0.03563533350825309753417968750
-0.05625832825899124145507812500
0.04175591096282005310058593750
0.09390663355588912963867187500
0.01676501706242561340332031250
0.00134996126871556043624877930
0.07089024037122726440429687500
-0.05039538815617561340332031250
-0.09242644160985946655273437500
-0.02661780826747417449951171875
-0.00352962897159159183502197266
0.04636455699801445007324218750
-0.04302346333861351013183593750
0.02170577272772789001464843750
-0.08373523503541946411132812500
0.03074602782726287841796875000
0.01803581416606903076171875000
-0.03535649552941322326660156250
0.04392223805189132690429687500
-0.00829729065299034118652343750
-0.10227963328361511230468750000
-0.02518541924655437469482421875
0.06588611006736755371093750000
-0.01011519040912389755249023438
0.06318554282188415527343750000
-0.01844955794513225555419921875
0.09274014830589294433593750000
0.02096241526305675506591796875
-0.12439455837011337280273437500
0.02984588220715522766113281250
-0.06937860697507858276367187500
0.04095035046339035034179687500
0.04002532735466957092285156250
-0.01282113231718540191650390625
0.01763868890702724456787109375
-0.04554960131645202636718750000
0.06916544586420059204101562500
-0.01242298353463411331176757812
-0.05450012162327766418457031250
-0.00149526970926672220230102539
-0.05792391300201416015625000000
-0.02030277997255325317382812500
-0.05567406117916107177734375000
-0.04380350932478904724121093750
0.06275349110364913940429687500
0.07996650785207748413085937500
0.03139828890562057495117187500
0.10113802552223205566406250000
-0.04637326672673225402832031250
-0.00600698776543140411376953125
0.01037276722490787506103515625
0.02927728742361068725585937500
-0.16884484887123107910156250000
0.07668650150299072265625000000
0.03468327224254608154296875000
-0.04047279432415962219238281250
-0.01850637421011924743652343750
0.04215030372142791748046875000
0.03707310929894447326660156250
0.08047194033861160278320312500
0.04557499289512634277343750000
-0.01083623711019754409790039062
-0.01072750333696603775024414062
0.02830359898507595062255859375
-0.04541947692632675170898437500
-0.00048461838741786777973175049
0.07406236231327056884765625000
-0.16797181963920593261718750000
-0.02293823473155498504638671875
-0.03070825524628162384033203125
0.03222411125898361206054687500
0.01738403923809528350830078125
0.02642713673412799835205078125
0.00043929775711148977279663086
-0.01529181096702814102172851562
-0.00736329052597284317016601562
0.00278979144059121608734130859
0.00113460503052920103073120117
0.03905801102519035339355468750
-0.05810420215129852294921875000
0.06838860362768173217773437500
-0.01122982241213321685791015625
0.03565718978643417358398437500
0.03745466098189353942871093750
-0.05028435215353965759277343750
0.00747571699321269989013671875
-0.01032270770519971847534179688
-0.04567522183060646057128906250
0.02335086464881896972656250000
-0.02271096408367156982421875000
0.03584821894764900207519531250
-0.07358736544847488403320312500
-0.01844475977122783660888671875
-0.01461822167038917541503906250
-0.02753981016576290130615234375
0.01598972640931606292724609375
0.03287239372730255126953125000
0.01012029219418764114379882812
0.04168322309851646423339843750
0.05310895666480064392089843750
-0.04949278384447097778320312500
0.01149886660277843475341796875
-0.00132036593277007341384887695
0.03735684230923652648925781250
0.20416131615638732910156250000
-0.02192123234272003173828125000
0.02706481330096721649169921875
-0.00890133436769247055053710938
0.01294486038386821746826171875
0.07551929354667663574218750000
0.09267856925725936889648437500
-0.01637503132224082946777343750
0.06933163106441497802734375000
-0.00697329174727201461791992188
-0.00258468114770948886871337891
0.14737229049205780029296875000
0.01291929185390472412109375000
-0.03878725692629814147949218750
-0.00859202351421117782592773438
0.05227656662464141845703125000
0.07221082597970962524414062500
0.04256013035774230957031250000
-0.01988949067890644073486328125
0.08535700291395187377929687500
0.04386464133858680725097656250
0.08312648534774780273437500000
0.00889110751450061798095703125
-0.04318968206644058227539062500
0.07470022141933441162109375000
0.05127387866377830505371093750
-0.06873306632041931152343750000
0.08872308582067489624023437500
-0.00079322041710838675498962402
-0.02348823472857475280761718750
-0.03695721179246902465820312500
-0.06670837104320526123046875000
-0.02927660942077636718750000000
0.10966550558805465698242187500
0.02104394510388374328613281250
-0.04407112672924995422363281250
0.02249985933303833007812500000
0.05892448872327804565429687500
-0.05680759996175765991210937500
-0.05814001709222793579101562500
-0.01017089094966650009155273438
-0.09231875836849212646484375000
-0.03975718095898628234863281250
-0.06104522570967674255371093750
-0.04684361070394515991210937500
0.03316051885485649108886718750
0.01930473186075687408447265625
0.01907253824174404144287109375
-0.01313316449522972106933593750
0.02640788443386554718017578125
0.00080198794603347778320312500
0.00674135563895106315612792969
0.00637209136039018630981445312
0.00542733119800686836242675781
0.08072672784328460693359375000
-0.01885618269443511962890625000
0.06023064255714416503906250000
-0.02750599384307861328125000000
0.00540500646457076072692871094
-0.02051373012363910675048828125
-0.10621584951877593994140625000
0.05646966770291328430175781250
-0.08121498674154281616210937500
0.00687808869406580924987792969
0.00027275542379356920719146729
0.01908785849809646606445312500
0.04725511372089385986328125000
0.00379308615811169147491455078
-0.09105648100376129150390625000
0.00028134055901318788528442383
-0.06505379080772399902343750000
0.04089073464274406433105468750
-0.08981809765100479125976562500
-0.08440926671028137207031250000
0.05950960889458656311035156250
0.04443125054240226745605468750
-0.05865690857172012329101562500
-0.09991425275802612304687500000
0.02377457544207572937011718750
0.00845506135374307632446289062
0.05544254928827285766601562500
-0.02146540209650993347167968750
0.07377024739980697631835937500
0.03164182230830192565917968750
-0.12896445393562316894531250000
0.04963278025388717651367187500
-0.04724783822894096374511718750
0.09368609637022018432617187500
-0.06271474063396453857421875000
-0.05828753486275672912597656250
-0.04068341851234436035156250000
0.03901471570134162902832031250
-0.06915129721164703369140625000
0.04361539334058761596679687500
-0.00046692093019373714923858643
0.03933266922831535339355468750
-0.04288391023874282836914062500
-0.02634071186184883117675781250
-0.01547292526811361312866210938
-0.15573602914810180664062500000
-0.03493662178516387939453125000
0.01337545458227396011352539062
-0.07077681273221969604492187500
0.03269585594534873962402343750
0.01208247244358062744140625000
-0.06559804826974868774414062500
0.00627865921705961227416992188
-0.01985420845448970794677734375
-0.00853586010634899139404296875
0.03854678571224212646484375000
-0.01454126648604869842529296875
-0.03981322795152664184570312500
0.04556701704859733581542968750
0.00091735919704660773277282715
0.00311411637812852859497070312
0.02487087249755859375000000000
-0.00318454438820481300354003906
-0.05269421264529228210449218750
0.09018314629793167114257812500
0.01125659327954053878784179688
0.03153334185481071472167968750
0.04772811755537986755371093750
0.04680002108216285705566406250
0.02871837094426155090332031250
-0.04362373426556587219238281250
-0.01112511102110147476196289062
-0.00817116815596818923950195312
0.15147604048252105712890625000
0.05928228422999382019042968750
0.01934643276035785675048828125
0.00687290541827678680419921875
-0.03722444549202919006347656250
0.02173552103340625762939453125
-0.09281136840581893920898437500
0.03078746795654296875000000000
-0.00548274209722876548767089844
0.01584899798035621643066406250
0.03747887536883354187011718750
0.00438642036169767379760742188
0.01975496858358383178710937500
0.01484362594783306121826171875
-0.06685973703861236572265625000
0.01345080230385065078735351562
0.08054118603467941284179687500
-0.05326517671346664428710937500
-0.06986830383539199829101562500
-0.01120183244347572326660156250
0.01349218282848596572875976562
-0.02155843563377857208251953125
-0.00023574121587444096803665161
-0.04027573391795158386230468750
-0.04884117469191551208496093750
-0.00307239918038249015808105469
0.16438934206962585449218750000
-0.04029800742864608764648437500
0.00258180662058293819427490234
-0.01919613592326641082763671875
0.09685441106557846069335937500
-0.04952784627676010131835937500
0.07209533452987670898437500000
-0.02376019209623336791992187500
0.05576515197753906250000000000
0.05132278054952621459960937500
0.00296764331869781017303466797
0.08133089542388916015625000000
0.02975834719836711883544921875
-0.05922893807291984558105468750
0.06778568029403686523437500000
0.03888184949755668640136718750
0.10115202516317367553710937500
-0.01588333025574684143066406250
0.11743883788585662841796875000
-0.00243210024200379848480224609
0.02583383955061435699462890625
-0.01651521958410739898681640625
-0.08750195056200027465820312500
-0.00412123417481780052185058594
-0.03276178613305091857910156250
0.02727088518440723419189453125
0.03281036391854286193847656250
-0.06842409074306488037109375000
0.06254757940769195556640625000
-0.04836806654930114746093750000
-0.09326167404651641845703125000
-0.05863282084465026855468750000
0.06044716387987136840820312500
-0.00827370025217533111572265625
-0.08272989839315414428710937500
-0.10092534869909286499023437500
-0.12855727970600128173828125000
0.05979593843221664428710937500
0.10336885601282119750976562500
0.02016232907772064208984375000
0.00088869122555479407310485840
0.02514936402440071105957031250
0.01187841407954692840576171875
-0.01811699382960796356201171875
-0.01269722916185855865478515625
-0.03948538005352020263671875000
-0.00446095783263444900512695312
-0.03028380870819091796875000000
0.04873403906822204589843750000
-0.02876484207808971405029296875
-0.00193601544015109539031982422
-0.04229196161031723022460937500
0.02982542850077152252197265625
0.00851168856024742126464843750
0.00018542837642598897218704224
-0.05683309957385063171386718750
0.00061089074006304144859313965
-0.01643228344619274139404296875
0.05907155200839042663574218750
-0.06250796467065811157226562500
-0.13016206026077270507812500000
-0.04726624861359596252441406250
-0.07911357283592224121093750000
0.18266116082668304443359375000
0.05707908049225807189941406250
0.05168328806757926940917968750
-0.12093049287796020507812500000
-0.05160345509648323059082031250
-0.01222005579620599746704101562
-0.08981868624687194824218750000
0.01978004910051822662353515625
0.05836400762200355529785156250
-0.00658959755674004554748535156
0.02328020893037319183349609375
0.15285673737525939941406250000
0.04657322913408279418945312500
0.13085944950580596923828125000
0.03828009590506553649902343750
-0.02534306421875953674316406250
-0.04550501704216003417968750000
0.09494699537754058837890625000
-0.04146344959735870361328125000
-0.09075037389993667602539062500
0.06584721058607101440429687500
-0.04778522625565528869628906250
-0.04583172500133514404296875000
0.01952316798269748687744140625
-0.00268520647659897804260253906
0.00742906099185347557067871094
0.00680078705772757530212402344
-0.06778435409069061279296875000
-0.04081854969263076782226562500
-0.02318002097308635711669921875
0.05238876491785049438476562500
0.00861416477710008621215820312
0.06323294341564178466796875000
0.05604737997055053710937500000
0.02177974209189414978027343750
-0.14321923255920410156250000000
-0.01329262461513280868530273438
-0.10921783745288848876953125000
0.08271031081676483154296875000
-0.04876124113798141479492187500
0.03954145684838294982910156250
-0.09902098774909973144531250000
0.00048091984353959560394287109
0.01113266125321388244628906250
-0.06169686466455459594726562500
-0.17661982774734497070312500000
-0.08052783459424972534179687500
0.06916932761669158935546875000
0.05442301928997039794921875000
-0.05688988044857978820800781250
-0.05315896496176719665527343750
0.00828575342893600463867187500
-0.02349403686821460723876953125
0.00380955496802926063537597656
-0.00521630374714732170104980469
-0.00376319396309554576873779297
0.00901082158088684082031250000
0.11275961250066757202148437500
0.05374202504754066467285156250
-0.11849033832550048828125000000
0.05813954398036003112792968750
0.02421575970947742462158203125
-0.16661389172077178955078125000
0.10523311793804168701171875000
0.04028401896357536315917968750
0.12766811251640319824218750000
0.03092764504253864288330078125
0.02411695569753646850585937500
-0.00548426806926727294921875000
-0.23675552010536193847656250000
0.05394471064209938049316406250
0.08882749080657958984375000000
-0.18043038249015808105468750000
0.00053900259081274271011352539
-0.05305849015712738037109375000
0.05121591314673423767089843750
-0.01265694387257099151611328125
-0.03883556649088859558105468750
0.00263459468260407447814941406
-0.00956711638718843460083007812
0.09599379450082778930664062500
0.03259906917810440063476562500
0.05711995065212249755859375000
0.05259788781404495239257812500
-0.03949652239680290222167968750
0.00094397057546302676200866699
-0.00269217998720705509185791016
0.03096153400838375091552734375
-0.04060987010598182678222656250
0.05107212439179420471191406250
0.06862626224756240844726562500
-0.04175645858049392700195312500
-0.06740494817495346069335937500
0.00097779487259685993194580078
-0.03380779922008514404296875000
0.02347526699304580688476562500
-0.06474179029464721679687500000
-0.04889178648591041564941406250
-0.01396415941417217254638671875
-0.01565772294998168945312500000
0.09752510488033294677734375000
0.13577269017696380615234375000
-0.05518906563520431518554687500
-0.04217656329274177551269531250
-0.08834674209356307983398437500
0.05594380944967269897460937500
-0.02741677686572074890136718750
-0.02843238599598407745361328125
0.07327832281589508056640625000
-0.03739233314990997314453125000
0.03643381223082542419433593750
0.02387463860213756561279296875
-0.02393709495663642883300781250
-0.15456458926200866699218750000
0.14643649756908416748046875000
0.01920454576611518859863281250
-0.00264443038031458854675292969
0.01616432331502437591552734375
-0.02302571758627891540527343750
0.06669475883245468139648437500
0.02729562856256961822509765625
-0.12929937243461608886718750000
-0.05653488263487815856933593750
0.00953102670609951019287109375
0.02825035154819488525390625000
-0.07691570371389389038085937500
0.03680367395281791687011718750
-0.04715143516659736633300781250
-0.02425892464816570281982421875
0.06433048844337463378906250000
0.02601720578968524932861328125
-0.12442812323570251464843750000
0.04099488258361816406250000000
-0.12128055095672607421875000000
0.18433922529220581054687500000
0.01347254682332277297973632812
0.05407056584954261779785156250
-0.00353296636603772640228271484
-0.01248572114855051040649414062
-0.02409073151648044586181640625
-0.05190670117735862731933593750
0.01253539044409990310668945312
-0.00008336773316841572523117065
-0.03076892532408237457275390625
-0.03427418321371078491210937500
0.05383508652448654174804687500
-0.00077403726754710078239440918
0.06532969325780868530273437500
0.02728844620287418365478515625
0.04041661322116851806640625000
0.07617198675870895385742187500
-0.07576376944780349731445312500
-0.05417370796203613281250000000
-0.06871894747018814086914062500
-0.01842183992266654968261718750
0.03913863748311996459960937500
0.00773323699831962585449218750
-0.05291155353188514709472656250
-0.03923173248767852783203125000
-0.13866694271564483642578125000
-0.05769363045692443847656250000
0.02880859561264514923095703125
-0.00697446661069989204406738281
0.20032793283462524414062500000
-0.06180730089545249938964843750
0.07963243871927261352539062500
0.05016973614692687988281250000
-0.00407964130863547325134277344
0.02700779400765895843505859375
-0.09220141917467117309570312500
0.01868486963212490081787109375
-0.04294210299849510192871093750
0.00705153960734605789184570312
0.06182263419032096862792968750
0.06515269726514816284179687500
0.01642932929098606109619140625
-0.02473917417228221893310546875
0.08407372981309890747070312500
-0.09483262151479721069335937500
-0.00293986336328089237213134766
-0.01842117682099342346191406250
-0.14174433052539825439453125000
-0.01642963662743568420410156250
0.07717129588127136230468750000
-0.05107573047280311584472656250
0.06675688177347183227539062500
-0.07681779563426971435546875000
-0.11650283634662628173828125000
0.12959106266498565673828125000
0.07309957593679428100585937500
0.03893030434846878051757812500
-0.02360181137919425964355468750
0.04698674008250236511230468750
-0.10487850010395050048828125000
-0.06717655807733535766601562500
0.03066958114504814147949218750
0.01632338762283325195312500000
-0.00193435861729085445404052734
0.07945067435503005981445312500
-0.03530932962894439697265625000
0.06437749415636062622070312500
0.02342990785837173461914062500
-0.00909094326198101043701171875
0.00256205769255757331848144531
0.03294824063777923583984375000
-0.06108444929122924804687500000
-0.00980108324438333511352539062
-0.20868371427059173583984375000
0.03494717553257942199707031250
0.01360207982361316680908203125
-0.02390305884182453155517578125
-0.01031810138374567031860351562
0.05881080776453018188476562500
-0.15596216917037963867187500000
-0.02557885460555553436279296875
-0.01479582488536834716796875000
0.09729073941707611083984375000
-0.06442828476428985595703125000
-0.06597523391246795654296875000
0.05144590139389038085937500000
-0.02235565707087516784667968750
-0.02432104945182800292968750000
-0.04898897185921669006347656250
0.05297349765896797180175781250
-0.03564074262976646423339843750
-0.00494903372600674629211425781
0.04115814343094825744628906250
-0.04410823434591293334960937500
0.02457865513861179351806640625
0.02606131881475448608398437500
-0.00945702008903026580810546875
-0.04840111732482910156250000000
-0.04417607188224792480468750000
-0.01297784037888050079345703125
0.14094498753547668457031250000
0.00571951828896999359130859375
0.14096061885356903076171875000
0.05882514268159866333007812500
-0.03014457039535045623779296875
-0.01185923442244529724121093750
-0.01207212917506694793701171875
-0.08627095818519592285156250000
-0.02087876014411449432373046875
0.11143087595701217651367187500
0.08081186562776565551757812500
0.08052996546030044555664062500
0.07163699716329574584960937500
0.00806761998683214187622070312
0.03807615116238594055175781250
0.03749149292707443237304687500
-0.00683894287794828414916992188
-0.10967178642749786376953125000
-0.06998085230588912963867187500
0.00125865964218974113464355469
-0.02990721724927425384521484375
-0.00839144363999366760253906250
0.04309686273336410522460937500
0.01358766295015811920166015625
-0.21740618348121643066406250000
-0.02924870699644088745117187500
0.03208307921886444091796875000
-0.00712086958810687065124511719
-0.02092522382736206054687500000
-0.02437943220138549804687500000
-0.02834714390337467193603515625
-0.08518905937671661376953125000
0.00864685326814651489257812500
-0.02221276797354221343994140625
0.13828700780868530273437500000
-0.01551072858273983001708984375
0.00518049672245979309082031250
0.13426712155342102050781250000
0.03199455514550209045410156250
0.00859440397471189498901367188
-0.02101869508624076843261718750
0.15680435299873352050781250000
0.03658300638198852539062500000
-0.06571251153945922851562500000
0.05809642001986503601074218750
0.05731994658708572387695312500
-0.08226450532674789428710937500
0.02947090193629264831542968750
-0.02753516472876071929931640625
-0.03645220398902893066406250000
0.06205227971076965332031250000
0.03810308501124382019042968750
0.01401692442595958709716796875
0.01456952840089797973632812500
0.13589398562908172607421875000
0.06582110375165939331054687500
0.02717840485274791717529296875
0.12092830985784530639648437500
-0.03019766509532928466796875000
-0.01094633713364601135253906250
-0.04450379312038421630859375000
0.02839143946766853332519531250
-0.09120602905750274658203125000
0.02810279279947280883789062500
-0.02836625836789608001708984375
0.02081654407083988189697265625
-0.09037653356790542602539062500
0.08990303426980972290039062500
-0.00382753857411444187164306641
0.06803391128778457641601562500
0.05174529179930686950683593750
0.00630943244323134422302246094
0.00937395077198743820190429688
-0.03551650419831275939941406250
-0.01722204312682151794433593750
0.01632875576615333557128906250
-0.00191384076606482267379760742
-0.00432874588295817375183105469
0.12770493328571319580078125000
0.12239532172679901123046875000
-0.00648641493171453475952148438
-0.03339917957782745361328125000
0.13951344788074493408203125000
0.02297891676425933837890625000
-0.01978364400565624237060546875
0.00709109008312225341796875000
0.01882405392825603485107421875
-0.09967391192913055419921875000
0.06504798680543899536132812500
0.03747329115867614746093750000
-0.01494983024895191192626953125
-0.07971131056547164916992187500
0.06011451035737991333007812500
0.00862517114728689193725585938
0.20571741461753845214843750000
-0.00253671663813292980194091797
-0.03129627555608749389648437500
0.02069787494838237762451171875
0.01015472877770662307739257812
0.01974039524793624877929687500
0.04369209706783294677734375000
0.17911869287490844726562500000
