2.223745174705982208e-02
7.736615836620330811e-02
8.013021945953369141e-02
-1.548373848199844360e-01
-7.800868153572082520e-02
-1.321546733379364014e-01
-1.538345366716384888e-01
-1.101146452128887177e-02
1.877317018806934357e-02
-1.365999132394790649e-01
-9.388320147991180420e-03
1.505267918109893799e-01
2.823656983673572540e-02
-2.674339413642883301e-01
1.593513647094368935e-03
-6.332796812057495117e-02
8.840884268283843994e-02
-1.261149197816848755e-01
-1.832888722419738770e-01
-5.713898222893476486e-03
2.662885375320911407e-02
-1.743960194289684296e-02
5.178050324320793152e-02
-1.188926771283149719e-01
1.346997022628784180e-01
1.936575584113597870e-02
-4.837659373879432678e-02
8.376941829919815063e-02
-4.676347970962524414e-02
-7.544732838869094849e-02
-1.213664934039115906e-01
-1.309661865234375000e-01
6.428719311952590942e-02
-1.000372320413589478e-01
-7.785500586032867432e-02
-2.129122018814086914e-01
-4.695722460746765137e-02
1.278782188892364502e-01
3.017394803464412689e-03
-1.873481422662734985e-01
1.669321954250335693e-01
4.866094142198562622e-02
-1.364751905202865601e-01
2.360085546970367432e-01
-1.067992392927408218e-02
4.888816550374031067e-02
1.075370311737060547e-01
3.357191011309623718e-02
-5.307328328490257263e-02
-2.640599198639392853e-02
3.140208125114440918e-01
2.963436394929885864e-02
1.999902352690696716e-02
1.148916259407997131e-01
2.156536653637886047e-02
-1.361935287714004517e-01
6.615477055311203003e-02
1.137703582644462585e-01
2.043596841394901276e-02
9.050051867961883545e-02
1.182035505771636963e-01
-5.721938237547874451e-02
-1.541732624173164368e-02
-3.847109153866767883e-02
-1.440441757440567017e-01
1.347172707319259644e-01
4.791406542062759399e-02
-5.929531157016754150e-02
9.728454053401947021e-03
1.763964444398880005e-02
-2.228247821331024170e-01
1.513494551181793213e-01
9.902933984994888306e-02
-1.038311198353767395e-01
-2.256503142416477203e-02
-1.375499367713928223e-01
2.991629578173160553e-02
7.044817507266998291e-02
2.059453725814819336e-01
8.896823227405548096e-02
6.890726089477539062e-02
-1.080328822135925293e-01
9.634587913751602173e-02
-4.574320465326309204e-02
5.890401825308799744e-02
-1.449053138494491577e-01
-1.040257364511489868e-01
-1.027130782604217529e-01
5.273785069584846497e-02
-8.259686082601547241e-02
2.972440235316753387e-02
7.727656513452529907e-02
-7.357183843851089478e-02
5.642108619213104248e-02
-8.547756820917129517e-02
-5.846322700381278992e-02
-1.410726830363273621e-02
8.831738680601119995e-02
1.037857457995414734e-01
3.531213104724884033e-02
-1.169826239347457886e-01
1.139268279075622559e-01
-2.242062054574489594e-02
4.361250251531600952e-02
5.939645692706108093e-02
-5.123946070671081543e-02
-9.723448008298873901e-02
1.573338508605957031e-01
1.394126191735267639e-02
-3.575791046023368835e-02
9.523247182369232178e-02
-5.059471726417541504e-02
8.147951960563659668e-02
1.731461030431091785e-03
2.176109328866004944e-02
4.905681312084197998e-02
-1.792529374361038208e-01
1.409313268959522247e-02
2.127782441675662994e-02
1.444412115961313248e-02
1.925259083509445190e-01
1.189325749874114990e-01
1.599380187690258026e-02
6.116227433085441589e-02
-8.877148479223251343e-02
3.885484114289283752e-02
7.612426578998565674e-02
-3.467374667525291443e-02
