-1.291722059249877930e-01
-2.050377428531646729e-01
-3.627732694149017334e-01
-7.387325912714004517e-02
2.347109019756317139e-01
-4.607760608196258545e-01
-3.433794900774955750e-02
6.970324367284774780e-02
2.575239837169647217e-01
-3.202347457408905029e-01
-3.714097142219543457e-01
2.106576114892959595e-01
-1.365048885345458984e-01
8.583562821149826050e-02
3.768550157546997070e-01
-1.665968000888824463e-01
1.486339271068572998e-01
1.977190971374511719e-01
2.221921831369400024e-01
2.524028122425079346e-01
-1.885587908327579498e-02
-2.631986141204833984e-01
-1.198998391628265381e-01
2.862632572650909424e-01
-3.466424047946929932e-01
-3.560311719775199890e-02
2.987332344055175781e-01
1.418278366327285767e-02
-2.600924670696258545e-01
2.637414038181304932e-01
-3.153893649578094482e-01
-2.486815154552459717e-01
2.790842652320861816e-01
3.143936768174171448e-02
1.697724163532257080e-01
3.125195801258087158e-01
1.593766808509826660e-01
1.156693771481513977e-01
-6.634972244501113892e-02
3.565486669540405273e-01
9.600520133972167969e-02
-4.437306821346282959e-01
-1.357681900262832642e-01
-1.160373687744140625e-01
-1.193610653281211853e-01
1.809679567813873291e-01
1.476874947547912598e-01
2.470393031835556030e-01
2.613086700439453125e-01
-3.687250316143035889e-01
2.434165477752685547e-01
1.248804926872253418e-01
3.642159998416900635e-01
3.449397385120391846e-01
-3.016053736209869385e-01
3.643977344036102295e-01
5.282429456710815430e-01
-3.630362451076507568e-01
6.575185805559158325e-02
-4.943274706602096558e-02
4.320225715637207031e-01
1.084054857492446899e-01
1.881219148635864258e-01
-2.483523339033126831e-01
2.456128895282745361e-01
-2.312560528516769409e-01
-4.657512307167053223e-01
-3.736301064491271973e-01
1.845975220203399658e-01
-3.306565582752227783e-01
5.414339900016784668e-02
1.959610730409622192e-01
2.705900669097900391e-01
4.307651519775390625e-01
-2.150709331035614014e-01
3.242208361625671387e-01
2.345929294824600220e-01
4.096602275967597961e-02
-2.487603761255741119e-02
1.753039658069610596e-01
-1.120119169354438782e-01
-2.448089271783828735e-01
1.167411878705024719e-01
9.735365211963653564e-02
-2.055967971682548523e-02
-4.707414805889129639e-01
-1.897779107093811035e-01
-1.757743656635284424e-01
3.224542438983917236e-01
1.334271878004074097e-01
2.452516555786132812e-01
-1.726795434951782227e-01
1.125203594565391541e-01
1.872855797410011292e-02
-4.956914484500885010e-02
6.564138084650039673e-02
1.966599375009536743e-01
1.521157324314117432e-01
-9.403267502784729004e-02
6.780052185058593750e-02
3.606458753347396851e-02
-4.855425655841827393e-02
-3.467752039432525635e-02
-3.031031042337417603e-02
3.299346268177032471e-01
-9.251954406499862671e-02
7.930352538824081421e-02
1.601897031068801880e-01
-3.310051858425140381e-01
1.664223670959472656e-01
-6.006086990237236023e-02
-2.299837768077850342e-02
-3.909062743186950684e-01
-2.518588304519653320e-01
-8.997523039579391479e-02
2.933691143989562988e-01
1.333488374948501587e-01
-1.671622991561889648e-01
3.099686205387115479e-01
1.947537809610366821e-01
-2.619752585887908936e-01
2.139826864004135132e-01
-3.511548936367034912e-01
-1.211513280868530273e-01
1.688945740461349487e-01
2.216261997818946838e-02
1.630304455757141113e-01
-1.062080189585685730e-01
