-1.105550676584243774e-02,-5.511920526623725891e-02,-1.408132910728454590e-02,-5.320507660508155823e-02,-1.121428422629833221e-02,-1.616350002586841583e-02,3.999061882495880127e-03,1.169172674417495728e-02,2.527496963739395142e-02,4.494253918528556824e-02,-3.814440220594406128e-02,6.342254579067230225e-02,-3.941516205668449402e-02,1.380926184356212616e-02,1.087705371901392937e-03,-4.097427427768707275e-02,2.464150078594684601e-02,9.502799250185489655e-03,3.969242423772811890e-02,-1.332991849631071091e-02,-1.126351300626993179e-02,1.327720470726490021e-03,1.970921270549297333e-02,1.498786266893148422e-02,4.157150909304618835e-02,-4.271178692579269409e-02,-7.802084553986787796e-03,-1.917697489261627197e-02,-1.533737406134605408e-02,-3.076251782476902008e-02,-4.336031526327133179e-02,-9.385374374687671661e-03,4.114891961216926575e-02,2.270509861409664154e-02,9.627628140151500702e-03,-5.688927136361598969e-03,-2.555744256824254990e-03,-1.707689836621284485e-02,-3.961485810577869415e-03,2.358697541058063507e-02,-2.120063081383705139e-02,2.388869971036911011e-02,-2.538655139505863190e-02,-2.020217478275299072e-02,-3.066106140613555908e-02,1.489220838993787766e-02,-2.662720903754234314e-02,-5.209881067276000977e-02,-2.568874508142471313e-02,-3.510870411992073059e-02,9.671198204159736633e-03,-6.675352808088064194e-03,-2.998639643192291260e-02,1.582152210175991058e-02,2.839617244899272919e-02,4.696905612945556641e-02,-3.111063875257968903e-02,5.073994863778352737e-03,-3.553272783756256104e-02,-3.094824776053428650e-02,6.318792700767517090e-02,-1.351607684046030045e-02,2.976133301854133606e-02,-1.484848372638225555e-02,-2.277236618101596832e-02,-2.051866985857486725e-02,-1.054304279386997223e-02,-1.242716680280864239e-03,4.007138684391975403e-02,-1.819428987801074982e-02,2.266234904527664185e-02,2.077180147171020508e-02,-2.536223642528057098e-02,-3.773934394121170044e-02,-5.365480482578277588e-02,4.601050168275833130e-03,-2.549112029373645782e-02,1.253013219684362411e-02,-1.432650536298751831e-02,-2.622963488101959229e-02,2.096050046384334564e-02,-5.121534690260887146e-02,7.617269176989793777e-03,-4.241475835442543030e-03,5.000255629420280457e-02,2.689993241801857948e-03,5.371338129043579102e-02,4.864116385579109192e-02,2.987384423613548279e-02,3.991015837527811527e-04,-1.356612239032983780e-02,-1.013523153960704803e-02,-3.264825791120529175e-02,-2.332226745784282684e-02,-3.855095431208610535e-02,-6.117977574467658997e-02,-1.392061263322830200e-02,3.789346665143966675e-02,5.766928195953369141e-03,4.023884609341621399e-02,3.466118359938263893e-03,-3.770164027810096741e-02,-2.792003378272056580e-02,-1.352527551352977753e-02,-1.933929510414600372e-02,2.258316054940223694e-02,1.136117521673440933e-02,-2.983535407111048698e-03,-7.107665296643972397e-03,-3.698156401515007019e-02,2.826507203280925751e-02,-1.725753210484981537e-02,-4.284590110182762146e-02,5.054701119661331177e-02,-3.875749930739402771e-02,-4.604220017790794373e-02,-1.041936455294489861e-03,2.226624265313148499e-02,5.189651250839233398e-02,-6.761841010302305222e-03,-4.094897210597991943e-02,-2.507859840989112854e-02,5.350936576724052429e-02,-1.622703671455383301e-02,-2.291117608547210693e-02,-1.911111176013946533e-03,4.524423182010650635e-02,3.463673591613769531e-02
-3.266588225960731506e-02,2.281764522194862366e-02,2.848407253623008728e-02,1.961874309927225113e-03,3.436111286282539368e-02,5.996543169021606445e-02,3.220549598336219788e-02,-3.631190583109855652e-02,-3.652357682585716248e-02,-4.074893519282341003e-02,1.268029492348432541e-02,-9.790450334548950195e-03,5.625057220458984375e-02,-1.851051673293113708e-02,-2.691264636814594269e-02,-2.954716095700860023e-03,-3.050196915864944458e-02,-4.924474656581878662e-02,-1.343336235731840134e-02,1.085890084505081177e-02,-3.930636867880821228e-02,-6.988487392663955688e-02,-3.630685433745384216e-02,-3.789388388395309448e-02,-2.802169322967529297e-02,5.353810638189315796e-02,-2.312617748975753784e-02,3.490893542766571045e-02,2.124635502696037292e-02,2.363208681344985962e-02,2.700313366949558258e-02,4.704241082072257996e-02,-1.137189660221338272e-02,-5.293679237365722656e-02,1.996042393147945404e-02,2.107797563076019287e-02,3.213427960872650146e-03,4.214986413717269897e-02,2.013720385730266571e-02,-2.746823988854885101e-02,-1.157794846221804619e-03,-1.176690217107534409e-02,-2.038967097178101540e-03,2.838130295276641846e-02,-1.157593633979558945e-02,-2.973272837698459625e-02,6.123146507889032364e-03,-1.689790561795234680e-02,4.017999395728111267e-02,4.386978596448898315e-02,2.277266001328825951e-03,5.246621090918779373e-03,4.675732180476188660e-02,-2.512973919510841370e-02,-2.559646964073181152e-03,4.114325344562530518e-02,1.613583415746688843e-02,5.805065110325813293e-02,2.411979716271162033e-03,2.843619883060455322e-02,-5.185126140713691711e-02,2.355085872113704681e-02,-5.621676333248615265e-03,1.029624370858073235e-03,-2.685980172827839851e-03,1.097393780946731567e-02,3.698612749576568604e-02,-2.181084454059600830e-02,-3.338264301419258118e-02,3.199370950460433960e-02,-6.642170716077089310e-03,-3.565863519906997681e-02,1.311503816395998001e-02,2.475519664585590363e-02,3.268365934491157532e-02,-4.595362022519111633e-02,2.930432092398405075e-03,-2.883468568325042725e-02,9.939795359969139099e-03,3.026273101568222046e-02,-1.420348882675170898e-02,6.587477773427963257e-02,-1.982967928051948547e-02,-2.650804072618484497e-02,1.916115172207355499e-03,2.604901045560836792e-02,-2.250657789409160614e-02,-1.624989137053489685e-02,-6.727072410285472870e-03,1.936848275363445282e-03,1.543030701577663422e-02,-1.765972934663295746e-02,1.679086685180664062e-02,-5.206844303756952286e-03,2.208679728209972382e-02,4.253375157713890076e-02,4.600398242473602295e-02,-2.366252988576889038e-02,-2.447302453219890594e-02,-2.315663360059261322e-02,4.135369881987571716e-02,-9.267285466194152832e-03,3.536353632807731628e-02,-4.280321765691041946e-03,-1.089243963360786438e-02,7.953414693474769592e-03,-3.118478693068027496e-02,-1.223573181778192520e-02,5.532852560281753540e-02,3.770371153950691223e-02,-2.399131655693054199e-03,3.294544667005538940e-02,3.463277965784072876e-02,-2.693051844835281372e-02,-1.413563452661037445e-02,3.916290402412414551e-02,4.862505570054054260e-02,-1.711709797382354736e-02,-3.209254145622253418e-02,-1.520953234285116196e-02,1.794940978288650513e-02,1.777454279363155365e-03,1.981937885284423828e-02,1.447663642466068268e-02,8.612909354269504547e-03,3.574309498071670532e-02,3.056326881051063538e-02,-2.503965608775615692e-02
