-5.974950268864631653e-02
1.383323315531015396e-02
-5.125884339213371277e-02
1.091450229287147522e-01
6.140072271227836609e-02
4.412620142102241516e-02
-2.623050101101398468e-02
9.093527495861053467e-02
-1.078273728489875793e-02
7.356689870357513428e-02
-6.899477541446685791e-02
-6.920962035655975342e-02
-3.144401311874389648e-02
-4.109270870685577393e-02
-2.861166559159755707e-02
1.020158976316452026e-01
1.103120818734169006e-01
5.243921652436256409e-02
7.937466353178024292e-02
2.356169745326042175e-02
6.838750094175338745e-02
-8.995078504085540771e-02
2.372015453875064850e-02
-5.286192521452903748e-03
8.789090067148208618e-02
-8.873770385980606079e-02
3.570100292563438416e-02
2.098737657070159912e-02
5.138579010963439941e-02
-6.971230357885360718e-02
-6.361910700798034668e-02
-3.286755457520484924e-02
-8.265119045972824097e-02
1.190024800598621368e-02
-2.324879169464111328e-02
2.366602234542369843e-02
2.841193228960037231e-03
-1.639107614755630493e-02
-7.640808820724487305e-02
7.501100003719329834e-02
8.869449794292449951e-02
-6.751427054405212402e-02
-1.429136246442794800e-01
2.955423109233379364e-02
6.213066354393959045e-02
-4.070253297686576843e-02
-1.245057359337806702e-01
-1.974126696586608887e-01
6.400386244058609009e-02
6.105364486575126648e-02
7.875041663646697998e-02
-8.863204717636108398e-02
5.535319074988365173e-02
2.873809821903705597e-02
1.366900354623794556e-01
4.033432528376579285e-02
-3.792559728026390076e-02
3.245824202895164490e-02
-6.965065747499465942e-02
-2.984593622386455536e-02
-7.615626603364944458e-02
5.451619625091552734e-02
1.817061752080917358e-02
-1.067958846688270569e-01
-4.723828658461570740e-02
7.446864992380142212e-02
-8.365865796804428101e-02
6.146398186683654785e-02
8.138110861182212830e-03
-1.291415747255086899e-02
-1.889114230871200562e-01
6.316144764423370361e-02
3.158982470631599426e-02
6.666040420532226562e-02
-2.760476805269718170e-02
2.788930386304855347e-02
4.830036684870719910e-02
5.254762619733810425e-02
1.403796486556529999e-02
3.570546209812164307e-02
-3.368510678410530090e-02
4.639999195933341980e-02
-1.642739959061145782e-02
-1.304660886526107788e-01
-1.187527552247047424e-01
-1.086144000291824341e-01
-6.323170661926269531e-02
-4.451377782970666885e-03
6.253477185964584351e-03
2.180923707783222198e-02
2.668971568346023560e-02
-7.598599791526794434e-02
-5.470745638012886047e-02
-3.042441979050636292e-02
-4.178402945399284363e-02
-2.570281922817230225e-02
-3.805002570152282715e-02
-8.072452992200851440e-02
3.186106309294700623e-02
1.068202033638954163e-01
-1.761758700013160706e-02
2.723231911659240723e-02
1.205740030854940414e-02
-8.006206899881362915e-02
4.572621546685695648e-03
3.721585497260093689e-02
7.478571683168411255e-02
7.796426862478256226e-02
2.956930547952651978e-03
7.451296597719192505e-02
-9.562279097735881805e-03
1.561616826802492142e-02
4.761999845504760742e-02
-2.997644478455185890e-03
4.703755956143140793e-03
6.195630505681037903e-02
-6.572873890399932861e-02
6.789698451757431030e-02
-6.885518133640289307e-02
-6.291247159242630005e-02
6.308925151824951172e-02
-2.958030067384243011e-02
1.306283846497535706e-02
1.105316132307052612e-01
1.327139288187026978e-01
-8.224061876535415649e-02
-1.643090508878231049e-02
-3.687976393848657608e-03
