-6.826605647802352905e-02
5.228379275649785995e-03
-4.306535422801971436e-02
-2.550738453865051270e-01
1.955639272928237915e-01
-2.152151763439178467e-01
1.183915287256240845e-01
2.962834388017654419e-02
-2.435473352670669556e-01
-3.599843084812164307e-01
5.671179294586181641e-01
1.144712343811988831e-01
-1.739144772291183472e-01
-6.079799309372901917e-02
6.413304209709167480e-01
-1.066116765141487122e-01
-5.563467368483543396e-02
-9.682874381542205811e-02
-4.584136307239532471e-01
-4.153748229146003723e-02
4.189468920230865479e-01
4.713268578052520752e-01
6.377499699592590332e-01
2.098301053047180176e-01
6.649751067161560059e-01
-2.136127203702926636e-01
7.647091895341873169e-02
4.447433352470397949e-01
5.520388111472129822e-02
-2.654822468757629395e-01
-7.062746584415435791e-02
-2.991304397583007812e-01
-2.200722694396972656e-01
1.803990900516510010e-01
3.617249429225921631e-01
-3.120602294802665710e-02
-1.629392206668853760e-01
3.947834074497222900e-01
-1.030679345130920410e+00
-2.433531284332275391e-01
-9.213328361511230469e-02
6.600998342037200928e-02
4.388363659381866455e-02
-3.972373008728027344e-01
4.115467667579650879e-01
-1.149601578712463379e+00
8.377970010042190552e-02
6.842868775129318237e-02
3.264378607273101807e-01
6.753823906183242798e-02
3.361878693103790283e-01
4.746392369270324707e-01
3.430442512035369873e-01
2.462020069360733032e-01
-2.754026055335998535e-01
-7.536821067333221436e-02
9.122332185506820679e-02
-2.443069592118263245e-02
2.882484197616577148e-01
6.602489948272705078e-01
3.343591094017028809e-01
-9.748560190200805664e-02
2.258255146443843842e-02
-3.388602435588836670e-01
-3.373364359140396118e-02
3.214818537235260010e-01
-4.580643475055694580e-01
-1.651887595653533936e-02
-2.531867921352386475e-01
-3.083895444869995117e-01
-3.686380982398986816e-01
-6.581122428178787231e-02
1.680245101451873779e-01
3.863379061222076416e-01
-4.121806919574737549e-01
-7.034209370613098145e-02
3.197242319583892822e-01
1.421782672405242920e-01
5.026795268058776855e-01
2.521572411060333252e-01
1.382932364940643311e-01
-4.709580913186073303e-02
9.901177138090133667e-02
5.026732757687568665e-02
1.351334452629089355e-01
1.519059203565120697e-02
-2.816255688667297363e-01
-1.066538691520690918e-01
4.915127754211425781e-01
-3.821508586406707764e-01
6.425508856773376465e-01
-2.345560640096664429e-01
-5.578784346580505371e-01
8.269419670104980469e-01
-1.462476104497909546e-01
5.945987105369567871e-01
2.636779546737670898e-01
2.170325964689254761e-01
1.497253030538558960e-01
4.336112439632415771e-01
8.993123471736907959e-02
6.289137061685323715e-03
-6.715285032987594604e-02
-6.241862773895263672e-01
2.213109433650970459e-01
-6.038138270378112793e-01
-2.863820493221282959e-01
3.838984072208404541e-01
2.839219197630882263e-02
-2.670649252831935883e-02
-5.074440315365791321e-02
2.229369580745697021e-01
9.843978285789489746e-01
-3.810085356235504150e-01
-1.628780812025070190e-01
4.395514354109764099e-02
-1.932626366615295410e-01
1.590038537979125977e-01
-2.650349140167236328e-01
2.229382842779159546e-02
3.389686048030853271e-01
9.807494282722473145e-01
8.086833953857421875e-01
-2.013325691223144531e-01
-4.866568446159362793e-01
-2.182134836912155151e-01
-5.612623691558837891e-01
7.907482385635375977e-01
