-0.09628564119338989257812500000
-0.08929672837257385253906250000
0.09189000725746154785156250000
-0.24889488518238067626953125000
-0.08954992890357971191406250000
0.09323889017105102539062500000
0.01366743724793195724487304688
0.19952753186225891113281250000
-0.12541002035140991210937500000
-0.11702107638120651245117187500
0.05511946603655815124511718750
-0.24182124435901641845703125000
-0.02063180692493915557861328125
-0.29342502355575561523437500000
0.02597757801413536071777343750
-0.23359967768192291259765625000
-0.34111419320106506347656250000
-0.08700187504291534423828125000
-0.02935252897441387176513671875
-0.25515362620353698730468750000
-0.44618219137191772460937500000
-0.01979017071425914764404296875
-0.34238159656524658203125000000
0.22259196639060974121093750000
-0.12486536800861358642578125000
-0.01657320931553840637207031250
-0.03882247954607009887695312500
0.11560636758804321289062500000
-0.30648115277290344238281250000
-0.03587453812360763549804687500
0.27051606774330139160156250000
-0.16369508206844329833984375000
-0.38195174932479858398437500000
-0.58734279870986938476562500000
0.08371060341596603393554687500
-0.55755591392517089843750000000
-0.36072656512260437011718750000
0.31080526113510131835937500000
-0.06825450062751770019531250000
-0.20828068256378173828125000000
-0.17626225948333740234375000000
0.02148528955876827239990234375
-0.04544395580887794494628906250
-0.09993378072977066040039062500
-0.20998120307922363281250000000
-0.22630578279495239257812500000
-0.09988322108983993530273437500
0.10385145246982574462890625000
0.17382103204727172851562500000
-0.39298909902572631835937500000
0.05672661587595939636230468750
-0.50617706775665283203125000000
0.20436924695968627929687500000
-0.30160781741142272949218750000
-0.03917785361409187316894531250
-0.23629526793956756591796875000
-0.42249628901481628417968750000
0.03244516626000404357910156250
0.02281750179827213287353515625
-0.07112780213356018066406250000
0.02905277162790298461914062500
-0.03877184540033340454101562500
-0.52780085802078247070312500000
-0.14737197756767272949218750000
-0.07162505388259887695312500000
-0.44483572244644165039062500000
-0.48814284801483154296875000000
0.11669272184371948242187500000
-0.10250235348939895629882812500
0.16230455040931701660156250000
-0.02996640466153621673583984375
-0.16620397567749023437500000000
-0.16203813254833221435546875000
-0.22093266248703002929687500000
0.13013419508934020996093750000
-0.38072144985198974609375000000
-0.36852547526359558105468750000
0.17294731736183166503906250000
-0.07952503859996795654296875000
-0.11053148657083511352539062500
-0.12676258385181427001953125000
0.04265170171856880187988281250
-0.09536198526620864868164062500
-0.19890800118446350097656250000
-0.26398193836212158203125000000
-0.19675670564174652099609375000
-0.07362768799066543579101562500
0.17793916165828704833984375000
-0.01849621906876564025878906250
0.00931289512664079666137695312
-0.26197725534439086914062500000
0.00606345757842063903808593750
0.00292771006934344768524169922
-0.49583902955055236816406250000
-0.14933989942073822021484375000
-0.44784662127494812011718750000
-0.12617468833923339843750000000
0.03106632456183433532714843750
-0.10533297061920166015625000000
-0.08774746954441070556640625000
-0.37868344783782958984375000000
-0.30304020643234252929687500000
0.38632440567016601562500000000
-0.05781862139701843261718750000
-0.18879525363445281982421875000
-0.32415524125099182128906250000
-0.03096657991409301757812500000
-0.36023294925689697265625000000
-0.22477655112743377685546875000
-0.14939258992671966552734375000
-0.13109190762042999267578125000
-0.08744320273399353027343750000
0.05705510824918746948242187500
-0.21395531296730041503906250000
0.10123060643672943115234375000
0.17469795048236846923828125000
-0.20408478379249572753906250000
-0.21486063301563262939453125000
-0.12095999717712402343750000000
0.31339839100837707519531250000
-0.00094898795941844582557678223
0.18543381989002227783203125000
-0.12933808565139770507812500000
-0.05191595852375030517578125000
-0.03788815811276435852050781250
-0.32539412379264831542968750000
-0.10651584714651107788085937500
-0.06120748817920684814453125000
-0.02663937583565711975097656250
-0.05679986253380775451660156250
0.26986485719680786132812500000
-0.38663443922996520996093750000
0.05852783098816871643066406250
-0.03591701388359069824218750000
-0.17610755562782287597656250000
0.00610119896009564399719238281
0.03199855983257293701171875000
0.02122507803142070770263671875
-0.03324700146913528442382812500
-0.19258670508861541748046875000
0.06486551463603973388671875000
-0.02500144578516483306884765625
0.36474543809890747070312500000
0.01978318952023983001708984375
-0.32083681225776672363281250000
0.19993557035923004150390625000
-0.38772991299629211425781250000
0.00081553589552640914916992188
0.14944468438625335693359375000
-0.47834691405296325683593750000
-0.92227858304977416992187500000
0.13401407003402709960937500000
-0.11203797161579132080078125000
-0.03594699874520301818847656250
0.17809063196182250976562500000
-0.39155998826026916503906250000
0.20315264165401458740234375000
-0.00061166862724348902702331543
0.12820167839527130126953125000
0.39628612995147705078125000000
0.06832189112901687622070312500
-0.26557493209838867187500000000
0.03530225530266761779785156250
-0.15727260708808898925781250000
0.04825447872281074523925781250
-0.53050857782363891601562500000
-0.02358066849410533905029296875
-0.08928785473108291625976562500
-0.54051446914672851562500000000
-0.32028910517692565917968750000
0.20599599182605743408203125000
-0.01689912192523479461669921875
-0.53343665599822998046875000000
-0.00343451695516705513000488281
-0.03411005437374114990234375000
-0.14708746969699859619140625000
-0.11379707604646682739257812500
-0.23045091331005096435546875000
-0.16222013533115386962890625000
0.11831510812044143676757812500
-0.00094284245278686285018920898
0.09936914592981338500976562500
-0.12928345799446105957031250000
0.00891764927655458450317382812
0.06825026869773864746093750000
-0.08054547011852264404296875000
-0.65088570117950439453125000000
-0.43211564421653747558593750000
0.06014571711421012878417968750
-0.44270887970924377441406250000
0.15908521413803100585937500000
0.03747931122779846191406250000
0.08337407559156417846679687500
-0.08203064650297164916992187500
0.12324800342321395874023437500
-0.29886552691459655761718750000
0.04143902286887168884277343750
-0.03272886946797370910644531250
-0.22887919843196868896484375000
-0.32753685116767883300781250000
-0.31815502047538757324218750000
-0.28484526276588439941406250000
0.01359826419502496719360351562
-0.12358805537223815917968750000
-0.43017163872718811035156250000
-0.16820983588695526123046875000
0.10059483349323272705078125000
-0.30891311168670654296875000000
-0.37593549489974975585937500000
-0.31627821922302246093750000000
0.02526945248246192932128906250
-0.60618245601654052734375000000
0.04247862473130226135253906250
-0.12808734178543090820312500000
-0.03117678314447402954101562500
-0.14600275456905364990234375000
-0.28730538487434387207031250000
-0.20033982396125793457031250000
0.09396728128194808959960937500
0.23762056231498718261718750000
-0.13944309949874877929687500000
-0.19916927814483642578125000000
-0.14600902795791625976562500000
-0.14172416925430297851562500000
-0.03107279725372791290283203125
-0.27819851040840148925781250000
-0.13004986941814422607421875000
0.03501033410429954528808593750
0.07458762824535369873046875000
-0.05471493303775787353515625000
0.00091370008885860443115234375
-0.08920647948980331420898437500
0.00021002569701522588729858398
-0.04679910093545913696289062500
-0.02710307575762271881103515625
-0.38470649719238281250000000000
-0.47981837391853332519531250000
-0.06481580436229705810546875000
-0.26298794150352478027343750000
-0.18862700462341308593750000000
0.08108673244714736938476562500
-0.29462522268295288085937500000
-0.46379962563514709472656250000
-0.08544225245714187622070312500
-0.34759202599525451660156250000
-0.87890690565109252929687500000
-0.69333988428115844726562500000
-0.33228892087936401367187500000
-0.42802804708480834960937500000
-0.14269039034843444824218750000
-0.12706764042377471923828125000
0.02168411388993263244628906250
-0.25335940718650817871093750000
-0.04614927619695663452148437500
-0.00452808337286114692687988281
0.14133954048156738281250000000
-0.42596614360809326171875000000
-0.35470268130302429199218750000
-0.04563264548778533935546875000
-0.11896788328886032104492187500
-0.23658759891986846923828125000
-0.42357638478279113769531250000
-0.51965725421905517578125000000
-0.09707719087600708007812500000
-0.51387691497802734375000000000
-0.01331687904894351959228515625
-0.60017627477645874023437500000
-0.03499798476696014404296875000
0.03623480722308158874511718750
-0.02555075846612453460693359375
0.05377421528100967407226562500
0.22436422109603881835937500000
-0.52102166414260864257812500000
0.11924604326486587524414062500
-0.08039122074842453002929687500
-0.02481489628553390502929687500
-0.32668110728263854980468750000
-0.30632242560386657714843750000
-0.18125358223915100097656250000
-0.05671436339616775512695312500
-0.07637704163789749145507812500
-0.11867424845695495605468750000
-0.24143548309803009033203125000
-0.00425639562308788299560546875
-0.23993746936321258544921875000
0.03362962231040000915527343750
0.22052910923957824707031250000
-0.36720901727676391601562500000
-0.46170571446418762207031250000
-0.04818020015954971313476562500
-0.06795120984315872192382812500
-0.51478916406631469726562500000
-0.07803232222795486450195312500
-0.09008120000362396240234375000
-0.09084784239530563354492187500
-0.19561699032783508300781250000
0.17614819109439849853515625000
-0.41919326782226562500000000000
-0.24019642174243927001953125000
-0.16525541245937347412109375000
-0.01451963279396295547485351562
0.01074242498725652694702148438
0.00330786383710801601409912109
-0.02448326162993907928466796875
-0.49924871325492858886718750000
-0.20630398392677307128906250000
-0.36937677860260009765625000000
-0.21726398169994354248046875000
-0.02765501290559768676757812500
-0.35807201266288757324218750000
0.00192998489364981651306152344
-0.07636615633964538574218750000
0.08455556631088256835937500000
0.02832537516951560974121093750
-0.25607550144195556640625000000
0.13577841222286224365234375000
0.05397923663258552551269531250
0.07451272010803222656250000000
0.06897472590208053588867187500
-0.25624677538871765136718750000
-0.05127523466944694519042968750
-0.49508085846900939941406250000
-0.10512022674083709716796875000
-0.00084243365563452243804931641
0.01906085200607776641845703125
-0.20465961098670959472656250000
0.04619595408439636230468750000
-0.39226689934730529785156250000
-0.19252102077007293701171875000
0.11161460727453231811523437500
-0.24970415234565734863281250000
-0.21600528061389923095703125000
-0.20517136156558990478515625000
-0.01048037596046924591064453125
-0.04529681056737899780273437500
-0.23691707849502563476562500000
-0.48454919457435607910156250000
-0.29506450891494750976562500000
0.09182802587747573852539062500
0.16136737167835235595703125000
-0.22316536307334899902343750000
-0.43713495135307312011718750000
-0.06770389527082443237304687500
0.04576814174652099609375000000
-0.27877917885780334472656250000
-0.37911665439605712890625000000
0.02006343938410282135009765625
-0.21394127607345581054687500000
-0.33383440971374511718750000000
-0.00789960101246833801269531250
0.11997235566377639770507812500
0.00131207576487213373184204102
0.03354138135910034179687500000
-0.05386862531304359436035156250
-0.18187047541141510009765625000
-0.18015412986278533935546875000
0.20567621290683746337890625000
-0.27835100889205932617187500000
-0.09677357226610183715820312500
-0.14833599328994750976562500000
-0.13897138833999633789062500000
-0.00571318762376904487609863281
-0.04015054926276206970214843750
-0.05364811047911643981933593750
0.04041679203510284423828125000
-0.28404548764228820800781250000
0.04032881557941436767578125000
-0.18178929388523101806640625000
0.03893878683447837829589843750
-0.34580111503601074218750000000
-0.44108301401138305664062500000
-0.55430734157562255859375000000
-0.24619907140731811523437500000
0.52162700891494750976562500000
-0.17262525856494903564453125000
-0.07734967023134231567382812500
-0.35191226005554199218750000000
-0.08113780617713928222656250000
-0.04266073554754257202148437500
-0.31556305289268493652343750000
-0.43057885766029357910156250000
0.01455514971166849136352539062
-0.53868997097015380859375000000
-0.20597499608993530273437500000
-0.14732164144515991210937500000
-0.13435433804988861083984375000
-0.01043575536459684371948242188
-0.38191726803779602050781250000
-0.55825835466384887695312500000
-0.08496183156967163085937500000
0.16671863198280334472656250000
-0.06206647306680679321289062500
-0.35777518153190612792968750000
-0.51440387964248657226562500000
0.12366251647472381591796875000
-0.08252736181020736694335937500
-0.40945589542388916015625000000
-0.14227841794490814208984375000
0.08082994073629379272460937500
-0.40317976474761962890625000000
0.05724609643220901489257812500
-0.44807460904121398925781250000
0.00858266837894916534423828125
0.00885061733424663543701171875
-0.21648217737674713134765625000
0.08202607184648513793945312500
-0.19383336603641510009765625000
0.34679192304611206054687500000
0.01324252225458621978759765625
-0.31446087360382080078125000000
-0.38323578238487243652343750000
-0.09852942824363708496093750000
0.01055458467453718185424804688
-0.22878398001194000244140625000
-0.22731931507587432861328125000
-0.07315574586391448974609375000
0.13032531738281250000000000000
-0.01223044842481613159179687500
-0.32778385281562805175781250000
-0.08984421193599700927734375000
-0.16543811559677124023437500000
0.00168662017676979303359985352
-0.03823495283722877502441406250
-0.15247932076454162597656250000
-0.19999846816062927246093750000
-0.41495448350906372070312500000
-0.02420598082244396209716796875
-0.06242482364177703857421875000
0.04363662749528884887695312500
0.00815396849066019058227539062
-0.11175593733787536621093750000
0.07772892713546752929687500000
-0.12800663709640502929687500000
-0.13988265395164489746093750000
-0.39509713649749755859375000000
-0.01877018995583057403564453125
0.13975390791893005371093750000
-0.57349735498428344726562500000
-0.07121798396110534667968750000
-0.07626128941774368286132812500
-0.21262283623218536376953125000
0.01834465377032756805419921875
-0.06767693161964416503906250000
0.01098806783556938171386718750
-0.25642687082290649414062500000
-0.31060993671417236328125000000
-0.34438836574554443359375000000
0.21270760893821716308593750000
0.07961880415678024291992187500
-0.09435046464204788208007812500
-0.58783841133117675781250000000
-0.07811588048934936523437500000
-0.06550260633230209350585937500
-0.21582683920860290527343750000
0.08506853133440017700195312500
-0.12651304900646209716796875000
-0.19040773808956146240234375000
0.16477264463901519775390625000
-0.32452154159545898437500000000
-0.10333659499883651733398437500
0.08287196606397628784179687500
0.04326702654361724853515625000
-0.27183619141578674316406250000
-0.24885825812816619873046875000
-0.18596358597278594970703125000
-0.34416186809539794921875000000
-0.14213363826274871826171875000
0.16241545975208282470703125000
0.07434808462858200073242187500
-0.12735271453857421875000000000
-0.07755539566278457641601562500
0.10629964619874954223632812500
0.22872716188430786132812500000
-0.23021544516086578369140625000
0.17459936439990997314453125000
-0.08574246615171432495117187500
0.28449717164039611816406250000
-0.10255263745784759521484375000
-0.31002554297447204589843750000
0.01198210567235946655273437500
-0.50190263986587524414062500000
-0.03286923840641975402832031250
0.11220446974039077758789062500
-0.15442694723606109619140625000
-0.12926074862480163574218750000
-0.36646866798400878906250000000
-0.08486289530992507934570312500
-0.21362809836864471435546875000
-0.40951418876647949218750000000
-0.07614222168922424316406250000
0.04409416764974594116210937500
0.03060569241642951965332031250
0.04225376248359680175781250000
-0.54708331823348999023437500000
0.09815199673175811767578125000
-0.30166330933570861816406250000
0.02412626706063747406005859375
-0.03298121318221092224121093750
-0.15699148178100585937500000000
-0.10372580587863922119140625000
-0.13373200595378875732421875000
-0.32232692837715148925781250000
-0.04782484099268913269042968750
-0.55928236246109008789062500000
-0.17280064523220062255859375000
0.07085338979959487915039062500
-0.02200601063668727874755859375
-0.01505241170525550842285156250
-0.13874819874763488769531250000
-0.01420356333255767822265625000
0.14107425510883331298828125000
0.28995525836944580078125000000
