-1.201945021748542786e-01
-3.698487952351570129e-02
2.034848928451538086e-01
-2.733868062496185303e-01
-7.982443273067474365e-02
1.308706998825073242e-01
1.688487380743026733e-01
-1.309546176344156265e-02
-1.997238695621490479e-01
7.262196391820907593e-02
-6.738568842411041260e-02
-1.217404380440711975e-01
-1.308222562074661255e-01
-1.624363474547863007e-02
-1.153089180588722229e-01
-1.306344419717788696e-01
-1.604608148336410522e-01
1.515893340110778809e-01
9.378992766141891479e-02
1.033305078744888306e-01
5.301645398139953613e-02
1.159919053316116333e-01
-6.811258196830749512e-02
-1.430729478597640991e-01
1.312348395586013794e-01
7.515650987625122070e-02
2.061059474945068359e-01
1.329490095376968384e-01
5.487183108925819397e-02
-1.231220201589167118e-03
8.525647968053817749e-02
-1.098932400345802307e-01
4.070648178458213806e-02
1.053658723831176758e-01
1.569509208202362061e-01
2.361688166856765747e-01
-1.098008826375007629e-01
-5.645411554723978043e-03
-9.184385091066360474e-02
1.278180629014968872e-01
1.184803843498229980e-01
5.758832767605781555e-02
-7.071765605360269547e-03
2.005670368671417236e-01
1.950495690107345581e-01
5.702717602252960205e-02
8.440844714641571045e-03
5.643180757761001587e-02
1.291780173778533936e-01
2.404327094554901123e-01
-4.999188333749771118e-02
-3.600753471255302429e-02
-1.721526086330413818e-01
-1.055216118693351746e-01
-1.048997417092323303e-01
1.859769076108932495e-01
-1.417101621627807617e-01
-2.097312062978744507e-01
2.904958128929138184e-01
-8.515370637178421021e-02
9.708959609270095825e-02
-1.301876306533813477e-01
-6.330229341983795166e-02
-1.871765963733196259e-02
1.124776229262351990e-01
-1.626961492002010345e-02
-4.750713706016540527e-02
1.025108098983764648e-01
8.802815340459346771e-03
-9.059869684278964996e-03
2.692732959985733032e-03
-3.642667084932327271e-02
5.090576782822608948e-02
-2.755369246006011963e-02
-8.331805467605590820e-02
1.534957252442836761e-02
3.939527645707130432e-02
-4.772606864571571350e-02
3.444849047809839249e-03
-4.808020964264869690e-02
1.248125731945037842e-02
4.271690174937248230e-02
6.248724833130836487e-02
7.407232373952865601e-02
-4.773904755711555481e-02
-8.980575948953628540e-02
-8.607598952949047089e-03
-3.315360471606254578e-02
-1.304013282060623169e-02
-2.917795442044734955e-02
3.489715978503227234e-02
-2.414657548069953918e-02
6.637230981141328812e-03
3.427180275321006775e-02
1.301527768373489380e-02
7.557451725006103516e-02
5.844076350331306458e-02
-8.616153895854949951e-02
-6.074364110827445984e-02
9.874637424945831299e-02
-2.956350147724151611e-02
4.121782258152961731e-02
-1.093933507800102234e-01
3.454503417015075684e-02
1.986792497336864471e-02
-2.123070694506168365e-02
-1.245998442173004150e-01
3.320473060011863708e-02
-6.201426964253187180e-03
3.781215474009513855e-02
-2.373781614005565643e-02
3.547101840376853943e-02
-5.511511489748954773e-02
-1.203016098588705063e-02
-3.325700014829635620e-02
-2.042684517800807953e-02
-2.527730166912078857e-02
-1.607217453420162201e-02
1.731538400053977966e-02
6.142879649996757507e-02
2.045253105461597443e-02
-9.036657284013926983e-04
-9.288009256124496460e-02
-1.612908020615577698e-02
2.421623840928077698e-02
-3.417352214455604553e-02
4.720534756779670715e-02
8.260060567408800125e-04
