1.006710305809974670e-01
-7.370417565107345581e-02
-4.430802762508392334e-01
3.643993437290191650e-01
-4.457699507474899292e-02
-1.857367344200611115e-02
-4.985511768609285355e-04
1.061640400439500809e-02
4.804630950093269348e-02
-5.246872082352638245e-02
-4.217032343149185181e-02
6.439206749200820923e-02
-8.796413987874984741e-02
3.747675418853759766e-01
2.766735479235649109e-02
6.249404698610305786e-02
4.622339084744453430e-02
1.668260991573333740e-01
1.497486531734466553e-01
-1.768242940306663513e-02
4.322217032313346863e-02
-4.978201538324356079e-02
1.809585094451904297e-01
-3.177055120468139648e-01
-2.243868112564086914e-01
-3.087403718382120132e-03
-5.902032554149627686e-02
-8.905475586652755737e-02
-4.340907558798789978e-02
8.222718536853790283e-02
5.979876592755317688e-02
1.808181032538414001e-02
-2.589150667190551758e-01
1.373011171817779541e-01
-6.587405502796173096e-02
-1.061926111578941345e-01
-1.171052530407905579e-01
8.201504498720169067e-02
-6.463339179754257202e-02
-4.596493393182754517e-02
-5.868461728096008301e-02
5.072913598269224167e-03
-2.151518911123275757e-01
1.688439995050430298e-01
-5.033134669065475464e-02
1.142424298450350761e-03
-4.783365130424499512e-02
-1.015636399388313293e-01
5.111344531178474426e-02
2.024498209357261658e-02
-3.954457119107246399e-02
-2.379554808139801025e-01
7.583704590797424316e-02
-9.350187331438064575e-02
-1.127876434475183487e-02
3.840072453022003174e-02
2.461673133075237274e-02
1.591285131871700287e-02
-1.028130874037742615e-01
-1.117039322853088379e-01
-5.126623436808586121e-02
1.886945366859436035e-01
1.441986858844757080e-01
-3.828554227948188782e-02
1.456544399261474609e-01
-1.640761620365083218e-03
7.193003594875335693e-02
6.871291995048522949e-02
1.696407049894332886e-01
-2.307111769914627075e-02
-9.507412463426589966e-02
-8.097786456346511841e-02
2.711585909128189087e-02
4.896885752677917480e-01
4.654378816485404968e-02
-4.084753990173339844e-02
1.330485343933105469e-01
3.324848040938377380e-02
-1.995873302221298218e-01
-2.316025048494338989e-01
9.900645911693572998e-02
-5.123520642518997192e-02
-3.229378536343574524e-02
1.025848016142845154e-01
-9.175091236829757690e-02
5.348372831940650940e-02
6.810691207647323608e-02
-3.953981027007102966e-02
1.157577782869338989e-01
-6.666550040245056152e-02
-2.057782560586929321e-01
3.970292210578918457e-02
-1.184645667672157288e-01
-6.686521321535110474e-02
-2.131723053753376007e-02
-1.060261204838752747e-01
-9.921712428331375122e-02
1.189293637871742249e-01
-5.721689388155937195e-02
1.912305057048797607e-01
2.233188748359680176e-01
-4.876272007822990417e-02
5.546953529119491577e-02
-1.694795861840248108e-02
1.482287887483835220e-02
1.183797791600227356e-01
1.437259912490844727e-01
-1.294444352388381958e-01
-1.094192788004875183e-01
-1.290455311536788940e-01
-1.574167981743812561e-02
-2.172977663576602936e-02
-9.338803589344024658e-02
3.800839558243751526e-02
6.249552220106124878e-02
-4.617853090167045593e-02
1.844342947006225586e-01
1.133534833788871765e-01
2.238922379910945892e-02
-1.406111270189285278e-01
-7.518544793128967285e-02
-1.273749172687530518e-01
-1.754625327885150909e-02
-1.909272931516170502e-02
2.924054488539695740e-02
6.291174143552780151e-02
-4.376346617937088013e-02
7.811762392520904541e-02
