-3.333793953061103821e-02
3.712761402130126953e-02
-1.570152789354324341e-01
-1.727006286382675171e-01
-4.095895886421203613e-01
1.985380239784717560e-02
8.549851924180984497e-02
-6.815040111541748047e-02
1.399507373571395874e-02
-9.866114705801010132e-02
1.272291541099548340e-01
-1.154203042387962341e-01
-4.398154616355895996e-01
8.831796795129776001e-02
-1.042091771960258484e-01
2.252939194440841675e-01
3.893340528011322021e-01
1.219715997576713562e-01
2.128739804029464722e-01
9.292382746934890747e-02
2.312125712633132935e-01
1.150781884789466858e-01
-1.014229729771614075e-01
2.274198234081268311e-01
2.372016012668609619e-01
-8.491823077201843262e-02
1.062080562114715576e-01
6.556968390941619873e-02
1.203338429331779480e-01
-3.856708407402038574e-01
-7.658198475837707520e-03
-4.264802038669586182e-01
8.525880053639411926e-03
1.157972067594528198e-01
-7.132158428430557251e-02
-3.110152184963226318e-01
-1.347393840551376343e-01
-1.550986915826797485e-01
6.362623721361160278e-02
-8.827175013720989227e-03
-8.290451020002365112e-03
1.263923197984695435e-01
9.665805846452713013e-02
2.967308461666107178e-01
-4.027587771415710449e-01
-4.324096739292144775e-01
9.223691374063491821e-02
-2.267077937722206116e-02
2.203585654497146606e-01
-2.078852355480194092e-01
6.430489476770162582e-03
3.035579025745391846e-01
2.373964041471481323e-01
-3.370179235935211182e-02
-1.444615870714187622e-01
1.598392724990844727e-01
9.865271300077438354e-02
-1.346365958452224731e-01
-1.740064918994903564e-01
-1.350128203630447388e-01
5.163482949137687683e-02
2.642857134342193604e-01
-3.176185786724090576e-01
-4.348018169403076172e-01
-1.038402840495109558e-01
-3.564980328083038330e-01
-1.865709275007247925e-01
-2.840035855770111084e-01
3.529978990554809570e-01
-2.220584778115153313e-03
7.789725810289382935e-02
1.336809396743774414e-01
6.195478141307830811e-03
-2.027556300163269043e-01
-3.238021582365036011e-02
5.791622027754783630e-02
-2.213963717222213745e-01
-7.417388260364532471e-02
-1.485224664211273193e-01
-7.889401912689208984e-02
-4.791651070117950439e-01
2.109199613332748413e-01
3.455643728375434875e-02
3.552212729118764400e-04
-3.140847086906433105e-01
-2.437802106142044067e-01
-4.808857738971710205e-01
4.134777560830116272e-02
-6.188794597983360291e-02
-1.138409897685050964e-01
-4.137277901172637939e-01
-1.670264154672622681e-01
4.979131519794464111e-01
-3.515806496143341064e-01
7.217288762331008911e-02
-2.980499528348445892e-02
4.647436738014221191e-01
-9.229506552219390869e-02
-7.829613983631134033e-02
-8.810796588659286499e-02
-2.806235849857330322e-01
2.716118097305297852e-01
1.026271097362041473e-02
-4.728790521621704102e-01
-2.241389602422714233e-01
3.253182470798492432e-01
1.507439762353897095e-01
-1.444700267165899277e-02
4.955716431140899658e-01
2.297580614686012268e-02
2.508209347724914551e-01
-1.313175857067108154e-01
-3.320597410202026367e-01
-1.826837509870529175e-01
3.134445548057556152e-01
-8.955726772546768188e-02
7.046438753604888916e-03
-4.316083192825317383e-01
-1.705487817525863647e-01
-3.283116519451141357e-01
-1.582663655281066895e-01
-1.589127928018569946e-01
-1.294607073068618774e-01
5.996332764625549316e-01
-2.809326648712158203e-01
3.145706057548522949e-01
-2.470905184745788574e-01
3.341645235195755959e-03
