-0.09998480230569839477539062500
-0.03190338984131813049316406250
-0.16161386668682098388671875000
-0.04306581616401672363281250000
-0.00983879901468753814697265625
0.08163708448410034179687500000
0.04347478598356246948242187500
0.05608102679252624511718750000
-0.01093849446624517440795898438
-0.17300261557102203369140625000
-0.01652802154421806335449218750
0.06114238873124122619628906250
-0.04141121357679367065429687500
0.04907600209116935729980468750
0.05788322910666465759277343750
0.13717488944530487060546875000
0.01806884817779064178466796875
0.12379095703363418579101562500
-0.01060265395790338516235351562
-0.00589868519455194473266601562
-0.01877423562109470367431640625
0.08087513595819473266601562500
0.00356645160354673862457275391
0.02289803884923458099365234375
0.00130898097995668649673461914
0.01101656630635261535644531250
-0.03122353926301002502441406250
0.00599998468533158302307128906
-0.04921368137001991271972656250
0.02157383225858211517333984375
-0.01280462369322776794433593750
0.02089796215295791625976562500
0.10269408673048019409179687500
0.00773472152650356292724609375
-0.08820430934429168701171875000
0.06115629896521568298339843750
-0.02642162516713142395019531250
0.15072570741176605224609375000
-0.07539036870002746582031250000
-0.00986533332616090774536132812
0.05533693358302116394042968750
-0.07464478164911270141601562500
0.01621638052165508270263671875
0.01096665114164352416992187500
-0.08094631880521774291992187500
0.07577402889728546142578125000
-0.07577077299356460571289062500
0.04209284111857414245605468750
-0.21428544819355010986328125000
0.06102408096194267272949218750
-0.02787595987319946289062500000
-0.03091572411358356475830078125
0.05641302838921546936035156250
-0.03633386269211769104003906250
0.00512970611453056335449218750
0.06375508755445480346679687500
0.05547197908163070678710937500
0.14514289796352386474609375000
-0.06939092278480529785156250000
0.12445531040430068969726562500
0.04903525859117507934570312500
0.01151583343744277954101562500
-0.09277584403753280639648437500
-0.07347664237022399902343750000
0.14605258405208587646484375000
0.08450498431921005249023437500
0.01576313748955726623535156250
-0.03118109889328479766845703125
0.09977521002292633056640625000
0.14487248659133911132812500000
0.03188768029212951660156250000
0.01190481893718242645263671875
-0.04114712774753570556640625000
0.05703087151050567626953125000
-0.03353650122880935668945312500
-0.21508410573005676269531250000
-0.04994213953614234924316406250
-0.00614464888349175453186035156
0.03177186474204063415527343750
0.00294788205064833164215087891
-0.05897410213947296142578125000
-0.03163473308086395263671875000
-0.11891241371631622314453125000
0.11391752958297729492187500000
-0.04328513145446777343750000000
0.02228158153593540191650390625
0.01877793483436107635498046875
-0.02230231463909149169921875000
0.05292541906237602233886718750
0.02175544947385787963867187500
0.01505007687956094741821289062
0.02559641934931278228759765625
-0.18358118832111358642578125000
0.02303665317595005035400390625
-0.02396179176867008209228515625
-0.09067486971616744995117187500
0.05175346881151199340820312500
-0.03373644500970840454101562500
-0.10208527743816375732421875000
-0.03499990701675415039062500000
0.06836324930191040039062500000
-0.03003320470452308654785156250
-0.08584157377481460571289062500
-0.02253128029406070709228515625
0.08474542945623397827148437500
0.02907818369567394256591796875
0.00144544767681509256362915039
0.11905965954065322875976562500
0.01943553797900676727294921875
0.13151554763317108154296875000
0.01344624813646078109741210938
-0.04708444327116012573242187500
0.17346541583538055419921875000
0.02614341117441654205322265625
-0.04867880046367645263671875000
0.06413357704877853393554687500
-0.09266901016235351562500000000
0.02885410748422145843505859375
0.03827729821205139160156250000
0.01108870934695005416870117188
-0.09907697886228561401367187500
-0.01622378453612327575683593750
0.20328092575073242187500000000
0.06874941289424896240234375000
0.02317136526107788085937500000
-0.03969680145382881164550781250
0.05730857700109481811523437500
0.09163442999124526977539062500
-0.03427208960056304931640625000
-0.03016089461743831634521484375
0.07873483002185821533203125000
0.10358343273401260375976562500
0.06796763092279434204101562500
0.02148288302123546600341796875
0.04049752652645111083984375000
0.03556179255247116088867187500
0.05677858740091323852539062500
-0.18660812079906463623046875000
0.01972239837050437927246093750
-0.01382978539913892745971679688
-0.12914809584617614746093750000
-0.05998915433883666992187500000
0.05509215220808982849121093750
-0.06395933032035827636718750000
-0.03889636695384979248046875000
0.03003136068582534790039062500
-0.05516610667109489440917968750
-0.02910716645419597625732421875
0.05911755934357643127441406250
0.00555280270054936408996582031
-0.01371697057038545608520507812
0.03211790323257446289062500000
-0.06265527755022048950195312500
-0.11592186987400054931640625000
-0.03751519322395324707031250000
-0.05386308953166007995605468750
-0.02396483160555362701416015625
-0.07900056242942810058593750000
0.05585759878158569335937500000
0.08053418248891830444335937500
-0.06588032096624374389648437500
0.06347692757844924926757812500
-0.01688911393284797668457031250
-0.05204972252249717712402343750
-0.10370453447103500366210937500
-0.11027081310749053955078125000
-0.08531288057565689086914062500
-0.03083105571568012237548828125
-0.06066547706723213195800781250
-0.04975572228431701660156250000
-0.07008279860019683837890625000
0.16199016571044921875000000000
-0.05644687265157699584960937500
-0.06432517617940902709960937500
-0.04091804474592208862304687500
0.17422799766063690185546875000
0.17470480501651763916015625000
0.01174756139516830444335937500
-0.01022726483643054962158203125
0.02261563204228878021240234375
0.00781890563666820526123046875
0.08863300830125808715820312500
0.00736820092424750328063964844
0.10051790624856948852539062500
-0.15881089866161346435546875000
-0.05491551384329795837402343750
-0.00075474550249055027961730957
-0.03776388615369796752929687500
-0.05439053103327751159667968750
0.07961032539606094360351562500
0.07216867059469223022460937500
0.03787552937865257263183593750
0.02363664470613002777099609375
0.02796443551778793334960937500
-0.01836289279162883758544921875
0.03504632040858268737792968750
-0.16243281960487365722656250000
-0.01483144052326679229736328125
-0.12037039548158645629882812500
0.01408470328897237777709960938
-0.01999843679368495941162109375
-0.02392967045307159423828125000
-0.03976044803857803344726562500
-0.04022657871246337890625000000
0.02156851068139076232910156250
-0.00178623455576598644256591797
0.05785013735294342041015625000
-0.01028041262179613113403320312
0.00365099706687033176422119141
0.00807171501219272613525390625
0.10768824815750122070312500000
-0.08369939029216766357421875000
-0.09147752076387405395507812500
0.20045250654220581054687500000
0.03855746984481811523437500000
-0.05703010410070419311523437500
0.01653615757822990417480468750
0.01620602048933506011962890625
-0.02985193952918052673339843750
0.02815034054219722747802734375
0.06342435628175735473632812500
0.03348327428102493286132812500
0.02712462097406387329101562500
0.12225727736949920654296875000
0.15745134651660919189453125000
-0.00608744565397500991821289062
-0.06136138364672660827636718750
0.05823428183794021606445312500
0.01279808860272169113159179688
0.08928754180669784545898437500
-0.00444770138710737228393554688
-0.01966168731451034545898437500
0.04589799791574478149414062500
-0.03070445358753204345703125000
-0.01757977530360221862792968750
-0.11118518561124801635742187500
-0.07044525444507598876953125000
0.02913860231637954711914062500
0.02131869085133075714111328125
-0.19956007599830627441406250000
0.02532137744128704071044921875
0.00731297256425023078918457031
0.00249556754715740680694580078
-0.01353902276605367660522460938
0.04614690318703651428222656250
0.03142308443784713745117187500
0.10477806627750396728515625000
0.05557877942919731140136718750
-0.05235280469059944152832031250
0.02296037785708904266357421875
0.04906068742275238037109375000
0.01240589097142219543457031250
-0.06446398049592971801757812500
0.00855162274092435836791992188
-0.00807581469416618347167968750
0.06298898905515670776367187500
-0.00973884481936693191528320312
-0.02838736772537231445312500000
0.15694220364093780517578125000
0.01200199220329523086547851562
-0.06526792049407958984375000000
-0.01235025096684694290161132812
-0.06144754216074943542480468750
0.05689182132482528686523437500
0.04443059489130973815917968750
0.07200808078050613403320312500
0.01157916244119405746459960938
-0.05024211108684539794921875000
-0.03741626441478729248046875000
0.17838321626186370849609375000
0.08285740017890930175781250000
-0.25055396556854248046875000000
0.00190519902389496564865112305
-0.03537945821881294250488281250
-0.00311484467238187789916992188
0.08061942458152770996093750000
-0.05131584405899047851562500000
0.17791683971881866455078125000
0.04506646841764450073242187500
0.07570309937000274658203125000
0.10527876019477844238281250000
-0.18533110618591308593750000000
0.05976700037717819213867187500
-0.06927303224802017211914062500
-0.04960213974118232727050781250
-0.03394098579883575439453125000
0.03540423512458801269531250000
-0.01678702980279922485351562500
0.11348029226064682006835937500
0.02772598713636398315429687500
0.06647787988185882568359375000
0.05804191529750823974609375000
0.04626293480396270751953125000
0.02045674994587898254394531250
0.07303911447525024414062500000
0.03598977625370025634765625000
0.04347224161028861999511718750
0.10379064828157424926757812500
0.11699900031089782714843750000
0.07007171958684921264648437500
-0.04885092377662658691406250000
0.08491022884845733642578125000
-0.07576727867126464843750000000
0.01090952474623918533325195312
0.13273344933986663818359375000
0.02072108909487724304199218750
0.11195609718561172485351562500
0.07816359400749206542968750000
-0.03925650194287300109863281250
-0.05207417160272598266601562500
-0.13519158959388732910156250000
0.04408160597085952758789062500
-0.03005191497504711151123046875
-0.12725575268268585205078125000
0.10388935357332229614257812500
-0.04668051376938819885253906250
0.07577642053365707397460937500
0.04525296762585639953613281250
-0.04494929686188697814941406250
0.00289341178722679615020751953
-0.16230170428752899169921875000
0.07993798702955245971679687500
0.13629451394081115722656250000
0.05252088978886604309082031250
-0.01743608713150024414062500000
-0.04900791123509407043457031250
0.00280926050618290901184082031
0.03474386781454086303710937500
0.02279115468263626098632812500
0.04971511662006378173828125000
-0.02334566600620746612548828125
0.00903341453522443771362304688
0.02629189006984233856201171875
0.06478134542703628540039062500
0.04217899963259696960449218750
0.06304631382226943969726562500
-0.05485970899462699890136718750
0.01141533721238374710083007812
0.07711369544267654418945312500
0.09427701681852340698242187500
-0.00755682401359081268310546875
0.00823659077286720275878906250
-0.11412273347377777099609375000
0.04478089138865470886230468750
-0.13411512970924377441406250000
-0.05465610697865486145019531250
0.02279573306441307067871093750
-0.09330946952104568481445312500
-0.08928356319665908813476562500
-0.11480846256017684936523437500
-0.07095685601234436035156250000
0.21582762897014617919921875000
0.15955200791358947753906250000
0.10904946178197860717773437500
0.08216249197721481323242187500
-0.06360759586095809936523437500
-0.00649845320731401443481445312
0.00421909429132938385009765625
-0.00039504407322965562343597412
0.08190098404884338378906250000
-0.08268851786851882934570312500
0.11592953652143478393554687500
0.08932135254144668579101562500
0.04781263321638107299804687500
-0.02901116199791431427001953125
0.17397660017013549804687500000
-0.03007121570408344268798828125
-0.10865686088800430297851562500
-0.04390447214245796203613281250
0.07321104407310485839843750000
-0.00194254517555236816406250000
0.06329899281263351440429687500
0.04049561545252799987792968750
0.07146140187978744506835937500
0.07417273521423339843750000000
0.07054445147514343261718750000
-0.04791384190320968627929687500
0.01253443025052547454833984375
-0.12937507033348083496093750000
-0.00529612880200147628784179688
0.04144303500652313232421875000
0.13039931654930114746093750000
-0.04072722420096397399902343750
0.02723465114831924438476562500
-0.01071807835251092910766601562
0.07788219302892684936523437500
0.03036138787865638732910156250
0.01067775487899780273437500000
0.08659356832504272460937500000
0.01406046748161315917968750000
-0.01122455392032861709594726562
-0.00277419015765190124511718750
0.00151544343680143356323242188
0.01951853744685649871826171875
-0.05520340427756309509277343750
0.07059326767921447753906250000
-0.01262066047638654708862304688
-0.05081319808959960937500000000
0.33084499835968017578125000000
-0.01645000465214252471923828125
0.04457810893654823303222656250
0.05651003122329711914062500000
-0.01423938013613224029541015625
0.00134273187723010778427124023
0.04753402248024940490722656250
0.02270783297717571258544921875
-0.03323383256793022155761718750
0.33351954817771911621093750000
0.07495328783988952636718750000
-0.05310526490211486816406250000
-0.18585638701915740966796875000
0.05295463651418685913085937500
-0.03544076532125473022460937500
-0.09005565941333770751953125000
-0.04420488327741622924804687500
0.03879771381616592407226562500
0.34050670266151428222656250000
-0.03418175131082534790039062500
-0.06859152019023895263671875000
0.02931641787290573120117187500
-0.03024039603769779205322265625
0.02397586777806282043457031250
0.03756131231784820556640625000
0.44717329740524291992187500000
-0.14604857563972473144531250000
-0.03744535520672798156738281250
-0.05366744101047515869140625000
0.04460783675312995910644531250
0.03330111503601074218750000000
-0.01436740532517433166503906250
-0.00560777680948376655578613281
-0.00146272371057420969009399414
-0.01553301513195037841796875000
-0.06403154134750366210937500000
0.00234563043341040611267089844
-0.11911699175834655761718750000
0.03078344650566577911376953125
-0.04281606897711753845214843750
0.05937449634075164794921875000
0.01906652748584747314453125000
-0.02824671007692813873291015625
0.04030942916870117187500000000
0.02697359770536422729492187500
0.05753667280077934265136718750
-0.01253431383520364761352539062
-0.05183120071887969970703125000
-0.05438703298568725585937500000
0.03440642356872558593750000000
0.09802448004484176635742187500
-0.01903975941240787506103515625
-0.05191209539771080017089843750
0.00761849293485283851623535156
-0.00228509912267327308654785156
0.01533745881170034408569335938
-0.02374996617436408996582031250
0.03469106927514076232910156250
-0.05427676066756248474121093750
-0.00808251369744539260864257812
0.01791848801076412200927734375
0.04133130609989166259765625000
-0.00226402631960809230804443359
-0.02658873237669467926025390625
-0.08871748298406600952148437500
-0.02352570369839668273925781250
-0.02517152763903141021728515625
-0.23319670557975769042968750000
-0.01437399536371231079101562500
-0.06270061433315277099609375000
0.00771861616522073745727539062
-0.01556534878909587860107421875
0.01862013339996337890625000000
-0.08920724689960479736328125000
-0.05488688126206398010253906250
-0.00428242515772581100463867188
-0.05385041609406471252441406250
-0.03326719626784324645996093750
0.00069607549812644720077514648
-0.03346414491534233093261718750
0.03770702332258224487304687500
0.03574776649475097656250000000
0.02467978373169898986816406250
-0.00457133073359727859497070312
-0.07631479203701019287109375000
-0.00100324209779500961303710938
0.02787267975509166717529296875
-0.01582811214029788970947265625
-0.04075492173433303833007812500
-0.18389837443828582763671875000
-0.07751208543777465820312500000
-0.00631914194673299789428710938
-0.01731659471988677978515625000
0.01257791742682456970214843750
-0.03855128958821296691894531250
-0.07274355739355087280273437500
0.00413288129493594169616699219
-0.01592257246375083923339843750
0.02359918318688869476318359375
0.02127759158611297607421875000
-0.03368794173002243041992187500
0.02732507511973381042480468750
-0.03142157942056655883789062500
0.04122516512870788574218750000
0.02768496237695217132568359375
0.01071773190051317214965820312
0.03625229373574256896972656250
0.04883469268679618835449218750
0.02686055749654769897460937500
0.00822049938142299652099609375
0.03118921443819999694824218750
-0.02053937129676342010498046875
-0.06653355062007904052734375000
0.03933522850275039672851562500
0.08893062919378280639648437500
-0.07579721510410308837890625000
-0.14248871803283691406250000000
-0.15524125099182128906250000000
-0.05275200307369232177734375000
-0.03256817162036895751953125000
-0.04323668032884597778320312500
-0.02237962372601032257080078125
0.02827923186123371124267578125
0.14438587427139282226562500000
-0.00933757703751325607299804688
0.05483016371726989746093750000
0.02960157766938209533691406250
0.02919749543070793151855468750
-0.11449368298053741455078125000
0.32066193222999572753906250000
-0.03919071704149246215820312500
0.21628193557262420654296875000
-0.08540870994329452514648437500
0.02625766396522521972656250000
0.01019325852394104003906250000
0.01860263012349605560302734375
0.04048954322934150695800781250
-0.05368274077773094177246093750
0.01595501042902469635009765625
-0.01769787445664405822753906250
0.04469545558094978332519531250
0.10309620201587677001953125000
-0.02912081405520439147949218750
-0.04033102840185165405273437500
0.09360861778259277343750000000
-0.00890272017568349838256835938
-0.03843664005398750305175781250
0.02272213436663150787353515625
0.04477225244045257568359375000
-0.14701834321022033691406250000
0.03891552612185478210449218750
-0.06939574331045150756835937500
-0.05904499813914299011230468750
-0.09568832069635391235351562500
0.02219481579959392547607421875
0.04118430614471435546875000000
0.19281931221485137939453125000
0.05798814073204994201660156250
0.00268454407341778278350830078
-0.01945895329117774963378906250
0.13211083412170410156250000000
-0.03199340403079986572265625000
-0.04104376956820487976074218750
0.04196142777800559997558593750
0.01768314093351364135742187500
0.03429140523076057434082031250
-0.11448323726654052734375000000
0.06307003647089004516601562500
0.00976176932454109191894531250
0.10184797644615173339843750000
0.10122431069612503051757812500
0.02068502642214298248291015625
-0.09596879780292510986328125000
-0.11219424754381179809570312500
0.01073423586785793304443359375
-0.02686285413801670074462890625
-0.04656742885708808898925781250
0.01225339155644178390502929688
-0.13745991885662078857421875000
-0.03513016551733016967773437500
-0.07772272080183029174804687500
-0.20755909383296966552734375000
-0.02708732523024082183837890625
-0.08851923793554306030273437500
-0.03081399202346801757812500000
-0.03072042576968669891357421875
0.13907188177108764648437500000
-0.03326936066150665283203125000
-0.01143825426697731018066406250
-0.03310533240437507629394531250
0.07709435373544692993164062500
0.02865659445524215698242187500
0.03435643389821052551269531250
0.03551161289215087890625000000
-0.14707751572132110595703125000
-0.00982588157057762145996093750
-0.02601834572851657867431640625
-0.01693669706583023071289062500
0.13097719848155975341796875000
-0.05235974490642547607421875000
0.16456183791160583496093750000
0.04985160008072853088378906250
-0.09888350963592529296875000000
0.05658428743481636047363281250
0.08986987918615341186523437500
-0.02375871501863002777099609375
-0.01996891945600509643554687500
-0.06532853841781616210937500000
-0.04030547291040420532226562500
0.13415817916393280029296875000
0.01489944569766521453857421875
0.00312382471747696399688720703
-0.09105955809354782104492187500
0.02086777426302433013916015625
-0.08916956186294555664062500000
-0.16487240791320800781250000000
0.02363602630794048309326171875
-0.03786736726760864257812500000
0.18612247705459594726562500000
-0.08605318516492843627929687500
0.02322676777839660644531250000
-0.03387330844998359680175781250
-0.13891535997390747070312500000
-0.01452994998544454574584960938
-0.04175124689936637878417968750
-0.14803336560726165771484375000
-0.05937022715806961059570312500
0.06176511570811271667480468750
0.00859571900218725204467773438
0.07487995177507400512695312500
-0.06239448487758636474609375000
0.04231000691652297973632812500
-0.00994279235601425170898437500
0.03060298971831798553466796875
0.04603751748800277709960937500
-0.02501752600073814392089843750
0.01209019031375646591186523438
-0.04559333622455596923828125000
-0.00339223397895693778991699219
0.13169801235198974609375000000
0.07651507854461669921875000000
-0.06436193734407424926757812500
0.03120797872543334960937500000
0.00850992370396852493286132812
0.02058847807347774505615234375
-0.01707033254206180572509765625
0.02965078130364418029785156250
0.03639749437570571899414062500
0.05004734918475151062011718750
-0.03244357928633689880371093750
-0.04024137929081916809082031250
-0.05624151229858398437500000000
0.07609976828098297119140625000
-0.04126095771789550781250000000
-0.04698580875992774963378906250
-0.02013457939028739929199218750
-0.07229223847389221191406250000
0.10631905496120452880859375000
-0.04127756878733634948730468750
0.02558556757867336273193359375
-0.00302811758592724800109863281
0.07980110496282577514648437500
0.07852938026189804077148437500
0.03315773606300354003906250000
-0.00870885141193866729736328125
-0.09521724283695220947265625000
0.00216164253652095794677734375
0.25615337491035461425781250000
0.04943377897143363952636718750
0.00846811756491661071777343750
0.00077177054481580853462219238
-0.04578374326229095458984375000
-0.05118238925933837890625000000
0.01388132106512784957885742188
0.03305594623088836669921875000
-0.00652429927140474319458007812
0.11807624250650405883789062500
-0.08402088284492492675781250000
0.04868880659341812133789062500
-0.05031740292906761169433593750
0.01569579727947711944580078125
-0.00499705690890550613403320312
0.10702196508646011352539062500
0.07056285440921783447265625000
0.22237284481525421142578125000
-0.14439043402671813964843750000
0.10545746982097625732421875000
-0.20365932583808898925781250000
-0.08560743182897567749023437500
0.02705658040940761566162109375
-0.17504690587520599365234375000
0.06112459674477577209472656250
0.07024302333593368530273437500
0.00476108817383646965026855469
-0.11353050172328948974609375000
0.06134097278118133544921875000
-0.00679929507896304130554199219
-0.07691422104835510253906250000
-0.05098126456141471862792968750
-0.02343854121863842010498046875
-0.11749349534511566162109375000
0.05357909575104713439941406250
-0.03385141491889953613281250000
0.06681638956069946289062500000
0.03430764004588127136230468750
0.09937554597854614257812500000
-0.02256640233099460601806640625
0.09019443392753601074218750000
0.09809859097003936767578125000
0.16401275992393493652343750000
-0.03461151570081710815429687500
0.00582696776837110519409179688
-0.05507988482713699340820312500
0.08026215434074401855468750000
0.05566791072487831115722656250
-0.01087246462702751159667968750
0.01572292298078536987304687500
0.22113998234272003173828125000
0.09231463819742202758789062500
0.16660965979099273681640625000
-0.05361981689929962158203125000
0.07091376185417175292968750000
-0.01063451077789068222045898438
-0.01290380582213401794433593750
-0.05730843916535377502441406250
-0.00049383449368178844451904297
0.20876014232635498046875000000
-0.00930017512291669845581054688
-0.06033041328191757202148437500
0.08502312004566192626953125000
0.01040084660053253173828125000
0.17500595748424530029296875000
-0.09946089982986450195312500000
0.09832512587308883666992187500
0.05584574490785598754882812500
0.07055421173572540283203125000
-0.01569164544343948364257812500
-0.31831142306327819824218750000
0.02460196055471897125244140625
-0.04017244279384613037109375000
0.04993309825658798217773437500
-0.04092702269554138183593750000
-0.07905611395835876464843750000
0.04367032647132873535156250000
-0.14501339197158813476562500000
0.04404814913868904113769531250
0.05851464346051216125488281250
-0.04077491164207458496093750000
-0.07097929716110229492187500000
-0.03558949008584022521972656250
0.06940469145774841308593750000
-0.00378820626065135002136230469
-0.00168755103368312120437622070
0.03402020037174224853515625000
-0.00401275791227817535400390625
-0.07731921225786209106445312500
0.04234851151704788208007812500
0.10825278609991073608398437500
0.00413898611441254615783691406
-0.12233457714319229125976562500
0.13627085089683532714843750000
-0.06672322005033493041992187500
-0.02630311995744705200195312500
0.01722243055701255798339843750
-0.07206684350967407226562500000
0.00445885397493839263916015625
-0.07772063463926315307617187500
0.16248135268688201904296875000
0.02384164370596408843994140625
-0.15628381073474884033203125000
0.05838107690215110778808593750
0.00568902445957064628601074219
0.03888559341430664062500000000
0.04001252725720405578613281250
0.11701519787311553955078125000
0.05416024848818778991699218750
-0.04137261584401130676269531250
0.08447904139757156372070312500
0.07468831539154052734375000000
-0.01209747884422540664672851562
-0.07206328958272933959960937500
-0.03261302784085273742675781250
-0.15762718021869659423828125000
-0.02073398791253566741943359375
-0.03840534389019012451171875000
-0.19170042872428894042968750000
-0.12453022599220275878906250000
-0.16303879022598266601562500000
-0.05808910727500915527343750000
-0.04278023913502693176269531250
0.00322504970245063304901123047
-0.12037654966115951538085937500
0.00926693342626094818115234375
-0.09574925899505615234375000000
0.05378403142094612121582031250
-0.12578670680522918701171875000
0.01854802668094635009765625000
-0.05722527951002120971679687500
0.03713990002870559692382812500
0.02212060987949371337890625000
-0.07541073858737945556640625000
-0.03653870522975921630859375000
-0.01366325467824935913085937500
0.06281992048025131225585937500
-0.04034981876611709594726562500
-0.03895386308431625366210937500
0.11082895100116729736328125000
-0.08188975602388381958007812500
-0.13162177801132202148437500000
0.02655894495546817779541015625
-0.03976818546652793884277343750
-0.03153730556368827819824218750
0.06495480984449386596679687500
-0.10878615826368331909179687500
-0.09428857266902923583984375000
0.10397909581661224365234375000
0.00761428661644458770751953125
0.09486934542655944824218750000
0.12949162721633911132812500000
0.04612154886126518249511718750
0.06481280177831649780273437500
0.12216079235076904296875000000
0.02808504551649093627929687500
-0.03729756921529769897460937500
-0.06576856225728988647460937500
-0.01808455213904380798339843750
-0.20513759553432464599609375000
-0.07343336194753646850585937500
0.06545281410217285156250000000
-0.04998701810836791992187500000
0.01621068082749843597412109375
-0.15798065066337585449218750000
-0.15063358843326568603515625000
0.04028914123773574829101562500
0.10678706318140029907226562500
-0.03948109596967697143554687500
-0.07815983891487121582031250000
-0.10315757989883422851562500000
-0.00013292962103150784969329834
0.01725659146904945373535156250
0.20807829499244689941406250000
0.06626980751752853393554687500
-0.01991558633744716644287109375
-0.03207930177450180053710937500
-0.04667250439524650573730468750
0.01892007142305374145507812500
-0.00259783398360013961791992188
0.00131263991352170705795288086
-0.04083946347236633300781250000
-0.05913871526718139648437500000
0.01133758295327425003051757812
0.05276510864496231079101562500
-0.11028154939413070678710937500
0.00869127269834280014038085938
-0.00339564611203968524932861328
-0.03144295886158943176269531250
-0.07685582339763641357421875000
0.04196620732545852661132812500
-0.01810390688478946685791015625
0.05877202004194259643554687500
-0.00087412016000598669052124023
0.05109126120805740356445312500
0.09626284986734390258789062500
0.05204441025853157043457031250
0.03656418621540069580078125000
0.25862053036689758300781250000
0.06085083633661270141601562500
0.15676878392696380615234375000
0.11900221556425094604492187500
-0.00014735740842297673225402832
0.02652011439204216003417968750
-0.01167658530175685882568359375
0.12282072007656097412109375000
0.00347665767185389995574951172
0.05065928772091865539550781250
0.06479842215776443481445312500
-0.04436358436942100524902343750
0.01638845168054103851318359375
-0.09201121330261230468750000000
0.04954326152801513671875000000
0.02301457896828651428222656250
0.06344392895698547363281250000
0.03049482032656669616699218750
-0.13406366109848022460937500000
-0.08803965151309967041015625000
-0.04625845700502395629882812500
0.15295210480690002441406250000
0.07880426198244094848632812500
-0.02538136020302772521972656250
-0.02172204479575157165527343750
0.05138485878705978393554687500
0.00043236615601927042007446289
-0.14754940569400787353515625000
-0.04028916358947753906250000000
0.06550357490777969360351562500
-0.03843759745359420776367187500
-0.00584425264969468116760253906
0.06162740662693977355957031250
0.00223219720646739006042480469
-0.00442627957090735435485839844
0.10368905216455459594726562500
-0.06342417746782302856445312500
0.02984396554529666900634765625
-0.01524374261498451232910156250
-0.03680073469877243041992187500
-0.05945301428437232971191406250
0.05350220203399658203125000000
-0.20158371329307556152343750000
0.00612182961776852607727050781
0.01222516223788261413574218750
0.27606296539306640625000000000
0.10209847241640090942382812500
-0.06619256734848022460937500000
-0.05477878078818321228027343750
0.01735425554215908050537109375
0.00970423687249422073364257812
0.05054291710257530212402343750
0.05953163281083106994628906250
-0.00031601657974533736705780029
-0.11942790448665618896484375000
-0.01722110994160175323486328125
0.00035247072810307145118713379
0.01550217531621456146240234375
0.10506809502840042114257812500
-0.04223871603608131408691406250
-0.10103935748338699340820312500
-0.09711691737174987792968750000
-0.09597339481115341186523437500
0.04083561524748802185058593750
-0.05064297467470169067382812500
-0.04267793148756027221679687500
0.00759764807298779487609863281
0.08944419026374816894531250000
-0.06986693292856216430664062500
0.02495094202458858489990234375
-0.01676938496530055999755859375
-0.09470473229885101318359375000
-0.07178343832492828369140625000
-0.01492186542600393295288085938
0.10876238346099853515625000000
-0.01627879776060581207275390625
-0.07807823270559310913085937500
-0.13881264626979827880859375000
0.07538259774446487426757812500
0.00128478172700852155685424805
0.04296006262302398681640625000
0.20840848982334136962890625000
-0.01420278940349817276000976562
0.05742983892560005187988281250
0.08753401786088943481445312500
-0.04379595816135406494140625000
0.00335333496332168579101562500
0.06697013229131698608398437500
0.05422307550907135009765625000
-0.28559324145317077636718750000
0.02701531909406185150146484375
0.08119009435176849365234375000
-0.05822329223155975341796875000
0.02845034003257751464843750000
0.06984100490808486938476562500
-0.00517933489754796028137207031
0.00258163991384208202362060547
-0.11647367477416992187500000000
-0.04556010663509368896484375000
0.05067703127861022949218750000
0.10446169227361679077148437500
-0.08620066195726394653320312500
-0.05420953407883644104003906250
-0.02642531320452690124511718750
0.03832840919494628906250000000
0.02737411670386791229248046875
0.01935822702944278717041015625
-0.07153808325529098510742187500
0.14872898161411285400390625000
0.01897407695651054382324218750
-0.09084674715995788574218750000
0.00874307379126548767089843750
-0.14024747908115386962890625000
0.04482492059469223022460937500
-0.01000284962356090545654296875
0.06802474707365036010742187500
-0.04894671589136123657226562500
0.04177900403738021850585937500
0.03638223558664321899414062500
-0.02649356052279472351074218750
0.05435985326766967773437500000
0.17538559436798095703125000000
-0.01407758425921201705932617188
0.02383284457027912139892578125
-0.01286385860294103622436523438
0.01509267464280128479003906250
-0.07703121006488800048828125000
-0.06733633577823638916015625000
0.04713433235883712768554687500
-0.03753443062305450439453125000
0.13749463856220245361328125000
-0.13080568611621856689453125000
-0.06030711159110069274902343750
-0.10480877012014389038085937500
-0.01818984933197498321533203125
0.05934382602572441101074218750
0.02266834303736686706542968750
0.03795322403311729431152343750
-0.12029919028282165527343750000
-0.01540480367839336395263671875
-0.08492582291364669799804687500
0.05407171696424484252929687500
0.02707670815289020538330078125
0.03887810930609703063964843750
0.03005025535821914672851562500
-0.03184510394930839538574218750
-0.04298140481114387512207031250
-0.12686291337013244628906250000
0.01141781639307737350463867188
-0.04636792466044425964355468750
0.02480506338179111480712890625
0.00027852720813825726509094238
-0.12078677117824554443359375000
-0.15713128447532653808593750000
-0.01934353634715080261230468750
-0.12524329125881195068359375000
-0.01256066840142011642456054688
-0.09225869923830032348632812500
-0.12857329845428466796875000000
-0.00106861849781125783920288086
0.14260764420032501220703125000
0.00864219106733798980712890625
0.00148779095616191625595092773
0.00951123610138893127441406250
-0.10706117749214172363281250000
-0.11209335923194885253906250000
-0.00684081483632326126098632812
-0.02792903222143650054931640625
-0.01998192816972732543945312500
0.05761069431900978088378906250
-0.11009670794010162353515625000
-0.04140334203839302062988281250
-0.00553666148334741592407226562
0.08236645907163619995117187500
-0.00673589389771223068237304688
0.02397159859538078308105468750
-0.21461726725101470947265625000
-0.05427660420536994934082031250
-0.00206900737248361110687255859
-0.07401971518993377685546875000
0.08701648563146591186523437500
-0.05335865169763565063476562500
0.09723012149333953857421875000
0.00695628672838211059570312500
0.02506084181368350982666015625
-0.07136099785566329956054687500
-0.13113835453987121582031250000
0.03981398791074752807617187500
-0.06811448186635971069335937500
0.08576570451259613037109375000
0.04983009770512580871582031250
-0.02151226811110973358154296875
-0.01782573200762271881103515625
0.01155906170606613159179687500
-0.00218364805914461612701416016
0.06821676343679428100585937500
-0.08217614144086837768554687500
-0.09095039963722229003906250000
-0.08296632766723632812500000000
-0.01029153913259506225585937500
-0.15605059266090393066406250000
0.12591691315174102783203125000
0.04813871160149574279785156250
0.14632868766784667968750000000
-0.13963501155376434326171875000
-0.09248447418212890625000000000
-0.17120526731014251708984375000
0.12518088519573211669921875000
-0.05006064102053642272949218750
0.04273560270667076110839843750
0.05548938363790512084960937500
-0.01393067464232444763183593750
0.03349458053708076477050781250
-0.00947119668126106262207031250
0.06259313225746154785156250000
-0.04622633382678031921386718750
-0.00946315191686153411865234375
0.08206120133399963378906250000
0.00389615236781537532806396484
0.12875714898109436035156250000
-0.05433402955532073974609375000
0.02188318036496639251708984375
0.08866236358880996704101562500
-0.01806586608290672302246093750
-0.03070425055921077728271484375
-0.04061900824308395385742187500
0.04059259220957756042480468750
0.05915047973394393920898437500
-0.12217911332845687866210937500
-0.07110796868801116943359375000
-0.01448419503867626190185546875
-0.09175746142864227294921875000
0.00872454792261123657226562500
-0.03625734150409698486328125000
0.00642464170232415199279785156
-0.00046672363532707095146179199
0.08789806067943572998046875000
0.09417555481195449829101562500
0.05961819738149642944335937500
0.09706634283065795898437500000
-0.03906789049506187438964843750
0.03374944627285003662109375000
0.07097273319959640502929687500
0.06604072451591491699218750000
-0.06377476453781127929687500000
0.20349201560020446777343750000
0.09888348728418350219726562500
-0.01823305524885654449462890625
-0.00063542171847075223922729492
0.05662171542644500732421875000
0.12936350703239440917968750000
-0.06902486830949783325195312500
-0.01814135164022445678710937500
0.14662888646125793457031250000
-0.08097662776708602905273437500
-0.01674434170126914978027343750
-0.01067678444087505340576171875
-0.00160178681835532188415527344
0.08843595534563064575195312500
0.00825590547174215316772460938
-0.00610049301758408546447753906
-0.00959313195198774337768554688
0.06701375544071197509765625000
0.04339700937271118164062500000
-0.02649000659584999084472656250
0.00676618143916130065917968750
-0.01801535114645957946777343750
0.07347317039966583251953125000
-0.03628012537956237792968750000
0.05244477465748786926269531250
0.01896650157868862152099609375
-0.07162515074014663696289062500
-0.08432107418775558471679687500
-0.01569458283483982086181640625
0.03489219769835472106933593750
0.06076055392622947692871093750
0.04126831516623497009277343750
0.03074297308921813964843750000
-0.00884752813726663589477539062
0.08971820026636123657226562500
0.00349351810291409492492675781
-0.05475376173853874206542968750
-0.05400110408663749694824218750
-0.11282525211572647094726562500
0.01994632184505462646484375000
0.09535068273544311523437500000
-0.03061944246292114257812500000
-0.02399097755551338195800781250
-0.07034879922866821289062500000
0.01682666689157485961914062500
0.02883062884211540222167968750
0.06666853278875350952148437500
-0.11193025857210159301757812500
-0.06709953397512435913085937500
-0.07263437658548355102539062500
-0.08460501581430435180664062500
-0.02568310871720314025878906250
-0.01919746212661266326904296875
-0.03591692075133323669433593750
0.14282803237438201904296875000
-0.01524288021028041839599609375
0.05958350747823715209960937500
0.02825820259749889373779296875
0.07465878129005432128906250000
0.12490049004554748535156250000
-0.01821536757051944732666015625
0.04226506873965263366699218750
-0.07039275020360946655273437500
0.02987858466804027557373046875
-0.12086167186498641967773437500
-0.08468871563673019409179687500
-0.11458975821733474731445312500
0.07170774787664413452148437500
0.04162612557411193847656250000
0.03302908316254615783691406250
0.10255464166402816772460937500
-0.00641103740781545639038085938
0.03256321325898170471191406250
0.11182742565870285034179687500
0.00470210518687963485717773438
0.11115035414695739746093750000
-0.04101919010281562805175781250
0.01319672539830207824707031250
0.01405423786491155624389648438
-0.06301748007535934448242187500
0.01522527541965246200561523438
-0.06756734102964401245117187500
0.04090739414095878601074218750
0.06258101761341094970703125000
0.04245794564485549926757812500
0.05550912395119667053222656250
0.09047548472881317138671875000
0.03225940838456153869628906250
0.05741723254323005676269531250
-0.25420731306076049804687500000
-0.01475128997117280960083007812
0.00351720396429300308227539062
0.04247251152992248535156250000
0.02996565774083137512207031250
0.04651500657200813293457031250
-0.03652106598019599914550781250
-0.07130053639411926269531250000
0.06766624748706817626953125000
0.03573107346892356872558593750
0.06688220798969268798828125000
0.10101525485515594482421875000
0.03837276250123977661132812500
0.00468411436304450035095214844
0.01946433633565902709960937500
-0.06291366368532180786132812500
-0.01540627609938383102416992188
0.03868428990244865417480468750
-0.04658519849181175231933593750
-0.06488293409347534179687500000
0.04895912483334541320800781250
0.04972020909190177917480468750
0.14846183359622955322265625000
0.03305159136652946472167968750
-0.15032014250755310058593750000
-0.08829573541879653930664062500
0.07579121738672256469726562500
-0.02082657068967819213867187500
0.03325234353542327880859375000
-0.00051660125609487295150756836
-0.14293971657752990722656250000
0.09403238445520401000976562500
0.14903688430786132812500000000
0.08233725279569625854492187500
0.10068453103303909301757812500
-0.03023652359843254089355468750
-0.02748951129615306854248046875
0.02881806157529354095458984375
0.02904343977570533752441406250
0.06328626722097396850585937500
-0.13664847612380981445312500000
0.01905232854187488555908203125
-0.09755163639783859252929687500
0.11384410411119461059570312500
0.24480935931205749511718750000
0.17829443514347076416015625000
-0.02973139099776744842529296875
-0.26147308945655822753906250000
0.07646110653877258300781250000
-0.09651229530572891235351562500
-0.07363285124301910400390625000
-0.02649441175162792205810546875
-0.02362448908388614654541015625
0.05106345191597938537597656250
0.10544846951961517333984375000
0.00164916936773806810379028320
0.10233263671398162841796875000
-0.04295409843325614929199218750
-0.00620360113680362701416015625
0.02170490473508834838867187500
0.05297525599598884582519531250
-0.00795510504394769668579101562
-0.00331480335444211959838867188
-0.03725196793675422668457031250
-0.01465240214020013809204101562
-0.01152927335351705551147460938
-0.00559793552383780479431152344
0.01741483248770236968994140625
0.07110825181007385253906250000
0.08467129617929458618164062500
0.10765730589628219604492187500
-0.05169728025794029235839843750
-0.06181465461850166320800781250
0.14635142683982849121093750000
0.04128843918442726135253906250
0.01036056596785783767700195312
-0.02202848717570304870605468750
0.14484438300132751464843750000
0.01177536789327859878540039062
-0.00189275259617716073989868164
-0.07658512145280838012695312500
0.03197260946035385131835937500
-0.06296408921480178833007812500
-0.03783861547708511352539062500
-0.26814770698547363281250000000
0.00748039968311786651611328125
-0.10769889503717422485351562500
-0.02752886712551116943359375000
-0.09722918272018432617187500000
-0.02459987811744213104248046875
-0.00005249207606539130210876465
0.00128591130487620830535888672
-0.04674684256315231323242187500
-0.01279818639159202575683593750
0.00062189943855628371238708496
-0.08885882794857025146484375000
0.02899745665490627288818359375
-0.06500689685344696044921875000
0.18170826137065887451171875000
0.06974492967128753662109375000
0.02826261520385742187500000000
-0.03746646270155906677246093750
-0.02150682359933853149414062500
-0.03856145590543746948242187500
0.17341433465480804443359375000
-0.02835262194275856018066406250
0.07670773565769195556640625000
-0.00284487567842006683349609375
0.04068576171994209289550781250
-0.01238651759922504425048828125
-0.12239257246255874633789062500
-0.00283506396226584911346435547
-0.12285706400871276855468750000
0.09470476955175399780273437500
-0.00200524716638028621673583984
0.13741910457611083984375000000
-0.10325375944375991821289062500
0.02103442698717117309570312500
0.02515817806124687194824218750
0.00813848525285720825195312500
0.01509105041623115539550781250
0.14055004715919494628906250000
0.07107128947973251342773437500
-0.07050894200801849365234375000
0.11158137768507003784179687500
0.11976309865713119506835937500
-0.08779902011156082153320312500
-0.04138007387518882751464843750
0.00894507486373186111450195312
-0.08073961734771728515625000000
0.02820634469389915466308593750
-0.07415427267551422119140625000
-0.02579589001834392547607421875
-0.05308008939027786254882812500
0.09802241623401641845703125000
0.07493892312049865722656250000
-0.00449753180146217346191406250
0.10593853890895843505859375000
0.07793454825878143310546875000
0.06626360118389129638671875000
0.00188054819591343402862548828
0.21072940528392791748046875000
-0.18115952610969543457031250000
0.01509337592869997024536132812
0.01686495915055274963378906250
0.06553414463996887207031250000
0.00696541881188750267028808594
-0.04613519459962844848632812500
-0.01807782053947448730468750000
-0.14322388172149658203125000000
0.01481197122484445571899414062
-0.00167037150822579860687255859
0.01448808331042528152465820312
0.03333842381834983825683593750
0.08821069449186325073242187500
0.11198557913303375244140625000
-0.01741993427276611328125000000
0.01786050572991371154785156250
0.02507480233907699584960937500
-0.18338319659233093261718750000
-0.02801875770092010498046875000
-0.01419409830123186111450195312
-0.04178436100482940673828125000
-0.03054879233241081237792968750
0.01817797310650348663330078125
-0.01094847731292247772216796875
-0.08765007555484771728515625000
0.07229841500520706176757812500
0.01062513794749975204467773438
-0.04798492789268493652343750000
0.06734552979469299316406250000
0.15541823208332061767578125000
0.03629948943853378295898437500
-0.04172368347644805908203125000
0.03336357325315475463867187500
0.12689925730228424072265625000
-0.08652750402688980102539062500
-0.08285710215568542480468750000
-0.07833657413721084594726562500
0.02217993699014186859130859375
-0.01610110700130462646484375000
-0.00335273193195462226867675781
-0.07701378315687179565429687500
-0.06276091933250427246093750000
-0.12868173420429229736328125000
-0.03690548241138458251953125000
-0.02896413952112197875976562500
-0.24867688119411468505859375000
-0.01308294106274843215942382812
-0.03428811952471733093261718750
0.06002418324351310729980468750
-0.01068502478301525115966796875
0.00122247159015387296676635742
-0.07447331398725509643554687500
0.05444986373186111450195312500
-0.01536107994616031646728515625
0.04237503930926322937011718750
-0.11478892713785171508789062500
0.01167385093867778778076171875
-0.09944576025009155273437500000
-0.03795957937836647033691406250
0.02037880942225456237792968750
-0.00662717921659350395202636719
-0.11409907042980194091796875000
0.08759639412164688110351562500
-0.02097514830529689788818359375
-0.08060638606548309326171875000
-0.19068312644958496093750000000
-0.00277241971343755722045898438
-0.15446919202804565429687500000
0.15211583673954010009765625000
-0.05305407941341400146484375000
0.21145614981651306152343750000
0.02904276922345161437988281250
-0.03495304286479949951171875000
0.01319256052374839782714843750
0.08831208944320678710937500000
0.00366017385385930538177490234
0.03228875622153282165527343750
-0.00005310024789650924503803253
-0.05423985794186592102050781250
-0.00270508462563157081604003906
0.02357210032641887664794921875
0.06079188734292984008789062500
-0.02062973938882350921630859375
-0.17450314760208129882812500000
0.02137613482773303985595703125
-0.06011597067117691040039062500
0.08339314907789230346679687500
0.09253199398517608642578125000
-0.04412234947085380554199218750
0.02074689604341983795166015625
-0.06232379376888275146484375000
-0.03605547919869422912597656250
0.03952140361070632934570312500
-0.17628075182437896728515625000
-0.01560503710061311721801757812
0.01793989911675453186035156250
0.01274126488715410232543945312
0.05303558334708213806152343750
-0.04169160127639770507812500000
0.01132634095847606658935546875
-0.00107175810262560844421386719
0.10818998515605926513671875000
0.04137212038040161132812500000
0.00956385303288698196411132812
-0.11157891154289245605468750000
-0.02894252166152000427246093750
-0.03725933656096458435058593750
-0.06825479865074157714843750000
-0.02398246154189109802246093750
0.06921829283237457275390625000
-0.03951193392276763916015625000
0.10340309888124465942382812500
-0.04542267322540283203125000000
0.00826739240437746047973632812
-0.01498290989547967910766601562
0.04723664745688438415527343750
-0.04950537532567977905273437500
-0.11140916496515274047851562500
-0.16898877918720245361328125000
-0.10861820727586746215820312500
-0.13115578889846801757812500000
-0.10832584649324417114257812500
0.09924222528934478759765625000
0.04511575028300285339355468750
0.06117347255349159240722656250
-0.19398200511932373046875000000
0.01050545368343591690063476562
-0.04358979314565658569335937500
0.12100441008806228637695312500
0.00446944450959563255310058594
-0.00847593788057565689086914062
-0.06652045994997024536132812500
0.12662100791931152343750000000
0.08789872378110885620117187500
-0.00007113560423022136092185974
0.12943294644355773925781250000
-0.09779009222984313964843750000
-0.01531229168176651000976562500
-0.04657661542296409606933593750
-0.03737109154462814331054687500
-0.02411562018096446990966796875
-0.09391679614782333374023437500
-0.09579623490571975708007812500
-0.00852231960743665695190429688
0.01333649922162294387817382812
0.12886025011539459228515625000
-0.00521758617833256721496582031
-0.02994965016841888427734375000
-0.00123549415729939937591552734
0.01564917154610157012939453125
-0.06015823036432266235351562500
-0.07697223871946334838867187500
-0.07437995821237564086914062500
0.15130123496055603027343750000
0.13767246901988983154296875000
0.05529828369617462158203125000
-0.10206259042024612426757812500
0.05332660675048828125000000000
0.04481264948844909667968750000
-0.04102262854576110839843750000
0.07010988891124725341796875000
-0.02184835821390151977539062500
0.02671476081013679504394531250
0.07160075753927230834960937500
0.11205481737852096557617187500
-0.02143771760165691375732421875
0.02471720054745674133300781250
0.04198494181036949157714843750
0.04653726518154144287109375000
0.01071944739669561386108398438
0.07853814214468002319335937500
0.08035582304000854492187500000
0.03169972077012062072753906250
0.16497236490249633789062500000
0.06044339388608932495117187500
-0.01886711083352565765380859375
-0.08435077965259552001953125000
0.10248342901468276977539062500
-0.07396708428859710693359375000
-0.05507076531648635864257812500
-0.13535973429679870605468750000
0.08800344169139862060546875000
-0.06796861439943313598632812500
0.01921579614281654357910156250
-0.02185142785310745239257812500
0.06002743169665336608886718750
-0.04118930920958518981933593750
0.08714161068201065063476562500
0.07565844058990478515625000000
-0.01840915344655513763427734375
-0.01936322450637817382812500000
0.05395334586501121520996093750
0.08368635177612304687500000000
0.07040759921073913574218750000
-0.07927358150482177734375000000
-0.04706930369138717651367187500
-0.05190583318471908569335937500
0.07086578756570816040039062500
0.03669634833931922912597656250
0.07219564914703369140625000000
0.01314359996467828750610351562
0.06449257582426071166992187500
0.10053782165050506591796875000
0.05083167925477027893066406250
-0.08731078356504440307617187500
0.04597110673785209655761718750
-0.25415736436843872070312500000
0.09564089775085449218750000000
0.01263871975243091583251953125
0.02768890559673309326171875000
0.00747616635635495185852050781
0.11462296545505523681640625000
0.13478909432888031005859375000
-0.08731914311647415161132812500
0.02705386653542518615722656250
-0.01199988275766372680664062500
0.08634936809539794921875000000
0.11538095772266387939453125000
-0.04219854623079299926757812500
-0.01202534791082143783569335938
0.09557715803384780883789062500
-0.00240871356800198554992675781
0.12487727403640747070312500000
-0.05674572661519050598144531250
-0.02093554474413394927978515625
-0.02697821520268917083740234375
0.01441990677267313003540039062
-0.03668014332652091979980468750
0.02471404708921909332275390625
-0.17473569512367248535156250000
0.09139759838581085205078125000
-0.00342166097834706306457519531
0.03860033303499221801757812500
-0.02423575893044471740722656250
0.05365354940295219421386718750
-0.04946462810039520263671875000
0.01738591678440570831298828125
-0.01982250437140464782714843750
0.04704165458679199218750000000
-0.13327459990978240966796875000
-0.10088381916284561157226562500
-0.13360282778739929199218750000
-0.01543612778186798095703125000
-0.00976478680968284606933593750
0.01028183568269014358520507812
-0.16915604472160339355468750000
0.03452417999505996704101562500
-0.05877161398530006408691406250
0.03610362112522125244140625000
-0.00561530515551567077636718750
-0.01933546550571918487548828125
0.08191328495740890502929687500
0.00598871801048517227172851562
0.17477695643901824951171875000
0.06182370707392692565917968750
-0.06925677508115768432617187500
-0.07389050722122192382812500000
-0.02883917465806007385253906250
0.11773163080215454101562500000
0.01862056739628314971923828125
-0.14053905010223388671875000000
0.06178374588489532470703125000
0.11485358327627182006835937500
0.03503426164388656616210937500
0.25592234730720520019531250000
0.20901897549629211425781250000
-0.04918155446648597717285156250
-0.03529493883252143859863281250
-0.06499546021223068237304687500
-0.05614001676440238952636718750
-0.00698894541710615158081054688
-0.01921460963785648345947265625
0.17316523194313049316406250000
0.16158038377761840820312500000
-0.14717905223369598388671875000
0.00054620817536488175392150879
-0.09664463251829147338867187500
-0.01719242334365844726562500000
0.00088249205145984888076782227
0.01502730231732130050659179688
0.02522525377571582794189453125
-0.09479963779449462890625000000
0.15949079394340515136718750000
-0.00764594506472349166870117188
0.04475227743387222290039062500
0.06018428876996040344238281250
-0.13083218038082122802734375000
-0.02166375145316123962402343750
-0.05656286701560020446777343750
-0.09723591059446334838867187500
0.00242569111287593841552734375
0.04560495167970657348632812500
-0.40346407890319824218750000000
0.04404933005571365356445312500
-0.07016966491937637329101562500
0.03032485581934452056884765625
0.00292038824409246444702148438
-0.00222111516632139682769775391
-0.05951564759016036987304687500
-0.02763224579393863677978515625
-0.01607925444841384887695312500
0.18124306201934814453125000000
0.07886753231287002563476562500
0.08575640618801116943359375000
0.13869783282279968261718750000
0.00671293726190924644470214844
-0.05504922568798065185546875000
-0.10103181004524230957031250000
0.03551639616489410400390625000
-0.00744012556970119476318359375
-0.13687245547771453857421875000
-0.02126588299870491027832031250
-0.08800931274890899658203125000
0.08974930644035339355468750000
-0.13280928134918212890625000000
-0.06176748499274253845214843750
-0.01041752472519874572753906250
-0.02944282256066799163818359375
-0.00003919977825717069208621979
0.04230854287743568420410156250
-0.04944416880607604980468750000
-0.12126981467008590698242187500
0.05353472754359245300292968750
-0.11247134208679199218750000000
0.12533490359783172607421875000
-0.03907123208045959472656250000
-0.05643916502594947814941406250
0.05840399861335754394531250000
-0.02364375814795494079589843750
-0.03031298331916332244873046875
0.13286024332046508789062500000
-0.02573338896036148071289062500
0.00073101418092846870422363281
-0.05073881894350051879882812500
-0.01446509920060634613037109375
-0.02195782400667667388916015625
0.02032752148807048797607421875
0.14530038833618164062500000000
0.02037623152136802673339843750
-0.01107873208820819854736328125
-0.09932130575180053710937500000
0.00745961721986532211303710938
0.05407306924462318420410156250
-0.05763534829020500183105468750
0.04881889000535011291503906250
0.10545890778303146362304687500
0.05656917765736579895019531250
-0.03677438199520111083984375000
-0.01565437577664852142333984375
-0.09711566567420959472656250000
0.15370763838291168212890625000
-0.02912107668817043304443359375
-0.04918130114674568176269531250
-0.12876303493976593017578125000
0.00177512050140649080276489258
-0.08224191516637802124023437500
-0.00292431027628481388092041016
-0.02228205092251300811767578125
-0.00852319411933422088623046875
0.00607400434091687202453613281
0.11202105879783630371093750000
0.08076370507478713989257812500
0.08256874978542327880859375000
0.04813341051340103149414062500
-0.10108691453933715820312500000
0.02292039804160594940185546875
0.01220392901450395584106445312
0.00720611447468400001525878906
-0.03753266111016273498535156250
-0.06000042334198951721191406250
0.19698016345500946044921875000
-0.01963382586836814880371093750
-0.06623027473688125610351562500
0.08180303126573562622070312500
-0.04721647128462791442871093750
-0.01753512769937515258789062500
0.09265083819627761840820312500
0.01601860485970973968505859375
0.00661873212084174156188964844
-0.19014720618724822998046875000
-0.04176644235849380493164062500
0.08342415094375610351562500000
-0.03045852296054363250732421875
-0.12947316467761993408203125000
-0.04856287315487861633300781250
0.02206593565642833709716796875
-0.02166634239256381988525390625
0.07203825563192367553710937500
-0.09879416972398757934570312500
0.03249381855130195617675781250
-0.07347532361745834350585937500
-0.03616064786911010742187500000
0.17469722032546997070312500000
0.12491771578788757324218750000
-0.04064079374074935913085937500
0.10910252481698989868164062500
-0.10756446421146392822265625000
0.01905806735157966613769531250
-0.03008023463189601898193359375
0.06672725081443786621093750000
0.07116537541151046752929687500
-0.05097188428044319152832031250
-0.04364756122231483459472656250
-0.06674517691135406494140625000
0.04988161474466323852539062500
0.02300896309316158294677734375
0.07115075737237930297851562500
-0.05973340198397636413574218750
0.05261249467730522155761718750
-0.05003354325890541076660156250
-0.04862789064645767211914062500
-0.07907543331384658813476562500
0.11810588836669921875000000000
0.12668599188327789306640625000
-0.12507919967174530029296875000
-0.00679960846900939941406250000
0.02141797542572021484375000000
0.27143511176109313964843750000
-0.00885335821658372879028320312
-0.01382287032902240753173828125
-0.12267328798770904541015625000
-0.03328363224864006042480468750
-0.06199123710393905639648437500
0.01382431946694850921630859375
0.00879877340048551559448242188
-0.06082659587264060974121093750
0.04914165660738945007324218750
-0.12857182323932647705078125000
-0.02050500735640525817871093750
-0.15879182517528533935546875000
0.03840937837958335876464843750
-0.06422765552997589111328125000
0.07329118251800537109375000000
0.01903701946139335632324218750
-0.10078399628400802612304687500
0.06174593791365623474121093750
0.01800682209432125091552734375
0.05866262689232826232910156250
-0.06687533855438232421875000000
0.06627476960420608520507812500
-0.07385744154453277587890625000
0.01908322051167488098144531250
-0.01583839207887649536132812500
-0.00344226253218948841094970703
-0.17667302489280700683593750000
-0.10519471764564514160156250000
0.06083071231842041015625000000
-0.14907346665859222412109375000
0.00027124283951707184314727783
-0.16780081391334533691406250000
-0.01020721998065710067749023438
0.06742862612009048461914062500
0.06988317519426345825195312500
0.08833178132772445678710937500
0.10119557380676269531250000000
0.07120864093303680419921875000
0.10324381291866302490234375000
0.07811642438173294067382812500
0.01969161070883274078369140625
0.00721867894753813743591308594
0.01323608495295047760009765625
-0.04886191338300704956054687500
-0.13544149696826934814453125000
0.10199852287769317626953125000
0.13625080883502960205078125000
0.02432361617684364318847656250
-0.05891260504722595214843750000
-0.03860227391123771667480468750
-0.10065981000661849975585937500
0.12195287644863128662109375000
0.03275869414210319519042968750
0.12781567871570587158203125000
-0.06944867223501205444335937500
0.12865607440471649169921875000
0.01854890026152133941650390625
-0.11097501963376998901367187500
0.02232502028346061706542968750
0.07583365589380264282226562500
-0.15961292386054992675781250000
-0.01855783350765705108642578125
0.07789283245801925659179687500
-0.14016547799110412597656250000
0.06926432251930236816406250000
0.01650418527424335479736328125
-0.04119698703289031982421875000
-0.05424004048109054565429687500
-0.07326649874448776245117187500
-0.05830941349267959594726562500
-0.01688673347234725952148437500
0.03314040601253509521484375000
0.00229709502309560775756835938
0.21622988581657409667968750000
-0.02563961781561374664306640625
-0.02243447862565517425537109375
-0.00087738706497475504875183105
-0.10792472213506698608398437500
0.09172093868255615234375000000
0.04330118000507354736328125000
0.07963389903306961059570312500
-0.00853304564952850341796875000
0.03052699007093906402587890625
-0.18908983469009399414062500000
-0.15601688623428344726562500000
-0.00955705251544713973999023438
-0.09464133530855178833007812500
-0.04604238644242286682128906250
0.00095734739443287253379821777
-0.03587762638926506042480468750
0.02986790798604488372802734375
-0.11399560421705245971679687500
0.14446845650672912597656250000
-0.00552591867744922637939453125
0.13265658915042877197265625000
0.00710273161530494689941406250
0.09641025215387344360351562500
-0.05927189067006111145019531250
-0.08809524029493331909179687500
0.12923149764537811279296875000
0.04815191775560379028320312500
-0.03854436054825782775878906250
-0.09275411814451217651367187500
0.04529055953025817871093750000
0.00995389092713594436645507812
0.12336954474449157714843750000
-0.00891956593841314315795898438
0.00825729873031377792358398438
0.02311309427022933959960937500
-0.03211385011672973632812500000
0.00820177048444747924804687500
-0.00244188099168241024017333984
-0.06366569548845291137695312500
-0.15278826653957366943359375000
-0.01938128843903541564941406250
-0.03429352492094039916992187500
0.05838556587696075439453125000
-0.01889672502875328063964843750
-0.03062310814857482910156250000
-0.07529161870479583740234375000
-0.10253868997097015380859375000
0.01182072982192039489746093750
-0.02542780712246894836425781250
0.03826702013611793518066406250
-0.02921460941433906555175781250
0.02658719569444656372070312500
0.03698829934000968933105468750
-0.04162689670920372009277343750
0.01506650540977716445922851562
-0.00667432416230440139770507812
0.23565050959587097167968750000
0.00721877766773104667663574219
-0.00148130254819989204406738281
-0.03722795099020004272460937500
-0.09038317948579788208007812500
-0.05809039995074272155761718750
0.01953525282442569732666015625
-0.02994868531823158264160156250
-0.06792125105857849121093750000
-0.17404414713382720947265625000
-0.07756970077753067016601562500
-0.02438907884061336517333984375
-0.07822787761688232421875000000
-0.03202509880065917968750000000
-0.03433397412300109863281250000
-0.06728601455688476562500000000
-0.03267334029078483581542968750
0.07065832614898681640625000000
-0.00995981134474277496337890625
-0.05943721160292625427246093750
-0.05214048177003860473632812500
0.03146083652973175048828125000
0.03111147694289684295654296875
0.07095511257648468017578125000
0.04522179439663887023925781250
0.03093132376670837402343750000
0.04911015927791595458984375000
0.13017916679382324218750000000
0.00773405237123370170593261719
-0.00100766448304057121276855469
-0.14950780570507049560546875000
0.02808315865695476531982421875
0.05870475247502326965332031250
0.03476264327764511108398437500
-0.15496681630611419677734375000
-0.09578033536672592163085937500
-0.07007163763046264648437500000
-0.07329605519771575927734375000
0.10710185021162033081054687500
-0.05337145552039146423339843750
-0.04515868425369262695312500000
0.13802821934223175048828125000
-0.08554428815841674804687500000
-0.18518266081809997558593750000
-0.05239605903625488281250000000
-0.02718734554946422576904296875
0.04918818175792694091796875000
0.01099787652492523193359375000
0.01660961657762527465820312500
-0.13220462203025817871093750000
0.00189279834739863872528076172
-0.07182803750038146972656250000
-0.09765215963125228881835937500
-0.00873450189828872680664062500
-0.07386069744825363159179687500
0.05417419224977493286132812500
0.03012625500559806823730468750
0.05552856996655464172363281250
-0.07612522691488265991210937500
-0.00027171487454324960708618164
0.06199708580970764160156250000
0.04632075503468513488769531250
-0.00186153338290750980377197266
-0.00077516568126156926155090332
0.06767359375953674316406250000
0.03792364150285720825195312500
0.08915027976036071777343750000
-0.00635365117341279983520507812
0.05255318805575370788574218750
-0.03876752033829689025878906250
-0.10839220881462097167968750000
0.10753315687179565429687500000
-0.02174731530249118804931640625
-0.06364770233631134033203125000
0.09116221219301223754882812500
0.15711426734924316406250000000
0.03518505021929740905761718750
0.04566715285181999206542968750
-0.06586790829896926879882812500
0.04698322713375091552734375000
0.00986038986593484878540039062
0.32033979892730712890625000000
0.09276346862316131591796875000
-0.08160717785358428955078125000
0.11090502142906188964843750000
-0.01423345226794481277465820312
0.00096627924358472228050231934
-0.10391351580619812011718750000
0.01025227457284927368164062500
0.02205562591552734375000000000
-0.10219068825244903564453125000
-0.12002771347761154174804687500
-0.10107150673866271972656250000
-0.00688630808144807815551757812
0.00149424548726528882980346680
0.05639991909265518188476562500
0.05644659698009490966796875000
-0.01417079940438270568847656250
0.00555226765573024749755859375
0.07039432227611541748046875000
-0.13451497256755828857421875000
-0.07221712172031402587890625000
0.00713452696800231933593750000
-0.04726845398545265197753906250
0.03482561558485031127929687500
0.08345247060060501098632812500
-0.00014220681623555719852447510
-0.10909474641084671020507812500
-0.16389426589012145996093750000
0.01096586417406797409057617188
0.06029745936393737792968750000
0.04433765634894371032714843750
0.05882960185408592224121093750
0.03173509240150451660156250000
0.04151312261819839477539062500
-0.03638486191630363464355468750
-0.00495578069239854812622070312
0.12070596963167190551757812500
-0.01055863033980131149291992188
0.00704452861100435256958007812
0.13728676736354827880859375000
0.03324953094124794006347656250
0.08168135583400726318359375000
0.04970487207174301147460937500
0.04193203896284103393554687500
-0.02323966659605503082275390625
-0.03883586078882217407226562500
-0.03648030385375022888183593750
0.17296467721462249755859375000
-0.02218649722635746002197265625
0.06866244226694107055664062500
0.07741383463144302368164062500
0.13118310272693634033203125000
-0.09281621873378753662109375000
0.07994136214256286621093750000
0.04352665692567825317382812500
-0.00987477973103523254394531250
0.13862940669059753417968750000
-0.04589711129665374755859375000
-0.02755645848810672760009765625
-0.04844580963253974914550781250
-0.00517123378813266754150390625
0.03182625398039817810058593750
-0.14717485010623931884765625000
0.01504588685929775238037109375
-0.01099603250622749328613281250
0.02982374280691146850585937500
0.02780340053141117095947265625
0.03700084984302520751953125000
-0.10868629813194274902343750000
0.16575083136558532714843750000
-0.16149611771106719970703125000
-0.02134261094033718109130859375
0.02367935702204704284667968750
-0.01324826106429100036621093750
-0.08416222035884857177734375000
-0.01767963729798793792724609375
-0.02414329349994659423828125000
0.08115568011999130249023437500
0.08295997232198715209960937500
0.11082772910594940185546875000
0.07637414336204528808593750000
-0.07706601172685623168945312500
0.05310802161693572998046875000
0.03547121584415435791015625000
0.01952203921973705291748046875
0.04748696088790893554687500000
-0.03945695236325263977050781250
-0.08025309443473815917968750000
-0.03450337052345275878906250000
0.16198733448982238769531250000
-0.03993548080325126647949218750
0.06643292307853698730468750000
-0.10359475761651992797851562500
-0.01729951240122318267822265625
0.07862481474876403808593750000
0.07486747205257415771484375000
-0.02535739727318286895751953125
0.03323877230286598205566406250
0.02134211920201778411865234375
-0.03074799478054046630859375000
0.12650229036808013916015625000
0.30030027031898498535156250000
-0.04817760735750198364257812500
0.00964412000030279159545898438
-0.07758194208145141601562500000
0.01134540978819131851196289062
-0.09306637197732925415039062500
0.04452971369028091430664062500
0.08413787931203842163085937500
-0.06169355288147926330566406250
0.08414209634065628051757812500
-0.02460183575749397277832031250
-0.06228285655379295349121093750
-0.08191827684640884399414062500
0.07581404596567153930664062500
0.01222702767699956893920898438
0.03211317211389541625976562500
-0.07490491122007369995117187500
0.06705083698034286499023437500
0.04040328040719032287597656250
-0.08929686248302459716796875000
0.03700978308916091918945312500
-0.09267021715641021728515625000
-0.03983560949563980102539062500
-0.02361776307225227355957031250
-0.05721187219023704528808593750
-0.02520945295691490173339843750
0.16984374821186065673828125000
0.04065262898802757263183593750
-0.05392481759190559387207031250
-0.08527790009975433349609375000
0.14047433435916900634765625000
0.05219953507184982299804687500
0.03706483542919158935546875000
0.03483575582504272460937500000
0.05876763910055160522460937500
-0.00058655912289395928382873535
-0.02564463578164577484130859375
0.03884758055210113525390625000
-0.03950290009379386901855468750
-0.00970071554183959960937500000
-0.04671347513794898986816406250
0.00434542819857597351074218750
0.13646049797534942626953125000
0.05048175901174545288085937500
-0.02419359609484672546386718750
-0.08245315402746200561523437500
0.01480747293680906295776367188
0.01067000813782215118408203125
0.04552479460835456848144531250
0.00242607458494603633880615234
-0.05592567846179008483886718750
0.04885276407003402709960937500
-0.03367206081748008728027343750
0.03103391267359256744384765625
0.08815907686948776245117187500
-0.03398613631725311279296875000
0.01942068338394165039062500000
0.03571679070591926574707031250
-0.07162336260080337524414062500
-0.02174377068877220153808593750
-0.03151706606149673461914062500
-0.00079514109529554843902587891
-0.06382411718368530273437500000
-0.15600119531154632568359375000
0.12908272445201873779296875000
0.01418148446828126907348632812
0.00276119844056665897369384766
-0.04406108707189559936523437500
-0.08473068475723266601562500000
-0.12208312749862670898437500000
-0.00000531883461007964797317982
-0.01915808022022247314453125000
-0.02133515290915966033935546875
0.01473375502973794937133789062
-0.04927448555827140808105468750
0.17585924267768859863281250000
0.00676957750692963600158691406
-0.06991992145776748657226562500
0.00893665198236703872680664062
-0.05076611787080764770507812500
-0.04242992401123046875000000000
0.01058785151690244674682617188
-0.06217899173498153686523437500
0.19853654503822326660156250000
0.03320420533418655395507812500
0.03465909138321876525878906250
-0.00820044148713350296020507812
0.01627578586339950561523437500
0.05789767578244209289550781250
-0.05052188038825988769531250000
-0.06101209670305252075195312500
0.06085013598203659057617187500
-0.02858965098857879638671875000
-0.05296480655670166015625000000
0.00530895963311195373535156250
-0.04680406302213668823242187500
0.01970061287283897399902343750
0.03963387757539749145507812500
0.03227905929088592529296875000
-0.01575832813978195190429687500
0.06003061309456825256347656250
0.04261129721999168395996093750
0.02477305568754673004150390625
-0.12387718260288238525390625000
0.09726674854755401611328125000
-0.06282351911067962646484375000
0.18369232118129730224609375000
0.00486232293769717216491699219
-0.05693233758211135864257812500
-0.11370964348316192626953125000
-0.04532172158360481262207031250
0.03330871835350990295410156250
0.00997757352888584136962890625
0.03948320820927619934082031250
-0.01863046362996101379394531250
0.07063474506139755249023437500
0.10919415950775146484375000000
-0.05463426560163497924804687500
-0.10509559512138366699218750000
0.01100893784314393997192382812
0.03407738730311393737792968750
0.04081737622618675231933593750
0.06405886262655258178710937500
0.03877723217010498046875000000
-0.13261698186397552490234375000
0.07078127562999725341796875000
0.02653389796614646911621093750
-0.14929695427417755126953125000
-0.03710777685046195983886718750
-0.00051759328925982117652893066
0.03796015307307243347167968750
-0.06318896263837814331054687500
-0.04274183139204978942871093750
0.01819719001650810241699218750
-0.05506120249629020690917968750
0.04596505686640739440917968750
-0.04474500939249992370605468750
0.13854768872261047363281250000
0.05867943540215492248535156250
-0.15537333488464355468750000000
-0.11742394417524337768554687500
-0.02911750786006450653076171875
0.05420683324337005615234375000
-0.07523307204246520996093750000
0.04282531887292861938476562500
-0.04117792472243309020996093750
-0.09648702293634414672851562500
0.02038944885134696960449218750
-0.00327875744551420211791992188
0.04811435937881469726562500000
0.07346852123737335205078125000
-0.00967447552829980850219726562
-0.13396447896957397460937500000
-0.11490982770919799804687500000
-0.09288116544485092163085937500
-0.24492681026458740234375000000
-0.04672041535377502441406250000
-0.00338234938681125640869140625
0.05400997400283813476562500000
-0.01958487741649150848388671875
-0.09395988285541534423828125000
0.07422701269388198852539062500
-0.04745062813162803649902343750
0.02398933842778205871582031250
0.06721666455268859863281250000
-0.05722056329250335693359375000
-0.03740899264812469482421875000
0.06480867415666580200195312500
-0.08862081170082092285156250000
-0.04004193469882011413574218750
0.04084699600934982299804687500
-0.22541257739067077636718750000
-0.01439889706671237945556640625
0.04320965334773063659667968750
-0.06240449473261833190917968750
-0.01930229924619197845458984375
0.05469322949647903442382812500
0.01466999948024749755859375000
0.02456923574209213256835937500
-0.01660906523466110229492187500
-0.11073379963636398315429687500
-0.00831097643822431564331054688
0.12739805877208709716796875000
0.04059831425547599792480468750
0.03079180233180522918701171875
0.05922014638781547546386718750
-0.05400883033871650695800781250
0.14232811331748962402343750000
0.03748299181461334228515625000
-0.03762593865394592285156250000
-0.11603099107742309570312500000
0.04487711191177368164062500000
-0.09032616019248962402343750000
0.01533852424472570419311523438
-0.06216584518551826477050781250
-0.09441974759101867675781250000
0.00419210689142346382141113281
-0.04782488569617271423339843750
-0.03826204314827919006347656250
0.24532392621040344238281250000
-0.03705134242773056030273437500
0.00120174500625580549240112305
-0.04251128435134887695312500000
-0.05203475058078765869140625000
0.00297114998102188110351562500
0.18932838737964630126953125000
-0.04031720384955406188964843750
0.01180547382682561874389648438
0.05954917892813682556152343750
-0.05079144611954689025878906250
-0.01680064760148525238037109375
-0.04589509963989257812500000000
0.08751647174358367919921875000
0.04952554777264595031738281250
0.02771000936627388000488281250
-0.00735892448574304580688476562
-0.01266280282288789749145507812
0.09102641046047210693359375000
-0.06363203376531600952148437500
-0.08987794071435928344726562500
-0.13193225860595703125000000000
-0.03919622302055358886718750000
0.09690433740615844726562500000
0.11888809502124786376953125000
0.01835818961262702941894531250
-0.00524822250008583068847656250
0.03820141032338142395019531250
-0.10504189878702163696289062500
0.04712125658988952636718750000
0.18040500581264495849609375000
-0.04508205503225326538085937500
-0.02696799859404563903808593750
0.03820418193936347961425781250
-0.01316042058169841766357421875
-0.11337169259786605834960937500
-0.02205018885433673858642578125
-0.05061937496066093444824218750
0.13351020216941833496093750000
0.10684120655059814453125000000
-0.00682922219857573509216308594
-0.03225789591670036315917968750
-0.00495773321017622947692871094
0.11978793889284133911132812500
-0.04073389247059822082519531250
-0.14527113735675811767578125000
-0.09608598053455352783203125000
0.05799154192209243774414062500
-0.10388293117284774780273437500
0.00614780839532613754272460938
-0.03499089181423187255859375000
-0.14638046920299530029296875000
0.01826418377459049224853515625
0.06862595677375793457031250000
-0.07780236750841140747070312500
-0.08170150220394134521484375000
-0.05740331485867500305175781250
-0.16807122528553009033203125000
-0.00753769092261791229248046875
-0.01997915469110012054443359375
-0.04869034886360168457031250000
-0.19258880615234375000000000000
0.17235448956489562988281250000
-0.10384248942136764526367187500
-0.01328274607658386230468750000
0.09866905957460403442382812500
-0.07364975661039352416992187500
0.02911888621747493743896484375
-0.05706955865025520324707031250
0.10121268779039382934570312500
-0.20044800639152526855468750000
0.00276513444259762763977050781
0.01821637526154518127441406250
0.11141887307167053222656250000
-0.01060902141034603118896484375
-0.00337280053645372390747070312
0.09222505986690521240234375000
-0.03716702014207839965820312500
0.11687707901000976562500000000
0.06139079481363296508789062500
0.04498251527547836303710937500
-0.00869269110262393951416015625
-0.00837462488561868667602539062
0.12060582637786865234375000000
0.07315014302730560302734375000
0.08531223237514495849609375000
0.07289835065603256225585937500
0.04116185009479522705078125000
-0.00391951855272054672241210938
0.04267832636833190917968750000
-0.11015875637531280517578125000
-0.02828453294932842254638671875
0.20495027303695678710937500000
0.11310426145792007446289062500
-0.13119634985923767089843750000
-0.06166067346930503845214843750
-0.04673264175653457641601562500
0.07229201495647430419921875000
0.02045822143554687500000000000
0.08791998028755187988281250000
-0.02145371027290821075439453125
0.10569421947002410888671875000
-0.12504310905933380126953125000
0.14810407161712646484375000000
0.16994188725948333740234375000
-0.05541455373167991638183593750
0.01344983372837305068969726562
-0.02742689102888107299804687500
-0.02156260237097740173339843750
0.01852256432175636291503906250
-0.04055922478437423706054687500
0.12134403735399246215820312500
0.05413638427853584289550781250
-0.01465179771184921264648437500
-0.02382143400609493255615234375
0.01382725778967142105102539062
-0.08792446553707122802734375000
0.00952631328254938125610351562
0.12337668985128402709960937500
0.06909880787134170532226562500
0.07106950879096984863281250000
0.05221648886799812316894531250
-0.03608797490596771240234375000
0.09267739206552505493164062500
0.03279691189527511596679687500
-0.02017227746546268463134765625
0.07407853752374649047851562500
0.03684361651539802551269531250
0.36986669898033142089843750000
0.08027575910091400146484375000
0.00690332567319273948669433594
-0.00577382743358612060546875000
0.09310800582170486450195312500
-0.10171648114919662475585937500
-0.02935199439525604248046875000
0.09995450079441070556640625000
0.01678718999028205871582031250
-0.09316889196634292602539062500
-0.01702071726322174072265625000
0.09046638756990432739257812500
0.08362238109111785888671875000
-0.00822292640805244445800781250
-0.05653453990817070007324218750
0.16482110321521759033203125000
-0.13537614047527313232421875000
0.00065560376970097422599792480
-0.12999387085437774658203125000
0.03102834150195121765136718750
-0.06635990738868713378906250000
-0.05585412681102752685546875000
0.03052770718932151794433593750
-0.03339667618274688720703125000
-0.08299192786216735839843750000
0.12392682582139968872070312500
-0.04507174715399742126464843750
0.04533232748508453369140625000
0.06089679151773452758789062500
-0.03578213974833488464355468750
0.10109484195709228515625000000
0.03666150197386741638183593750
0.07778794318437576293945312500
0.00187735096551477909088134766
0.18376682698726654052734375000
-0.10929542779922485351562500000
-0.01572535187005996704101562500
-0.12676084041595458984375000000
-0.04268964380025863647460937500
0.00088859995594248175621032715
-0.00266245636157691478729248047
0.00853130780160427093505859375
0.14898273348808288574218750000
-0.05713232606649398803710937500
-0.00665130093693733215332031250
0.00581522425636649131774902344
-0.08050666004419326782226562500
0.00336311268620193004608154297
0.01838341914117336273193359375
-0.03179896995425224304199218750
-0.04818954318761825561523437500
-0.03772702440619468688964843750
-0.00594371277838945388793945312
-0.02308950945734977722167968750
0.05905853584408760070800781250
0.01571292616426944732666015625
-0.13283029198646545410156250000
-0.17381510138511657714843750000
0.00061969918897375464439392090
-0.02167439088225364685058593750
-0.09990702569484710693359375000
0.09960979968309402465820312500
0.08825264871120452880859375000
-0.04549796506762504577636718750
-0.06532154977321624755859375000
0.02141329646110534667968750000
-0.03818394243717193603515625000
-0.00536752399057149887084960938
0.00638140225782990455627441406
0.00755428010597825050354003906
-0.01420019846409559249877929688
0.05956303328275680541992187500
-0.02561522834002971649169921875
0.06512764841318130493164062500
-0.04731082171201705932617187500
-0.02208535932004451751708984375
-0.05921352654695510864257812500
-0.06175569444894790649414062500
-0.14482809603214263916015625000
-0.05817975848913192749023437500
-0.07490514963865280151367187500
-0.05136719718575477600097656250
-0.05929350107908248901367187500
0.04876514151692390441894531250
-0.33983686566352844238281250000
0.02344728261232376098632812500
0.07898342609405517578125000000
0.05592182651162147521972656250
0.06492777168750762939453125000
0.05336948856711387634277343750
-0.02859478071331977844238281250
-0.04224238917231559753417968750
-0.07215845584869384765625000000
0.07201637327671051025390625000
-0.00667379191145300865173339844
-0.06924771517515182495117187500
0.02691780403256416320800781250
0.02396300621330738067626953125
0.08145703375339508056640625000
0.04774383828043937683105468750
-0.07998485118150711059570312500
0.02121344394981861114501953125
-0.01420269533991813659667968750
0.08088314533233642578125000000
0.03184243664145469665527343750
0.06944312155246734619140625000
-0.09079539775848388671875000000
0.02541352063417434692382812500
0.06079977378249168395996093750
0.06156135722994804382324218750
-0.06253503262996673583984375000
-0.10367564111948013305664062500
-0.05448196083307266235351562500
-0.08842525631189346313476562500
-0.04848019406199455261230468750
-0.01342849526554346084594726562
0.01655628532171249389648437500
-0.01015339046716690063476562500
0.01336392667144536972045898438
0.10285498201847076416015625000
-0.19549332559108734130859375000
0.00322907511144876480102539062
-0.05267012864351272583007812500
0.09668315201997756958007812500
0.00263049965724349021911621094
-0.09364379197359085083007812500
-0.18537962436676025390625000000
0.07619354128837585449218750000
0.22878895699977874755859375000
0.04567094147205352783203125000
0.00821570027619600296020507812
-0.21514010429382324218750000000
-0.02230679243803024291992187500
-0.13237170875072479248046875000
-0.06989575177431106567382812500
-0.10131175816059112548828125000
-0.00099017797037959098815917969
0.03616396710276603698730468750
0.07795479148626327514648437500
0.05740392580628395080566406250
0.04234145954251289367675781250
-0.04105169326066970825195312500
-0.03004845790565013885498046875
0.01971984282135963439941406250
0.05214059352874755859375000000
0.04559897258877754211425781250
-0.02542264014482498168945312500
-0.05409903451800346374511718750
-0.07693010568618774414062500000
-0.03288315236568450927734375000
-0.00459663290530443191528320312
-0.10499554872512817382812500000
0.02170728147029876708984375000
0.01789311505854129791259765625
-0.04128936678171157836914062500
-0.05239405855536460876464843750
-0.07830051332712173461914062500
-0.01905696094036102294921875000
-0.14042980968952178955078125000
0.03472859039902687072753906250
-0.09091443568468093872070312500
0.09883745759725570678710937500
0.09705861657857894897460937500
-0.09917703270912170410156250000
0.02669013291597366333007812500
-0.04461178928613662719726562500
0.12521922588348388671875000000
-0.15457658469676971435546875000
-0.03719050064682960510253906250
0.02065711654722690582275390625
-0.01213246863335371017456054688
-0.02106936462223529815673828125
-0.05448075383901596069335937500
0.01053154002875089645385742188
-0.00221727229654788970947265625
0.00976573675870895385742187500
0.08388442546129226684570312500
0.00691513065248727798461914062
-0.05076409131288528442382812500
0.03419917076826095581054687500
0.02606740966439247131347656250
-0.03155323117971420288085937500
0.08693594485521316528320312500
-0.03455739468336105346679687500
-0.05423809960484504699707031250
0.06437771767377853393554687500
0.00952252186834812164306640625
-0.00332385953515768051147460938
0.05942880734801292419433593750
-0.07777288556098937988281250000
0.00261412863619625568389892578
-0.03064828366041183471679687500
-0.07466776669025421142578125000
0.08386879414319992065429687500
-0.02830388210713863372802734375
-0.02100064605474472045898437500
0.10244107991456985473632812500
-0.03419882431626319885253906250
0.03080578707158565521240234375
0.04422532767057418823242187500
-0.07303133606910705566406250000
-0.01707802340388298034667968750
-0.05248998105525970458984375000
0.04993057250976562500000000000
-0.09047294408082962036132812500
0.01624394580721855163574218750
0.02971875481307506561279296875
-0.04209784790873527526855468750
-0.04573611170053482055664062500
-0.08051425218582153320312500000
-0.10921866446733474731445312500
0.00813109427690505981445312500
-0.05735831707715988159179687500
0.01531937066465616226196289062
-0.02833326719701290130615234375
0.02125766500830650329589843750
0.07075326889753341674804687500
-0.01255152933299541473388671875
0.06978865712881088256835937500
0.04110853374004364013671875000
0.08150387555360794067382812500
-0.01528915390372276306152343750
0.10381734371185302734375000000
-0.04461034387350082397460937500
0.01614261977374553680419921875
0.09153503179550170898437500000
-0.10178830474615097045898437500
0.05753701180219650268554687500
-0.05528370663523674011230468750
-0.01231347303837537765502929688
-0.07381200790405273437500000000
-0.03366467729210853576660156250
-0.02080109715461730957031250000
0.02238399907946586608886718750
0.00117331184446811676025390625
0.13838654756546020507812500000
0.07642360776662826538085937500
0.08697489649057388305664062500
0.01598310098052024841308593750
-0.11892042309045791625976562500
-0.09839636087417602539062500000
0.07159800082445144653320312500
-0.05142148956656455993652343750
-0.01174239441752433776855468750
0.03387121111154556274414062500
-0.06505035609006881713867187500
-0.04619387909770011901855468750
0.00311447586864233016967773438
-0.02358031086623668670654296875
-0.09781613945960998535156250000
0.01829715073108673095703125000
0.01662052236497402191162109375
-0.11176682263612747192382812500
0.04455237835645675659179687500
-0.03501983731985092163085937500
0.03994632139801979064941406250
-0.15933327376842498779296875000
-0.06056905537843704223632812500
-0.05556727573275566101074218750
0.02277235127985477447509765625
0.03234271332621574401855468750
0.02152678370475769042968750000
0.10090682655572891235351562500
-0.09023410081863403320312500000
0.02592125721275806427001953125
-0.08563011139631271362304687500
-0.01488691568374633789062500000
0.01716479845345020294189453125
-0.06640245020389556884765625000
0.06938377022743225097656250000
-0.06930879503488540649414062500
0.03161875903606414794921875000
-0.03531974181532859802246093750
-0.01995557919144630432128906250
0.01241282280534505844116210938
-0.00547892972826957702636718750
-0.02324964106082916259765625000
0.08322295546531677246093750000
0.00655617192387580871582031250
0.02453783713281154632568359375
0.05426409840583801269531250000
-0.05530378594994544982910156250
-0.11291994154453277587890625000
-0.00335800950415432453155517578
0.03903646022081375122070312500
0.04925713315606117248535156250
0.16010737419128417968750000000
-0.03430507332086563110351562500
0.05063313618302345275878906250
0.06252058595418930053710937500
0.00339130032807588577270507812
0.01054576877504587173461914062
0.07404232025146484375000000000
-0.00258486904203891754150390625
-0.02486176788806915283203125000
-0.03716715425252914428710937500
-0.15770161151885986328125000000
0.03297678008675575256347656250
-0.10347673296928405761718750000
-0.02895705215632915496826171875
0.03015211038291454315185546875
-0.06476143002510070800781250000
-0.03383236378431320190429687500
0.01018474437296390533447265625
-0.08632512390613555908203125000
0.04728058353066444396972656250
-0.18775489926338195800781250000
-0.29430499672889709472656250000
-0.09493961185216903686523437500
0.04619584232568740844726562500
-0.06964488327503204345703125000
0.01171334739774465560913085938
0.05966989696025848388671875000
0.05331263318657875061035156250
-0.14830954372882843017578125000
-0.08992337435483932495117187500
0.01431510597467422485351562500
-0.24133595824241638183593750000
-0.03776887059211730957031250000
0.02955558709800243377685546875
0.06362313777208328247070312500
-0.05121430009603500366210937500
0.06575328111648559570312500000
-0.02862552739679813385009765625
0.03252629563212394714355468750
-0.04303012788295745849609375000
-0.17835836112499237060546875000
-0.14604383707046508789062500000
-0.00667538121342658996582031250
-0.19317841529846191406250000000
0.12449300289154052734375000000
-0.06140435859560966491699218750
-0.04581989720463752746582031250
0.04648569226264953613281250000
0.06688803434371948242187500000
-0.16593371331691741943359375000
0.01789786480367183685302734375
-0.01187162194401025772094726562
0.13279543817043304443359375000
-0.02940726093947887420654296875
-0.15948428213596343994140625000
-0.01463768444955348968505859375
-0.06942995637655258178710937500
0.03406011313199996948242187500
-0.05155716091394424438476562500
0.08889563381671905517578125000
-0.08478453755378723144531250000
0.02695083245635032653808593750
0.26585221290588378906250000000
-0.13213081657886505126953125000
-0.03841701522469520568847656250
0.06664668768644332885742187500
0.12244732677936553955078125000
0.10707841068506240844726562500
0.02874715067446231842041015625
-0.01572482287883758544921875000
0.13411034643650054931640625000
0.05181875452399253845214843750
0.02870144881308078765869140625
-0.08783622086048126220703125000
0.02176668494939804077148437500
-0.10654606670141220092773437500
0.04844869300723075866699218750
-0.10323856770992279052734375000
-0.12086225301027297973632812500
-0.12527671456336975097656250000
0.04490502923727035522460937500
0.11724147200584411621093750000
0.07680150866508483886718750000
0.05210998654365539550781250000
-0.06763787567615509033203125000
0.10178825259208679199218750000
-0.08835712820291519165039062500
0.10398181527853012084960937500
-0.00101706956047564744949340820
-0.05096184462308883666992187500
0.02757375873625278472900390625
0.08225801587104797363281250000
0.02443693391978740692138671875
0.02073257043957710266113281250
-0.04841639474034309387207031250
0.02167372778058052062988281250
0.12564173340797424316406250000
0.08550268411636352539062500000
-0.09349533170461654663085937500
-0.08123189210891723632812500000
0.04593182727694511413574218750
0.01446117646992206573486328125
-0.00024083605967462062835693359
-0.01426122244447469711303710938
-0.04859272018074989318847656250
0.07176615297794342041015625000
-0.05114829912781715393066406250
0.07066387683153152465820312500
0.07445012778043746948242187500
-0.00157524656970053911209106445
-0.16021797060966491699218750000
-0.02935568243265151977539062500
0.00804646592587232589721679688
0.00884627643972635269165039062
-0.08981723338365554809570312500
0.03342024981975555419921875000
-0.08035869896411895751953125000
-0.01885483786463737487792968750
0.09481599181890487670898437500
0.01565756276249885559082031250
0.00133931718301028013229370117
-0.01160742528736591339111328125
-0.08313554525375366210937500000
0.02610756084322929382324218750
0.08280377835035324096679687500
0.05509661138057708740234375000
-0.02496985718607902526855468750
-0.05404110997915267944335937500
0.12872803211212158203125000000
0.04639222100377082824707031250
0.02020103484392166137695312500
0.03065567649900913238525390625
0.01107420586049556732177734375
0.30227765440940856933593750000
-0.10754748433828353881835937500
0.00981491804122924804687500000
0.09581552445888519287109375000
0.07250798493623733520507812500
-0.12244331091642379760742187500
-0.05347558856010437011718750000
-0.02000093832612037658691406250
-0.02348195202648639678955078125
-0.09868231415748596191406250000
-0.05886757001280784606933593750
0.02106817252933979034423828125
0.05998092144727706909179687500
-0.05914401262998580932617187500
-0.06988620012998580932617187500
-0.05436173453927040100097656250
-0.31331115961074829101562500000
-0.08836666494607925415039062500
0.00550919724628329277038574219
-0.06605261564254760742187500000
-0.03430352732539176940917968750
0.03634538128972053527832031250
0.11153864115476608276367187500
-0.21004761755466461181640625000
-0.04472110047936439514160156250
-0.02941946499049663543701171875
-0.03201459720730781555175781250
-0.14671257138252258300781250000
-0.13074898719787597656250000000
-0.08690015226602554321289062500
-0.06387182325124740600585937500
0.03424087911844253540039062500
-0.06652890145778656005859375000
-0.02522629871964454650878906250
-0.06226452067494392395019531250
-0.25212374329566955566406250000
-0.01533529721200466156005859375
-0.04118615016341209411621093750
-0.07261848449707031250000000000
-0.04453563317656517028808593750
-0.07908438891172409057617187500
0.04261262342333793640136718750
-0.03758100047707557678222656250
0.09141834080219268798828125000
-0.15358071029186248779296875000
0.00453654956072568893432617188
0.02201973646879196166992187500
-0.08858432620763778686523437500
-0.07229434698820114135742187500
-0.42928266525268554687500000000
-0.06468956172466278076171875000
-0.06966116279363632202148437500
-0.11470223218202590942382812500
0.07023674994707107543945312500
-0.02241192944347858428955078125
0.01705626584589481353759765625
-0.01593913324177265167236328125
0.00454450771212577819824218750
-0.15916338562965393066406250000
0.03425347059965133666992187500
0.08926784247159957885742187500
0.11700881272554397583007812500
-0.09365767985582351684570312500
0.02757863700389862060546875000
-0.10373054444789886474609375000
0.08398829400539398193359375000
0.11120985448360443115234375000
-0.02671591937541961669921875000
0.16846252977848052978515625000
0.04080735892057418823242187500
0.01684113405644893646240234375
-0.00960119348019361495971679688
-0.08991109579801559448242187500
0.00522032426670193672180175781
0.02034375816583633422851562500
0.01724725589156150817871093750
0.02773511968553066253662109375
-0.14316388964653015136718750000
0.02257841452956199645996093750
-0.05371673405170440673828125000
-0.03163999691605567932128906250
0.02697758935391902923583984375
0.00817182566970586776733398438
0.00823627598583698272705078125
0.04228016734123229980468750000
0.10029137879610061645507812500
0.09867304563522338867187500000
-0.00536544946953654289245605469
0.02338369563221931457519531250
-0.03972365334630012512207031250
-0.03434340655803680419921875000
-0.02836898714303970336914062500
0.02706515789031982421875000000
0.01408730912953615188598632812
-0.02154235541820526123046875000
-0.01566977426409721374511718750
-0.34229508042335510253906250000
-0.08107768744230270385742187500
0.02353075891733169555664062500
0.08060537278652191162109375000
-0.03275242820382118225097656250
0.07941266149282455444335937500
0.05894494801759719848632812500
0.09948209673166275024414062500
0.08422186970710754394531250000
0.20847663283348083496093750000
0.07444736361503601074218750000
0.02720594406127929687500000000
-0.03574131801724433898925781250
0.07934789359569549560546875000
-0.02116143144667148590087890625
-0.00084506324492394924163818359
0.19325841963291168212890625000
0.06362305581569671630859375000
-0.02317092195153236389160156250
0.03907621279358863830566406250
0.04406357556581497192382812500
-0.05091376975178718566894531250
-0.02803966775536537170410156250
0.03637280687689781188964843750
0.14234827458858489990234375000
0.00442715082317590713500976562
0.02854365110397338867187500000
-0.32827359437942504882812500000
-0.06539717316627502441406250000
-0.01040291879326105117797851562
0.05449063703417778015136718750
-0.11143013834953308105468750000
-0.04328387975692749023437500000
-0.05645609274506568908691406250
0.14505979418754577636718750000
0.02513468638062477111816406250
0.04799383133649826049804687500
-0.07145514339208602905273437500
-0.02522892132401466369628906250
-0.03094409592449665069580078125
0.01231555175036191940307617188
-0.01565310545265674591064453125
-0.17769937217235565185546875000
0.05675347894430160522460937500
-0.05627121031284332275390625000
-0.00619690772145986557006835938
-0.05571119859814643859863281250
-0.14340502023696899414062500000
0.15032671391963958740234375000
0.02045620791614055633544921875
-0.10495232045650482177734375000
-0.01819516345858573913574218750
0.04204077273607254028320312500
0.03034155815839767456054687500
-0.02200193516910076141357421875
-0.09892343729734420776367187500
0.05714296549558639526367187500
0.11255626380443572998046875000
0.16246826946735382080078125000
0.14547568559646606445312500000
0.09037435054779052734375000000
0.12044023722410202026367187500
0.09445121139287948608398437500
-0.02427323721349239349365234375
-0.02803270891308784484863281250
0.02341123856604099273681640625
0.07972089946269989013671875000
-0.07324093580245971679687500000
-0.01252921670675277709960937500
-0.05793691799044609069824218750
-0.04444513469934463500976562500
0.00670214276760816574096679688
-0.03105685487389564514160156250
0.08567541092634201049804687500
-0.01700273156166076660156250000
0.09522689878940582275390625000
-0.03496112674474716186523437500
0.04490508511662483215332031250
0.02445406652987003326416015625
0.02895893715322017669677734375
-0.05615395307540893554687500000
-0.14993074536323547363281250000
-0.06581655889749526977539062500
0.09081720560789108276367187500
0.02868923917412757873535156250
-0.01351627521216869354248046875
0.07289601862430572509765625000
-0.02042191289365291595458984375
-0.07292039692401885986328125000
0.08325082808732986450195312500
-0.00883396994322538375854492188
0.10468104481697082519531250000
0.09814073890447616577148437500
-0.09801891446113586425781250000
0.05940380692481994628906250000
-0.04971360042691230773925781250
-0.05342370644211769104003906250
0.08350875228643417358398437500
0.05681016668677330017089843750
-0.04376465082168579101562500000
0.22175149619579315185546875000
0.07073680311441421508789062500
0.00292206183075904846191406250
-0.10662456601858139038085937500
-0.13070324063301086425781250000
-0.11417729407548904418945312500
-0.08513619005680084228515625000
0.00968564860522747039794921875
-0.00239795958623290061950683594
0.07367930561304092407226562500
-0.00349386851303279399871826172
0.06956157833337783813476562500
0.01055391412228345870971679688
0.01731664873659610748291015625
0.13855277001857757568359375000
0.04717247933149337768554687500
0.02722513861954212188720703125
0.05129399895668029785156250000
-0.00407800776883959770202636719
0.03452291712164878845214843750
-0.03429256007075309753417968750
0.05699970945715904235839843750
-0.02331915311515331268310546875
-0.03818003833293914794921875000
-0.00927449576556682586669921875
-0.20044468343257904052734375000
0.09400543570518493652343750000
-0.03009776957333087921142578125
-0.25912606716156005859375000000
-0.02640011161565780639648437500
0.15316042304039001464843750000
0.00533494958654046058654785156
0.03153141960501670837402343750
0.04003229364752769470214843750
-0.06665925681591033935546875000
0.14613263309001922607421875000
-0.08582854270935058593750000000
0.11349607259035110473632812500
0.02480753324925899505615234375
0.07916966080665588378906250000
0.01606409251689910888671875000
0.07008560746908187866210937500
-0.06365665793418884277343750000
-0.08995573967695236206054687500
0.00382061512209475040435791016
0.07491840422153472900390625000
-0.02503190189599990844726562500
0.03161066398024559020996093750
-0.08054092526435852050781250000
-0.03923143818974494934082031250
-0.19777506589889526367187500000
-0.03144651278853416442871093750
0.03045383840799331665039062500
-0.01994700729846954345703125000
-0.16858446598052978515625000000
-0.05423640832304954528808593750
0.07371133565902709960937500000
0.04657492786645889282226562500
-0.06415807455778121948242187500
-0.03935279697179794311523437500
-0.10462705045938491821289062500
-0.03165423497557640075683593750
-0.00063504884019494056701660156
-0.10482761263847351074218750000
0.02309853024780750274658203125
