-6.907502561807632446e-02
5.253335461020469666e-02
-5.039956048130989075e-02
1.585347577929496765e-02
-2.380719035863876343e-02
5.613195709884166718e-03
-1.371033285977318883e-04
5.045228078961372375e-02
-5.969374254345893860e-02
-4.263983294367790222e-02
-1.239335909485816956e-02
3.237771242856979370e-02
-1.040751230902969837e-03
-1.716472022235393524e-02
-2.165369503200054169e-02
-4.722489789128303528e-02
3.854560852050781250e-02
2.951571904122829437e-02
6.335558835417032242e-03
-6.642510741949081421e-02
7.054944336414337158e-02
5.509229004383087158e-02
-1.313646286725997925e-01
9.082696051336824894e-04
1.256531197577714920e-02
-3.904938325285911560e-02
5.273054167628288269e-02
-3.815602883696556091e-02
-1.505635399371385574e-02
4.311865195631980896e-02
3.972614184021949768e-02
3.693842887878417969e-02
3.764010500162839890e-03
-7.667592167854309082e-02
-1.731380261480808258e-02
3.289330005645751953e-02
7.111831009387969971e-02
1.307266671210527420e-02
-7.813201099634170532e-02
1.012037172913551331e-01
5.799712613224983215e-03
-5.898118019104003906e-02
3.649746254086494446e-02
-4.854327812790870667e-02
5.354898795485496521e-02
2.660801447927951813e-02
-3.197018057107925415e-03
1.416589599102735519e-02
7.561478763818740845e-02
-2.468283101916313171e-02
-1.406376063823699951e-02
9.873288869857788086e-02
-5.159571021795272827e-02
-2.644805982708930969e-02
1.596481353044509888e-02
3.039381094276905060e-02
5.305963754653930664e-02
-4.746279865503311157e-02
1.031410619616508484e-01
-1.335116475820541382e-02
-2.987757138907909393e-02
4.868857935070991516e-02
2.189355157315731049e-02
1.504805963486433029e-02
-2.639635466039180756e-02
4.159847274422645569e-03
-1.329506561160087585e-02
-5.508059635758399963e-03
-1.366879232227802277e-02
5.026749521493911743e-02
1.348841469734907150e-02
7.212339341640472412e-02
4.666446894407272339e-02
3.584843873977661133e-02
-2.723610028624534607e-02
6.898989900946617126e-03
-3.283355012536048889e-02
-2.140279673039913177e-02
-7.523268461227416992e-02
-1.318372227251529694e-02
2.575155161321163177e-02
5.935967713594436646e-02
-5.673699453473091125e-02
8.103066124022006989e-03
-5.461282562464475632e-03
7.628045976161956787e-02
-6.414845585823059082e-02
2.896337583661079407e-02
-4.510095715522766113e-02
-1.820703409612178802e-02
2.762348949909210205e-02
-2.907987311482429504e-02
-8.414244279265403748e-03
-4.305399209260940552e-02
2.264210209250450134e-02
-4.512573033571243286e-02
-2.183291595429182053e-03
6.981639564037322998e-02
2.521881088614463806e-02
4.610291682183742523e-03
-2.991598285734653473e-02
-4.517132788896560669e-02
2.420556172728538513e-02
-7.424140721559524536e-02
-1.718048378825187683e-02
-2.518210746347904205e-02
-2.377162687480449677e-02
4.184114933013916016e-02
4.379137605428695679e-02
-6.547254323959350586e-02
1.090357732027769089e-02
5.374853685498237610e-02
7.039480656385421753e-02
8.839204907417297363e-03
4.284532740712165833e-02
-5.750617757439613342e-02
-2.852078713476657867e-02
6.679338961839675903e-02
-1.540924422442913055e-02
1.787609979510307312e-02
5.721351504325866699e-02
-1.677633030340075493e-03
-6.187835708260536194e-02
1.084971521049737930e-02
-9.525137022137641907e-03
1.126469392329454422e-02
4.397416487336158752e-02
-1.267180778086185455e-02
