0.11117471009492874145507812500
-0.01134868431836366653442382812
-0.02773996442556381225585937500
-0.03688920289278030395507812500
-0.04892544448375701904296875000
0.08504718542098999023437500000
-0.01596875675022602081298828125
-0.02616542764008045196533203125
-0.08081484586000442504882812500
-0.01414952892810106277465820312
-0.03556645661592483520507812500
0.02130440250039100646972656250
-0.11210202425718307495117187500
-0.04701353982090950012207031250
-0.01127106044441461563110351562
0.14031288027763366699218750000
-0.03932598605751991271972656250
-0.04537830874323844909667968750
-0.05962697416543960571289062500
0.02890860661864280700683593750
-0.00471996981650590896606445312
-0.11188152432441711425781250000
-0.19099806249141693115234375000
0.09004080295562744140625000000
-0.10584742575883865356445312500
-0.03855694830417633056640625000
0.00570010021328926086425781250
0.01730916276574134826660156250
0.19252136349678039550781250000
0.03884829953312873840332031250
-0.04568040370941162109375000000
-0.01038352772593498229980468750
-0.01480829901993274688720703125
0.10373773425817489624023437500
-0.00429136911407113075256347656
-0.06433743238449096679687500000
0.00199887482449412345886230469
-0.06454148143529891967773437500
-0.08438634127378463745117187500
-0.07672425359487533569335937500
0.06857830286026000976562500000
0.05729981884360313415527343750
0.04678137227892875671386718750
-0.01809968613088130950927734375
0.16142097115516662597656250000
-0.03319036215543746948242187500
-0.19862139225006103515625000000
0.03608822077512741088867187500
0.07116042822599411010742187500
0.01047927327454090118408203125
-0.09363123029470443725585937500
0.09346669912338256835937500000
-0.07004597783088684082031250000
-0.09055529534816741943359375000
-0.07403496652841567993164062500
-0.00620002998039126396179199219
0.01218357495963573455810546875
0.07106215506792068481445312500
-0.01207930780947208404541015625
-0.02340094372630119323730468750
-0.00928935129195451736450195312
-0.01205477770417928695678710938
-0.09606495499610900878906250000
-0.17159655690193176269531250000
0.06019217148423194885253906250
0.06168203428387641906738281250
0.05589618161320686340332031250
0.11309002339839935302734375000
-0.02544057928025722503662109375
0.08205043524503707885742187500
0.07957697659730911254882812500
-0.09975098073482513427734375000
-0.06222206354141235351562500000
0.09523712098598480224609375000
0.01736011914908885955810546875
0.06097596138715744018554687500
-0.03425073996186256408691406250
-0.05142288282513618469238281250
0.14479799568653106689453125000
0.24119141697883605957031250000
0.07437096536159515380859375000
-0.00604289351031184196472167969
0.00226110732182860374450683594
-0.20313452184200286865234375000
0.11290230602025985717773437500
0.00177739944774657487869262695
-0.09339749813079833984375000000
0.12032146006822586059570312500
-0.06668899208307266235351562500
-0.05083343014121055603027343750
0.10497741401195526123046875000
0.11965415626764297485351562500
0.02044531330466270446777343750
0.00056863302597776055335998535
0.10739640891551971435546875000
-0.06195518001914024353027343750
-0.04531292244791984558105468750
-0.09041131287813186645507812500
-0.10974888503551483154296875000
-0.12749613821506500244140625000
0.00345361977815628051757812500
0.04630201309919357299804687500
0.08686815947294235229492187500
0.14768765866756439208984375000
-0.02431750856339931488037109375
-0.11985503137111663818359375000
-0.07999959588050842285156250000
0.04826946929097175598144531250
-0.02335529215633869171142578125
-0.07435158640146255493164062500
0.02142617851495742797851562500
0.13055770099163055419921875000
-0.10680943727493286132812500000
0.02265211567282676696777343750
0.02776735648512840270996093750
0.02850683778524398803710937500
0.00480224750936031341552734375
0.08808320015668869018554687500
0.12119621783494949340820312500
0.03294160217046737670898437500
0.04850825667381286621093750000
-0.01680163107812404632568359375
-0.05267830565571784973144531250
-0.11980681121349334716796875000
0.18061994016170501708984375000
-0.01109811197966337203979492188
0.05615143850445747375488281250
-0.06391989439725875854492187500
