5.137064456939697266e-01
-4.054394662380218506e-01
-5.010144114494323730e-01
5.365334451198577881e-03
2.981526553630828857e-01
4.772109389305114746e-01
-8.991901278495788574e-01
-7.070038914680480957e-01
-6.928911805152893066e-01
1.597559452056884766e-01
3.843136429786682129e-01
-3.576308663468807936e-04
2.031731754541397095e-01
1.532376557588577271e-01
-4.806077778339385986e-01
1.067580580711364746e-01
6.152824684977531433e-02
5.689108371734619141e-01
8.761627227067947388e-02
2.048090249300003052e-01
1.185635328292846680e-01
-3.278344869613647461e-01
2.585286200046539307e-01
-2.095196992158889771e-01
-1.458649635314941406e-01
-5.473718643188476562e-01
4.299683570861816406e-01
-9.954982995986938477e-01
3.079756498336791992e-01
-7.261049747467041016e-02
1.957484036684036255e-01
1.526651531457901001e-01
7.602978944778442383e-01
-5.252578854560852051e-01
-2.298556864261627197e-01
-3.626099824905395508e-01
1.765764355659484863e-01
3.147661685943603516e-01
-1.067019551992416382e-01
-2.270389348268508911e-01
-1.397004127502441406e-01
-3.192400932312011719e-02
1.037706211209297180e-01
6.196456551551818848e-01
1.004834890365600586e+00
8.253489732742309570e-01
-1.707070171833038330e-01
-3.864954113960266113e-01
5.131407380104064941e-01
-2.020117342472076416e-01
-7.448874115943908691e-01
-1.724398434162139893e-01
4.429490566253662109e-01
-4.456925392150878906e-01
5.096610188484191895e-01
4.503935948014259338e-02
6.672141700983047485e-02
7.073023170232772827e-02
-2.740200459957122803e-01
-6.272655725479125977e-01
-4.619652628898620605e-01
3.531807661056518555e-01
3.363572955131530762e-01
-2.240162044763565063e-01
-2.655040919780731201e-01
9.732266664505004883e-01
2.172434926033020020e-01
8.702640235424041748e-02
-3.066758811473846436e-01
2.329289317131042480e-01
-3.065102994441986084e-01
-5.814325213432312012e-01
-1.082007288932800293e+00
1.257057674229145050e-02
6.522855162620544434e-01
6.128681898117065430e-01
-5.777359008789062500e-01
9.068490862846374512e-01
1.011672392487525940e-01
2.871159017086029053e-01
4.167540669441223145e-01
2.030654698610305786e-01
-2.797532975673675537e-01
-7.431569695472717285e-01
-1.341919153928756714e-01
-1.174357812851667404e-02
-1.146119013428688049e-01
2.039439231157302856e-01
-3.784325420856475830e-01
-3.472463414072990417e-02
-4.463720023632049561e-01
5.540868043899536133e-01
-5.366685986518859863e-01
-1.110473394393920898e+00
5.669771432876586914e-01
-1.027464568614959717e-01
-7.389389872550964355e-01
4.723037779331207275e-02
-1.776000112295150757e-01
-3.928709328174591064e-01
8.378105163574218750e-01
5.827999114990234375e-01
7.472168207168579102e-01
-3.736632168292999268e-01
1.173441857099533081e-02
-4.618546366691589355e-01
-4.542214870452880859e-01
-1.078716039657592773e+00
6.102887447923421860e-03
1.101005822420120239e-01
-2.220550030469894409e-01
4.081564545631408691e-01
-1.270597130060195923e-01
9.269832819700241089e-02
-3.367771208286285400e-02
-4.192309081554412842e-01
5.429412126541137695e-01
7.606152892112731934e-01
5.966402292251586914e-01
-3.897276520729064941e-01
1.947244256734848022e-01
3.088769018650054932e-01
2.852886728942394257e-02
-2.430021762847900391e-01
1.246008157730102539e+00
-1.433942914009094238e-01
6.003158688545227051e-01
1.197641640901565552e-01
