-7.843609154224395752e-02
5.404276028275489807e-02
-2.469642013311386108e-01
-2.202365249395370483e-01
-6.473822891712188721e-02
-2.436176314949989319e-02
-2.550564110279083252e-01
2.340204566717147827e-01
-3.090895153582096100e-02
-5.637137219309806824e-02
3.179587051272392273e-02
2.887265682220458984e-01
-1.570142954587936401e-01
1.019369345158338547e-02
1.925463974475860596e-01
-2.777877636253833771e-02
-2.022311091423034668e-01
5.315349623560905457e-02
-8.889085799455642700e-02
7.640257477760314941e-02
-1.346872299909591675e-01
-2.081160098314285278e-01
1.654625684022903442e-01
6.282526254653930664e-02
1.887386888265609741e-01
-2.571644186973571777e-01
1.676411367952823639e-02
6.794271618127822876e-02
-1.786176860332489014e-01
-1.462778598070144653e-01
-1.491678059101104736e-01
-3.830571174621582031e-01
-2.153589874505996704e-01
1.773093244992196560e-03
-1.322453282773494720e-02
-1.319525688886642456e-01
-8.046792447566986084e-02
-4.689288511872291565e-02
-4.574412405490875244e-01
-5.991634353995323181e-02
-1.520339697599411011e-01
-1.883043535053730011e-02
4.252367839217185974e-02
-6.800965219736099243e-02
-2.074613422155380249e-01
-3.189244866371154785e-01
-2.873834073543548584e-01
-5.180035904049873352e-02
-4.565335810184478760e-02
-1.076489314436912537e-01
1.483382880687713623e-01
1.704261451959609985e-01
1.023595929145812988e-01
4.853775352239608765e-02
-1.353002339601516724e-01
-4.329498112201690674e-02
1.002933084964752197e-01
-2.798045873641967773e-01
-4.538901522755622864e-02
2.793168723583221436e-01
-1.141724362969398499e-01
-1.923303455114364624e-01
-1.908162981271743774e-01
-1.961339265108108521e-02
-2.173391431570053101e-01
1.574427485466003418e-01
-1.698061823844909668e-02
1.151354387402534485e-01
-2.458005584776401520e-02
7.644076645374298096e-02
-2.866357564926147461e-01
-1.536241080611944199e-02
1.233569532632827759e-01
7.194039225578308105e-02
-1.486963629722595215e-01
1.239967718720436096e-02
-9.255810081958770752e-02
5.865931510925292969e-02
2.160727046430110931e-02
-4.542395472526550293e-02
-1.618336290121078491e-01
2.675743959844112396e-02
-2.491421997547149658e-02
1.261295527219772339e-01
-1.029885336756706238e-01
-4.094003140926361084e-02
-2.377980500459671021e-01
-2.297134399414062500e-01
-3.908839449286460876e-02
-2.179653346538543701e-01
5.056178942322731018e-02
8.932874351739883423e-02
-1.992565393447875977e-01
1.330337673425674438e-02
-3.933077305555343628e-02
-2.376952208578586578e-02
1.535133570432662964e-01
2.907940745353698730e-02
7.337924093008041382e-02
1.792431026697158813e-01
1.092574931681156158e-02
-6.999038159847259521e-02
6.307633221149444580e-02
-2.082969993352890015e-01
1.953249126672744751e-01
-2.921808063983917236e-01
-2.882885048165917397e-03
1.617976464331150055e-02
-1.451220065355300903e-01
9.565607644617557526e-03
5.636097490787506104e-02
-1.311897486448287964e-01
-3.450964018702507019e-02
-1.306943595409393311e-01
-8.373960107564926147e-02
5.933595821261405945e-02
-4.224041476845741272e-02
-1.346823275089263916e-01
-1.581365466117858887e-01
3.588809072971343994e-02
6.821770220994949341e-02
-1.478056311607360840e-01
1.348360180854797363e-01
-2.698163986206054688e-01
-3.124315738677978516e-01
1.245494857430458069e-01
-1.607547700405120850e-01
1.091471239924430847e-01
