2.391156740486621857e-02,1.299214921891689301e-02,1.683879643678665161e-02,-1.400084607303142548e-02,-1.225085332989692688e-01,-2.574561536312103271e-01,1.717417836189270020e-01,2.492193877696990967e-02,-7.149673253297805786e-02,-2.619786262512207031e-01,8.990050107240676880e-02,-5.898617580533027649e-02,-2.043862491846084595e-01,-8.046289533376693726e-02,1.252215239219367504e-03,1.124811843037605286e-01,-9.820048511028289795e-02,-9.452710300683975220e-02,-1.935048028826713562e-02,1.574961692094802856e-01,-6.005416065454483032e-02,1.698564924299716949e-02,-1.011388823390007019e-01,1.604841649532318115e-01,-1.175772398710250854e-01,-1.266829073429107666e-01,-3.053457010537385941e-03,3.186283633112907410e-02,6.349554657936096191e-02,4.341265931725502014e-02,-4.278336837887763977e-02,7.455168664455413818e-02,7.802335172891616821e-02,-1.581353545188903809e-01,-7.790285348892211914e-02,1.380452662706375122e-01,-7.503054291009902954e-02,8.139754086732864380e-02,1.408790051937103271e-02,1.526439934968948364e-01,-8.317852020263671875e-02,3.805922344326972961e-02,-1.366764903068542480e-01,-4.780356585979461670e-02,1.599415242671966553e-01,3.899532184004783630e-02,1.542712748050689697e-01,-2.365000545978546143e-01,8.112468570470809937e-02,1.887431554496288300e-02,-5.265590921044349670e-02,1.428478956222534180e-01,-3.742759302258491516e-02,1.287401020526885986e-01,2.687722677364945412e-03,-1.498779654502868652e-01,-7.829467207193374634e-02,-2.224860712885856628e-03,-3.239138424396514893e-02,4.908266663551330566e-02,-5.737724527716636658e-02,3.134063631296157837e-02,2.847231924533843994e-02,-5.951090157032012939e-02,1.578202694654464722e-01,-4.080264642834663391e-02,1.660045236349105835e-03,2.956992946565151215e-02,-6.829663366079330444e-02,-1.184925362467765808e-01,-3.126762807369232178e-01,9.438330680131912231e-02,6.150768697261810303e-02,-1.421284675598144531e-01,1.166135445237159729e-01,4.321083799004554749e-02,-4.918201640248298645e-02,3.900760086253285408e-03,-4.786941036581993103e-02,3.374237567186355591e-02,-3.916803002357482910e-02,-4.231600463390350342e-02,2.901706099510192871e-01,3.170427680015563965e-02,-1.032899320125579834e-02,-2.158323861658573151e-02,4.652131721377372742e-02,-3.141858801245689392e-02,-1.590205938555300236e-04,-5.135312676429748535e-02,-1.366085410118103027e-01,-1.411101520061492920e-01,-7.799622416496276855e-02,1.131778731942176819e-01,-2.214141488075256348e-01,-9.910034388303756714e-02,4.865382611751556396e-02,3.038923442363739014e-02,-1.100008934736251831e-01,-6.635198742151260376e-02,-3.874805197119712830e-02,7.364447414875030518e-02,-3.901849687099456787e-02,2.052322961390018463e-02,1.288662701845169067e-01,-6.906395405530929565e-02,-1.226614043116569519e-02,-4.402118176221847534e-02,-8.360426127910614014e-02,-6.857064086943864822e-03,1.502306610345840454e-01,3.672845661640167236e-02,-1.970337703824043274e-02,-4.365239292383193970e-03,5.788498744368553162e-02,-2.745470963418483734e-02,1.386487036943435669e-01,1.331446766853332520e-01,4.823527857661247253e-02,-3.328773379325866699e-02,3.801940940320491791e-03,-2.074302881956100464e-01,-1.719344221055507660e-02,-7.029123604297637939e-02,-2.218345403671264648e-01,1.172532513737678528e-01,-8.978450298309326172e-02,-1.079263165593147278e-01
-1.504923682659864426e-03,5.336949601769447327e-02,-7.868863031035289168e-05,-4.635279253125190735e-02,2.581977285444736481e-02,-4.453829675912857056e-02,7.882084697484970093e-02,9.180194884538650513e-02,-5.880401656031608582e-02,3.144592046737670898e-02,-3.017622418701648712e-02,-8.274002932012081146e-03,-2.846651338040828705e-02,-1.796616017818450928e-01,2.723500691354274750e-02,-9.692069143056869507e-02,8.937151730060577393e-02,7.625778019428253174e-02,3.612584248185157776e-02,-4.003988206386566162e-02,1.188198775053024292e-01,-9.322803467512130737e-02,5.214170366525650024e-02,3.226015716791152954e-02,-1.198604628443717957e-01,-4.420218244194984436e-02,-2.032750099897384644e-01,1.965375617146492004e-02,-9.051772952079772949e-02,1.134079620242118835e-01,1.338342875242233276e-01,1.858042031526565552e-01,3.357579186558723450e-02,1.416554301977157593e-02,-3.202149271965026855e-01,-1.090203598141670227e-01,4.000101238489151001e-02,3.878045082092285156e-02,-2.298326417803764343e-02,-3.885566443204879761e-02,9.841391444206237793e-02,-1.895501464605331421e-02,-6.355989724397659302e-02,-8.622772991657257080e-02,1.590753346681594849e-02,-2.013222426176071167e-01,-1.128641963005065918e-01,4.145937412977218628e-02,-1.518521644175052643e-02,3.744516894221305847e-02,-3.930021822452545166e-02,-1.250364333391189575e-01,-1.004352122545242310e-01,-1.368292421102523804e-01,-3.506067767739295959e-02,-1.840893924236297607e-02,-7.234811037778854370e-02,-2.295074053108692169e-03,-7.822514325380325317e-02,-3.164710942655801773e-03,1.194895878434181213e-01,-6.554583460092544556e-02,-6.198868621140718460e-03,3.832633420825004578e-02,4.448104649782180786e-02,6.905134767293930054e-02,1.683014072477817535e-02,-6.676648557186126709e-02,-3.318682685494422913e-02,-6.348232179880142212e-02,-1.486036628484725952e-01,8.564013987779617310e-02,-8.294196799397468567e-03,1.590076982975006104e-01,-2.228684574365615845e-01,1.923371404409408569e-01,1.566629111766815186e-01,-1.173184812068939209e-01,-2.635030820965766907e-02,6.983309984207153320e-02,-1.271129697561264038e-01,5.194966122508049011e-02,-1.504065543413162231e-01,-9.752397984266281128e-02,-4.061238840222358704e-02,1.623382270336151123e-01,7.886625081300735474e-02,-8.686254918575286865e-02,5.219080671668052673e-02,-2.607055753469467163e-02,-7.504558563232421875e-02,1.133480295538902283e-01,-7.348518818616867065e-02,4.975991696119308472e-02,3.906919062137603760e-02,-4.631135985255241394e-02,-2.817033529281616211e-01,-3.963235393166542053e-02,1.643442735075950623e-02,1.787703111767768860e-02,-1.012970320880413055e-02,-2.217825315892696381e-02,6.138819828629493713e-02,-1.072288826107978821e-01,2.614057622849941254e-02,-3.195611014962196350e-02,1.381480246782302856e-01,-1.446334421634674072e-01,6.725417822599411011e-02,-3.241001814603805542e-02,6.265208870172500610e-02,-6.456788629293441772e-02,1.043109297752380371e-01,4.691129922866821289e-02,-2.332502454519271851e-01,-1.702973693609237671e-01,1.088255569338798523e-01,3.144531743600964546e-03,-2.157127857208251953e-02,4.282175377011299133e-02,8.782400935888290405e-02,5.249505862593650818e-02,4.950938001275062561e-02,1.682276576757431030e-01,-7.026942074298858643e-02,5.302119068801403046e-03,1.426452118903398514e-02,-8.312401175498962402e-02
1.173934666439890862e-03,-8.234593272209167480e-02,-1.044153720140457153e-01,3.560823947191238403e-02,9.891945868730545044e-02,9.700411558151245117e-02,1.051058024168014526e-01,1.950972527265548706e-02,-5.459904298186302185e-02,-4.829985648393630981e-02,4.625371843576431274e-02,9.244377911090850830e-02,6.619280576705932617e-02,6.361115723848342896e-02,1.852262578904628754e-02,-3.382362425327301025e-02,7.114198058843612671e-02,-1.496437285095453262e-02,2.030913345515727997e-02,1.014310121536254883e-01,5.554617568850517273e-02,5.433454737067222595e-02,-3.126106411218643188e-02,-5.485619604587554932e-02,-1.111604925245046616e-02,6.701889634132385254e-02,-6.104101985692977905e-02,1.257927250117063522e-02,-3.091420046985149384e-02,-5.130374431610107422e-02,3.562000393867492676e-02,1.042701825499534607e-01,7.696876674890518188e-02,2.164041809737682343e-02,6.489209085702896118e-02,8.906041271984577179e-03,-7.271943148225545883e-03,2.434849552810192108e-02,-6.673267483711242676e-02,1.445204485207796097e-02,9.152756631374359131e-02,3.488288819789886475e-02,2.384544909000396729e-02,-4.702094569802284241e-02,-4.658690467476844788e-02,-4.942734912037849426e-02,2.946127392351627350e-02,-3.004369698464870453e-02,1.740449108183383942e-02,-5.830008536577224731e-02,9.345838427543640137e-02,-5.354617163538932800e-02,-1.460210978984832764e-02,-7.770657539367675781e-02,-8.502008020877838135e-02,9.244647622108459473e-02,-8.984049409627914429e-02,5.953003652393817902e-03,3.069773875176906586e-02,1.578728109598159790e-02,3.205638378858566284e-02,-3.609853796660900116e-03,3.724610805511474609e-02,-9.312438964843750000e-02,5.480882152915000916e-02,6.842069327831268311e-02,-2.940467558801174164e-03,6.057583261281251907e-03,5.878238379955291748e-02,2.779245004057884216e-02,-3.289912641048431396e-02,-7.307104021310806274e-02,2.155617810785770416e-02,-5.230039730668067932e-02,7.130458950996398926e-02,-5.366796627640724182e-02,2.347185648977756500e-02,4.085669666528701782e-02,2.761906012892723083e-02,1.507413834333419800e-01,-6.553061306476593018e-02,9.769722074270248413e-02,-6.200020201504230499e-03,2.668125182390213013e-02,-2.770424634218215942e-02,8.126088231801986694e-02,4.200675338506698608e-02,-5.644299462437629700e-02,-7.857324182987213135e-02,6.019651889801025391e-02,-2.313409373164176941e-02,-4.455744475126266479e-02,6.171242892742156982e-02,-1.252876669168472290e-01,1.092861443758010864e-01,-4.182239994406700134e-02,5.626689270138740540e-02,6.250272691249847412e-02,-2.707746811211109161e-03,4.453006200492382050e-03,-6.533622741699218750e-02,-3.036875277757644653e-02,-1.212572380900382996e-01,-1.147807668894529343e-02,7.646955549716949463e-02,-5.053824558854103088e-02,3.405005857348442078e-02,-6.330899894237518311e-02,1.310681831091642380e-02,5.825841799378395081e-02,-8.795525133609771729e-02,1.831747405230998993e-02,4.613231122493743896e-02,3.821291029453277588e-02,1.504124142229557037e-02,-1.995630934834480286e-02,3.696584701538085938e-02,-4.120222479104995728e-02,1.531114429235458374e-01,-6.256181001663208008e-02,-2.183659747242927551e-02,9.341575950384140015e-02,9.167189709842205048e-03,6.408144533634185791e-02,-1.358073018491268158e-02,-1.806973293423652649e-02,7.100527733564376831e-02,-7.012652605772018433e-02
-6.188153102993965149e-02,-7.509124279022216797e-02,4.737591743469238281e-02,1.438242010772228241e-02,-5.577541887760162354e-02,-6.846874486654996872e-03,1.052321344614028931e-01,-1.590541563928127289e-03,7.831948995590209961e-02,1.250275876373052597e-03,-8.667813241481781006e-02,7.611516118049621582e-02,-8.836236596107482910e-02,8.844857662916183472e-02,4.444497451186180115e-02,1.019627228379249573e-02,-5.713770911097526550e-02,1.215330734848976135e-01,-4.221398383378982544e-03,1.059613074176013470e-03,4.801480099558830261e-02,9.070435166358947754e-02,2.913516387343406677e-02,-5.216941982507705688e-02,1.471219584345817566e-02,-2.149095758795738220e-02,-1.864846199750900269e-01,-3.590546548366546631e-02,7.056373357772827148e-02,1.093430444598197937e-03,-2.476410754024982452e-02,5.754613876342773438e-02,-1.026815995573997498e-01,9.708097577095031738e-02,-4.244144633412361145e-02,-2.939379587769508362e-02,-1.085598859935998917e-02,5.822617188096046448e-02,-9.826492518186569214e-03,5.229292219155468047e-05,-6.807991885580122471e-04,1.133027598261833191e-01,2.258329279720783234e-02,5.318937450647354126e-02,-1.010990589857101440e-01,-9.884739667177200317e-02,1.548764202743768692e-02,-1.178828161209821701e-02,1.621124893426895142e-02,2.469722181558609009e-02,4.980439692735671997e-02,8.023393340408802032e-03,8.250335231423377991e-03,2.081041783094406128e-02,7.477989047765731812e-02,1.529407966881990433e-02,8.682795305503532290e-05,-2.906681969761848450e-02,7.522495836019515991e-02,-1.731586083769798279e-02,-1.015873998403549194e-02,1.028686612844467163e-01,-5.159172788262367249e-02,6.120467558503150940e-03,5.520532373338937759e-03,5.564436316490173340e-02,-7.792954891920089722e-02,-4.320238903164863586e-02,3.609008342027664185e-02,8.068815805017948151e-03,2.792604826390743256e-02,1.075717806816101074e-01,-8.363501727581024170e-02,1.926039904356002808e-02,1.481840461492538452e-01,-3.739378228783607483e-02,-6.985855847597122192e-02,-6.310727447271347046e-02,-4.153326898813247681e-02,-9.972783923149108887e-02,6.119766086339950562e-02,-1.020101830363273621e-02,-6.781383603811264038e-02,-7.095473259687423706e-02,2.508514747023582458e-02,-3.570847585797309875e-02,-7.316430658102035522e-02,1.434099394828081131e-02,-1.827607303857803345e-02,6.112075597047805786e-02,-1.456213742494583130e-02,2.584121562540531158e-02,-1.702172681689262390e-02,-9.370578825473785400e-02,2.912665158510208130e-02,-4.323944449424743652e-02,2.320726215839385986e-02,-8.452446013689041138e-02,2.040364220738410950e-02,-2.327430807054042816e-02,1.000567222945392132e-03,-7.537908386439085007e-04,1.641376130282878876e-02,-3.204105421900749207e-02,-2.719032019376754761e-02,8.579874783754348755e-02,-4.186310991644859314e-02,-1.188838183879852295e-01,1.465934067964553833e-01,-1.176028624176979065e-01,9.199115633964538574e-02,1.478007733821868896e-01,-5.778598785400390625e-02,3.160934522747993469e-02,9.106101840734481812e-02,-1.295030564069747925e-01,-1.291314512491226196e-01,-2.506800228729844093e-03,6.151988636702299118e-03,8.314333856105804443e-02,-4.933426529169082642e-02,-6.073806434869766235e-02,-1.073663160204887390e-01,1.069486439228057861e-01,-8.051189780235290527e-02,-4.076077044010162354e-02,3.916818648576736450e-02,-2.091794647276401520e-02
1.453626602888107300e-01,-2.840117318555712700e-03,-1.433929949998855591e-01,1.218445077538490295e-01,-1.006433442234992981e-01,-8.207071572542190552e-02,9.192894399166107178e-02,-4.401368275284767151e-02,-1.771366596221923828e-01,-1.773586720228195190e-01,1.128004416823387146e-01,-7.800237089395523071e-02,8.158749341964721680e-02,-8.542275987565517426e-03,-2.341188676655292511e-02,-1.057809777557849884e-02,-1.009174212813377380e-01,-1.133169904351234436e-01,-8.655860275030136108e-02,-2.390621453523635864e-01,-1.145857647061347961e-01,3.746001422405242920e-02,-1.250552982091903687e-01,2.152507379651069641e-02,1.152949128299951553e-02,-8.258692920207977295e-02,-8.448135852813720703e-02,-8.235358633100986481e-03,-4.407769069075584412e-02,4.218550771474838257e-02,-5.222748033702373505e-03,1.911336369812488556e-02,-7.331988960504531860e-02,1.103456169366836548e-01,-9.556119889020919800e-02,5.629016086459159851e-02,-4.758882801979780197e-03,-6.641322374343872070e-02,-1.053103059530258179e-01,-1.455581337213516235e-01,7.698386441916227341e-03,-2.963461168110370636e-02,-1.587513647973537445e-02,-5.421954765915870667e-02,1.530818757601082325e-03,-3.445876762270927429e-02,-4.093266092240810394e-03,1.290162932127714157e-02,1.169060543179512024e-01,-3.074572980403900146e-02,4.724348336458206177e-02,-4.393450170755386353e-02,-3.718144027516245842e-03,6.932643055915832520e-02,5.703509598970413208e-02,-6.685207784175872803e-02,-3.435422480106353760e-02,4.323904402554035187e-03,-1.346798730082809925e-03,-5.296104028820991516e-02,-9.990219026803970337e-02,-7.325342297554016113e-02,-5.748692434281110764e-03,8.051420748233795166e-02,4.864760488271713257e-02,-8.413705974817276001e-02,4.188663139939308167e-02,5.554224178194999695e-02,-1.502400487661361694e-01,-4.425173625349998474e-02,-1.026452612131834030e-02,-4.934299364686012268e-02,8.845996856689453125e-02,6.361754238605499268e-02,5.308230221271514893e-02,-5.573419854044914246e-02,7.467742078006267548e-03,-2.910026535391807556e-02,7.005100138485431671e-03,-1.765036135911941528e-01,-9.551449120044708252e-02,1.356111373752355576e-02,-4.414410889148712158e-02,-1.624729782342910767e-01,9.177918545901775360e-03,4.212326556444168091e-02,-1.169041767716407776e-01,-7.025329768657684326e-02,-1.348908096551895142e-01,-1.182438433170318604e-01,-1.291794888675212860e-02,1.642086729407310486e-02,5.626273527741432190e-02,1.651233285665512085e-01,-9.637965704314410686e-04,-6.833889521658420563e-03,1.799361594021320343e-02,-1.191045567393302917e-01,-1.019892096519470215e-01,4.965403676033020020e-02,-1.141692772507667542e-01,2.001954056322574615e-02,2.131880819797515869e-02,1.319724023342132568e-01,2.237198315560817719e-02,-7.217635959386825562e-02,-2.062802463769912720e-01,-4.606206715106964111e-02,-6.338007003068923950e-02,-1.309614181518554688e-01,7.637993991374969482e-02,-9.576023370027542114e-02,1.260050088167190552e-01,-3.364286571741104126e-02,6.497681140899658203e-02,-1.120817065238952637e-01,4.154413565993309021e-02,-3.293672949075698853e-02,2.382409200072288513e-02,-7.100704312324523926e-02,1.002009958028793335e-01,-5.382317677140235901e-02,8.563940227031707764e-02,-6.876926124095916748e-02,4.458164796233177185e-02,6.482651829719543457e-02,-4.558109119534492493e-02,-3.977993130683898926e-02
7.204494439065456390e-03,3.241335973143577576e-02,-7.359557598829269409e-02,1.589665561914443970e-02,1.824887096881866455e-02,8.462188392877578735e-02,9.363486431539058685e-03,-7.943967729806900024e-02,1.603396534919738770e-01,-5.880328640341758728e-02,1.588009744882583618e-01,-6.943157315254211426e-02,-2.108705416321754456e-02,-1.212994754314422607e-02,1.017604768276214600e-01,1.258718669414520264e-01,9.841888397932052612e-02,1.493757218122482300e-01,7.897383719682693481e-02,-1.703475974500179291e-02,2.315280027687549591e-02,-1.163073405623435974e-01,4.627420008182525635e-02,7.199171930551528931e-02,-1.454154700040817261e-01,1.088150218129158020e-02,-2.305818051099777222e-01,1.075288504362106323e-01,1.315069384872913361e-02,1.077143847942352295e-01,-2.125154733657836914e-01,-5.981402099132537842e-02,-2.664493396878242493e-02,-9.585187770426273346e-03,3.328135982155799866e-02,6.933937221765518188e-02,-3.067874349653720856e-02,-4.076435416936874390e-02,1.650304645299911499e-01,3.565712366253137589e-03,1.142205744981765747e-01,1.051230207085609436e-01,-6.347754597663879395e-02,-5.679859966039657593e-02,6.326694041490554810e-02,1.267424076795578003e-01,-3.814559057354927063e-02,-2.004668116569519043e-01,2.058149315416812897e-02,1.285793781280517578e-01,5.018770694732666016e-02,-7.252314686775207520e-02,-9.576253592967987061e-02,8.588847704231739044e-04,6.051914021372795105e-02,1.224017888307571411e-01,2.306997478008270264e-01,-1.349721848964691162e-01,-1.025716438889503479e-01,-3.484277799725532532e-02,1.832723617553710938e-01,-6.278295069932937622e-02,-8.988445997238159180e-02,1.299380213022232056e-01,4.593268781900405884e-02,6.652231514453887939e-02,-3.736822679638862610e-02,3.698614239692687988e-02,-5.684578046202659607e-02,2.185125946998596191e-01,-1.641189008951187134e-01,-1.091790124773979187e-01,-1.511603593826293945e-01,-1.486307382583618164e-02,-1.386331394314765930e-02,1.146682053804397583e-01,1.329689919948577881e-01,1.313886642456054688e-01,6.999313086271286011e-02,-9.815949201583862305e-02,-1.075285859405994415e-02,-3.388009220361709595e-02,-1.170372441411018372e-01,-7.607678323984146118e-02,-7.584377378225326538e-02,-1.026743575930595398e-01,4.461244493722915649e-02,-6.145051866769790649e-02,-4.232172388583421707e-03,1.639422401785850525e-02,1.081900373101234436e-01,-4.856083542108535767e-02,-1.127076894044876099e-01,-1.223574578762054443e-02,5.789096280932426453e-02,1.020429581403732300e-01,4.465157166123390198e-02,2.436064369976520538e-02,1.076402608305215836e-02,3.283258154988288879e-02,2.195257321000099182e-02,-4.617495834827423096e-02,1.029148846864700317e-01,-2.414358407258987427e-01,3.463065251708030701e-02,1.183343529701232910e-01,8.394130319356918335e-02,-1.668573617935180664e-01,2.339092269539833069e-02,-4.580867290496826172e-02,7.481683790683746338e-02,-2.283527851104736328e-01,2.875590883195400238e-02,1.034786850214004517e-01,1.504298299551010132e-01,8.467113599181175232e-03,6.886675953865051270e-02,2.468073070049285889e-01,-8.310293406248092651e-02,-1.779039762914180756e-02,1.233853548765182495e-01,-1.891912519931793213e-01,-1.591021865606307983e-01,1.953764446079730988e-02,1.482695527374744415e-02,-1.144542098045349121e-01,3.790229791775345802e-03,5.989361554384231567e-02
6.494617462158203125e-02,5.224718898534774780e-02,5.465121567249298096e-02,-3.615063801407814026e-02,-4.894051700830459595e-02,1.880692243576049805e-01,-2.257166653871536255e-01,-2.162510156631469727e-02,1.352710127830505371e-01,3.511405317112803459e-03,-6.900706887245178223e-02,-1.518432945013046265e-01,2.673968076705932617e-01,-6.660683453083038330e-02,-5.408428842201828957e-04,7.667820155620574951e-02,-1.661328971385955811e-02,7.831707596778869629e-02,1.920867711305618286e-02,1.852867566049098969e-02,-1.152910292148590088e-01,2.348463684320449829e-01,-1.067181155085563660e-01,-2.331763319671154022e-02,-9.657523781061172485e-02,1.015329286456108093e-01,2.607837319374084473e-02,3.336306661367416382e-02,1.529242396354675293e-01,1.492465734481811523e-01,9.204487502574920654e-02,-4.346132650971412659e-02,1.394740492105484009e-01,1.233822405338287354e-01,-8.996906131505966187e-02,1.358432620763778687e-01,-3.281641006469726562e-02,3.671390190720558167e-02,-5.092918127775192261e-02,-9.621704369783401489e-02,3.093217313289642334e-01,1.455257367342710495e-02,1.443671137094497681e-01,1.794124245643615723e-01,6.278512626886367798e-02,5.132052674889564514e-02,1.396158188581466675e-01,1.666511967778205872e-02,-9.601235389709472656e-02,6.105639506131410599e-03,7.698863744735717773e-02,-5.798669531941413879e-02,4.467257857322692871e-02,-1.215087324380874634e-01,3.217783570289611816e-02,2.318480517715215683e-03,-9.736087173223495483e-03,1.012865230441093445e-01,5.609052628278732300e-02,-6.420774757862091064e-02,9.544805437326431274e-02,4.038565605878829956e-02,-4.253065586090087891e-02,-9.790360927581787109e-02,1.329253166913986206e-01,-9.417195618152618408e-02,-1.168582960963249207e-01,-1.910511031746864319e-02,-1.005025058984756470e-01,6.854639202356338501e-02,8.266615122556686401e-02,3.543424187228083611e-03,-7.782665640115737915e-02,-7.247857004404067993e-02,-4.762499034404754639e-02,2.688974514603614807e-02,1.313416194170713425e-02,7.219018042087554932e-02,1.417093072086572647e-02,-3.573674941435456276e-03,-1.467215418815612793e-01,1.513770669698715210e-01,-1.840238273143768311e-01,6.684417277574539185e-02,1.104308199137449265e-02,-1.650800406932830811e-01,7.461340632289648056e-03,1.125442832708358765e-01,5.858243629336357117e-02,1.025834679603576660e-01,-1.318915784358978271e-01,1.884432286024093628e-01,-2.962525561451911926e-02,-6.780082732439041138e-02,-7.430182397365570068e-02,7.538937032222747803e-02,6.563220918178558350e-02,-2.455659806728363037e-01,6.522368639707565308e-02,-7.937106490135192871e-02,-2.166674844920635223e-02,1.323814736679196358e-03,-1.880220025777816772e-01,-8.913355879485607147e-03,4.626312851905822754e-02,2.385264262557029724e-03,1.209757030010223389e-01,5.344126001000404358e-02,-1.205667182803153992e-01,-1.357420384883880615e-01,-1.595087498426437378e-01,1.998802572488784790e-01,1.574244797229766846e-01,4.460351914167404175e-02,1.109927296638488770e-01,2.668098732829093933e-02,-5.122172459959983826e-02,4.601748078130185604e-04,9.875334799289703369e-02,4.954945668578147888e-02,-4.491804167628288269e-02,-7.357406616210937500e-02,9.294171631336212158e-02,-6.409594416618347168e-02,-5.074082687497138977e-02,4.795878753066062927e-02,8.676905930042266846e-02,1.576433181762695312e-01
-4.744872078299522400e-02,1.377799063920974731e-01,4.518555477261543274e-02,-1.525475550442934036e-02,7.031222432851791382e-02,-1.672444120049476624e-02,-1.227666810154914856e-01,1.155208945274353027e-01,1.475832015275955200e-01,-2.535436674952507019e-02,1.870316080749034882e-02,1.490960419178009033e-01,-1.112828180193901062e-01,-4.018187895417213440e-02,-8.339531719684600830e-02,-1.218364015221595764e-01,-7.096508890390396118e-02,-4.071574658155441284e-02,-1.554419193416833878e-02,-2.903936058282852173e-02,7.432802766561508179e-02,-1.089121401309967041e-01,-1.258212476968765259e-01,-1.156483888626098633e-01,-8.313998579978942871e-02,1.165076717734336853e-01,1.159161999821662903e-01,1.155592948198318481e-01,-3.463068976998329163e-02,1.161908730864524841e-01,1.208154857158660889e-01,-1.081029176712036133e-01,9.186942130327224731e-03,1.206454858183860779e-01,8.621650934219360352e-02,-3.026381134986877441e-02,-3.414112329483032227e-02,-5.037594586610794067e-02,-3.468812257051467896e-02,-9.117684513330459595e-02,1.709660142660140991e-01,1.174717843532562256e-01,2.456840425729751587e-01,1.349396854639053345e-01,7.174035906791687012e-02,-7.617071270942687988e-03,-3.284390782937407494e-03,-9.302971512079238892e-02,-2.578943269327282906e-03,-1.824084371328353882e-01,6.575593352317810059e-02,-7.808082550764083862e-02,1.510907113552093506e-01,2.126465290784835815e-01,1.172864586114883423e-01,-9.974916279315948486e-02,-3.670164197683334351e-02,2.690888009965419769e-03,8.227398246526718140e-02,9.877299517393112183e-02,9.769440442323684692e-02,-1.260559558868408203e-01,3.863220661878585815e-02,1.861476153135299683e-01,1.330268383026123047e-01,1.469590663909912109e-01,-3.066155873239040375e-02,6.449532508850097656e-02,2.582559129223227501e-03,-1.908856779336929321e-01,1.998872160911560059e-01,-9.967400133609771729e-02,-8.971728384494781494e-02,7.967049628496170044e-02,1.888048648834228516e-01,1.969562470912933350e-01,6.379164010286331177e-02,4.829512536525726318e-02,-2.289162874221801758e-01,2.503619790077209473e-01,6.462454795837402344e-03,1.186994835734367371e-01,-6.361139565706253052e-02,-1.015914604067802429e-01,-6.246845237910747528e-03,4.062181711196899414e-02,-7.181932777166366577e-02,1.854400485754013062e-01,3.196158260107040405e-02,-6.784608121961355209e-03,2.007264457643032074e-02,3.652219101786613464e-02,1.080115064978599548e-01,-2.556616440415382385e-03,-6.330352625809609890e-04,8.069024235010147095e-02,-2.165253013372421265e-01,-2.387895584106445312e-01,8.569673448801040649e-02,-4.447943344712257385e-02,-5.904452409595251083e-03,1.357264369726181030e-01,-4.247703403234481812e-02,6.257387250661849976e-02,1.929716579616069794e-02,2.727846801280975342e-02,-1.689112931489944458e-02,-2.125912904739379883e-02,5.648189038038253784e-02,7.813274860382080078e-02,4.165112227201461792e-02,-3.986813500523567200e-02,8.544154465198516846e-02,-1.055429652333259583e-01,3.315827623009681702e-02,1.293720602989196777e-01,2.209504842758178711e-01,-6.116470694541931152e-02,-9.760294854640960693e-02,8.229699730873107910e-02,-1.094089820981025696e-02,-4.700904339551925659e-02,8.490740507841110229e-02,-1.709677577018737793e-01,3.845486789941787720e-02,-3.983252122998237610e-02,-7.441008090972900391e-02,1.059851720929145813e-01
-9.674660861492156982e-02,1.361909089609980583e-03,4.534264653921127319e-02,-9.763321839272975922e-03,2.739552780985832214e-02,9.196125715970993042e-02,3.987657278776168823e-02,-3.150657191872596741e-02,-8.406890556216239929e-03,5.607218295335769653e-02,-1.960347890853881836e-01,-1.207994762808084488e-02,1.517085880041122437e-01,2.309427261352539062e-01,1.098891645669937134e-01,5.930071696639060974e-02,3.006758727133274078e-02,7.476173341274261475e-02,-7.253528386354446411e-02,-2.015305757522583008e-01,2.623239159584045410e-02,-6.844983249902725220e-02,8.098484575748443604e-02,8.313635736703872681e-02,-9.410328231751918793e-03,-1.718349754810333252e-01,-4.196302220225334167e-02,2.396191507577896118e-01,5.354601144790649414e-02,-2.453234046697616577e-02,-2.609871029853820801e-01,-1.426223963499069214e-01,1.529709994792938232e-01,-1.801223009824752808e-01,-1.298990007489919662e-02,1.554715726524591446e-02,2.591734230518341064e-01,-1.125886589288711548e-01,7.597880065441131592e-02,1.186127364635467529e-01,-9.760335087776184082e-02,7.054405659437179565e-02,-5.713631212711334229e-02,4.207612946629524231e-02,5.313571915030479431e-02,1.037313416600227356e-01,-9.003122150897979736e-02,1.828036829829216003e-02,-1.969632357358932495e-01,2.133223041892051697e-02,-4.435179010033607483e-02,5.844037607312202454e-02,-9.049402177333831787e-02,8.334359526634216309e-02,7.923977822065353394e-02,5.312272906303405762e-02,9.368243813514709473e-02,-2.261495441198348999e-01,2.911648713052272797e-03,6.429919507354497910e-03,5.125349387526512146e-02,-7.208771258592605591e-02,1.217647194862365723e-01,3.909771144390106201e-02,-2.067962475121021271e-02,5.308203771710395813e-02,-5.165274813771247864e-02,-9.287785738706588745e-03,-6.699645519256591797e-02,2.539610564708709717e-01,-6.404738128185272217e-02,-4.612620547413825989e-02,6.882264465093612671e-02,1.087535917758941650e-01,-1.333160251379013062e-01,9.242706745862960815e-02,2.741301804780960083e-02,2.085310779511928558e-02,3.576723113656044006e-02,-1.832700073719024658e-01,4.017924889922142029e-02,-1.369041670113801956e-02,1.207420006394386292e-01,1.572663933038711548e-01,-6.769715249538421631e-02,-8.742209523916244507e-02,-9.130193851888179779e-03,1.003003120422363281e-01,2.124036103487014771e-01,1.384710427373647690e-02,1.784286350011825562e-01,-3.225268423557281494e-01,-1.481051295995712280e-01,2.812972478568553925e-02,-8.467746083624660969e-04,1.380540728569030762e-01,6.564828753471374512e-02,1.665585339069366455e-01,-6.213581934571266174e-02,9.674208611249923706e-02,1.683432310819625854e-01,-4.446540772914886475e-02,1.110660806298255920e-01,5.808201432228088379e-02,1.644412875175476074e-01,2.242809720337390900e-02,-1.048930808901786804e-01,-5.869673565030097961e-02,1.863956004381179810e-01,-7.057110965251922607e-02,3.926532343029975891e-02,-5.275386571884155273e-02,-5.377739295363426208e-02,1.145375594496726990e-01,-6.775767356157302856e-02,6.854066252708435059e-02,-3.178901970386505127e-02,3.357705101370811462e-02,-2.090648561716079712e-01,-1.647457629442214966e-01,-4.215428605675697327e-02,-7.374858483672142029e-03,-4.056096449494361877e-02,-9.603192657232284546e-02,2.840350149199366570e-03,-1.593812555074691772e-01,1.053659543395042419e-01,1.001897454261779785e-02
-8.800298906862735748e-03,-1.177247539162635803e-01,1.491881906986236572e-01,-1.040324047207832336e-01,7.691849023103713989e-02,9.615135192871093750e-02,1.271420270204544067e-01,-1.982795447111129761e-02,1.073737069964408875e-01,-1.142798960208892822e-01,-1.540657579898834229e-01,1.007995381951332092e-01,-2.045882791280746460e-01,-2.248262763023376465e-01,5.549143254756927490e-02,-7.271161675453186035e-02,-5.689065903425216675e-02,1.130166370421648026e-02,2.484453469514846802e-02,9.364385902881622314e-02,2.013072073459625244e-01,2.773906663060188293e-02,-1.556941680610179901e-02,1.160649210214614868e-01,1.189747527241706848e-01,5.568891391158103943e-02,9.681288152933120728e-02,-1.000986061990261078e-02,-1.910980790853500366e-01,-1.122007593512535095e-01,-3.328890353441238403e-02,2.955717407166957855e-02,1.757028847932815552e-01,-5.956407263875007629e-02,-2.748621404170989990e-01,9.452385455369949341e-02,-1.201295666396617889e-02,1.513780187815427780e-02,1.223303657025098801e-02,7.790611591190099716e-03,-9.559257328510284424e-02,-1.466218233108520508e-01,-1.173648610711097717e-01,8.553642034530639648e-02,1.832584887742996216e-01,-2.260458283126354218e-02,-2.284010499715805054e-02,2.473002225160598755e-01,5.412522703409194946e-02,-7.246963679790496826e-02,2.141613513231277466e-01,8.513114601373672485e-02,-1.314374618232250214e-03,-9.600742161273956299e-02,1.719441562891006470e-01,2.520607411861419678e-02,-1.617378294467926025e-01,-5.538154765963554382e-02,-4.776599258184432983e-02,2.992231771349906921e-02,-8.791019022464752197e-02,1.954540610313415527e-01,-1.344001591205596924e-01,3.675037249922752380e-02,4.745370894670486450e-02,1.064543798565864563e-01,6.818898837082087994e-04,1.148979067802429199e-01,9.880230575799942017e-02,-4.278795793652534485e-02,-1.186462193727493286e-01,1.774795651435852051e-01,9.859962761402130127e-02,1.640306971967220306e-02,-9.848446398973464966e-02,-1.099443882703781128e-01,1.040312051773071289e-01,2.164151519536972046e-02,-1.097219958901405334e-01,-3.924000635743141174e-02,1.386443991214036942e-02,-1.405265629291534424e-01,-9.347800165414810181e-02,-1.233983132988214493e-02,-1.639302223920822144e-01,1.636073440313339233e-01,4.338521882891654968e-02,1.379445642232894897e-01,2.348877638578414917e-01,9.011068940162658691e-02,-2.193138003349304199e-02,-9.124242514371871948e-02,5.334344878792762756e-02,1.176498159766197205e-01,4.762549325823783875e-02,5.675636976957321167e-02,-9.108936786651611328e-02,1.523468196392059326e-01,-4.626860842108726501e-02,1.318133175373077393e-01,-8.811750262975692749e-02,-2.022433280944824219e-01,2.680659890174865723e-01,-4.266874864697456360e-03,-2.067094594240188599e-01,-1.385873649269342422e-02,5.348826572299003601e-02,7.849860936403274536e-02,-4.409736767411231995e-02,8.803190290927886963e-02,-8.815435320138931274e-02,2.613475620746612549e-01,6.447875499725341797e-02,-1.190438717603683472e-01,1.829573065042495728e-01,-1.813174039125442505e-01,2.223249673843383789e-01,-6.208938360214233398e-02,1.033978462219238281e-01,-6.411773711442947388e-02,8.131269365549087524e-03,7.521345466375350952e-02,-8.874486386775970459e-02,6.853382103145122528e-03,-2.338075339794158936e-01,1.721326410770416260e-01,-6.554418802261352539e-02,-6.568551808595657349e-02
-1.842276602983474731e-01,-1.331068724393844604e-01,2.419410794973373413e-01,-4.458810016512870789e-02,-2.472350001335144043e-02,-3.352952748537063599e-02,-1.204886808991432190e-01,1.026973798871040344e-01,-7.404915243387222290e-02,-9.514024108648300171e-02,1.260183751583099365e-01,-2.001493722200393677e-01,8.479037135839462280e-02,2.722150087356567383e-02,-6.603670120239257812e-02,-5.241244100034236908e-03,-4.213216528296470642e-02,4.900227859616279602e-02,5.990736186504364014e-03,2.866372466087341309e-01,-1.327831596136093140e-01,-1.134248566813766956e-03,1.004805713891983032e-01,4.976385459303855896e-02,2.052495256066322327e-02,-3.982115536928176880e-03,-5.026742815971374512e-02,5.658462271094322205e-02,-1.930153518915176392e-01,-2.238453831523656845e-03,3.191369771957397461e-02,-1.190556660294532776e-01,-5.544649064540863037e-02,-1.903578639030456543e-01,-1.499065160751342773e-01,-3.679548799991607666e-01,-2.590714022517204285e-02,9.188760071992874146e-02,5.897523835301399231e-02,4.037962481379508972e-02,-7.840751111507415771e-02,9.494897723197937012e-02,-4.325311630964279175e-02,-1.524615008383989334e-02,5.143961310386657715e-02,-7.203007489442825317e-02,1.551451981067657471e-01,-4.855652898550033569e-02,-1.971549168229103088e-02,8.422309905290603638e-02,-5.753128603100776672e-02,-2.189568243920803070e-02,5.197164788842201233e-02,-2.884681895375251770e-02,-6.926366686820983887e-02,-6.383531540632247925e-02,3.615686297416687012e-02,-1.032561659812927246e-01,-5.362881720066070557e-02,-8.470732718706130981e-02,1.817989349365234375e-01,-1.581306010484695435e-01,-7.165168970823287964e-02,-1.360928546637296677e-02,-7.977604866027832031e-02,9.750565141439437866e-02,-1.453212201595306396e-01,1.284323353320360184e-02,-1.017555147409439087e-01,-1.226590052247047424e-01,-4.427140206098556519e-02,-1.241306192241609097e-03,-7.004138082265853882e-02,-5.748733412474393845e-03,2.160989493131637573e-02,8.758771419525146484e-02,4.200398549437522888e-02,-4.166505858302116394e-02,7.684817910194396973e-02,1.287296265363693237e-01,-4.338322952389717102e-02,-1.777372211217880249e-01,1.321090268902480602e-03,-7.456522434949874878e-02,-7.179175317287445068e-02,7.744982838630676270e-02,7.270780391991138458e-03,1.780021376907825470e-02,3.338850289583206177e-02,-1.453440487384796143e-01,6.423912942409515381e-02,1.710569560527801514e-01,-2.493307739496231079e-01,1.305474527180194855e-02,-2.041189521551132202e-01,1.425518393516540527e-01,1.292610019445419312e-01,6.229693442583084106e-02,-4.869114141911268234e-03,-3.278889060020446777e-01,-2.479754202067852020e-02,-9.436436742544174194e-02,-3.078612312674522400e-02,-1.270721405744552612e-01,4.421551153063774109e-02,4.757840931415557861e-02,1.239933744072914124e-01,-5.220349133014678955e-02,1.639690250158309937e-01,1.313960403203964233e-01,7.818896323442459106e-02,-1.878964304924011230e-01,-1.066384315490722656e-01,1.988594681024551392e-01,4.258318617939949036e-02,-8.084483444690704346e-03,1.384206563234329224e-01,-3.178177028894424438e-02,-2.219405490905046463e-03,3.061176650226116180e-02,-1.386425197124481201e-01,3.267383435741066933e-03,2.132177203893661499e-01,1.172468662261962891e-01,-1.367237120866775513e-01,-1.394144166260957718e-02,5.224341154098510742e-02,-1.347751617431640625e-01
9.935112297534942627e-02,-1.098426356911659241e-01,5.745966732501983643e-02,-3.482262790203094482e-02,-1.506680250167846680e-01,-1.823499500751495361e-01,-7.161561399698257446e-03,-4.140752181410789490e-02,-2.252699434757232666e-02,-1.555554717779159546e-01,1.624017655849456787e-01,-1.077737659215927124e-01,2.163556404411792755e-02,4.466422274708747864e-02,2.812671363353729248e-01,-1.552194505929946899e-01,-1.193214580416679382e-02,-4.835261031985282898e-02,1.050880104303359985e-01,1.259625256061553955e-01,5.136610567569732666e-02,-1.289378255605697632e-01,-1.183821558952331543e-01,-3.848813474178314209e-02,1.226971819996833801e-01,1.360487341880798340e-01,7.703568041324615479e-02,9.325062483549118042e-02,-4.971371218562126160e-02,1.532131135463714600e-01,2.280187010765075684e-01,-3.628993034362792969e-02,-2.406650781631469727e-01,4.331679269671440125e-02,-8.812247216701507568e-02,-8.525291085243225098e-02,-2.554594725370407104e-02,5.082518979907035828e-02,8.582266420125961304e-02,-1.732309609651565552e-01,1.695478707551956177e-01,-1.352931745350360870e-02,-7.773555070161819458e-02,-1.593818664550781250e-01,5.404127761721611023e-02,-4.748240485787391663e-02,1.952807232737541199e-02,-1.608066260814666748e-02,1.898889429867267609e-02,5.412128567695617676e-02,-1.294143050909042358e-01,-4.508466646075248718e-02,1.933088451623916626e-01,-1.218535974621772766e-01,9.713929146528244019e-02,-1.231543123722076416e-01,7.665961980819702148e-02,-6.792622804641723633e-02,-1.290436983108520508e-01,-3.140634670853614807e-02,-8.910933881998062134e-02,-8.562722802162170410e-02,-2.473004162311553955e-01,-2.816755510866641998e-02,1.556352823972702026e-01,-2.890902943909168243e-02,4.445405304431915283e-02,-1.141164973378181458e-01,-7.692694664001464844e-02,-4.229553416371345520e-02,1.745178252458572388e-01,-1.101597025990486145e-01,1.254956722259521484e-01,7.513129711151123047e-02,1.365567445755004883e-01,-7.424852252006530762e-02,-1.094987802207469940e-02,1.823400706052780151e-01,4.140717908740043640e-03,4.568419978022575378e-02,7.266135420650243759e-03,5.436123162508010864e-02,9.108027070760726929e-02,-4.450758546590805054e-02,1.299491804093122482e-02,5.936251208186149597e-02,3.198413550853729248e-02,5.017164349555969238e-02,-1.447648108005523682e-01,1.797173172235488892e-02,-2.281622737646102905e-01,2.088826894760131836e-01,-1.164924353361129761e-01,1.214435622096061707e-01,-1.577269583940505981e-01,1.678373664617538452e-01,4.115936905145645142e-02,-6.539613008499145508e-03,4.868689924478530884e-02,-1.322714388370513916e-01,-2.988513931632041931e-02,5.030607804656028748e-02,9.037235379219055176e-02,-5.994151812046766281e-03,-2.786248624324798584e-01,1.109444350004196167e-01,-1.114759370684623718e-01,4.820644482970237732e-02,-9.951611049473285675e-03,-1.375451236963272095e-01,1.470034867525100708e-01,-2.435762286186218262e-01,1.652699545957148075e-03,-7.774669677019119263e-02,-1.183171570301055908e-01,-3.035746812820434570e-01,1.875152438879013062e-01,1.576936990022659302e-02,1.606803387403488159e-01,-1.050798408687114716e-02,-3.356953710317611694e-02,1.692758649587631226e-01,5.303015187382698059e-02,3.883658349514007568e-02,-3.286421298980712891e-02,2.402652986347675323e-02,-1.320692598819732666e-01,-7.797456532716751099e-02
1.673607677221298218e-01,-6.079286336898803711e-02,-4.142437502741813660e-02,5.214785039424896240e-02,1.319078207015991211e-01,7.822266966104507446e-02,-3.956774249672889709e-02,-1.034319847822189331e-01,-9.086344391107559204e-03,-1.145874187350273132e-01,2.176160216331481934e-01,-4.359035566449165344e-02,1.812260746955871582e-01,-4.715729132294654846e-02,-1.662576794624328613e-01,9.894333034753799438e-02,9.276887774467468262e-02,-1.506242752075195312e-01,-1.165715157985687256e-01,-6.238603219389915466e-02,-5.278749391436576843e-02,2.779388427734375000e-02,1.655424535274505615e-01,3.425761684775352478e-02,1.413559615612030029e-01,-3.556780517101287842e-02,-2.951245605945587158e-01,-1.329164206981658936e-01,-1.119592562317848206e-01,8.299290388822555542e-02,-7.333096116781234741e-02,-1.498602479696273804e-01,1.635434338822960854e-03,-6.110797449946403503e-02,-1.304613202810287476e-01,-1.373956631869077682e-02,-2.026152610778808594e-01,1.659478992223739624e-01,1.305025368928909302e-01,9.568011015653610229e-02,1.107960846275091171e-02,-5.335155874490737915e-02,-8.532755076885223389e-02,-8.483596891164779663e-02,-1.278413087129592896e-01,-3.331459686160087585e-02,9.446834772825241089e-02,2.299728570505976677e-03,-1.449122875928878784e-01,-4.647716507315635681e-02,-5.208697542548179626e-02,2.001949399709701538e-02,2.429684847593307495e-01,-4.072963260114192963e-03,-6.328879296779632568e-02,-1.300389170646667480e-01,-1.651717163622379303e-02,-2.245361208915710449e-01,-6.387733668088912964e-02,-2.184462733566761017e-02,-8.091314882040023804e-02,4.492974653840065002e-02,-1.126323360949754715e-02,1.938918256200850010e-03,-2.729361876845359802e-02,-1.718743592500686646e-01,-1.582492291927337646e-01,3.711790964007377625e-02,-3.964636847376823425e-02,1.549991071224212646e-01,2.499885484576225281e-02,9.757962077856063843e-02,1.896588355302810669e-01,-9.101224690675735474e-02,8.462515473365783691e-02,6.071820855140686035e-02,-3.811885043978691101e-02,-6.876429915428161621e-02,1.317347213625907898e-02,5.294299125671386719e-02,-1.295269839465618134e-02,-2.104520201683044434e-01,-1.211527660489082336e-01,7.479260861873626709e-02,1.207746472209692001e-02,-1.921985414810478687e-03,3.396077826619148254e-02,-1.791002303361892700e-01,-1.175618320703506470e-01,-3.939327225089073181e-02,-1.838495135307312012e-01,-5.942602455615997314e-02,1.077278554439544678e-01,9.942018240690231323e-02,-1.307769026607275009e-02,1.266103833913803101e-01,5.654690414667129517e-02,9.289180487394332886e-02,-9.493604302406311035e-02,-1.520424429327249527e-02,-1.502385735511779785e-01,-1.668873578310012817e-01,-5.217964574694633484e-02,1.378747224807739258e-01,1.540070474147796631e-01,1.060490012168884277e-01,6.966148316860198975e-02,-1.851570904254913330e-01,-5.763643980026245117e-02,-1.099833548069000244e-01,9.145645797252655029e-02,-1.130941435694694519e-01,-8.436316996812820435e-02,2.270494028925895691e-02,1.583435088396072388e-01,-5.869667977094650269e-02,1.419923901557922363e-01,2.847232110798358917e-02,-5.266137048602104187e-02,1.030180156230926514e-01,1.331299990415573120e-01,1.457506604492664337e-02,3.361617922782897949e-01,1.115748509764671326e-01,1.122926920652389526e-01,-4.297976568341255188e-02,-3.204439580440521240e-02,1.663354039192199707e-02
-6.857665628194808960e-02,1.041340455412864685e-01,3.124945238232612610e-02,6.840519607067108154e-02,9.463600814342498779e-02,-1.168240886181592941e-02,-7.303702831268310547e-02,-4.070484545081853867e-03,9.064806252717971802e-02,1.523658633232116699e-01,-1.065086424350738525e-01,5.068513005971908569e-02,-2.638915181159973145e-02,6.277780979871749878e-03,-3.869093954563140869e-02,5.271872878074645996e-02,-1.077099516987800598e-01,3.726418595761060715e-03,-1.248230878263711929e-02,-4.152977373450994492e-03,-3.688591346144676208e-02,1.340896729379892349e-02,-5.004275217652320862e-02,-1.124552264809608459e-01,8.528061956167221069e-02,4.585852101445198059e-02,1.005964204668998718e-01,2.804842218756675720e-02,1.203481629490852356e-01,2.047883719205856323e-02,-3.039420023560523987e-02,-1.028622165322303772e-01,-9.266074746847152710e-02,-2.360435426235198975e-01,5.462082847952842712e-02,-9.759872406721115112e-02,1.679406762123107910e-01,1.015726029872894287e-01,-3.742513060569763184e-02,1.128013581037521362e-01,-2.883663959801197052e-02,6.101445853710174561e-02,-7.258490473031997681e-02,3.353547677397727966e-02,8.000173605978488922e-03,7.242668420076370239e-02,-5.268288031220436096e-02,-5.855554342269897461e-02,-1.105026826262474060e-01,-4.101546853780746460e-02,7.270128279924392700e-02,4.104688391089439392e-02,-7.602876424789428711e-02,1.910353600978851318e-01,-1.649119332432746887e-02,4.648220166563987732e-02,-1.090161725878715515e-01,8.539619855582714081e-03,-1.084856572560966015e-03,1.205273158848285675e-02,-1.102790012955665588e-01,-5.936647579073905945e-02,-7.858339697122573853e-02,-1.702761054039001465e-01,-6.971773505210876465e-02,-7.455874234437942505e-02,-3.432174772024154663e-02,-1.110890731215476990e-01,-5.928847193717956543e-02,-6.328968703746795654e-02,5.906343460083007812e-02,3.525239601731300354e-02,-1.743078790605068207e-02,-1.051083789207041264e-03,-9.064036607742309570e-02,7.386619597673416138e-02,-9.630364179611206055e-02,-1.528857946395874023e-01,-4.223458096385002136e-02,5.580956931225955486e-04,1.377782821655273438e-01,-4.187456145882606506e-02,1.947231739759445190e-01,4.243890289217233658e-03,-6.241984292864799500e-02,-1.220162436366081238e-01,7.349789142608642578e-02,9.297703951597213745e-02,1.603326499462127686e-01,-9.310582280158996582e-02,-2.669935114681720734e-02,-2.229198440909385681e-02,4.911980358883738518e-04,-1.444417331367731094e-02,1.458427011966705322e-01,4.998864233493804932e-02,-1.422129571437835693e-01,5.628063809126615524e-03,3.090566396713256836e-02,-3.489409759640693665e-02,1.283869743347167969e-01,-2.896658889949321747e-02,-1.268148869276046753e-01,4.161816462874412537e-02,1.490308493375778198e-01,-1.576980203390121460e-02,-1.558162719011306763e-01,1.054494380950927734e-01,8.910155296325683594e-02,2.012611739337444305e-02,-1.108657121658325195e-01,-1.019694609567523003e-04,-1.640256494283676147e-01,5.861189961433410645e-02,7.042434811592102051e-02,6.111272424459457397e-02,8.526183664798736572e-02,6.876120716333389282e-02,-5.334689095616340637e-02,1.024666875600814819e-01,-1.461101919412612915e-01,2.458753436803817749e-02,-1.696562021970748901e-01,-8.478089421987533569e-02,4.308734496589750051e-04,-3.430165350437164307e-02,4.989211633801460266e-02,2.395829372107982635e-02
1.121627539396286011e-02,2.267488464713096619e-02,9.472195059061050415e-02,1.329113394021987915e-01,7.269249856472015381e-02,9.336388111114501953e-02,-4.276148974895477295e-02,-2.619459107518196106e-02,1.009656116366386414e-01,4.096579179167747498e-02,-1.217157095670700073e-01,-1.640988290309906006e-01,1.306807845830917358e-01,-2.970392070710659027e-02,-1.427387148141860962e-01,1.739054173231124878e-01,2.718927897512912750e-02,-7.933100312948226929e-02,-1.875407546758651733e-01,4.764870926737785339e-02,4.131343960762023926e-02,7.691507786512374878e-02,-3.751305863261222839e-02,-4.472741857171058655e-02,6.893154978752136230e-02,-8.419954776763916016e-02,-2.098640203475952148e-01,-3.546465560793876648e-02,-4.355710372328758240e-02,-5.248399078845977783e-02,7.238253951072692871e-02,-1.007677540183067322e-01,-2.389325387775897980e-02,1.327169835567474365e-01,-1.943987607955932617e-02,-5.418459698557853699e-02,-1.055940762162208557e-01,-3.496500849723815918e-02,4.062587395310401917e-02,-2.399210073053836823e-02,6.726549565792083740e-02,-7.552701234817504883e-02,-9.520022571086883545e-02,1.361304372549057007e-01,1.308059990406036377e-01,-6.019445881247520447e-02,6.416281312704086304e-02,1.008252054452896118e-02,8.439344167709350586e-02,2.520494908094406128e-02,1.246204152703285217e-01,1.456013023853302002e-01,3.975475579500198364e-02,1.092110127210617065e-01,-2.121318690478801727e-02,-5.028670653700828552e-02,-1.186078637838363647e-01,-5.225245282053947449e-02,-1.318666040897369385e-01,-4.744158312678337097e-02,3.576035425066947937e-02,-1.684483289718627930e-01,-1.229436770081520081e-01,-2.861711196601390839e-02,-1.430564559996128082e-02,5.852815136313438416e-02,-1.123500391840934753e-01,-5.292972922325134277e-02,-4.869083687663078308e-02,-3.776575997471809387e-02,-2.447128109633922577e-02,1.079708710312843323e-01,9.875745512545108795e-03,-9.218949824571609497e-02,1.681988313794136047e-02,-7.337751984596252441e-02,-1.270009018480777740e-02,-6.226277723908424377e-02,-3.391287848353385925e-02,-5.429595708847045898e-02,-4.419653862714767456e-02,-8.280812948942184448e-02,-9.490742534399032593e-02,4.767217114567756653e-02,6.948821991682052612e-02,-2.164771594107151031e-02,-1.689700037240982056e-01,1.515300571918487549e-02,1.007575690746307373e-01,4.525963217020034790e-02,-3.896785154938697815e-02,1.127702929079532623e-02,1.569471322000026703e-02,1.426136586815118790e-03,-1.221504211425781250e-01,1.091088280081748962e-01,5.545577779412269592e-02,-9.972602128982543945e-02,1.211150512099266052e-01,2.284602448344230652e-02,-1.122344434261322021e-01,-2.308451533317565918e-01,-6.912586092948913574e-02,2.762366458773612976e-02,-4.848425090312957764e-02,1.073751598596572876e-01,-9.980143606662750244e-02,-3.599444404244422913e-02,3.134787455201148987e-02,-1.896234415471553802e-02,-1.456099897623062134e-01,-3.428503125905990601e-02,1.445225346833467484e-02,4.618612304329872131e-02,1.182387024164199829e-01,-1.127188503742218018e-01,9.295937418937683105e-02,9.585943818092346191e-02,-3.191437944769859314e-02,-5.256201699376106262e-02,-1.713690720498561859e-02,-1.026187911629676819e-01,6.122246757149696350e-02,5.718445032835006714e-02,1.368759423494338989e-01,2.634747922420501709e-01,2.198688536882400513e-01,1.697189360857009888e-01
-3.781074285507202148e-02,1.216359343379735947e-02,1.288085058331489563e-02,-1.574337184429168701e-01,5.913569033145904541e-02,1.006772741675376892e-03,4.637884348630905151e-02,5.158767476677894592e-02,8.759295567870140076e-03,-2.371726324781775475e-03,4.852432757616043091e-02,-5.365496128797531128e-02,-4.234451428055763245e-02,-6.710768677294254303e-03,-9.813255071640014648e-02,-4.014833644032478333e-02,-3.118366561830043793e-02,-4.373877495527267456e-02,4.129151254892349243e-02,6.984973791986703873e-03,-9.117212891578674316e-02,-1.349945086985826492e-02,6.536107510328292847e-02,-1.078620329499244690e-01,-1.288266479969024658e-02,-2.685907483100891113e-02,4.696052893996238708e-02,1.091536134481430054e-02,6.116397306323051453e-02,2.358029596507549286e-02,6.142573058605194092e-02,8.453565090894699097e-02,-5.442463979125022888e-02,4.226549714803695679e-02,4.442214965820312500e-02,-2.316160313785076141e-02,9.678582102060317993e-02,-2.372416853904724121e-02,6.389763206243515015e-02,-3.013784997165203094e-02,-8.509089797735214233e-02,-1.666872650384902954e-01,-3.159477561712265015e-02,4.671087116003036499e-02,9.038940072059631348e-02,-4.359645769000053406e-02,4.657377302646636963e-02,1.017649322748184204e-01,-1.542192418128252029e-02,-7.351379841566085815e-02,3.430542349815368652e-02,2.598515525460243225e-02,2.752950228750705719e-02,9.932692348957061768e-02,5.383270606398582458e-02,-6.186948344111442566e-02,-7.719235867261886597e-02,-3.590548783540725708e-02,2.145356871187686920e-02,1.587351784110069275e-02,-6.533357501029968262e-02,3.362070303410291672e-03,-1.762153767049312592e-02,4.679543897509574890e-02,4.058305546641349792e-02,-8.708283305168151855e-02,2.575669437646865845e-02,-1.104737073183059692e-02,-1.139214611612260342e-03,-6.430700421333312988e-03,5.235899984836578369e-02,-2.797926403582096100e-02,4.261918365955352783e-02,1.188068091869354248e-02,-6.325515359640121460e-02,-2.784265577793121338e-02,1.325412280857563019e-02,-4.893227294087409973e-02,-4.106965661048889160e-02,-1.097177993506193161e-02,1.011324971914291382e-01,3.295198082923889160e-02,4.182866960763931274e-02,-2.462046034634113312e-02,2.549513429403305054e-02,1.495310217142105103e-01,4.182486236095428467e-02,3.924037888646125793e-02,6.071545183658599854e-02,-6.006334349513053894e-02,2.993306145071983337e-02,-1.975318789482116699e-02,-2.054119110107421875e-02,-7.216020021587610245e-03,1.217847131192684174e-02,1.162493824958801270e-01,7.137954235076904297e-02,-7.178492099046707153e-02,6.987396627664566040e-02,5.961218476295471191e-02,7.264968007802963257e-02,1.907544024288654327e-02,1.387360394001007080e-01,3.327759355306625366e-02,7.447741180658340454e-02,-7.671085745096206665e-02,9.670683182775974274e-03,1.177759170532226562e-01,-5.326680094003677368e-02,6.279101967811584473e-02,1.207598485052585602e-02,-1.259842514991760254e-02,-1.312613952904939651e-02,-1.758145168423652649e-02,6.800282746553421021e-02,7.923979312181472778e-02,7.538265734910964966e-02,9.169284999370574951e-02,-3.910706564784049988e-02,-3.667257353663444519e-02,1.615070179104804993e-02,9.121843427419662476e-02,5.588952079415321350e-02,2.668912708759307861e-02,6.350725889205932617e-03,1.811773329973220825e-02,-1.083470955491065979e-01,8.317613601684570312e-02
7.094413042068481445e-02,8.968520909547805786e-02,1.132907643914222717e-01,6.186107173562049866e-03,-6.487784534692764282e-02,1.166753098368644714e-01,-1.011837869882583618e-01,-2.013434171676635742e-01,5.719382315874099731e-02,9.947642683982849121e-02,-7.648818194866180420e-02,9.352713078260421753e-02,1.448528189212083817e-02,-8.184562623500823975e-02,9.714753925800323486e-02,-1.980612725019454956e-01,-5.113999173045158386e-02,-1.412013471126556396e-01,1.738931238651275635e-02,-1.382116377353668213e-01,1.153726726770401001e-01,2.438749745488166809e-02,-9.382826834917068481e-02,-5.064139515161514282e-02,-1.342702805995941162e-01,-2.007745653390884399e-01,-5.008193105459213257e-02,-1.434257905930280685e-02,-7.463763654232025146e-02,-1.772519317455589771e-03,3.425448760390281677e-02,3.411063551902770996e-02,1.056540831923484802e-01,-4.623911157250404358e-02,-2.604058757424354553e-02,1.185729727149009705e-01,-1.187126263976097107e-01,-1.190176308155059814e-01,9.786322712898254395e-02,8.749106526374816895e-02,-6.345786154270172119e-03,-1.353086978197097778e-01,-1.176728308200836182e-02,1.908558905124664307e-01,9.530933201313018799e-02,7.786945253610610962e-02,-6.220071762800216675e-02,1.379231214523315430e-01,-1.090411767363548279e-01,-1.154931858181953430e-01,8.196282386779785156e-02,6.290115416049957275e-02,-5.414869636297225952e-02,-5.583883449435234070e-02,6.309021264314651489e-02,1.357846334576606750e-02,-2.147857472300529480e-02,-7.013125717639923096e-02,1.556422412395477295e-01,-1.388885974884033203e-01,1.208120137453079224e-01,1.030171196907758713e-02,-2.150136232376098633e-01,1.154360771179199219e-01,-1.586308479309082031e-01,-8.705612272024154663e-02,-5.937334522604942322e-02,-8.380373008549213409e-03,8.567423373460769653e-02,-5.323437601327896118e-02,-2.302551176398992538e-03,-1.024799719452857971e-01,4.157897457480430603e-02,1.080947220325469971e-01,-1.583683639764785767e-01,8.664676547050476074e-02,9.771126508712768555e-02,9.604221582412719727e-02,-1.370024830102920532e-01,2.765202224254608154e-01,1.696197874844074249e-02,1.080094254575669765e-03,-1.056569218635559082e-01,6.470837630331516266e-03,-9.826298803091049194e-02,7.645837613381445408e-04,4.420305788516998291e-02,2.216055616736412048e-02,2.113226950168609619e-01,-9.100152552127838135e-02,1.277187913656234741e-01,-1.590594500303268433e-01,-4.102611914277076721e-02,2.997457236051559448e-02,1.347556859254837036e-01,1.080301478505134583e-01,-5.003472790122032166e-02,-2.121396958827972412e-01,-3.768640011548995972e-02,1.091388091444969177e-01,4.692037031054496765e-02,-1.311863660812377930e-01,9.999261796474456787e-02,-4.598623141646385193e-02,-1.551143378019332886e-01,1.505541652441024780e-01,-3.187437355518341064e-02,5.048712249845266342e-03,-1.985004693269729614e-01,-1.748882979154586792e-01,-1.945063285529613495e-02,1.886046379804611206e-01,1.158881932497024536e-01,-3.896720707416534424e-02,1.467549800872802734e-01,-8.137826621532440186e-02,-1.776408553123474121e-01,2.667707204818725586e-02,-8.449059724807739258e-02,-1.326220482587814331e-01,5.134292691946029663e-02,1.558191794902086258e-02,8.331906981766223907e-03,-7.288381457328796387e-02,-4.726048093289136887e-03,5.404775962233543396e-02,7.242017239332199097e-02,3.897366241290001199e-06
-2.280675247311592102e-02,6.550084799528121948e-02,1.162163987755775452e-01,1.538283675909042358e-01,2.894140221178531647e-02,-2.575002051889896393e-02,-4.321090504527091980e-02,-3.053378686308860779e-02,1.085854321718215942e-02,-4.309722036123275757e-02,-3.842139989137649536e-02,4.037034523207694292e-04,1.469594333320856094e-02,1.791873127222061157e-01,3.709618747234344482e-02,-9.415701031684875488e-02,-9.630694985389709473e-02,-4.578977823257446289e-02,6.636935472488403320e-02,-1.213177889585494995e-01,-7.300645858049392700e-02,-1.129264160990715027e-01,-8.057723194360733032e-02,1.017620600759983063e-02,-2.064987644553184509e-02,-2.232357393950223923e-03,1.147020235657691956e-02,9.513833373785018921e-02,-1.177747696638107300e-01,-4.215981811285018921e-02,7.891236245632171631e-02,1.105575188994407654e-01,-1.912856698036193848e-01,1.363218873739242554e-01,1.018088087439537048e-01,2.369205700233578682e-03,-2.232263088226318359e-01,1.610919535160064697e-01,-1.080280020833015442e-01,-5.935441330075263977e-02,6.768348813056945801e-02,-5.071025807410478592e-03,-8.504743129014968872e-02,-1.187632456421852112e-01,-4.191592708230018616e-02,-1.181628853082656860e-01,-1.061743348836898804e-01,1.770278811454772949e-01,1.182513609528541565e-01,1.824200004339218140e-01,-9.673672169446945190e-02,-6.334765255451202393e-02,-5.169244483113288879e-02,1.903925538063049316e-01,-5.394031479954719543e-02,-1.180801317095756531e-01,-2.306445501744747162e-02,-1.325643509626388550e-01,-2.259702831506729126e-01,2.277525700628757477e-02,6.597030907869338989e-02,3.896906599402427673e-02,-4.135327786207199097e-02,4.485687613487243652e-02,3.009017743170261383e-02,-5.985185038298368454e-03,8.479587733745574951e-02,-5.115014687180519104e-02,2.622661739587783813e-02,-1.595050245523452759e-01,-1.958491653203964233e-02,-6.067395955324172974e-02,-9.511735290288925171e-02,8.938539540395140648e-04,1.245142612606287003e-02,-5.557253211736679077e-02,-1.402091234922409058e-01,-9.455204755067825317e-02,2.319703437387943268e-02,8.644811809062957764e-02,8.510573953390121460e-02,-7.081259787082672119e-02,7.218284159898757935e-02,-7.024399936199188232e-02,1.217235848307609558e-01,4.805608466267585754e-02,-6.363291293382644653e-02,-1.152404583990573883e-04,-2.233140915632247925e-01,-3.140374273061752319e-02,-1.091130897402763367e-01,-1.020513009279966354e-02,-1.408367604017257690e-01,5.013942345976829529e-02,-1.280922442674636841e-01,1.556707918643951416e-01,-2.599781751632690430e-02,-1.573010832071304321e-01,2.547404766082763672e-01,9.174164384603500366e-02,1.896511763334274292e-02,-1.175800710916519165e-02,4.339067637920379639e-02,-7.970424741506576538e-02,-1.215009242296218872e-01,1.551860757172107697e-02,-1.089743897318840027e-02,-1.390153467655181885e-01,-1.120369359850883484e-01,-7.240255177021026611e-02,-1.172948279418051243e-03,-1.578765511512756348e-01,-7.199301570653915405e-02,5.837591737508773804e-02,-1.281678229570388794e-01,-5.225861817598342896e-02,1.569497138261795044e-01,-7.351693511009216309e-02,-3.173837065696716309e-02,-3.953874856233596802e-02,1.712913513183593750e-01,7.657404243946075439e-02,-6.947045773267745972e-02,-1.177331879734992981e-01,2.277713716030120850e-01,-7.625029981136322021e-02,6.714188307523727417e-02,-6.958809494972229004e-02
-2.021002024412155151e-01,5.522138252854347229e-02,3.335534781217575073e-02,-8.450359106063842773e-02,7.077755033969879150e-02,9.575323015451431274e-02,2.265733294188976288e-02,9.210089221596717834e-03,-3.847048059105873108e-02,-9.613188356161117554e-02,1.173755154013633728e-01,-2.491245791316032410e-02,6.044237688183784485e-02,1.683820039033889771e-01,-2.536076493561267853e-02,-2.222485989332199097e-01,-8.167871087789535522e-02,-8.324234187602996826e-02,-2.563265152275562286e-03,3.224097425118088722e-03,7.259628921747207642e-02,-7.074771076440811157e-02,6.524496525526046753e-02,-1.108376458287239075e-01,8.970496058464050293e-02,2.818198800086975098e-01,1.057189181447029114e-01,-1.007635518908500671e-01,1.733249872922897339e-01,9.031760692596435547e-02,-6.731805950403213501e-02,2.276121638715267181e-02,-2.176907658576965332e-01,5.815838649868965149e-02,3.090264275670051575e-02,-1.011055633425712585e-01,1.904357410967350006e-02,-1.514471601694822311e-02,-6.597454845905303955e-02,-5.859012156724929810e-02,-3.476146608591079712e-02,7.537736743688583374e-02,1.636065393686294556e-01,-1.272762715816497803e-01,-6.853405386209487915e-02,5.875141546130180359e-02,-9.068541973829269409e-02,2.998541109263896942e-02,-5.987954139709472656e-02,1.730945259332656860e-01,-9.880445152521133423e-02,-1.921877413988113403e-01,-2.255821414291858673e-02,2.338537871837615967e-01,2.854417078197002411e-02,2.953104116022586823e-02,1.146137863397598267e-01,5.188289284706115723e-02,-1.179530397057533264e-01,-9.550730884075164795e-02,1.338179260492324829e-01,-7.870607823133468628e-02,1.671509630978107452e-02,3.391573205590248108e-02,-3.548189625144004822e-02,3.130287304520606995e-02,3.668217360973358154e-02,5.179028585553169250e-02,8.122225105762481689e-02,-2.840895019471645355e-02,2.486087977886199951e-01,-2.165857553482055664e-01,-2.194041609764099121e-01,-2.218407019972801208e-02,-9.210895746946334839e-02,-2.700534090399742126e-02,5.303223058581352234e-02,-4.475606605410575867e-03,1.738563179969787598e-02,5.207532644271850586e-02,1.591653227806091309e-01,1.392736192792654037e-02,-1.432082206010818481e-01,-5.917256698012351990e-02,7.618297636508941650e-02,-2.376930974423885345e-02,-4.291382059454917908e-02,2.263323217630386353e-02,-1.991522163152694702e-01,7.942122220993041992e-02,-1.164059340953826904e-01,1.322306096553802490e-01,-3.177081048488616943e-02,-7.083655893802642822e-02,6.398674845695495605e-02,6.328700482845306396e-02,-9.577550925314426422e-03,1.392201427370309830e-02,-9.065727889537811279e-02,-9.282635152339935303e-02,1.304880976676940918e-01,2.688237652182579041e-02,-2.828451246023178101e-02,1.576799713075160980e-02,3.742869943380355835e-02,-3.636554256081581116e-02,-9.843957424163818359e-02,1.605947874486446381e-02,2.426906861364841461e-02,1.788038462400436401e-01,2.611002326011657715e-01,-5.070998892188072205e-02,-1.158818304538726807e-01,2.824120037257671356e-02,-1.188749447464942932e-01,3.698487579822540283e-02,5.068122595548629761e-02,2.558894641697406769e-02,-8.423732966184616089e-02,4.388005658984184265e-02,-3.571000695228576660e-02,1.162599120289087296e-02,-9.972108900547027588e-02,-1.350634247064590454e-01,8.943199366331100464e-02,-2.113284021615982056e-01,-9.730335325002670288e-02,2.027584053575992584e-02
-7.249097526073455811e-02,-6.348086893558502197e-02,-1.346225440502166748e-01,2.247004536911845207e-03,3.409665822982788086e-02,1.637865304946899414e-01,-1.263121217489242554e-01,-6.065231561660766602e-02,4.696042090654373169e-02,1.260104030370712280e-01,7.234969735145568848e-02,7.919774949550628662e-02,-3.901111334562301636e-02,1.510297358036041260e-01,-9.072027355432510376e-02,2.161631584167480469e-01,-1.031341217458248138e-02,2.653993107378482819e-02,-1.295744329690933228e-01,-8.577547967433929443e-02,-3.175551770254969597e-03,7.592605799436569214e-02,5.891072005033493042e-02,2.347997575998306274e-02,-1.487110853195190430e-01,-1.615931047126650810e-03,7.176746428012847900e-02,6.135677546262741089e-02,2.674955427646636963e-01,-7.844267040491104126e-02,-1.112242490053176880e-01,-8.680624514818191528e-02,5.426803603768348694e-02,1.094352602958679199e-01,1.046139448881149292e-01,1.770266145467758179e-01,-1.263647247105836868e-02,1.256306916475296021e-01,-7.292586565017700195e-02,1.466337889432907104e-01,-7.754281163215637207e-02,3.242341428995132446e-02,-1.601674780249595642e-02,1.329099386930465698e-01,-4.719830304384231567e-02,6.282737851142883301e-02,6.172812357544898987e-02,-4.283663630485534668e-02,6.775138434022665024e-03,1.361286640167236328e-01,-5.258757621049880981e-02,1.337811443954706192e-02,6.603191047906875610e-02,-4.677818715572357178e-02,-1.618830561637878418e-01,5.453029181808233261e-03,-1.797493696212768555e-01,9.578994661569595337e-02,-6.650099903345108032e-02,-5.483663082122802734e-02,8.732964284718036652e-03,6.140948459506034851e-02,1.368026137351989746e-01,-7.309990376234054565e-02,5.366500094532966614e-02,-1.489740908145904541e-01,1.037960313260555267e-02,6.418239325284957886e-02,-9.175174683332443237e-02,-7.631731033325195312e-02,5.836791172623634338e-02,2.910619415342807770e-02,1.139132454991340637e-01,-9.247450530529022217e-02,-1.334911864250898361e-02,-3.309771791100502014e-02,-3.654927760362625122e-02,-9.839358925819396973e-02,4.467747360467910767e-02,2.189544774591922760e-02,1.116579696536064148e-01,4.241930693387985229e-02,-5.188200250267982483e-02,1.966098248958587646e-01,1.015998795628547668e-02,-1.635616719722747803e-01,1.297413650900125504e-02,-2.853175997734069824e-01,-7.068986445665359497e-02,7.279453426599502563e-02,4.459814727306365967e-02,-7.575009018182754517e-02,9.139803051948547363e-02,-1.782352030277252197e-01,9.051462262868881226e-02,-3.521548956632614136e-02,1.793857850134372711e-02,-4.335477203130722046e-02,9.964402019977569580e-02,-6.826598942279815674e-02,-4.130767658352851868e-02,1.953627020120620728e-01,8.354483544826507568e-02,5.147698521614074707e-02,6.532936543226242065e-02,1.245800927281379700e-01,6.142661720514297485e-02,-4.864619299769401550e-02,-2.184727787971496582e-02,-1.162052433937788010e-02,-4.480510950088500977e-02,1.796984076499938965e-01,1.536882761865854263e-02,1.872329562902450562e-01,1.103324815630912781e-03,2.910244166851043701e-01,-2.270985767245292664e-02,2.196001261472702026e-02,-1.166892573237419128e-01,-1.160592660307884216e-01,-4.918165132403373718e-02,-1.470529753714799881e-02,-5.576109513640403748e-02,-1.434421446174383163e-02,7.099762558937072754e-02,-4.217132180929183960e-02,-3.305311873555183411e-02,1.489747315645217896e-01
7.528932392597198486e-02,5.259121954441070557e-02,7.542905956506729126e-02,-2.823093160986900330e-02,-1.452628657716559246e-05,-6.292713433504104614e-02,1.741299927234649658e-01,-2.055300213396549225e-02,1.455719918012619019e-01,4.901898652315139771e-02,-3.409997746348381042e-02,1.071077957749366760e-02,1.914996281266212463e-02,-1.347673125565052032e-02,2.366269752383232117e-02,-3.291545435786247253e-02,1.808711588382720947e-01,-1.816619932651519775e-01,-2.494442090392112732e-02,-9.408683329820632935e-02,9.539929777383804321e-02,1.725866496562957764e-01,3.828903660178184509e-02,4.353184998035430908e-02,-7.323885709047317505e-02,-4.148564115166664124e-02,2.696052193641662598e-01,-4.905700683593750000e-02,4.230645298957824707e-02,-1.705050282180309296e-02,1.306582093238830566e-01,4.004698991775512695e-02,5.582217127084732056e-02,4.318543523550033569e-02,2.416593208909034729e-02,2.808850258588790894e-02,-9.430103003978729248e-02,-1.798696070909500122e-01,-2.082668393850326538e-01,-4.568837955594062805e-02,-5.872263759374618530e-02,-2.462823688983917236e-02,1.415562815964221954e-02,6.046296656131744385e-02,-1.586754247546195984e-02,1.031783595681190491e-01,-3.880774974822998047e-02,-2.176594547927379608e-02,5.524366721510887146e-02,-2.443370595574378967e-02,1.388776600360870361e-01,1.927336305379867554e-01,-7.616272196173667908e-04,1.242770925164222717e-01,5.777808837592601776e-03,-1.327351033687591553e-01,-1.202394142746925354e-01,3.380246087908744812e-02,2.745134523138403893e-03,5.205559358000755310e-02,-6.737113744020462036e-02,2.460132390260696411e-01,7.069091498851776123e-02,1.214349269866943359e-01,-3.847426036372780800e-03,-2.454802952706813812e-02,7.183522731065750122e-02,5.753904115408658981e-03,2.249518483877182007e-01,-9.221540391445159912e-02,5.987362563610076904e-02,9.769447147846221924e-02,-1.241252198815345764e-01,-6.474713981151580811e-02,1.350529193878173828e-01,-2.012625895440578461e-02,-1.077497601509094238e-01,-1.137210130691528320e-01,-1.009538918733596802e-01,6.913895159959793091e-02,-5.944010242819786072e-02,2.750598080456256866e-02,2.329685725271701813e-02,5.341964215040206909e-02,2.982405386865139008e-02,1.496834158897399902e-01,-5.736688151955604553e-02,-1.143123283982276917e-01,6.821949779987335205e-02,-2.379355253651738167e-03,2.625777758657932281e-02,-1.360619366168975830e-01,-1.539038307964801788e-02,-3.245247527956962585e-03,-8.417304605245590210e-02,-1.088736429810523987e-01,7.860557734966278076e-02,-9.211794286966323853e-02,-2.563601173460483551e-02,2.090948075056076050e-01,-1.198912560939788818e-01,-6.234932318329811096e-02,-3.529388457536697388e-02,6.615681201219558716e-02,1.563515327870845795e-02,-1.421225816011428833e-01,-1.832222193479537964e-01,1.237430572509765625e-01,-1.282674223184585571e-01,1.399647146463394165e-01,4.657183960080146790e-02,2.395605444908142090e-01,-6.651676446199417114e-02,-2.522868216037750244e-01,2.031103335320949554e-02,2.358551509678363800e-02,-4.019544273614883423e-02,9.368139505386352539e-02,-5.482700467109680176e-02,-8.644058369100093842e-03,6.080622598528862000e-02,-5.020277202129364014e-02,8.323702961206436157e-02,-4.972424358129501343e-02,5.481629073619842529e-02,2.231891751289367676e-01,-4.878656473010778427e-03,3.041470050811767578e-02
-7.368951290845870972e-02,1.794167459011077881e-01,-2.091114595532417297e-02,2.531671822071075439e-01,-1.654907315969467163e-02,1.357126049697399139e-02,-1.028994172811508179e-01,1.778049394488334656e-02,1.137670874595642090e-01,-8.573821745812892914e-03,-3.260836703702807426e-03,-3.023389279842376709e-01,-1.036379784345626831e-01,-5.694039538502693176e-02,-3.007112070918083191e-02,-1.354973167181015015e-01,-2.660946547985076904e-02,1.265983879566192627e-01,-7.568510621786117554e-02,1.110953912138938904e-01,-1.551984995603561401e-01,1.526587828993797302e-02,4.773679003119468689e-02,9.952347725629806519e-03,1.822591423988342285e-01,-8.087547868490219116e-02,6.571717560291290283e-02,-5.526133254170417786e-02,-3.310246020555496216e-02,-1.220973581075668335e-02,7.770906388759613037e-02,1.649970933794975281e-02,-1.196545436978340149e-01,-1.394432485103607178e-01,6.477856636047363281e-02,9.528125822544097900e-02,-9.629690647125244141e-02,4.627425223588943481e-02,-6.622797995805740356e-02,8.712762966752052307e-03,1.024982258677482605e-01,-9.843587875366210938e-02,-7.853364944458007812e-02,1.705877482891082764e-01,1.068755313754081726e-01,-1.851878315210342407e-02,-2.109649330377578735e-01,2.045778371393680573e-02,-5.796312540769577026e-02,-1.128652319312095642e-02,2.059177123010158539e-02,1.179925799369812012e-01,-9.338225424289703369e-02,1.443425267934799194e-01,-2.658688835799694061e-02,6.939821690320968628e-02,-2.124835178256034851e-02,-3.000369295477867126e-02,-1.200244277715682983e-01,-7.147207856178283691e-02,-1.092029511928558350e-01,6.311145424842834473e-02,6.026957556605339050e-02,-1.127679049968719482e-01,9.934068657457828522e-03,-4.104889556765556335e-02,1.061280742287635803e-01,2.185791917145252228e-02,4.958862066268920898e-02,-2.035475522279739380e-01,-7.794198114424943924e-03,1.416375860571861267e-02,5.950354039669036865e-03,1.957941353321075439e-01,-1.425140071660280228e-02,-7.586167007684707642e-02,-2.969212532043457031e-01,-2.332575619220733643e-02,-4.378899186849594116e-02,-5.846555903553962708e-02,-1.491672992706298828e-01,-1.396450102329254150e-01,1.696200817823410034e-01,9.215693920850753784e-02,6.883016228675842285e-02,-1.065720804035663605e-02,1.952623389661312103e-02,5.010385811328887939e-02,9.210960566997528076e-02,-1.286012493073940277e-02,1.214816421270370483e-02,5.741330236196517944e-02,-4.701161757111549377e-02,6.530652940273284912e-02,2.440150640904903412e-02,2.706193029880523682e-01,-9.594001621007919312e-02,-5.733340606093406677e-02,1.066090166568756104e-01,-3.980377689003944397e-02,4.541582614183425903e-02,-1.308806240558624268e-01,-1.119893714785575867e-01,-9.337263554334640503e-02,2.655337192118167877e-02,1.262048929929733276e-01,-2.694052271544933319e-02,1.461671888828277588e-01,-8.640882372856140137e-02,-6.663724780082702637e-02,-1.199155747890472412e-01,-5.330992862582206726e-02,-1.335013806819915771e-01,1.642563147470355034e-03,9.398617595434188843e-02,3.545374423265457153e-02,-9.639767557382583618e-02,-1.472031772136688232e-01,1.872629970312118530e-01,4.576185345649719238e-02,1.645678430795669556e-01,-2.827029228210449219e-01,2.323273569345474243e-02,3.229030966758728027e-02,1.050808280706405640e-01,7.884061336517333984e-02,-1.126323454082012177e-02,3.342648595571517944e-02
-6.052110344171524048e-02,8.064496517181396484e-02,5.064159259200096130e-02,-4.433513060212135315e-02,-3.767539933323860168e-02,-7.831327617168426514e-02,-9.432297199964523315e-02,-6.348060071468353271e-02,9.550834447145462036e-02,1.724197156727313995e-02,6.019492074847221375e-02,-3.113767132163047791e-03,-9.861315786838531494e-02,-5.934734642505645752e-02,-2.321041747927665710e-02,6.421463191509246826e-02,-1.749819726683199406e-03,2.478649094700813293e-02,-8.770432323217391968e-03,-1.628351770341396332e-02,-6.759737432003021240e-02,-4.586368799209594727e-03,7.102860510349273682e-02,1.359801143407821655e-01,5.788966268301010132e-02,-1.622459851205348969e-02,8.170068264007568359e-02,-6.107313558459281921e-02,1.098328232765197754e-01,7.765416800975799561e-02,-1.126134768128395081e-02,-9.020142257213592529e-02,-5.152029171586036682e-02,6.925224512815475464e-02,-2.280688658356666565e-02,-4.138189926743507385e-02,-3.693196177482604980e-02,-9.465728700160980225e-02,1.280139572918415070e-02,7.806453108787536621e-02,-7.102804630994796753e-02,1.523415092378854752e-02,3.093148767948150635e-02,2.310096286237239838e-02,1.653012633323669434e-02,4.106898233294487000e-02,8.327147923409938812e-03,-3.487792238593101501e-02,-3.098009899258613586e-02,1.289588026702404022e-02,-1.050575524568557739e-01,-1.440634578466415405e-02,1.876997202634811401e-02,-1.279240474104881287e-02,2.502373792231082916e-02,-9.989152848720550537e-02,1.203702688217163086e-01,-3.890581429004669189e-03,-5.104081705212593079e-02,5.956095457077026367e-02,-3.125454857945442200e-02,2.458563446998596191e-02,-6.164498254656791687e-02,6.124703586101531982e-02,-4.751084744930267334e-02,-8.332030475139617920e-02,-4.781768843531608582e-02,1.592674665153026581e-02,3.645316883921623230e-02,-4.192017018795013428e-02,8.623334020376205444e-02,1.644312404096126556e-02,-5.867039412260055542e-02,2.258824533782899380e-04,-6.088264659047126770e-02,7.662661373615264893e-03,1.409629825502634048e-02,-1.794184930622577667e-02,2.148939482867717743e-02,-8.134625852108001709e-02,-2.893262170255184174e-02,-2.889448404312133789e-02,3.861019760370254517e-02,-6.593835353851318359e-02,1.658631488680839539e-02,3.950897604227066040e-03,-3.168580308556556702e-02,-1.007308438420295715e-02,1.069345045834779739e-02,-5.286058411002159119e-02,2.803720533847808838e-02,5.067511647939682007e-02,-5.504793673753738403e-02,7.880265265703201294e-02,-1.171598732471466064e-01,-4.320554435253143311e-02,-3.994505852460861206e-03,-6.811337918043136597e-02,3.672502934932708740e-02,4.622439853847026825e-03,1.335763838142156601e-02,5.667736381292343140e-02,7.670296728610992432e-02,1.801850646734237671e-02,-6.636057794094085693e-02,3.831675648689270020e-02,2.628612099215388298e-03,6.462556868791580200e-02,-4.777823016047477722e-02,-4.175235331058502197e-02,9.393365681171417236e-02,-5.953698232769966125e-02,3.541882615536451340e-03,-6.342018395662307739e-02,1.582376286387443542e-02,1.459245234727859497e-01,-9.239617735147476196e-02,2.107831835746765137e-02,-7.476932555437088013e-02,2.393680810928344727e-02,-5.800721049308776855e-02,-9.866987913846969604e-02,6.591799855232238770e-02,6.355595588684082031e-02,-2.321594953536987305e-02,1.241416856646537781e-02,-7.656452804803848267e-02,5.999780073761940002e-02
-1.705039478838443756e-02,5.554318428039550781e-02,9.545712918043136597e-02,9.487261623144149780e-02,-4.073657467961311340e-02,-1.008010953664779663e-01,1.801918596029281616e-01,4.885804280638694763e-02,6.061384454369544983e-02,4.227741062641143799e-02,-7.559020072221755981e-02,7.002557069063186646e-02,-2.226503379642963409e-02,2.126284390687942505e-01,7.277368009090423584e-02,-7.152417302131652832e-02,4.748211801052093506e-02,4.332332871854305267e-03,4.209808632731437683e-02,-4.237117618322372437e-02,-1.192266121506690979e-01,-1.150713339447975159e-01,-1.077023148536682129e-02,2.956701209768652916e-03,7.629991974681615829e-03,-1.446646153926849365e-01,1.490041166543960571e-01,-4.378821328282356262e-02,-8.964231610298156738e-02,-1.211978346109390259e-01,-5.949479062110185623e-03,-8.187053352594375610e-02,-1.090359091758728027e-01,-8.851040899753570557e-02,-4.660193249583244324e-02,-1.513357013463973999e-01,-2.012988179922103882e-02,1.526298671960830688e-01,-8.211419731378555298e-02,2.989748120307922363e-02,8.501804620027542114e-02,-1.028669849038124084e-01,9.409903548657894135e-03,-1.973827481269836426e-01,-3.744969516992568970e-02,6.093795225024223328e-02,-2.640745937824249268e-01,-2.236512117087841034e-02,1.822717301547527313e-02,-1.078795343637466431e-01,-3.968667611479759216e-02,4.598385468125343323e-02,1.368181034922599792e-02,1.013344749808311462e-01,3.680642694234848022e-02,1.439322680234909058e-01,1.613080501556396484e-01,-1.574468463659286499e-01,-2.902469635009765625e-01,9.337907657027244568e-03,9.004261810332536697e-04,-2.047513378784060478e-03,-6.707450002431869507e-02,-8.439571410417556763e-02,-6.191666424274444580e-02,1.854472309350967407e-01,-1.731449551880359650e-02,-6.108972057700157166e-02,-1.867937110364437103e-02,-3.962133079767227173e-02,-6.690329313278198242e-02,-1.071620956063270569e-01,-6.252977252006530762e-02,1.723759025335311890e-01,7.327559590339660645e-02,1.045224741101264954e-01,-1.015911996364593506e-01,-9.016530960798263550e-02,-1.602853834629058838e-02,-8.161938190460205078e-02,1.747837662696838379e-01,-2.785512944683432579e-03,6.605368107557296753e-02,1.578820794820785522e-01,-4.290729761123657227e-02,1.780874729156494141e-01,-2.668550610542297363e-01,7.846259325742721558e-02,-1.176114380359649658e-01,-4.357293620705604553e-02,-2.064591459929943085e-02,-3.340181708335876465e-02,1.826598495244979858e-02,1.957279443740844727e-02,-5.256003513932228088e-02,-9.728923439979553223e-03,-6.616493314504623413e-02,1.859511286020278931e-01,-1.815579086542129517e-02,1.602015197277069092e-01,-4.302644357085227966e-02,-9.548449516296386719e-02,-4.743342474102973938e-02,-2.896409034729003906e-01,-3.452185913920402527e-02,-5.190686509013175964e-02,2.412744797766208649e-02,-3.036334924399852753e-02,1.023360565304756165e-01,4.322436638176441193e-03,-4.130607098340988159e-02,-1.189213916659355164e-01,-2.520113885402679443e-01,-1.204113513231277466e-01,-5.271938443183898926e-02,-7.326832413673400879e-02,8.267434686422348022e-02,-6.441483646631240845e-02,-5.450710654258728027e-02,4.308229777961969376e-03,1.315250247716903687e-01,-4.149233549833297729e-02,-2.726548537611961365e-02,-1.582591980695724487e-01,4.119567945599555969e-02,-1.122375205159187317e-01,1.690181791782379150e-01,-2.883201241493225098e-01
-1.395896659232676029e-03,1.024503931403160095e-01,-1.780273318290710449e-01,-8.231887966394424438e-02,7.377707865089178085e-03,-1.701278388500213623e-01,1.769967377185821533e-01,1.194725856184959412e-01,8.135327138006687164e-03,-8.159791678190231323e-02,-1.549750007688999176e-02,5.592396855354309082e-02,-2.133434414863586426e-01,-3.969400376081466675e-02,-2.750830166041851044e-02,2.393235266208648682e-02,1.342220902442932129e-01,-1.984231323003768921e-01,3.239504992961883545e-01,-2.199308425188064575e-01,1.000832170248031616e-01,3.124517388641834259e-02,-8.551767468452453613e-02,-1.996848359704017639e-02,5.215886235237121582e-02,7.973842322826385498e-02,1.343443095684051514e-01,3.660437837243080139e-02,4.460794478654861450e-02,-2.396099269390106201e-02,-6.416506320238113403e-02,5.995351448655128479e-02,1.954700350761413574e-01,5.279413238167762756e-02,5.921844393014907837e-02,2.462931722402572632e-02,7.403617352247238159e-02,1.471441984176635742e-02,7.089994323905557394e-05,-2.461582608520984650e-02,-1.145135909318923950e-01,1.281869411468505859e-01,-2.175394631922245026e-02,1.189350783824920654e-01,1.152116060256958008e-01,8.699470199644565582e-03,-1.005622297525405884e-01,-1.565525084733963013e-01,-1.654003709554672241e-01,-2.122850567102432251e-01,3.271940350532531738e-02,2.459844388067722321e-02,3.447455167770385742e-02,1.583935022354125977e-01,-6.390070915222167969e-02,2.246083319187164307e-02,-1.609198376536369324e-02,-4.622153192758560181e-02,1.780049316585063934e-02,7.722479850053787231e-02,-6.966815795749425888e-03,6.743006408214569092e-02,1.570371165871620178e-02,-2.994858473539352417e-02,1.219104826450347900e-01,-1.577865183353424072e-01,3.682413697242736816e-02,-1.484436355531215668e-02,1.463729515671730042e-02,7.533518970012664795e-02,-3.032731765415519476e-04,-4.078413173556327820e-02,-3.246404975652694702e-02,-6.953664869070053101e-02,-6.003555282950401306e-02,1.218749880790710449e-01,-2.553478814661502838e-02,-2.166014164686203003e-02,-2.279497832059860229e-01,1.321610510349273682e-01,-1.298562586307525635e-01,1.435822807252407074e-03,3.009702265262603760e-01,2.623252943158149719e-02,-3.352214395999908447e-02,-1.090672761201858521e-01,-4.899130016565322876e-02,1.026947349309921265e-01,1.323344185948371887e-02,1.792721897363662720e-01,2.068339288234710693e-02,-1.201220229268074036e-01,3.173155337572097778e-02,-1.077644973993301392e-01,9.592169523239135742e-02,-2.348500341176986694e-01,-3.665284439921379089e-02,6.903965771198272705e-02,-4.196221381425857544e-02,1.940250843763351440e-01,-4.641279578208923340e-02,1.012527197599411011e-01,7.486920803785324097e-03,-5.081967264413833618e-02,6.133781373500823975e-02,8.974961005151271820e-03,-1.736188828945159912e-01,-7.488790154457092285e-02,1.158351227641105652e-01,3.390664979815483093e-02,1.830496788024902344e-01,-4.675193503499031067e-02,-3.839489072561264038e-02,-1.334850192070007324e-01,-1.363952737301588058e-02,9.892824105918407440e-03,5.884311348199844360e-02,-1.331723388284444809e-02,4.796323180198669434e-02,3.930413722991943359e-02,-7.746415678411722183e-03,2.257649227976799011e-02,-1.598543860018253326e-02,-1.869158744812011719e-01,-1.713110506534576416e-01,8.196170628070831299e-02,-1.904352307319641113e-01,8.774272352457046509e-02
-8.277715742588043213e-02,-2.412047237157821655e-02,1.368390172719955444e-01,-1.597613841295242310e-02,5.286718718707561493e-03,-1.964272558689117432e-02,-9.588538110256195068e-02,-1.064359769225120544e-01,-1.432679444551467896e-01,-7.505078613758087158e-02,-5.788046866655349731e-02,6.636729091405868530e-02,-8.256431668996810913e-02,4.453618824481964111e-02,1.123648807406425476e-01,3.241288708522915840e-03,7.477757986634969711e-03,2.443642616271972656e-01,5.957958474755287170e-02,-1.683301180601119995e-01,7.453280687332153320e-02,-1.418854445219039917e-01,-9.036424756050109863e-02,8.107409626245498657e-02,-6.843337416648864746e-02,-8.222462236881256104e-02,1.794158713892102242e-03,4.551285132765769958e-02,1.064027845859527588e-01,8.668886870145797729e-02,-7.872252911329269409e-02,2.654260769486427307e-02,9.659267961978912354e-02,3.290306404232978821e-02,6.097461283206939697e-02,8.097156882286071777e-02,-7.791458815336227417e-02,-1.056772172451019287e-01,4.449286684393882751e-02,6.877781450748443604e-02,1.554738879203796387e-01,-9.660667926073074341e-02,1.054269969463348389e-01,2.050975561141967773e-01,1.146687492728233337e-01,-8.601795136928558350e-02,-1.342766880989074707e-01,5.314623937010765076e-02,-2.371776849031448364e-01,-8.001674897968769073e-03,-7.324697822332382202e-02,-7.106433063745498657e-02,-1.410312205553054810e-01,-2.675392329692840576e-01,3.113278374075889587e-02,1.931062489748001099e-01,1.594825983047485352e-01,1.478811353445053101e-01,1.343564689159393311e-02,3.659354522824287415e-02,1.243008971214294434e-01,-7.642897963523864746e-02,2.153469063341617584e-02,-3.707784786820411682e-02,1.170380711555480957e-01,3.855525702238082886e-02,5.860302597284317017e-02,9.567590802907943726e-02,8.213306963443756104e-02,1.110541075468063354e-01,-1.280197352170944214e-01,-1.599291898310184479e-02,1.677680015563964844e-02,1.186177060008049011e-01,-1.641660928726196289e-01,9.045463800430297852e-02,-6.721606105566024780e-02,1.848434507846832275e-01,1.415873318910598755e-01,2.996528893709182739e-02,5.320863053202629089e-02,1.728118062019348145e-01,-1.805433630943298340e-01,1.250885874032974243e-01,-8.103648573160171509e-02,-1.322868019342422485e-01,-3.431528341025114059e-03,1.115902960300445557e-01,9.557048231363296509e-02,6.473488360643386841e-02,-5.334968119859695435e-02,-1.151056308299303055e-02,-3.366897255182266235e-02,-3.393863141536712646e-02,-2.775199897587299347e-02,-8.750487864017486572e-02,-1.269069314002990723e-01,1.148998271673917770e-03,-3.144232928752899170e-02,3.521615639328956604e-02,2.546023726463317871e-01,8.386668562889099121e-02,-4.784249141812324524e-02,4.225257039070129395e-02,-1.161319091916084290e-01,4.706629365682601929e-02,3.201287686824798584e-01,3.275270015001296997e-02,-3.315981477499008179e-02,-1.316448152065277100e-01,3.864724189043045044e-02,-3.314391896128654480e-02,1.921547651290893555e-01,-1.099665239453315735e-01,-8.422521501779556274e-02,-1.033545657992362976e-01,-1.263708174228668213e-01,1.260605733841657639e-02,-1.497780829668045044e-01,-6.914045661687850952e-02,-4.329428449273109436e-02,7.996077090501785278e-02,-2.476033121347427368e-01,5.466021969914436340e-02,8.527874015271663666e-03,3.005529940128326416e-02,5.414798110723495483e-02,-6.923197954893112183e-02
1.372340917587280273e-01,-9.215939044952392578e-02,-1.398725342005491257e-02,-1.461598724126815796e-01,1.335439682006835938e-01,3.021834790706634521e-01,-7.267272472381591797e-02,-1.624752432107925415e-01,1.486637592315673828e-01,5.335081368684768677e-02,7.900880277156829834e-02,-1.123915389180183411e-01,-2.077645212411880493e-01,-6.347632501274347305e-03,-1.286851987242698669e-02,1.781787276268005371e-01,-9.785582870244979858e-02,9.843460470438003540e-02,9.567217901349067688e-03,2.045104652643203735e-02,-7.192160189151763916e-02,-6.038807705044746399e-02,9.521756321191787720e-02,-9.429588168859481812e-02,-1.042422950267791748e-01,2.363164536654949188e-02,1.259061414748430252e-02,1.729747205972671509e-01,-2.062214910984039307e-01,-7.769668102264404297e-02,-9.034018218517303467e-02,-2.050086110830307007e-01,2.276282608509063721e-01,1.078571006655693054e-01,-3.996365144848823547e-02,6.425049901008605957e-02,-8.509172499179840088e-02,-1.367739289999008179e-01,1.485543046146631241e-02,-6.291282922029495239e-02,-9.193118661642074585e-02,-4.173367470502853394e-02,-1.834574490785598755e-01,1.585395336151123047e-01,-2.277329377830028534e-02,4.385742917656898499e-02,6.001116707921028137e-02,-1.670565903186798096e-01,-2.716398984193801880e-02,-1.331699192523956299e-01,8.565822243690490723e-02,1.920624524354934692e-01,-6.665349751710891724e-02,-1.623446494340896606e-01,8.475183695554733276e-02,3.075304254889488220e-02,1.750932447612285614e-02,5.973285064101219177e-02,1.541803777217864990e-01,-7.017197459936141968e-02,2.281081229448318481e-01,1.623215973377227783e-01,-7.738945633172988892e-02,1.702924668788909912e-01,1.157981976866722107e-01,-1.765174120664596558e-01,7.044723629951477051e-02,7.592012733221054077e-02,2.071526348590850830e-01,1.068667769432067871e-01,-5.406997725367546082e-02,5.947186797857284546e-02,-1.739385537803173065e-02,-4.588693380355834961e-03,1.145913004875183105e-01,-2.702520787715911865e-02,1.239209473133087158e-01,1.633685976266860962e-01,4.829134419560432434e-02,-7.763964682817459106e-02,-3.316352516412734985e-02,2.184518240392208099e-02,-2.067670673131942749e-01,1.139552369713783264e-01,-8.664999902248382568e-02,-7.367622107267379761e-02,-3.460516780614852905e-02,2.826823480427265167e-02,8.201100677251815796e-02,1.614540070295333862e-01,9.566341340541839600e-02,-1.455552317202091217e-02,-8.696816861629486084e-02,-2.118378318846225739e-02,3.641273826360702515e-02,9.911940991878509521e-02,1.546241194009780884e-01,-3.119683358818292618e-03,-1.060335934162139893e-01,-2.456457540392875671e-02,9.502359479665756226e-02,7.828797399997711182e-02,3.294571042060852051e-01,-1.355562657117843628e-01,-3.763998672366142273e-02,-3.990019671618938446e-03,6.468927860260009766e-02,5.978520214557647705e-02,-2.870166301727294922e-02,1.241552829742431641e-01,-1.605755388736724854e-01,2.559260427951812744e-01,7.762908935546875000e-02,-1.044850982725620270e-02,8.596289902925491333e-02,9.433111548423767090e-02,-3.333388268947601318e-02,5.149458721280097961e-02,-1.739962212741374969e-02,-1.500645130872726440e-01,1.097408905625343323e-01,-1.428741812705993652e-01,2.233265936374664307e-01,8.928617089986801147e-02,4.910325258970260620e-02,1.683203577995300293e-01,4.926032200455665588e-02,1.103711873292922974e-01
-1.594798266887664795e-01,1.678923815488815308e-01,1.651107519865036011e-01,1.017815899103879929e-03,-1.939272880554199219e-01,-7.677290588617324829e-02,1.136462166905403137e-01,2.237162292003631592e-01,-9.979641437530517578e-02,-4.537125676870346069e-02,-4.057523608207702637e-02,-1.025162041187286377e-01,-1.225980594754219055e-01,7.366226613521575928e-02,-1.408450752496719360e-01,2.161194104701280594e-03,-1.025964692234992981e-01,-1.401252485811710358e-02,1.370332390069961548e-01,3.470842726528644562e-03,1.256821155548095703e-01,7.017694413661956787e-02,-1.275208890438079834e-01,3.513845801353454590e-02,1.444195806980133057e-01,-4.134328104555606842e-03,2.761886641383171082e-02,6.957469135522842407e-02,1.150701344013214111e-01,1.009863466024398804e-01,1.144592240452766418e-01,7.665907591581344604e-02,3.721463680267333984e-02,-2.732175886631011963e-01,-6.494095921516418457e-02,-2.256133034825325012e-02,3.642321005463600159e-02,5.455986782908439636e-02,-4.989943280816078186e-02,5.256465822458267212e-02,-1.144579797983169556e-02,1.444159150123596191e-01,-7.322733104228973389e-02,-4.536880552768707275e-02,2.836010791361331940e-02,-1.015012040734291077e-01,-2.680101804435253143e-02,-2.439060807228088379e-02,-1.127003878355026245e-01,-1.459608823060989380e-01,1.416635960340499878e-01,2.028125077486038208e-01,-6.762450188398361206e-02,1.145777031779289246e-01,-6.283332593739032745e-03,-2.213564515113830566e-01,-3.216402530670166016e-01,5.673514679074287415e-02,8.220652118325233459e-03,1.806548088788986206e-01,2.310407161712646484e-02,-2.376534976065158844e-02,-1.196592487394809723e-02,-1.538139730691909790e-01,9.031985700130462646e-02,5.626990273594856262e-02,-4.733233898878097534e-02,-1.348002851009368896e-01,-5.765325948596000671e-02,-1.699641942977905273e-01,-3.456265851855278015e-02,1.900931447744369507e-01,-7.901623845100402832e-02,-3.040763549506664276e-02,-5.328164622187614441e-02,9.892792254686355591e-02,2.533140126615762711e-03,-1.378118991851806641e-01,-1.394978910684585571e-01,1.343337297439575195e-01,-6.604462116956710815e-02,-6.838762015104293823e-02,2.622823119163513184e-01,1.031342800706624985e-02,3.076896257698535919e-02,-4.981910809874534607e-02,3.047323971986770630e-02,2.242315560579299927e-01,1.522070169448852539e-01,7.621648162603378296e-02,-1.051282137632369995e-01,-2.138441354036331177e-01,-9.431268274784088135e-02,1.338728005066514015e-03,-1.580059411935508251e-03,-4.776388034224510193e-02,-8.478230983018875122e-02,-1.204253211617469788e-01,-2.505353093147277832e-01,-1.378581076860427856e-01,-5.915805324912071228e-02,3.648131713271141052e-02,-7.030551880598068237e-02,-3.297608718276023865e-02,1.003903895616531372e-01,5.680871382355690002e-02,-1.376318633556365967e-01,4.017286002635955811e-02,1.177091822028160095e-01,3.852846100926399231e-02,1.026515513658523560e-01,2.162461169064044952e-02,-9.119842201471328735e-02,-6.949515547603368759e-03,-3.407098352909088135e-02,-2.496040798723697662e-02,2.511093616485595703e-01,-1.396716535091400146e-01,7.442326098680496216e-02,1.567318290472030640e-01,-1.148476675152778625e-01,-2.780092135071754456e-02,-3.838628530502319336e-02,-4.707621783018112183e-02,-1.278411448001861572e-01,9.649857878684997559e-02,1.297734975814819336e-01,-9.693976491689682007e-02
-1.960403174161911011e-01,-1.360186040401458740e-01,4.645825549960136414e-02,-5.277006700634956360e-02,2.337676286697387695e-02,1.663175076246261597e-01,-2.604945600032806396e-01,-7.742691785097122192e-02,1.986216455698013306e-01,1.965081542730331421e-01,-7.820174098014831543e-02,-1.526142843067646027e-02,-2.639516443014144897e-02,1.503317058086395264e-01,6.929299980401992798e-02,-2.886550873517990112e-02,7.287127524614334106e-02,5.832882970571517944e-02,7.933142036199569702e-02,3.529212251305580139e-02,3.045666217803955078e-02,-2.940673008561134338e-02,-1.649996787309646606e-01,5.319805070757865906e-02,7.906134705990552902e-04,-1.305623799562454224e-01,4.876079782843589783e-02,-1.115352511405944824e-01,-1.278700977563858032e-01,8.674643188714981079e-02,2.003066688776016235e-01,-1.122908666729927063e-02,-7.791301608085632324e-02,-1.124125570058822632e-01,1.779246181249618530e-01,-1.846998557448387146e-02,2.272617816925048828e-02,-1.469892542809247971e-02,1.765470802783966064e-01,-2.818826138973236084e-01,1.835058927536010742e-01,-8.415966480970382690e-02,2.563437446951866150e-02,-7.987420260906219482e-02,-1.571564748883247375e-02,-1.649166047573089600e-01,-1.735502295196056366e-02,2.895752489566802979e-01,8.481487631797790527e-02,-4.298803955316543579e-02,1.216411069035530090e-01,6.826992332935333252e-02,-9.792307019233703613e-02,6.953943520784378052e-02,-1.405004113912582397e-01,1.833802312612533569e-01,-6.989049911499023438e-02,-1.106575056910514832e-01,-5.344871431589126587e-02,-9.835995733737945557e-02,-4.316774755716323853e-02,3.298050165176391602e-02,3.233751654624938965e-02,-4.018929228186607361e-02,-1.876090615987777710e-01,1.148179993033409119e-01,-5.747171118855476379e-02,-2.041531503200531006e-01,-5.720390472561120987e-03,-1.055674552917480469e-01,1.628537178039550781e-01,-1.281642466783523560e-01,-3.856912255287170410e-02,9.178484231233596802e-02,-1.346814781427383423e-01,-1.159319207072257996e-01,8.972763270139694214e-02,-1.036897078156471252e-01,-1.158264949917793274e-01,-4.273051396012306213e-03,7.270850986242294312e-02,4.725898057222366333e-02,-1.702707558870315552e-01,4.549355432391166687e-02,-1.074894815683364868e-01,-6.844298541545867920e-02,7.325745187699794769e-03,-1.569836214184761047e-02,-4.963079467415809631e-02,1.879791468381881714e-01,6.051202863454818726e-02,-1.829404979944229126e-01,1.298756711184978485e-02,1.256043016910552979e-01,-5.034723319113254547e-03,2.832697927951812744e-01,3.996337205171585083e-02,4.575139656662940979e-02,2.246481627225875854e-01,-5.543576553463935852e-02,5.608372017741203308e-02,6.038144603371620178e-02,-2.798518538475036621e-01,5.415311455726623535e-02,-1.723547279834747314e-01,1.783887483179569244e-02,1.242867484688758850e-01,1.818500459194183350e-01,8.480520918965339661e-03,2.716365270316600800e-02,-2.139223963022232056e-01,2.892735600471496582e-02,-1.449002921581268311e-01,-1.425800323486328125e-01,-4.512800648808479309e-02,-1.447472572326660156e-01,-7.358871400356292725e-02,-1.044503003358840942e-01,3.121270239353179932e-02,-4.306067526340484619e-02,1.046385839581489563e-01,1.370641589164733887e-01,-1.682091802358627319e-01,6.758903712034225464e-02,1.312973201274871826e-01,9.720630012452602386e-03,1.598345786333084106e-01,1.746694743633270264e-02
-4.689482599496841431e-02,-5.698103085160255432e-02,2.055115103721618652e-01,2.431682497262954712e-02,-1.360786706209182739e-01,1.650178432464599609e-02,1.609269976615905762e-01,3.612864017486572266e-02,-1.236460208892822266e-01,-4.629662260413169861e-02,1.321312487125396729e-01,-1.900252103805541992e-01,1.705467104911804199e-01,-6.747913360595703125e-02,-1.570927947759628296e-01,9.922946244478225708e-02,-1.904040575027465820e-01,1.141308546066284180e-01,6.089156493544578552e-02,2.268810989335179329e-03,2.881794050335884094e-02,-3.436640277504920959e-02,4.110099002718925476e-02,-9.586981683969497681e-02,2.693822048604488373e-02,-2.281749993562698364e-02,-3.835166618227958679e-02,1.946389824151992798e-01,-6.306909769773483276e-02,6.841877102851867676e-02,-2.110281959176063538e-02,-1.055079977959394455e-02,-5.176243185997009277e-02,-8.833182603120803833e-02,2.848652377724647522e-02,-1.621159911155700684e-01,-1.144566833972930908e-01,1.203687023371458054e-02,1.815479807555675507e-02,-4.104989767074584961e-02,-5.182562395930290222e-02,-9.458329528570175171e-02,-7.435615360736846924e-02,-1.287799328565597534e-01,1.348121613264083862e-01,-1.465001050382852554e-02,1.601098775863647461e-01,-2.639021910727024078e-02,2.464685589075088501e-01,1.633903384208679199e-01,-1.677173003554344177e-02,-7.672364264726638794e-02,1.932725869119167328e-02,-9.355898946523666382e-02,-8.870379626750946045e-02,-5.252826213836669922e-02,5.327097699046134949e-02,-9.757123887538909912e-02,-2.921884320676326752e-02,-1.558763254433870316e-02,2.078340761363506317e-02,-1.155669391155242920e-01,1.650589853525161743e-01,-2.339280545711517334e-01,-9.825298190116882324e-02,-6.790971010923385620e-02,-1.560370344668626785e-02,-6.298954784870147705e-02,4.890457913279533386e-02,-1.001664325594902039e-01,-1.326124817132949829e-01,1.080227568745613098e-01,6.745354086160659790e-02,-2.147379517555236816e-01,1.453345362097024918e-02,-8.024967461824417114e-02,2.220644950866699219e-01,-1.010852977633476257e-01,1.394872814416885376e-01,-2.606883458793163300e-02,-8.278431743383407593e-02,1.950777135789394379e-02,9.207036346197128296e-02,5.672562122344970703e-02,2.126520313322544098e-02,1.513456087559461594e-02,-9.739066660404205322e-02,9.634365886449813843e-02,-1.850630901753902435e-02,-4.647380858659744263e-02,-5.139552056789398193e-02,1.628541201353073120e-01,-2.112448513507843018e-01,1.247991472482681274e-01,-1.238474845886230469e-01,-7.511675357818603516e-02,1.850158907473087311e-02,6.062171608209609985e-02,2.062104493379592896e-01,-2.332817316055297852e-01,-8.559899404644966125e-03,1.801219768822193146e-02,-9.975897520780563354e-02,5.161538720130920410e-02,1.947866529226303101e-01,2.311386168003082275e-02,2.631273120641708374e-03,-6.793302483856678009e-03,6.995666772127151489e-02,-5.049478262662887573e-03,1.347050420008599758e-03,-2.095134705305099487e-01,1.153135076165199280e-01,1.905528008937835693e-01,6.783707439899444580e-02,-8.515152335166931152e-02,-1.133498921990394592e-02,-5.046162381768226624e-02,-2.490255236625671387e-02,-7.439724355936050415e-02,8.033768087625503540e-02,5.700449645519256592e-02,6.506706774234771729e-02,-4.956359043717384338e-02,3.977877274155616760e-02,-7.998043298721313477e-02,-1.829322800040245056e-02,-1.535619348287582397e-01
