-1.669138967990875244e-01
8.730075322091579437e-03
-1.176397055387496948e-01
5.552929360419511795e-03
-1.357785463333129883e-01
5.933320522308349609e-02
-9.319707751274108887e-02
-1.731674559414386749e-02
1.175543665885925293e-02
2.737876959145069122e-02
1.637185737490653992e-02
-2.087450353428721428e-03
3.969692159444093704e-03
1.021967306733131409e-01
-1.158803477883338928e-01
5.470335483551025391e-02
4.385752603411674500e-02
-7.550151553004980087e-03
-1.013249009847640991e-01
1.405584439635276794e-02
8.784861862659454346e-02
1.038863696157932281e-02
3.125204518437385559e-02
-5.741057544946670532e-02
-1.073721721768379211e-01
8.447146974503993988e-03
-1.841910481452941895e-01
6.238786876201629639e-02
7.735297083854675293e-02
7.640756666660308838e-03
7.035212591290473938e-03
1.840726844966411591e-02
-5.156283080577850342e-02
-3.777125477790832520e-02
-6.486746016889810562e-03
1.687896549701690674e-01
-8.976023644208908081e-02
-8.075676159933209419e-04
-3.408487886190414429e-02
-1.585800796747207642e-01
3.916041925549507141e-02
1.411496102809906006e-01
-1.379937082529067993e-01
6.840619444847106934e-02
-4.332709684967994690e-02
-4.365520086139440536e-03
-1.308797746896743774e-01
1.144825145602226257e-01
4.519811272621154785e-02
4.399556666612625122e-02
2.102689631283283234e-02
-4.840335750486701727e-04
-2.040706574916839600e-03
5.195785686373710632e-02
9.522932022809982300e-02
5.194906145334243774e-02
-3.985190019011497498e-02
2.693302929401397705e-02
5.262527614831924438e-02
1.468767179176211357e-03
5.571465473622083664e-03
-7.234671711921691895e-02
2.013376168906688690e-02
4.973167181015014648e-02
5.390308052301406860e-02
-1.311799138784408569e-01
6.050650030374526978e-02
-6.157517060637474060e-02
8.468504250049591064e-02
5.069268867373466492e-02
1.412988603115081787e-01
6.211209110915660858e-03
-1.471195518970489502e-01
1.787092350423336029e-02
7.463387399911880493e-02
-1.249661203473806381e-02
2.368335053324699402e-02
-4.200644791126251221e-03
8.726605214178562164e-03
2.253740653395652771e-02
4.250752180814743042e-02
1.296105235815048218e-02
-6.608905643224716187e-02
-1.001114398241043091e-01
1.543555706739425659e-01
-3.743203729391098022e-02
-5.971755832433700562e-03
-4.562982171773910522e-02
1.978093385696411133e-02
-1.262285560369491577e-02
-3.156675025820732117e-02
5.039284005761146545e-02
2.081957878544926643e-03
1.477703452110290527e-01
4.284786805510520935e-02
5.796983093023300171e-02
-1.160842329263687134e-01
-6.859903782606124878e-02
-1.672116219997406006e-01
-4.187879338860511780e-02
-4.559467360377311707e-02
9.306357242166996002e-04
-1.426548510789871216e-01
-5.680617690086364746e-02
-7.912900298833847046e-02
3.420267254114151001e-03
-1.603260636329650879e-01
-1.339464485645294189e-01
-3.387809498235583305e-03
3.013336472213268280e-02
1.496615260839462280e-01
3.774419054388999939e-02
-1.091372147202491760e-01
1.451423913240432739e-01
-6.263582408428192139e-02
4.468863364309072495e-03
2.543241344392299652e-02
6.013939622789621353e-03
-8.650257252156734467e-03
5.296273157000541687e-03
-7.155145518481731415e-03
-1.563729345798492432e-01
-7.518122345209121704e-02
8.536777645349502563e-02
-1.253375411033630371e-01
7.996817678213119507e-02
9.420824050903320312e-02
1.029168739914894104e-01
