0.00970725249499082565307617188
-0.02033821307122707366943359375
-0.01970362663269042968750000000
0.09302364289760589599609375000
-0.03774489089846611022949218750
0.03839575499296188354492187500
0.08842179924249649047851562500
-0.02120060659945011138916015625
-0.00884881149977445602416992188
0.01493891049176454544067382812
0.01554794609546661376953125000
-0.00387469818815588951110839844
-0.05185337737202644348144531250
0.04935327917337417602539062500
-0.01068203244358301162719726562
0.03864021599292755126953125000
0.02434389665722846984863281250
0.01457547768950462341308593750
-0.03844488784670829772949218750
0.03317904472351074218750000000
0.00061756989452987909317016602
-0.06448759138584136962890625000
-0.11165008693933486938476562500
-0.06537507474422454833984375000
0.01486132293939590454101562500
0.10626570135354995727539062500
-0.03444704413414001464843750000
-0.02733837626874446868896484375
0.11406892538070678710937500000
0.02293602190911769866943359375
-0.03928161785006523132324218750
-0.07359492033720016479492187500
0.05680992454290390014648437500
-0.05255400389432907104492187500
0.02784510701894760131835937500
-0.04386796802282333374023437500
-0.03977952152490615844726562500
0.08404749631881713867187500000
-0.06132638081908226013183593750
-0.09611701220273971557617187500
-0.06168591603636741638183593750
-0.00509029813110828399658203125
-0.09039235115051269531250000000
-0.02758551761507987976074218750
-0.07192248851060867309570312500
-0.06587900966405868530273437500
0.08579387515783309936523437500
0.02595250122249126434326171875
-0.05801836773753166198730468750
-0.07858523726463317871093750000
-0.00803945027291774749755859375
-0.00101935199927538633346557617
-0.01150077767670154571533203125
0.02319537848234176635742187500
0.12765060365200042724609375000
-0.07404059916734695434570312500
-0.04502750560641288757324218750
-0.09695129096508026123046875000
-0.01471183169633150100708007812
0.02901017852127552032470703125
0.08514977246522903442382812500
0.11353424936532974243164062500
-0.05596511811017990112304687500
-0.03668760508298873901367187500
-0.03292210400104522705078125000
0.03911476954817771911621093750
-0.00839509069919586181640625000
0.02828168310225009918212890625
0.00956936553120613098144531250
0.05268388986587524414062500000
-0.02910304814577102661132812500
0.05710460990667343139648437500
0.01299533061683177947998046875
0.07913625985383987426757812500
0.05883375182747840881347656250
0.01627355813980102539062500000
-0.09867779165506362915039062500
0.06823435425758361816406250000
0.00222374615259468555450439453
-0.08574441075325012207031250000
-0.04339142888784408569335937500
-0.00264590769074857234954833984
0.07154984772205352783203125000
0.00857437960803508758544921875
-0.07027053087949752807617187500
0.07876971364021301269531250000
0.07433638721704483032226562500
-0.08129607141017913818359375000
-0.04307030886411666870117187500
-0.09800954908132553100585937500
0.08548622578382492065429687500
0.03033382259309291839599609375
0.09461125731468200683593750000
-0.02780036814510822296142578125
-0.07501307129859924316406250000
0.00703493878245353698730468750
0.05726201832294464111328125000
0.08202479034662246704101562500
-0.01453056000173091888427734375
0.07531249523162841796875000000
0.03098901361227035522460937500
0.06705491244792938232421875000
-0.03218413144350051879882812500
-0.00974406115710735321044921875
-0.02685720473527908325195312500
0.01607756689190864562988281250
-0.00524742156267166137695312500
-0.01347576733678579330444335938
-0.00422343518584966659545898438
-0.10557726770639419555664062500
-0.14580406248569488525390625000
-0.00182628678157925605773925781
-0.03887290135025978088378906250
-0.01092538237571716308593750000
-0.05021930858492851257324218750
0.02400807291269302368164062500
0.05034035444259643554687500000
-0.01609158143401145935058593750
-0.11273711174726486206054687500
-0.01352158375084400177001953125
0.12420804798603057861328125000
0.04601301997900009155273437500
0.13627444207668304443359375000
0.02648844383656978607177734375
-0.10567022860050201416015625000
0.01295530702918767929077148438
-0.12638249993324279785156250000
0.03009944222867488861083984375
0.03741320967674255371093750000
0.09424328804016113281250000000
0.00349213858135044574737548828
0.06519764661788940429687500000
-0.08042677491903305053710937500
-0.01701301150023937225341796875
-0.03963417187333106994628906250
0.02096916176378726959228515625
-0.02152740024030208587646484375
0.00074316910468041896820068359
-0.01974322274327278137207031250
-0.02610769122838973999023437500
0.05578529834747314453125000000
0.07869692146778106689453125000
-0.01014511939138174057006835938
-0.01216091588139533996582031250
-0.05425032228231430053710937500
0.07173089683055877685546875000
0.00234392355196177959442138672
-0.01830474287271499633789062500
-0.05565536022186279296875000000
-0.14935827255249023437500000000
-0.07006619870662689208984375000
0.01244960259646177291870117188
0.03676526993513107299804687500
0.08059944957494735717773437500
0.04364099726080894470214843750
-0.07678976655006408691406250000
0.05503759533166885375976562500
0.06152510643005371093750000000
0.00198825262486934661865234375
-0.06212551146745681762695312500
-0.02496083453297615051269531250
0.02302259765565395355224609375
0.02043924294412136077880859375
-0.05014906451106071472167968750
0.02326679602265357971191406250
0.06480088829994201660156250000
-0.02060429379343986511230468750
0.02764194086194038391113281250
-0.02338024042546749114990234375
-0.04222432523965835571289062500
-0.03202928230166435241699218750
0.03267215564846992492675781250
0.02423104457557201385498046875
-0.06218789517879486083984375000
-0.00973673071712255477905273438
0.00336016132496297359466552734
0.04596756771206855773925781250
-0.00222697411663830280303955078
0.06632726639509201049804687500
0.01350486278533935546875000000
-0.06660784035921096801757812500
0.00256112474016845226287841797
-0.07339750975370407104492187500
-0.12022041529417037963867187500
-0.09926792234182357788085937500
-0.07831347733736038208007812500
-0.01305273640900850296020507812
0.02184784226119518280029296875
-0.02041758038103580474853515625
-0.08697945624589920043945312500
0.00667457655072212219238281250
0.03447961062192916870117187500
0.01276081148535013198852539062
0.04588145390152931213378906250
0.07187233865261077880859375000
0.01134190242737531661987304688
0.02417872473597526550292968750
0.00064546498470008373260498047
-0.05938450247049331665039062500
0.02198106795549392700195312500
-0.00863126944750547409057617188
-0.03229232504963874816894531250
-0.03233096003532409667968750000
0.03195407241582870483398437500
-0.17646962404251098632812500000
-0.01497065648436546325683593750
0.02478184551000595092773437500
-0.00016636072541587054729461670
-0.02250359021127223968505859375
0.07542008161544799804687500000
-0.05619309470057487487792968750
-0.05729125812649726867675781250
0.00518090697005391120910644531
0.02453454770147800445556640625
0.10544186085462570190429687500
-0.01512055005878210067749023438
0.02914060279726982116699218750
0.05622993409633636474609375000
-0.05841639637947082519531250000
-0.04199124500155448913574218750
0.04973006248474121093750000000
-0.03250776231288909912109375000
-0.00556239765137434005737304688
-0.01552511751651763916015625000
0.07156216353178024291992187500
0.06585000455379486083984375000
-0.03325642645359039306640625000
0.00751035055145621299743652344
0.09571651369333267211914062500
0.04572587460279464721679687500
0.04030487313866615295410156250
-0.05843536183238029479980468750
0.04920024424791336059570312500
-0.02841974794864654541015625000
-0.00579077657312154769897460938
-0.02108338661491870880126953125
-0.03749372810125350952148437500
0.01320352684706449508666992188
0.05273459851741790771484375000
-0.02465074509382247924804687500
0.03457473963499069213867187500
0.00510824890807271003723144531
-0.01968361809849739074707031250
0.07911805808544158935546875000
0.02937084808945655822753906250
0.06659558415412902832031250000
0.02864436060190200805664062500
-0.05304255709052085876464843750
-0.12568266689777374267578125000
-0.00552848959341645240783691406
-0.06521693617105484008789062500
0.09961891174316406250000000000
0.08970373868942260742187500000
-0.01362869050353765487670898438
-0.06093863025307655334472656250
-0.00897560920566320419311523438
0.04496401548385620117187500000
0.02376542612910270690917968750
-0.02866701222956180572509765625
-0.00576701248064637184143066406
-0.01900178007781505584716796875
-0.06143502518534660339355468750
-0.03325118497014045715332031250
-0.00619027623906731605529785156
0.02131977304816246032714843750
0.00747853098437190055847167969
0.02554709278047084808349609375
0.00918108224868774414062500000
-0.02120418101549148559570312500
-0.04633253440260887145996093750
-0.04264249652624130249023437500
0.04055865481495857238769531250
0.02657350152730941772460937500
-0.00220632669515907764434814453
-0.00132558040786534547805786133
0.02779874019324779510498046875
-0.03601650148630142211914062500
-0.02723970450460910797119140625
-0.01266004703938961029052734375
0.01545439008623361587524414062
0.02073846757411956787109375000
-0.00106650975067168474197387695
0.00508721685037016868591308594
-0.07084853202104568481445312500
-0.04102222621440887451171875000
0.02458311058580875396728515625
-0.05637967586517333984375000000
0.01224087830632925033569335938
-0.00295528885908424854278564453
0.11017547547817230224609375000
-0.00363291148096323013305664062
-0.09929338842630386352539062500
-0.02362275123596191406250000000
0.09284324944019317626953125000
0.03991541266441345214843750000
-0.08775250613689422607421875000
0.07176565378904342651367187500
0.01177593320608139038085937500
-0.06612043827772140502929687500
0.01443169265985488891601562500
-0.04196767508983612060546875000
0.06320869177579879760742187500
-0.00209591910243034362792968750
-0.01185049582272768020629882812
0.23076105117797851562500000000
0.02544455043971538543701171875
0.02044102363288402557373046875
-0.00409693503752350807189941406
-0.04986640438437461853027343750
0.02679621055722236633300781250
-0.01866314001381397247314453125
-0.00073140504537150263786315918
-0.06182661280035972595214843750
-0.00913760438561439514160156250
-0.04077267646789550781250000000
0.03493367508053779602050781250
-0.05650543421506881713867187500
-0.04954905062913894653320312500
-0.04330092668533325195312500000
-0.01721991598606109619140625000
0.06880260258913040161132812500
-0.01361554302275180816650390625
-0.02742685377597808837890625000
0.01483207941055297851562500000
-1.25474214553833007812500000000
0.04255935549736022949218750000
-0.01537039875984191894531250000
-0.03991952911019325256347656250
0.04879663512110710144042968750
-0.03789747506380081176757812500
0.02548415958881378173828125000
-0.00574067048728466033935546875
-0.57434219121932983398437500000
-0.01739772781729698181152343750
-0.02858333848416805267333984375
-0.12827636301517486572265625000
0.12762333452701568603515625000
-0.01042203698307275772094726562
0.02468311786651611328125000000
-0.01959802210330963134765625000
-0.01011271867901086807250976562
0.06442246586084365844726562500
0.01338706351816654205322265625
-0.04650869593024253845214843750
-0.07256188988685607910156250000
0.15950907766819000244140625000
-0.01339963078498840332031250000
0.04196344316005706787109375000
0.03480271622538566589355468750
-0.06962104141712188720703125000
0.01006100513041019439697265625
0.05186287686228752136230468750
-0.09112374484539031982421875000
0.04799701273441314697265625000
0.02200254239141941070556640625
0.00911839492619037628173828125
0.08696196228265762329101562500
-0.04532429948449134826660156250
0.00456725573167204856872558594
-0.04978068545460700988769531250
0.01942205429077148437500000000
-0.01725458726286888122558593750
-0.01540106534957885742187500000
-0.01962168328464031219482421875
-0.04797497391700744628906250000
-0.03100162185728549957275390625
0.03889720886945724487304687500
0.08265840262174606323242187500
0.01395357679575681686401367188
-0.02020014636218547821044921875
0.11804336309432983398437500000
-0.05297941341996192932128906250
0.08377666771411895751953125000
-0.03088044188916683197021484375
-0.03377846628427505493164062500
0.08117264509201049804687500000
-0.00494979508221149444580078125
0.03703248128294944763183593750
0.01884346455335617065429687500
0.00534778274595737457275390625
0.05811539664864540100097656250
0.02373969741165637969970703125
0.00069563282886520028114318848
-0.00041122842230834066867828369
-0.00598950544372200965881347656
-0.06469466537237167358398437500
0.22310613095760345458984375000
0.03306439891457557678222656250
0.04219407215714454650878906250
0.02163720689713954925537109375
0.00085930450586602091789245605
0.20942607522010803222656250000
-0.03130577504634857177734375000
-0.02306836098432540893554687500
0.06694193184375762939453125000
0.02854297868907451629638671875
-0.08171185106039047241210937500
-0.10918033123016357421875000000
0.12776987254619598388671875000
-0.02905320562422275543212890625
-0.03145042061805725097656250000
0.24404157698154449462890625000
0.00850288663059473037719726562
-0.03379660844802856445312500000
-0.02830041386187076568603515625
0.05565765500068664550781250000
0.05671013146638870239257812500
-0.03066859208047389984130859375
-0.14502269029617309570312500000
0.00575724197551608085632324219
0.04787096381187438964843750000
-0.01798597350716590881347656250
0.06683917343616485595703125000
0.05504582822322845458984375000
0.23995082080364227294921875000
-0.02954155020415782928466796875
0.05086263641715049743652343750
0.00341258919797837734222412109
-0.10522715747356414794921875000
-0.06907920539379119873046875000
0.00039022651617415249347686768
-0.02137251198291778564453125000
0.03783022612333297729492187500
0.08001811057329177856445312500
-0.01731713116168975830078125000
-0.01654605194926261901855468750
0.22219504415988922119140625000
0.05600353330373764038085937500
-0.01021958515048027038574218750
-0.03932168707251548767089843750
0.19265681505203247070312500000
0.03136146068572998046875000000
-0.20597153902053833007812500000
-0.11969900876283645629882812500
-0.02588608115911483764648437500
0.08845996111631393432617187500
-0.01761545985937118530273437500
-0.04605408385396003723144531250
-0.02666484564542770385742187500
-0.02074047364294528961181640625
-0.04713296890258789062500000000
-0.17608678340911865234375000000
-0.00344039592891931533813476562
-0.13988411426544189453125000000
0.08015532791614532470703125000
0.02042326331138610839843750000
0.08862890303134918212890625000
-0.02350500971078872680664062500
-0.04293572902679443359375000000
0.05247975140810012817382812500
-0.03193484619259834289550781250
-0.09496806561946868896484375000
-0.04936308786273002624511718750
-0.00225789961405098438262939453
0.06621662527322769165039062500
0.04986557736992835998535156250
-0.01282876357436180114746093750
0.03435016795992851257324218750
0.01461928617209196090698242188
-0.11300432682037353515625000000
-0.07136774808168411254882812500
-0.01555806212127208709716796875
0.03852589800953865051269531250
0.09131750464439392089843750000
-0.14139719307422637939453125000
0.10298913717269897460937500000
0.10524832457304000854492187500
0.03792552277445793151855468750
-0.13989071547985076904296875000
0.02419839985668659210205078125
-0.00351551710627973079681396484
0.03051333129405975341796875000
0.01038551051169633865356445312
-0.12425040453672409057617187500
0.00604661228135228157043457031
-0.01567678526043891906738281250
-0.06866451352834701538085937500
-0.02059899270534515380859375000
0.02319457940757274627685546875
-0.09305651485919952392578125000
0.04027172178030014038085937500
0.02229120023548603057861328125
0.00712102465331554412841796875
0.10599391907453536987304687500
-0.08249530941247940063476562500
0.05778831616044044494628906250
0.07021441310644149780273437500
0.13156947493553161621093750000
-0.05077802762389183044433593750
-0.04011159017682075500488281250
-0.01272719725966453552246093750
-1.18664932250976562500000000000
0.05173055827617645263671875000
-0.06818656623363494873046875000
0.02144016884267330169677734375
-0.06185229495167732238769531250
0.01342855487018823623657226562
0.06759417802095413208007812500
-0.08549749851226806640625000000
0.02685553021728992462158203125
-0.04839767143130302429199218750
0.05008012056350708007812500000
0.02044681459665298461914062500
-0.06926505267620086669921875000
-0.02326318435370922088623046875
0.01233220286667346954345703125
0.06843563169240951538085937500
0.09179923683404922485351562500
0.03041474334895610809326171875
-0.03806914761662483215332031250
-0.04841243848204612731933593750
0.20849190652370452880859375000
0.08156689256429672241210937500
0.05960928648710250854492187500
-0.04763397574424743652343750000
0.04976274818181991577148437500
-0.01394194271415472030639648438
0.01618781872093677520751953125
0.00509591074660420417785644531
0.00480316905304789543151855469
0.04012851417064666748046875000
0.03796374797821044921875000000
0.09038262069225311279296875000
-0.05745734274387359619140625000
0.09573647379875183105468750000
0.14029988646507263183593750000
-0.01087322644889354705810546875
-0.03095023706555366516113281250
-0.06310514360666275024414062500
0.00519718741998076438903808594
-0.04006045684218406677246093750
0.12894061207771301269531250000
0.06614397466182708740234375000
-0.13942061364650726318359375000
0.03788191452622413635253906250
-0.03127508237957954406738281250
0.01571193151175975799560546875
0.04869325459003448486328125000
-0.06223385408520698547363281250
0.01341764163225889205932617188
0.04505961760878562927246093750
-0.06642890721559524536132812500
-0.08294210582971572875976562500
-0.02974053658545017242431640625
-0.04362514987587928771972656250
-0.02080047316849231719970703125
-0.00715390872210264205932617188
0.08416124433279037475585937500
-0.00961788650602102279663085938
-0.10803840309381484985351562500
0.15789528191089630126953125000
-0.16486297547817230224609375000
0.03265950456261634826660156250
-0.19054821133613586425781250000
0.04875811189413070678710937500
-0.09411262720823287963867187500
0.03344166278839111328125000000
0.14913515746593475341796875000
-0.02837498299777507781982421875
-0.02211507223546504974365234375
0.03638466447591781616210937500
0.01259181462228298187255859375
0.03789875656366348266601562500
-0.02864121459424495697021484375
0.01635555736720561981201171875
-0.04621271416544914245605468750
-0.00125678500626236200332641602
-0.08829696476459503173828125000
-0.01748595200479030609130859375
0.10490512102842330932617187500
0.12279945611953735351562500000
0.07088147103786468505859375000
-0.03209702670574188232421875000
0.14473067224025726318359375000
0.05608966201543807983398437500
-0.03666552156209945678710937500
-0.05345088988542556762695312500
0.00987516436725854873657226562
-0.00034899826277978718280792236
0.10303353518247604370117187500
0.06209899485111236572265625000
-0.04431314393877983093261718750
-0.04395995289087295532226562500
0.01401189994066953659057617188
0.02719474583864212036132812500
-0.03197695314884185791015625000
0.01072243414819240570068359375
-0.01133913174271583557128906250
-0.10817841440439224243164062500
0.00659341877326369285583496094
-0.01560510694980621337890625000
-0.16948404908180236816406250000
0.04929626733064651489257812500
-0.11033876985311508178710937500
0.03879920765757560729980468750
-0.08119194954633712768554687500
0.04563956335186958312988281250
0.08708216995000839233398437500
0.04999889433383941650390625000
-0.01845791749656200408935546875
-0.09144546091556549072265625000
-0.08251330256462097167968750000
-0.06957423686981201171875000000
-0.00037648729630745947360992432
0.02749649249017238616943359375
0.11614426970481872558593750000
-0.06179217621684074401855468750
0.12525343894958496093750000000
-0.04282611981034278869628906250
-0.12508796155452728271484375000
0.05923483148217201232910156250
0.07532272487878799438476562500
0.05796422064304351806640625000
-0.07010506093502044677734375000
-0.03508879244327545166015625000
0.03694131225347518920898437500
0.04052537679672241210937500000
0.04728975147008895874023437500
-0.09594450891017913818359375000
0.03229946643114089965820312500
-0.00980272237211465835571289062
-0.00712137855589389801025390625
-0.08931257575750350952148437500
0.02916400134563446044921875000
-0.02382747642695903778076171875
0.00518855825066566467285156250
0.04419905692338943481445312500
-0.10463991761207580566406250000
0.03451801463961601257324218750
0.02768976986408233642578125000
-0.08635053038597106933593750000
0.04821860790252685546875000000
-0.02260419726371765136718750000
-0.05721728876233100891113281250
-0.00201564608141779899597167969
0.00303404498845338821411132812
-0.01198834367096424102783203125
-0.01023169886320829391479492188
-0.00679473904892802238464355469
0.04460443183779716491699218750
-0.02294686250388622283935546875
0.01033957116305828094482421875
-0.01171285379678010940551757812
0.06749111413955688476562500000
-0.03078813292086124420166015625
0.04356900230050086975097656250
0.04673448950052261352539062500
0.07617951929569244384765625000
0.00362144806422293186187744141
-0.01821085996925830841064453125
-0.06039471551775932312011718750
-0.02149835415184497833251953125
-0.05877519398927688598632812500
0.05479434505105018615722656250
0.03969946876168251037597656250
0.04984702169895172119140625000
0.02135235257446765899658203125
0.04294690862298011779785156250
0.03840867802500724792480468750
0.07825198024511337280273437500
-0.01680107787251472473144531250
-0.12840819358825683593750000000
-0.06009957566857337951660156250
-0.01848878338932991027832031250
-0.05685307458043098449707031250
-0.05634889751672744750976562500
0.11060647666454315185546875000
-0.02575471438467502593994140625
0.02664774097502231597900390625
-0.01012321375310420989990234375
-0.06674013286828994750976562500
0.16248747706413269042968750000
-0.06498212367296218872070312500
-0.04929897934198379516601562500
-0.00960784591734409332275390625
0.06137129291892051696777343750
0.03673486411571502685546875000
0.05985892191529273986816406250
0.04444912075996398925781250000
-0.02190940640866756439208984375
-0.02380195818841457366943359375
0.03164590150117874145507812500
0.00745246699079871177673339844
0.02482932806015014648437500000
-0.01052981987595558166503906250
0.05242542549967765808105468750
0.01780960895121097564697265625
0.01393611822277307510375976562
0.10861168056726455688476562500
-0.02190978266298770904541015625
0.02192657813429832458496093750
0.00465507991611957550048828125
0.05359958112239837646484375000
-0.00926926638931035995483398438
0.00244509824551641941070556641
0.03044845908880233764648437500
-0.02559437789022922515869140625
0.10365293920040130615234375000
-0.03065786138176918029785156250
-0.00476716319099068641662597656
-0.01901733689010143280029296875
-0.01152266096323728561401367188
0.02594079263508319854736328125
0.04088780283927917480468750000
0.00876299384981393814086914062
0.09776258468627929687500000000
0.11003531515598297119140625000
0.06561110168695449829101562500
-0.00585104199126362800598144531
-0.01831765286624431610107421875
-0.06874260306358337402343750000
0.02751976624131202697753906250
-0.00542673282325267791748046875
0.00700398953631520271301269531
0.08041530847549438476562500000
0.00223749247379601001739501953
0.01138760149478912353515625000
0.02331054396927356719970703125
-0.05136538296937942504882812500
-0.08645078539848327636718750000
-0.03644671663641929626464843750
-0.00531166652217507362365722656
-0.03745179250836372375488281250
-0.24582076072692871093750000000
-0.02898611128330230712890625000
0.07056210190057754516601562500
-0.13716137409210205078125000000
-0.00446513714268803596496582031
0.01457214914262294769287109375
0.16945156455039978027343750000
0.00104598654434084892272949219
0.00759074650704860687255859375
-0.04163679108023643493652343750
0.02426257915794849395751953125
0.00248118513263761997222900391
-0.03561687096953392028808593750
0.01802470907568931579589843750
-0.02687790803611278533935546875
0.04720959439873695373535156250
0.01926345005631446838378906250
-0.09915873408317565917968750000
0.05401523783802986145019531250
-0.03753528743982315063476562500
0.16100206971168518066406250000
-0.02560153417289257049560546875
0.00778326904401183128356933594
-0.00550123397260904312133789062
-0.00839095283299684524536132812
-0.02430039085447788238525390625
0.08760341256856918334960937500
-0.09399250894784927368164062500
-0.02434568107128143310546875000
-0.01600234583020210266113281250
0.08346235752105712890625000000
-0.00809745863080024719238281250
-0.03815583884716033935546875000
0.01259617507457733154296875000
0.02847102098166942596435546875
0.02567731216549873352050781250
-0.04293333739042282104492187500
-0.07209024578332901000976562500
-0.03547647222876548767089843750
0.07596231997013092041015625000
0.02956890128552913665771484375
-0.07801630347967147827148437500
-0.04551289230585098266601562500
0.04227073863148689270019531250
0.01317473780363798141479492188
0.04310541972517967224121093750
-0.01975713856518268585205078125
0.05741193890571594238281250000
0.04599768668413162231445312500
0.03555934131145477294921875000
0.04963112622499465942382812500
0.01391153782606124877929687500
0.05370176210999488830566406250
-0.02914231270551681518554687500
0.04299234971404075622558593750
-0.04235953837633132934570312500
0.06986118853092193603515625000
-0.04628780111670494079589843750
-0.00227274326607584953308105469
0.04606986418366432189941406250
-0.07844325155019760131835937500
0.04840754717588424682617187500
0.01669040508568286895751953125
-0.02672606147825717926025390625
0.04600282013416290283203125000
0.01130204834043979644775390625
-0.00987195502966642379760742188
0.04594382271170616149902343750
0.06421718746423721313476562500
-0.07950402796268463134765625000
-0.03067253716289997100830078125
-0.01667265780270099639892578125
0.05675231665372848510742187500
0.01209916826337575912475585938
-0.06577627360820770263671875000
-0.00884798727929592132568359375
0.11492235958576202392578125000
0.02025122754275798797607421875
0.01612913608551025390625000000
-0.04420133680105209350585937500
0.02007140591740608215332031250
0.03326826915144920349121093750
0.05443158000707626342773437500
0.01982882618904113769531250000
0.07244345545768737792968750000
0.00638150982558727264404296875
-0.03857524320483207702636718750
0.12185434997081756591796875000
-0.09160616993904113769531250000
-0.02512521110475063323974609375
-0.01960444264113903045654296875
-0.06785547733306884765625000000
0.06421645730733871459960937500
0.00763417268171906471252441406
0.04903264343738555908203125000
0.05804580450057983398437500000
-0.00098072574473917484283447266
0.01035637874156236648559570312
-0.07877325266599655151367187500
0.01234411820769309997558593750
0.03342929854989051818847656250
-0.03870795294642448425292968750
-0.01563720218837261199951171875
0.01296356413513422012329101562
0.01424153987318277359008789062
0.02102233842015266418457031250
0.00309033319354057312011718750
-0.09479336440563201904296875000
-0.01394429337233304977416992188
-0.00824330933392047882080078125
-0.08682064712047576904296875000
-0.04586143791675567626953125000
0.14002487063407897949218750000
-0.01953414827585220336914062500
-0.09562052041292190551757812500
-0.07318738102912902832031250000
-0.03079994954168796539306640625
-0.02925397455692291259765625000
-0.00536508858203887939453125000
-0.07621608674526214599609375000
0.06043273210525512695312500000
0.01506696362048387527465820312
0.01375738624483346939086914062
0.07944676280021667480468750000
-0.00353994034230709075927734375
-0.02951871976256370544433593750
0.12825509905815124511718750000
-0.04616339877247810363769531250
-0.11038573831319808959960937500
0.09242028743028640747070312500
0.01120816543698310852050781250
-0.10046926140785217285156250000
-0.01407096255570650100708007812
0.07249983400106430053710937500
0.03493333980441093444824218750
-0.05045194923877716064453125000
-0.01449617091566324234008789062
-0.02151455357670783996582031250
0.02528819441795349121093750000
0.02934841997921466827392578125
0.04788867011666297912597656250
-0.01596114598214626312255859375
0.00091111956862732768058776855
-0.01949654519557952880859375000
-0.05255179852247238159179687500
-0.11328891664743423461914062500
-0.02516926079988479614257812500
-0.03233828395605087280273437500
-0.06552033126354217529296875000
-0.04048935696482658386230468750
0.03776272386312484741210937500
0.06231378391385078430175781250
0.05191252380609512329101562500
0.01859086938202381134033203125
0.02882692031562328338623046875
-0.04595711082220077514648437500
0.01619344390928745269775390625
0.01753745973110198974609375000
-0.06124148890376091003417968750
0.00168740062508732080459594727
-0.00924582220613956451416015625
-0.01344969868659973144531250000
-0.03468238562345504760742187500
0.01188594941049814224243164062
0.02529487572610378265380859375
-0.05046065151691436767578125000
-0.01693335175514221191406250000
0.02346023358404636383056640625
-0.06169371306896209716796875000
0.03342232480645179748535156250
0.06405427306890487670898437500
-0.08003866672515869140625000000
-0.02809765748679637908935546875
0.06461292505264282226562500000
-0.01028691325336694717407226562
-0.02502433769404888153076171875
0.01466196216642856597900390625
0.09510250389575958251953125000
-0.00611632736399769783020019531
0.04425230622291564941406250000
0.16572046279907226562500000000
0.03654491901397705078125000000
0.00710026314482092857360839844
0.02485968545079231262207031250
0.00401979032903909683227539062
0.03612932562828063964843750000
0.08268393576145172119140625000
-0.04313492029905319213867187500
0.10188385099172592163085937500
0.09592144936323165893554687500
0.05581158027052879333496093750
-0.02038538455963134765625000000
0.08732125163078308105468750000
-0.04274221509695053100585937500
-0.06293209642171859741210937500
0.19742231070995330810546875000
0.01927141658961772918701171875
0.01628912985324859619140625000
-0.07643520087003707885742187500
0.06337541341781616210937500000
0.05633657425642013549804687500
-0.01656870916485786437988281250
-0.03249954059720039367675781250
-0.05325572937726974487304687500
0.02476442232728004455566406250
-0.00774906110018491744995117188
-0.01554420869797468185424804688
-0.01424527168273925781250000000
-0.07906705141067504882812500000
-0.03180678933858871459960937500
-0.13430066406726837158203125000
0.09455745667219161987304687500
-0.02686695754528045654296875000
0.12582112848758697509765625000
-0.00408092420548200607299804688
-0.01882969588041305541992187500
-0.02544889971613883972167968750
0.03615405037999153137207031250
0.04227598011493682861328125000
-0.05081763118505477905273437500
0.03287372365593910217285156250
-0.00580233568325638771057128906
0.01327608805149793624877929688
0.06875927001237869262695312500
-0.01141231507062911987304687500
-0.09518121182918548583984375000
0.01033996045589447021484375000
0.04867912828922271728515625000
-0.03216109424829483032226562500
0.00251033529639244079589843750
0.07634232938289642333984375000
-0.06034436076879501342773437500
0.00766162248328328132629394531
0.06495799124240875244140625000
-0.01689455099403858184814453125
-0.08510141074657440185546875000
0.01800141297280788421630859375
-0.02679053880274295806884765625
0.06862165778875350952148437500
0.03674511983990669250488281250
0.07150237262248992919921875000
0.03053510561585426330566406250
0.02975598350167274475097656250
-0.03682640194892883300781250000
-0.03532803803682327270507812500
0.00065049080876633524894714355
0.03484356775879859924316406250
-0.04710549116134643554687500000
0.07200722396373748779296875000
-0.15462937951087951660156250000
0.01081457734107971191406250000
0.00410197908058762550354003906
0.02624732442200183868408203125
-0.04482360184192657470703125000
0.02126654610037803649902343750
-0.00637806858867406845092773438
-0.08704131096601486206054687500
-0.05193282291293144226074218750
-0.03682657703757286071777343750
-0.03839593753218650817871093750
0.00577426189556717872619628906
0.04932437092065811157226562500
-0.06379800289869308471679687500
-0.01096776034682989120483398438
0.06835892796516418457031250000
0.00167035346385091543197631836
0.06234313920140266418457031250
-0.06902442872524261474609375000
0.02579362131655216217041015625
-0.08082153648138046264648437500
-0.16513226926326751708984375000
0.01202838961035013198852539062
0.08303614705801010131835937500
-0.03774137049913406372070312500
0.00053134397603571414947509766
0.03097073547542095184326171875
0.00772235868498682975769042969
0.04588174447417259216308593750
0.07295894622802734375000000000
0.00679744360968470573425292969
0.01741724833846092224121093750
0.06171433255076408386230468750
0.01536340173333883285522460938
-0.00128218636382371187210083008
-0.08105956763029098510742187500
-0.00801528617739677429199218750
-0.03433756530284881591796875000
-0.02165032550692558288574218750
-0.03408115357160568237304687500
-0.04532627016305923461914062500
-0.09310032427310943603515625000
0.02960140444338321685791015625
0.02187672443687915802001953125
0.07863182574510574340820312500
-0.02989313006401062011718750000
0.03143967688083648681640625000
0.00783087778836488723754882812
0.08735221624374389648437500000
0.14616441726684570312500000000
0.08790820091962814331054687500
-0.01468424685299396514892578125
0.03368064016103744506835937500
0.03884774446487426757812500000
-0.00703934486955404281616210938
-0.03887050971388816833496093750
-0.02015370316803455352783203125
-0.02334687486290931701660156250
0.10622695833444595336914062500
-0.02008161880075931549072265625
-0.09302315860986709594726562500
-0.07674466073513031005859375000
0.02981926873326301574707031250
0.04084536805748939514160156250
0.01351765170693397521972656250
-0.06890569627285003662109375000
-0.01283626910299062728881835938
0.04499763622879981994628906250
-0.06941497325897216796875000000
-0.02537109144032001495361328125
0.00484860362485051155090332031
-0.00365695031359791755676269531
-0.03134461119771003723144531250
0.12270864844322204589843750000
-0.14671616256237030029296875000
-0.05369229242205619812011718750
0.01307215355336666107177734375
-0.03722160682082176208496093750
-0.09985134005546569824218750000
0.00590775022283196449279785156
0.02845369651913642883300781250
0.02922139503061771392822265625
-0.01589626818895339965820312500
0.07056824117898941040039062500
-0.07690732181072235107421875000
-0.08287120610475540161132812500
-0.10595671832561492919921875000
-0.04045532643795013427734375000
-0.02932496555149555206298828125
-0.05817822366952896118164062500
0.01341765094548463821411132812
-0.03875900059938430786132812500
-0.06439027190208435058593750000
0.00040754070505499839782714844
0.03307813778519630432128906250
0.00298534217290580272674560547
0.03464841470122337341308593750
-0.05156069621443748474121093750
-0.10812860727310180664062500000
-0.00796417426317930221557617188
-0.12892980873584747314453125000
-0.02972970902919769287109375000
0.00257604941725730895996093750
0.03201237693428993225097656250
-0.06191012263298034667968750000
0.00646531023085117340087890625
-0.03643599525094032287597656250
0.11432985961437225341796875000
0.01265963073819875717163085938
0.04715676978230476379394531250
-0.05358558148145675659179687500
-0.07316096127033233642578125000
0.01610753312706947326660156250
-0.00188957632053643465042114258
-0.04096831381320953369140625000
-0.00163056375458836555480957031
-0.04170374199748039245605468750
-0.00299617229029536247253417969
0.03360826894640922546386718750
0.06907071918249130249023437500
-0.00261052791029214859008789062
0.00563935702666640281677246094
-0.09528005123138427734375000000
0.08803159743547439575195312500
-0.04022971168160438537597656250
0.04381406679749488830566406250
-0.03136955574154853820800781250
-0.03743547946214675903320312500
-0.11858873069286346435546875000
-0.00439655920490622520446777344
-0.03549276292324066162109375000
-0.00391074130311608314514160156
-0.15238012373447418212890625000
-0.10538027435541152954101562500
-0.05216831713914871215820312500
0.01840756647288799285888671875
0.10039924085140228271484375000
-0.11420876532793045043945312500
-0.00929146166890859603881835938
-0.00558941392228007316589355469
-0.02212585322558879852294921875
-0.04996196180582046508789062500
0.00841879658401012420654296875
0.00824492052197456359863281250
-0.09882023185491561889648437500
0.00607830518856644630432128906
0.01548746880143880844116210938
0.00835871417075395584106445312
-0.03691698610782623291015625000
-0.07928963005542755126953125000
-0.00693475035950541496276855469
-0.00591166689991950988769531250
-0.13655757904052734375000000000
-0.05995436757802963256835937500
-0.03383638337254524230957031250
0.00876468513160943984985351562
0.00934587605297565460205078125
-0.01077861431986093521118164062
-0.00825670175254344940185546875
0.08297196775674819946289062500
-0.04178409278392791748046875000
0.03085151500999927520751953125
0.13846056163311004638671875000
-0.06533039361238479614257812500
0.03174010291695594787597656250
-0.07307361811399459838867187500
-0.05617672577500343322753906250
0.05886866897344589233398437500
-0.06538697332143783569335937500
-0.01284842472523450851440429688
0.07108011096715927124023437500
-0.03477270901203155517578125000
0.06201030313968658447265625000
-0.02355467900633811950683593750
0.07048311084508895874023437500
-0.01993098482489585876464843750
0.01981193386018276214599609375
0.04450168460607528686523437500
-0.01991757936775684356689453125
0.02793783135712146759033203125
-0.00794941093772649765014648438
0.02887793816626071929931640625
-0.00090139894746243953704833984
0.00331200892105698585510253906
-0.00488124182447791099548339844
0.01252695638686418533325195312
0.00668372260406613349914550781
-0.05946461856365203857421875000
0.11634397506713867187500000000
-0.07493866980075836181640625000
-0.00808871630579233169555664062
-0.05616307631134986877441406250
-0.02422163449227809906005859375
0.04127801954746246337890625000
0.04852787405252456665039062500
-0.01645180024206638336181640625
-0.06722424924373626708984375000
-0.02339409291744232177734375000
0.02864548377692699432373046875
0.05359529703855514526367187500
-0.01431406196206808090209960938
-0.01326022949069738388061523438
-0.12077242136001586914062500000
0.08551881462335586547851562500
-0.03158293664455413818359375000
0.02568679116666316986083984375
0.05930938571691513061523437500
-0.06340669095516204833984375000
-0.03253948688507080078125000000
0.03423240035772323608398437500
-0.05769141390919685363769531250
-0.06173511222004890441894531250
0.04611752927303314208984375000
0.03135150298476219177246093750
0.03491796553134918212890625000
0.04641562327742576599121093750
-0.00822239089757204055786132812
-0.02659164369106292724609375000
0.00106807460542768239974975586
0.00038569138268940150737762451
-0.03752293810248374938964843750
0.09506362676620483398437500000
-0.03343894705176353454589843750
0.02871561422944068908691406250
-0.07116255164146423339843750000
-0.05679539591073989868164062500
0.11145450919866561889648437500
0.03077759593725204467773437500
0.06287929415702819824218750000
-0.02906377799808979034423828125
0.00154824787750840187072753906
0.01908764429390430450439453125
-0.02110354788601398468017578125
0.06041032820940017700195312500
-0.01004875637590885162353515625
-0.03577858209609985351562500000
-0.02992194704711437225341796875
0.00105865194927901029586791992
-0.04663835093379020690917968750
0.02991926670074462890625000000
-0.04064762964844703674316406250
-0.05601948127150535583496093750
0.00946811959147453308105468750
-0.01083751861006021499633789062
-0.01278321910649538040161132812
0.01092160120606422424316406250
-0.01173270586878061294555664062
-0.05777641385793685913085937500
0.01218288019299507141113281250
0.04738412797451019287109375000
0.05875255167484283447265625000
-0.03581991791725158691406250000
0.00680673215538263320922851562
-0.03527957946062088012695312500
0.01910673081874847412109375000
0.01082173082977533340454101562
0.05921414867043495178222656250
-0.04038246348500251770019531250
-0.02024218440055847167968750000
0.00080072722630575299263000488
0.06389413028955459594726562500
-0.08159860968589782714843750000
0.03349710255861282348632812500
0.03595783933997154235839843750
-0.10986073315143585205078125000
0.00121656374540179967880249023
0.03100511245429515838623046875
0.00371491257101297378540039062
0.01637487299740314483642578125
-0.07315003126859664916992187500
0.09543090313673019409179687500
-0.06470721960067749023437500000
0.04050898924469947814941406250
0.15358553826808929443359375000
0.04828258603811264038085937500
-0.03544532880187034606933593750
-0.06878250092267990112304687500
0.05281070619821548461914062500
0.04871530085802078247070312500
0.03357494249939918518066406250
0.08189617097377777099609375000
-0.01332443859428167343139648438
-0.02590859308838844299316406250
-0.04646820202469825744628906250
-0.07399825006723403930664062500
-0.02809506468474864959716796875
0.05106524378061294555664062500
-0.01851578056812286376953125000
-0.12410386651754379272460937500
0.03856928646564483642578125000
-0.00490829395130276679992675781
0.01933588460087776184082031250
-0.01240896712988615036010742188
-0.05100324377417564392089843750
0.00767228985205292701721191406
0.02222523838281631469726562500
0.02512798085808753967285156250
-0.00159050407819449901580810547
0.00388147658668458461761474609
-0.04224570840597152709960937500
0.05394309014081954956054687500
-0.04398729652166366577148437500
-0.08710914850234985351562500000
-0.03325902298092842102050781250
-0.01351093966513872146606445312
-0.00180159881711006164550781250
0.01087239384651184082031250000
0.04100251197814941406250000000
0.03639406710863113403320312500
-0.00104352284688502550125122070
0.00431497441604733467102050781
0.08562790602445602416992187500
0.00517863733693957328796386719
-0.09722453355789184570312500000
-0.01139305438846349716186523438
-0.06381724029779434204101562500
0.05001314729452133178710937500
-0.07134918123483657836914062500
-0.09408590942621231079101562500
-0.03671117871999740600585937500
-0.02814844995737075805664062500
0.06942369043827056884765625000
0.04685942828655242919921875000
0.01243552658706903457641601562
-0.00439693639054894447326660156
-0.02157644182443618774414062500
0.06551434099674224853515625000
0.01454862114042043685913085938
-0.01971940509974956512451171875
-0.13968421518802642822265625000
-0.06814421713352203369140625000
0.02948687598109245300292968750
0.02397987246513366699218750000
0.01196534652262926101684570312
0.02381829172372817993164062500
0.02976117655634880065917968750
-0.07061460614204406738281250000
-0.03698632866144180297851562500
0.01724185235798358917236328125
-0.09406538307666778564453125000
0.03267031535506248474121093750
0.03701297938823699951171875000
-0.01221381779760122299194335938
0.01491148117929697036743164062
0.01279191207140684127807617188
0.02661626599729061126708984375
0.02514917030930519104003906250
-0.07714141905307769775390625000
0.00872852653264999389648437500
0.05193242430686950683593750000
-0.02744731865823268890380859375
-0.13667386770248413085937500000
-0.03702015057206153869628906250
0.01952344551682472229003906250
-0.01182684581726789474487304688
0.00578616699203848838806152344
0.08855582028627395629882812500
-0.07143892347812652587890625000
0.02372394502162933349609375000
-0.04628986120223999023437500000
0.11128219217061996459960937500
-0.02543796785175800323486328125
-0.02035183273255825042724609375
-0.11047331243753433227539062500
-0.04147931933403015136718750000
0.05635063350200653076171875000
-0.05075353011488914489746093750
-0.05377355590462684631347656250
0.03378442302346229553222656250
-0.05616205558180809020996093750
0.02055366523563861846923828125
-0.02946190722286701202392578125
0.13238392770290374755859375000
0.02900358848273754119873046875
0.00328460917808115482330322266
-0.03851069509983062744140625000
0.02136661298573017120361328125
0.04783459007740020751953125000
-0.07012302428483963012695312500
0.05726736038923263549804687500
-0.04696661978960037231445312500
0.04936426132917404174804687500
0.03267800807952880859375000000
-0.03484591096639633178710937500
0.03748509287834167480468750000
0.01257134601473808288574218750
-0.00852669402956962585449218750
0.12164718657732009887695312500
0.03690438345074653625488281250
0.03665506839752197265625000000
0.00645724963396787643432617188
-0.01036193408071994781494140625
0.00257477676495909690856933594
0.07417200505733489990234375000
0.07305232435464859008789062500
-0.00826629530638456344604492188
0.04601757973432540893554687500
0.06027134880423545837402343750
-0.03192422166466712951660156250
0.07749247550964355468750000000
0.08678268641233444213867187500
-0.00648488197475671768188476562
-0.00149820838123559951782226562
0.00865917559713125228881835938
0.01315099559724330902099609375
-0.02208435721695423126220703125
0.13277354836463928222656250000
-0.05234549567103385925292968750
0.14851415157318115234375000000
-0.03068229183554649353027343750
-0.02465149573981761932373046875
0.01030598301440477371215820312
-0.01283121947199106216430664062
-0.05493375286459922790527343750
-0.01608078181743621826171875000
0.02643372491002082824707031250
0.04598056152462959289550781250
-0.00276847649365663528442382812
0.03301085531711578369140625000
0.04387366771697998046875000000
-0.03214916586875915527343750000
0.04221983626484870910644531250
0.02661758475005626678466796875
-0.00398416956886649131774902344
0.04638090357184410095214843750
0.00307886418886482715606689453
0.02357773669064044952392578125
0.03559628501534461975097656250
-0.02853410877287387847900390625
0.05818524211645126342773437500
0.11280074715614318847656250000
0.09024373441934585571289062500
0.03955099731683731079101562500
-0.11086405068635940551757812500
-0.09098061919212341308593750000
-0.01621402613818645477294921875
-0.01945341937243938446044921875
0.00011460285168141126632690430
0.03405342251062393188476562500
0.07238659262657165527343750000
-0.01549349166452884674072265625
-0.04972203448414802551269531250
-0.01707014814019203186035156250
-0.17237107455730438232421875000
-0.04580727964639663696289062500
-0.14279171824455261230468750000
0.08164777606725692749023437500
0.04478562250733375549316406250
-0.00030154094565659761428833008
0.24416574835777282714843750000
0.10966272652149200439453125000
-0.11145041137933731079101562500
-0.04350173845887184143066406250
-0.08495360612869262695312500000
-0.07942895591259002685546875000
-0.02750479429960250854492187500
-0.00638711219653487205505371094
-0.37011823058128356933593750000
0.05018652230501174926757812500
0.02827374637126922607421875000
0.04842666164040565490722656250
-0.05635538324713706970214843750
-0.02734435349702835083007812500
0.00636050850152969360351562500
-0.02566314861178398132324218750
0.04035904258489608764648437500
0.13527038693428039550781250000
-0.15087929368019104003906250000
-0.06484364718198776245117187500
-0.02136692218482494354248046875
-0.00783790554851293563842773438
-0.09461881965398788452148437500
0.01429757382720708847045898438
-0.01783762127161026000976562500
-0.15919671952724456787109375000
-0.09119557589292526245117187500
0.01221492886543273925781250000
-0.01995859295129776000976562500
0.05025976523756980895996093750
0.01778945140540599822998046875
-0.02099088579416275024414062500
-0.07812421768903732299804687500
0.02390247583389282226562500000
-0.03587341308593750000000000000
0.11569835990667343139648437500
-0.00507783936336636543273925781
-0.07674713432788848876953125000
0.08455573767423629760742187500
0.03898401930928230285644531250
0.03645687922835350036621093750
-0.03724911808967590332031250000
-0.32356515526771545410156250000
0.01349121984094381332397460938
-0.07106540352106094360351562500
0.05399189889430999755859375000
0.03224390745162963867187500000
0.03962436318397521972656250000
0.05864519625902175903320312500
0.05302214622497558593750000000
0.01321330387145280838012695312
-0.00888312514871358871459960938
-0.09152438491582870483398437500
0.05116254463791847229003906250
-0.04359228536486625671386718750
-0.01472103968262672424316406250
0.05360408499836921691894531250
-0.11057371646165847778320312500
-0.00840779114514589309692382812
-0.01963875256478786468505859375
0.00765613745898008346557617188
-0.03078451007604598999023437500
0.00041111270547844469547271729
-0.12260673195123672485351562500
-0.04394355043768882751464843750
0.09304147958755493164062500000
0.01414676476269960403442382812
-0.01858797296881675720214843750
0.01237133610993623733520507812
-0.03714688122272491455078125000
-0.14313749969005584716796875000
-0.05764337256550788879394531250
-0.06921894103288650512695312500
0.10636511445045471191406250000
-0.00923910923302173614501953125
0.00964860618114471435546875000
0.00681061204522848129272460938
0.01807424053549766540527343750
0.00771289458498358726501464844
0.18117848038673400878906250000
0.00563490996137261390686035156
0.00219459831714630126953125000
-0.05400472506880760192871093750
0.07609131187200546264648437500
0.03721852600574493408203125000
-0.02779126167297363281250000000
-0.00646660150960087776184082031
0.15976035594940185546875000000
-0.07914099842309951782226562500
-0.03858098387718200683593750000
-0.03557195514440536499023437500
-0.01478142756968736648559570312
0.09588774293661117553710937500
0.02954516373574733734130859375
0.01282986067235469818115234375
0.04234632849693298339843750000
0.01137658022344112396240234375
0.05547038093209266662597656250
-0.02069555595517158508300781250
0.11565759032964706420898437500
0.03800125047564506530761718750
-0.00918930582702159881591796875
0.03780866786837577819824218750
-0.05203974246978759765625000000
0.03354987874627113342285156250
-0.01776565052568912506103515625
-0.04791323468089103698730468750
-0.00313354376703500747680664062
0.00517716165632009506225585938
0.11420382559299468994140625000
-0.05477045476436614990234375000
0.11460205912590026855468750000
-0.05105259269475936889648437500
-0.09920649975538253784179687500
0.00617514364421367645263671875
-0.06227546185255050659179687500
0.01769204065203666687011718750
-0.04335261136293411254882812500
0.09733977168798446655273437500
-0.15083926916122436523437500000
0.04708881676197052001953125000
-0.00284558814018964767456054688
0.08311156928539276123046875000
0.06278809159994125366210937500
-0.02344991452991962432861328125
-0.03335949033498764038085937500
0.07463574409484863281250000000
0.00571422884240746498107910156
0.07219441235065460205078125000
-0.05210730060935020446777343750
0.00076767371501773595809936523
0.04085468500852584838867187500
0.05783664435148239135742187500
-0.05409283190965652465820312500
-0.10305415093898773193359375000
0.04320722818374633789062500000
-0.06910677254199981689453125000
0.00962550006806850433349609375
-0.01665933243930339813232421875
-0.01502275466918945312500000000
0.01692400500178337097167968750
-0.02917648479342460632324218750
0.05661978572607040405273437500
0.07266534119844436645507812500
0.06447888165712356567382812500
-0.04556623846292495727539062500
-0.04799526184797286987304687500
0.00778020545840263366699218750
0.00444101355969905853271484375
-0.08626371622085571289062500000
-0.05235823988914489746093750000
0.05864512920379638671875000000
-0.04503363743424415588378906250
0.06022616475820541381835937500
0.03999029844999313354492187500
-0.03428439795970916748046875000
-0.00129945063963532447814941406
-0.13876312971115112304687500000
-0.04354963824152946472167968750
0.06061454117298126220703125000
0.01037831790745258331298828125
-0.01767643913626670837402343750
0.01707214489579200744628906250
0.06627045571804046630859375000
-0.04520897567272186279296875000
0.00442441320046782493591308594
0.11635249853134155273437500000
0.08968987315893173217773437500
-0.07395151257514953613281250000
-0.01479094475507736206054687500
-0.07309975475072860717773437500
-0.01747188158333301544189453125
-0.12943564355373382568359375000
0.03727289661765098571777343750
0.02736271359026432037353515625
0.06998997926712036132812500000
0.05706967785954475402832031250
-0.03514706343412399291992187500
-0.05558385699987411499023437500
-0.00041833452996797859668731689
-0.06376162171363830566406250000
0.06733833253383636474609375000
-0.10122973471879959106445312500
0.04039520770311355590820312500
0.02172861993312835693359375000
0.05470151081681251525878906250
-0.01717092841863632202148437500
-0.04312358051538467407226562500
-0.04118097200989723205566406250
0.03108550235629081726074218750
0.00643480336293578147888183594
-0.04791945219039916992187500000
-0.00109087768942117691040039062
-0.04323265329003334045410156250
0.00808931328356266021728515625
0.04964590817689895629882812500
0.06672441214323043823242187500
0.02921816706657409667968750000
-0.01612185686826705932617187500
-0.03609090670943260192871093750
-0.03507430851459503173828125000
-0.01317274942994117736816406250
0.01704439148306846618652343750
-0.03120758756995201110839843750
-0.03361945226788520812988281250
0.09411570429801940917968750000
0.00117942201904952526092529297
0.05043091997504234313964843750
0.10024338960647583007812500000
-0.00128549907822161912918090820
0.03307387605309486389160156250
-0.04540480300784111022949218750
0.01775226369500160217285156250
-0.00409584259614348411560058594
0.01823896914720535278320312500
0.06507263332605361938476562500
0.13352705538272857666015625000
-0.04256306961178779602050781250
0.10787168145179748535156250000
-0.02560632675886154174804687500
0.02080472931265830993652343750
-0.00619196984916925430297851562
0.01595358736813068389892578125
-0.00732442690059542655944824219
-0.04999688267707824707031250000
-0.04958955943584442138671875000
0.07349304109811782836914062500
0.00986106600612401962280273438
-0.09552391618490219116210937500
0.01160386297851800918579101562
-0.00500696478411555290222167969
0.06425402313470840454101562500
-0.02353085391223430633544921875
-0.03815062716603279113769531250
0.03055973723530769348144531250
-0.07885625213384628295898437500
-0.10964220017194747924804687500
-0.03038774617016315460205078125
-0.00375993107445538043975830078
-0.01606877520680427551269531250
-0.01489358581602573394775390625
0.05412982031702995300292968750
0.00115361541975289583206176758
0.02087558805942535400390625000
0.01984143629670143127441406250
-0.06815305352210998535156250000
-0.05417859181761741638183593750
-0.08231700956821441650390625000
0.01614065840840339660644531250
0.09975588321685791015625000000
0.07091036438941955566406250000
0.01593613438308238983154296875
-0.01126076281070709228515625000
0.00043028258369304239749908447
-0.07577316462993621826171875000
0.02384149096906185150146484375
-0.09781348705291748046875000000
-0.02183972671627998352050781250
-0.04806592315435409545898437500
-0.04074913635849952697753906250
0.01314111053943634033203125000
-0.11435719579458236694335937500
-0.00818642042577266693115234375
0.12710209190845489501953125000
0.13427405059337615966796875000
-0.04520695656538009643554687500
0.01314133033156394958496093750
0.02193362638354301452636718750
-0.03382674977183341979980468750
0.00893359258770942687988281250
0.07171284407377243041992187500
-0.00665333587676286697387695312
-0.03226680308580398559570312500
-0.08883663266897201538085937500
-0.06237515807151794433593750000
-0.06189975887537002563476562500
-0.04134681448340415954589843750
-0.07543404400348663330078125000
0.02205662615597248077392578125
0.03303590044379234313964843750
0.10314959287643432617187500000
0.15714861452579498291015625000
0.09302452206611633300781250000
0.01051369309425354003906250000
-0.06825633347034454345703125000
0.04295651614665985107421875000
-0.07252731919288635253906250000
0.06243573501706123352050781250
0.05272882431745529174804687500
-0.08839845657348632812500000000
0.01305862795561552047729492188
-0.19279448688030242919921875000
-0.00607032002881169319152832031
-0.10835095494985580444335937500
-0.00670196069404482841491699219
-0.07044792920351028442382812500
-0.05786516889929771423339843750
0.00854974240064620971679687500
0.02140130288898944854736328125
0.06782548874616622924804687500
0.07697090506553649902343750000
-0.05427937582135200500488281250
-0.08990899473428726196289062500
0.04647057130932807922363281250
0.02130411937832832336425781250
0.04066968336701393127441406250
0.04178394749760627746582031250
-0.00729000009596347808837890625
0.03030327148735523223876953125
-0.04025629907846450805664062500
-0.04687698557972908020019531250
-0.05361874029040336608886718750
-0.03814548626542091369628906250
-0.08302807807922363281250000000
0.06121430546045303344726562500
-0.02436368353664875030517578125
0.08681888133287429809570312500
-0.10832594335079193115234375000
0.02763850241899490356445312500
0.06976101547479629516601562500
-0.04875216633081436157226562500
-0.13121853768825531005859375000
-0.04443809762597084045410156250
-0.04637020826339721679687500000
0.00377300288528203964233398438
-0.02053491398692131042480468750
0.14947660267353057861328125000
-0.03717330098152160644531250000
-0.08399068564176559448242187500
-0.10573535412549972534179687500
0.08507085591554641723632812500
0.01036213338375091552734375000
-0.16099399328231811523437500000
-0.01613615639507770538330078125
0.08484417945146560668945312500
-0.05330635979771614074707031250
-0.00930300634354352951049804688
0.02506037615239620208740234375
0.02151011116802692413330078125
-0.00524301175028085708618164062
0.00619029300287365913391113281
-0.06037944927811622619628906250
-0.01107186917215585708618164062
-0.00416788179427385330200195312
-0.01557050645351409912109375000
0.09135074168443679809570312500
0.15530855953693389892578125000
0.00644729332998394966125488281
-0.01010047271847724914550781250
0.00234561366960406303405761719
-0.03370769321918487548828125000
0.03147872909903526306152343750
0.15080469846725463867187500000
0.03031726740300655364990234375
-0.01399359293282032012939453125
0.02536370232701301574707031250
-0.01217357348650693893432617188
-0.04375568032264709472656250000
-0.07946583628654479980468750000
-0.06954117119312286376953125000
-0.05045797675848007202148437500
0.00937337428331375122070312500
0.09246249496936798095703125000
-0.01046415418386459350585937500
-0.02743304148316383361816406250
0.01789985969662666320800781250
0.01468078978359699249267578125
-0.00298854126594960689544677734
0.02192564681172370910644531250
0.07918876409530639648437500000
-0.06117948889732360839843750000
-0.04574380815029144287109375000
0.08547274768352508544921875000
-0.04770775139331817626953125000
0.06088211014866828918457031250
0.16000224649906158447265625000
0.04501157253980636596679687500
-0.01672251895070075988769531250
-0.04660617932677268981933593750
-0.12127126753330230712890625000
0.15808621048927307128906250000
-0.00813940819352865219116210938
-0.03001969680190086364746093750
0.00103346374817192554473876953
-0.01253505051136016845703125000
0.00130790018010884523391723633
-0.07209888845682144165039062500
-0.01885682903230190277099609375
-0.00913720205426216125488281250
0.12065058201551437377929687500
-0.04575145617127418518066406250
0.04094200953841209411621093750
0.03291018679738044738769531250
-0.00780771533027291297912597656
0.07290399074554443359375000000
0.04545994475483894348144531250
0.05179896950721740722656250000
0.03424937650561332702636718750
-0.03404890745878219604492187500
0.05310987308621406555175781250
-0.03212740644812583923339843750
0.03868409618735313415527343750
0.00771727180108428001403808594
0.01926404982805252075195312500
0.01794051937758922576904296875
-0.04929226264357566833496093750
-0.00282969209365546703338623047
0.00538790551945567131042480469
-0.03953635692596435546875000000
0.06640562415122985839843750000
0.06361398845911026000976562500
-0.00974588561803102493286132812
0.02115935832262039184570312500
0.12801809608936309814453125000
0.11802320182323455810546875000
-0.03450763598084449768066406250
0.05320552363991737365722656250
-0.10905065387487411499023437500
-0.03185310587286949157714843750
0.03708330914378166198730468750
0.02716763131320476531982421875
0.04687904193997383117675781250
-0.06448994576930999755859375000
-0.10641922801733016967773437500
0.00315562053583562374114990234
-0.07832083851099014282226562500
0.00734762335196137428283691406
-0.01289056427776813507080078125
0.02126344479620456695556640625
0.01481416169553995132446289062
0.01205012295395135879516601562
-0.01988737098872661590576171875
0.02577814087271690368652343750
0.01463393121957778930664062500
-0.08267451077699661254882812500
0.02828014642000198364257812500
-0.01737515442073345184326171875
-0.00872202590107917785644531250
-0.03997546806931495666503906250
-0.00677603902295231819152832031
0.04824957251548767089843750000
0.04743549600243568420410156250
-0.01279225572943687438964843750
-0.08264368772506713867187500000
0.00192695914302021265029907227
0.02712542936205863952636718750
-0.04964394867420196533203125000
-0.06437239050865173339843750000
-0.00207970640622079372406005859
0.05527526140213012695312500000
-0.01384264323860406875610351562
0.00812426954507827758789062500
-0.02331233955919742584228515625
-0.01769548840820789337158203125
0.00990607310086488723754882812
-0.11538524925708770751953125000
0.00816428847610950469970703125
-0.13093914091587066650390625000
0.04652456566691398620605468750
-0.01647845096886157989501953125
-0.03500431030988693237304687500
0.04077373817563056945800781250
0.00204041716642677783966064453
-0.01969631761312484741210937500
-0.07499185204505920410156250000
0.05246665701270103454589843750
-0.05179484188556671142578125000
0.03735618665814399719238281250
-0.06040073186159133911132812500
-0.09647757560014724731445312500
0.05416622012853622436523437500
-0.00617890898138284683227539062
-0.01329221390187740325927734375
-0.03649205341935157775878906250
-0.00093250715872272849082946777
0.01303781382739543914794921875
-0.12664470076560974121093750000
0.01724864356219768524169921875
0.01485972292721271514892578125
0.01986285299062728881835937500
0.02220713905990123748779296875
-0.02341501601040363311767578125
0.03554971888661384582519531250
0.01978100650012493133544921875
0.01172566693276166915893554688
0.00945081841200590133666992188
-0.02150489389896392822265625000
-0.00288103893399238586425781250
0.01266861334443092346191406250
-0.04742529615759849548339843750
0.01164819486439228057861328125
0.16981776058673858642578125000
-0.01100686844438314437866210938
-0.07599113136529922485351562500
-0.05994359776377677917480468750
-0.03384417667984962463378906250
-0.05351929739117622375488281250
0.08120055496692657470703125000
-0.03353914245963096618652343750
0.07782783359289169311523437500
-0.04367525503039360046386718750
-0.03467832878232002258300781250
0.00415460532531142234802246094
-0.10215242952108383178710937500
-0.05734776705503463745117187500
0.01540972664952278137207031250
-0.00399762485176324844360351562
-0.09671764075756072998046875000
-0.01741661876440048217773437500
0.04024379700422286987304687500
0.01288673654198646545410156250
0.03814427927136421203613281250
-0.02540731802582740783691406250
-0.11969137191772460937500000000
-0.00251743057742714881896972656
-0.04049873724579811096191406250
0.07463383674621582031250000000
0.05028170719742774963378906250
0.09860762953758239746093750000
-0.09578870236873626708984375000
0.02547931112349033355712890625
0.02954147942364215850830078125
0.01269527059048414230346679688
-0.04511338844895362854003906250
0.02979905344545841217041015625
-0.00939590763300657272338867188
0.01953518576920032501220703125
0.06549581885337829589843750000
0.16935260593891143798828125000
-0.01799411326646804809570312500
-0.03016129694879055023193359375
0.03945040330290794372558593750
-0.00923931691795587539672851562
0.04278936982154846191406250000
0.15529748797416687011718750000
-0.02433745563030242919921875000
0.02377668581902980804443359375
-0.06510044634342193603515625000
-0.04074249416589736938476562500
-0.01227411441504955291748046875
-0.02281910181045532226562500000
-0.02811552025377750396728515625
0.00194189464673399925231933594
0.01236557587981224060058593750
-0.14281100034713745117187500000
0.05231433361768722534179687500
0.06705868244171142578125000000
-0.06036076694726943969726562500
0.02125740610063076019287109375
-0.01677594706416130065917968750
0.08612212538719177246093750000
-0.02909023873507976531982421875
0.02496428787708282470703125000
-0.03744791448116302490234375000
-0.01446665916591882705688476562
-0.04965548589825630187988281250
-0.08606381714344024658203125000
0.00363649590872228145599365234
-0.02233608067035675048828125000
0.04266963526606559753417968750
-0.00313751585781574249267578125
-0.02093458548188209533691406250
-0.00759341008961200714111328125
-0.02812925353646278381347656250
0.02843578532338142395019531250
0.00482135778293013572692871094
0.05495483800768852233886718750
0.04849893972277641296386718750
0.02814808487892150878906250000
0.01276585925370454788208007812
-0.01537248678505420684814453125
-0.02660785429179668426513671875
-0.00385394436307251453399658203
0.07307346165180206298828125000
0.10084828734397888183593750000
-0.25665771961212158203125000000
-0.00366490683518350124359130859
0.14470431208610534667968750000
0.02528433687984943389892578125
-0.01658633165061473846435546875
-0.02876870892941951751708984375
-0.01415738370269536972045898438
0.03988454863429069519042968750
0.00328627973794937133789062500
-0.01584335044026374816894531250
0.11937209963798522949218750000
-0.03611160069704055786132812500
0.02354435063898563385009765625
0.00579111743718385696411132812
-0.04385774210095405578613281250
0.00340936449356377124786376953
0.00739519530907273292541503906
0.04624282568693161010742187500
0.04881775751709938049316406250
0.00633796956390142440795898438
0.05192302539944648742675781250
0.03256319463253021240234375000
0.06994538009166717529296875000
0.01653682440519332885742187500
-0.00434075109660625457763671875
-0.03073028475046157836914062500
-0.03361314907670021057128906250
0.02839341387152671813964843750
0.02570241317152976989746093750
0.03558963164687156677246093750
-0.08894421160221099853515625000
0.00414847955107688903808593750
0.00294890464283525943756103516
-0.12320385128259658813476562500
-0.00063307554228231310844421387
-0.00939679890871047973632812500
-0.00645400863140821456909179688
-0.06283279508352279663085937500
-0.01984832249581813812255859375
-0.06216312944889068603515625000
-0.02472383901476860046386718750
-0.02124163880944252014160156250
0.02399168349802494049072265625
0.01568605937063694000244140625
0.11998614668846130371093750000
-0.03332465514540672302246093750
-0.01281981263309717178344726562
0.04110208526253700256347656250
0.04287826269865036010742187500
-0.01493111904710531234741210938
-0.02110126428306102752685546875
0.06234174966812133789062500000
-0.03537992015480995178222656250
0.01620156504213809967041015625
-0.03651923313736915588378906250
-0.00751343043521046638488769531
0.11443417519330978393554687500
-0.04680027067661285400390625000
0.01992565020918846130371093750
0.00110907806083559989929199219
0.02889079041779041290283203125
-0.02079744450747966766357421875
0.04932847991585731506347656250
-0.02840978652238845825195312500
-0.00128662609495222568511962891
-0.02487126179039478302001953125
-0.01826683245599269866943359375
0.05813644826412200927734375000
-0.05235350877046585083007812500
0.02738750912249088287353515625
-0.06928883492946624755859375000
0.01309184543788433074951171875
-0.05084200575947761535644531250
0.02613468468189239501953125000
-0.04909926652908325195312500000
0.01582306995987892150878906250
-0.00109467119909822940826416016
-0.03920641914010047912597656250
-0.03034917823970317840576171875
0.01412621233612298965454101562
-0.08462998270988464355468750000
0.01040641590952873229980468750
0.01155031006783246994018554688
0.10447844117879867553710937500
-0.00703766150400042533874511719
-0.04621699079871177673339843750
0.00337100261822342872619628906
0.02997149713337421417236328125
0.02944139204919338226318359375
-0.09846913814544677734375000000
-0.09956053644418716430664062500
-0.02764801494777202606201171875
-0.03748761489987373352050781250
-0.04270346090197563171386718750
0.02793218381702899932861328125
0.05920080840587615966796875000
0.05307615548372268676757812500
0.06503733992576599121093750000
-0.03345083445310592651367187500
-0.09272506088018417358398437500
-0.02290099486708641052246093750
0.01504630874842405319213867188
-0.02152334712445735931396484375
-0.02309969440102577209472656250
0.00207186187617480754852294922
0.00275202933698892593383789062
-0.00190691056195646524429321289
0.06713397055864334106445312500
0.00393947632983326911926269531
0.02875423245131969451904296875
0.02273252047598361968994140625
0.01979201100766658782958984375
0.04334182664752006530761718750
0.02759365364909172058105468750
0.06302563846111297607421875000
-0.06883582472801208496093750000
-0.07885816693305969238281250000
0.03562963381409645080566406250
0.06423816084861755371093750000
0.10101611167192459106445312500
0.03561002016067504882812500000
0.05019534751772880554199218750
0.00403751991689205169677734375
0.01372692361474037170410156250
-0.04468560963869094848632812500
-0.02539789304137229919433593750
-0.03103739582002162933349609375
-0.00362612283788621425628662109
-0.25301599502563476562500000000
-0.05291600152850151062011718750
-0.01492954418063163757324218750
0.08574192225933074951171875000
-0.06750084459781646728515625000
-0.02074339985847473144531250000
0.03443544358015060424804687500
-0.08080647885799407958984375000
-0.04776709899306297302246093750
-0.00446394318714737892150878906
0.09641676396131515502929687500
-0.04661096632480621337890625000
0.00768200121819972991943359375
-0.05123484507203102111816406250
0.00967795401811599731445312500
-0.05166032910346984863281250000
-0.07758864015340805053710937500
0.01768400147557258605957031250
-0.04349694401025772094726562500
0.00417749583721160888671875000
0.05099960044026374816894531250
-0.08975067734718322753906250000
0.12077399343252182006835937500
-0.04465120658278465270996093750
-0.11701800674200057983398437500
0.02186846360564231872558593750
-0.07487902790307998657226562500
-0.00847993791103363037109375000
-0.02990259602665901184082031250
-0.00018592951528262346982955933
-0.00114603643305599689483642578
0.05282849073410034179687500000
-0.02717318944633007049560546875
-0.00201938510872423648834228516
-0.04487866163253784179687500000
-0.05775611475110054016113281250
-0.03533356264233589172363281250
-0.02974079549312591552734375000
-0.04995419830083847045898437500
0.03116055764257907867431640625
-0.07396274060010910034179687500
0.00851520616561174392700195312
0.02909485623240470886230468750
-0.02431268990039825439453125000
0.00659779971465468406677246094
-0.00765297049656510353088378906
-0.01069701183587312698364257812
0.12358008325099945068359375000
0.00122242886573076248168945312
0.00200140732340514659881591797
-0.04507530108094215393066406250
0.04733906686305999755859375000
-0.11024907231330871582031250000
-0.04092970862984657287597656250
0.01104889996349811553955078125
0.02514489553868770599365234375
0.05220562219619750976562500000
0.09019494801759719848632812500
-0.07044892013072967529296875000
-0.01183274481445550918579101562
0.01722781918942928314208984375
0.00363986846059560775756835938
-0.09087632596492767333984375000
0.02949365973472595214843750000
0.03017448633909225463867187500
-0.00587057461962103843688964844
0.01328374911099672317504882812
-0.02918369695544242858886718750
0.07648462057113647460937500000
0.01827919110655784606933593750
-0.02246339246630668640136718750
0.01792307384312152862548828125
-0.01943520270287990570068359375
-0.05831804871559143066406250000
0.06511836498975753784179687500
0.01968049257993698120117187500
-0.02326450496912002563476562500
-0.01670682244002819061279296875
0.02420135959982872009277343750
-0.03166137263178825378417968750
-0.04134700447320938110351562500
-0.04325376078486442565917968750
-0.09614893794059753417968750000
-0.05288037657737731933593750000
0.00680747581645846366882324219
-0.06819158792495727539062500000
0.06291130185127258300781250000
0.03853396698832511901855468750
-0.00798167847096920013427734375
0.01173130329698324203491210938
0.04418712854385375976562500000
-0.02840590290725231170654296875
0.05642055720090866088867187500
-0.01849635876715183258056640625
-0.07588969171047210693359375000
0.00921567063778638839721679688
0.04701524972915649414062500000
0.11894855648279190063476562500
-0.06074852123856544494628906250
-0.07391542196273803710937500000
-0.05151707306504249572753906250
0.04010120406746864318847656250
0.09945759177207946777343750000
-0.01184513326734304428100585938
0.08345711976289749145507812500
0.03783541917800903320312500000
0.01288750488311052322387695312
-0.08410351723432540893554687500
0.06587376445531845092773437500
0.04017461091279983520507812500
0.10884246230125427246093750000
-0.00212828745134174823760986328
0.10660429298877716064453125000
0.08540516346693038940429687500
-0.06685937941074371337890625000
-0.03928514942526817321777343750
0.04126453399658203125000000000
-0.00736052449792623519897460938
0.04869498685002326965332031250
0.01540515013039112091064453125
-0.00692413141950964927673339844
-0.02736889012157917022705078125
-0.01466328371316194534301757812
0.05231695249676704406738281250
-0.01412533037364482879638671875
0.02191008813679218292236328125
-0.01228238362818956375122070312
-0.00609395653009414672851562500
0.01821576617658138275146484375
0.06263636797666549682617187500
0.01171551644802093505859375000
0.06526317447423934936523437500
-0.02458131872117519378662109375
0.04914157837629318237304687500
-0.05894561484456062316894531250
-0.01890380121767520904541015625
0.02484371885657310485839843750
-0.13541433215141296386718750000
0.02493836171925067901611328125
-0.01067985966801643371582031250
-0.00378718436695635318756103516
0.00611262395977973937988281250
-0.05214090645313262939453125000
0.04953106120228767395019531250
-0.01768885552883148193359375000
0.02299941517412662506103515625
-0.05657431483268737792968750000
-0.02334507182240486145019531250
0.01658255048096179962158203125
-0.07345309108495712280273437500
0.00459513114765286445617675781
-0.05418454110622406005859375000
0.00472716381773352622985839844
-0.02836666069924831390380859375
-0.00008628040086477994918823242
-0.05839003995060920715332031250
-0.01045684516429901123046875000
0.06628189980983734130859375000
0.01301950123161077499389648438
0.01627581752836704254150390625
0.11702153086662292480468750000
0.04926831647753715515136718750
-0.11276468634605407714843750000
-0.07427229732275009155273437500
0.04180028289556503295898437500
-0.05829367414116859436035156250
-0.01358356699347496032714843750
0.07806956022977828979492187500
-0.03342322260141372680664062500
0.20568846166133880615234375000
-0.05663150176405906677246093750
-0.09021136909723281860351562500
-0.00585246132686734199523925781
-0.06823719292879104614257812500
-0.09266703575849533081054687500
0.05540509894490242004394531250
-0.05862618610262870788574218750
-0.06604963541030883789062500000
-0.07104612141847610473632812500
0.01449554320424795150756835938
-0.10051558911800384521484375000
0.01018443703651428222656250000
0.04669105634093284606933593750
-0.04633415490388870239257812500
-0.01509804092347621917724609375
-0.07716213911771774291992187500
-0.03440981358289718627929687500
-0.02084451727569103240966796875
-0.02582416869699954986572265625
-0.03691560775041580200195312500
-0.04828504472970962524414062500
-0.07065728306770324707031250000
0.02467497438192367553710937500
0.05316513031721115112304687500
-0.02371706627309322357177734375
-0.03278205916285514831542968750
-0.03557318821549415588378906250
0.01576010510325431823730468750
0.05040376633405685424804687500
-0.01442156918346881866455078125
0.03824984654784202575683593750
-0.05264800786972045898437500000
0.16151638329029083251953125000
-0.01975233852863311767578125000
0.00094705296214669942855834961
-0.02701114863157272338867187500
0.08900806307792663574218750000
0.05538966506719589233398437500
0.05230661109089851379394531250
0.00281581282615661621093750000
-0.05151441693305969238281250000
-0.03005356900393962860107421875
0.05014036968350410461425781250
-0.03377658501267433166503906250
-0.05312412604689598083496093750
0.11085000634193420410156250000
-0.06358564645051956176757812500
0.17786781489849090576171875000
-0.06448470056056976318359375000
0.01939547993242740631103515625
0.05993891134858131408691406250
0.01436165813356637954711914062
-0.01973422989249229431152343750
0.05599138885736465454101562500
-0.04249576851725578308105468750
-0.04674956575036048889160156250
0.01873277500271797180175781250
0.01519893389195203781127929688
-0.03415694087743759155273437500
0.04429082944989204406738281250
-0.00174112454988062381744384766
-0.00402719900012016296386718750
0.05066077038645744323730468750
0.05657544732093811035156250000
-0.01895019970834255218505859375
-0.04561880975961685180664062500
-0.02462233416736125946044921875
0.02008201368153095245361328125
0.00411698641255497932434082031
-0.05820162221789360046386718750
-0.08384270220994949340820312500
-0.01649243757128715515136718750
0.05013794451951980590820312500
-0.02643782831728458404541015625
0.02738160640001296997070312500
-0.01171248313039541244506835938
0.03812691941857337951660156250
0.03591881692409515380859375000
-0.07526550441980361938476562500
0.04318533465266227722167968750
0.02075491845607757568359375000
0.02354524843394756317138671875
0.02783852070569992065429687500
0.02797011844813823699951171875
0.02361643686890602111816406250
-0.05558572709560394287109375000
0.20615559816360473632812500000
-0.05816461145877838134765625000
0.04155549779534339904785156250
-0.02413861826062202453613281250
-0.04235633835196495056152343750
-0.05167751014232635498046875000
-0.06391951441764831542968750000
-0.01478571072220802307128906250
-0.06164135411381721496582031250
-0.06876873224973678588867187500
0.00073948450153693556785583496
-0.03148165717720985412597656250
0.05029724538326263427734375000
-0.12213809043169021606445312500
0.03397570550441741943359375000
0.06488087028264999389648437500
0.01042552664875984191894531250
-0.10921593010425567626953125000
0.08021550625562667846679687500
-0.03906466066837310791015625000
-0.03113470599055290222167968750
0.00451764743775129318237304688
-0.04525947198271751403808593750
-0.03584367036819458007812500000
0.00206345273181796073913574219
-0.05200583487749099731445312500
0.11579176783561706542968750000
0.01259510219097137451171875000
-0.07324598729610443115234375000
0.00364382541738450527191162109
-0.01164889708161354064941406250
0.00783304963260889053344726562
0.10961937159299850463867187500
0.05862851813435554504394531250
0.02581222169101238250732421875
-0.07259690016508102416992187500
-0.00849891174584627151489257812
0.00732402224093675613403320312
-0.02196881920099258422851562500
-0.02843138761818408966064453125
-0.05002994090318679809570312500
0.00193987577222287654876708984
0.05271970480680465698242187500
0.03208497539162635803222656250
0.03694288805127143859863281250
-0.00455242069438099861145019531
-0.01574233546853065490722656250
-0.01558552123606204986572265625
-0.00899744126945734024047851562
0.03554796054959297180175781250
0.05728308483958244323730468750
-0.01630022190511226654052734375
-0.07399746775627136230468750000
0.00814441312104463577270507812
0.01420060172677040100097656250
-0.04635665938258171081542968750
-0.04049230739474296569824218750
0.01061441469937562942504882812
-0.00239436095580458641052246094
-0.02674885466694831848144531250
-0.00415088981389999389648437500
-0.03361791372299194335937500000
0.03420009836554527282714843750
0.00463052792474627494812011719
-0.04639801383018493652343750000
-0.12433839589357376098632812500
-0.01858502998948097229003906250
-0.03621150925755500793457031250
0.03445398062467575073242187500
-0.06952179968357086181640625000
0.10018222779035568237304687500
0.02383292280137538909912109375
-0.01782525889575481414794921875
0.26530799269676208496093750000
0.05802925676107406616210937500
-0.01639732718467712402343750000
0.01925998181104660034179687500
-0.00234321248717606067657470703
0.03106502629816532135009765625
0.01291002333164215087890625000
-0.01373420748859643936157226562
0.03059312701225280761718750000
-0.08730281144380569458007812500
0.16162079572677612304687500000
0.01125679817050695419311523438
0.03173380717635154724121093750
0.03146227449178695678710937500
0.01646240428090095520019531250
0.01186256017535924911499023438
-0.08328147977590560913085937500
0.02565419673919677734375000000
-0.05947126820683479309082031250
0.02398397214710712432861328125
-0.09155413508415222167968750000
-0.09593200683593750000000000000
-0.04651306197047233581542968750
-0.02814808115363121032714843750
-0.06280621141195297241210937500
0.06411170959472656250000000000
-0.00352839869447052478790283203
-0.07575999200344085693359375000
0.00287964264862239360809326172
0.06966339796781539916992187500
-0.05644030869007110595703125000
0.16297477483749389648437500000
0.02268230728805065155029296875
-0.05337689444422721862792968750
0.26854526996612548828125000000
0.03605253621935844421386718750
0.04361733421683311462402343750
0.00582097098231315612792968750
-0.05846155807375907897949218750
0.02734296582639217376708984375
-0.01625484414398670196533203125
-0.08358243852853775024414062500
-0.02034349553287029266357421875
0.04267104715108871459960937500
0.07344878464937210083007812500
0.04470458254218101501464843750
0.02612799033522605895996093750
-0.02075036987662315368652343750
-0.02544372901320457458496093750
-0.04384742304682731628417968750
-0.04517504200339317321777343750
0.00075707584619522094726562500
0.00058327062288299202919006348
0.18550571799278259277343750000
0.00742272287607192993164062500
0.08503059297800064086914062500
0.05077347904443740844726562500
0.04363308846950531005859375000
0.04172762855887413024902343750
0.02523713186383247375488281250
0.09941077232360839843750000000
-0.03989652916789054870605468750
0.06520868092775344848632812500
-0.03960484266281127929687500000
-0.05618626996874809265136718750
-0.06442020833492279052734375000
-0.00772946607321500778198242188
0.01952444203197956085205078125
-0.01781510934233665466308593750
0.03346426412463188171386718750
0.02689602039754390716552734375
-0.12820701301097869873046875000
0.07301400601863861083984375000
0.00664260750636458396911621094
0.03603544458746910095214843750
-0.05579438060522079467773437500
0.01979124359786510467529296875
-0.00398769602179527282714843750
0.03751707449555397033691406250
-0.15103617310523986816406250000
0.07722409069538116455078125000
0.03282200917601585388183593750
-0.08420649915933609008789062500
0.00229935301467776298522949219
-0.01446236856281757354736328125
0.00930976867675781250000000000
-0.02531069703400135040283203125
0.02650419436395168304443359375
0.02702107653021812438964843750
-0.01512356940656900405883789062
0.06520678102970123291015625000
-0.13530610501766204833984375000
0.01532822288572788238525390625
0.04351879656314849853515625000
-0.03919606283307075500488281250
0.03100633621215820312500000000
-0.02089939080178737640380859375
-0.01042561326175928115844726562
0.05479625239968299865722656250
0.01905532367527484893798828125
0.03607631847262382507324218750
-0.07146561145782470703125000000
0.03097200952470302581787109375
-0.09315913915634155273437500000
0.01989853940904140472412109375
0.03121776320040225982666015625
-0.01954265497624874114990234375
0.09333302825689315795898437500
0.00296331360004842281341552734
0.00808474142104387283325195312
-0.01863156631588935852050781250
0.10097505897283554077148437500
-0.03771830722689628601074218750
-0.01933764107525348663330078125
-0.13719466328620910644531250000
-0.08122626692056655883789062500
0.00655469205230474472045898438
0.03459718450903892517089843750
0.10349307209253311157226562500
0.06541059911251068115234375000
-0.08938369154930114746093750000
0.03264797851443290710449218750
0.08914351463317871093750000000
-0.01055473275482654571533203125
-0.02430294454097747802734375000
-0.03810473531484603881835937500
0.03586592525243759155273437500
-0.04958450794219970703125000000
0.13440248370170593261718750000
0.04795276373624801635742187500
0.00542541733011603355407714844
0.00061965995701029896736145020
-0.10780142247676849365234375000
0.07535903900861740112304687500
-0.01034620311111211776733398438
-0.05263947695493698120117187500
-0.04548954218626022338867187500
0.02069253847002983093261718750
-0.00979201961308717727661132812
-0.00447293417528271675109863281
-0.03135508671402931213378906250
0.01415343210101127624511718750
0.07825618237257003784179687500
-0.04257270693778991699218750000
0.06339972466230392456054687500
0.02227780222892761230468750000
0.06595966219902038574218750000
0.03217248618602752685546875000
0.02193096838891506195068359375
0.06125618144869804382324218750
-0.05087921395897865295410156250
0.09010140597820281982421875000
-0.02577379904687404632568359375
0.01895206607878208160400390625
-0.16303499042987823486328125000
-0.07870882004499435424804687500
-0.02179823815822601318359375000
-0.00641070771962404251098632812
0.00534305488690733909606933594
0.05732083320617675781250000000
0.10231611877679824829101562500
0.04280471429228782653808593750
0.06168372929096221923828125000
0.05605957657098770141601562500
0.09425827860832214355468750000
0.01437097415328025817871093750
0.09702703356742858886718750000
0.00463651539757847785949707031
0.08532390743494033813476562500
0.04728809371590614318847656250
-0.07171548902988433837890625000
-0.06419876962900161743164062500
-0.01105011533945798873901367188
-0.02654534392058849334716796875
-0.01076733134686946868896484375
-0.04621357098221778869628906250
0.03762926533818244934082031250
0.01025425735861063003540039062
-0.01757048256695270538330078125
-0.00350514217279851436614990234
-0.02964930608868598937988281250
-0.03054103814065456390380859375
-0.07980519533157348632812500000
-0.01590749435126781463623046875
-0.00117557984776794910430908203
0.02735543064773082733154296875
-0.04362494498491287231445312500
0.03092421963810920715332031250
-0.05136670172214508056640625000
-0.02202335000038146972656250000
0.10720574110746383666992187500
-0.06457160413265228271484375000
0.00661491695791482925415039062
-0.01547101140022277832031250000
0.10087775439023971557617187500
-0.04486591741442680358886718750
-0.20733638107776641845703125000
-0.07561962306499481201171875000
-0.01204268541187047958374023438
-0.04080710932612419128417968750
-0.00627107731997966766357421875
-0.03035175055265426635742187500
0.01110488828271627426147460938
0.03534668311476707458496093750
-0.02212540060281753540039062500
-0.02605227567255496978759765625
0.03826907649636268615722656250
-0.02090246230363845825195312500
-0.00091763283126056194305419922
0.01769554242491722106933593750
0.13462528586387634277343750000
-0.03923398628830909729003906250
-0.01025242730975151062011718750
-0.04246532171964645385742187500
-0.01245193928480148315429687500
-0.01603814586997032165527343750
0.03788758441805839538574218750
-0.00987959746271371841430664062
-0.03087817691266536712646484375
-0.01651843637228012084960937500
-0.07280700653791427612304687500
-0.03229233995079994201660156250
0.08448846638202667236328125000
0.01712996512651443481445312500
-0.03275899216532707214355468750
-0.06749472767114639282226562500
-0.00277321529574692249298095703
0.08573024719953536987304687500
-0.00191706791520118713378906250
0.04020483419299125671386718750
-0.00449393177404999732971191406
-0.00015401846030727028846740723
-0.03173953667283058166503906250
-0.00236222869716584682464599609
-0.01778757758438587188720703125
-0.03799198567867279052734375000
-0.01338823419064283370971679688
0.03759917989373207092285156250
-0.01124841254204511642456054688
0.11830991506576538085937500000
-0.00078883586684241890907287598
-0.03072907403111457824707031250
0.00453539891168475151062011719
-0.05364038795232772827148437500
0.11677364259958267211914062500
0.02679672464728355407714843750
0.03488436713814735412597656250
-0.09219215810298919677734375000
-0.04730340838432312011718750000
-0.04271893948316574096679687500
-0.13134735822677612304687500000
0.01955272443592548370361328125
0.01167195662856101989746093750
-0.09195081144571304321289062500
-0.03396641463041305541992187500
-0.01525573991239070892333984375
0.05392116680741310119628906250
-0.02084043622016906738281250000
0.05313223972916603088378906250
-0.06199228391051292419433593750
-0.11406525969505310058593750000
-0.12567029893398284912109375000
0.04746899381279945373535156250
0.04050908610224723815917968750
-0.00002783621857815887778997421
0.00643212301656603813171386719
0.01291863620281219482421875000
0.01142996270209550857543945312
-0.00179348606616258621215820312
-0.02394204959273338317871093750
0.04391151294112205505371093750
0.09497164189815521240234375000
-0.02728954702615737915039062500
0.04105745255947113037109375000
0.04043014347553253173828125000
0.03145660832524299621582031250
-0.04113357886672019958496093750
-0.04638841375708580017089843750
0.11436490714550018310546875000
-0.06281197816133499145507812500
0.05166257917881011962890625000
-0.08075273782014846801757812500
0.04629968851804733276367187500
0.00736547354608774185180664062
0.00533762155100703239440917969
0.02363183721899986267089843750
0.01375337224453687667846679688
-0.02845474332571029663085937500
-0.04380501806735992431640625000
-0.00156652391888201236724853516
0.02335072495043277740478515625
0.02949303761124610900878906250
-0.02878580614924430847167968750
0.01590334996581077575683593750
0.04467992112040519714355468750
-0.08219897747039794921875000000
0.04078466072678565979003906250
0.01507752388715744018554687500
-0.02943666651844978332519531250
0.02281733416020870208740234375
0.04529337584972381591796875000
0.03383051231503486633300781250
-0.07626050710678100585937500000
0.04204291850328445434570312500
-0.05950960889458656311035156250
-0.02535631693899631500244140625
0.05758601427078247070312500000
-0.03675933182239532470703125000
0.01829309575259685516357421875
0.02066225744783878326416015625
-0.03356366604566574096679687500
-0.09213319420814514160156250000
-0.03729870170354843139648437500
0.04286650195717811584472656250
0.02438960969448089599609375000
0.01502513233572244644165039062
-0.01711244694888591766357421875
0.00771697238087654113769531250
0.03274502977728843688964843750
0.06037877500057220458984375000
0.00722882710397243499755859375
-0.00855777319520711898803710938
-0.11083849519491195678710937500
-0.03269385546445846557617187500
0.09452945739030838012695312500
0.03158626332879066467285156250
0.04103736579418182373046875000
-0.00187921966426074504852294922
0.07016289234161376953125000000
-0.03957610204815864562988281250
0.09546982496976852416992187500
0.08873853087425231933593750000
-0.01112381741404533386230468750
0.03859701007604598999023437500
-0.06910667568445205688476562500
-0.04185853153467178344726562500
-0.09345822036266326904296875000
-0.01160231512039899826049804688
-0.00553778186440467834472656250
-0.03102098032832145690917968750
-0.00661240285262465476989746094
0.04108434170484542846679687500
0.01254786923527717590332031250
0.03551461547613143920898437500
-0.03913703933358192443847656250
-0.04298977926373481750488281250
-0.01049411669373512268066406250
0.07528009265661239624023437500
-0.03557695075869560241699218750
0.01986679062247276306152343750
-0.07031332701444625854492187500
-0.03160514310002326965332031250
0.04568870738148689270019531250
-0.04627331346273422241210937500
0.02586879208683967590332031250
0.03663520514965057373046875000
0.03563219308853149414062500000
0.05267297104001045227050781250
-0.11056297272443771362304687500
-0.03163537755608558654785156250
-0.00696743978187441825866699219
0.04768892750144004821777343750
-0.09210689365863800048828125000
0.06215666979551315307617187500
-0.10377345234155654907226562500
-0.03382500633597373962402343750
0.01908935979008674621582031250
0.15044148266315460205078125000
0.01218408904969692230224609375
0.01486827339977025985717773438
0.09484838694334030151367187500
-0.05944911018013954162597656250
-0.11443936824798583984375000000
0.13260541856288909912109375000
-0.05607539415359497070312500000
-0.12844347953796386718750000000
-0.02029883861541748046875000000
0.08507455885410308837890625000
-0.09676378220319747924804687500
-0.00163993495516479015350341797
0.07174760848283767700195312500
0.05771385133266448974609375000
-0.02333001047372817993164062500
0.03174598142504692077636718750
0.02303969673812389373779296875
0.07299069315195083618164062500
-0.03658124804496765136718750000
0.00839213281869888305664062500
0.02119695954024791717529296875
0.04912399128079414367675781250
0.04912362247705459594726562500
-0.04655332118272781372070312500
-0.05323043465614318847656250000
0.02703530155122280120849609375
-0.02317621558904647827148437500
-0.06367222964763641357421875000
-0.01794600859284400939941406250
0.00122824963182210922241210938
-0.02688064612448215484619140625
0.00810449011623859405517578125
0.02423396520316600799560546875
-0.00732799107208847999572753906
-0.01631311140954494476318359375
-0.02228093892335891723632812500
0.02842535451054573059082031250
0.05707211792469024658203125000
-0.01002301555126905441284179688
-0.08276523649692535400390625000
0.02040331810712814331054687500
-0.03972462192177772521972656250
-0.06683392077684402465820312500
-0.12440848350524902343750000000
-0.01138069201260805130004882812
-0.03895134106278419494628906250
-0.07403986155986785888671875000
-0.07658804953098297119140625000
0.02667207457125186920166015625
-0.00155069655738770961761474609
-0.01580813527107238769531250000
-0.08552057296037673950195312500
0.17121945321559906005859375000
0.04151953011751174926757812500
-0.04162236303091049194335937500
0.07346230000257492065429687500
0.00661445129662752151489257812
0.02903288044035434722900390625
-0.05047611147165298461914062500
-0.04413040354847908020019531250
0.09486022591590881347656250000
-0.05697579309344291687011718750
-0.08419532328844070434570312500
0.26229694485664367675781250000
0.06974019855260848999023437500
-0.03326465934514999389648437500
-0.01119348406791687011718750000
-0.00214455137029290199279785156
0.01728172414004802703857421875
0.09710396826267242431640625000
-0.01298108231276273727416992188
-0.12214945256710052490234375000
-0.12872007489204406738281250000
-0.03188937529921531677246093750
0.05255864560604095458984375000
-0.04008298739790916442871093750
-0.05585123598575592041015625000
-0.10018249601125717163085937500
0.02482516132295131683349609375
0.11892560124397277832031250000
-0.03166059404611587524414062500
-0.18628098070621490478515625000
0.00151399523019790649414062500
0.03487364575266838073730468750
0.03394787013530731201171875000
-0.06622865796089172363281250000
-0.01611611433327198028564453125
-0.05595069006085395812988281250
-0.00810185167938470840454101562
0.08189981430768966674804687500
-0.02770655602216720581054687500
-0.20095260441303253173828125000
-0.03484845533967018127441406250
-0.07671727985143661499023437500
0.00882378686219453811645507812
-0.02688875049352645874023437500
-0.03956684842705726623535156250
0.12055564671754837036132812500
-0.00175329390913248062133789062
-0.03659971430897712707519531250
0.00966710876673460006713867188
-0.01320391427725553512573242188
-0.01376421470195055007934570312
0.04249543696641921997070312500
0.09855352342128753662109375000
0.05260682851076126098632812500
-0.01361831650137901306152343750
0.02765559777617454528808593750
-0.02254136465489864349365234375
-0.06119074672460556030273437500
-0.00025467871455475687980651855
-0.01818224973976612091064453125
-0.00096865516388788819313049316
-0.00334147876128554344177246094
-0.02121905796229839324951171875
0.00078671728260815143585205078
0.18052619695663452148437500000
0.05261007323861122131347656250
-0.06660068035125732421875000000
0.02286100760102272033691406250
0.04514733701944351196289062500
-0.01121533941477537155151367188
-0.01038109138607978820800781250
0.06027337163686752319335937500
0.06527595967054367065429687500
-0.01919979043304920196533203125
-0.03492798656225204467773437500
0.03485294431447982788085937500
0.03546632826328277587890625000
-0.03041930869221687316894531250
-0.01182779949158430099487304688
-0.06747555732727050781250000000
-0.05380877479910850524902343750
-0.03271969407796859741210937500
-0.04554251208901405334472656250
-0.04824084416031837463378906250
0.08073602616786956787109375000
-0.02906286902725696563720703125
-0.04170406982302665710449218750
0.00449990946799516677856445312
-0.05288835614919662475585937500
0.01423255726695060729980468750
-0.00354226864874362945556640625
0.05213148519396781921386718750
-0.05084958672523498535156250000
-0.02312802709639072418212890625
-0.02869123220443725585937500000
-0.01299098134040832519531250000
0.08338075131177902221679687500
-0.01914938911795616149902343750
-0.06385204195976257324218750000
-0.03252176195383071899414062500
0.00316023034974932670593261719
-0.01859725266695022583007812500
-0.05241711810231208801269531250
-0.08207599073648452758789062500
-0.02348060719668865203857421875
0.01799056306481361389160156250
0.03373526781797409057617187500
0.04134843870997428894042968750
-0.10893167555332183837890625000
0.01093468535691499710083007812
0.16650207340717315673828125000
0.04417020455002784729003906250
0.29498061537742614746093750000
-0.00150434474926441907882690430
0.01068446505814790725708007812
0.02408561296761035919189453125
-0.01035705395042896270751953125
-0.02220521122217178344726562500
0.00380835519172251224517822266
0.10721852630376815795898437500
-0.05138200893998146057128906250
-0.02907477132976055145263671875
-0.07723779976367950439453125000
-0.00384039664641022682189941406
0.01466938015073537826538085938
0.04683621227741241455078125000
-0.02825765870511531829833984375
0.03919798135757446289062500000
0.07290183007717132568359375000
0.00756435003131628036499023438
0.07645874470472335815429687500
-0.03949539363384246826171875000
0.08929055184125900268554687500
-0.03714962676167488098144531250
0.00955542922019958496093750000
0.07835381478071212768554687500
0.03480231016874313354492187500
-0.03124231472611427307128906250
-0.02582212723791599273681640625
0.04167230054736137390136718750
-0.02744331955909729003906250000
0.02633552998304367065429687500
0.08710727095603942871093750000
0.04390797391533851623535156250
0.03296061977744102478027343750
-0.05463603511452674865722656250
0.04262329638004302978515625000
0.20480124652385711669921875000
0.02189685031771659851074218750
0.06990046799182891845703125000
-0.14273411035537719726562500000
0.08703863620758056640625000000
0.06538260728120803833007812500
-0.08393166959285736083984375000
0.02537909708917140960693359375
0.14743085205554962158203125000
-0.01734812371432781219482421875
-0.00922696292400360107421875000
0.03310537338256835937500000000
-0.14323103427886962890625000000
0.02725903317332267761230468750
-0.00608196156099438667297363281
0.05096901953220367431640625000
0.08629184216260910034179687500
-0.02156650088727474212646484375
0.13670921325683593750000000000
-0.08437407016754150390625000000
-0.10397563874721527099609375000
-0.05911342427134513854980468750
-0.00259771989658474922180175781
-0.07023308426141738891601562500
0.10171983391046524047851562500
-0.03108541108667850494384765625
0.03561285883188247680664062500
0.05151003971695899963378906250
0.03570217266678810119628906250
-0.03045390360057353973388671875
0.08620817214250564575195312500
0.01276632305234670639038085938
0.02748943306505680084228515625
0.10119211673736572265625000000
0.05503203347325325012207031250
-0.03806036338210105895996093750
0.00811373349279165267944335938
-0.00405292864888906478881835938
0.09332061558961868286132812500
0.01938795112073421478271484375
0.04118110239505767822265625000
0.12874369323253631591796875000
-0.07828170061111450195312500000
-0.13296395540237426757812500000
-0.02879582718014717102050781250
0.00416159862652420997619628906
0.00183904520235955715179443359
0.05155606567859649658203125000
0.01050631050020456314086914062
0.06310862302780151367187500000
0.11438754200935363769531250000
-0.02702120691537857055664062500
-0.03349265083670616149902343750
-0.01633101701736450195312500000
-0.02136180177330970764160156250
0.00098134274594485759735107422
