-1.316640079021453857e-01
-2.122586816549301147e-01
-3.563455939292907715e-01
-7.016637176275253296e-02
2.437860220670700073e-01
-4.587824344635009766e-01
-2.787953242659568787e-02
7.172094285488128662e-02
2.532134354114532471e-01
-3.184597790241241455e-01
-3.653356432914733887e-01
2.035229206085205078e-01
-1.340950131416320801e-01
8.445257693529129028e-02
3.822476565837860107e-01
-1.734204739332199097e-01
1.517144292593002319e-01
1.985696852207183838e-01
2.188477069139480591e-01
2.500329315662384033e-01
-1.521851029247045517e-02
-2.637199163436889648e-01
-1.163611784577369690e-01
2.877572476863861084e-01
-3.470692932605743408e-01
-3.240142017602920532e-02
2.937129735946655273e-01
1.421004533767700195e-02
-2.572275102138519287e-01
2.622759342193603516e-01
-3.098805844783782959e-01
-2.569629549980163574e-01
2.834452986717224121e-01
2.836786024272441864e-02
1.643965542316436768e-01
3.126595914363861084e-01
1.555512398481369019e-01
1.130929067730903625e-01
-5.767504125833511353e-02
3.510739505290985107e-01
9.243078529834747314e-02
-4.501196742057800293e-01
-1.364606469869613647e-01
-1.104507222771644592e-01
-1.125040650367736816e-01
1.896458715200424194e-01
1.566724032163619995e-01
2.434910386800765991e-01
2.650942802429199219e-01
-3.581643104553222656e-01
2.423736304044723511e-01
1.206469386816024780e-01
3.610521256923675537e-01
3.383605480194091797e-01
-2.983163893222808838e-01
3.629283905029296875e-01
5.200417041778564453e-01
-3.555616736412048340e-01
6.974109262228012085e-02
-4.822130128741264343e-02
4.344932436943054199e-01
1.155550554394721985e-01
1.899099349975585938e-01
-2.463266700506210327e-01
2.535701394081115723e-01
-2.285120189189910889e-01
-4.558000266551971436e-01
-3.619447946548461914e-01
1.695886105298995972e-01
-3.334740102291107178e-01
3.557300567626953125e-02
1.940389871597290039e-01
2.795717120170593262e-01
4.316039085388183594e-01
-2.146033644676208496e-01
3.195776641368865967e-01
2.361413240432739258e-01
2.902574092149734497e-02
-2.122528292238712311e-02
1.582004129886627197e-01
-9.102802723646163940e-02
-2.376469820737838745e-01
1.076716408133506775e-01
8.967135846614837646e-02
-2.758070081472396851e-02
-4.681991040706634521e-01
-1.803257018327713013e-01
-1.756171733140945435e-01
3.247559964656829834e-01
1.163718849420547485e-01
2.500695288181304932e-01
-1.709193736314773560e-01
1.081508472561836243e-01
2.934154309332370758e-02
-4.320767894387245178e-02
6.760773807764053345e-02
1.958512663841247559e-01
1.607819944620132446e-01
-8.236266672611236572e-02
6.493776291608810425e-02
3.453979268670082092e-02
-4.691211879253387451e-02
-4.533028975129127502e-02
-2.810942567884922028e-02
3.260485231876373291e-01
-9.681999683380126953e-02
7.998232543468475342e-02
1.549645513296127319e-01
-3.246287703514099121e-01
1.620916277170181274e-01
-6.696610897779464722e-02
-2.067982777953147888e-02
-3.947166502475738525e-01
-2.538833022117614746e-01
-9.166809171438217163e-02
2.908897101879119873e-01
1.293259561061859131e-01
-1.624000668525695801e-01
2.958649396896362305e-01
1.979140788316726685e-01
-2.564964890480041504e-01
2.088463753461837769e-01
-3.550415337085723877e-01
-1.208186373114585876e-01
1.588640809059143066e-01
1.632838323712348938e-02
1.626678258180618286e-01
-1.120194494724273682e-01
