5.135751962661743164e-01
-4.093433916568756104e-01
-5.057312846183776855e-01
2.611153293401002884e-03
2.991611063480377197e-01
4.773710668087005615e-01
-8.999741673469543457e-01
-7.090106606483459473e-01
-6.930113434791564941e-01
1.568726450204849243e-01
3.866566419601440430e-01
4.585355054587125778e-04
2.038244903087615967e-01
1.579854339361190796e-01
-4.737183451652526855e-01
1.014820560812950134e-01
6.075137108564376831e-02
5.708844661712646484e-01
8.871539682149887085e-02
2.114398330450057983e-01
1.191575825214385986e-01
-3.291210234165191650e-01
2.627657651901245117e-01
-2.047405540943145752e-01
-1.410210728645324707e-01
-5.459101796150207520e-01
4.321986734867095947e-01
-9.946216940879821777e-01
3.082603514194488525e-01
-7.604797929525375366e-02
1.968344748020172119e-01
1.503355354070663452e-01
7.649239897727966309e-01
-5.272383093833923340e-01
-2.279807925224304199e-01
-3.612554967403411865e-01
1.708010435104370117e-01
3.148692250251770020e-01
-1.082064434885978699e-01
-2.272100746631622314e-01
-1.419451832771301270e-01
-3.390813991427421570e-02
1.045524701476097107e-01
6.196146011352539062e-01
1.002164483070373535e+00
8.175757527351379395e-01
-1.718876212835311890e-01
-3.831164836883544922e-01
5.131242871284484863e-01
-2.042354345321655273e-01
-7.433985471725463867e-01
-1.727878153324127197e-01
4.409039020538330078e-01
-4.433242082595825195e-01
5.053578615188598633e-01
4.805226624011993408e-02
6.884974986314773560e-02
7.161572575569152832e-02
-2.748878896236419678e-01
-6.199274063110351562e-01
-4.618321955204010010e-01
3.531885147094726562e-01
3.394860923290252686e-01
-2.233991473913192749e-01
-2.684430480003356934e-01
9.746683239936828613e-01
2.138200998306274414e-01
8.087674528360366821e-02
-3.120107948780059814e-01
2.326991260051727295e-01
-3.084734082221984863e-01
-5.865391492843627930e-01
-1.081264019012451172e+00
1.281717699021100998e-02
6.528343558311462402e-01
6.106955409049987793e-01
-5.789463520050048828e-01
9.125164747238159180e-01
1.075321361422538757e-01
2.851947247982025146e-01
4.189019501209259033e-01
2.030671238899230957e-01
-2.778762876987457275e-01
-7.390819787979125977e-01
-1.377897262573242188e-01
-1.391489896923303604e-02
-1.164996400475502014e-01
2.056921124458312988e-01
-3.794603943824768066e-01
-3.194633126258850098e-02
-4.405418634414672852e-01
5.523312687873840332e-01
-5.419654846191406250e-01
-1.107228159904479980e+00
5.658661127090454102e-01
-1.018912941217422485e-01
-7.347522974014282227e-01
4.243434965610504150e-02
-1.784428954124450684e-01
-3.877154588699340820e-01
8.427317142486572266e-01
5.865288376808166504e-01
7.453392148017883301e-01
-3.720005154609680176e-01
1.187919918447732925e-02
-4.656627774238586426e-01
-4.525495469570159912e-01
-1.079428553581237793e+00
6.849543657153844833e-03
1.094201132655143738e-01
-2.226552069187164307e-01
4.091791808605194092e-01
-1.279345899820327759e-01
9.157027304172515869e-02
-3.306446596980094910e-02
-4.177460372447967529e-01
5.459160804748535156e-01
7.618867754936218262e-01
5.945138931274414062e-01
-3.843591809272766113e-01
1.903278976678848267e-01
3.133949339389801025e-01
2.818754501640796661e-02
-2.462329566478729248e-01
1.246423602104187012e+00
-1.449192911386489868e-01
5.951207280158996582e-01
1.230058372020721436e-01
