1.054837927222251892e-02,-1.294718217104673386e-02,-7.488384842872619629e-02,6.652400642633438110e-02,2.773536741733551025e-01,1.295717507600784302e-01,1.241923347115516663e-01,-2.937554419040679932e-01,-1.280732601881027222e-01,-1.622000150382518768e-02,2.703008353710174561e-01,-8.724377304315567017e-02,3.322221040725708008e-01,-7.612920552492141724e-02,5.414760485291481018e-02,1.502401828765869141e-01,2.631116509437561035e-01,6.243940442800521851e-02,1.576543413102626801e-02,-1.088113039731979370e-01,1.115803346037864685e-01,2.379499971866607666e-01,1.723439991474151611e-01,6.119218841195106506e-02,6.797537952661514282e-02,-3.545538485050201416e-01,2.763184905052185059e-02,-1.246333420276641846e-01,-3.561175465583801270e-01,1.414726376533508301e-01,-5.360932946205139160e-01,-1.369547247886657715e-01,5.148896016180515289e-03,1.073024198412895203e-01,-2.409813404083251953e-01,-1.322966068983078003e-01,1.384508796036243439e-02,1.571119725704193115e-01,6.665828078985214233e-02,1.456421911716461182e-01,-2.351421713829040527e-01,1.421415507793426514e-01,9.997863322496414185e-02,-1.535219252109527588e-01,-2.479703426361083984e-01,2.753097005188465118e-02,5.033325403928756714e-02,-1.918357983231544495e-02,-1.922177523374557495e-01,-1.802764385938644409e-01,-5.489451065659523010e-02,1.430608183145523071e-01,-2.245051562786102295e-01,-2.571337521076202393e-01,-2.544736489653587341e-02,8.111272752285003662e-02,-1.247559189796447754e-01,-1.375833898782730103e-01,-9.998293966054916382e-02,-2.896085381507873535e-01,-4.692004621028900146e-02,2.720442414283752441e-01,3.235357701778411865e-01,-2.352919578552246094e-01,-1.925361007452011108e-01,-1.133908554911613464e-01,3.444760665297508240e-02,-2.540329992771148682e-01,-5.018020421266555786e-02,-1.497376943007111549e-03,-1.221750900149345398e-01,-6.928703188896179199e-02,1.049903631210327148e-01,-1.382255405187606812e-01,-1.363579332828521729e-01,9.923041611909866333e-02,2.377935945987701416e-01,-7.131417747586965561e-03,-1.269470062106847763e-02,1.144531071186065674e-01,-4.734959825873374939e-02,-1.392331421375274658e-01,-2.141924202442169189e-01,-4.582267627120018005e-02,-1.288778334856033325e-01,3.107027709484100342e-01,-9.599240124225616455e-02,3.956156224012374878e-02,2.058967798948287964e-01,-3.479512780904769897e-02,-1.524254232645034790e-01,-1.208000332117080688e-01,-4.713993892073631287e-02,6.682421267032623291e-02,1.034412253648042679e-02,1.280999928712844849e-01,1.356412917375564575e-01,-3.778406232595443726e-02,1.279512941837310791e-01,-4.809706006199121475e-03,3.043304942548274994e-02,-3.357828781008720398e-02,-3.426808118820190430e-02,2.083071470260620117e-01,-1.922148317098617554e-01,1.889977306127548218e-01,-3.871589154005050659e-02,-6.560166925191879272e-02,-6.341759115457534790e-02,5.349320918321609497e-02,1.337044239044189453e-01,6.354995071887969971e-02,8.094692230224609375e-02,1.365228146314620972e-01,-1.008512899279594421e-01,3.252748847007751465e-01,-3.526374101638793945e-01,-5.479544773697853088e-02,1.104821190237998962e-01,-2.421156466007232666e-01,1.691122949123382568e-01,-3.071429729461669922e-01,1.574797928333282471e-01,-7.261442020535469055e-03,-2.699665352702140808e-02,1.265928894281387329e-01,1.217721998691558838e-01,8.119484782218933105e-02
-1.206267327070236206e-01,1.980881989002227783e-01,3.470310568809509277e-02,2.975260280072689056e-02,1.489239782094955444e-01,-7.985185831785202026e-02,3.363462984561920166e-01,3.533869609236717224e-02,-7.482559978961944580e-02,1.477104574441909790e-01,-1.115291491150856018e-01,1.340578198432922363e-01,-2.583061456680297852e-01,-4.378591850399971008e-02,1.152556166052818298e-01,2.422259189188480377e-03,-1.064746677875518799e-01,2.657776512205600739e-02,1.324423402547836304e-01,-1.249676346778869629e-01,6.103371381759643555e-01,2.689248323440551758e-01,-1.254420280456542969e-01,1.781070083379745483e-01,-3.160359710454940796e-02,2.604428827762603760e-01,-2.811644971370697021e-01,-1.998106092214584351e-01,-1.714031547307968140e-01,2.377674169838428497e-02,2.982012033462524414e-01,-9.077434428036212921e-03,-1.250307708978652954e-01,-2.395245432853698730e-01,-4.113478586077690125e-02,1.341897547245025635e-01,-1.160557046532630920e-01,9.510103613138198853e-02,-1.616680771112442017e-01,-4.267993569374084473e-02,4.126746952533721924e-02,-1.469240486621856689e-01,1.175514012575149536e-01,-9.000489860773086548e-02,-1.280410885810852051e-01,-9.423718601465225220e-02,1.215390786528587341e-01,3.364448994398117065e-02,-1.323184221982955933e-01,2.068814821541309357e-03,1.977404505014419556e-01,-8.920726925134658813e-02,-1.995004117488861084e-01,3.175145983695983887e-01,-2.290016412734985352e-02,-2.692022360861301422e-02,2.810334563255310059e-01,-5.516405403614044189e-02,-1.602307260036468506e-01,-1.123135983943939209e-01,3.287390172481536865e-01,-1.341810524463653564e-01,2.829842269420623779e-02,1.912299096584320068e-01,9.990413673222064972e-03,1.992616951465606689e-01,-9.757516533136367798e-02,1.024467125535011292e-02,-6.073663756251335144e-02,-2.184257358312606812e-01,-8.155901730060577393e-02,9.478558599948883057e-02,-4.079175647348165512e-03,-1.558095365762710571e-01,2.888058871030807495e-02,-1.693263649940490723e-02,6.016443297266960144e-02,-1.421182751655578613e-01,1.402024477720260620e-01,-5.145472940057516098e-03,-5.559316650032997131e-02,5.156886298209428787e-03,3.768379986286163330e-02,-8.030304312705993652e-02,9.569847956299781799e-03,2.950018085539340973e-02,1.180689875036478043e-02,-4.808652400970458984e-01,1.377111524343490601e-01,1.379964500665664673e-01,-8.685180917382240295e-03,9.238075464963912964e-02,-2.132571786642074585e-01,5.515712872147560120e-02,-5.036179348826408386e-02,-1.220863088965415955e-01,-9.407684206962585449e-02,5.619027465581893921e-02,-6.235587224364280701e-02,1.088679209351539612e-01,1.789900362491607666e-01,-4.773395135998725891e-03,-1.988943964242935181e-01,2.023010142147541046e-02,-7.160942256450653076e-02,3.667606785893440247e-02,5.057381987571716309e-01,-4.053577184677124023e-01,1.255248188972473145e-01,2.307896912097930908e-01,5.925204232335090637e-02,-7.048255205154418945e-02,1.019997820258140564e-01,7.032360881567001343e-02,-2.235415764153003693e-02,1.021313294768333435e-01,-8.164238184690475464e-02,1.883661001920700073e-01,1.635745316743850708e-01,7.667086273431777954e-02,-9.563949704170227051e-02,-5.806144326925277710e-02,1.766792535781860352e-01,1.546319872140884399e-01,-6.461106985807418823e-02,-5.851518362760543823e-04,-9.709446132183074951e-02,-4.436640441417694092e-02
-2.649768590927124023e-01,-3.267651200294494629e-01,-1.463556140661239624e-01,-2.313345372676849365e-01,4.604500904679298401e-02,5.816541984677314758e-02,2.313714921474456787e-01,1.037453785538673401e-01,1.354863028973340988e-02,-3.170397579669952393e-01,-7.016252726316452026e-02,-7.650388032197952271e-02,1.018443107604980469e-01,-1.509028077125549316e-01,3.051795959472656250e-01,2.164839506149291992e-01,-3.989249467849731445e-02,-1.073997467756271362e-01,-1.934513896703720093e-01,6.922268122434616089e-02,-1.294861547648906708e-02,1.316359341144561768e-01,-1.140671148896217346e-01,-4.253236204385757446e-02,2.633094489574432373e-01,-8.720445632934570312e-02,2.027303427457809448e-01,1.039432138204574585e-01,2.846186049282550812e-02,-7.857323437929153442e-02,3.043346107006072998e-02,-1.141049787402153015e-01,-6.630767881870269775e-02,-5.295156501233577728e-03,1.470251381397247314e-01,1.411615610122680664e-01,1.645669341087341309e-01,3.516085073351860046e-02,-3.115311264991760254e-01,-2.484522014856338501e-01,2.654862403869628906e-01,1.096470206975936890e-01,2.807185053825378418e-01,-3.454505503177642822e-01,4.346259310841560364e-02,4.566981792449951172e-01,2.185974270105361938e-01,1.293326020240783691e-01,3.194909095764160156e-01,1.743959933519363403e-01,-1.246025562286376953e-01,-2.176091223955154419e-01,-5.233704298734664917e-02,1.478145122528076172e-01,1.139838919043540955e-01,5.419993773102760315e-02,-1.564393043518066406e-01,1.524737477302551270e-02,5.582819879055023193e-02,8.262119255959987640e-03,1.047489792108535767e-01,-4.196548461914062500e-01,-1.355327516794204712e-01,-3.170662000775337219e-02,-3.347236290574073792e-02,-1.770196110010147095e-01,1.004440803080797195e-02,3.803159296512603760e-02,-2.582243382930755615e-01,-1.739712618291378021e-02,6.506502628326416016e-02,-1.382932364940643311e-01,3.660273253917694092e-01,-3.312332928180694580e-01,1.029308047145605087e-02,6.745565682649612427e-02,-1.242850273847579956e-01,9.951278567314147949e-02,-2.581146061420440674e-01,-1.970786005258560181e-01,1.100257858633995056e-01,1.568106561899185181e-01,6.048572808504104614e-02,-1.089185997843742371e-01,-5.387996137142181396e-02,-5.492085125297307968e-03,1.542879790067672729e-01,-2.364314049482345581e-01,-7.448801398277282715e-02,-6.039199233055114746e-02,-1.617929488420486450e-01,1.861710846424102783e-01,9.253197908401489258e-02,1.833998262882232666e-01,8.186531811952590942e-02,1.881678849458694458e-01,1.270097941160202026e-01,1.076655313372612000e-01,1.770431697368621826e-01,1.078881174325942993e-01,1.531481444835662842e-01,-4.511178433895111084e-01,-5.879581719636917114e-02,-4.604673013091087341e-02,2.658775821328163147e-02,-9.603232145309448242e-02,-1.645481884479522705e-01,-1.695228070020675659e-01,-2.677590027451515198e-02,-7.363650947809219360e-02,1.829146742820739746e-01,1.465993095189332962e-02,2.046398967504501343e-01,-2.718904055655002594e-02,1.335811316967010498e-01,-2.217979431152343750e-01,4.372102394700050354e-02,1.087233200669288635e-01,-5.465574562549591064e-02,1.678514182567596436e-01,-2.199859358370304108e-02,1.623720079660415649e-01,2.527525424957275391e-01,-1.480013728141784668e-01,-1.172838360071182251e-02,3.294689953327178955e-01,3.401410952210426331e-02,-1.837366521358489990e-01
-2.133514545857906342e-02,9.138190746307373047e-02,3.105479106307029724e-02,-2.154884859919548035e-02,-2.382423169910907745e-02,-5.274114012718200684e-02,1.274979710578918457e-01,9.719962626695632935e-02,1.540512032806873322e-02,6.430848687887191772e-02,-5.298899486660957336e-02,1.594316773116588593e-02,1.126214265823364258e-01,2.844530902802944183e-02,2.552193216979503632e-02,5.576941743493080139e-02,4.521251469850540161e-02,2.960232645273208618e-02,-3.134530782699584961e-02,-4.522710293531417847e-02,-3.517352417111396790e-02,5.358596891164779663e-02,-1.083187758922576904e-02,5.658811703324317932e-02,-3.642377257347106934e-02,1.224961038678884506e-02,5.834460258483886719e-02,9.825851768255233765e-02,-3.114002943038940430e-02,2.320173196494579315e-02,-6.699647754430770874e-02,-4.208191856741905212e-02,-1.686887815594673157e-02,5.087764561176300049e-02,-3.155880421400070190e-02,3.198339417576789856e-02,9.419812262058258057e-02,2.777695469558238983e-02,8.441863954067230225e-02,5.911869183182716370e-02,1.126550808548927307e-01,-5.211845785379409790e-02,7.248976081609725952e-02,-9.189906530082225800e-03,-9.521399438381195068e-02,-2.105870051309466362e-03,2.068199403584003448e-02,-1.475778780877590179e-02,-9.462949633598327637e-02,2.019392326474189758e-03,4.163830599281936884e-04,3.876795526593923569e-04,-4.331946372985839844e-03,-4.371284693479537964e-02,3.124476969242095947e-02,-2.294934168457984924e-02,4.911994561553001404e-02,3.907186165452003479e-02,-9.663945436477661133e-02,4.039594158530235291e-02,3.379615768790245056e-02,-2.994746435433626175e-03,-3.518882021307945251e-02,9.127655997872352600e-03,2.848931774497032166e-02,8.872584998607635498e-02,-3.023828193545341492e-02,2.492145076394081116e-02,1.451566163450479507e-02,-5.648947134613990784e-02,3.177838400006294250e-02,7.099701464176177979e-02,1.377309411764144897e-01,-5.193656682968139648e-02,1.422873232513666153e-02,6.412361562252044678e-02,-2.047291025519371033e-02,7.443962991237640381e-02,8.561749756336212158e-02,-4.073310643434524536e-02,2.016818709671497345e-02,-6.862025707960128784e-02,-4.039262235164642334e-02,2.081004716455936432e-02,-3.920613229274749756e-02,6.032278761267662048e-02,-1.303990334272384644e-01,9.620945900678634644e-02,4.594215378165245056e-02,1.997563987970352173e-03,6.262105703353881836e-02,-4.706451296806335449e-02,1.193601451814174652e-02,-7.307208329439163208e-02,2.031262777745723724e-02,2.195750549435615540e-02,1.038484945893287659e-01,-6.412784010171890259e-02,3.980594128370285034e-02,3.573619574308395386e-02,1.527219358831644058e-02,3.531317412853240967e-02,7.383354753255844116e-02,-2.529106847941875458e-02,-7.865385711193084717e-02,-1.276895701885223389e-01,7.247630506753921509e-02,6.662067025899887085e-02,-4.722503945231437683e-02,4.438387975096702576e-02,1.345202177762985229e-01,1.993263512849807739e-02,-8.786762505769729614e-02,1.720884256064891815e-02,-2.653841115534305573e-02,-3.607644140720367432e-02,-2.799659036099910736e-02,7.049798965454101562e-02,9.982718527317047119e-02,3.053140640258789062e-02,-4.102266952395439148e-02,-2.348199486732482910e-02,-5.923629552125930786e-02,3.060122486203908920e-03,1.281188521534204483e-02,9.836472570896148682e-02,-8.453232236206531525e-03,3.101308271288871765e-02
1.388812512159347534e-01,9.498346596956253052e-02,-1.740036904811859131e-02,-2.685358822345733643e-01,-2.841129302978515625e-01,-3.064099699258804321e-03,-1.531491428613662720e-01,-1.176775339990854263e-02,-1.022063270211219788e-01,1.673713326454162598e-01,-2.677977085113525391e-01,1.781803071498870850e-01,1.670020967721939087e-01,5.949420481920242310e-02,-2.136842906475067139e-01,8.646065369248390198e-03,3.274390995502471924e-01,3.604234009981155396e-02,-4.394649714231491089e-02,-3.134751617908477783e-01,-2.232998237013816833e-02,1.846006512641906738e-01,-1.446626335382461548e-01,1.988434931263327599e-03,-3.457727283239364624e-02,9.657299518585205078e-02,1.388825476169586182e-01,1.078379526734352112e-02,8.118484169244766235e-02,2.605748921632766724e-02,-7.195929437875747681e-02,2.070485502481460571e-01,8.279083413071930408e-04,3.809931874275207520e-01,4.009357690811157227e-01,-6.861061602830886841e-02,-2.896982431411743164e-01,2.219099178910255432e-02,-9.262759983539581299e-02,1.356557607650756836e-01,-2.807459235191345215e-01,4.783386364579200745e-02,6.266064941883087158e-02,-7.682242989540100098e-02,1.046021133661270142e-01,1.937470212578773499e-02,-1.066420823335647583e-01,1.279153227806091309e-01,-5.346811935305595398e-02,-3.934254124760627747e-02,3.343828395009040833e-02,-5.643477663397789001e-02,-2.436464130878448486e-01,-2.951810695230960846e-02,7.664963603019714355e-02,-1.488978415727615356e-01,-5.182043462991714478e-02,-1.270524859428405762e-01,3.045232594013214111e-01,4.171325638890266418e-02,-1.008203327655792236e-01,-1.800089776515960693e-01,3.613060712814331055e-02,-3.645623102784156799e-02,-6.997212022542953491e-02,8.765317499637603760e-03,1.016728952527046204e-01,7.052198052406311035e-02,4.419839754700660706e-02,1.138551533222198486e-01,6.742664426565170288e-02,1.979874372482299805e-01,2.929369509220123291e-01,-2.208736091852188110e-01,-2.384694665670394897e-02,6.662630289793014526e-02,1.045041680335998535e-01,-1.096931938081979752e-02,-1.116150394082069397e-01,-1.777810454368591309e-01,-5.580135039053857327e-04,-2.380197942256927490e-01,3.574861213564872742e-02,-9.584403038024902344e-02,2.503069639205932617e-01,2.440384030342102051e-02,-2.469019740819931030e-01,4.995632544159889221e-02,-1.409430354833602905e-01,2.121669948101043701e-01,2.330191582441329956e-01,1.566449254751205444e-01,2.155243009328842163e-01,-5.902331322431564331e-02,9.459360688924789429e-02,-1.081165894865989685e-01,-8.321337401866912842e-02,3.198937773704528809e-01,3.056689910590648651e-02,-1.403020769357681274e-01,1.171990018337965012e-02,9.876897186040878296e-02,-1.311131566762924194e-01,2.601480484008789062e-01,-1.111348867416381836e-01,-4.987093433737754822e-02,-3.378023579716682434e-02,8.480196446180343628e-02,1.169861033558845520e-01,1.818652600049972534e-01,2.002063393592834473e-02,1.911544986069202423e-02,-5.339228361845016479e-02,-1.716085672378540039e-01,-7.857981324195861816e-02,-2.188179045915603638e-01,5.502704903483390808e-02,1.740877702832221985e-02,-1.985014528036117554e-01,1.250495761632919312e-01,1.131073106080293655e-02,2.598605677485466003e-02,-1.372779309749603271e-01,3.803561925888061523e-01,3.352236002683639526e-02,-8.757662028074264526e-02,1.189392358064651489e-01,2.049510926008224487e-01
-2.483655326068401337e-02,-1.737001091241836548e-01,3.822775781154632568e-01,-3.252355754375457764e-02,-7.700241170823574066e-03,1.531629562377929688e-01,-6.357890367507934570e-02,-4.379989579319953918e-02,-2.171102352440357208e-02,-1.338706910610198975e-01,3.447303175926208496e-01,2.654171362519264221e-02,1.789868772029876709e-01,-2.887060865759849548e-02,4.132332652807235718e-02,2.489495091140270233e-02,-1.231550201773643494e-01,1.217575520277023315e-01,-9.721810370683670044e-02,3.042966127395629883e-02,-6.828752905130386353e-02,-8.482082933187484741e-02,9.801304340362548828e-02,-5.872076004743576050e-02,-1.032588928937911987e-01,-1.393028646707534790e-01,2.295388430356979370e-01,7.286599278450012207e-02,1.730517111718654633e-02,1.364404857158660889e-01,3.927301615476608276e-02,1.732183694839477539e-01,-2.985498905181884766e-01,-2.674327492713928223e-01,-4.391485452651977539e-02,8.087223023176193237e-02,-7.638717442750930786e-02,2.627934217453002930e-01,-4.565026145428419113e-03,-1.785317249596118927e-02,-9.093383699655532837e-02,-6.920231878757476807e-02,-2.597297430038452148e-01,3.052524104714393616e-02,6.588970869779586792e-02,-9.997057728469371796e-03,6.051038578152656555e-02,-4.264591634273529053e-02,-2.031693011522293091e-01,-1.460032910108566284e-01,2.484762072563171387e-01,-1.499685943126678467e-01,5.626958608627319336e-02,-2.283651530742645264e-01,1.463122665882110596e-01,6.429530214518308640e-03,5.405277013778686523e-02,-1.523188129067420959e-02,2.370743080973625183e-02,-2.238026857376098633e-01,2.340230196714401245e-01,-1.054123789072036743e-01,-6.032187119126319885e-02,1.201831176877021790e-01,-1.900894641876220703e-01,1.122621521353721619e-01,-1.108552590012550354e-01,4.379760939627885818e-03,4.635278135538101196e-02,-1.964254528284072876e-01,4.132018238306045532e-02,1.686571687459945679e-01,-2.228531688451766968e-01,-1.662977039813995361e-01,1.558858603239059448e-01,-6.691531091928482056e-02,-1.776210069656372070e-01,1.199057847261428833e-01,1.555717736482620239e-01,-9.802953153848648071e-02,-1.853251755237579346e-01,-7.507105171680450439e-02,-4.438989236950874329e-02,-1.195223480463027954e-01,1.019439250230789185e-01,-1.954318881034851074e-01,-2.710637748241424561e-01,7.176531851291656494e-02,-2.284704148769378662e-02,1.032607927918434143e-01,4.225439950823783875e-02,1.317861527204513550e-01,1.137805283069610596e-01,-3.960993885993957520e-02,9.741822257637977600e-03,-1.281557232141494751e-01,1.321411132812500000e-01,7.375556975603103638e-02,1.813161745667457581e-02,-1.646469384431838989e-01,1.368208080530166626e-01,-1.789588481187820435e-01,-3.163713589310646057e-02,1.387461572885513306e-01,7.782673090696334839e-02,-8.539541065692901611e-02,1.854855939745903015e-02,-4.640047997236251831e-02,-6.479650735855102539e-02,4.382802173495292664e-02,9.114267677068710327e-02,3.397326171398162842e-02,-2.108532004058361053e-02,8.444033563137054443e-02,1.179053932428359985e-01,6.096459180116653442e-02,2.268076241016387939e-01,3.641237737610936165e-03,-5.759259313344955444e-02,-8.102107793092727661e-02,1.450157016515731812e-01,1.430454999208450317e-01,-6.005299091339111328e-02,-8.762725442647933960e-02,2.585520744323730469e-01,-1.180249154567718506e-01,-2.535611856728792191e-03,-1.718519777059555054e-01
2.842831797897815704e-02,-2.304426580667495728e-01,-4.723811522126197815e-02,1.173465326428413391e-01,-8.184697479009628296e-02,-1.879646182060241699e-01,1.183066293597221375e-01,-2.267244905233383179e-01,1.138347461819648743e-01,-1.623603403568267822e-01,8.472673594951629639e-03,-5.068909004330635071e-02,-1.201020553708076477e-01,-6.917432695627212524e-02,-9.386419504880905151e-02,2.602146863937377930e-01,3.346177190542221069e-02,2.132717669010162354e-01,-1.491395197808742523e-02,-4.837496206164360046e-02,-9.307068586349487305e-02,-4.263476654887199402e-02,5.766049399971961975e-02,1.339695751667022705e-01,1.380894482135772705e-01,1.564065068960189819e-01,-4.412657767534255981e-02,1.207034215331077576e-01,4.250058904290199280e-03,7.572297006845474243e-02,1.523571833968162537e-02,-1.413462311029434204e-01,2.630048245191574097e-02,1.440367996692657471e-01,1.723507195711135864e-01,2.419643700122833252e-01,1.330432668328285217e-02,-1.999026350677013397e-02,-2.873132564127445221e-02,1.525509804487228394e-01,-3.064468316733837128e-02,-1.958287507295608521e-01,1.705757379531860352e-01,-1.352330744266510010e-01,7.225419580936431885e-02,7.136152684688568115e-02,1.222192961722612381e-02,-2.004936523735523224e-02,3.015050292015075684e-02,1.684638410806655884e-01,2.096562236547470093e-01,-3.161749988794326782e-02,-3.056261129677295685e-02,8.155596256256103516e-02,3.224224597215652466e-02,-1.755188107490539551e-01,5.685150995850563049e-02,-2.178704924881458282e-02,4.625332355499267578e-02,-1.170131936669349670e-01,3.273107856512069702e-02,5.935412272810935974e-02,-1.128804869949817657e-03,-3.048061765730381012e-02,5.405914783477783203e-02,9.240661747753620148e-03,-6.146348267793655396e-02,-1.089339926838874817e-01,-1.187847740948200226e-02,2.009965777397155762e-01,3.873001784086227417e-02,1.174730211496353149e-01,-4.579995200037956238e-02,-1.617191880941390991e-01,-1.545037180185317993e-01,-4.442191869020462036e-02,-4.385259747505187988e-02,1.580753326416015625e-01,-1.917656809091567993e-01,3.262244863435626030e-03,-8.601360023021697998e-02,-3.670915961265563965e-02,-1.270971819758415222e-02,2.735069990158081055e-01,-1.312573105096817017e-01,-1.361870020627975464e-01,-4.996569082140922546e-02,3.662347048521041870e-02,1.461599022150039673e-01,2.380623295903205872e-02,3.079574927687644958e-02,1.404380500316619873e-01,-4.511572420597076416e-02,1.966646611690521240e-01,2.006133496761322021e-01,2.569485902786254883e-01,-2.004613429307937622e-01,-1.546244975179433823e-02,5.625468492507934570e-02,-7.982085645198822021e-02,-1.651747822761535645e-01,8.873082697391510010e-02,2.128771394491195679e-01,-1.742644757032394409e-01,-2.207199037075042725e-01,1.993348449468612671e-01,1.038145422935485840e-01,1.805386133491992950e-02,9.244896471500396729e-02,5.543927475810050964e-02,-1.240460481494665146e-02,-5.267030000686645508e-02,-2.242144644260406494e-01,-9.612776339054107666e-02,-4.335150495171546936e-02,-1.192929223179817200e-01,-6.200033798813819885e-02,8.360330015420913696e-02,9.236530959606170654e-02,-2.205859273672103882e-01,2.363753467798233032e-01,-2.090173214673995972e-02,-5.869683250784873962e-02,-6.485835462808609009e-02,1.348960846662521362e-01,-1.333647668361663818e-01,-4.217469319701194763e-02,-2.509782277047634125e-02
9.722323715686798096e-02,3.038273453712463379e-01,1.650591567158699036e-02,7.714106887578964233e-02,8.824235945940017700e-02,4.196866229176521301e-02,-1.256370991468429565e-01,-1.133729983121156693e-02,8.403533697128295898e-02,1.204284057021141052e-01,1.772719919681549072e-01,-2.616770938038825989e-02,-1.035766899585723877e-01,1.845774948596954346e-01,5.153794214129447937e-02,-5.999083817005157471e-02,1.898553073406219482e-01,9.606499969959259033e-02,-1.460094749927520752e-01,1.049813181161880493e-01,-1.943025588989257812e-01,1.221799552440643311e-01,2.452960796654224396e-02,3.025245480239391327e-02,2.518918178975582123e-02,9.424431622028350830e-02,5.752616003155708313e-02,1.804585307836532593e-01,1.102325618267059326e-01,-2.686818316578865051e-02,1.611513048410415649e-01,7.882360368967056274e-02,1.165178045630455017e-01,-7.511369138956069946e-02,6.256870180368423462e-02,-2.408359572291374207e-02,1.425744891166687012e-01,-2.543397545814514160e-01,-9.607769548892974854e-03,6.956984102725982666e-02,-1.423924267292022705e-01,3.165848255157470703e-01,3.323928639292716980e-02,-1.135175526142120361e-01,-1.430969983339309692e-01,-1.008501183241605759e-02,-2.576310373842716217e-02,3.927232325077056885e-02,1.988245360553264618e-02,-1.518219113349914551e-01,5.194976180791854858e-02,-5.355555936694145203e-02,-7.386352121829986572e-02,-8.802509307861328125e-02,-2.861353456974029541e-01,-7.196444272994995117e-02,-2.297887578606605530e-03,-3.291336297988891602e-01,-1.282838732004165649e-01,-1.769900768995285034e-01,-1.072554942220449448e-02,-1.296715885400772095e-01,-1.970283985137939453e-01,1.594619154930114746e-01,-2.008313871920108795e-02,-2.295863032341003418e-01,-2.249557375907897949e-01,-1.497370451688766479e-01,-1.648349463939666748e-01,-1.547394879162311554e-02,8.090088958851993084e-04,-4.068798199295997620e-02,-5.976215004920959473e-02,3.228529095649719238e-01,-3.098375797271728516e-01,9.166949242353439331e-02,7.843548431992530823e-03,-2.799114286899566650e-01,-5.897762253880500793e-02,2.209443412721157074e-02,-1.210590302944183350e-01,6.074487790465354919e-02,1.570763736963272095e-01,-1.291757971048355103e-01,-2.606299817562103271e-01,8.130833506584167480e-02,-2.082169353961944580e-01,6.255315989255905151e-02,-1.056872978806495667e-01,1.964305192232131958e-01,-9.839401394128799438e-02,-9.937968850135803223e-02,-4.208092018961906433e-02,3.732671588659286499e-02,-1.133947074413299561e-01,2.951996773481369019e-02,2.432095259428024292e-01,-6.500678602606058121e-03,1.127711087465286255e-01,-1.509828418493270874e-01,1.810744404792785645e-01,-4.382346570491790771e-02,-3.907033242285251617e-03,-4.715048149228096008e-02,-5.178088322281837463e-02,1.006951779127120972e-01,-1.904771178960800171e-01,-1.046399921178817749e-01,5.816595256328582764e-02,1.555196847766637802e-02,1.303754001855850220e-01,-1.947408020496368408e-01,-1.727771386504173279e-02,-3.207040727138519287e-01,-8.154884725809097290e-02,1.893669217824935913e-01,1.600087806582450867e-02,1.047249808907508850e-01,-2.342712134122848511e-01,-1.113524064421653748e-01,3.653429448604583740e-02,-2.197489142417907715e-02,1.488268077373504639e-01,2.013154774904251099e-01,-6.900846213102340698e-02,1.402448564767837524e-01,-5.304005369544029236e-02,-1.418808661401271820e-02
-2.333399057388305664e-01,5.429554730653762817e-02,-1.878543794155120850e-01,-9.504812210798263550e-02,-5.864211916923522949e-02,-1.840707212686538696e-01,-7.686339318752288818e-02,5.863809585571289062e-01,7.538729161024093628e-02,-1.144944354891777039e-01,-1.620725356042385101e-02,-1.604179292917251587e-01,-1.470617204904556274e-01,2.101724147796630859e-01,1.608234643936157227e-01,-1.121639385819435120e-01,-3.053313493728637695e-01,-2.366860359907150269e-01,-4.913925752043724060e-02,1.814390867948532104e-01,1.188525408506393433e-01,-2.694847881793975830e-01,-1.292949616909027100e-01,-1.000992283225059509e-01,-4.698260501027107239e-02,7.658214122056961060e-02,-3.278889507055282593e-02,4.460299760103225708e-02,1.002389937639236450e-01,3.599460721015930176e-01,4.087800681591033936e-01,-5.108882859349250793e-02,-9.704899042844772339e-02,1.988009065389633179e-01,-3.904422372579574585e-02,-4.100238220416940749e-05,-5.162965506315231323e-02,-9.802372008562088013e-02,2.360067665576934814e-01,-3.358100773766636848e-03,-1.533700525760650635e-01,1.191697921603918076e-02,-1.697344034910202026e-01,1.018900275230407715e-01,2.231872081756591797e-01,-1.760740578174591064e-02,1.765575557947158813e-01,6.807363033294677734e-02,1.246993541717529297e-01,-1.510519813746213913e-02,-1.163108870387077332e-01,-1.915382146835327148e-01,-1.423877924680709839e-01,2.229976356029510498e-01,2.339194864034652710e-01,-2.901116013526916504e-02,8.209675550460815430e-03,1.202988848090171814e-01,1.306673735380172729e-01,-3.553070724010467529e-01,5.801393836736679077e-02,2.808635309338569641e-02,-2.779100239276885986e-01,-2.130274325609207153e-01,1.057292520999908447e-01,-2.084212750196456909e-01,2.915716469287872314e-01,-3.640052862465381622e-03,-3.888643980026245117e-01,6.468387693166732788e-02,-5.269391834735870361e-02,3.990162536501884460e-02,-1.825132220983505249e-01,-1.422283705323934555e-02,-3.231531083583831787e-01,-5.446000490337610245e-03,1.996136009693145752e-01,6.084321439266204834e-02,-1.843659877777099609e-01,6.753790378570556641e-02,-9.179494529962539673e-02,-1.916013807058334351e-01,5.010836198925971985e-02,1.634316146373748779e-01,7.996500283479690552e-02,2.076586633920669556e-01,-1.201124675571918488e-02,1.809392683207988739e-02,1.239249780774116516e-01,7.200772315263748169e-02,1.928258687257766724e-01,2.009388357400894165e-01,2.448624745011329651e-02,-2.271182984113693237e-01,1.616409122943878174e-01,1.384391356259584427e-02,7.138767838478088379e-02,1.243740245699882507e-01,1.678802371025085449e-01,-2.280409187078475952e-01,3.108740784227848053e-02,-1.361362040042877197e-01,3.484804555773735046e-02,-1.273497343063354492e-01,-3.171615302562713623e-01,-1.040034592151641846e-01,-1.991808712482452393e-01,2.125436514616012573e-01,-9.677763283252716064e-02,1.044903472065925598e-01,-9.099451452493667603e-02,7.395622879266738892e-02,-5.464564636349678040e-02,6.813129782676696777e-02,2.443240135908126831e-01,2.182756215333938599e-01,-1.079633608460426331e-01,-6.211285293102264404e-02,-1.447924822568893433e-01,3.926678374409675598e-02,1.258698850870132446e-01,-5.451570451259613037e-02,1.943627893924713135e-01,1.705751717090606689e-01,1.692218035459518433e-01,-9.722177870571613312e-03,-8.701876550912857056e-02,-1.120402812957763672e-01
2.364276349544525146e-01,7.925641536712646484e-02,1.075210645794868469e-01,-7.692924886941909790e-02,5.720536690205335617e-03,-1.751282811164855957e-02,-1.277847737073898315e-01,-5.456246435642242432e-02,-2.381724417209625244e-01,2.003528177738189697e-01,2.725159227848052979e-01,2.973525822162628174e-01,1.085452176630496979e-02,5.845699086785316467e-02,-4.291305691003799438e-02,5.525514110922813416e-02,3.261110186576843262e-01,-1.238408610224723816e-01,9.499707072973251343e-02,-9.123653918504714966e-02,-1.492184996604919434e-01,-3.104543089866638184e-01,8.878181874752044678e-02,-9.823705255985260010e-02,-1.892215460538864136e-01,-3.340667486190795898e-01,-2.308355420827865601e-01,-5.201403051614761353e-02,-3.069212734699249268e-01,1.461421102285385132e-01,3.255191743373870850e-01,-3.101708889007568359e-01,3.325210511684417725e-01,-5.822993069887161255e-02,-2.706200629472732544e-02,-7.343499362468719482e-02,1.931455284357070923e-01,9.301943331956863403e-02,-1.817213147878646851e-01,-1.025849357247352600e-01,2.526075839996337891e-01,-2.713702917098999023e-01,-1.574389785528182983e-01,9.359563887119293213e-02,7.647854089736938477e-02,-7.885560393333435059e-02,3.859899565577507019e-02,3.007319867610931396e-01,9.972915798425674438e-02,-2.749706506729125977e-01,2.244706638157367706e-02,-1.260932162404060364e-02,3.940004482865333557e-02,7.429905235767364502e-02,5.973281338810920715e-02,-1.413731426000595093e-01,8.727804757654666901e-03,-3.036333322525024414e-01,3.045669198036193848e-02,-9.139254689216613770e-02,2.647042572498321533e-01,-3.485133051872253418e-01,-3.287782520055770874e-02,4.133162274956703186e-02,-1.070903167128562927e-01,-1.127919554710388184e-01,2.059153020381927490e-01,-2.105019614100456238e-02,1.291720755398273468e-02,2.619607560336589813e-02,1.619700528681278229e-02,-7.169591635465621948e-02,-2.038839161396026611e-01,-8.847062289714813232e-02,-1.716735959053039551e-02,7.600693404674530029e-02,1.776422411203384399e-01,2.069540694355964661e-02,1.093824766576290131e-02,4.684834554791450500e-02,2.018361091613769531e-01,-1.228033080697059631e-01,-5.382442846894264221e-02,-9.087048470973968506e-03,2.046731710433959961e-01,-3.876830041408538818e-01,1.366248279809951782e-01,1.115682721138000488e-01,-5.623005330562591553e-02,-1.947305202484130859e-01,-9.493924677371978760e-02,-5.927370488643646240e-02,8.245395123958587646e-02,-2.364763319492340088e-01,3.747116625308990479e-01,-3.597948700189590454e-02,1.172444671392440796e-01,7.513323426246643066e-02,-6.589651852846145630e-02,-2.231485694646835327e-01,-2.518263161182403564e-01,-1.811916530132293701e-01,3.524226322770118713e-02,7.447022199630737305e-02,8.205008506774902344e-02,-9.446451067924499512e-02,-1.339112129062414169e-02,2.134899646043777466e-01,-2.210314273834228516e-01,1.278413087129592896e-01,-1.294087618589401245e-02,-6.299880146980285645e-02,4.746814072132110596e-02,-1.984375342726707458e-02,2.879065871238708496e-01,-1.772606968879699707e-01,-1.639157086610794067e-01,2.665147185325622559e-01,1.322528123855590820e-01,-3.708978295326232910e-01,1.702302396297454834e-01,-2.480785176157951355e-02,2.508172690868377686e-01,-2.203411310911178589e-01,6.393133103847503662e-02,1.071726679801940918e-01,-3.344065696001052856e-02,1.211246699094772339e-01
-1.211894825100898743e-01,1.246250942349433899e-01,-1.044372692704200745e-01,-3.192551061511039734e-02,-1.215908452868461609e-01,-1.063107922673225403e-01,-7.752477377653121948e-02,1.176257058978080750e-01,-8.330126851797103882e-02,-1.176385208964347839e-01,-5.034990608692169189e-02,-6.953082233667373657e-02,-4.213246703147888184e-02,-7.742799818515777588e-02,2.366301789879798889e-02,-6.047575920820236206e-02,-1.128641292452812195e-01,6.556718051433563232e-02,8.481534570455551147e-02,-3.307786583900451660e-01,6.610447168350219727e-02,2.216018438339233398e-01,-1.156914606690406799e-02,-8.046992868185043335e-02,5.624176561832427979e-02,-1.050693541765213013e-01,-7.298202067613601685e-02,-5.755355954170227051e-02,1.450576633214950562e-01,-3.230519220232963562e-02,7.075935602188110352e-02,-8.561062626540660858e-03,1.958154439926147461e-01,2.523719370365142822e-01,1.563691347837448120e-02,7.620742917060852051e-02,8.170024305582046509e-02,1.822989583015441895e-01,-4.891538992524147034e-02,-8.000585436820983887e-02,1.011104211211204529e-01,1.748319901525974274e-02,1.719087660312652588e-01,2.047751545906066895e-01,2.132432311773300171e-01,8.554471284151077271e-02,-1.820209324359893799e-01,2.193061076104640961e-02,-3.988195955753326416e-02,3.681255131959915161e-02,1.036268845200538635e-01,4.962155595421791077e-02,8.515399880707263947e-03,-1.785072833299636841e-01,-9.147471189498901367e-02,-7.844351977109909058e-02,-2.084414958953857422e-01,-1.864041686058044434e-01,2.209451608359813690e-02,3.155949711799621582e-02,-3.343733027577400208e-02,6.683047115802764893e-02,-1.043321937322616577e-02,8.395635336637496948e-02,-1.118775308132171631e-01,-1.629611290991306305e-02,-2.423550747334957123e-02,-2.153396233916282654e-02,-2.902276627719402313e-02,7.300159335136413574e-02,3.167822957038879395e-02,-1.918955594301223755e-01,-4.849750101566314697e-01,4.302065353840589523e-03,3.721535578370094299e-02,1.751426979899406433e-02,-3.984377160668373108e-02,-8.501316606998443604e-02,1.574743837118148804e-01,1.653667539358139038e-01,-2.407373934984207153e-01,-2.716120518743991852e-02,1.279482431709766388e-02,-2.888335287570953369e-02,-2.850417792797088623e-01,4.151286557316780090e-02,-2.891368605196475983e-02,-1.462886668741703033e-02,-4.476315081119537354e-01,1.511296331882476807e-01,-2.606660723686218262e-01,-1.698145866394042969e-01,1.692970991134643555e-01,-4.266057014465332031e-01,1.544671356678009033e-01,5.399158969521522522e-02,5.108899250626564026e-02,-4.010560363531112671e-02,-1.549087613821029663e-01,1.662871241569519043e-01,2.224117666482925415e-01,-7.088471204042434692e-02,-2.182406336069107056e-01,-5.403819680213928223e-02,-1.493055820465087891e-01,-1.043775305151939392e-01,-1.203517913818359375e-01,-1.847226321697235107e-01,3.644945025444030762e-01,7.804268598556518555e-02,-1.281604170799255371e-01,2.637091465294361115e-02,-3.592306375503540039e-02,2.673437446355819702e-02,-5.026482418179512024e-02,1.183119714260101318e-01,5.188337340950965881e-02,-1.116584092378616333e-01,-8.272659033536911011e-02,1.266671270132064819e-01,5.450364574790000916e-02,2.488974481821060181e-02,-7.032150402665138245e-03,-1.608707457780838013e-01,1.486839056015014648e-01,-5.276615545153617859e-02,3.630689904093742371e-02,4.209784045815467834e-02
-8.530634641647338867e-02,5.300497170537710190e-03,-1.052657067775726318e-01,-1.567121222615242004e-02,1.138273179531097412e-01,7.633955776691436768e-02,1.693821251392364502e-01,4.755889251828193665e-02,-4.206614568829536438e-02,-1.011643260717391968e-01,7.398292422294616699e-02,3.259496390819549561e-02,1.663325726985931396e-01,-3.669445961713790894e-02,-1.379548758268356323e-01,2.039865590631961823e-02,5.605148896574974060e-02,2.103235386312007904e-02,-1.939617544412612915e-01,1.934604048728942871e-01,1.662654429674148560e-01,-4.677546769380569458e-02,1.179688796401023865e-01,-1.505085825920104980e-01,6.686139851808547974e-02,-1.341219395399093628e-01,-1.868532039225101471e-02,1.105369105935096741e-01,-1.353661715984344482e-01,9.254227578639984131e-02,-3.373361006379127502e-02,9.138337522745132446e-02,-1.667563915252685547e-01,-5.749780312180519104e-02,-1.186405047774314880e-01,2.411411516368389130e-02,1.190432459115982056e-01,-6.347005069255828857e-02,3.227077424526214600e-02,6.934713572263717651e-02,-1.926149725914001465e-01,-3.157967701554298401e-02,7.151565700769424438e-02,1.829361775889992714e-03,-2.753375656902790070e-02,-1.354698650538921356e-02,-1.536492705345153809e-01,2.310121431946754456e-02,-2.192688435316085815e-01,5.085689201951026917e-02,-8.684285916388034821e-03,1.242164224386215210e-01,2.782234251499176025e-01,1.244311481714248657e-01,8.964546024799346924e-02,2.924541234970092773e-01,1.298082023859024048e-01,-4.339334741234779358e-02,2.049414664506912231e-01,2.758818864822387695e-02,-2.700109407305717468e-02,-9.853623062372207642e-02,1.159066855907440186e-01,-1.189232617616653442e-01,8.868130855262279510e-03,-2.805315256118774414e-01,-1.850177198648452759e-01,3.812173381447792053e-02,-5.740486830472946167e-02,7.286982238292694092e-02,-1.809114664793014526e-01,1.126452162861824036e-01,-1.006120163947343826e-02,1.239840164780616760e-01,2.349105849862098694e-02,-6.166012585163116455e-02,-1.478684842586517334e-01,-1.762434691190719604e-01,-8.237776160240173340e-02,4.424953833222389221e-02,2.917010895907878876e-02,6.660581380128860474e-02,-2.903603017330169678e-01,4.058850184082984924e-02,1.332092434167861938e-01,-1.247746571898460388e-01,2.641808092594146729e-01,8.510740846395492554e-02,1.832586526870727539e-01,-1.077630296349525452e-01,-8.637034893035888672e-02,-2.704707719385623932e-02,6.282436847686767578e-02,-9.198028594255447388e-02,2.409914731979370117e-01,7.334309816360473633e-02,-7.799419015645980835e-02,1.018915399909019470e-01,1.465805470943450928e-01,1.276502162218093872e-01,-9.498442709445953369e-02,7.119463384151458740e-02,-5.954675748944282532e-02,-1.244162861257791519e-02,-1.039795950055122375e-01,-3.070185333490371704e-02,1.688289344310760498e-01,1.471014022827148438e-01,-1.312400996685028076e-01,2.728681862354278564e-01,-2.358758598566055298e-01,-1.392850875854492188e-01,3.251397907733917236e-01,-1.345336437225341797e-01,3.038599193096160889e-01,1.391529887914657593e-01,-1.379024684429168701e-01,1.177310720086097717e-01,2.282417006790637970e-02,-2.561744861304759979e-02,-7.817272841930389404e-02,2.703565955162048340e-01,-9.840438514947891235e-02,2.394117116928100586e-01,1.259583532810211182e-01,-5.805498734116554260e-02,9.457159042358398438e-02,1.740576177835464478e-01
5.923584103584289551e-03,-1.384719759225845337e-01,-1.239307597279548645e-01,8.906445652246475220e-02,-2.305774763226509094e-02,1.368794888257980347e-01,-1.253539919853210449e-01,-4.306206479668617249e-02,-7.419700734317302704e-03,4.642831534147262573e-02,-9.197520092129707336e-03,2.335003763437271118e-02,1.106535270810127258e-01,7.382600754499435425e-02,2.036604881286621094e-01,7.632825989276170731e-03,-1.520604789257049561e-01,-4.397693648934364319e-02,-2.571008801460266113e-01,-1.589872986078262329e-01,-8.106266148388385773e-03,-1.332490146160125732e-01,1.346354652196168900e-02,-8.672640472650527954e-02,1.065943203866481781e-02,-3.823234140872955322e-01,7.716298103332519531e-02,9.576811641454696655e-02,5.395443364977836609e-02,-1.020169705152511597e-01,5.898240581154823303e-02,-1.606031209230422974e-01,-5.865207687020301819e-02,-4.294549580663442612e-03,3.850148990750312805e-02,-1.135937198996543884e-01,-1.180431544780731201e-01,4.260513186454772949e-02,1.646110266447067261e-01,1.200412437319755554e-01,1.250407937914133072e-02,7.962518185377120972e-02,1.074117273092269897e-01,3.078622519969940186e-01,1.145271286368370056e-01,1.084787212312221527e-02,8.015320450067520142e-02,1.756342686712741852e-02,-1.648209393024444580e-01,-1.901928484439849854e-01,1.033916771411895752e-01,1.550505459308624268e-01,3.057141043245792389e-02,-2.017751485109329224e-01,-1.425243765115737915e-01,-9.444309398531913757e-03,1.569479107856750488e-01,-8.145416527986526489e-02,-3.510501235723495483e-02,1.256254315376281738e-01,1.303367912769317627e-01,-9.363479912281036377e-02,2.038590377196669579e-03,2.832103753462433815e-03,2.511000335216522217e-01,1.254338771104812622e-01,-3.826494095847010612e-03,7.245168834924697876e-02,8.601082116365432739e-02,1.070291027426719666e-01,-2.301421165466308594e-01,7.819103449583053589e-02,8.566963486373424530e-03,2.363622039556503296e-01,1.381655782461166382e-01,2.306741774082183838e-01,-1.167229935526847839e-01,4.796325042843818665e-02,-1.417796462774276733e-01,7.727336138486862183e-02,1.508177965879440308e-01,-3.783151134848594666e-02,2.036352008581161499e-01,-1.230945736169815063e-01,-2.015312612056732178e-01,-3.411043807864189148e-02,-1.528175771236419678e-01,-2.375729978084564209e-01,8.902706950902938843e-02,3.076035976409912109e-01,-1.631593853235244751e-01,1.517444998025894165e-01,-1.071130782365798950e-01,2.986265420913696289e-01,2.311402466148138046e-03,-4.979923367500305176e-02,-1.182674467563629150e-01,1.101715266704559326e-01,-2.170054465532302856e-01,-1.439349502325057983e-01,1.915818825364112854e-02,-1.475362628698348999e-01,1.234957575798034668e-02,-2.273547202348709106e-01,-1.519833952188491821e-01,4.133205860853195190e-02,-5.033559352159500122e-02,-1.623675078153610229e-01,-1.945391297340393066e-01,9.399010241031646729e-02,7.229424268007278442e-02,-2.122270176187157631e-03,-1.691910326480865479e-01,-2.133366614580154419e-01,-8.081174641847610474e-02,1.060010492801666260e-01,-1.089044585824012756e-01,9.024021774530410767e-02,3.385052457451820374e-02,1.512147579342126846e-02,-1.574519872665405273e-01,-7.012759149074554443e-02,-3.310890169814229012e-03,1.378193795680999756e-01,-7.561363279819488525e-02,-7.540822029113769531e-02,-1.144679710268974304e-01,4.742357507348060608e-02
-1.164010390639305115e-01,5.184539593756198883e-03,7.623013108968734741e-02,1.986092776060104370e-01,-1.093731224536895752e-01,-2.060146182775497437e-01,-2.265657633543014526e-01,5.034180358052253723e-03,1.027035340666770935e-02,8.010185509920120239e-02,-1.510488986968994141e-01,2.587977051734924316e-02,-1.656418549828231335e-03,-2.292193472385406494e-01,-7.943717390298843384e-02,2.274957448244094849e-01,2.060570754110813141e-02,-4.015958309173583984e-02,2.308011241257190704e-02,2.233547866344451904e-01,-3.611620068550109863e-01,-2.822581529617309570e-01,-2.117847092449665070e-02,1.057346165180206299e-01,4.049497246742248535e-01,2.401318103075027466e-01,-1.355967968702316284e-01,7.944969087839126587e-02,-1.052912697196006775e-01,-1.045658588409423828e-01,-1.432562470436096191e-01,-1.341733243316411972e-02,6.946297734975814819e-02,-7.773186266422271729e-02,-6.725865602493286133e-02,-5.414391681551933289e-02,6.870219856500625610e-02,-1.688187941908836365e-02,3.149714469909667969e-01,-2.748731290921568871e-03,-2.126726061105728149e-01,8.583559840917587280e-02,-2.153467684984207153e-01,-2.372846379876136780e-02,6.804337725043296814e-03,1.490704715251922607e-01,-1.385991573333740234e-01,1.118588745594024658e-01,-7.313694804906845093e-02,-1.337871998548507690e-01,5.094121024012565613e-02,1.380110085010528564e-01,-2.822129130363464355e-01,-5.557129904627799988e-02,-1.546730697154998779e-01,1.470840573310852051e-01,5.537744611501693726e-02,-1.048458069562911987e-01,-4.950764775276184082e-02,1.659476011991500854e-01,4.435763135552406311e-02,1.349209547042846680e-01,1.317440271377563477e-01,4.003578051924705505e-02,-3.476135730743408203e-01,2.028183341026306152e-01,3.479643166065216064e-02,8.819787204265594482e-02,-2.002275548875331879e-02,-4.292425885796546936e-02,-3.042007386684417725e-01,5.599095672369003296e-02,-1.143540814518928528e-01,-1.805629134178161621e-01,-9.600340388715267181e-03,1.098199784755706787e-01,3.553996235132217407e-02,-1.975351274013519287e-01,-7.371344417333602905e-02,1.044085994362831116e-02,1.700403094291687012e-01,-1.580667197704315186e-01,2.044546902179718018e-01,-5.043250694870948792e-02,5.228976532816886902e-02,-1.791040450334548950e-01,2.393183261156082153e-01,7.859221100807189941e-02,-1.698222942650318146e-02,9.638670831918716431e-02,9.153332561254501343e-02,5.647610872983932495e-02,-1.872912943363189697e-01,6.562858074903488159e-02,7.056785374879837036e-02,-1.506010591983795166e-01,-1.147520989179611206e-01,2.252000719308853149e-01,8.574571460485458374e-02,7.710227370262145996e-02,-1.871443726122379303e-02,-8.537506312131881714e-02,-3.696299344301223755e-02,6.452328711748123169e-02,2.464198768138885498e-01,4.488687962293624878e-02,-3.524198755621910095e-02,-4.290957450866699219e-01,-5.843251571059226990e-02,7.233421504497528076e-02,2.809663675725460052e-02,1.404252946376800537e-01,7.007130235433578491e-02,-3.115991055965423584e-01,-1.140787601470947266e-01,-2.706768214702606201e-01,-3.511928394436836243e-02,2.202739715576171875e-01,7.047177106142044067e-02,5.555010586977005005e-02,-2.027369439601898193e-01,3.411381542682647705e-01,1.298760436475276947e-02,-1.899351179599761963e-01,1.544413864612579346e-01,-7.768791913986206055e-02,2.780779898166656494e-01,1.132057905197143555e-01
4.895406216382980347e-02,1.491122245788574219e-01,1.443250942975282669e-02,-3.016625531017780304e-02,-4.317174851894378662e-02,2.788104349747300148e-03,3.069958090782165527e-01,-7.538781501352787018e-03,-5.158341675996780396e-02,2.167311310768127441e-02,-1.143945977091789246e-01,7.221579551696777344e-02,6.408689916133880615e-02,1.594912260770797729e-01,4.141129925847053528e-02,-1.368548721075057983e-01,-6.165001541376113892e-02,7.278773933649063110e-02,-1.673351228237152100e-01,-1.385199371725320816e-02,7.322975993156433105e-02,3.058155626058578491e-02,-2.685851156711578369e-01,-6.578871048986911774e-03,-4.556599631905555725e-02,-4.951505735516548157e-02,-1.823386400938034058e-01,-5.077733099460601807e-02,-5.502132326364517212e-02,1.095091924071311951e-01,9.106217324733734131e-02,1.883327662944793701e-01,1.528414487838745117e-01,-2.610865533351898193e-01,-2.252184785902500153e-02,8.618863672018051147e-02,1.040286868810653687e-01,9.946320205926895142e-02,-1.026220098137855530e-01,-9.081914275884628296e-02,-4.720144346356391907e-02,-9.492086619138717651e-02,-1.540905237197875977e-01,-1.723332330584526062e-02,-1.458441652357578278e-02,3.083773851394653320e-01,-1.954421103000640869e-01,-8.233007788658142090e-02,1.112213060259819031e-01,-3.075349330902099609e-01,-3.387653231620788574e-01,1.552375406026840210e-01,5.182877555489540100e-02,1.612241193652153015e-02,5.234275013208389282e-02,-3.713767528533935547e-01,1.101102903485298157e-01,5.969265010207891464e-03,2.607942223548889160e-01,1.303431093692779541e-01,1.241399347782135010e-01,2.519780695438385010e-01,-3.178399801254272461e-02,9.236090630292892456e-02,-1.071948334574699402e-01,-2.103371778503060341e-03,1.479416489601135254e-01,-9.250070899724960327e-02,1.214573439210653305e-02,1.316443383693695068e-01,-1.930401623249053955e-01,-2.236255258321762085e-02,9.669946134090423584e-02,3.406762480735778809e-01,-9.265462309122085571e-02,-5.684166029095649719e-02,-1.040948703885078430e-01,1.033784225583076477e-01,-1.824120581150054932e-01,-6.068771705031394958e-02,5.433945730328559875e-02,5.340311676263809204e-02,-1.063610985875129700e-01,-6.374904420226812363e-03,8.012104034423828125e-02,6.837774813175201416e-02,-1.191325187683105469e-01,2.381503395736217499e-02,9.701211005449295044e-02,4.039920121431350708e-02,1.094883233308792114e-01,-2.122678235173225403e-02,3.070809543132781982e-01,2.338803857564926147e-01,-1.214601844549179077e-01,-1.375324726104736328e-01,1.764387041330337524e-01,4.181312769651412964e-02,2.655586041510105133e-02,1.122673898935317993e-01,-4.449447616934776306e-02,2.835322618484497070e-01,1.970850229263305664e-01,-2.186176329851150513e-01,6.055766716599464417e-02,1.124490052461624146e-01,-3.538316488265991211e-02,6.766444444656372070e-02,1.010212209075689316e-02,-5.205723270773887634e-02,-1.108470261096954346e-01,-5.368263926357030869e-03,-1.544698025099933147e-03,-2.196364663541316986e-02,-9.384611994028091431e-02,-1.191484257578849792e-01,4.156238213181495667e-02,6.097563728690147400e-02,-2.250303700566291809e-02,5.622708052396774292e-02,2.318906337022781372e-01,-3.347194753587245941e-03,-2.525380812585353851e-02,-1.189808025956153870e-01,-7.852932065725326538e-02,1.948374807834625244e-01,-1.048162020742893219e-02,-5.576616153120994568e-02
-1.763420253992080688e-01,1.635574549436569214e-01,1.306548565626144409e-01,9.146329946815967560e-03,-2.974185906350612640e-02,1.436735242605209351e-01,9.135456755757331848e-03,-4.591283574700355530e-02,-2.345356345176696777e-01,-3.931409865617752075e-02,7.089855521917343140e-02,-1.348395794630050659e-01,5.441971868276596069e-02,-1.456451788544654846e-02,6.392101943492889404e-02,-5.514976382255554199e-02,1.251440122723579407e-02,2.078441716730594635e-02,1.049432903528213501e-01,9.894128143787384033e-02,-1.101224198937416077e-01,-9.202113002538681030e-02,-8.488181233406066895e-02,2.367541790008544922e-01,4.643304739147424698e-03,7.978560030460357666e-02,5.883008241653442383e-02,-1.257445849478244781e-02,-4.863656684756278992e-02,-5.156575236469507217e-03,6.181531026959419250e-02,1.669979244470596313e-01,2.665902674198150635e-01,8.564728312194347382e-03,7.721409946680068970e-02,2.265231460332870483e-01,2.694462239742279053e-01,-1.444961596280336380e-02,-1.044619604945182800e-01,7.705377042293548584e-02,2.374079376459121704e-01,1.075241789221763611e-01,-7.705838233232498169e-02,-1.251841932535171509e-01,-9.542715549468994141e-02,-1.140341088175773621e-01,9.312319010496139526e-02,1.069697551429271698e-03,8.019522577524185181e-02,-1.560113299638032913e-02,3.212552666664123535e-01,-1.997262053191661835e-02,6.496022641658782959e-02,-9.267354011535644531e-02,-4.662878811359405518e-02,1.422025561332702637e-01,-5.824058502912521362e-02,1.691974699497222900e-01,1.151423826813697815e-01,-8.845660835504531860e-02,-8.756929636001586914e-02,-7.888336665928363800e-03,6.186315789818763733e-02,-1.001594588160514832e-01,-7.887029647827148438e-02,-1.558347344398498535e-01,-4.661876708269119263e-02,3.573888912796974182e-02,2.533410117030143738e-02,-1.500476803630590439e-02,-1.094416528940200806e-01,8.678451925516128540e-02,1.608982309699058533e-02,-8.820236474275588989e-02,-3.591594472527503967e-02,-1.306175738573074341e-01,-9.600189328193664551e-02,9.976430237293243408e-02,2.495367825031280518e-01,-5.439081415534019470e-02,1.907698661088943481e-01,-2.299992889165878296e-01,1.515968143939971924e-01,1.585513204336166382e-01,-5.459440127015113831e-02,-4.845719039440155029e-02,-3.940124064683914185e-02,7.696711272001266479e-02,-6.411138176918029785e-02,-1.654838174581527710e-01,-2.237935662269592285e-01,4.408529773354530334e-02,-1.642864346504211426e-01,6.030025705695152283e-02,-1.684745699167251587e-01,-1.741414219141006470e-01,-2.438298799097537994e-02,1.625853329896926880e-01,1.786185652017593384e-01,-3.080127835273742676e-01,1.101847663521766663e-01,9.670954197645187378e-02,-1.164541915059089661e-01,3.056617826223373413e-02,-2.074195891618728638e-01,3.316878899931907654e-02,4.387563839554786682e-02,1.106114219874143600e-02,2.287349663674831390e-02,-1.421453058719635010e-01,-5.181959643959999084e-02,2.450841665267944336e-02,2.200673334300518036e-02,1.125038228929042816e-02,-8.664903789758682251e-02,9.224291890859603882e-02,5.922135710716247559e-02,-1.598609983921051025e-01,4.259905964136123657e-02,2.048437744379043579e-01,1.638534665107727051e-01,5.350762605667114258e-02,-1.466319710016250610e-01,2.969202026724815369e-02,5.274802073836326599e-02,-8.514089137315750122e-02,-3.257228434085845947e-02,6.038034707307815552e-02
2.320447266101837158e-01,4.712020233273506165e-02,-1.978910118341445923e-01,-2.806813269853591919e-02,-1.416877806186676025e-01,-2.665330767631530762e-01,3.839137554168701172e-01,2.299191951751708984e-01,1.027493923902511597e-02,1.145346313714981079e-01,-9.847551584243774414e-03,7.047262787818908691e-02,-1.622405797243118286e-01,-2.016433924436569214e-01,3.158111497759819031e-02,1.009251028299331665e-01,-5.805477499961853027e-02,1.268226206302642822e-01,-9.873270243406295776e-02,1.401742696762084961e-01,2.218319475650787354e-02,-9.001477062702178955e-02,4.634899273514747620e-02,2.848221361637115479e-01,-3.138394951820373535e-01,-1.301669776439666748e-01,6.048012059181928635e-03,-7.380272448062896729e-02,2.007168233394622803e-01,1.166418418288230896e-01,1.055245324969291687e-01,-1.298988163471221924e-01,6.915891170501708984e-02,-1.113849878311157227e-01,-1.956196725368499756e-01,-5.766895040869712830e-02,1.222301051020622253e-01,4.018824175000190735e-02,-6.484633684158325195e-02,1.828398704528808594e-01,-2.511679232120513916e-01,-8.710193634033203125e-02,-6.968213617801666260e-02,7.829257845878601074e-02,4.407532811164855957e-01,7.662787288427352905e-02,-6.270104646682739258e-02,-2.986656427383422852e-01,1.368543952703475952e-01,1.069386769086122513e-02,4.635822027921676636e-03,-4.913732036948204041e-02,1.063339933753013611e-01,-1.167014539241790771e-01,-3.586758077144622803e-01,3.042201697826385498e-01,-1.675274372100830078e-01,1.656015664339065552e-01,1.752659864723682404e-02,7.486553862690925598e-03,4.726310819387435913e-02,-1.642884314060211182e-01,2.364187538623809814e-01,4.649148881435394287e-02,2.153767039999365807e-03,-1.494604647159576416e-01,-2.078935503959655762e-01,-3.644030541181564331e-02,3.668474555015563965e-01,1.703567244112491608e-02,5.998784210532903671e-03,1.656846255064010620e-01,2.317507266998291016e-01,-2.435769438743591309e-01,-2.020206898450851440e-01,1.474924036301672459e-03,5.902371183037757874e-02,-2.943046689033508301e-01,-8.643786422908306122e-03,-2.521014511585235596e-01,-1.298522055149078369e-01,-8.677283301949501038e-03,-1.218892782926559448e-01,5.667594820261001587e-02,-1.727367043495178223e-01,-1.719568390399217606e-03,-2.238410115242004395e-01,-1.159383431077003479e-01,-3.181856125593185425e-02,5.403486639261245728e-02,-2.772130072116851807e-02,1.055864989757537842e-01,-7.693857420235872269e-03,-1.004171222448348999e-01,-2.075803279876708984e-01,1.122672781348228455e-01,1.041771024465560913e-01,-3.838771581649780273e-02,-7.496551424264907837e-02,2.120196074247360229e-01,-1.031410843133926392e-01,-1.034634411334991455e-01,-3.672524169087409973e-02,7.604712247848510742e-02,-2.838760614395141602e-02,7.984589785337448120e-02,-1.501581817865371704e-01,-1.471320092678070068e-01,3.866148367524147034e-02,-1.665561944246292114e-01,-2.971428036689758301e-01,2.919396758079528809e-01,9.642890840768814087e-02,-2.629603445529937744e-02,2.509918808937072754e-01,-2.817402780055999756e-01,-1.532885730266571045e-01,-1.431405246257781982e-01,-5.533821135759353638e-02,-3.616236150264739990e-02,-1.579390317201614380e-01,6.103601306676864624e-02,1.315125524997711182e-01,3.823750838637351990e-02,8.644760400056838989e-02,6.814087182283401489e-02,9.537076950073242188e-02,3.422447144985198975e-01
9.378211200237274170e-02,-4.685201868414878845e-02,-1.021830178797245026e-02,1.802342571318149567e-02,2.107299417257308960e-01,-4.649392142891883850e-02,-2.017223685979843140e-01,-1.529012322425842285e-01,1.284606307744979858e-01,-1.602537781000137329e-01,-8.079813420772552490e-02,-2.398855835199356079e-01,1.312609165906906128e-01,1.181920170783996582e-01,-2.627382799983024597e-02,1.899201571941375732e-01,2.460575252771377563e-01,-2.869763076305389404e-01,-6.672919541597366333e-02,-1.926433145999908447e-01,-7.294105738401412964e-02,7.562173902988433838e-02,1.250370293855667114e-01,3.337568044662475586e-01,-2.774656116962432861e-01,-8.939560502767562866e-02,-7.301761955022811890e-02,2.032179944217205048e-02,8.485638350248336792e-02,1.253839395940303802e-02,2.130827493965625763e-02,-1.790535897016525269e-01,5.669105425477027893e-02,-1.242487654089927673e-01,-1.965153366327285767e-01,6.949643790721893311e-02,-2.270709956064820290e-03,1.952322125434875488e-01,-1.641374677419662476e-01,-1.840542303398251534e-03,-7.969488948583602905e-02,1.681477129459381104e-01,1.186058297753334045e-01,1.036634221673011780e-01,1.135942637920379639e-01,-5.268025025725364685e-02,-4.745311290025711060e-02,4.642755165696144104e-02,1.797826141119003296e-01,1.612529009580612183e-01,-3.708723932504653931e-02,3.283723890781402588e-01,-8.913504332304000854e-02,6.001972407102584839e-02,8.466106653213500977e-02,1.897366344928741455e-01,-5.678454786539077759e-02,-1.128208450973033905e-02,2.351317852735519409e-01,5.169648211449384689e-03,-7.726105302572250366e-02,-1.112489327788352966e-01,9.343510866165161133e-02,1.464132815599441528e-01,1.328128427267074585e-01,-8.370064198970794678e-02,9.068728238344192505e-02,-1.385618895292282104e-01,-2.022331506013870239e-01,2.726873755455017090e-01,-9.933896362781524658e-03,3.205290529876947403e-03,-2.915405668318271637e-02,3.130551576614379883e-01,-8.756954222917556763e-02,2.717177756130695343e-02,-2.034445255994796753e-01,-7.852199487388134003e-04,-2.068897783756256104e-01,-2.752739787101745605e-01,-1.026290506124496460e-01,-1.571761630475521088e-02,-1.556117534637451172e-01,-1.094419211149215698e-01,1.988556683063507080e-01,-2.629474177956581116e-02,7.931645959615707397e-03,-1.778207421302795410e-01,2.127892524003982544e-02,-4.909675195813179016e-02,7.000467926263809204e-02,-3.227538242936134338e-02,-1.304671019315719604e-01,-1.742398738861083984e-01,1.065941900014877319e-01,3.102904744446277618e-02,-8.301709592342376709e-02,-1.069935634732246399e-01,1.384286135435104370e-01,-1.857241988182067871e-02,1.511998623609542847e-01,-1.241257414221763611e-01,-1.259609460830688477e-01,-7.637069374322891235e-02,2.420594841241836548e-01,-6.370123475790023804e-02,4.009420424699783325e-02,-2.808995172381401062e-02,1.801622211933135986e-01,-7.958479225635528564e-02,-2.528052590787410736e-02,-1.116189584136009216e-01,-2.965558134019374847e-02,-1.380192581564188004e-02,-2.863633930683135986e-01,1.215460449457168579e-01,3.989332169294357300e-02,-2.608113363385200500e-02,2.986309491097927094e-02,-3.650058526545763016e-03,-8.510421216487884521e-02,5.697624385356903076e-02,-5.079058930277824402e-02,-6.140566989779472351e-02,2.298074811697006226e-01,1.233107447624206543e-01,-9.322211146354675293e-03,-3.441051840782165527e-01
5.489622801542282104e-02,3.562516346573829651e-02,-1.198732331395149231e-01,-1.126617193222045898e-01,-2.612620890140533447e-01,9.928987175226211548e-02,3.685252368450164795e-01,-2.220255434513092041e-01,1.249816343188285828e-01,5.153166875243186951e-02,-1.292250603437423706e-01,-5.639450252056121826e-02,-6.318527460098266602e-02,-9.982808679342269897e-02,8.922818303108215332e-02,-2.190806418657302856e-01,-1.503201127052307129e-01,-7.276919484138488770e-02,-6.907686591148376465e-02,6.449446082115173340e-02,-1.322927474975585938e-01,-7.770989090204238892e-03,2.452669478952884674e-02,5.021337419748306274e-02,-2.722674906253814697e-01,1.015365719795227051e-01,2.173426896333694458e-01,-6.297599524259567261e-02,-1.286131888628005981e-01,-1.355488300323486328e-01,1.732084453105926514e-01,-1.174366995692253113e-01,6.614271085709333420e-03,-1.614131405949592590e-02,-3.511362150311470032e-02,-4.639690220355987549e-01,-1.316950889304280281e-03,2.962624430656433105e-01,-2.184052914381027222e-01,9.479834884405136108e-02,3.194093108177185059e-01,-1.495316624641418457e-01,-2.152912616729736328e-01,1.983076632022857666e-01,-1.808581203222274780e-01,-1.191788315773010254e-01,-1.106464187614619732e-03,-1.625996530055999756e-01,1.927338540554046631e-01,2.908488549292087555e-02,8.320581912994384766e-02,-1.855552941560745239e-01,-3.506657779216766357e-01,-5.920016765594482422e-02,-1.507063657045364380e-01,-6.219783425331115723e-02,2.323540896177291870e-01,-1.085645854473114014e-01,-1.896642893552780151e-02,2.071035653352737427e-01,1.767800003290176392e-02,-6.125647947192192078e-02,3.116565942764282227e-01,-1.823062747716903687e-01,-1.979055553674697876e-01,1.339935809373855591e-01,-5.870448425412178040e-02,-1.039379388093948364e-01,-2.335975170135498047e-01,2.017028033733367920e-01,-7.632843405008316040e-02,-1.554870307445526123e-01,1.753062605857849121e-01,-8.526010811328887939e-02,-9.422814846038818359e-02,-5.639566481113433838e-02,-1.941753774881362915e-01,1.300810277462005615e-01,-2.708673477172851562e-01,1.919883489608764648e-02,-2.144650965929031372e-01,1.675822287797927856e-01,-3.158172965049743652e-02,-1.306841033510863781e-03,7.995920255780220032e-03,2.209973335266113281e-01,3.058257102966308594e-01,1.526272594928741455e-01,-2.096478641033172607e-01,1.308881491422653198e-01,-2.531382441520690918e-01,-1.297090798616409302e-01,-1.017788499593734741e-01,-1.175471208989620209e-02,-4.463427886366844177e-02,-7.781016081571578979e-02,-7.669162750244140625e-02,-2.806982584297657013e-02,-2.958996593952178955e-02,-2.394140660762786865e-01,-1.205457672476768494e-01,-4.516045749187469482e-02,1.362264454364776611e-01,3.255222365260124207e-02,6.265772879123687744e-02,1.135380342602729797e-01,7.948586344718933105e-02,2.637346982955932617e-01,6.401176750659942627e-02,-1.062782704830169678e-01,1.520796772092580795e-02,-2.287660352885723114e-02,1.934769004583358765e-01,3.948479890823364258e-01,-9.200084209442138672e-02,-1.233993470668792725e-01,2.016717642545700073e-01,9.067454934120178223e-02,4.807498678565025330e-02,4.778833314776420593e-02,1.414678096771240234e-01,-7.967569679021835327e-02,3.268205374479293823e-02,-5.934653454460203648e-04,1.625600457191467285e-02,-1.234632879495620728e-01,-6.305425614118576050e-02,-2.309647351503372192e-01
7.169119082391262054e-03,-1.058019325137138367e-01,-1.085941419005393982e-01,-6.791406869888305664e-02,3.226054608821868896e-01,-5.061705596745014191e-03,1.996048688888549805e-01,-1.200851867906749249e-03,1.961899548768997192e-01,-2.215501666069030762e-01,-2.185155600309371948e-01,4.910754039883613586e-02,2.031310647726058960e-01,-1.514202505350112915e-01,1.478334814310073853e-01,-1.100467965006828308e-01,-1.825899467803537846e-03,1.395565718412399292e-01,-4.674003273248672485e-02,-5.528783053159713745e-02,-1.314402222633361816e-01,-1.286563277244567871e-01,3.466528356075286865e-01,-1.828641146421432495e-01,-1.984645277261734009e-01,-1.792979240417480469e-01,-4.661047831177711487e-03,1.277183592319488525e-01,-1.289279907941818237e-01,2.399384044110774994e-02,9.815400093793869019e-02,2.300268113613128662e-01,2.128069102764129639e-01,1.441850811243057251e-01,-1.681437194347381592e-01,-6.321261078119277954e-02,-1.510572135448455811e-01,2.769631892442703247e-02,-2.083021998405456543e-01,2.946558967232704163e-02,-6.887786090373992920e-02,1.813946217298507690e-01,8.476812392473220825e-03,4.466361925005912781e-02,-1.043249443173408508e-01,9.285049512982368469e-03,1.864393241703510284e-02,4.547261074185371399e-02,1.922845542430877686e-01,6.043380498886108398e-02,1.017254218459129333e-01,-8.754116296768188477e-02,1.835379935801029205e-02,-4.189237952232360840e-03,6.975243240594863892e-02,2.242077887058258057e-01,7.678096648305654526e-03,1.302260607481002808e-01,2.848565280437469482e-01,-1.375031322240829468e-01,3.277254104614257812e-01,-9.249957511201500893e-04,-9.035725891590118408e-02,-9.582350403070449829e-02,-1.863165646791458130e-01,-1.386731769889593124e-02,1.750827580690383911e-01,4.785497859120368958e-02,1.940811239182949066e-02,-1.850565820932388306e-01,1.700753271579742432e-01,7.786395400762557983e-02,-2.581780217587947845e-02,-1.728673130273818970e-01,-2.280554026365280151e-01,1.055231168866157532e-01,-7.041144371032714844e-02,2.181097865104675293e-03,2.605376243591308594e-01,7.066221535205841064e-02,1.480350941419601440e-01,2.172644436359405518e-01,-1.599820703268051147e-02,1.507828477770090103e-02,-5.011087749153375626e-03,-3.112125955522060394e-02,-3.836142644286155701e-02,-2.990842424333095551e-02,1.311090216040611267e-02,2.376123070716857910e-01,-1.347833275794982910e-01,-4.682982861995697021e-01,2.828886210918426514e-01,-4.383536428213119507e-02,-2.489396184682846069e-02,-2.500632405281066895e-01,-1.286149173974990845e-01,-7.133389823138713837e-03,-2.454684115946292877e-03,8.851766586303710938e-03,-1.914631947875022888e-02,4.367904737591743469e-02,-2.456819117069244385e-01,-3.537800312042236328e-01,2.519294321537017822e-01,2.912467122077941895e-01,-1.718828803859651089e-03,-2.357712835073471069e-01,9.086848795413970947e-02,8.878440409898757935e-02,-2.102429121732711792e-01,9.331730008125305176e-02,-3.689923882484436035e-01,2.988783456385135651e-02,-1.137144193053245544e-01,4.397771507501602173e-02,-2.777873277664184570e-01,1.646712124347686768e-01,-1.116437464952468872e-02,4.045667871832847595e-02,-7.007236778736114502e-02,-1.626318693161010742e-01,-6.249736249446868896e-02,1.865396648645401001e-01,-2.341639623045921326e-02,1.055936794728040695e-02,-1.003272533416748047e-01,2.241002768278121948e-02
9.232231229543685913e-02,4.011943563818931580e-02,1.015432551503181458e-01,1.407116800546646118e-01,1.163339987397193909e-01,1.195865496993064880e-01,-2.447005957365036011e-01,3.135547935962677002e-01,-4.893387854099273682e-02,-2.105501890182495117e-01,-5.237634479999542236e-02,-2.692201733589172363e-01,1.189440265297889709e-01,-6.484296917915344238e-02,-2.979812622070312500e-01,-1.297076940536499023e-01,-7.849706336855888367e-03,6.524146348237991333e-02,-7.424318790435791016e-02,-1.662543118000030518e-01,7.436051964759826660e-02,1.134026497602462769e-01,-1.158999055624008179e-01,1.180307194590568542e-01,-7.625630497932434082e-02,8.290020376443862915e-02,1.047115679830312729e-02,-5.707902833819389343e-02,-1.568952202796936035e-01,2.929307520389556885e-01,2.700095437467098236e-02,-2.173390090465545654e-01,-1.680718064308166504e-01,-9.484922140836715698e-02,-1.959205605089664459e-02,-1.817537397146224976e-01,-1.012270003557205200e-01,-2.368147373199462891e-01,1.689896732568740845e-01,3.864006698131561279e-02,3.611541390419006348e-01,3.063209950923919678e-01,-8.456938713788986206e-02,9.675692766904830933e-02,3.346151113510131836e-02,-9.394976496696472168e-02,2.498294115066528320e-01,-4.636722803115844727e-02,1.029641255736351013e-01,-4.364376515150070190e-02,-1.210706382989883423e-01,-4.331598058342933655e-02,2.747368067502975464e-02,-1.251806020736694336e-01,-2.979391813278198242e-01,7.026581466197967529e-02,3.055865466594696045e-01,-8.235586434602737427e-02,2.800146043300628662e-01,2.484434396028518677e-01,-1.093581039458513260e-02,-3.977922350168228149e-02,3.841952607035636902e-02,-2.540794312953948975e-01,-4.074353724718093872e-02,-2.137930989265441895e-01,-6.370814517140388489e-03,-2.229963243007659912e-01,-3.972963243722915649e-02,-3.173860609531402588e-01,6.031572818756103516e-02,-9.007651358842849731e-02,-1.253353357315063477e-01,-2.167403548955917358e-01,1.067312508821487427e-01,-9.839582443237304688e-02,-2.297025620937347412e-01,1.859829202294349670e-02,-2.394122779369354248e-01,2.185458689928054810e-02,1.717287600040435791e-01,7.239612191915512085e-02,1.193286851048469543e-01,-8.715013414621353149e-02,-3.807498887181282043e-02,-1.836134791374206543e-01,1.579051464796066284e-01,2.593939378857612610e-02,-8.401080965995788574e-03,2.075704634189605713e-01,5.666202306747436523e-02,2.626747786998748779e-01,3.974032774567604065e-02,-1.292828819714486599e-04,1.889781355857849121e-01,-4.960978403687477112e-04,1.991368532180786133e-01,-1.225460991263389587e-01,2.223876267671585083e-01,8.263222873210906982e-02,-1.091089323163032532e-01,5.942877009510993958e-02,-3.196325153112411499e-02,6.046863645315170288e-02,-7.836790755391120911e-03,-2.960353493690490723e-01,5.516226217150688171e-02,-6.900152564048767090e-02,7.325956970453262329e-02,-1.638456732034683228e-01,7.465110719203948975e-02,1.867721527814865112e-01,-5.789813399314880371e-02,-7.606743276119232178e-02,-2.077842503786087036e-01,-1.880225539207458496e-01,-2.188368439674377441e-01,-1.659016013145446777e-01,4.835197329521179199e-02,-3.157154098153114319e-02,1.937127560377120972e-01,2.231180667877197266e-01,1.379065364599227905e-01,1.351114660501480103e-01,2.412586659193038940e-02,1.196911707520484924e-01,-1.359059959650039673e-01,-1.594877541065216064e-01
-5.012274533510208130e-02,1.125352606177330017e-01,5.834983312524855137e-04,-6.554122082889080048e-03,-4.585366323590278625e-02,1.246336102485656738e-01,-9.266114234924316406e-02,-1.031609028577804565e-01,1.328204721212387085e-01,2.925726026296615601e-02,-2.114975750446319580e-01,-2.106048166751861572e-01,1.252711415290832520e-01,2.511035092175006866e-02,2.734175026416778564e-01,-3.591808490455150604e-03,3.481385111808776855e-01,-1.620583534240722656e-01,-1.093668416142463684e-01,2.373669445514678955e-01,2.000743150711059570e-01,-6.240819767117500305e-02,2.188208401203155518e-01,-8.738943189382553101e-02,2.386417388916015625e-01,1.190901920199394226e-01,-4.205866530537605286e-02,7.629323005676269531e-02,-1.586341112852096558e-01,1.567413657903671265e-01,-1.838694512844085693e-01,-2.517211437225341797e-02,1.842241883277893066e-01,-1.446615159511566162e-01,9.161876142024993896e-02,-2.264214903116226196e-01,-1.458898335695266724e-01,-1.325897425413131714e-01,-1.192941218614578247e-01,-2.231414243578910828e-02,1.851542443037033081e-01,-8.572240173816680908e-02,3.614554554224014282e-02,6.303633004426956177e-02,1.380302906036376953e-01,-2.862795591354370117e-01,1.420563179999589920e-02,-8.016358315944671631e-02,7.495796680450439453e-02,1.401049792766571045e-01,-3.229039311408996582e-01,-2.544155418872833252e-01,5.390836670994758606e-02,-1.852216869592666626e-01,1.254077255725860596e-01,-6.237728986889123917e-03,1.896736621856689453e-01,7.312697917222976685e-02,2.967387810349464417e-02,-2.470963634550571442e-02,1.864388138055801392e-01,3.247540816664695740e-02,1.468929052352905273e-01,7.433195412158966064e-02,-1.363957524299621582e-01,6.202412396669387817e-02,-2.046816647052764893e-01,6.045618280768394470e-02,5.981887876987457275e-02,-1.722504757344722748e-02,-1.035086587071418762e-01,-7.636381685733795166e-02,1.247391253709793091e-01,-1.997734606266021729e-02,6.944424659013748169e-02,-3.047545254230499268e-02,2.139843702316284180e-01,-4.323156550526618958e-02,1.877333670854568481e-01,-2.114628553390502930e-01,-1.733127608895301819e-02,-2.686825692653656006e-01,5.259823426604270935e-02,2.037966251373291016e-02,-1.708746254444122314e-01,2.107148990035057068e-02,1.318368688225746155e-02,-2.756740450859069824e-01,2.050780802965164185e-01,1.416476815938949585e-01,1.057465896010398865e-01,-1.824271678924560547e-01,-2.259271964430809021e-02,-4.679182916879653931e-02,8.830717206001281738e-02,4.750457778573036194e-02,-1.449993997812271118e-01,1.722954362630844116e-01,-1.664383113384246826e-01,-6.082754582166671753e-02,1.770489215850830078e-01,6.127515435218811035e-02,-9.888708591461181641e-03,1.005927771329879761e-01,5.761769786477088928e-02,-1.917684264481067657e-02,8.686622232198715210e-02,1.234251484274864197e-01,5.393097549676895142e-02,1.139841601252555847e-01,-9.733056277036666870e-02,-4.492543172091245651e-03,-1.566539332270622253e-02,-4.029096290469169617e-02,2.621928751468658447e-01,-1.201948150992393494e-01,2.105726301670074463e-02,1.257615089416503906e-01,7.546945661306381226e-02,5.543682351708412170e-02,5.250696558505296707e-03,-3.218261897563934326e-02,-1.323594301939010620e-01,-1.396980136632919312e-01,-9.695583581924438477e-02,-1.257312148809432983e-01,-1.008081436157226562e-01,-1.191773712635040283e-01
1.588101834058761597e-01,1.579090356826782227e-01,1.979704797267913818e-01,-1.803242862224578857e-01,-1.313799526542425156e-02,1.781467199325561523e-01,3.330343216657638550e-02,-1.866609975695610046e-02,-1.050616800785064697e-01,7.884686440229415894e-02,-1.582572311162948608e-01,-8.799327164888381958e-02,7.504928112030029297e-02,-5.554274469614028931e-02,9.848228096961975098e-02,-3.943954408168792725e-01,-3.568507432937622070e-01,3.081182390451431274e-02,-2.087832093238830566e-01,1.705327443778514862e-02,-1.566721349954605103e-01,-1.042925491929054260e-01,-1.124317049980163574e-01,-7.676533609628677368e-02,5.996095761656761169e-02,-3.810599818825721741e-02,-2.429304569959640503e-01,1.031946241855621338e-01,-1.355569809675216675e-01,8.490094915032386780e-03,-9.127599745988845825e-02,-5.230462551116943359e-02,3.894063830375671387e-01,1.649124324321746826e-01,-1.126880869269371033e-01,6.248806137591600418e-03,1.725355237722396851e-01,9.872045367956161499e-02,5.060564354062080383e-02,-1.835543364286422729e-01,-1.159722954034805298e-01,-6.083658430725336075e-03,-9.843686968088150024e-02,-1.642210930585861206e-01,-3.379618003964424133e-02,-1.868318021297454834e-01,1.188142150640487671e-01,4.645108059048652649e-02,-1.314191073179244995e-01,4.594041109085083008e-01,-3.628084063529968262e-02,-6.671814713627099991e-03,4.001528397202491760e-02,1.131059452891349792e-01,-6.587902083992958069e-03,-1.498908847570419312e-01,8.244975656270980835e-02,-5.153928697109222412e-02,-1.553190685808658600e-02,-1.908834427595138550e-01,-3.825220465660095215e-02,-3.095016628503799438e-02,-4.390636458992958069e-02,1.463342607021331787e-01,6.178502365946769714e-02,-1.323813199996948242e-01,-6.860186904668807983e-02,-2.341732084751129150e-01,-6.664627790451049805e-02,2.578961476683616638e-02,1.557602584362030029e-01,-1.024019122123718262e-01,-5.798623338341712952e-02,-1.847808957099914551e-01,2.715708315372467041e-01,2.152328938245773315e-01,6.016615778207778931e-02,1.086325347423553467e-01,-1.637625247240066528e-01,-2.287942916154861450e-01,1.210785508155822754e-01,-7.843468338251113892e-03,-9.032385796308517456e-02,-2.094104140996932983e-01,-1.812716722488403320e-01,4.010053873062133789e-01,-2.418376058340072632e-01,-4.535828530788421631e-02,5.655002593994140625e-02,3.777850419282913208e-02,-1.573335565626621246e-02,1.140503138303756714e-01,6.016847211867570877e-03,1.230209246277809143e-01,5.070982035249471664e-03,2.335767894983291626e-01,4.722180962562561035e-02,-2.231758832931518555e-01,-1.679152250289916992e-01,-3.264689445495605469e-02,-1.028459221124649048e-01,-1.602067351341247559e-01,4.107050225138664246e-02,1.399645507335662842e-01,-1.663230806589126587e-01,-2.656581699848175049e-01,8.915650844573974609e-02,4.836253821849822998e-02,-1.347610652446746826e-01,2.508165240287780762e-01,1.400857865810394287e-01,4.469608515501022339e-02,8.625667542219161987e-02,-1.007440965622663498e-02,-1.183403804898262024e-01,-2.070867270231246948e-02,1.092133894562721252e-01,-8.179489523172378540e-03,3.569927811622619629e-02,6.955598294734954834e-02,3.001360595226287842e-02,4.065056890249252319e-02,1.313433945178985596e-01,-3.651849459856748581e-03,4.044065773487091064e-01,3.223719075322151184e-02,8.016942068934440613e-03,1.189538016915321350e-01
-1.036780253052711487e-01,-2.028238326311111450e-01,-8.011156320571899414e-02,1.188864484429359436e-01,-2.220752239227294922e-01,2.382940500974655151e-01,3.784057870507240295e-02,2.046889811754226685e-01,-6.977203488349914551e-02,2.868212163448333740e-01,-1.824270486831665039e-01,1.203410550951957703e-01,-1.620694622397422791e-02,-6.448478251695632935e-02,1.423766463994979858e-01,-3.539422468747943640e-04,-2.826606035232543945e-01,-1.723155230283737183e-01,3.313593864440917969e-01,-1.452897787094116211e-01,-2.461420297622680664e-01,-1.450286060571670532e-01,2.045030742883682251e-01,2.689354866743087769e-02,2.683222293853759766e-01,1.137583330273628235e-02,4.981031175702810287e-03,9.708537906408309937e-02,6.947672367095947266e-02,6.106839329004287720e-02,1.309414356946945190e-01,1.095762774348258972e-01,-9.828435257077217102e-03,1.871649920940399170e-01,-8.680240809917449951e-02,-1.366591360419988632e-02,-3.136097788810729980e-01,1.557968407869338989e-01,5.446616932749748230e-02,-1.330109387636184692e-01,-1.179984733462333679e-01,-4.074193164706230164e-02,-1.433359533548355103e-01,1.289330981671810150e-02,6.472228467464447021e-02,1.395580321550369263e-01,-2.731843618676066399e-03,-1.499699801206588745e-01,-2.005475163459777832e-01,1.058548241853713989e-01,1.830562949180603027e-02,-7.256196439266204834e-02,1.049038246273994446e-01,8.339850604534149170e-02,-2.816140353679656982e-01,1.996018290519714355e-01,3.222798183560371399e-02,-2.635920606553554535e-02,1.870446279644966125e-02,-9.578103572130203247e-02,-3.039600327610969543e-02,8.027554489672183990e-03,-2.365024238824844360e-01,-1.861678957939147949e-01,-7.391711324453353882e-02,-1.340385079383850098e-01,-1.004765629768371582e-01,-1.178134530782699585e-01,-1.905332356691360474e-01,2.323735877871513367e-02,1.282599419355392456e-01,-6.467781960964202881e-02,3.067586421966552734e-01,6.182881817221641541e-02,-2.232149429619312286e-02,-1.205686926841735840e-01,3.926381468772888184e-02,-1.899636834859848022e-01,9.744483232498168945e-02,1.864715665578842163e-02,2.568278312683105469e-01,9.406576305627822876e-02,3.005534112453460693e-01,4.657828807830810547e-02,-9.007657878100872040e-03,-2.956100106239318848e-01,-6.777638196945190430e-01,2.102469503879547119e-01,-8.616852015256881714e-02,-8.101508021354675293e-02,-1.914177089929580688e-01,-8.498476445674896240e-02,-8.884224295616149902e-02,1.567784547805786133e-01,-5.176475271582603455e-02,1.359982341527938843e-01,-3.502978980541229248e-01,-9.500443935394287109e-02,2.362756282091140747e-01,1.335328072309494019e-01,2.297849208116531372e-02,2.881895601749420166e-01,2.234790027141571045e-01,7.297646254301071167e-02,-7.135457545518875122e-02,7.567313313484191895e-02,6.820157170295715332e-02,-7.198629528284072876e-02,4.078144580125808716e-02,-2.963748946785926819e-02,-4.616133868694305420e-01,-1.850340664386749268e-01,3.889524638652801514e-01,6.821747124195098877e-02,-1.687305122613906860e-01,1.795801371335983276e-01,-8.887647837400436401e-02,4.281519353389739990e-02,-1.292462497949600220e-01,-1.671669483184814453e-01,-5.431194975972175598e-02,-1.146741434931755066e-01,-1.485087275505065918e-01,-5.097433179616928101e-02,-3.615596331655979156e-03,1.490974426269531250e-01,-1.922345906496047974e-02,-2.006243765354156494e-01
4.934464022517204285e-02,-9.127314388751983643e-02,-6.254439800977706909e-02,-4.497827589511871338e-02,-2.114974707365036011e-01,3.600189666030928493e-05,-1.285373568534851074e-01,-2.627689242362976074e-01,9.405789524316787720e-02,1.480069309473037720e-01,4.612576682120561600e-03,-2.355348616838455200e-01,-3.933481872081756592e-02,3.772076219320297241e-02,-1.874423399567604065e-02,-3.502297773957252502e-02,-6.817166507244110107e-02,7.387579232454299927e-02,-4.325084686279296875e-01,-1.293252557516098022e-01,-1.125568524003028870e-01,-1.485118735581636429e-02,1.342487484216690063e-01,-2.875208295881748199e-02,-1.525757089257240295e-02,-1.225661020725965500e-02,-2.156629264354705811e-01,-6.548252701759338379e-02,3.639354705810546875e-01,1.716149300336837769e-01,-7.458472251892089844e-02,4.618734493851661682e-02,1.081568822264671326e-01,2.264903392642736435e-03,1.623724773526191711e-02,2.310829311609268188e-01,-2.003127150237560272e-02,-2.722301781177520752e-01,1.442133486270904541e-01,-3.171984255313873291e-01,-1.294757425785064697e-02,-2.389936745166778564e-01,3.933948874473571777e-01,4.111298918724060059e-02,-1.213132068514823914e-01,-5.810131132602691650e-02,1.509807631373405457e-02,-5.079178512096405029e-02,3.139060735702514648e-01,1.304434239864349365e-01,4.299299791455268860e-02,-2.829105257987976074e-01,-9.447149187326431274e-02,-4.057069867849349976e-02,8.376812189817428589e-02,1.776596605777740479e-01,-4.908104985952377319e-02,2.115840762853622437e-01,-1.342530250549316406e-01,-1.621966017410159111e-03,2.982954960316419601e-03,-1.121341586112976074e-01,1.756514012813568115e-01,7.049106806516647339e-02,2.276315242052078247e-01,-2.735200524330139160e-01,-1.382198631763458252e-01,2.978459894657135010e-01,-3.612307459115982056e-02,1.427632290869951248e-03,-5.735027045011520386e-02,-3.189653158187866211e-01,-2.163825035095214844e-01,-1.602377593517303467e-01,-9.430383332073688507e-03,-2.684690654277801514e-01,-2.432242631912231445e-01,2.071445249021053314e-02,1.184562519192695618e-01,2.209779173135757446e-01,-1.535006612539291382e-01,-1.535350382328033447e-01,-4.107392951846122742e-02,2.989766299724578857e-01,2.167936712503433228e-01,4.483221471309661865e-02,-2.648084461688995361e-01,2.852051332592964172e-02,3.336397930979728699e-02,1.002852618694305420e-01,-8.075639605522155762e-02,-1.322181820869445801e-01,-1.357425656169652939e-02,1.466096490621566772e-01,-7.697887718677520752e-03,-4.415751397609710693e-01,3.449451923370361328e-01,1.170443519949913025e-01,-1.950180679559707642e-01,2.062166333198547363e-01,3.127055615186691284e-02,3.935198783874511719e-01,1.346554458141326904e-01,1.179033517837524414e-01,-2.558827772736549377e-02,-6.712893396615982056e-02,-2.031016908586025238e-02,-5.992793291807174683e-02,-1.413107216358184814e-01,-5.213054828345775604e-03,-1.058532521128654480e-01,-1.739763170480728149e-01,-1.258669793605804443e-01,1.843406707048416138e-01,-6.690188497304916382e-02,4.044105764478445053e-03,1.716981530189514160e-01,1.761693507432937622e-01,3.572560846805572510e-02,-1.270167678594589233e-01,-1.103758439421653748e-01,-4.245188459753990173e-02,8.521147072315216064e-02,-1.609235256910324097e-02,3.243068233132362366e-02,-1.979653537273406982e-01,2.351903617382049561e-01,2.553287334740161896e-02
-2.265403419733047485e-01,-1.285574585199356079e-01,-1.235125702805817127e-03,2.178770601749420166e-01,-1.127831824123859406e-02,-3.660539984703063965e-01,-1.821106672286987305e-02,-4.127283394336700439e-01,1.004689633846282959e-01,1.661734730005264282e-01,-2.182327955961227417e-01,-3.477960228919982910e-01,8.462478872388601303e-04,-2.225886844098567963e-02,-6.005702074617147446e-03,-6.102808564901351929e-02,-4.025564342737197876e-02,9.141724556684494019e-02,-2.584619820117950439e-01,-5.165889486670494080e-02,1.984524577856063843e-01,-5.493514239788055420e-02,-5.378913879394531250e-02,2.115420401096343994e-01,1.389720588922500610e-01,-8.593549579381942749e-02,5.476430058479309082e-02,1.496499776840209961e-01,-9.193035773932933807e-03,8.227868005633354187e-03,3.308251500129699707e-01,7.072224467992782593e-02,1.388123491778969765e-03,5.192748084664344788e-02,-5.852609127759933472e-02,-1.429392248392105103e-01,3.898821398615837097e-02,-1.244893744587898254e-01,2.870594561100006104e-01,-1.548157036304473877e-01,-1.149411499500274658e-01,-1.141538470983505249e-01,-1.564253419637680054e-01,3.964295145124197006e-03,-5.112126842141151428e-02,1.212830841541290283e-01,-6.863819062709808350e-02,9.881886094808578491e-02,1.316156685352325439e-01,1.138124316930770874e-01,1.799668068997561932e-03,3.837395086884498596e-02,1.372838467359542847e-01,-8.372535556554794312e-02,5.600681062787771225e-03,-3.485716134309768677e-02,1.563228666782379150e-02,-1.145887225866317749e-01,-4.791837558150291443e-02,-4.742637649178504944e-02,6.444254517555236816e-02,1.069607585668563843e-02,-3.793536871671676636e-02,-1.935310363769531250e-01,3.863566815853118896e-01,-1.109206080436706543e-01,1.595680713653564453e-01,-1.579130589962005615e-01,1.972758620977401733e-01,-9.561143070459365845e-02,-1.366409007459878922e-03,-1.855545490980148315e-01,1.400757133960723877e-01,2.570607066154479980e-01,-1.454292982816696167e-02,-8.334575593471527100e-02,-7.019592914730310440e-03,-2.999142371118068695e-02,-5.624985694885253906e-02,-1.422821432352066040e-01,-4.023296758532524109e-02,-7.592357695102691650e-02,-1.587412506341934204e-01,-3.777976632118225098e-01,5.933126807212829590e-02,8.116883039474487305e-02,-8.406805992126464844e-02,1.560089439153671265e-01,-1.010019108653068542e-01,-3.449672460556030273e-02,-2.626865506172180176e-01,-5.757845193147659302e-02,-1.295506837777793407e-03,3.395131602883338928e-02,-3.829390183091163635e-02,-2.447211146354675293e-01,-1.612139046192169189e-01,-7.283262908458709717e-02,6.831812113523483276e-02,-1.486206203699111938e-01,-1.631316393613815308e-01,-1.214134022593498230e-01,-5.087259784340858459e-02,8.193302899599075317e-02,7.509310543537139893e-02,2.770210057497024536e-02,-2.622879296541213989e-02,-1.418477445840835571e-01,-3.368227928876876831e-02,6.821416318416595459e-02,2.306322604417800903e-01,5.647429823875427246e-02,1.506472378969192505e-01,-1.283802688121795654e-01,-2.416070848703384399e-01,-1.367810964584350586e-01,-1.843341439962387085e-01,2.306362688541412354e-01,3.941649198532104492e-02,1.655503511428833008e-01,1.993521861732006073e-02,6.713789701461791992e-02,-5.652834847569465637e-02,-8.423236012458801270e-02,-2.280072122812271118e-01,-2.062687464058399200e-02,-2.383373230695724487e-01,2.068271161988377571e-03
-4.646830726414918900e-03,-2.408860772848129272e-01,-8.475007116794586182e-02,-9.740518033504486084e-02,1.364856306463479996e-02,-2.389496378600597382e-02,-2.330721169710159302e-01,2.420842498540878296e-01,-6.282418966293334961e-02,-7.048877328634262085e-02,-2.679808065295219421e-02,2.022954076528549194e-01,-3.770379424095153809e-01,6.988708861172199249e-03,-1.891255229711532593e-01,1.437396109104156494e-01,4.534198343753814697e-02,2.822890579700469971e-01,1.011535525321960449e-01,1.587091246619820595e-03,1.574296504259109497e-01,-2.379505895078182220e-02,4.144147410988807678e-02,2.495204061269760132e-01,-2.574764490127563477e-01,-8.210258185863494873e-02,-2.380159348249435425e-01,1.747863292694091797e-01,1.512956991791725159e-02,-1.364565342664718628e-01,-2.782597243785858154e-01,-1.685874760150909424e-01,1.272262334823608398e-01,-3.286494016647338867e-01,2.383275032043457031e-01,-6.788274645805358887e-02,7.111288607120513916e-02,1.824388056993484497e-01,1.992688030004501343e-01,1.005898341536521912e-01,-2.189684510231018066e-01,2.006909400224685669e-01,-6.418438255786895752e-02,1.401297301054000854e-01,-2.477802485227584839e-01,7.367032021284103394e-02,-1.871863156557083130e-01,-1.907425373792648315e-01,3.098697960376739502e-02,1.681389957666397095e-01,-4.572120308876037598e-02,-9.583237767219543457e-02,-1.003886852413415909e-02,-1.088489033281803131e-02,-1.694255918264389038e-01,1.030456721782684326e-01,-8.658874779939651489e-02,7.564213126897811890e-02,3.641265258193016052e-02,-9.901287406682968140e-02,1.040197238326072693e-01,9.915371984243392944e-02,-1.471293419599533081e-01,3.733138320967555046e-03,1.875239908695220947e-01,-2.051144093275070190e-01,-5.433365330100059509e-02,-5.049842596054077148e-02,6.788334576413035393e-04,3.500961065292358398e-01,-2.724732756614685059e-01,-1.206655055284500122e-01,1.515078842639923096e-01,-1.022043898701667786e-01,4.228267073631286621e-01,4.840047284960746765e-02,9.454106912016868591e-04,1.989133507013320923e-01,-2.316448390483856201e-01,-1.288360357284545898e-01,1.071085780858993530e-01,8.485604077577590942e-02,3.705887794494628906e-01,9.247753769159317017e-02,-1.413090080022811890e-01,1.566535234451293945e-02,-1.014739349484443665e-01,7.673628628253936768e-02,-4.385703802108764648e-02,-1.561456024646759033e-01,3.096511363983154297e-01,-2.962430119514465332e-01,1.047840714454650879e-02,4.430932924151420593e-02,5.191736668348312378e-02,-3.724669516086578369e-01,2.208453714847564697e-01,1.294018886983394623e-02,8.665906637907028198e-02,5.692073702812194824e-02,1.241031438112258911e-01,-6.914953142404556274e-02,8.519263938069343567e-03,1.256574839353561401e-01,1.508523523807525635e-01,-1.243477836251258850e-01,-1.334935706108808517e-02,1.099577993154525757e-01,2.262559682130813599e-01,-1.323457621037960052e-02,1.635033339262008667e-01,-1.583537906408309937e-01,2.051240652799606323e-01,-1.218039542436599731e-01,4.400327801704406738e-01,-4.255438596010208130e-02,2.106887549161911011e-01,-9.012056514620780945e-03,-1.929443180561065674e-01,-6.495941430330276489e-02,2.943564392626285553e-02,-9.798336541280150414e-04,1.543415635824203491e-01,-1.067870017141103745e-02,-1.472603082656860352e-01,-1.081601977348327637e-01,-2.027641683816909790e-01,-2.020519375801086426e-01
6.165232509374618530e-02,7.387526333332061768e-02,6.261758506298065186e-03,-1.566136926412582397e-01,-1.079571782611310482e-03,-1.068875342607498169e-01,-9.148016571998596191e-02,3.799807652831077576e-02,1.427255570888519287e-01,4.010716918855905533e-03,-1.474703103303909302e-01,2.278158962726593018e-01,9.829795360565185547e-02,8.619914203882217407e-02,2.603892683982849121e-01,1.740111559629440308e-01,-1.130113229155540466e-01,-1.697038114070892334e-01,2.324531599879264832e-02,-1.606540530920028687e-01,-7.521703839302062988e-02,9.624495357275009155e-02,-7.591494172811508179e-02,-1.396445035934448242e-01,2.662506699562072754e-02,9.455011785030364990e-02,1.771139651536941528e-01,-4.127461016178131104e-01,-4.776976630091667175e-02,-1.252942830324172974e-01,1.301355212926864624e-01,-8.529777079820632935e-02,-7.206922769546508789e-02,7.994209975004196167e-02,1.140730455517768860e-01,1.104836072772741318e-02,-4.517248272895812988e-02,-9.992875903844833374e-02,3.849665075540542603e-02,2.059271931648254395e-01,-4.602262750267982483e-02,-1.260684579610824585e-01,-1.261330395936965942e-01,-1.606925427913665771e-01,-8.308980613946914673e-02,-2.477593719959259033e-02,-1.839138865470886230e-01,-9.476833790540695190e-02,8.898494392633438110e-02,4.677987471222877502e-02,-1.854230649769306183e-02,1.825983971357345581e-01,1.975552290678024292e-01,-1.175568997859954834e-01,1.843528151512145996e-01,8.565196394920349121e-02,-1.011689379811286926e-02,9.149530902504920959e-03,2.220236957073211670e-01,1.361715793609619141e-02,-3.655131906270980835e-02,-2.608425356447696686e-02,1.545437723398208618e-01,-2.395845204591751099e-02,3.636724129319190979e-02,-1.815665066242218018e-01,-2.156075555831193924e-03,2.075590193271636963e-02,1.895920783281326294e-01,-2.287316173315048218e-01,-3.247760832309722900e-01,-5.442466586828231812e-02,-1.458747833967208862e-01,-2.776125073432922363e-01,7.723928242921829224e-02,1.076832041144371033e-01,1.648168116807937622e-01,1.498626023530960083e-01,1.709090173244476318e-01,5.233918502926826477e-02,-2.510800957679748535e-01,1.435832679271697998e-01,-5.082882568240165710e-02,-2.140519395470619202e-02,-1.682828962802886963e-01,9.775098413228988647e-02,2.415799535810947418e-02,1.807063072919845581e-01,-1.615643054246902466e-01,-4.132356494665145874e-02,2.560752928256988525e-01,-1.647960580885410309e-02,8.629351854324340820e-03,6.544705480337142944e-02,-5.794887617230415344e-02,-6.213180720806121826e-02,-1.102184876799583435e-01,-3.044338226318359375e-01,3.088326752185821533e-02,-1.483585387468338013e-01,-6.201285496354103088e-02,-9.207112342119216919e-02,1.047843694686889648e-01,9.528838098049163818e-02,-3.712845221161842346e-02,2.689661383628845215e-01,-1.448116302490234375e-01,-4.115099087357521057e-02,1.782721728086471558e-01,-1.825033314526081085e-02,1.567643433809280396e-01,-9.411332011222839355e-02,-1.977734565734863281e-01,-1.423192769289016724e-02,8.555990457534790039e-02,7.829635590314865112e-02,5.776093155145645142e-02,1.155332252383232117e-01,1.218057423830032349e-01,2.858547493815422058e-02,1.171087399125099182e-01,1.380553841590881348e-01,-4.344100505113601685e-02,4.089611768722534180e-02,1.130827516317367554e-01,-3.369913995265960693e-02,-3.364663124084472656e-01,-7.367577403783798218e-02
-1.086582466959953308e-01,1.066529974341392517e-01,1.883215606212615967e-01,-1.347614824771881104e-01,1.105360388755798340e-01,6.983555108308792114e-02,1.717130690813064575e-01,-1.098683997988700867e-01,6.275583803653717041e-02,6.822356581687927246e-02,-1.368795186281204224e-01,1.082207933068275452e-01,-1.499161869287490845e-01,2.032861709594726562e-01,-1.571919173002243042e-01,9.844681248068809509e-03,-1.119230240583419800e-01,7.158060371875762939e-02,1.338204182684421539e-02,2.045493274927139282e-01,-1.489927172660827637e-01,1.899135708808898926e-01,-2.559346519410610199e-02,-2.327566891908645630e-01,5.244557559490203857e-02,-2.294031530618667603e-01,-2.782547175884246826e-01,-6.762889772653579712e-02,-8.750486373901367188e-02,-8.748172968626022339e-02,-1.089737415313720703e-01,-3.113162145018577576e-02,-1.944193542003631592e-01,1.332527995109558105e-01,6.393577903509140015e-02,2.999674975872039795e-01,4.667792469263076782e-02,-5.385766271501779556e-03,3.803557902574539185e-02,3.774274885654449463e-02,2.158657163381576538e-01,5.034425854682922363e-02,2.343395166099071503e-02,1.089595556259155273e-01,1.979103386402130127e-01,-2.145966738462448120e-01,-1.528357118368148804e-01,-2.000672817230224609e-01,-2.283160686492919922e-01,6.515652406960725784e-03,-7.911844179034233093e-03,-2.488935180008411407e-02,1.666402518749237061e-01,1.375178545713424683e-01,-1.700082570314407349e-01,7.693795859813690186e-02,-5.741746351122856140e-02,3.272932469844818115e-01,1.545252203941345215e-01,-6.172059103846549988e-02,5.836401134729385376e-03,4.832322243601083755e-03,5.180003866553306580e-02,-1.267728507518768311e-01,8.076032251119613647e-02,1.304803639650344849e-01,3.563926517963409424e-01,-1.081352159380912781e-01,-2.207983843982219696e-02,-5.839680880308151245e-02,6.020799279212951660e-02,-7.835311442613601685e-02,-1.986903697252273560e-01,-2.260616421699523926e-01,-2.859714031219482422e-01,9.022761881351470947e-02,6.333062052726745605e-02,1.856671571731567383e-01,2.338994145393371582e-01,2.765933871269226074e-01,-4.625156894326210022e-02,-3.254169225692749023e-02,1.718443036079406738e-01,-1.825113408267498016e-02,2.442534863948822021e-01,3.019000887870788574e-01,-4.141275212168693542e-02,-2.569961845874786377e-01,-6.389768421649932861e-02,-1.827084422111511230e-01,-1.674823611974716187e-01,-6.121521443128585815e-02,-4.416624829173088074e-02,2.428717315196990967e-01,-1.857902556657791138e-01,2.129629701375961304e-01,1.738019436597824097e-01,1.428693085908889771e-01,1.148209795355796814e-01,-1.654023230075836182e-01,-1.856479495763778687e-01,-9.446920454502105713e-02,-1.263601779937744141e-01,1.784849613904953003e-01,7.014497369527816772e-02,4.110121726989746094e-02,1.178749278187751770e-01,2.307060407474637032e-03,2.585062086582183838e-01,-1.084611099213361740e-02,2.485518306493759155e-01,-6.928040832281112671e-02,1.692014485597610474e-01,-3.209857344627380371e-01,-2.087849378585815430e-01,-1.076542213559150696e-01,-1.041545569896697998e-01,1.617342531681060791e-01,-1.121754478663206100e-02,-1.143447831273078918e-01,-2.292226999998092651e-01,-1.186958551406860352e-01,1.510452181100845337e-01,2.036512345075607300e-01,9.517356753349304199e-02,3.917082548141479492e-01,1.497871279716491699e-01,7.025647163391113281e-02
-1.650427728891372681e-01,-1.900245994329452515e-02,2.041331678628921509e-01,1.988561637699604034e-02,4.754729941487312317e-02,9.092868119478225708e-02,7.239712774753570557e-02,4.625226557254791260e-02,-1.142237484455108643e-01,7.440955191850662231e-02,9.180355072021484375e-02,-2.717172503471374512e-01,-5.221995525062084198e-03,4.178372770547866821e-02,-1.619704216718673706e-01,1.198588237166404724e-01,1.782235950231552124e-01,-5.789496004581451416e-02,2.961655855178833008e-01,1.036764979362487793e-01,4.967458546161651611e-02,1.235349774360656738e-01,-1.278929412364959717e-02,-1.015055179595947266e-01,2.015950903296470642e-02,-1.277085393667221069e-02,-5.213428288698196411e-02,-1.770757511258125305e-02,-1.049817875027656555e-01,-4.821095149964094162e-03,-2.845006994903087616e-02,-3.916407376527786255e-02,-8.865182846784591675e-02,9.576199203729629517e-02,-2.451079487800598145e-01,7.521186769008636475e-02,1.222109072841703892e-03,-4.029869437217712402e-01,-1.166218370199203491e-01,-3.732621297240257263e-02,-1.552212685346603394e-01,-1.788457334041595459e-01,-2.550240897107869387e-04,6.029847543686628342e-03,5.840336531400680542e-02,-1.230701431632041931e-02,-1.404398530721664429e-01,-3.969363868236541748e-02,-1.294436603784561157e-01,1.556842625141143799e-01,9.677715599536895752e-02,-3.312251865863800049e-01,1.494279950857162476e-01,3.557123616337776184e-02,-2.337299846112728119e-02,4.301471263170242310e-02,4.467730969190597534e-02,9.955152124166488647e-02,4.774996545165777206e-03,5.402399227023124695e-02,-2.256267517805099487e-02,1.446869224309921265e-01,7.163906842470169067e-02,1.588989496231079102e-01,1.106495335698127747e-01,-2.363094687461853027e-01,1.125483512878417969e-01,5.209159851074218750e-02,-8.317217975854873657e-02,-1.246809512376785278e-01,5.889310315251350403e-02,7.380085438489913940e-02,3.510873019695281982e-01,2.335126847028732300e-01,1.223103851079940796e-01,-1.240886300802230835e-01,-6.134722754359245300e-02,4.995464161038398743e-02,-4.996706917881965637e-02,-2.666052877902984619e-01,8.631587773561477661e-02,2.465779781341552734e-01,1.620691716670989990e-01,-5.556512996554374695e-02,-1.948745697736740112e-01,-1.524301022291183472e-01,4.549342766404151917e-02,2.004552185535430908e-01,-1.577702015638351440e-01,2.763521373271942139e-01,9.678312391042709351e-02,1.548080295324325562e-01,2.586066722869873047e-01,-1.286903172731399536e-01,-6.922571361064910889e-02,-1.354186236858367920e-01,1.309628337621688843e-01,-5.055223032832145691e-02,-2.290222644805908203e-01,-1.783998012542724609e-01,-2.370827365666627884e-03,-9.898150712251663208e-02,-8.350907266139984131e-02,-2.842274904251098633e-01,-8.962823450565338135e-02,2.884275913238525391e-01,3.681529080495238304e-03,7.548392564058303833e-02,-8.465643227100372314e-02,-3.798747062683105469e-01,3.445728123188018799e-02,1.009191274642944336e-01,-1.177786663174629211e-01,-1.950056105852127075e-02,-3.137983977794647217e-01,-1.548454463481903076e-01,5.338543653488159180e-02,5.694371461868286133e-02,-1.229773536324501038e-01,-1.549240797758102417e-01,-3.767879446968436241e-03,-6.888174265623092651e-02,8.995373547077178955e-02,5.932904407382011414e-02,2.352320104837417603e-01,-5.991128459572792053e-02,3.384905457496643066e-01,1.354548782110214233e-01
