-1.231233552098274231e-01
-3.553612902760505676e-02
1.992713660001754761e-01
-2.765815556049346924e-01
-7.842631638050079346e-02
1.320476233959197998e-01
1.688677668571472168e-01
-2.057882212102413177e-02
-1.976986676454544067e-01
7.074490189552307129e-02
-6.532938033342361450e-02
-1.197217330336570740e-01
-1.283790767192840576e-01
-1.718113757669925690e-02
-1.139611080288887024e-01
-1.249885261058807373e-01
-1.589621603488922119e-01
1.490468084812164307e-01
9.049557894468307495e-02
1.032654196023941040e-01
5.363046750426292419e-02
1.142786741256713867e-01
-6.777679175138473511e-02
-1.461528390645980835e-01
1.331506967544555664e-01
7.728644460439682007e-02
2.022815942764282227e-01
1.349769085645675659e-01
5.142666772007942200e-02
5.494763609021902084e-04
8.016013354063034058e-02
-1.125458255410194397e-01
3.931759670376777649e-02
1.051385626196861267e-01
1.589205265045166016e-01
2.328324764966964722e-01
-1.039156690239906311e-01
-3.597181988880038261e-03
-9.872588515281677246e-02
1.263295114040374756e-01
1.199446246027946472e-01
5.971042811870574951e-02
-4.705216269940137863e-03
2.023960798978805542e-01
1.944633275270462036e-01
5.831280723214149475e-02
4.263149574398994446e-03
4.950070008635520935e-02
1.310825347900390625e-01
2.405906021595001221e-01
-4.215686395764350891e-02
-3.692555055022239685e-02
-1.655024886131286621e-01
-1.054442673921585083e-01
-1.011476367712020874e-01
1.857911497354507446e-01
-1.459573656320571899e-01
-2.122861146926879883e-01
2.883014678955078125e-01
-8.960733562707901001e-02
1.014926210045814514e-01
-1.314559131860733032e-01
-6.508138030767440796e-02
-1.942197605967521667e-02
1.133478730916976929e-01
-1.557320170104503632e-02
-4.866528511047363281e-02
1.026487201452255249e-01
1.225270610302686691e-02
-1.315384823828935623e-02
-3.318115777801722288e-04
-4.044959694147109985e-02
5.502504855394363403e-02
-2.637253142893314362e-02
-8.227966725826263428e-02
1.372507680207490921e-02
3.972679004073143005e-02
-5.259947106242179871e-02
5.863019730895757675e-03
-4.978984221816062927e-02
1.217985805124044418e-02
4.148562625050544739e-02
6.378135830163955688e-02
7.065805792808532715e-02
-4.504310339689254761e-02
-9.041866660118103027e-02
-1.218218728899955750e-02
-3.098873607814311981e-02
-1.561230607330799103e-02
-3.285424411296844482e-02
3.817564621567726135e-02
-2.480758912861347198e-02
8.852877654135227203e-03
3.252213820815086365e-02
1.714815758168697357e-02
7.276160269975662231e-02
5.562040582299232483e-02
-8.493765443563461304e-02
-6.103014573454856873e-02
1.025310233235359192e-01
-2.887261286377906799e-02
4.265416041016578674e-02
-1.123913154006004333e-01
3.385311737656593323e-02
2.060874179005622864e-02
-2.197170816361904144e-02
-1.286526024341583252e-01
3.343817219138145447e-02
-5.332082044333219528e-03
3.897288814187049866e-02
-2.107233740389347076e-02
3.981725126504898071e-02
-5.571507290005683899e-02
-9.543157182633876801e-03
-3.284026682376861572e-02
-1.841642893850803375e-02
-2.605996467173099518e-02
-1.701389253139495850e-02
1.901391521096229553e-02
6.265377998352050781e-02
2.355832234025001526e-02
1.830869121477007866e-03
-9.664501994848251343e-02
-1.431048009544610977e-02
2.283352427184581757e-02
-3.348067402839660645e-02
4.468085244297981262e-02
-2.467499813064932823e-03
