0.10310339182615280151367187500
-0.07749959826469421386718750000
-0.44011631608009338378906250000
0.36710599064826965332031250000
-0.04488879814743995666503906250
-0.01793841272592544555664062500
-0.00052191864233464002609252930
0.00694536836817860603332519531
0.04599755629897117614746093750
-0.05045831575989723205566406250
-0.03837352246046066284179687500
0.06540775299072265625000000000
-0.08961193263530731201171875000
0.37712362408638000488281250000
0.02961877360939979553222656250
0.06329240649938583374023437500
0.04723006114363670349121093750
0.16581583023071289062500000000
0.14828234910964965820312500000
-0.01690245978534221649169921875
0.04466017708182334899902343750
-0.04993081837892532348632812500
0.18475174903869628906250000000
-0.31787836551666259765625000000
-0.22161164879798889160156250000
-0.00185201677959412336349487305
-0.05649280920624732971191406250
-0.08874871581792831420898437500
-0.04473299533128738403320312500
0.08179127424955368041992187500
0.06100025773048400878906250000
0.01763930916786193847656250000
-0.25322556495666503906250000000
0.13618069887161254882812500000
-0.06717453896999359130859375000
-0.11020994186401367187500000000
-0.11861085146665573120117187500
0.08345458656549453735351562500
-0.06302724778652191162109375000
-0.04528788477182388305664062500
-0.06205427274107933044433593750
0.00406930642202496528625488281
-0.21946334838867187500000000000
0.16434147953987121582031250000
-0.04670606926083564758300781250
0.00105556484777480363845825195
-0.04983066767454147338867187500
-0.10193007439374923706054687500
0.05055231600999832153320312500
0.02105809934437274932861328125
-0.03454846888780593872070312500
-0.23542854189872741699218750000
0.07205782830715179443359375000
-0.09349385648965835571289062500
-0.01450440287590026855468750000
0.04027618095278739929199218750
0.02435895055532455444335937500
0.01577287726104259490966796875
-0.10158886760473251342773437500
-0.10773391276597976684570312500
-0.04960728436708450317382812500
0.18914444744586944580078125000
0.14156894385814666748046875000
-0.03961387276649475097656250000
0.14099405705928802490234375000
0.00051976850954815745353698730
0.06640554219484329223632812500
0.06683235615491867065429687500
0.16538339853286743164062500000
-0.02301792055368423461914062500
-0.09964508563280105590820312500
-0.07941833138465881347656250000
0.02716139145195484161376953125
0.50003969669342041015625000000
0.04450450465083122253417968750
-0.04185851663351058959960937500
0.13061691820621490478515625000
0.03362022712826728820800781250
-0.19806864857673645019531250000
-0.23522259294986724853515625000
0.10543113946914672851562500000
-0.05377130955457687377929687500
-0.03208704292774200439453125000
0.10200195759534835815429687500
-0.09563250839710235595703125000
0.05270812660455703735351562500
0.07269384711980819702148437500
-0.04233830794692039489746093750
0.11682183295488357543945312500
-0.06510397791862487792968750000
-0.20722410082817077636718750000
0.03778817132115364074707031250
-0.11896265298128128051757812500
-0.06578163802623748779296875000
-0.02348634600639343261718750000
-0.10557822883129119873046875000
-0.09959935396909713745117187500
0.11696757376194000244140625000
-0.05752823129296302795410156250
0.19262088835239410400390625000
0.22438123822212219238281250000
-0.04809786751866340637207031250
0.05848750844597816467285156250
-0.01592658832669258117675781250
0.01563264802098274230957031250
0.11924439668655395507812500000
0.14276583492755889892578125000
-0.13015353679656982421875000000
-0.11331266909837722778320312500
-0.12681478261947631835937500000
-0.01905818656086921691894531250
-0.01971412077546119689941406250
-0.09459961205720901489257812500
0.03884414210915565490722656250
0.06175653263926506042480468750
-0.04742968827486038208007812500
0.18742729723453521728515625000
0.11433067917823791503906250000
0.02540601789951324462890625000
-0.13926981389522552490234375000
-0.07568750530481338500976562500
-0.12523488700389862060546875000
-0.01445202250033617019653320312
-0.01729457825422286987304687500
0.02889546193182468414306640625
0.06009504199028015136718750000
-0.04761093109846115112304687500
0.07974634319543838500976562500
