0.11793092638254165649414062500
-0.01114621199667453765869140625
-0.04002564772963523864746093750
-0.03876957669854164123535156250
-0.04927371814846992492675781250
0.08303140103816986083984375000
-0.02024473249912261962890625000
-0.02261977456510066986083984375
-0.08371367305517196655273437500
-0.01360062044113874435424804688
-0.03133443742990493774414062500
0.02172847837209701538085937500
-0.11363416910171508789062500000
-0.03785452619194984436035156250
-0.00381816993467509746551513672
0.13741141557693481445312500000
-0.03839733824133872985839843750
-0.04521201923489570617675781250
-0.05349925532937049865722656250
0.03765039518475532531738281250
-0.00891113560646772384643554688
-0.11271787434816360473632812500
-0.18505035340785980224609375000
0.09889225661754608154296875000
-0.10628218203783035278320312500
-0.03762125596404075622558593750
0.00343127874657511711120605469
0.01653100363910198211669921875
0.19081836938858032226562500000
0.03573487699031829833984375000
-0.04910932481288909912109375000
-0.01245058607310056686401367188
-0.01540864259004592895507812500
0.10494377464056015014648437500
-0.00383052183315157890319824219
-0.06345725804567337036132812500
-0.00217149942182004451751708984
-0.06594388931989669799804687500
-0.08868115395307540893554687500
-0.07919462770223617553710937500
0.06544450670480728149414062500
0.06117054820060729980468750000
0.04795428365468978881835937500
-0.02000387385487556457519531250
0.16114236414432525634765625000
-0.03783389180898666381835937500
-0.20346604287624359130859375000
0.03784793242812156677246093750
0.07303537428379058837890625000
0.00942668411880731582641601562
-0.09209281206130981445312500000
0.08753537386655807495117187500
-0.07155688852071762084960937500
-0.08723351359367370605468750000
-0.07685459405183792114257812500
-0.00465705385431647300720214844
0.01200941484421491622924804688
0.06994447112083435058593750000
-0.00857136957347393035888671875
-0.01590683124959468841552734375
-0.01294101402163505554199218750
-0.01423285435885190963745117188
-0.09586927294731140136718750000
-0.17126432061195373535156250000
0.05636615678668022155761718750
0.05853003263473510742187500000
0.05703542381525039672851562500
0.10742884874343872070312500000
-0.03598456829786300659179687500
0.08244846761226654052734375000
0.08066766709089279174804687500
-0.10017903894186019897460937500
-0.04942576587200164794921875000
0.09433222562074661254882812500
0.02220921590924263000488281250
0.05899685993790626525878906250
-0.03555839136242866516113281250
-0.04305159673094749450683593750
0.14798302948474884033203125000
0.24640811979770660400390625000
0.08000291883945465087890625000
-0.00777138303965330123901367188
-0.00032183050643652677536010742
-0.19899293780326843261718750000
0.11260978877544403076171875000
0.00129894190467894077301025391
-0.09460038691759109497070312500
0.11962164193391799926757812500
-0.06627149879932403564453125000
-0.05295994877815246582031250000
0.11143006384372711181640625000
0.11985334008932113647460937500
0.01774688251316547393798828125
0.00362318591214716434478759766
0.10315711051225662231445312500
-0.05522551760077476501464843750
-0.04861745238304138183593750000
-0.09150041639804840087890625000
-0.11429221928119659423828125000
-0.11916117370128631591796875000
0.00901539344340562820434570312
0.05332488566637039184570312500
0.08274761587381362915039062500
0.14154304563999176025390625000
-0.02437338978052139282226562500
-0.12058586627244949340820312500
-0.07217896729707717895507812500
0.04666673392057418823242187500
-0.02015338651835918426513671875
-0.07158885896205902099609375000
0.01851888373494148254394531250
0.12664274871349334716796875000
-0.11162292957305908203125000000
0.02235230430960655212402343750
0.03103594668209552764892578125
0.03005808964371681213378906250
0.00768646039068698883056640625
0.08565733581781387329101562500
0.12007295340299606323242187500
0.03653858974575996398925781250
0.04605795443058013916015625000
-0.01742962747812271118164062500
-0.05256342142820358276367187500
-0.12087364494800567626953125000
0.18090441823005676269531250000
-0.02492290362715721130371093750
0.05315042287111282348632812500
-0.06400627642869949340820312500
