-6.460338830947875977e-02
2.131171058863401413e-03
-4.922407865524291992e-02
-2.562187314033508301e-01
1.962530165910720825e-01
-2.152166366577148438e-01
1.142086610198020935e-01
2.992445044219493866e-02
-2.459166496992111206e-01
-3.638137876987457275e-01
5.704408288002014160e-01
1.166454404592514038e-01
-1.743499189615249634e-01
-5.442238599061965942e-02
6.488288044929504395e-01
-1.057400554418563843e-01
-5.664988234639167786e-02
-9.751047194004058838e-02
-4.575967192649841309e-01
-3.297967836260795593e-02
4.192619323730468750e-01
4.690223038196563721e-01
6.431834101676940918e-01
2.151325047016143799e-01
6.679618358612060547e-01
-2.118229269981384277e-01
7.704585790634155273e-02
4.444154202938079834e-01
5.710124596953392029e-02
-2.684957683086395264e-01
-6.902157515287399292e-02
-2.990673780441284180e-01
-2.157916575670242310e-01
1.797138303518295288e-01
3.649319708347320557e-01
-3.137446939945220947e-02
-1.714104115962982178e-01
3.942267596721649170e-01
-1.032476663589477539e+00
-2.463315278291702271e-01
-9.704522788524627686e-02
6.741520017385482788e-02
4.428340867161750793e-02
-3.974822461605072021e-01
4.124342203140258789e-01
-1.161866188049316406e+00
8.343078941106796265e-02
6.898377090692520142e-02
3.282425105571746826e-01
6.447935849428176880e-02
3.392969667911529541e-01
4.702408611774444580e-01
3.427804410457611084e-01
2.488730251789093018e-01
-2.853098809719085693e-01
-7.176360487937927246e-02
9.276606142520904541e-02
-2.326409704983234406e-02
2.895690798759460449e-01
6.677807569503784180e-01
3.315266370773315430e-01
-9.481044113636016846e-02
2.373272739350795746e-02
-3.412567377090454102e-01
-3.676423430442810059e-02
3.238169848918914795e-01
-4.584979414939880371e-01
-2.597359567880630493e-02
-2.594170272350311279e-01
-3.085912466049194336e-01
-3.703042268753051758e-01
-6.763169169425964355e-02
1.698969304561614990e-01
3.841143548488616943e-01
-4.085890650749206543e-01
-7.292699813842773438e-02
3.199095726013183594e-01
1.466947048902511597e-01
5.089958310127258301e-01
2.522952258586883545e-01
1.452499777078628540e-01
-4.449124261736869812e-02
9.860194474458694458e-02
5.473282560706138611e-02
1.342790275812149048e-01
1.407998148351907730e-02
-2.840042710304260254e-01
-1.070241332054138184e-01
4.907645583152770996e-01
-3.798477053642272949e-01
6.508737206459045410e-01
-2.384287863969802856e-01
-5.632227659225463867e-01
8.285233378410339355e-01
-1.484222710132598877e-01
5.989461541175842285e-01
2.670752108097076416e-01
2.134581357240676880e-01
1.530500352382659912e-01
4.397670924663543701e-01
9.589891880750656128e-02
1.206706278026103973e-02
-7.138122618198394775e-02
-6.244826316833496094e-01
2.217683494091033936e-01
-6.092328429222106934e-01
-2.855530083179473877e-01
3.844296038150787354e-01
3.223640844225883484e-02
-2.589110843837261200e-02
-5.539492145180702209e-02
2.245239168405532837e-01
9.799879193305969238e-01
-3.801374435424804688e-01
-1.637694984674453735e-01
4.711489379405975342e-02
-1.895360350608825684e-01
1.600575745105743408e-01
-2.680498063564300537e-01
2.521212585270404816e-02
3.384355902671813965e-01
9.850246310234069824e-01
8.105408549308776855e-01
-2.026340663433074951e-01
-4.854514002799987793e-01
-2.229308784008026123e-01
-5.676295161247253418e-01
7.937978506088256836e-01
