1.070353537797927856e-01
-6.488563865423202515e-02
1.710861027240753174e-01
3.084586001932621002e-02
1.921259015798568726e-01
1.512548327445983887e-01
1.101380493491888046e-02
-1.371086686849594116e-01
-3.100407719612121582e-01
1.788085103034973145e-01
-4.480662569403648376e-02
3.614007681608200073e-02
-1.946225017309188843e-02
-6.843322515487670898e-02
4.502445925027132034e-03
-5.026457086205482483e-02
-1.890977919101715088e-01
1.028458587825298309e-02
6.194853410124778748e-02
2.085254192352294922e-01
-2.622291445732116699e-02
-5.024578049778938293e-02
-1.146560162305831909e-01
2.120598405599594116e-01
3.442047834396362305e-01
-2.121083252131938934e-02
-2.011588774621486664e-02
1.168420165777206421e-01
1.658938527107238770e-01
6.998948007822036743e-02
-3.250547870993614197e-02
1.490913778543472290e-01
2.344635725021362305e-01
-1.761225014925003052e-01
-1.943197846412658691e-02
-3.599458560347557068e-02
1.657449603080749512e-01
-4.524804651737213135e-02
-1.356025319546461105e-02
-1.351687014102935791e-01
-3.727945685386657715e-02
-4.200124368071556091e-02
-4.284503683447837830e-02
-2.583365142345428467e-01
9.973097592592239380e-02
1.548732221126556396e-01
-1.381812393665313721e-01
3.538234904408454895e-02
9.011563658714294434e-02
-1.885911822319030762e-02
-2.788870334625244141e-01
1.144490316510200500e-01
4.312375932931900024e-02
-2.079599499702453613e-01
-1.001891046762466431e-01
5.201036483049392700e-02
-1.879281997680664062e-01
5.403633043169975281e-02
9.624449163675308228e-02
7.213319838047027588e-02
6.949884444475173950e-02
-1.024551540613174438e-01
-9.438918530941009521e-02
-2.549218535423278809e-01
-2.096878290176391602e-01
1.606712043285369873e-01
6.413254886865615845e-02
1.016867682337760925e-01
6.535309832543134689e-03
1.092256456613540649e-01
-5.112685635685920715e-02
-3.735613226890563965e-01
-2.679376900196075439e-01
6.133701205253601074e-01
-6.950011104345321655e-02
7.363751530647277832e-02
-4.300784692168235779e-02
-1.853539422154426575e-02
4.215314090251922607e-01
-2.460575699806213379e-01
3.499348163604736328e-01
-8.988951891660690308e-02
-2.103704214096069336e-01
1.759923435747623444e-02
1.263624280691146851e-01
-1.670724302530288696e-01
6.421653181314468384e-02
3.169878944754600525e-02
-7.562085986137390137e-02
-9.791388362646102905e-02
2.007708847522735596e-01
3.565885126590728760e-01
-5.502470955252647400e-02
-1.828310638666152954e-01
4.041679799556732178e-01
-1.807663887739181519e-01
-1.634761244058609009e-01
-2.649157941341400146e-01
6.982231140136718750e-02
-1.198442503809928894e-01
2.171748131513595581e-01
-1.094670444726943970e-01
1.940483450889587402e-01
-1.093090046197175980e-02
4.406672343611717224e-02
-1.742974370718002319e-01
-4.947650805115699768e-02
7.219825685024261475e-02
4.207777604460716248e-02
-2.175400108098983765e-01
-1.723050326108932495e-01
3.653685748577117920e-01
8.002812415361404419e-02
1.674339175224304199e-02
-1.862895935773849487e-01
2.156647481024265289e-02
3.780832588672637939e-01
-5.467676371335983276e-02
1.077634766697883606e-01
1.128299012780189514e-01
-2.782112360000610352e-01
1.366990953683853149e-01
7.115836441516876221e-02
-2.080206573009490967e-01
8.447754383087158203e-02
-4.437012076377868652e-01
4.367227107286453247e-02
1.452688574790954590e-01
