3.826178237795829773e-02
2.570203132927417755e-02
5.355767905712127686e-03
6.881956756114959717e-02
4.428616538643836975e-02
2.516062930226325989e-02
3.546302020549774170e-02
5.864691361784934998e-02
1.298106927424669266e-02
1.796633820049464703e-03
-3.528123348951339722e-02
5.568818002939224243e-02
8.088581962510943413e-04
5.683707538992166519e-03
8.784406818449497223e-03
-2.024342305958271027e-02
-2.728812210261821747e-02
-7.462572306394577026e-02
-4.841778054833412170e-02
8.480063639581203461e-03
-2.515403553843498230e-02
2.276499010622501373e-02
1.263743732124567032e-02
-4.627951979637145996e-02
-5.075966194272041321e-02
-2.458877675235271454e-02
1.643345877528190613e-02
1.131849363446235657e-02
-4.340637847781181335e-02
-5.136206373572349548e-02
2.390463836491107941e-02
7.024141401052474976e-02
3.543608263134956360e-02
5.666202306747436523e-02
8.679967373609542847e-03
5.279183387756347656e-02
-8.542523533105850220e-02
1.262837438844144344e-03
-4.609815031290054321e-02
-1.174399815499782562e-02
-3.406336996704339981e-03
-3.193615004420280457e-02
7.243040949106216431e-03
-1.049098744988441467e-02
-1.199222751893103123e-03
1.101343613117933273e-02
-3.574575483798980713e-02
-5.860991775989532471e-02
6.657083053141832352e-03
2.493033558130264282e-02
3.485808521509170532e-02
-2.418737486004829407e-02
-2.717855758965015411e-02
2.105156518518924713e-02
-9.200880303978919983e-03
-1.454664859920740128e-02
-6.222123652696609497e-02
5.505244433879852295e-02
2.888093888759613037e-02
4.196092858910560608e-02
4.080284759402275085e-02
1.195410080254077911e-02
6.612683832645416260e-02
3.761725872755050659e-02
-1.508730091154575348e-02
2.235684916377067566e-02
-2.580437250435352325e-02
-1.694660075008869171e-02
-1.114429067820310593e-02
-8.702284656465053558e-03
3.328545019030570984e-02
-4.027941077947616577e-02
2.963098138570785522e-02
-6.258697807788848877e-02
7.669159770011901855e-02
-1.707804761826992035e-02
-3.306745318695902824e-03
3.146495297551155090e-02
6.254826486110687256e-02
3.656116500496864319e-02
-4.384584352374076843e-02
4.383037611842155457e-02
-7.479333132505416870e-02
-1.250392850488424301e-02
-1.576816197484731674e-03
5.625648424029350281e-03
-1.792831718921661377e-02
-7.804384827613830566e-02
-4.475137218832969666e-02
5.141200497746467590e-03
-1.204292196780443192e-02
4.305891692638397217e-02
2.364951372146606445e-02
-3.634953498840332031e-02
2.284809388220310211e-02
1.444651465862989426e-02
7.109095901250839233e-02
-4.115121439099311829e-02
4.331241548061370850e-02
-3.819987922906875610e-02
-2.546260692179203033e-02
4.610175639390945435e-02
-2.278287895023822784e-02
2.260060235857963562e-02
4.533561691641807556e-02
2.372974343597888947e-02
2.144658751785755157e-02
-1.447822619229555130e-02
-2.342855371534824371e-02
1.097356551326811314e-03
-5.977219436317682266e-03
-2.371035516262054443e-02
3.108509816229343414e-02
5.335682630538940430e-02
2.358410134911537170e-02
3.649512678384780884e-02
-6.324193440377712250e-03
2.925942838191986084e-02
1.430125162005424500e-02
-1.131309662014245987e-02
7.273112889379262924e-03
3.480897471308708191e-02
2.947575971484184265e-02
1.320691220462322235e-02
8.785290271043777466e-02
-3.648290410637855530e-02
1.397361792623996735e-02
2.155400998890399933e-02
