0.01221105363219976425170898438
-0.05087130889296531677246093750
-0.04961370304226875305175781250
-0.14847439527511596679687500000
0.01380985230207443237304687500
-0.04673505574464797973632812500
-0.07363982498645782470703125000
0.09867539256811141967773437500
-0.13095954060554504394531250000
0.00731501635164022445678710938
-0.00991662871092557907104492188
0.08045753836631774902343750000
0.03380426019430160522460937500
-0.02436438202857971191406250000
0.01027350872755050659179687500
0.04042033106088638305664062500
-0.04797776415944099426269531250
0.04871323332190513610839843750
-0.06971024721860885620117187500
-0.02995260059833526611328125000
0.05286270007491111755371093750
0.00487617636099457740783691406
-0.06754455715417861938476562500
-0.05390357971191406250000000000
0.00118001550436019897460937500
0.07964875549077987670898437500
0.02310214936733245849609375000
-0.00751160876825451850891113281
-0.00109657237771898508071899414
-0.01054608728736639022827148438
-0.04168482869863510131835937500
0.04923332855105400085449218750
-0.00965831335633993148803710938
-0.03738071769475936889648437500
-0.00777725176885724067687988281
0.03599783778190612792968750000
-0.02688804641366004943847656250
-0.01651001907885074615478515625
0.04431309178471565246582031250
0.05994788184762001037597656250
0.00723892915993928909301757812
0.05818538367748260498046875000
-0.06252250075340270996093750000
-0.01910142414271831512451171875
0.04379096627235412597656250000
-0.02661601267755031585693359375
-0.09378168731927871704101562500
-0.02709518186748027801513671875
-0.00722393626347184181213378906
-0.04479897767305374145507812500
-0.00885495170950889587402343750
-0.02413015812635421752929687500
0.07423185557126998901367187500
-0.03085783682763576507568359375
-0.03067698329687118530273437500
-0.04975439980626106262207031250
-0.04885708913207054138183593750
0.04158012568950653076171875000
-0.05320462211966514587402343750
-0.03647769242525100708007812500
-0.06828811764717102050781250000
-0.03514283522963523864746093750
0.05620926246047019958496093750
0.03432492539286613464355468750
-0.05805186554789543151855468750
0.09610903263092041015625000000
-0.07141192257404327392578125000
-0.02469341270625591278076171875
0.05572105944156646728515625000
0.01936862245202064514160156250
-0.02672539837658405303955078125
-0.04782709851861000061035156250
-0.05190606415271759033203125000
-0.02112227678298950195312500000
0.04822664335370063781738281250
0.04569939523935317993164062500
0.07220871746540069580078125000
0.06708051264286041259765625000
-0.00323825865052640438079833984
-0.00036584708141162991523742676
-0.01379226800054311752319335938
-0.00150454125832766294479370117
0.00810989085584878921508789062
-0.04705795273184776306152343750
0.04603399708867073059082031250
-0.00559075037017464637756347656
0.01286537200212478637695312500
0.02409466356039047241210937500
-0.07742662727832794189453125000
-0.05627319589257240295410156250
0.01905246265232563018798828125
-0.02717542275786399841308593750
0.01330878864973783493041992188
-0.06046478077769279479980468750
-0.00446258718147873878479003906
0.01570921577513217926025390625
0.05034778639674186706542968750
-0.00822758395224809646606445312
0.01054853480309247970581054688
0.00030708775739185512065887451
-0.07861953228712081909179687500
-0.07897219806909561157226562500
0.01398137677460908889770507812
0.02006251737475395202636718750
-0.02930393815040588378906250000
-0.02611137181520462036132812500
0.04420728981494903564453125000
0.01209030579775571823120117188
0.00649149157106876373291015625
0.02436166442930698394775390625
-0.02134855836629867553710937500
0.03728575259447097778320312500
0.11747574806213378906250000000
-0.03268919885158538818359375000
-0.02808880805969238281250000000
-0.06380306184291839599609375000
-0.06870799511671066284179687500
-0.01123092044144868850708007812
0.09299040585756301879882812500
-0.07329323142766952514648437500
-0.06987043470144271850585937500
0.02170040085911750793457031250
0.05338490754365921020507812500
-0.05195666477084159851074218750
-0.05098403245210647583007812500
0.01466088462620973587036132812
0.01812109723687171936035156250
-0.05123373866081237792968750000
-0.01418616063892841339111328125
-0.04976355284452438354492187500
-0.06668261438608169555664062500
-0.04250872507691383361816406250
0.03775221854448318481445312500
-0.00402630493044853210449218750
-0.00027417764067649841308593750
0.03941850364208221435546875000
-0.00354802282527089118957519531
0.07609651982784271240234375000
-0.03740777447819709777832031250
-0.00167635350953787565231323242
-0.05916340649127960205078125000
0.07782421261072158813476562500
0.05460264533758163452148437500
-0.01886397227644920349121093750
0.00648602098226547241210937500
0.10660515725612640380859375000
-0.05268093571066856384277343750
-0.14050176739692687988281250000
-0.00551579054445028305053710938
-0.06050708144903182983398437500
0.01201689057052135467529296875
-0.03077517636120319366455078125
-0.01550741493701934814453125000
-0.02090818062424659729003906250
-0.02049702219665050506591796875
-0.13682773709297180175781250000
-0.00512532424181699752807617188
0.01858282834291458129882812500
-0.05976364016532897949218750000
-0.01216528657823801040649414062
0.05105331540107727050781250000
0.05962312594056129455566406250
-0.00453109433874487876892089844
-0.03393663465976715087890625000
-0.07072668522596359252929687500
0.04197140783071517944335937500
0.08061113953590393066406250000
-0.04570490121841430664062500000
0.02220011502504348754882812500
0.09231518208980560302734375000
-0.10540779680013656616210937500
-0.00500732893124222755432128906
0.01666822656989097595214843750
-0.09958563745021820068359375000
-0.12897911667823791503906250000
-0.05991451814770698547363281250
-0.05084327980875968933105468750
0.03506234288215637207031250000
0.01964256726205348968505859375
0.02427596785128116607666015625
0.09302365034818649291992187500
0.00389146781526505947113037109
-0.00625819154083728790283203125
0.01347663998603820800781250000
0.00145258149132132530212402344
0.08271969109773635864257812500
-0.03556268289685249328613281250
-0.10367496311664581298828125000
-0.06267976760864257812500000000
0.07595505565404891967773437500
-0.02986401878297328948974609375
0.01710912585258483886718750000
0.13651786744594573974609375000
0.01275930926203727722167968750
0.07184780389070510864257812500
0.08079870045185089111328125000
0.00278119416907429695129394531
0.12018600106239318847656250000
-0.02374147437512874603271484375
-0.00752122839912772178649902344
0.00830014701932668685913085938
0.10207340866327285766601562500
0.00438266852870583534240722656
-0.02834304608404636383056640625
0.05925686284899711608886718750
-0.03095395117998123168945312500
0.01721170358359813690185546875
0.02348543144762516021728515625
0.01982717216014862060546875000
-0.02454883605241775512695312500
-0.04589151218533515930175781250
-0.07943301647901535034179687500
0.07717736810445785522460937500
-0.02086256071925163269042968750
-0.12306686490774154663085937500
-0.01088388729840517044067382812
0.02925740741193294525146484375
0.04497319087386131286621093750
0.00691237160935997962951660156
0.01468523219227790832519531250
0.11686263233423233032226562500
-0.11598998308181762695312500000
-0.01256982237100601196289062500
0.01658544316887855529785156250
-0.00755730923265218734741210938
-0.10706525295972824096679687500
0.16298717260360717773437500000
-0.02676896937191486358642578125
-0.05747530981898307800292968750
-0.08338137716054916381835937500
-0.03509451448917388916015625000
0.00514346221461892127990722656
-0.07662326097488403320312500000
0.01293198391795158386230468750
0.06373830139636993408203125000
0.01595363579690456390380859375
-0.05016795918345451354980468750
-0.00013144992408342659473419189
0.01001437753438949584960937500
0.06431974470615386962890625000
-0.02864948287606239318847656250
0.01517629530280828475952148438
-0.04841417074203491210937500000
0.14064764976501464843750000000
0.02237900532782077789306640625
0.03287220373749732971191406250
-0.01705881766974925994873046875
-0.00498287426307797431945800781
0.04581742733716964721679687500
-0.03414024785161018371582031250
0.06284877657890319824218750000
-0.00061660673236474394798278809
0.01585968211293220520019531250
0.12688659131526947021484375000
0.05217678099870681762695312500
-0.07760024070739746093750000000
-0.00329481018707156181335449219
-0.02515087090432643890380859375
0.00463280268013477325439453125
0.11233858019113540649414062500
-0.00375172146596014499664306641
-0.02942008897662162780761718750
-0.02947869896888732910156250000
0.05077787116169929504394531250
-0.04227361828088760375976562500
0.07751997560262680053710937500
0.00556373829022049903869628906
0.05076873302459716796875000000
0.02479619905352592468261718750
0.04343179613351821899414062500
0.00956609100103378295898437500
0.01752482913434505462646484375
0.12330928444862365722656250000
-0.04869089648127555847167968750
-0.05212792754173278808593750000
-0.00366116454824805259704589844
0.02665592357516288757324218750
0.01762094348669052124023437500
-0.02071441709995269775390625000
-0.01029745023697614669799804688
-0.03887978568673133850097656250
-0.01549064181745052337646484375
0.03502636775374412536621093750
-0.02828852273523807525634765625
-0.00494947470724582672119140625
0.00175965880043804645538330078
0.00624001864343881607055664062
0.03370732814073562622070312500
-0.00103472813498228788375854492
-0.05398097261786460876464843750
-0.02803618460893630981445312500
-0.01810182817280292510986328125
-0.01795988343656063079833984375
0.01972693577408790588378906250
-0.04501907527446746826171875000
-0.00416738120838999748229980469
0.11674538999795913696289062500
-0.00625238753855228424072265625
-0.03184488043189048767089843750
0.08186223357915878295898437500
0.12236335128545761108398437500
0.02102446742355823516845703125
-0.03239694610238075256347656250
-0.01978101581335067749023437500
0.00764484563842415809631347656
-0.03143439069390296936035156250
-0.03029397130012512207031250000
-0.06623568385839462280273437500
0.00915263313800096511840820312
-0.00766547862440347671508789062
0.03360897302627563476562500000
-0.03313303366303443908691406250
0.00929402839392423629760742188
-0.04043056815862655639648437500
-0.00717399362474679946899414062
-0.00928237382322549819946289062
-0.00094319775234907865524291992
0.05405754968523979187011718750
0.01466413214802742004394531250
0.03953954204916954040527343750
-0.02044533006846904754638671875
0.03867070749402046203613281250
0.01459753047674894332885742188
0.01524776220321655273437500000
0.02306256256997585296630859375
-0.01532313693314790725708007812
0.00357192289084196090698242188
0.03099231049418449401855468750
0.10613318532705307006835937500
0.03468038886785507202148437500
0.01568978279829025268554687500
-0.07839858531951904296875000000
-0.00706885615363717079162597656
-0.05348292365670204162597656250
-0.00923810526728630065917968750
-0.01607000641524791717529296875
0.02021107450127601623535156250
-0.03289711102843284606933593750
0.00850876513868570327758789062
-0.00218168064020574092864990234
-0.02880064956843852996826171875
0.09427261352539062500000000000
-0.04273959621787071228027343750
-0.01668018475174903869628906250
-0.03672631084918975830078125000
0.00347544904798269271850585938
0.00222739600576460361480712891
0.07796806097030639648437500000
0.06883123517036437988281250000
-0.04622243717312812805175781250
-0.05123299732804298400878906250
0.02338677644729614257812500000
-0.01787339337170124053955078125
-0.00841719377785921096801757812
0.01331591047346591949462890625
-0.00193565431982278823852539062
-0.05451812595129013061523437500
0.07107839733362197875976562500
-0.01925033703446388244628906250
0.00645457301288843154907226562
-0.03027980588376522064208984375
0.04937961697578430175781250000
-0.02105659432709217071533203125
-0.01829187944531440734863281250
0.01520476210862398147583007812
-0.00581025145947933197021484375
0.04466350749135017395019531250
0.02784326300024986267089843750
0.06086726859211921691894531250
0.05352104455232620239257812500
0.01687872223556041717529296875
0.01388026494532823562622070312
0.01307890843600034713745117188
-0.00066283316118642687797546387
0.05655444785952568054199218750
0.00911383144557476043701171875
0.03101580217480659484863281250
0.05856206640601158142089843750
-0.02651607990264892578125000000
0.00505858054384589195251464844
-0.01079632341861724853515625000
-0.00911581609398126602172851562
0.02864885143935680389404296875
0.04391418397426605224609375000
-0.03091371059417724609375000000
-0.00294396118260920047760009766
0.03177113085985183715820312500
0.03259919956326484680175781250
-0.01268977764993906021118164062
0.05279532074928283691406250000
0.04204670712351799011230468750
0.03588089346885681152343750000
-0.04980163648724555969238281250
-0.11220820993185043334960937500
0.04009261354804039001464843750
0.02945920638740062713623046875
-0.00970156025141477584838867188
-0.07278706878423690795898437500
0.03302863985300064086914062500
-0.02535102516412734985351562500
-0.15220202505588531494140625000
0.04170556366443634033203125000
0.02487991377711296081542968750
-0.00559246120974421501159667969
-0.00475396309047937393188476562
0.03312799707055091857910156250
0.00182339665479958057403564453
-0.05376449599862098693847656250
-0.28894907236099243164062500000
0.00366241461597383022308349609
0.00445796689018607139587402344
-0.01596148498356342315673828125
-0.00215400336310267448425292969
0.09192678332328796386718750000
0.17586451768875122070312500000
0.01474923267960548400878906250
-0.02179361321032047271728515625
-0.46267962455749511718750000000
0.08909727632999420166015625000
0.02346944063901901245117187500
0.03802097216248512268066406250
-0.04294452443718910217285156250
-0.05705146118998527526855468750
0.03051014617085456848144531250
-0.14427454769611358642578125000
-0.03446838632225990295410156250
-0.12303362041711807250976562500
-0.08921173214912414550781250000
-0.20278392732143402099609375000
-0.20145584642887115478515625000
0.01862447522580623626708984375
0.05432822182774543762207031250
0.00862887036055326461791992188
0.02108597569167613983154296875
-0.00245788111351430416107177734
0.05834396556019783020019531250
-0.28222811222076416015625000000
-0.00684178434312343597412109375
-0.00908852275460958480834960938
0.02575518563389778137207031250
0.01528186164796352386474609375
-0.02519093826413154602050781250
-0.00992294866591691970825195312
-0.05953862518072128295898437500
0.12193600088357925415039062500
-0.08814335614442825317382812500
0.02735227346420288085937500000
-0.55664634704589843750000000000
-0.05202222242951393127441406250
-0.04371985048055648803710937500
0.02435059659183025360107421875
0.00338632566854357719421386719
0.02073976024985313415527343750
-0.01609814353287220001220703125
-0.16447420418262481689453125000
-0.05380509421229362487792968750
-0.04004424810409545898437500000
-0.08507177978754043579101562500
0.18826788663864135742187500000
-0.04092444106936454772949218750
-0.04623456299304962158203125000
-0.04369039833545684814453125000
0.06635118275880813598632812500
0.02733693458139896392822265625
-0.00159350014291703701019287109
-0.07926669716835021972656250000
-0.14746478199958801269531250000
-0.00365731329657137393951416016
0.08961857110261917114257812500
-0.10421470552682876586914062500
-0.00645171059295535087585449219
-0.10651157051324844360351562500
0.35664168000221252441406250000
0.05341059714555740356445312500
-0.02241946943104267120361328125
-0.03103448450565338134765625000
-0.01018302049487829208374023438
0.07615130394697189331054687500
-0.03749057278037071228027343750
-0.01330106519162654876708984375
0.03355453908443450927734375000
0.03966276347637176513671875000
0.01864271052181720733642578125
-0.09836013615131378173828125000
0.08412227779626846313476562500
-0.03697921708226203918457031250
0.30539318919181823730468750000
0.04028709605336189270019531250
0.01038885302841663360595703125
-0.04000638797879219055175781250
0.02988692186772823333740234375
0.00971521716564893722534179688
0.00131789210718125104904174805
0.01214423682540655136108398438
-0.22666183114051818847656250000
-0.04547645151615142822265625000
0.04087737947702407836914062500
0.07810311019420623779296875000
0.08686139434576034545898437500
0.04570216685533523559570312500
-0.00583907775580883026123046875
0.01835761405527591705322265625
-0.14111191034317016601562500000
-0.08890411257743835449218750000
-0.05799543485045433044433593750
0.09913120418787002563476562500
0.09565008431673049926757812500
-0.02341834641993045806884765625
-0.04137304797768592834472656250
0.13070759177207946777343750000
0.03989470750093460083007812500
0.04156323522329330444335937500
0.03207083418965339660644531250
0.09046646952629089355468750000
0.01164802722632884979248046875
-0.13662080466747283935546875000
0.14712195098400115966796875000
-0.08670327812433242797851562500
-0.00265395571477711200714111328
-0.03913399204611778259277343750
0.01179336663335561752319335938
0.01453046500682830810546875000
-0.07742094248533248901367187500
-0.00991482473909854888916015625
0.00674443645402789115905761719
0.10356912761926651000976562500
-0.03677548095583915710449218750
0.16929252445697784423828125000
-0.03426332771778106689453125000
-0.07276441901922225952148437500
-0.01020975038409233093261718750
-0.06657955050468444824218750000
0.05398733168840408325195312500
0.14824710786342620849609375000
-0.04049634933471679687500000000
-0.03049934469163417816162109375
-0.05437781661748886108398437500
-0.04924691468477249145507812500
-0.01679248176515102386474609375
0.00009129000682150945067405701
-0.01134641841053962707519531250
-0.01026333961635828018188476562
0.00571763981133699417114257812
0.02460008114576339721679687500
-0.05531564354896545410156250000
0.12908469140529632568359375000
-0.04421005398035049438476562500
0.01579486019909381866455078125
-0.02974016964435577392578125000
0.06828253716230392456054687500
0.01081657316535711288452148438
0.08576704561710357666015625000
-0.00676136696711182594299316406
0.08635056018829345703125000000
0.02406850084662437438964843750
-0.01930713839828968048095703125
0.10449527949094772338867187500
0.01233250368386507034301757812
0.05964512377977371215820312500
0.01117868442088365554809570312
0.04901921376585960388183593750
-0.08751390129327774047851562500
0.04297067597508430480957031250
-0.05423898249864578247070312500
-0.10130744427442550659179687500
0.02495755068957805633544921875
-0.01742599532008171081542968750
0.06154152005910873413085937500
0.00240805046632885932922363281
0.03090639412403106689453125000
-0.08204782009124755859375000000
0.02029436267912387847900390625
-0.07449345290660858154296875000
-0.15422515571117401123046875000
-0.00975571293383836746215820312
0.03123711235821247100830078125
-0.15776562690734863281250000000
0.00295407697558403015136718750
0.02628081105649471282958984375
0.08589556068181991577148437500
0.01244485564529895782470703125
-0.11549659073352813720703125000
0.02930680848658084869384765625
0.00976702943444252014160156250
0.03974046558141708374023437500
-0.03264385089278221130371093750
-0.07158230990171432495117187500
-0.08968093246221542358398437500
-0.02282930351793766021728515625
0.07265373319387435913085937500
0.02273601479828357696533203125
0.12578491866588592529296875000
0.03296978771686553955078125000
0.04557381197810173034667968750
0.01154819689691066741943359375
0.01500350423157215118408203125
-0.08419620990753173828125000000
0.07846686989068984985351562500
0.00667532812803983688354492188
0.00283153215423226356506347656
-0.07919707894325256347656250000
-0.08130424469709396362304687500
-0.02602313272655010223388671875
-0.08326023817062377929687500000
-0.07222738116979598999023437500
-0.07698307931423187255859375000
-0.02408953569829463958740234375
0.00550481351092457771301269531
-0.05264155939221382141113281250
-0.03553707152605056762695312500
0.01576183922588825225830078125
0.01301388256251811981201171875
-0.00104951323010027408599853516
-0.00895803049206733703613281250
-0.10052762180566787719726562500
0.11679382622241973876953125000
-0.04089746624231338500976562500
-0.01741763949394226074218750000
-0.11928656697273254394531250000
0.04655081778764724731445312500
-0.01658912934362888336181640625
-0.13108201324939727783203125000
-0.00328871514648199081420898438
-0.02021829038858413696289062500
-0.08030209690332412719726562500
-0.03676949813961982727050781250
-0.01034788228571414947509765625
-0.02531864494085311889648437500
-0.04251547530293464660644531250
-0.01734432764351367950439453125
-0.02605597488582134246826171875
0.03317859396338462829589843750
-0.04545409232378005981445312500
-0.02835054881870746612548828125
-0.02868698164820671081542968750
0.06654727458953857421875000000
-0.00257104472257196903228759766
0.00207563559524714946746826172
0.03120558336377143859863281250
-0.03295858204364776611328125000
0.02024432644248008728027343750
0.00181409390643239021301269531
-0.05012065917253494262695312500
-0.00774862803518772125244140625
0.06145894899964332580566406250
0.02775328420102596282958984375
0.03549006208777427673339843750
0.06164657697081565856933593750
0.10019658505916595458984375000
-0.03462358564138412475585937500
-0.06322623789310455322265625000
0.03406092151999473571777343750
-0.07541593164205551147460937500
0.14458504319190979003906250000
0.15396641194820404052734375000
0.08725611120462417602539062500
-0.05003497749567031860351562500
-0.03496675565838813781738281250
0.01726150326430797576904296875
0.04656209424138069152832031250
0.04590540006756782531738281250
0.08832255750894546508789062500
0.00011644637561403214931488037
-0.04755274578928947448730468750
-0.01914732530713081359863281250
-0.00263799191452562808990478516
0.09569884836673736572265625000
-0.12327174097299575805664062500
0.02938120067119598388671875000
0.02291356772184371948242187500
0.03833056613802909851074218750
0.07425151765346527099609375000
-0.03118353895843029022216796875
0.00082528305938467383384704590
0.01694558560848236083984375000
0.03990968689322471618652343750
-0.00769267603754997253417968750
0.20514471828937530517578125000
-0.10057101398706436157226562500
-0.01324033923447132110595703125
-0.00853563752025365829467773438
0.02689301036298274993896484375
-0.03911108523607254028320312500
-0.04715506732463836669921875000
-0.07350796461105346679687500000
0.10682343691587448120117187500
0.02026146836578845977783203125
-0.07432987540960311889648437500
-0.05916372314095497131347656250
0.03335713595151901245117187500
-0.10472213476896286010742187500
0.05776710435748100280761718750
-0.17007312178611755371093750000
-0.07927875220775604248046875000
0.06468719244003295898437500000
-0.04514506086707115173339843750
-0.05533296614885330200195312500
-0.01573444902896881103515625000
-0.01984104700386524200439453125
0.04609980806708335876464843750
-0.03696135804057121276855468750
0.02565921284258365631103515625
0.00825477764010429382324218750
-0.01072939205914735794067382812
0.01544898375868797302246093750
0.03720515966415405273437500000
0.00639335392042994499206542969
-0.01607536897063255310058593750
0.04957553371787071228027343750
-0.07268655300140380859375000000
0.04231633991003036499023437500
-0.02933132648468017578125000000
0.02374818362295627593994140625
-0.05935181304812431335449218750
0.00984078459441661834716796875
-0.01403836347162723541259765625
0.05002356320619583129882812500
0.01751854270696640014648437500
-0.02333789691329002380371093750
0.04659512639045715332031250000
-0.03840284422039985656738281250
-0.11500822007656097412109375000
0.05472488328814506530761718750
-0.00694701634347438812255859375
-0.09424185007810592651367187500
-0.00200753030367195606231689453
0.06635648012161254882812500000
-0.05836177617311477661132812500
0.00328871840611100196838378906
0.03425708040595054626464843750
0.04951149970293045043945312500
-0.04374173283576965332031250000
-0.02032773755490779876708984375
0.04460921138525009155273437500
0.04030594602227210998535156250
-0.03474158421158790588378906250
-0.11805066466331481933593750000
0.04652627184987068176269531250
-0.02311721444129943847656250000
-0.02842641994357109069824218750
-0.04802032932639122009277343750
0.00466231862083077430725097656
-0.01665392518043518066406250000
0.00447421474382281303405761719
0.06645315140485763549804687500
-0.03355141356587409973144531250
-0.06963662803173065185546875000
0.01469763368368148803710937500
0.00230374583043158054351806641
0.07322484254837036132812500000
-0.03596885129809379577636718750
0.01487763505429029464721679688
0.03902820125222206115722656250
-0.00534087140113115310668945312
0.02103867009282112121582031250
0.09969364106655120849609375000
-0.12333725392818450927734375000
0.09675885736942291259765625000
-0.09505087137222290039062500000
-0.03572013601660728454589843750
-0.02715861797332763671875000000
-0.04498858004808425903320312500
0.06906384974718093872070312500
0.06362742930650711059570312500
0.05028990656137466430664062500
0.10344071686267852783203125000
-0.00169592816382646560668945312
-0.05001166835427284240722656250
-0.06284344941377639770507812500
-0.04638672620058059692382812500
-0.03862205147743225097656250000
-0.10097882896661758422851562500
0.15654304623603820800781250000
0.00481429183855652809143066406
0.01741397753357887268066406250
0.07539372891187667846679687500
0.12247110158205032348632812500
-0.04964700713753700256347656250
0.03864317387342453002929687500
-0.04968733340501785278320312500
-0.00553689664229750633239746094
0.03321846947073936462402343750
0.03019106201827526092529296875
0.03475848957896232604980468750
0.02292624488472938537597656250
-0.03843417763710021972656250000
-0.01570458896458148956298828125
0.00082600797759369015693664551
-0.06758216768503189086914062500
-0.01559982541948556900024414062
0.06530111283063888549804687500
-0.03873403370380401611328125000
0.08949331194162368774414062500
0.09384100884199142456054687500
-0.09524032473564147949218750000
0.01028252579271793365478515625
0.11812184005975723266601562500
0.04772160574793815612792968750
0.02717790566384792327880859375
-0.04802854731678962707519531250
0.00009246171975973993539810181
-0.02604961767792701721191406250
-0.01351795997470617294311523438
0.03462412953376770019531250000
0.01229690108448266983032226562
0.09484679996967315673828125000
-0.04156837239861488342285156250
0.03016052208840847015380859375
-0.03517720103263854980468750000
-0.04618716984987258911132812500
-0.05269788205623626708984375000
-0.02621462382376194000244140625
0.03053939342498779296875000000
-0.10389684140682220458984375000
0.01754181459546089172363281250
0.00467215804383158683776855469
0.05382676422595977783203125000
0.00363972899504005908966064453
0.00409772153943777084350585938
-0.00637960666790604591369628906
-0.04530809819698333740234375000
0.04563149064779281616210937500
0.08893597871065139770507812500
0.06351578235626220703125000000
0.03843301534652709960937500000
-0.05044185742735862731933593750
-0.10543052852153778076171875000
-0.01703954115509986877441406250
0.00675239926204085350036621094
-0.11353847384452819824218750000
0.01576726883649826049804687500
-0.05868204310536384582519531250
-0.00702925352379679679870605469
-0.03444265201687812805175781250
-0.05633749440312385559082031250
-0.04000730812549591064453125000
-0.03193661570549011230468750000
-0.06827586144208908081054687500
-0.02736813761293888092041015625
0.02575667761266231536865234375
-0.09020626544952392578125000000
-0.04438059777021408081054687500
-0.03417837247252464294433593750
-0.00162246683612465858459472656
-0.04163634032011032104492187500
-0.00032737242872826755046844482
0.02119298838078975677490234375
0.00273464480414986610412597656
-0.05496143922209739685058593750
0.06128536164760589599609375000
0.02933133579790592193603515625
-0.01743153855204582214355468750
-0.03651653230190277099609375000
-0.02147749252617359161376953125
0.07638005167245864868164062500
-0.05719793215394020080566406250
-0.16628608107566833496093750000
0.00812694616615772247314453125
-0.06111659109592437744140625000
0.01931733451783657073974609375
-0.07931153476238250732421875000
0.09439565986394882202148437500
0.01453850138932466506958007812
0.02926260977983474731445312500
-0.00284355878829956054687500000
0.00927872583270072937011718750
-0.12152224779129028320312500000
-0.06479541212320327758789062500
-0.01812884397804737091064453125
0.03858068212866783142089843750
-0.04547345638275146484375000000
-0.04589835554361343383789062500
0.06894232332706451416015625000
0.01195027586072683334350585938
0.02151364460587501525878906250
-0.00784293841570615768432617188
-0.01969756931066513061523437500
0.01392438635230064392089843750
-0.05967651307582855224609375000
0.08950506150722503662109375000
-0.04816845431923866271972656250
-0.00507309567183256149291992188
0.01242729183286428451538085938
0.03923622518777847290039062500
-0.00179639458656311035156250000
0.08449912071228027343750000000
-0.08610338717699050903320312500
-0.00949343666434288024902343750
0.02594250068068504333496093750
0.01380024570971727371215820312
0.03310403600335121154785156250
0.02218008600175380706787109375
0.03828583285212516784667968750
-0.10498636215925216674804687500
0.08156324923038482666015625000
-0.04500029981136322021484375000
-0.03370359912514686584472656250
-0.06566812098026275634765625000
-0.00632446259260177612304687500
-0.02592677250504493713378906250
-0.02035716548562049865722656250
-0.10666073113679885864257812500
-0.07775409519672393798828125000
0.05108455568552017211914062500
0.03574822470545768737792968750
-0.00344180711545050144195556641
0.01109720207750797271728515625
0.07214391976594924926757812500
0.04383511096239089965820312500
0.03826140984892845153808593750
0.02622578851878643035888671875
0.03847689926624298095703125000
0.01266041118651628494262695312
0.07375434786081314086914062500
-0.07091718912124633789062500000
-0.00582892540842294692993164062
-0.04173815995454788208007812500
0.07578068226575851440429687500
0.00047522265231236815452575684
-0.02385865896940231323242187500
0.01254582777619361877441406250
0.04970689117908477783203125000
0.01065062824636697769165039062
-0.01856988109648227691650390625
0.01709938980638980865478515625
-0.00057439005468040704727172852
0.01163112930953502655029296875
0.04088413342833518981933593750
0.04175319522619247436523437500
0.01858375594019889831542968750
0.05707902833819389343261718750
-0.02593492716550827026367187500
-0.00913974829018115997314453125
0.06823591142892837524414062500
0.07490660995244979858398437500
0.04130158945918083190917968750
-0.03323277458548545837402343750
0.03849909827113151550292968750
0.02417329326272010803222656250
-0.04543710500001907348632812500
-0.01161774620413780212402343750
-0.02383160032331943511962890625
0.00981568638235330581665039062
-0.03481080383062362670898437500
-0.04919030144810676574707031250
-0.02003742195665836334228515625
0.03260600566864013671875000000
0.00551983062177896499633789062
-0.03610842302441596984863281250
-0.03091539442539215087890625000
0.00616257032379508018493652344
-0.04125474393367767333984375000
-0.02400860190391540527343750000
-0.04479311406612396240234375000
0.01522952597588300704956054688
0.00315405847504734992980957031
0.01672380603849887847900390625
0.06815865635871887207031250000
0.01342199277132749557495117188
-0.00871833227574825286865234375
-0.12005814164876937866210937500
-0.07991281151771545410156250000
-0.11318203806877136230468750000
-0.01929895207285881042480468750
0.03304591774940490722656250000
-0.00256561604328453540802001953
0.02881806530058383941650390625
0.01193709578365087509155273438
-0.00633960636332631111145019531
-0.05386516451835632324218750000
0.00637851376086473464965820312
0.10382179915904998779296875000
-0.03384767100214958190917968750
-0.07106138765811920166015625000
-0.05144269019365310668945312500
0.00533390557393431663513183594
-0.04807987064123153686523437500
0.01861627772450447082519531250
0.06158941239118576049804687500
-0.06118049845099449157714843750
0.00446591572836041450500488281
-0.02296978235244750976562500000
-0.00942381657660007476806640625
0.00592739973217248916625976562
0.01875865086913108825683593750
0.00401992676779627799987792969
0.05099802091717720031738281250
-0.03359756991267204284667968750
-0.02605586685240268707275390625
-0.00376544194296002388000488281
0.02120342291891574859619140625
-0.00429948884993791580200195312
-0.04383948072791099548339843750
0.07581274956464767456054687500
-0.01812406629323959350585937500
0.02258150465786457061767578125
-0.04508427530527114868164062500
0.05879741534590721130371093750
0.10474447906017303466796875000
0.14108613133430480957031250000
0.00262720114551484584808349609
0.02898753993213176727294921875
0.00147943757474422454833984375
-0.02638376317918300628662109375
0.08079911768436431884765625000
-0.07685916125774383544921875000
0.02064656466245651245117187500
0.03217991441488265991210937500
-0.05756446719169616699218750000
0.02403918653726577758789062500
-0.04454399272799491882324218750
-0.05901881307363510131835937500
0.02958935499191284179687500000
-0.10828445851802825927734375000
-0.02998271398246288299560546875
0.04235937073826789855957031250
-0.10295363515615463256835937500
-0.06486528366804122924804687500
-0.09263651818037033081054687500
0.01535030081868171691894531250
-0.02804683521389961242675781250
0.10087619721889495849609375000
0.04447400942444801330566406250
-0.05547108128666877746582031250
0.03242376074194908142089843750
0.01622142829000949859619140625
-0.02909968048334121704101562500
0.04325571656227111816406250000
-0.01305859349668025970458984375
0.03759733960032463073730468750
0.08421690016984939575195312500
-0.06124597042798995971679687500
0.01308937557041645050048828125
-0.11147911101579666137695312500
-0.07348761707544326782226562500
-0.01108200661838054656982421875
-0.02699701488018035888671875000
-0.04344672709703445434570312500
-0.00772616919130086898803710938
0.01544468663632869720458984375
-0.12134539335966110229492187500
-0.05541593208909034729003906250
-0.02522873878479003906250000000
-0.02644990012049674987792968750
0.01598597876727581024169921875
0.06219514459371566772460937500
-0.00948474463075399398803710938
0.00704819336533546447753906250
-0.02752060815691947937011718750
-0.11745171993970870971679687500
0.08594418317079544067382812500
0.03095497004687786102294921875
0.02140840515494346618652343750
0.05939052999019622802734375000
0.00964239146560430526733398438
0.01395037397742271423339843750
-0.02058013342320919036865234375
0.04564519599080085754394531250
-0.04984194040298461914062500000
0.05784397572278976440429687500
0.06711178272962570190429687500
-0.01568861678242683410644531250
-0.02563234046101570129394531250
0.02431269548833370208740234375
-0.07330624014139175415039062500
-0.08716434985399246215820312500
0.03256643190979957580566406250
-0.05767547711730003356933593750
0.01759388111531734466552734375
-0.04367013275623321533203125000
0.11110786348581314086914062500
0.02796892635524272918701171875
-0.02349699288606643676757812500
0.02456470206379890441894531250
0.00518822902813553810119628906
0.10857770591974258422851562500
0.03722137957811355590820312500
0.01103345584124326705932617188
0.05045909434556961059570312500
-0.06178759038448333740234375000
-0.00171431165654212236404418945
0.05433478951454162597656250000
0.01126875635236501693725585938
0.06953451037406921386718750000
-0.03356487676501274108886718750
-0.03950491547584533691406250000
0.11370351165533065795898437500
0.03110377304255962371826171875
-0.02087763883173465728759765625
0.07729327678680419921875000000
-0.04507593065500259399414062500
-0.03343785926699638366699218750
0.03133231773972511291503906250
0.01930847577750682830810546875
-0.03495055809617042541503906250
-0.06450480967760086059570312500
-0.05028323829174041748046875000
-0.01422481518238782882690429688
0.04534414038062095642089843750
0.07644458860158920288085937500
0.09772524237632751464843750000
-0.08522792160511016845703125000
0.03474433720111846923828125000
-0.01322243548929691314697265625
0.07161660492420196533203125000
-0.03140109777450561523437500000
-0.03350846469402313232421875000
-0.03168696910142898559570312500
-0.02064217254519462585449218750
-0.03573925793170928955078125000
-0.04561129584908485412597656250
-0.01113242562860250473022460938
0.06408679485321044921875000000
0.05136654525995254516601562500
0.01351881958544254302978515625
0.03221893310546875000000000000
0.01504598930478096008300781250
0.13532733917236328125000000000
-0.07088907808065414428710937500
-0.10433904081583023071289062500
0.02225300483405590057373046875
0.02934506163001060485839843750
0.00759312836453318595886230469
0.09986194968223571777343750000
-0.01748912595212459564208984375
-0.09030513465404510498046875000
-0.00105742528103291988372802734
0.02217213250696659088134765625
0.07167872041463851928710937500
-0.02592584490776062011718750000
-0.04384595155715942382812500000
0.04739185422658920288085937500
-0.02080244384706020355224609375
-0.15693353116512298583984375000
-0.04281007125973701477050781250
-0.01552177220582962036132812500
-0.00845395866781473159790039062
-0.07648540288209915161132812500
-0.04544254764914512634277343750
-0.08720932900905609130859375000
-0.00816911645233631134033203125
-0.02139992266893386840820312500
0.08650536090135574340820312500
-0.05436877906322479248046875000
-0.03119575791060924530029296875
-0.00023590833006892353296279907
0.02083263546228408813476562500
0.04728605598211288452148437500
0.04751748591661453247070312500
0.04278172552585601806640625000
-0.02019005082547664642333984375
0.09339283406734466552734375000
-0.04763621091842651367187500000
0.05054479092359542846679687500
0.02335872501134872436523437500
0.06370686739683151245117187500
-0.01082003675401210784912109375
0.05723647773265838623046875000
-0.02892880514264106750488281250
0.02002899348735809326171875000
-0.06248491629958152770996093750
0.04557806625962257385253906250
-0.02960388176143169403076171875
0.07510963082313537597656250000
0.06276879459619522094726562500
-0.01077205128967761993408203125
-0.03129017353057861328125000000
-0.00051126757171005010604858398
0.04413878172636032104492187500
-0.05262109637260437011718750000
-0.12585899233818054199218750000
0.01484893634915351867675781250
-0.07203458994626998901367187500
-0.02128127217292785644531250000
0.03727015107870101928710937500
0.01254118420183658599853515625
-0.01990364305675029754638671875
-0.03410987555980682373046875000
0.00229602237232029438018798828
-0.01914661191403865814208984375
-0.00357105745933949947357177734
-0.06744988262653350830078125000
-0.05131767317652702331542968750
0.01798491925001144409179687500
0.07981937378644943237304687500
-0.01110369339585304260253906250
-0.03085627965629100799560546875
-0.05195468291640281677246093750
-0.03704255074262619018554687500
-0.02677204459905624389648437500
-0.05708552151918411254882812500
-0.01760653220117092132568359375
0.07763803005218505859375000000
0.02863345108926296234130859375
0.05783754587173461914062500000
0.03524363040924072265625000000
0.00889673735946416854858398438
0.03224640712141990661621093750
0.04730828478932380676269531250
0.02784039080142974853515625000
-0.01800948008894920349121093750
-0.05424810200929641723632812500
-0.01908189989626407623291015625
-0.03882938623428344726562500000
-0.01292528118938207626342773438
-0.05249486491084098815917968750
-0.03696691617369651794433593750
-0.04419225081801414489746093750
-0.02366480976343154907226562500
-0.02246937155723571777343750000
0.02517027407884597778320312500
0.06581120193004608154296875000
0.02663971856236457824707031250
0.01408480666577816009521484375
0.02673821710050106048583984375
-0.01673839241266250610351562500
-0.08181065320968627929687500000
0.01123632024973630905151367188
-0.01116209570318460464477539062
0.01143394317477941513061523438
0.01641208678483963012695312500
-0.06204549968242645263671875000
0.01525882352143526077270507812
0.02814195677638053894042968750
0.00418232893571257591247558594
-0.04046877473592758178710937500
0.03513766825199127197265625000
-0.02799025550484657287597656250
0.04423672705888748168945312500
0.09399999678134918212890625000
-0.01969183795154094696044921875
0.02389898337423801422119140625
0.05411359295248985290527343750
-0.01129590347409248352050781250
0.02369014546275138854980468750
0.01330124214291572570800781250
0.02744725160300731658935546875
0.00508502684533596038818359375
0.03319995850324630737304687500
0.04369199275970458984375000000
-0.00218383246101438999176025391
-0.05282498151063919067382812500
0.03491896390914916992187500000
0.05979466810822486877441406250
0.01445257011801004409790039062
-0.05999516323208808898925781250
-0.09666624665260314941406250000
-0.01096620690077543258666992188
-0.03735347092151641845703125000
0.00988152716308832168579101562
-0.02481649070978164672851562500
0.07381767779588699340820312500
0.00565272429957985877990722656
-0.01022050902247428894042968750
0.03929578512907028198242187500
0.02924862504005432128906250000
-0.02549063414335250854492187500
0.03193753957748413085937500000
0.02548551559448242187500000000
0.02833153679966926574707031250
-0.04389476403594017028808593750
0.02654018811881542205810546875
0.02283294126391410827636718750
-0.02446410991251468658447265625
0.04759966954588890075683593750
0.06446028500795364379882812500
0.08233900368213653564453125000
0.04504348337650299072265625000
-0.06182694435119628906250000000
-0.07150263339281082153320312500
0.00672447960823774337768554688
0.07195859402418136596679687500
0.00902239512652158737182617188
0.04756123572587966918945312500
0.00367330829612910747528076172
-0.02527309395372867584228515625
-0.02950715087354183197021484375
0.08281090110540390014648437500
-0.02980156242847442626953125000
-0.04331242293119430541992187500
-0.06050038337707519531250000000
-0.03979860618710517883300781250
-0.02441394329071044921875000000
-0.00341897853650152683258056641
-0.02348330244421958923339843750
0.01295645721256732940673828125
-0.09634705632925033569335937500
-0.05132621154189109802246093750
-0.12074004858732223510742187500
0.14234136044979095458984375000
0.05712727829813957214355468750
0.05988384783267974853515625000
0.02732591889798641204833984375
-0.02218580245971679687500000000
-0.03768082335591316223144531250
-0.06389401853084564208984375000
0.07700873911380767822265625000
0.07588646560907363891601562500
0.02976456098258495330810546875
0.02907245792448520660400390625
-0.03562791272997856140136718750
0.00805453862994909286499023438
0.06881953030824661254882812500
-0.04862740263342857360839843750
-0.05055684596300125122070312500
0.06939142942428588867187500000
-0.04182578995823860168457031250
-0.00386699428781867027282714844
0.05766683071851730346679687500
-0.09385572373867034912109375000
0.14512543380260467529296875000
0.03415435925126075744628906250
0.01547116041183471679687500000
0.00697843125090003013610839844
0.00557868229225277900695800781
0.04169869422912597656250000000
-0.09318616241216659545898437500
0.00946690142154693603515625000
0.03428719565272331237792968750
0.00160846568178385496139526367
0.03779168054461479187011718750
0.11838882416486740112304687500
0.00991390179842710494995117188
0.04786320030689239501953125000
0.07542633265256881713867187500
0.05932885408401489257812500000
0.08520369976758956909179687500
-0.02669151872396469116210937500
-0.02341227419674396514892578125
0.12171008437871932983398437500
0.01864121109247207641601562500
0.01496805343776941299438476562
-0.05021592602133750915527343750
0.03319356217980384826660156250
0.01589803025126457214355468750
-0.08624722063541412353515625000
-0.04130673408508300781250000000
-0.03667739406228065490722656250
0.00568336341530084609985351562
0.02791743911802768707275390625
0.07695967704057693481445312500
-0.02019330672919750213623046875
0.02078736387193202972412109375
-0.02030655182898044586181640625
-0.03841002285480499267578125000
0.07274116575717926025390625000
0.03231824934482574462890625000
0.00593624496832489967346191406
0.04052665829658508300781250000
-0.06957852840423583984375000000
0.00453617610037326812744140625
-0.03570639714598655700683593750
-0.04463014006614685058593750000
-0.07812748104333877563476562500
0.10278621315956115722656250000
0.00190539110917598009109497070
0.03420392051339149475097656250
-0.10125147551298141479492187500
0.00890072807669639587402343750
-0.01833224669098854064941406250
-0.04061445593833923339843750000
0.04178667813539505004882812500
0.04574861004948616027832031250
0.05266254395246505737304687500
-0.07616423070430755615234375000
-0.04577707126736640930175781250
0.02914224378764629364013671875
0.00316610699519515037536621094
-0.06716120988130569458007812500
-0.08965626358985900878906250000
-0.02205682545900344848632812500
0.02519879676401615142822265625
-0.04122982174158096313476562500
-0.16750720143318176269531250000
-0.04501583054661750793457031250
0.04466670751571655273437500000
-0.01438061799854040145874023438
0.10792583227157592773437500000
-0.03735239431262016296386718750
0.01692786440253257751464843750
-0.02829039841890335083007812500
0.03043924644589424133300781250
-0.01761973462998867034912109375
0.05320404469966888427734375000
-0.07743431627750396728515625000
-0.04643785208463668823242187500
-0.06184298172593116760253906250
-0.05082157999277114868164062500
0.07430071383714675903320312500
0.08677635341882705688476562500
-0.08178593963384628295898437500
0.05858650058507919311523437500
0.03298646211624145507812500000
0.01370031386613845825195312500
0.04416850209236145019531250000
0.02909300103783607482910156250
-0.11103703081607818603515625000
0.10040652751922607421875000000
0.13507293164730072021484375000
-0.07680485397577285766601562500
0.06915661692619323730468750000
0.01571203209459781646728515625
-0.00202993350103497505187988281
-0.03066528029739856719970703125
-0.00551700778305530548095703125
0.00143704225774854421615600586
0.09547665715217590332031250000
-0.02002005092799663543701171875
-0.00454709539189934730529785156
0.02238534018397331237792968750
-0.00098547781817615032196044922
-0.13256154954433441162109375000
0.07829093188047409057617187500
0.04300932213664054870605468750
0.07676333189010620117187500000
-0.08320061862468719482421875000
0.03055130504071712493896484375
0.10001610219478607177734375000
0.04533670470118522644042968750
-0.05358983203768730163574218750
-0.09367168694734573364257812500
-0.08126024901866912841796875000
0.00030403240816667675971984863
-0.07981766760349273681640625000
0.00108142103999853134155273438
0.10009516775608062744140625000
-0.05550505965948104858398437500
-0.05218916013836860656738281250
-0.06065679714083671569824218750
0.01188420318067073822021484375
0.02146204933524131774902343750
-0.01707092300057411193847656250
0.02863133512437343597412109375
0.06265312433242797851562500000
0.04135769233107566833496093750
0.01481997687369585037231445312
0.02990086190402507781982421875
0.04002192243933677673339843750
-0.00536979129537940025329589844
-0.02863697521388530731201171875
0.00065321265719830989837646484
-0.15092216432094573974609375000
0.01571692898869514465332031250
0.02026595175266265869140625000
-0.10397513955831527709960937500
0.10875683277845382690429687500
0.00242413557134568691253662109
-0.06596923619508743286132812500
-0.06328879296779632568359375000
0.21077291667461395263671875000
-0.06624799966812133789062500000
-0.07221727818250656127929687500
-0.05459850281476974487304687500
-0.08714036643505096435546875000
-0.09457587450742721557617187500
-0.00386971235275268554687500000
-0.00532394973561167716979980469
-0.02327409014105796813964843750
0.06295740604400634765625000000
-0.02028788998723030090332031250
0.08080944418907165527343750000
-0.01963177882134914398193359375
-0.01254694350063800811767578125
0.00152156746480613946914672852
0.00590109825134277343750000000
-0.04120422154664993286132812500
0.06994750350713729858398437500
-0.06304883211851119995117187500
-0.04337095469236373901367187500
-0.08149036020040512084960937500
-0.03296276554465293884277343750
-0.02454073540866374969482421875
-0.00140584108885377645492553711
-0.04147410020232200622558593750
-0.13090230524539947509765625000
0.00169724156148731708526611328
-0.01400675810873508453369140625
0.12518455088138580322265625000
0.03310115635395050048828125000
-0.01391224376857280731201171875
-0.01619372330605983734130859375
-0.02374747581779956817626953125
0.02561133354902267456054687500
-0.04641429334878921508789062500
-0.03337449580430984497070312500
-0.01451628282666206359863281250
-0.01346327923238277435302734375
-0.03800181299448013305664062500
-0.01704420335590839385986328125
-0.01040703617036342620849609375
-0.02355557680130004882812500000
-0.02493164129555225372314453125
-0.01292061898857355117797851562
-0.02094722725450992584228515625
-0.09583909809589385986328125000
-0.03352532535791397094726562500
-0.17456193268299102783203125000
0.09351457655429840087890625000
0.00282313278876245021820068359
0.01670812629163265228271484375
0.15012240409851074218750000000
-0.23934257030487060546875000000
-0.07892295718193054199218750000
0.01377743203192949295043945312
-0.00656749401241540908813476562
-0.04760071262717247009277343750
0.06204139813780784606933593750
0.04217456653714179992675781250
-0.02370188757777214050292968750
-0.06667514890432357788085937500
-0.02620777115225791931152343750
-0.00995714589953422546386718750
-0.16803315281867980957031250000
-0.02656518109142780303955078125
-0.02307112328708171844482421875
0.00000286851286546152550727129
-0.02973398379981517791748046875
0.08538069576025009155273437500
0.03251150250434875488281250000
-0.02673785015940666198730468750
-0.05794316902756690979003906250
0.05030436441302299499511718750
0.01440178975462913513183593750
-0.09303358197212219238281250000
0.03668881952762603759765625000
0.00894144549965858459472656250
0.10441809147596359252929687500
0.11126113682985305786132812500
0.05041482672095298767089843750
-0.00681409239768981933593750000
-0.02344114147126674652099609375
-0.01300625130534172058105468750
0.04366060718894004821777343750
0.03966603800654411315917968750
-0.04268150404095649719238281250
0.02966622635722160339355468750
-0.02851718105375766754150390625
-0.00670866295695304870605468750
0.02294574677944183349609375000
0.00009723562834551557898521423
-0.03532875329256057739257812500
0.04613495990633964538574218750
0.06801928579807281494140625000
0.12464808672666549682617187500
-0.00061130727408453822135925293
0.05737628042697906494140625000
0.00515708187595009803771972656
0.00734281027689576148986816406
-0.14843353629112243652343750000
0.04951456934213638305664062500
0.00859456136822700500488281250
0.05045228078961372375488281250
0.02291526086628437042236328125
0.03948248922824859619140625000
0.07196905463933944702148437500
-0.08027809858322143554687500000
0.03342338278889656066894531250
-0.12415944039821624755859375000
0.05475322902202606201171875000
-0.06691103428602218627929687500
-0.01811199449002742767333984375
0.07366494834423065185546875000
-0.03263211622834205627441406250
-0.03617291897535324096679687500
0.07459234446287155151367187500
0.02871667966246604919433593750
-0.17381778359413146972656250000
0.09614992141723632812500000000
-0.08573425561189651489257812500
0.02928829379379749298095703125
0.06441273540258407592773437500
0.03943870589137077331542968750
-0.05064619705080986022949218750
0.01233297958970069885253906250
-0.00897542014718055725097656250
-0.01495679840445518493652343750
0.05859484896063804626464843750
0.04690492153167724609375000000
0.03438686951994895935058593750
0.04349360987544059753417968750
-0.00743596442043781280517578125
0.11599452793598175048828125000
-0.06197188794612884521484375000
0.04610354453325271606445312500
0.00757346535101532936096191406
-0.00541724078357219696044921875
-0.06859902292490005493164062500
0.00895658321678638458251953125
0.02114810049533843994140625000
0.02105027437210083007812500000
-0.02959074079990386962890625000
-0.05336493626236915588378906250
0.05786436796188354492187500000
0.02982514724135398864746093750
-0.02894595637917518615722656250
0.00483062630519270896911621094
0.06183896586298942565917968750
0.04734610393643379211425781250
-0.00088401930406689643859863281
0.04787303134799003601074218750
0.01876781322062015533447265625
0.00992044527083635330200195312
-0.06810420006513595581054687500
-0.05180075392127037048339843750
0.07249926030635833740234375000
-0.04275727644562721252441406250
0.00496972166001796722412109375
0.03096910193562507629394531250
-0.05112710967659950256347656250
-0.01823684386909008026123046875
-0.06291626393795013427734375000
-0.08347761631011962890625000000
-0.06661811470985412597656250000
-0.02468658052384853363037109375
-0.02992180548608303070068359375
0.04079326614737510681152343750
0.04635488614439964294433593750
0.04169516265392303466796875000
0.12359854578971862792968750000
0.01931981556117534637451171875
0.08873680979013442993164062500
0.02416800521314144134521484375
-0.00144835561513900756835937500
0.03741069138050079345703125000
0.04829170927405357360839843750
0.04633712023496627807617187500
0.03238738700747489929199218750
-0.09723962843418121337890625000
0.11721380800008773803710937500
-0.07132302969694137573242187500
0.06505009531974792480468750000
-0.00505845528095960617065429688
-0.01581160351634025573730468750
-0.06484128534793853759765625000
-0.04663531109690666198730468750
0.04447513446211814880371093750
0.02129365131258964538574218750
-0.00052052683895453810691833496
0.05723190680146217346191406250
0.07137561589479446411132812500
-0.03317513316869735717773437500
-0.01576689817011356353759765625
0.08846936374902725219726562500
0.00496751489117741584777832031
0.01026351749897003173828125000
-0.07158440351486206054687500000
0.06113585829734802246093750000
0.07994072884321212768554687500
0.02304992265999317169189453125
-0.09079229086637496948242187500
-0.12077689915895462036132812500
-0.01312479283660650253295898438
0.00647171260789036750793457031
0.01356301363557577133178710938
-0.11060228198766708374023437500
-0.12214345484972000122070312500
0.01363326143473386764526367188
0.04434012249112129211425781250
0.04760900139808654785156250000
-0.05554598569869995117187500000
-0.04002087563276290893554687500
0.04790126159787178039550781250
-0.00480042770504951477050781250
-0.07115299254655838012695312500
0.02514655701816082000732421875
0.04235744848847389221191406250
0.01911965198814868927001953125
-0.11883212625980377197265625000
-0.00579178472980856895446777344
0.05015080794692039489746093750
0.05955436080694198608398437500
0.02343908138573169708251953125
0.14078199863433837890625000000
-0.03272283077239990234375000000
-0.06071426346898078918457031250
-0.06839105486869812011718750000
0.02103913202881813049316406250
0.04294129088521003723144531250
0.04954655468463897705078125000
0.01247503701597452163696289062
-0.02970536425709724426269531250
-0.05181648954749107360839843750
0.05450984463095664978027343750
-0.09981742501258850097656250000
-0.06324776262044906616210937500
-0.02225753664970397949218750000
0.01508732140064239501953125000
0.03748464211821556091308593750
-0.01739549450576305389404296875
0.07101403921842575073242187500
-0.03213094547390937805175781250
0.01202534139156341552734375000
-0.00948217790573835372924804688
0.01388461142778396606445312500
-0.00487944576889276504516601562
-0.06798660755157470703125000000
0.00301567022688686847686767578
0.03701970353722572326660156250
-0.00867223367094993591308593750
0.03675999492406845092773437500
0.02249004133045673370361328125
-0.12267117202281951904296875000
0.06788386404514312744140625000
0.06367284804582595825195312500
-0.05981653556227684020996093750
-0.05517849326133728027343750000
0.03953095152974128723144531250
-0.00630130991339683532714843750
-0.09359753131866455078125000000
0.08715829253196716308593750000
0.09986291825771331787109375000
0.01695190928876399993896484375
0.03719206899404525756835937500
-0.00212496519088745117187500000
-0.07572352886199951171875000000
0.01590589247643947601318359375
-0.04762165620923042297363281250
-0.07381845265626907348632812500
0.07298380136489868164062500000
0.11881109327077865600585937500
0.04923188686370849609375000000
0.01732122339308261871337890625
0.02816921845078468322753906250
0.03716586902737617492675781250
-0.04195050522685050964355468750
0.05038528516888618469238281250
0.09453383833169937133789062500
-0.02657033689320087432861328125
0.06008759140968322753906250000
0.03994043916463851928710937500
-0.07231327891349792480468750000
-0.11880248039960861206054687500
-0.09407514333724975585937500000
-0.07544337213039398193359375000
0.03255108371376991271972656250
-0.02392398193478584289550781250
0.00781764183193445205688476562
0.03179359436035156250000000000
-0.09902459383010864257812500000
0.10121563076972961425781250000
0.05396911129355430603027343750
-0.01292573288083076477050781250
0.03676261380314826965332031250
0.01146182697266340255737304688
-0.08982681483030319213867187500
0.04342547804117202758789062500
0.00381499738432466983795166016
-0.09714506566524505615234375000
0.01103994809091091156005859375
-0.00994812976568937301635742188
0.00487517751753330230712890625
0.04516558349132537841796875000
0.00537857646122574806213378906
-0.04890023916959762573242187500
0.00339191826060414314270019531
-0.07779414951801300048828125000
0.11076296120882034301757812500
0.04553010687232017517089843750
0.02069079130887985229492187500
-0.06330838799476623535156250000
-0.06439869850873947143554687500
-0.06511001288890838623046875000
0.07063323259353637695312500000
-0.00298799527809023857116699219
0.07880185544490814208984375000
0.00946037843823432922363281250
0.01383082568645477294921875000
-0.05663428083062171936035156250
0.01358009316027164459228515625
-0.03543963655829429626464843750
-0.00446549756452441215515136719
0.01106338948011398315429687500
0.01474650949239730834960937500
0.03443828597664833068847656250
-0.02902459166944026947021484375
0.08003189414739608764648437500
-0.09316849708557128906250000000
0.02966284006834030151367187500
-0.08298044651746749877929687500
-0.00450836867094039916992187500
-0.12179736793041229248046875000
0.08853956311941146850585937500
-0.10174424201250076293945312500
0.04558385536074638366699218750
-0.01181372161954641342163085938
-0.03070526197552680969238281250
0.00936879310756921768188476562
-0.01531806401908397674560546875
0.04559867456555366516113281250
-0.06842280924320220947265625000
-0.06942543387413024902343750000
0.01160120591521263122558593750
0.03935822471976280212402343750
-0.05001544207334518432617187500
-0.00052704667905345559120178223
0.08676960319280624389648437500
0.01837425492703914642333984375
0.05009549111127853393554687500
0.08924131840467453002929687500
-0.02739779837429523468017578125
0.03244347870349884033203125000
0.02724597230553627014160156250
0.03298745304346084594726562500
0.01699966005980968475341796875
0.04285661503672599792480468750
-0.06161952018737792968750000000
0.12197831273078918457031250000
-0.12167112529277801513671875000
0.03033223003149032592773437500
0.01681670732796192169189453125
0.00512256240472197532653808594
-0.01256632339209318161010742188
-0.09610330313444137573242187500
0.02009669505059719085693359375
0.12335544824600219726562500000
-0.03494411334395408630371093750
0.04206558689475059509277343750
-0.01430032774806022644042968750
-0.08331613242626190185546875000
-0.01657709851861000061035156250
0.09667551517486572265625000000
-0.00450392393395304679870605469
0.01193742081522941589355468750
-0.06654599308967590332031250000
0.00554459169507026672363281250
-0.10237383097410202026367187500
-0.00101787678431719541549682617
0.02457407489418983459472656250
-0.03027404844760894775390625000
-0.00435476424172520637512207031
0.07073538750410079956054687500
0.01695513352751731872558593750
0.09380293637514114379882812500
-0.03714985027909278869628906250
0.06055078282952308654785156250
0.03381316736340522766113281250
0.08977685123682022094726562500
0.02372830174863338470458984375
0.05472340062260627746582031250
0.01783329248428344726562500000
-0.01598221622407436370849609375
-0.05424728244543075561523437500
0.06941011548042297363281250000
-0.01875726692378520965576171875
0.01936723850667476654052734375
-0.00457782344892621040344238281
-0.00572432950139045715332031250
0.05719971656799316406250000000
-0.10677242279052734375000000000
-0.10010380297899246215820312500
-0.05822835117578506469726562500
0.03927988186478614807128906250
0.13366138935089111328125000000
-0.04384747520089149475097656250
-0.01299060136079788208007812500
-0.03091594576835632324218750000
0.08366696536540985107421875000
0.02902724593877792358398437500
0.04947108030319213867187500000
-0.00579035002738237380981445312
-0.04496209695935249328613281250
-0.04362797364592552185058593750
0.08335610479116439819335937500
0.01388693507760763168334960938
-0.01193650811910629272460937500
0.01657637953758239746093750000
-0.05477908998727798461914062500
-0.03632684424519538879394531250
-0.01921780966222286224365234375
0.04846790060400962829589843750
0.05492840334773063659667968750
-0.01153037790209054946899414062
0.09257218241691589355468750000
0.06182076409459114074707031250
0.05668733641505241394042968750
0.00382492435164749622344970703
-0.00276799406856298446655273438
0.03680058941245079040527343750
-0.09460508078336715698242187500
0.00386123522184789180755615234
0.09195924550294876098632812500
-0.01479848101735115051269531250
0.01445564627647399902343750000
0.07983233034610748291015625000
-0.01021451130509376525878906250
0.02542848326265811920166015625
-0.04827825352549552917480468750
-0.01175999362021684646606445312
-0.06085587665438652038574218750
0.07591744512319564819335937500
0.05070783570408821105957031250
0.04195899143815040588378906250
0.12662959098815917968750000000
-0.00597242172807455062866210938
0.04496793076395988464355468750
-0.03382080048322677612304687500
0.01342421583831310272216796875
-0.01240974105894565582275390625
0.04467923194169998168945312500
-0.00729498174041509628295898438
0.04597871005535125732421875000
-0.01193128433078527450561523438
-0.00438564177602529525756835938
0.01554666925221681594848632812
-0.05901435390114784240722656250
-0.03855336457490921020507812500
-0.03946796432137489318847656250
0.09930129349231719970703125000
0.06427801400423049926757812500
0.03433352336287498474121093750
-0.03856140002608299255371093750
-0.04387940838932991027832031250
-0.07500569522380828857421875000
-0.00841646641492843627929687500
0.08726506680250167846679687500
-0.00852624792605638504028320312
-0.07733478397130966186523437500
-0.02760936133563518524169921875
-0.04472894594073295593261718750
-0.03807569295167922973632812500
0.02470041438937187194824218750
0.08010688424110412597656250000
-0.05348902940750122070312500000
-0.01836418546736240386962890625
-0.01571800373494625091552734375
-0.18888865411281585693359375000
-0.02999711222946643829345703125
-0.08109220862388610839843750000
-0.11250124126672744750976562500
-0.00567686650902032852172851562
0.00936482008546590805053710938
0.00625564577057957649230957031
-0.02791112847626209259033203125
-0.05577251315116882324218750000
-0.00596357788890600204467773438
0.12051478028297424316406250000
-0.00518378382548689842224121094
0.06372305005788803100585937500
0.01282195001840591430664062500
-0.00424803560599684715270996094
-0.02577166445553302764892578125
-0.04710586741566658020019531250
0.03132377937436103820800781250
0.00013590654998552054166793823
-0.02187579683959484100341796875
0.00788240134716033935546875000
0.06135123223066329956054687500
0.04948151856660842895507812500
0.04397904872894287109375000000
0.00393019523471593856811523438
-0.06678107380867004394531250000
0.04536521807312965393066406250
0.00936975236982107162475585938
0.00137970747891813516616821289
-0.17446707189083099365234375000
0.00604178337380290031433105469
0.00333065958693623542785644531
-0.03421447798609733581542968750
-0.05257833003997802734375000000
-0.00732965115457773208618164062
-0.00311107072047889232635498047
-0.00707096140831708908081054688
-0.03778632730245590209960937500
-0.00725105823948979377746582031
-0.08232255280017852783203125000
-0.00284582376480102539062500000
-0.02162587270140647888183593750
0.11142317205667495727539062500
0.03389329463243484497070312500
-0.00166458601597696542739868164
0.01261126436293125152587890625
0.00718153966590762138366699219
0.07727935165166854858398437500
0.04712129384279251098632812500
-0.07237653434276580810546875000
0.00300355511717498302459716797
0.09121956676244735717773437500
-0.03493345901370048522949218750
0.14018146693706512451171875000
-0.07329756021499633789062500000
-0.00106521416455507278442382812
0.13692989945411682128906250000
0.01175152789801359176635742188
-0.00659620855003595352172851562
-0.05025726184248924255371093750
-0.03076164424419403076171875000
0.08364723622798919677734375000
-0.03193211182951927185058593750
0.00962800439447164535522460938
-0.09214037656784057617187500000
-0.09546559303998947143554687500
-0.00162301538512110710144042969
-0.03960604593157768249511718750
0.01621009968221187591552734375
0.01672494225203990936279296875
-0.01520042307674884796142578125
-0.02336816489696502685546875000
-0.00598385417833924293518066406
-0.05585472285747528076171875000
0.03899247944355010986328125000
-0.17198908329010009765625000000
-0.02038901299238204956054687500
0.00133529060985893011093139648
0.03990252315998077392578125000
0.06708870828151702880859375000
-0.00883726123720407485961914062
0.02657957002520561218261718750
-0.00024137274886015802621841431
-0.09352210164070129394531250000
-0.00625026458874344825744628906
-0.09355774521827697753906250000
-0.05235721170902252197265625000
0.08405660837888717651367187500
0.00537879811599850654602050781
-0.14285704493522644042968750000
-0.00930742919445037841796875000
-0.04830938205122947692871093750
-0.11105106770992279052734375000
0.02974048070609569549560546875
0.01057074218988418579101562500
-0.06162738427519798278808593750
-0.01615692302584648132324218750
0.03017091751098632812500000000
-0.03082280233502388000488281250
0.00357425003312528133392333984
0.01258418802171945571899414062
0.06520066410303115844726562500
0.01757566817104816436767578125
-0.16819860041141510009765625000
-0.03862179815769195556640625000
0.05316438525915145874023437500
-0.04785412549972534179687500000
0.05833251401782035827636718750
-0.08036075532436370849609375000
0.06570602953433990478515625000
0.05727544426918029785156250000
0.13643550872802734375000000000
0.02906210720539093017578125000
0.02153490297496318817138671875
-0.02004243806004524230957031250
0.01026140619069337844848632812
0.05659561231732368469238281250
0.02663511782884597778320312500
0.00119022617582231760025024414
0.00800367817282676696777343750
0.06762055307626724243164062500
0.03548766300082206726074218750
0.01052455417811870574951171875
-0.02962246723473072052001953125
0.12337005138397216796875000000
0.00217253668233752250671386719
-0.00135605328250676393508911133
0.01524418685585260391235351562
-0.02675486169755458831787109375
-0.01714674197137355804443359375
-0.02377216704189777374267578125
-0.05642245709896087646484375000
-0.08340434730052947998046875000
-0.02500553801655769348144531250
-0.01876350492238998413085937500
-0.03276179358363151550292968750
-0.04577367007732391357421875000
0.07767158746719360351562500000
-0.01143790222704410552978515625
-0.05844385921955108642578125000
0.03757115826010704040527343750
0.00296000600792467594146728516
0.03523486852645874023437500000
-0.05285466834902763366699218750
-0.00114160287193953990936279297
0.03829024359583854675292968750
-0.00427467655390501022338867188
0.01446018088608980178833007812
0.04486864805221557617187500000
0.03974747285246849060058593750
0.00312044704332947731018066406
0.03824493661522865295410156250
0.00712416740134358406066894531
0.04036581888794898986816406250
0.04477516934275627136230468750
0.02577937021851539611816406250
-0.00802722759544849395751953125
-0.07597082853317260742187500000
-0.00728772440925240516662597656
0.03038286976516246795654296875
0.06692586094141006469726562500
0.02473701536655426025390625000
0.03192958980798721313476562500
-0.06622488796710968017578125000
-0.04595108702778816223144531250
0.04072419181466102600097656250
-0.06589408963918685913085937500
-0.02910933084785938262939453125
0.07377753406763076782226562500
-0.06562397629022598266601562500
0.05260352417826652526855468750
0.00815770588815212249755859375
-0.04044346883893013000488281250
0.01151028927415609359741210938
0.00490342685952782630920410156
0.00057656213175505399703979492
-0.02273599989712238311767578125
-0.05187902972102165222167968750
-0.04595873877406120300292968750
-0.04069808498024940490722656250
-0.03820336237549781799316406250
0.04201808944344520568847656250
0.01626569032669067382812500000
0.04012088850140571594238281250
-0.02596227452158927917480468750
0.00942718610167503356933593750
0.04622550681233406066894531250
-0.03804989904165267944335937500
-0.02978662960231304168701171875
-0.04312290623784065246582031250
0.02646409720182418823242187500
0.05576544255018234252929687500
-0.02460088953375816345214843750
-0.00513779884204268455505371094
-0.02374402433633804321289062500
-0.04745871946215629577636718750
-0.09607218205928802490234375000
0.06199164316058158874511718750
-0.02546491287648677825927734375
0.01056599430739879608154296875
0.03398637846112251281738281250
-0.02877339720726013183593750000
0.04307530075311660766601562500
0.06704103201627731323242187500
0.03003419004380702972412109375
0.00003784779255511239171028137
-0.00577628659084439277648925781
-0.04365943372249603271484375000
-0.03625611588358879089355468750
-0.02711471356451511383056640625
-0.04019518569111824035644531250
0.06898872554302215576171875000
-0.03037148714065551757812500000
0.03914319351315498352050781250
-0.01818901486694812774658203125
-0.01277419179677963256835937500
0.09993586689233779907226562500
-0.03764292970299720764160156250
-0.02884900942444801330566406250
-0.03110576234757900238037109375
0.11865352839231491088867187500
0.00390099780634045600891113281
0.01195421721786260604858398438
0.05664459988474845886230468750
-0.10191269218921661376953125000
0.04971050098538398742675781250
0.03423412516713142395019531250
0.05004907771944999694824218750
-0.02381589636206626892089843750
-0.03323369100689888000488281250
0.04672941192984580993652343750
0.05704482644796371459960937500
0.06693813204765319824218750000
-0.04680304601788520812988281250
-0.02456966601312160491943359375
0.04844595491886138916015625000
-0.07262209057807922363281250000
0.05286260321736335754394531250
-0.01588412001729011535644531250
-0.02901012077927589416503906250
-0.05992604419589042663574218750
0.04039215296506881713867187500
0.02813533134758472442626953125
-0.02787742950022220611572265625
-0.01680845022201538085937500000
0.04913783073425292968750000000
-0.03750187158584594726562500000
0.01705524511635303497314453125
0.01409438811242580413818359375
-0.00833386927843093872070312500
-0.17100682854652404785156250000
0.02802047319710254669189453125
0.05323103070259094238281250000
0.04182202741503715515136718750
-0.18184611201286315917968750000
-0.04774906486272811889648437500
-0.00519978161901235580444335938
-0.00126298493705689907073974609
0.06586841493844985961914062500
0.03897948935627937316894531250
-0.01847059838473796844482421875
-0.08230321854352951049804687500
0.01561853196471929550170898438
0.06400479376316070556640625000
0.07562196254730224609375000000
-0.02968056499958038330078125000
0.00591287948191165924072265625
-0.05098287016153335571289062500
-0.04613795503973960876464843750
0.04617907851934432983398437500
-0.09561403840780258178710937500
-0.05885664001107215881347656250
0.15520760416984558105468750000
0.02163225039839744567871093750
-0.01066315732896327972412109375
0.03361635655164718627929687500
0.05689181387424468994140625000
-0.05800514668226242065429687500
0.08112861961126327514648437500
0.00032453134190291166305541992
-0.02284147031605243682861328125
-0.02462563104927539825439453125
0.03287093341350555419921875000
-0.00329316803254187107086181641
0.03052290156483650207519531250
0.07935970276594161987304687500
-0.00204130169004201889038085938
-0.00936115905642509460449218750
0.00940175913274288177490234375
-0.00352347805164754390716552734
0.00793992355465888977050781250
-0.05178822204470634460449218750
0.04650884121656417846679687500
0.05834835395216941833496093750
-0.03503002226352691650390625000
0.02165839634835720062255859375
-0.07286550849676132202148437500
-0.01937794871628284454345703125
-0.02333910390734672546386718750
0.02502615191042423248291015625
-0.05111016333103179931640625000
0.08507686108350753784179687500
-0.01369028817862272262573242188
-0.00475383922457695007324218750
-0.00013150871382094919681549072
0.06341834366321563720703125000
0.04266368597745895385742187500
-0.09073879569768905639648437500
-0.05768710002303123474121093750
-0.11623496562242507934570312500
-0.02593566849827766418457031250
0.07926946133375167846679687500
-0.03504760563373565673828125000
-0.10737314820289611816406250000
-0.00603224337100982666015625000
0.06009354814887046813964843750
0.05390190333127975463867187500
0.06526046991348266601562500000
0.00430941209197044372558593750
-0.02708366513252258300781250000
-0.01184559240937232971191406250
-0.01072335150092840194702148438
-0.03266919404268264770507812500
-0.08427525311708450317382812500
-0.05146164074540138244628906250
0.00439398828893899917602539062
0.00516540464013814926147460938
0.00383525341749191284179687500
0.03370653092861175537109375000
0.04138908162713050842285156250
-0.00241451850160956382751464844
-0.03752076625823974609375000000
0.00725767202675342559814453125
-0.02436657808721065521240234375
-0.00307679269462823867797851562
-0.09090285748243331909179687500
0.04329722374677658081054687500
0.03013285249471664428710937500
-0.01319879945367574691772460938
0.05542415380477905273437500000
-0.01333250850439071655273437500
-0.01493287459015846252441406250
0.00433381600305438041687011719
0.05688871070742607116699218750
-0.03073926642537117004394531250
0.05452594161033630371093750000
0.01438989304006099700927734375
-0.00119880831334739923477172852
-0.06790936738252639770507812500
-0.04012584686279296875000000000
0.03791582956910133361816406250
-0.04714100435376167297363281250
0.02208422683179378509521484375
0.04660222679376602172851562500
0.03172392398118972778320312500
-0.05109076574444770812988281250
-0.05104488879442214965820312500
0.01017957739531993865966796875
0.00390912592411041259765625000
0.03665454685688018798828125000
0.06077954545617103576660156250
-0.00086578883929178118705749512
-0.02260375022888183593750000000
-0.07279219478368759155273437500
0.01157432422041893005371093750
-0.08437126129865646362304687500
-0.06431107223033905029296875000
0.09821117669343948364257812500
-0.06649222970008850097656250000
0.04578026384115219116210937500
0.01426555868238210678100585938
0.00711936410516500473022460938
-0.02632895298302173614501953125
0.01093494426459074020385742188
0.00181115907616913318634033203
-0.03570727631449699401855468750
-0.00502759497612714767456054688
0.04200197011232376098632812500
-0.01518877036869525909423828125
0.00732488697394728660583496094
0.02630971372127532958984375000
0.08897569775581359863281250000
0.09806326031684875488281250000
-0.11198139190673828125000000000
0.10166475921869277954101562500
0.08856447041034698486328125000
0.05454265326261520385742187500
-0.01858611404895782470703125000
0.00122789118904620409011840820
0.00166270614136010408401489258
-0.02432778850197792053222656250
-0.01830109953880310058593750000
-0.03727178275585174560546875000
-0.06362627446651458740234375000
-0.05998252704739570617675781250
-0.04078837856650352478027343750
0.05238743498921394348144531250
0.01930635236203670501708984375
0.05839578434824943542480468750
0.01771112717688083648681640625
-0.02858767658472061157226562500
-0.05211103707551956176757812500
0.03453673049807548522949218750
0.01684239506721496582031250000
-0.02564758993685245513916015625
0.08207833766937255859375000000
0.10088456422090530395507812500
-0.05461842194199562072753906250
-0.05384110659360885620117187500
0.03149874508380889892578125000
-0.10465737432241439819335937500
-0.01930789090692996978759765625
-0.01005089562386274337768554688
-0.06421648710966110229492187500
-0.00665482040494680404663085938
-0.00029867989360354840755462646
0.01105000823736190795898437500
0.00352284335531294345855712891
-0.05721607059240341186523437500
-0.07237845659255981445312500000
0.04615347832441329956054687500
0.04567027091979980468750000000
-0.06360609829425811767578125000
-0.14731173217296600341796875000
0.00169454398564994335174560547
0.04537643864750862121582031250
-0.03342601656913757324218750000
0.03944722190499305725097656250
0.06827344745397567749023437500
-0.08790121972560882568359375000
0.04211107641458511352539062500
0.07434283941984176635742187500
-0.02112742140889167785644531250
-0.00663510290905833244323730469
0.15738402307033538818359375000
-0.04907848685979843139648437500
0.08633952587842941284179687500
-0.06209162250161170959472656250
-0.06304153054952621459960937500
-0.04485061392188072204589843750
0.02905347943305969238281250000
-0.05486694723367691040039062500
-0.00527513679116964340209960938
0.01570147275924682617187500000
-0.04438469558954238891601562500
0.02329589799046516418457031250
-0.01323464419692754745483398438
-0.16422711312770843505859375000
-0.08771442621946334838867187500
-0.00226877280510962009429931641
-0.02752170898020267486572265625
0.01217022072523832321166992188
-0.00215603364631533622741699219
-0.08263964951038360595703125000
0.09400614351034164428710937500
-0.02826710045337677001953125000
0.04883105307817459106445312500
-0.00205484521575272083282470703
-0.11514055728912353515625000000
-0.02892746962606906890869140625
0.00222422112710773944854736328
0.00284755718894302845001220703
-0.04868115112185478210449218750
0.00447382824495434761047363281
-0.03057464025914669036865234375
-0.03116851858794689178466796875
0.01683456078171730041503906250
-0.11311995238065719604492187500
-0.04262375459074974060058593750
0.10269729793071746826171875000
0.04078992456197738647460937500
0.05453718081116676330566406250
-0.03711427003145217895507812500
-0.05777881294488906860351562500
0.00003426315743126906454563141
-0.01827696152031421661376953125
-0.10999897867441177368164062500
0.02374654263257980346679687500
0.03404984623193740844726562500
-0.03885722905397415161132812500
0.08419970422983169555664062500
0.02858745865523815155029296875
0.04374840110540390014648437500
-0.02985102497041225433349609375
-0.03058086521923542022705078125
0.00310057401657104492187500000
-0.03381526470184326171875000000
-0.05316145345568656921386718750
-0.04308272898197174072265625000
0.05616032332181930541992187500
-0.05121269822120666503906250000
-0.05341619253158569335937500000
0.01552290003746747970581054688
-0.00690606189891695976257324219
0.05671556666493415832519531250
0.04048160091042518615722656250
0.04092605039477348327636718750
-0.05864984169602394104003906250
0.04415936768054962158203125000
0.09171257913112640380859375000
0.02199471928179264068603515625
0.01094040554016828536987304688
0.07547988742589950561523437500
-0.04657809063792228698730468750
-0.08509889245033264160156250000
-0.02214154228568077087402343750
-0.00011991181236226111650466919
0.05029444769024848937988281250
-0.04091535136103630065917968750
0.02683751843869686126708984375
-0.08689984679222106933593750000
0.03446919843554496765136718750
0.01866399310529232025146484375
-0.03279804065823554992675781250
0.04673831164836883544921875000
-0.00969111081212759017944335938
-0.10342343896627426147460937500
-0.02954869158565998077392578125
0.06651700288057327270507812500
-0.00942069292068481445312500000
0.05560190603137016296386718750
-0.01119477953761816024780273438
0.09495322406291961669921875000
0.01919104903936386108398437500
-0.12017730623483657836914062500
0.02782373316586017608642578125
-0.06241779401898384094238281250
0.03807311132550239562988281250
0.04385466501116752624511718750
-0.01199298072606325149536132812
0.01967949979007244110107421875
-0.04239440709352493286132812500
0.07056991755962371826171875000
-0.01004048809409141540527343750
-0.04912535846233367919921875000
-0.00862060207873582839965820312
-0.06107029691338539123535156250
-0.01892743818461894989013671875
-0.05731818825006484985351562500
-0.04304245859384536743164062500
0.06862548738718032836914062500
0.09038283675909042358398437500
0.03148231282830238342285156250
0.10032551735639572143554687500
-0.04395097494125366210937500000
-0.00477901659905910491943359375
0.01147199328988790512084960938
0.02415416948497295379638671875
-0.16815476119518280029296875000
0.08274234086275100708007812500
0.03779358044266700744628906250
-0.04376980289816856384277343750
-0.02029333449900150299072265625
0.05030199885368347167968750000
0.03244965150952339172363281250
0.08480685204267501831054687500
0.04308377578854560852050781250
-0.00216212263330817222595214844
-0.00995376985520124435424804688
0.03689453378319740295410156250
-0.04295265302062034606933593750
0.00210500764660537242889404297
0.07490631937980651855468750000
-0.16537499427795410156250000000
-0.02486740052700042724609375000
-0.02534718252718448638916015625
0.03981863707304000854492187500
0.01559111569076776504516601562
0.02897070161998271942138671875
-0.00368298916146159172058105469
-0.01476410496979951858520507812
-0.00040553437429480254650115967
0.00102423597127199172973632812
0.00787614658474922180175781250
0.04033682867884635925292968750
-0.05741184949874877929687500000
0.06989927589893341064453125000
-0.00627304427325725555419921875
0.03419078886508941650390625000
0.03332727402448654174804687500
-0.04764474928379058837890625000
0.00273482687771320343017578125
-0.01103032473474740982055664062
-0.04527601972222328186035156250
0.01844942755997180938720703125
-0.02163634262979030609130859375
0.03852557763457298278808593750
-0.06949383765459060668945312500
-0.01513187494128942489624023438
-0.01639182679355144500732421875
-0.02575828135013580322265625000
0.01536111719906330108642578125
0.03016189858317375183105468750
0.00792473275214433670043945312
0.03843821212649345397949218750
0.05382398515939712524414062500
-0.05042331293225288391113281250
0.01704304851591587066650390625
0.00810968875885009765625000000
0.04095340147614479064941406250
0.20488765835762023925781250000
-0.01139629632234573364257812500
0.02639175951480865478515625000
-0.01215381361544132232666015625
0.00893931183964014053344726562
0.07404352724552154541015625000
0.09419852495193481445312500000
-0.01057299226522445678710937500
0.06851294636726379394531250000
-0.00654224678874015808105468750
0.00447815470397472381591796875
0.14519648253917694091796875000
0.01131728570908308029174804688
-0.04009135812520980834960937500
-0.00742754479870200157165527344
0.05009014531970024108886718750
0.07456016540527343750000000000
0.04666320234537124633789062500
-0.02354476600885391235351562500
0.08442521095275878906250000000
0.04188078269362449645996093750
0.07946248352527618408203125000
0.00462725944817066192626953125
-0.04157710447907447814941406250
0.07460071146488189697265625000
0.05098241567611694335937500000
-0.07113105058670043945312500000
0.08431792259216308593750000000
-0.00052600383060052990913391113
-0.01958068646490573883056640625
-0.03611902892589569091796875000
-0.06430663913488388061523437500
-0.03098753280937671661376953125
0.10701517760753631591796875000
0.02575333975255489349365234375
-0.03763765469193458557128906250
0.02703370898962020874023437500
0.06022810563445091247558593750
-0.04590841755270957946777343750
-0.05724679306149482727050781250
-0.01246533822268247604370117188
-0.09145680814981460571289062500
-0.03920945152640342712402343750
-0.05837259441614151000976562500
-0.04640413075685501098632812500
0.03377148881554603576660156250
0.01939972490072250366210937500
0.02224535867571830749511718750
-0.01000488456338644027709960938
0.02475260570645332336425781250
-0.00059593369951471686363220215
0.01061119977384805679321289062
0.00885434169322252273559570312
0.00460138218477368354797363281
0.08416119217872619628906250000
-0.02068546600639820098876953125
0.05517403781414031982421875000
-0.02135438844561576843261718750
0.00540696643292903900146484375
-0.02136303298175334930419921875
-0.09277354180812835693359375000
0.05347862094640731811523437500
-0.07923081517219543457031250000
0.01446355227380990982055664062
0.00149173988029360771179199219
0.01401967648416757583618164062
0.04112850874662399291992187500
0.00489710876718163490295410156
-0.09663909673690795898437500000
-0.00607159081846475601196289062
-0.06132220849394798278808593750
0.03691957145929336547851562500
-0.08799686282873153686523437500
-0.08321925997734069824218750000
0.07070683687925338745117187500
0.04433420673012733459472656250
-0.06008061394095420837402343750
-0.10440157353878021240234375000
0.02114641107618808746337890625
0.00833718385547399520874023438
0.05683241039514541625976562500
-0.02192240208387374877929687500
0.07052792608737945556640625000
0.02675896137952804565429687500
-0.12279554456472396850585937500
0.05255789309740066528320312500
-0.04593007266521453857421875000
0.09583968669176101684570312500
-0.06476797908544540405273437500
-0.05245433002710342407226562500
-0.04190777242183685302734375000
0.04009422659873962402343750000
-0.06911472976207733154296875000
0.04836953431367874145507812500
0.00161440391093492507934570312
0.03926851227879524230957031250
-0.04023768007755279541015625000
-0.02261154353618621826171875000
-0.01283659506589174270629882812
-0.15737041831016540527343750000
-0.03610297664999961853027343750
0.01612082310020923614501953125
-0.07098855078220367431640625000
0.03287370875477790832519531250
0.00997654069215059280395507812
-0.07395431399345397949218750000
0.00594139611348509788513183594
-0.01912130415439605712890625000
-0.01859020441770553588867187500
0.03389750048518180847167968750
-0.00497952243313193321228027344
-0.03505046293139457702636718750
0.03880833834409713745117187500
0.00212297146208584308624267578
0.00459399493411183357238769531
0.02324018813669681549072265625
-0.00548990257084369659423828125
-0.05119374394416809082031250000
0.08707981556653976440429687500
0.00118410389404743909835815430
0.03163477033376693725585937500
0.05171054974198341369628906250
0.04697098582983016967773437500
0.02549768239259719848632812500
-0.04300747439265251159667968750
-0.00946641340851783752441406250
-0.01300431042909622192382812500
0.15262685716152191162109375000
0.05870219320058822631835937500
0.03467711433768272399902343750
0.00936673954129219055175781250
-0.03920324891805648803710937500
0.03342318907380104064941406250
-0.09264631569385528564453125000
0.03191057965159416198730468750
-0.00956522021442651748657226562
0.01624801754951477050781250000
0.03423480689525604248046875000
0.00062568008434027433395385742
0.01845628954470157623291015625
0.01907304301857948303222656250
-0.06689663976430892944335937500
0.01863207295536994934082031250
0.08020418882369995117187500000
-0.05640837177634239196777343750
-0.07546545565128326416015625000
-0.00986772496253252029418945312
0.00474230665713548660278320312
-0.01760913245379924774169921875
0.01135053206235170364379882812
-0.04119623824954032897949218750
-0.05180078372359275817871093750
-0.00215125083923339843750000000
0.16248807311058044433593750000
-0.03491585329174995422363281250
0.01633654162287712097167968750
-0.03076986782252788543701171875
0.09120781719684600830078125000
-0.05090154334902763366699218750
0.06891269981861114501953125000
-0.02237347699701786041259765625
0.04920721799135208129882812500
0.04870845004916191101074218750
-0.00252763344906270503997802734
0.08479249477386474609375000000
0.02754272148013114929199218750
-0.05692881345748901367187500000
0.06778428703546524047851562500
0.03632581606507301330566406250
0.09741377830505371093750000000
-0.01519337203353643417358398438
0.11715668439865112304687500000
0.00212986883707344532012939453
0.02950700558722019195556640625
-0.02225634828209877014160156250
-0.08169776946306228637695312500
-0.00704854866489768028259277344
-0.02786203287541866302490234375
0.02796078100800514221191406250
0.02682743966579437255859375000
-0.07374893873929977416992187500
0.06235378235578536987304687500
-0.04422281309962272644042968750
-0.09121311455965042114257812500
-0.05398237705230712890625000000
0.06140441447496414184570312500
-0.00623890338465571403503417969
-0.08009927719831466674804687500
-0.09845643490552902221679687500
-0.12376289069652557373046875000
0.06549808382987976074218750000
0.09603057801723480224609375000
0.01823808811604976654052734375
0.00203742366284132003784179688
0.02414014749228954315185546875
0.02129531279206275939941406250
-0.01892868801951408386230468750
-0.01309759914875030517578125000
-0.03963454067707061767578125000
0.00177390256430953741073608398
-0.02648523449897766113281250000
0.05374983698129653930664062500
-0.02964034490287303924560546875
0.00408492656424641609191894531
-0.04151147231459617614746093750
0.03278061375021934509277343750
0.01483768690377473831176757812
-0.00407816749066114425659179688
-0.05636763945221900939941406250
0.01072981022298336029052734375
-0.01952211558818817138671875000
0.06663575023412704467773437500
-0.05922673642635345458984375000
-0.12961392104625701904296875000
-0.04322393611073493957519531250
-0.07769762724637985229492187500
0.18329469859600067138671875000
0.05791603773832321166992187500
0.05044454336166381835937500000
-0.11864975094795227050781250000
-0.04941576719284057617187500000
-0.00812673568725585937500000000
-0.08669564127922058105468750000
0.01589019596576690673828125000
0.06079876050353050231933593750
-0.00581060349941253662109375000
0.02371346950531005859375000000
0.15363597869873046875000000000
0.04668541997671127319335937500
0.13232018053531646728515625000
0.03563369438052177429199218750
-0.02380795218050479888916015625
-0.04111557453870773315429687500
0.10073995590209960937500000000
-0.03605518862605094909667968750
-0.09400612115859985351562500000
0.07013421505689620971679687500
-0.05628110840916633605957031250
-0.04361571371555328369140625000
0.02071999758481979370117187500
-0.00435445317998528480529785156
0.01490153186023235321044921875
0.00755249802023172378540039062
-0.06832791864871978759765625000
-0.04390053823590278625488281250
-0.03037766367197036743164062500
0.05221768096089363098144531250
0.01432336401194334030151367188
0.06521726399660110473632812500
0.05631067976355552673339843750
0.01512660831212997436523437500
-0.14779122173786163330078125000
-0.01025386620312929153442382812
-0.10433125495910644531250000000
0.09203355759382247924804687500
-0.05134123936295509338378906250
0.04071376100182533264160156250
-0.08294847607612609863281250000
0.00464787846431136131286621094
0.01292195450514554977416992188
-0.06646107882261276245117187500
-0.17980232834815979003906250000
-0.08046899735927581787109375000
0.07128380239009857177734375000
0.05500295013189315795898437500
-0.06150312349200248718261718750
-0.05423726141452789306640625000
0.00657775113359093666076660156
-0.01524670235812664031982421875
0.00533918151631951332092285156
-0.00400774274021387100219726562
-0.01005951873958110809326171875
0.00645374367013573646545410156
0.11536184698343276977539062500
0.05104232951998710632324218750
-0.11547321826219558715820312500
0.05356629192829132080078125000
0.02380736358463764190673828125
-0.16589595377445220947265625000
0.10692688822746276855468750000
0.03441154211759567260742187500
0.12632341682910919189453125000
0.02281030453741550445556640625
0.02921033091843128204345703125
-0.00676132924854755401611328125
-0.23440848290920257568359375000
0.05167207866907119750976562500
0.09015002101659774780273437500
-0.18166433274745941162109375000
-0.00033769078436307609081268311
-0.04986127093434333801269531250
0.04719543457031250000000000000
-0.01602972857654094696044921875
-0.03897796943783760070800781250
-0.00290175597183406352996826172
-0.00658483617007732391357421875
0.09828255325555801391601562500
0.02993323281407356262207031250
0.06522852182388305664062500000
0.04581101238727569580078125000
-0.04719685018062591552734375000
0.00043003991595469415187835693
-0.00568077014759182929992675781
0.03212770819664001464843750000
-0.03924253582954406738281250000
0.04730056971311569213867187500
0.07923757284879684448242187500
-0.04520189017057418823242187500
-0.06330365687608718872070312500
-0.00448252260684967041015625000
-0.03483675792813301086425781250
0.02093155495822429656982421875
-0.06061912328004837036132812500
-0.04705315828323364257812500000
-0.01518610958009958267211914062
-0.00533641455695033073425292969
0.08943261951208114624023437500
0.13960534334182739257812500000
-0.05603423714637756347656250000
-0.04283235967159271240234375000
-0.08670656383037567138671875000
0.05351511761546134948730468750
-0.03093394078314304351806640625
-0.02731380797922611236572265625
0.07300860434770584106445312500
-0.04118412733078002929687500000
0.03210727497935295104980468750
0.02119411341845989227294921875
-0.02390759810805320739746093750
-0.14857679605484008789062500000
0.14223198592662811279296875000
0.01475735008716583251953125000
-0.00740988319739699363708496094
0.01638363301753997802734375000
-0.02623792178928852081298828125
0.06410358846187591552734375000
0.02724270150065422058105468750
-0.11972070485353469848632812500
-0.05569428205490112304687500000
0.00629707565531134605407714844
0.02813364379107952117919921875
-0.06629034876823425292968750000
0.03151582553982734680175781250
-0.04698450490832328796386718750
-0.02015076018869876861572265625
0.06684491038322448730468750000
0.01907492429018020629882812500
-0.12327112257480621337890625000
0.04042372480034828186035156250
-0.11205294728279113769531250000
0.18897913396358489990234375000
0.02059461362659931182861328125
0.05978943407535552978515625000
-0.00375505699776113033294677734
-0.01044239383190870285034179688
-0.02406836487352848052978515625
-0.05679780244827270507812500000
0.01156198233366012573242187500
0.00380875752307474613189697266
-0.03485743328928947448730468750
-0.02852291055023670196533203125
0.05653295293450355529785156250
-0.00567312119528651237487792969
0.06238775700330734252929687500
0.02743840217590332031250000000
0.03401095047593116760253906250
0.07610216736793518066406250000
-0.07441840320825576782226562500
-0.06159428879618644714355468750
-0.06275477260351181030273437500
-0.01738701015710830688476562500
0.04006882756948471069335937500
0.00381567748263478279113769531
-0.05397573485970497131347656250
-0.04492554813623428344726562500
-0.13593345880508422851562500000
-0.05912844464182853698730468750
0.03849694132804870605468750000
-0.01396382413804531097412109375
0.20554122328758239746093750000
-0.05289066955447196960449218750
0.08104046434164047241210937500
0.05201371386647224426269531250
-0.00182181387208402156829833984
0.02352941781282424926757812500
-0.09137487411499023437500000000
0.02296315692365169525146484375
-0.04028363153338432312011718750
-0.00325714470818638801574707031
0.05743113160133361816406250000
0.06469089537858963012695312500
0.01504151150584220886230468750
-0.02758971974253654479980468750
0.08185920864343643188476562500
-0.08499042689800262451171875000
-0.00276652607135474681854248047
-0.01251307409256696701049804688
-0.15061524510383605957031250000
-0.01141680590808391571044921875
0.08246085047721862792968750000
-0.04905770719051361083984375000
0.07430923730134963989257812500
-0.07552120089530944824218750000
-0.12110748887062072753906250000
0.12782561779022216796875000000
0.06974597275257110595703125000
0.03931298106908798217773437500
-0.02042513526976108551025390625
0.04933473095297813415527343750
-0.10520092397928237915039062500
-0.05970149487257003784179687500
0.03674448281526565551757812500
0.01758988760411739349365234375
-0.00145076529588550329208374023
0.08564867079257965087890625000
-0.03275844454765319824218750000
0.05292628332972526550292968750
0.02536479011178016662597656250
-0.01060585957020521163940429688
0.00148110499139875173568725586
0.02894472330808639526367187500
-0.06026354804635047912597656250
-0.00981248077005147933959960938
-0.20371119678020477294921875000
0.03335662558674812316894531250
0.01082293689250946044921875000
-0.02132420241832733154296875000
-0.00966389011591672897338867188
0.05757614970207214355468750000
-0.15698152780532836914062500000
-0.02316532842814922332763671875
-0.01592186838388442993164062500
0.10107956081628799438476562500
-0.06702908873558044433593750000
-0.06903094053268432617187500000
0.05228214338421821594238281250
-0.02333940751850605010986328125
-0.01838905736804008483886718750
-0.04825114086270332336425781250
0.05331370979547500610351562500
-0.03581009805202484130859375000
-0.00530380522832274436950683594
0.03974881023168563842773437500
-0.04690879955887794494628906250
0.02530781552195549011230468750
0.02445709705352783203125000000
-0.01179367210716009140014648438
-0.04548033699393272399902343750
-0.04094976186752319335937500000
-0.01355443336069583892822265625
0.14539362490177154541015625000
0.00283580459654331207275390625
0.14583818614482879638671875000
0.05751659348607063293457031250
-0.03371747210621833801269531250
-0.01281971856951713562011718750
-0.01432131323963403701782226562
-0.08877861499786376953125000000
-0.02636894956231117248535156250
0.10858814418315887451171875000
0.08060166984796524047851562500
0.08302675187587738037109375000
0.06674334406852722167968750000
0.01796103268861770629882812500
0.03796248137950897216796875000
0.04097995907068252563476562500
-0.00359338917769491672515869141
-0.11248019337654113769531250000
-0.07120954245328903198242187500
0.00493904016911983489990234375
-0.03344555571675300598144531250
-0.01366326585412025451660156250
0.04742816463112831115722656250
0.01101680938154458999633789062
-0.22232408821582794189453125000
-0.03026660531759262084960937500
0.03273993730545043945312500000
-0.00637759361416101455688476562
-0.02410969883203506469726562500
-0.02471547387540340423583984375
-0.02670777216553688049316406250
-0.08073694258928298950195312500
0.00563112040981650352478027344
-0.02792518958449363708496093750
0.13948424160480499267578125000
-0.02087619155645370483398437500
0.00743562262505292892456054688
0.13065329194068908691406250000
0.03097472526133060455322265625
0.00616015261039137840270996094
-0.02425142377614974975585937500
0.16391909122467041015625000000
0.03374730423092842102050781250
-0.06655837595462799072265625000
0.05932114645838737487792968750
0.05957490950822830200195312500
-0.07765029370784759521484375000
0.02991318516433238983154296875
-0.03209689632058143615722656250
-0.03601121902465820312500000000
0.06271612644195556640625000000
0.03970590978860855102539062500
0.01532789319753646850585937500
0.01023589260876178741455078125
0.13421078026294708251953125000
0.06707548350095748901367187500
0.03303100541234016418457031250
0.12949769198894500732421875000
-0.03115433268249034881591796875
-0.01262061297893524169921875000
-0.04359880089759826660156250000
0.03352109342813491821289062500
-0.09205263853073120117187500000
0.02072536200284957885742187500
-0.02606678754091262817382812500
0.01336573250591754913330078125
-0.09299529343843460083007812500
0.09232687205076217651367187500
-0.00176822859793901443481445312
0.06789261102676391601562500000
0.05393334850668907165527343750
0.01086574792861938476562500000
0.01109038479626178741455078125
-0.03523151203989982604980468750
-0.01448125671595335006713867188
0.01359917409718036651611328125
-0.00456663221120834350585937500
-0.00504039973020553588867187500
0.13118290901184082031250000000
0.12436463683843612670898437500
-0.00415780162438750267028808594
-0.03418896719813346862792968750
0.15163619816303253173828125000
0.02511258423328399658203125000
-0.01997478120028972625732421875
0.00188616104423999786376953125
0.02158769220113754272460937500
-0.09173525124788284301757812500
0.06581294536590576171875000000
0.03615896031260490417480468750
-0.01307628955692052841186523438
-0.08984529972076416015625000000
0.06135619804263114929199218750
0.00767916953191161155700683594
0.20727699995040893554687500000
-0.00420508114621043205261230469
-0.03265281766653060913085937500
0.02060601674020290374755859375
0.01387741044163703918457031250
0.02384489960968494415283203125
0.04270486906170845031738281250
0.18019819259643554687500000000
