0.08019268512725830078125000000
0.02923900634050369262695312500
0.01050818525254726409912109375
-0.01883985847234725952148437500
-0.18625202775001525878906250000
-0.17448040843009948730468750000
0.05311646685004234313964843750
0.03583669289946556091308593750
0.16641171276569366455078125000
-0.11381328105926513671875000000
0.01420258916914463043212890625
0.06195563450455665588378906250
-0.02146987244486808776855468750
0.12203442305326461791992187500
0.23674030601978302001953125000
0.05150295794010162353515625000
-0.03083672933280467987060546875
-0.06473787128925323486328125000
-0.14427396655082702636718750000
-0.18999971449375152587890625000
0.08280052989721298217773437500
0.03950906917452812194824218750
0.10891240835189819335937500000
-0.01700394786894321441650390625
0.02327952347695827484130859375
-0.00366461789235472679138183594
0.07742215692996978759765625000
0.05571290478110313415527343750
0.12149555981159210205078125000
-0.18018865585327148437500000000
0.03551389649510383605957031250
0.19897967576980590820312500000
-0.07763978093862533569335937500
0.13526260852813720703125000000
-0.12960149347782135009765625000
0.18450891971588134765625000000
0.09429080784320831298828125000
0.04591474309563636779785156250
0.05832679197192192077636718750
-0.10804234445095062255859375000
-0.07757861167192459106445312500
0.01767597906291484832763671875
0.02718753740191459655761718750
-0.30504924058914184570312500000
-0.03220523521304130554199218750
0.11761035025119781494140625000
-0.09775539487600326538085937500
-0.02120440639555454254150390625
-0.16390024125576019287109375000
-0.01574296131730079650878906250
0.01716132089495658874511718750
-0.03129437565803527832031250000
-0.08377321064472198486328125000
0.07214333862066268920898437500
0.00627520307898521423339843750
0.03859788924455642700195312500
-0.03521014377474784851074218750
0.02049106732010841369628906250
0.05643492564558982849121093750
-0.00035776567528955638408660889
0.02398145943880081176757812500
0.04081384465098381042480468750
0.03736609965562820434570312500
-0.05568454787135124206542968750
-0.03044435568153858184814453125
-0.07907183468341827392578125000
0.02636626176536083221435546875
-0.03217372298240661621093750000
0.04242366924881935119628906250
0.03464541584253311157226562500
0.05571694299578666687011718750
0.11937224864959716796875000000
-0.02315958216786384582519531250
0.03077800013124942779541015625
0.12168431282043457031250000000
-0.13557055592536926269531250000
-0.06804008781909942626953125000
0.01657293364405632019042968750
-0.00714797247201204299926757812
0.07531833648681640625000000000
0.00916845258325338363647460938
0.04490593075752258300781250000
0.06532196700572967529296875000
0.10027731209993362426757812500
0.01622901111841201782226562500
0.13412038981914520263671875000
0.06667090952396392822265625000
-0.00360503117553889751434326172
-0.12561486661434173583984375000
-0.12330911308526992797851562500
0.00971659924834966659545898438
0.04106545075774192810058593750
0.00908715929836034774780273438
-0.02421383187174797058105468750
0.07978173345327377319335937500
0.04543213546276092529296875000
-0.01906974986195564270019531250
-0.05567668750882148742675781250
0.04898251593112945556640625000
-0.10739876329898834228515625000
0.02422831021249294281005859375
-0.12002880871295928955078125000
0.14989669620990753173828125000
0.02532816119492053985595703125
0.03921870887279510498046875000
0.01399475429207086563110351562
0.07981757819652557373046875000
-0.08761810511350631713867187500
0.04106697440147399902343750000
-0.19488701224327087402343750000
0.14151453971862792968750000000
-0.03072045929729938507080078125
-0.06671327352523803710937500000
-0.11718304455280303955078125000
-0.00423901109024882316589355469
0.08547494560480117797851562500
0.04076531156897544860839843750
-0.14131923019886016845703125000
-0.18211647868156433105468750000
-0.03095132298767566680908203125
-0.04299241676926612854003906250
-0.13647775352001190185546875000
0.13339456915855407714843750000
-0.00611019320785999298095703125
0.11552418768405914306640625000
-0.03698375076055526733398437500
-0.08669380843639373779296875000
0.06264086067676544189453125000
0.01027251686900854110717773438
-0.05117633938789367675781250000
0.03017880953848361968994140625
-0.19082605838775634765625000000
-0.01352194882929325103759765625
0.09291921555995941162109375000
-0.01610076613724231719970703125
-0.03141448274254798889160156250
-0.08116348832845687866210937500
-0.09655076265335083007812500000
-0.11547628045082092285156250000
0.03987805172801017761230468750
0.13126845657825469970703125000
0.10759900510311126708984375000
0.05064482241868972778320312500
-0.03392632305622100830078125000
0.04780047014355659484863281250
-0.06803714483976364135742187500
0.08247831463813781738281250000
0.19347684085369110107421875000
0.07481271028518676757812500000
-0.00334130786359310150146484375
0.00735274003818631172180175781
0.07445645332336425781250000000
-0.03469768911600112915039062500
0.03264375030994415283203125000
0.09203948825597763061523437500
0.02777897939085960388183593750
0.01121168863028287887573242188
0.03220571577548980712890625000
0.09052252024412155151367187500
-0.04943865165114402770996093750
-0.06283600628376007080078125000
-0.10366208106279373168945312500
-0.10844805836677551269531250000
0.07439688593149185180664062500
-0.00132225372362881898880004883
-0.09550657868385314941406250000
0.11152901500463485717773437500
0.07813826948404312133789062500
-0.02240490727126598358154296875
-0.06437020748853683471679687500
0.05512759089469909667968750000
-0.18729335069656372070312500000
0.14575812220573425292968750000
-0.06352815032005310058593750000
0.02497684210538864135742187500
0.10682144016027450561523437500
0.12070966511964797973632812500
-0.03414300829172134399414062500
0.05712120234966278076171875000
-0.13203115761280059814453125000
-0.00555148208513855934143066406
0.05572569370269775390625000000
-0.05651037022471427917480468750
0.01645337045192718505859375000
0.10228912532329559326171875000
-0.04998454079031944274902343750
0.12108947336673736572265625000
0.02409047819674015045166015625
0.10113769769668579101562500000
-0.09754735231399536132812500000
-0.10275458544492721557617187500
0.05758643895387649536132812500
-0.02380856126546859741210937500
0.06779365986585617065429687500
-0.02740992791950702667236328125
-0.00670854793861508369445800781
0.00639115786179900169372558594
0.01947878859937191009521484375
-0.04189101979136466979980468750
-0.09638089686632156372070312500
-0.03074806928634643554687500000
0.11288341879844665527343750000
0.04159906134009361267089843750
-0.08994189649820327758789062500
-0.05263670161366462707519531250
-0.01250936742871999740600585938
-0.02536087669432163238525390625
-0.00132807216141372919082641602
0.02647956274449825286865234375
-0.02264514937996864318847656250
0.00908702705055475234985351562
-0.03217471763491630554199218750
0.00350399850867688655853271484
-0.07394906878471374511718750000
-0.12273989617824554443359375000
0.09015665948390960693359375000
0.06918689608573913574218750000
-0.16753648221492767333984375000
0.07252459973096847534179687500
0.01947805844247341156005859375
-0.03694832697510719299316406250
0.04328540712594985961914062500
0.04689513519406318664550781250
0.06089437380433082580566406250
-0.23778405785560607910156250000
0.00937470793724060058593750000
-0.04150643199682235717773437500
0.05170910432934761047363281250
0.02558837272226810455322265625
-0.02146364189684391021728515625
-0.02650554478168487548828125000
0.03352898359298706054687500000
0.04801958054304122924804687500
0.04579167068004608154296875000
-0.00681455666199326515197753906
-0.02200977504253387451171875000
0.08740775287151336669921875000
0.04165551066398620605468750000
0.00743367290124297142028808594
-0.14742211997509002685546875000
-0.12933693826198577880859375000
-0.02771481312811374664306640625
-0.07857821881771087646484375000
-0.34498816728591918945312500000
-0.00881350319832563400268554688
0.09957870095968246459960937500
-0.14142917096614837646484375000
-0.10621146112680435180664062500
0.03361620381474494934082031250
0.02075748518109321594238281250
-0.03738236054778099060058593750
0.02348007075488567352294921875
0.11122734099626541137695312500
-0.11110189557075500488281250000
-0.01119730249047279357910156250
0.00829584337770938873291015625
-0.07445421814918518066406250000
-0.04810312762856483459472656250
-0.07498208433389663696289062500
-0.00146822014357894659042358398
0.00291018304415047168731689453
-0.04360837489366531372070312500
0.03411260247230529785156250000
0.03700746968388557434082031250
0.00858405046164989471435546875
0.03356698900461196899414062500
-0.02012166008353233337402343750
0.04854620248079299926757812500
0.07892875373363494873046875000
0.00829199608415365219116210938
0.11665782332420349121093750000
-0.02441838383674621582031250000
-0.06596620380878448486328125000
-0.00529041793197393417358398438
0.02444933727383613586425781250
0.07276709377765655517578125000
-0.06507369130849838256835937500
0.03719591349363327026367187500
0.00067065970506519079208374023
0.10490886867046356201171875000
0.01402346044778823852539062500
-0.02361419051885604858398437500
-0.00512332096695899963378906250
0.04949613288044929504394531250
-0.05281186848878860473632812500
0.02674992755055427551269531250
0.06167788431048393249511718750
0.14961344003677368164062500000
-0.10656630992889404296875000000
0.10840120166540145874023437500
0.00897895265370607376098632812
-0.04259794205427169799804687500
-0.01174972206354141235351562500
-0.01802978664636611938476562500
-0.13487009704113006591796875000
0.01642570644617080688476562500
0.01409333851188421249389648438
-0.03420036658644676208496093750
0.04893722012639045715332031250
0.02302104234695434570312500000
-0.04801633954048156738281250000
0.02955651283264160156250000000
0.01756235025823116302490234375
0.07672245055437088012695312500
0.15574996173381805419921875000
-0.00341366115026175975799560547
-0.08518928289413452148437500000
-0.03531051799654960632324218750
0.04834515973925590515136718750
0.00108391186222434043884277344
0.05779925733804702758789062500
-0.04293532669544219970703125000
0.03928972035646438598632812500
-0.15074352920055389404296875000
-0.02879015170037746429443359375
0.03619656711816787719726562500
0.11292807757854461669921875000
0.06788879632949829101562500000
-0.02781158685684204101562500000
0.06144293397665023803710937500
-0.00829988811165094375610351562
0.14210811257362365722656250000
0.15574193000793457031250000000
-0.03429746255278587341308593750
0.02272715978324413299560546875
0.05498858168721199035644531250
0.09710773825645446777343750000
0.01985952258110046386718750000
0.08744814991950988769531250000
-0.03550346568226814270019531250
0.05595060437917709350585937500
-0.00857117865234613418579101562
0.03598755970597267150878906250
0.04544413462281227111816406250
0.04433374479413032531738281250
-0.14291803538799285888671875000
-0.00354396854527294635772705078
0.05480468645691871643066406250
0.01091712899506092071533203125
0.00899342726916074752807617188
-0.05265302211046218872070312500
0.04333528876304626464843750000
0.03501133993268013000488281250
-0.07375053316354751586914062500
0.02981114573776721954345703125
-0.15870626270771026611328125000
0.01545772328972816467285156250
0.08468835800886154174804687500
-0.01216054800897836685180664062
0.02042595483362674713134765625
0.08254826068878173828125000000
-0.16645731031894683837890625000
-0.08769153058528900146484375000
0.04218896478414535522460937500
0.03530731424689292907714843750
-0.01623424701392650604248046875
0.00977440085262060165405273438
0.18569318950176239013671875000
0.03125718235969543457031250000
-0.03492562845349311828613281250
-0.08862326294183731079101562500
-0.01128284074366092681884765625
-0.10622054338455200195312500000
-0.07575609534978866577148437500
-0.07564701884984970092773437500
0.03505932167172431945800781250
-0.10777014493942260742187500000
-0.04163119196891784667968750000
0.15408237278461456298828125000
-0.04168169200420379638671875000
0.05961768329143524169921875000
0.22583405673503875732421875000
0.02362005412578582763671875000
-0.01210056152194738388061523438
-0.02200606651604175567626953125
0.01614089682698249816894531250
-0.08055917918682098388671875000
0.01401746552437543869018554688
0.12557540833950042724609375000
-0.06506251543760299682617187500
-0.03530191630125045776367187500
0.04590353742241859436035156250
-0.04344511777162551879882812500
0.04047938808798789978027343750
-0.05277967453002929687500000000
0.01707753911614418029785156250
-0.07550644129514694213867187500
-0.01603358983993530273437500000
-0.09568699449300765991210937500
-0.02755566500127315521240234375
-0.01562206074595451354980468750
0.03759606182575225830078125000
0.03456707298755645751953125000
-0.18271383643150329589843750000
0.08287213742733001708984375000
0.03053905069828033447265625000
-0.16736875474452972412109375000
0.04075212404131889343261718750
0.04547498747706413269042968750
-0.02898427657783031463623046875
0.13167522847652435302734375000
-0.01484013907611370086669921875
-0.16989623010158538818359375000
0.11946050077676773071289062500
-0.02613967843353748321533203125
-0.00410222075879573822021484375
-0.02719653211534023284912109375
-0.17856489121913909912109375000
-0.03386007249355316162109375000
-0.00273594912141561508178710938
-0.02733788266777992248535156250
-0.01847320981323719024658203125
-0.01044031046330928802490234375
-0.02546180039644241333007812500
-0.06095004826784133911132812500
-0.05207676440477371215820312500
-0.27828475832939147949218750000
0.09920809417963027954101562500
0.06574431061744689941406250000
0.04835170879960060119628906250
-0.10142111778259277343750000000
0.15170231461524963378906250000
-0.07784149050712585449218750000
0.36979979276657104492187500000
0.00701806601136922836303710938
-0.01179437339305877685546875000
-0.00302685447968542575836181641
-0.00393153540790081024169921875
-0.06707376986742019653320312500
0.09602371603250503540039062500
0.19221414625644683837890625000
-0.09011541306972503662109375000
0.08088663965463638305664062500
-0.12362632155418395996093750000
-0.03400550782680511474609375000
0.06862430274486541748046875000
0.02839683741331100463867187500
-0.04822829738259315490722656250
0.00665045017376542091369628906
-0.03723560646176338195800781250
-0.07002852857112884521484375000
-0.14761769771575927734375000000
-0.05806543305516242980957031250
-0.08641339838504791259765625000
0.10256419330835342407226562500
0.09930961579084396362304687500
0.04926834627985954284667968750
-0.04686917737126350402832031250
-0.05791205167770385742187500000
-0.11787384748458862304687500000
-0.04724150523543357849121093750
0.04853539541363716125488281250
0.00450790720060467720031738281
0.07889878004789352416992187500
0.00644380738958716392517089844
-0.03669925779104232788085937500
0.02166346646845340728759765625
-0.03878038749098777770996093750
-0.11013725399971008300781250000
-0.01809531636536121368408203125
-0.01001877617090940475463867188
-0.14887987077236175537109375000
-0.03617056831717491149902343750
-0.07311565428972244262695312500
-0.01344068720936775207519531250
0.08382134884595870971679687500
-0.04632794857025146484375000000
0.05312351137399673461914062500
-0.02523021213710308074951171875
-0.05804406851530075073242187500
0.10606171935796737670898437500
-0.00473949220031499862670898438
0.06921431422233581542968750000
0.07744703441858291625976562500
-0.06595784425735473632812500000
0.01211057789623737335205078125
0.11820565164089202880859375000
-0.10501103848218917846679687500
-0.10081467777490615844726562500
0.05114226415753364562988281250
0.10829658806324005126953125000
0.06468699127435684204101562500
0.00879089348018169403076171875
-0.03118349052965641021728515625
-0.08896040916442871093750000000
-0.05345372483134269714355468750
0.02562792412936687469482421875
0.09245668351650238037109375000
0.03132537007331848144531250000
-0.02658792398869991302490234375
-0.00650005880743265151977539062
0.07267528772354125976562500000
0.12098792940378189086914062500
-0.03985658660531044006347656250
0.18581955134868621826171875000
-0.00366689334623515605926513672
0.08882449567317962646484375000
-0.09252092987298965454101562500
-0.01060275826603174209594726562
-0.07779276371002197265625000000
0.03138241171836853027343750000
-0.03934387490153312683105468750
0.11031029373407363891601562500
-0.04309534654021263122558593750
0.02243726514279842376708984375
-0.00894487183541059494018554688
-0.04915782809257507324218750000
-0.03058816865086555480957031250
0.18164381384849548339843750000
-0.03110572323203086853027343750
0.00920753926038742065429687500
0.00473729986697435379028320312
-0.10662220418453216552734375000
-0.11925085633993148803710937500
0.02831382304430007934570312500
-0.06682315468788146972656250000
-0.03761689364910125732421875000
0.01647996902465820312500000000
0.15234214067459106445312500000
-0.02861869893968105316162109375
0.08285866677761077880859375000
0.09853146225214004516601562500
0.01465164776891469955444335938
0.11295589804649353027343750000
-0.05143744498491287231445312500
-0.00362963019870221614837646484
-0.17932721972465515136718750000
-0.13333003222942352294921875000
0.09713320434093475341796875000
-0.20473530888557434082031250000
-0.01302997674793004989624023438
0.07982040941715240478515625000
-0.00319551769644021987915039062
-0.00640759058296680450439453125
-0.00423342036083340644836425781
0.01275866478681564331054687500
-0.02795837447047233581542968750
-0.01236074697226285934448242188
-0.07035604119300842285156250000
-0.06736294180154800415039062500
-0.00338220014236867427825927734
0.08645207434892654418945312500
-0.07182358950376510620117187500
-0.02638031542301177978515625000
0.11769393831491470336914062500
-0.14527566730976104736328125000
0.06909607350826263427734375000
0.02893714793026447296142578125
0.06794673204421997070312500000
0.10450170934200286865234375000
0.06023832783102989196777343750
-0.10594835877418518066406250000
-0.00173088849987834692001342773
0.08120401948690414428710937500
-0.22508281469345092773437500000
-0.25880545377731323242187500000
0.13643990457057952880859375000
-0.05983112379908561706542968750
-0.02794758230447769165039062500
0.01955810189247131347656250000
0.12645168602466583251953125000
0.04450918734073638916015625000
-0.02236505597829818725585937500
-0.04103171080350875854492187500
0.05605084449052810668945312500
-0.01563579961657524108886718750
-0.00710604386404156684875488281
-0.04504046961665153503417968750
-0.00277868704870343208312988281
0.13878680765628814697265625000
-0.08797433227300643920898437500
-0.08068276196718215942382812500
0.12034823000431060791015625000
0.07699246704578399658203125000
-0.00037213202449493110179901123
0.08066299557685852050781250000
0.05913455784320831298828125000
-0.01436171773821115493774414062
-0.01550056319683790206909179688
0.04570173844695091247558593750
-0.07672318071126937866210937500
-0.21009580790996551513671875000
-0.05759758874773979187011718750
-0.13411273062229156494140625000
-0.08388524502515792846679687500
-0.04146861284971237182617187500
-0.04822590202093124389648437500
0.00642210897058248519897460938
-0.07762560248374938964843750000
0.12360640615224838256835937500
-0.05920889228582382202148437500
0.07722228765487670898437500000
-0.13807989656925201416015625000
0.09077587723731994628906250000
0.06670676916837692260742187500
-0.08667685836553573608398437500
0.27625158429145812988281250000
-0.08732839673757553100585937500
-0.11598861217498779296875000000
0.06274852156639099121093750000
-0.00981118157505989074707031250
0.05343196541070938110351562500
-0.05085691064596176147460937500
-0.00425927713513374328613281250
0.00632433965802192687988281250
0.08572565764188766479492187500
-0.15497003495693206787109375000
-0.12503698468208312988281250000
0.00010769828077172860503196716
-0.22770683467388153076171875000
-0.12173234671354293823242187500
0.09234374761581420898437500000
-0.16691967844963073730468750000
-0.02689746208488941192626953125
-0.01380752027034759521484375000
0.05485196784138679504394531250
0.09823872894048690795898437500
0.20595242083072662353515625000
-0.07697620242834091186523437500
0.01585919782519340515136718750
0.11238318681716918945312500000
-0.06039645150303840637207031250
-0.06885839253664016723632812500
-0.08729761838912963867187500000
0.02999253384768962860107421875
0.04514554515480995178222656250
-0.05480080470442771911621093750
-0.14314740896224975585937500000
-0.04552610963582992553710937500
-0.10313998162746429443359375000
-0.17597639560699462890625000000
-0.09053235501050949096679687500
0.09171497821807861328125000000
0.13742981851100921630859375000
-0.02586848847568035125732421875
0.00355710065923631191253662109
-0.12110497057437896728515625000
-0.08677037805318832397460937500
0.01493081171065568923950195312
0.01150417421013116836547851562
-0.01667251810431480407714843750
-0.02852567099034786224365234375
0.03069864772260189056396484375
-0.05746611580252647399902343750
-0.03873744606971740722656250000
-0.04153995588421821594238281250
0.06217440962791442871093750000
-0.02798714861273765563964843750
0.05355821177363395690917968750
-0.04895855858922004699707031250
-0.00017613038653507828712463379
-0.04757427051663398742675781250
-0.08467279374599456787109375000
-0.03387739509344100952148437500
0.19061414897441864013671875000
0.11113886535167694091796875000
0.03589276224374771118164062500
-0.09229103475809097290039062500
0.06396655738353729248046875000
0.11232952773571014404296875000
-0.06688129901885986328125000000
0.12647885084152221679687500000
0.07599063962697982788085937500
-0.08267991244792938232421875000
-0.01105316635221242904663085938
0.02973347157239913940429687500
0.03527948632836341857910156250
0.06800460070371627807617187500
0.02206661924719810485839843750
0.02450668625533580780029296875
0.07027941197156906127929687500
0.00279062474146485328674316406
0.07995303720235824584960937500
0.04885802417993545532226562500
-0.05310424789786338806152343750
-0.11239695549011230468750000000
0.05687881633639335632324218750
-0.09257671982049942016601562500
0.02482729032635688781738281250
-0.13212928175926208496093750000
-0.08316988497972488403320312500
-0.02805620618164539337158203125
0.07703903317451477050781250000
0.25500532984733581542968750000
-0.05456341803073883056640625000
0.03863331303000450134277343750
-0.08051220327615737915039062500
-0.03743197396397590637207031250
-0.19661897420883178710937500000
0.10540517419576644897460937500
0.01800681278109550476074218750
0.03259496763348579406738281250
0.13994818925857543945312500000
-0.06161736696958541870117187500
0.07867175340652465820312500000
0.07033717632293701171875000000
0.03275523707270622253417968750
0.12420972436666488647460937500
0.04642836749553680419921875000
0.06589451432228088378906250000
-0.06295560300350189208984375000
0.00583553919568657875061035156
0.09215833991765975952148437500
0.00629457458853721618652343750
0.02639356628060340881347656250
-0.06869085878133773803710937500
-0.03578580543398857116699218750
-0.11151988059282302856445312500
0.00307138846255838871002197266
0.07270961254835128784179687500
-0.01283148769289255142211914062
0.10769557952880859375000000000
0.02526357583701610565185546875
0.10957993566989898681640625000
0.00221876124851405620574951172
0.12406317889690399169921875000
-0.09280523657798767089843750000
0.13120810687541961669921875000
0.00904039293527603149414062500
0.05663847178220748901367187500
-0.02735647559165954589843750000
0.05952965095639228820800781250
0.17658658325672149658203125000
0.07245407998561859130859375000
0.00881220865994691848754882812
0.01816164329648017883300781250
-0.01738001406192779541015625000
0.00929647125303745269775390625
-0.06356886029243469238281250000
-0.01873230002820491790771484375
0.05321290343999862670898437500
0.03375031054019927978515625000
-0.10622910410165786743164062500
0.05487302318215370178222656250
0.07077909260988235473632812500
0.14889772236347198486328125000
0.02466632053256034851074218750
0.13816085457801818847656250000
-0.09667657315731048583984375000
-0.05277118459343910217285156250
0.10639490932226181030273437500
-0.07154783606529235839843750000
-0.00267183431424200534820556641
-0.01121141202747821807861328125
0.00370449549518525600433349609
0.01404612790793180465698242188
-0.02260659448802471160888671875
-0.02679052948951721191406250000
-0.09638699889183044433593750000
0.09417291730642318725585937500
0.00237540015950798988342285156
-0.00126210728194564580917358398
-0.06961835175752639770507812500
-0.07860536873340606689453125000
0.08877221494913101196289062500
-0.07757940143346786499023437500
0.08889646083116531372070312500
0.02660812996327877044677734375
-0.13138996064662933349609375000
-0.00496114278212189674377441406
0.00213842629455029964447021484
-0.00689812283962965011596679688
-0.03131928294897079467773437500
0.01704441197216510772705078125
-0.12180656939744949340820312500
-0.01744096726179122924804687500
-0.04184468463063240051269531250
-0.08642723411321640014648437500
0.08466812968254089355468750000
0.04515343159437179565429687500
-0.00402998225763440132141113281
-0.02480121143162250518798828125
0.06237478554248809814453125000
0.07310208678245544433593750000
-0.02266243845224380493164062500
0.06534690409898757934570312500
0.12621693313121795654296875000
-0.01785515435039997100830078125
0.02037556655704975128173828125
-0.10620933026075363159179687500
-0.05004670843482017517089843750
-0.03976724669337272644042968750
-0.04165102168917655944824218750
-0.00205219327472150325775146484
0.00069932139012962579727172852
0.12780886888504028320312500000
0.05511622503399848937988281250
-0.03378007560968399047851562500
-0.03834632039070129394531250000
0.06682886183261871337890625000
0.06913896650075912475585937500
-0.15228538215160369873046875000
-0.00580576946958899497985839844
-0.00039031280903145670890808105
-0.02627234347164630889892578125
-0.07691745460033416748046875000
0.02983597107231616973876953125
0.02960491925477981567382812500
-0.04505508765578269958496093750
0.02740845084190368652343750000
-0.02628867141902446746826171875
0.03154363110661506652832031250
-0.05705931037664413452148437500
0.05310631170868873596191406250
0.04337570443749427795410156250
-0.13639713823795318603515625000
0.08460193872451782226562500000
0.12766408920288085937500000000
0.01075468305498361587524414062
0.02666842192411422729492187500
-0.02584179304540157318115234375
0.26882469654083251953125000000
0.03742234408855438232421875000
-0.06995707750320434570312500000
-0.09016133844852447509765625000
-0.02855141647160053253173828125
0.19355610013008117675781250000
0.01107971183955669403076171875
0.06604535877704620361328125000
-0.00039029848994687199592590332
-0.07969497144222259521484375000
-0.14710664749145507812500000000
0.01402324717491865158081054688
0.01179736852645874023437500000
0.14409874379634857177734375000
-0.04465214535593986511230468750
0.02390603721141815185546875000
0.09988644719123840332031250000
-0.00944873224943876266479492188
0.09490166604518890380859375000
0.00183897046372294425964355469
-0.07333539426326751708984375000
-0.06166097894310951232910156250
0.04339404404163360595703125000
0.07968664914369583129882812500
-0.04596902057528495788574218750
-0.01836654916405677795410156250
-0.07182111591100692749023437500
-0.08044560253620147705078125000
0.02170984819531440734863281250
0.13394257426261901855468750000
0.00507305189967155456542968750
-0.02650841698050498962402343750
-0.05759647488594055175781250000
-0.01497368048876523971557617188
-0.11262847483158111572265625000
-0.02741312794387340545654296875
0.11665157228708267211914062500
0.03721319884061813354492187500
-0.06185625493526458740234375000
0.04255437105894088745117187500
-0.15260086953639984130859375000
0.10823611170053482055664062500
-0.08303277194499969482421875000
0.02651464752852916717529296875
0.03663704916834831237792968750
0.00631759921088814735412597656
-0.01843544468283653259277343750
0.16353178024291992187500000000
-0.01448855642229318618774414062
0.01869563944637775421142578125
-0.06668757647275924682617187500
0.10104874521493911743164062500
-0.11974478513002395629882812500
-0.02463236264884471893310546875
-0.22661657631397247314453125000
0.06713251769542694091796875000
0.00209817057475447654724121094
0.01463837642222642898559570312
0.06093944981694221496582031250
-0.00052042538300156593322753906
-0.02096225693821907043457031250
0.10111255943775177001953125000
-0.08206287026405334472656250000
0.18258249759674072265625000000
-0.04417956620454788208007812500
0.11129509657621383666992187500
0.04082358628511428833007812500
-0.05673756077885627746582031250
0.04184451699256896972656250000
0.05201609805226325988769531250
-0.01325645297765731811523437500
-0.09298642724752426147460937500
-0.01199775002896785736083984375
-0.07993643730878829956054687500
-0.07939735800027847290039062500
-0.16534978151321411132812500000
0.03311916813254356384277343750
0.00217925617471337318420410156
0.12373483926057815551757812500
-0.14350071549415588378906250000
0.10482903569936752319335937500
-0.16416193544864654541015625000
-0.02617403864860534667968750000
-0.01415270660072565078735351562
0.04752784967422485351562500000
0.04387002438306808471679687500
-0.05360563099384307861328125000
0.03210028633475303649902343750
-0.02705621533095836639404296875
0.05668175220489501953125000000
0.12297563999891281127929687500
-0.03493428230285644531250000000
-0.05281435325741767883300781250
-0.01212870795279741287231445312
-0.08378642797470092773437500000
0.05063434690237045288085937500
-0.05260761454701423645019531250
0.06069943308830261230468750000
-0.02427113801240921020507812500
0.15444225072860717773437500000
0.07702502608299255371093750000
-0.13182023167610168457031250000
0.02679244801402091979980468750
-0.03532379865646362304687500000
0.06266819685697555541992187500
0.06061872094869613647460937500
-0.08661719411611557006835937500
0.08779463171958923339843750000
0.13150425255298614501953125000
-0.00350252748467028141021728516
-0.02624248340725898742675781250
0.12069404870271682739257812500
0.01047704927623271942138671875
-0.04347297549247741699218750000
-0.07625889033079147338867187500
-0.09110432863235473632812500000
0.01526572369039058685302734375
-0.10035753250122070312500000000
0.01687408797442913055419921875
-0.07021094858646392822265625000
-0.00076479488052427768707275391
-0.04611215367913246154785156250
0.21052280068397521972656250000
-0.03521649539470672607421875000
-0.04732576012611389160156250000
-0.00602789595723152160644531250
-0.07487885653972625732421875000
0.19200173020362854003906250000
0.13407681882381439208984375000
0.16750888526439666748046875000
0.00897243432700634002685546875
-0.06438871473073959350585937500
0.01406808756291866302490234375
0.01230554375797510147094726562
0.04987794905900955200195312500
0.12530134618282318115234375000
0.02431771904230117797851562500
0.03144975006580352783203125000
-0.06959559768438339233398437500
0.00543285813182592391967773438
-0.00235818629153072834014892578
0.08240071684122085571289062500
0.00684882141649723052978515625
0.05644783377647399902343750000
0.14501886069774627685546875000
-0.09317050129175186157226562500
-0.03711172565817832946777343750
0.14780291914939880371093750000
-0.07254565507173538208007812500
0.12539352476596832275390625000
-0.00696305371820926666259765625
0.10150861740112304687500000000
-0.09279228001832962036132812500
0.16003428399562835693359375000
0.09716814011335372924804687500
-0.04789461940526962280273437500
-0.15861046314239501953125000000
0.09225997328758239746093750000
0.00001187585348816355690360069
0.14444302022457122802734375000
0.05675399303436279296875000000
-0.02601590007543563842773437500
-0.00232397555373609066009521484
-0.07062658667564392089843750000
0.02463265322148799896240234375
0.03680850937962532043457031250
-0.04584182798862457275390625000
-0.07017333060503005981445312500
0.09707793593406677246093750000
-0.13335010409355163574218750000
0.11259184032678604125976562500
-0.02024786360561847686767578125
-0.04487879946827888488769531250
-0.14594522118568420410156250000
-0.02136360108852386474609375000
-0.00918885879218578338623046875
0.04992006719112396240234375000
0.13058616220951080322265625000
0.01296607684344053268432617188
0.00194150733295828104019165039
-0.08761351555585861206054687500
0.04786881059408187866210937500
0.06231316179037094116210937500
-0.12227207422256469726562500000
0.02876286767423152923583984375
0.02316817268729209899902343750
0.02407563664019107818603515625
-0.05484163761138916015625000000
0.05519391968846321105957031250
0.00455078808590769767761230469
0.19618426263332366943359375000
0.03421137109398841857910156250
-0.11302483081817626953125000000
-0.06708495318889617919921875000
-0.12775306403636932373046875000
-0.14354468882083892822265625000
0.05008330196142196655273437500
0.06776529550552368164062500000
0.04030560702085494995117187500
-0.05248710140585899353027343750
-0.09893605113029479980468750000
-0.05314299464225769042968750000
0.04672132804989814758300781250
0.04896832630038261413574218750
0.05849989503622055053710937500
0.01328329555690288543701171875
-0.01827824115753173828125000000
-0.04373680055141448974609375000
0.18428787589073181152343750000
-0.10791470855474472045898437500
0.05742375552654266357421875000
-0.03487621620297431945800781250
0.07188677042722702026367187500
0.05322330817580223083496093750
0.02307135611772537231445312500
-0.04601067677140235900878906250
0.05914370715618133544921875000
0.01963722147047519683837890625
0.09006249159574508666992187500
0.04652633145451545715332031250
-0.12693697214126586914062500000
-0.13432358205318450927734375000
-0.08018163591623306274414062500
0.02195635251700878143310546875
-0.06157622858881950378417968750
0.00346577353775501251220703125
0.12616613507270812988281250000
0.35579106211662292480468750000
0.10444978624582290649414062500
-0.19716461002826690673828125000
0.05433522909879684448242187500
0.13949732482433319091796875000
0.01405820064246654510498046875
0.09375207871198654174804687500
0.07420995086431503295898437500
0.00788795948028564453125000000
0.21298561990261077880859375000
-0.01539300289005041122436523438
-0.00732401991263031959533691406
0.00628736382350325584411621094
-0.04178579151630401611328125000
-0.19775331020355224609375000000
-0.06580419093370437622070312500
-0.17892213165760040283203125000
0.06816395372152328491210937500
-0.15184335410594940185546875000
0.03851871937513351440429687500
0.06450261920690536499023437500
-0.00496716471388936042785644531
-0.17497925460338592529296875000
0.03660448268055915832519531250
0.01053253654390573501586914062
-0.05312259495258331298828125000
-0.04083638638257980346679687500
0.01113405078649520874023437500
0.09603543579578399658203125000
0.34429040551185607910156250000
-0.13344426453113555908203125000
0.16164493560791015625000000000
-0.03058107942342758178710937500
0.01932450570166110992431640625
-0.16061888635158538818359375000
-0.11447821557521820068359375000
0.02975532971322536468505859375
0.06322525441646575927734375000
0.10202088207006454467773437500
0.02485616877675056457519531250
0.00142207194585353136062622070
-0.11613293737173080444335937500
-0.06020352989435195922851562500
-0.11210331320762634277343750000
-0.02953591942787170410156250000
-0.12258030474185943603515625000
-0.08753996342420578002929687500
-0.14111171662807464599609375000
0.06056375429034233093261718750
0.40133607387542724609375000000
0.08761479705572128295898437500
0.03177227824926376342773437500
-0.11841684579849243164062500000
0.06713519990444183349609375000
-0.08577749878168106079101562500
0.09308213740587234497070312500
0.02236717380583286285400390625
0.14256158471107482910156250000
-0.05754849314689636230468750000
-0.06258556246757507324218750000
0.10570351779460906982421875000
-0.01691992022097110748291015625
-0.11055771261453628540039062500
0.06798504292964935302734375000
0.03098953515291213989257812500
0.08872320502996444702148437500
0.03335341811180114746093750000
-0.16668948531150817871093750000
-0.13954588770866394042968750000
-0.05528487265110015869140625000
-0.25328901410102844238281250000
0.01628428883850574493408203125
0.01796688511967658996582031250
0.00887766387313604354858398438
-0.04202197119593620300292968750
0.04687385633587837219238281250
-0.00776535039767622947692871094
-0.05950082093477249145507812500
0.04484842345118522644042968750
0.06813185662031173706054687500
-0.06374029815196990966796875000
0.12884025275707244873046875000
0.04095755890011787414550781250
0.09562624245882034301757812500
0.04813873767852783203125000000
-0.05803007632493972778320312500
-0.04576899111270904541015625000
0.04455576092004776000976562500
0.03835568204522132873535156250
0.02139025926589965820312500000
0.02183458581566810607910156250
0.03093123063445091247558593750
0.04723315685987472534179687500
0.10403061658143997192382812500
-0.02856086567044258117675781250
-0.03201203048229217529296875000
0.19345776736736297607421875000
-0.00665059126913547515869140625
0.01409286726266145706176757812
-0.01168260723352432250976562500
0.13456414639949798583984375000
-0.11420418322086334228515625000
-0.01052774488925933837890625000
0.14547225832939147949218750000
0.03205719962716102600097656250
-0.01620777510106563568115234375
0.07465086132287979125976562500
0.18558521568775177001953125000
-0.01658276282250881195068359375
0.00624941242858767509460449219
-0.06806919723749160766601562500
0.08240698277950286865234375000
-0.07107224315404891967773437500
-0.03544170781970024108886718750
-0.04677614569664001464843750000
0.00494621461257338523864746094
-0.01628554984927177429199218750
0.08681705594062805175781250000
0.01731209829449653625488281250
-0.07677564024925231933593750000
0.08282350003719329833984375000
-0.06779827177524566650390625000
-0.01112624909728765487670898438
0.03219223394989967346191406250
-0.16066852211952209472656250000
0.13133643567562103271484375000
0.14960543811321258544921875000
0.13735951483249664306640625000
-0.03116745688021183013916015625
-0.03763216733932495117187500000
0.01354747824370861053466796875
-0.04549618437886238098144531250
0.12868911027908325195312500000
0.08881889283657073974609375000
0.06825330108404159545898437500
-0.07540037482976913452148437500
-0.11247829347848892211914062500
-0.00067502347519621253013610840
-0.07786966860294342041015625000
0.03580160439014434814453125000
-0.15632592141628265380859375000
-0.02653367072343826293945312500
-0.16899119317531585693359375000
-0.08386668562889099121093750000
0.02141873165965080261230468750
-0.02598012425005435943603515625
0.05485374853014945983886718750
0.00663991691544651985168457031
0.01795587874948978424072265625
0.01233735028654336929321289062
0.01158508565276861190795898438
-0.26071700453758239746093750000
0.00618960987776517868041992188
0.13472647964954376220703125000
0.05990794301033020019531250000
0.05637922510504722595214843750
0.03159673884510993957519531250
0.01106596644967794418334960938
0.00411702971905469894409179688
0.28843364119529724121093750000
0.09733112156391143798828125000
-0.05909938365221023559570312500
0.20813709497451782226562500000
-0.08699839562177658081054687500
-0.03422394022345542907714843750
0.00455704750493168830871582031
0.02645569108426570892333984375
0.04351070150732994079589843750
0.05419708415865898132324218750
0.08433634042739868164062500000
-0.10637638717889785766601562500
-0.08772717416286468505859375000
0.02919912151992321014404296875
0.03327551856637001037597656250
0.02011681720614433288574218750
0.01708123274147510528564453125
0.03085572645068168640136718750
-0.19060000777244567871093750000
0.02902309596538543701171875000
0.02203321643173694610595703125
0.14678518474102020263671875000
-0.10027158260345458984375000000
0.02190313488245010375976562500
-0.14335596561431884765625000000
-0.01958936825394630432128906250
0.15976318717002868652343750000
-0.02622666768729686737060546875
-0.01472160406410694122314453125
-0.02484172396361827850341796875
-0.00635140156373381614685058594
0.00326071563176810741424560547
0.09381000697612762451171875000
-0.01806855574250221252441406250
0.04308941960334777832031250000
-0.02571914531290531158447265625
0.03869428485631942749023437500
0.19870656728744506835937500000
-0.01130737457424402236938476562
0.20840728282928466796875000000
0.05983221530914306640625000000
-0.07590817660093307495117187500
0.05032527819275856018066406250
-0.15420839190483093261718750000
-0.30486622452735900878906250000
0.04626154527068138122558593750
0.08556991070508956909179687500
-0.07461808621883392333984375000
-0.05146478116512298583984375000
-0.05115564540028572082519531250
-0.01886916533112525939941406250
0.05145189538598060607910156250
-0.03852261602878570556640625000
0.03585842251777648925781250000
-0.05219295248389244079589843750
-0.00892616342753171920776367188
0.04196217283606529235839843750
-0.04399243369698524475097656250
0.08312252908945083618164062500
0.01124042458832263946533203125
-0.02334524877369403839111328125
0.03707857429981231689453125000
-0.09687144309282302856445312500
0.00961536820977926254272460938
-0.01315278094261884689331054688
-0.00949683785438537597656250000
-0.04864682257175445556640625000
-0.10539939999580383300781250000
-0.12527735531330108642578125000
0.07190623879432678222656250000
-0.07921627163887023925781250000
-0.04517229646444320678710937500
0.13096123933792114257812500000
0.09839221835136413574218750000
0.03281073644757270812988281250
-0.05969261750578880310058593750
-0.07168293744325637817382812500
0.09334999322891235351562500000
-0.18084970116615295410156250000
0.21645551919937133789062500000
0.05997595563530921936035156250
-0.04952113702893257141113281250
-0.15748094022274017333984375000
0.01806119456887245178222656250
0.13891693949699401855468750000
-0.06572432816028594970703125000
-0.05138223618268966674804687500
-0.01202591042965650558471679688
-0.19975677132606506347656250000
-0.03769725933670997619628906250
-0.10154037177562713623046875000
-0.02151751704514026641845703125
0.13034448027610778808593750000
-0.06978754699230194091796875000
-0.05624274536967277526855468750
-0.11720422655344009399414062500
-0.02208201959729194641113281250
-0.21345105767250061035156250000
-0.02837727218866348266601562500
0.02080757915973663330078125000
0.09058260917663574218750000000
-0.21050246059894561767578125000
0.03094916045665740966796875000
-0.19786836206912994384765625000
0.04840702563524246215820312500
0.05704845488071441650390625000
0.06714960187673568725585937500
-0.05242625996470451354980468750
-0.02473146095871925354003906250
-0.02822676673531532287597656250
0.13417053222656250000000000000
0.05115932226181030273437500000
0.02324456535279750823974609375
0.00305451219901442527770996094
0.05793675407767295837402343750
-0.04231201857328414916992187500
0.16064906120300292968750000000
0.09364572167396545410156250000
-0.04850946739315986633300781250
0.11582515388727188110351562500
0.27534413337707519531250000000
-0.02854002639651298522949218750
-0.04431367665529251098632812500
-0.01290416345000267028808593750
-0.13034741580486297607421875000
0.06545661389827728271484375000
-0.15283161401748657226562500000
-0.08684400469064712524414062500
0.06582363694906234741210937500
0.10931169241666793823242187500
0.13128869235515594482421875000
-0.05160640180110931396484375000
0.03360025212168693542480468750
0.03183385357260704040527343750
0.16153386235237121582031250000
-0.02604667469859123229980468750
-0.00855041574686765670776367188
0.00293479464016854763031005859
-0.08207059651613235473632812500
-0.09811362624168395996093750000
0.10300675779581069946289062500
-0.02474353276193141937255859375
0.07025752216577529907226562500
-0.02282312139868736267089843750
-0.01179998554289340972900390625
-0.02749125659465789794921875000
-0.06149901449680328369140625000
-0.01781850866973400115966796875
0.08823147416114807128906250000
0.20934429764747619628906250000
-0.01588879339396953582763671875
0.02484025433659553527832031250
0.05789902806282043457031250000
0.01559469662606716156005859375
0.15087513625621795654296875000
0.06860163807868957519531250000
0.00318968854844570159912109375
0.14192581176757812500000000000
-0.06453841179609298706054687500
0.02422171272337436676025390625
0.03160561621189117431640625000
0.00018409905896987766027450562
0.03612596169114112854003906250
0.08822529762983322143554687500
0.01468636933714151382446289062
0.04107610881328582763671875000
0.04607664048671722412109375000
0.04006743431091308593750000000
-0.03288835659623146057128906250
0.05450746417045593261718750000
-0.10565894842147827148437500000
-0.02185898832976818084716796875
-0.08441114425659179687500000000
-0.00726932380348443984985351562
0.07539483159780502319335937500
0.03802004456520080566406250000
-0.02644401043653488159179687500
0.06875260174274444580078125000
0.03448931500315666198730468750
-0.07036761194467544555664062500
0.11476524919271469116210937500
-0.01776386983692646026611328125
0.03135736286640167236328125000
0.08416186273097991943359375000
0.05616021528840065002441406250
-0.00734124006703495979309082031
-0.01362773124128580093383789062
0.01289720926433801651000976562
0.15288786590099334716796875000
0.00601354287937283515930175781
-0.10169775784015655517578125000
-0.07310400158166885375976562500
0.12319049984216690063476562500
-0.09498859196901321411132812500
0.08048620820045471191406250000
-0.12542383372783660888671875000
0.06355091929435729980468750000
0.12825545668601989746093750000
-0.22880339622497558593750000000
0.04139417037367820739746093750
0.05891760811209678649902343750
-0.09746836870908737182617187500
0.00985319353640079498291015625
0.04938289150595664978027343750
0.01230794563889503479003906250
0.03283875435590744018554687500
-0.01884764432907104492187500000
-0.23183353245258331298828125000
-0.10146836191415786743164062500
0.11518487334251403808593750000
0.01436467096209526062011718750
0.08273750543594360351562500000
-0.08100790530443191528320312500
0.02321243844926357269287109375
0.12550108134746551513671875000
0.06350921839475631713867187500
-0.10614015161991119384765625000
-0.03019073791801929473876953125
-0.10824379324913024902343750000
-0.06248065829277038574218750000
0.05224791914224624633789062500
0.06549496948719024658203125000
-0.03398249298334121704101562500
-0.06582778692245483398437500000
-0.04496832937002182006835937500
-0.39217743277549743652343750000
0.03305919840931892395019531250
-0.10050613433122634887695312500
-0.02229581028223037719726562500
0.05926487967371940612792968750
0.00798923801630735397338867188
-0.02429042384028434753417968750
-0.10378379374742507934570312500
0.07708414644002914428710937500
0.12271350622177124023437500000
-0.03915930911898612976074218750
0.04375023394823074340820312500
-0.05504837259650230407714843750
0.05213182419538497924804687500
-0.02281510643661022186279296875
0.09287232905626296997070312500
0.07446344941854476928710937500
0.01611593179404735565185546875
-0.11299776285886764526367187500
-0.01402445603162050247192382812
0.00317994225770235061645507812
-0.11885795742273330688476562500
0.00452753575518727302551269531
-0.31415468454360961914062500000
0.02993270754814147949218750000
0.05931618064641952514648437500
0.03227274492383003234863281250
0.00190050061792135238647460938
0.11575032770633697509765625000
0.13926279544830322265625000000
-0.00566323008388280868530273438
0.01103827171027660369873046875
-0.01377861946821212768554687500
0.04098992422223091125488281250
-0.12807264924049377441406250000
0.00582635402679443359375000000
0.07055792212486267089843750000
0.02185476757586002349853515625
-0.01380059029906988143920898438
-0.12684024870395660400390625000
0.05653963238000869750976562500
0.04055466130375862121582031250
0.08495412021875381469726562500
0.09719082713127136230468750000
-0.16467469930648803710937500000
0.01939052902162075042724609375
-0.20776231586933135986328125000
-0.04454819858074188232421875000
0.04940665140748023986816406250
0.15666411817073822021484375000
-0.04503657296299934387207031250
-0.07670111209154129028320312500
-0.12317600846290588378906250000
0.02300732210278511047363281250
-0.03823433071374893188476562500
0.13719116151332855224609375000
-0.06892833858728408813476562500
-0.02561544626951217651367187500
-0.06658328324556350708007812500
0.07212132960557937622070312500
0.00616999855265021324157714844
0.05782704427838325500488281250
0.04204882681369781494140625000
0.04559688642621040344238281250
-0.01116563193500041961669921875
-0.01332405954599380493164062500
-0.10036030411720275878906250000
0.02539054118096828460693359375
-0.14796236157417297363281250000
0.02194768190383911132812500000
-0.10013741999864578247070312500
-0.04117972403764724731445312500
0.05559559166431427001953125000
0.00954446475952863693237304688
0.04683287069201469421386718750
-0.05091650038957595825195312500
0.02996304072439670562744140625
-0.09396579116582870483398437500
-0.12530168890953063964843750000
-0.05253090709447860717773437500
-0.17441627383232116699218750000
-0.04108917713165283203125000000
-0.00850508082658052444458007812
-0.20167507231235504150390625000
-0.01790546812117099761962890625
-0.04552892595529556274414062500
-0.01268586516380310058593750000
0.11211301386356353759765625000
0.01919098570942878723144531250
-0.15098510682582855224609375000
0.01824707165360450744628906250
-0.04540596157312393188476562500
-0.07303772866725921630859375000
0.19774702191352844238281250000
-0.09725717455148696899414062500
0.07393699884414672851562500000
0.21640117466449737548828125000
-0.01566713303327560424804687500
0.03456567600369453430175781250
0.13440459966659545898437500000
0.00873138848692178726196289062
-0.03877999633550643920898437500
-0.00050764239858835935592651367
0.00598835153505206108093261719
0.07341642677783966064453125000
0.05511833727359771728515625000
-0.07135514914989471435546875000
0.35292634367942810058593750000
-0.05472497269511222839355468750
-0.02011990174651145935058593750
-0.03732720389962196350097656250
-0.00637752609327435493469238281
0.00511734466999769210815429688
0.02227708511054515838623046875
0.06074532866477966308593750000
-0.07917769998311996459960937500
0.04016892239451408386230468750
-0.07412730902433395385742187500
-0.01391377020627260208129882812
-0.02752777747809886932373046875
-0.07104370743036270141601562500
0.03692731633782386779785156250
-0.02977548912167549133300781250
-0.08771231770515441894531250000
-0.18283444643020629882812500000
0.02488622255623340606689453125
0.05997611954808235168457031250
0.11477121710777282714843750000
0.00466653285548090934753417969
-0.03383307531476020812988281250
-0.03182464092969894409179687500
-0.01815160177648067474365234375
-0.04276017472147941589355468750
-0.00171342631801962852478027344
0.01642649434506893157958984375
0.03584526479244232177734375000
0.12055377662181854248046875000
0.20423670113086700439453125000
0.09528547525405883789062500000
0.02888167649507522583007812500
0.09322253614664077758789062500
0.03319263458251953125000000000
-0.05128023028373718261718750000
-0.01662294007837772369384765625
0.00074650166789069771766662598
-0.02227550372481346130371093750
0.06566867232322692871093750000
0.01168273296207189559936523438
0.05331651121377944946289062500
-0.05431052669882774353027343750
-0.01385253760963678359985351562
0.07421367615461349487304687500
-0.06078784912824630737304687500
-0.09611154347658157348632812500
0.04228678345680236816406250000
-0.01134911458939313888549804688
-0.12634401023387908935546875000
-0.20951937139034271240234375000
-0.09000185132026672363281250000
-0.02232288941740989685058593750
-0.02504112757742404937744140625
0.00713997147977352142333984375
-0.14237955212593078613281250000
-0.02646210044622421264648437500
-0.14500913023948669433593750000
0.02458550594747066497802734375
0.07201405614614486694335937500
0.01191998086869716644287109375
-0.00876648817211389541625976562
0.12222235649824142456054687500
-0.01334908325225114822387695312
-0.09116876125335693359375000000
-0.08091306686401367187500000000
-0.03737527132034301757812500000
0.02284589409828186035156250000
-0.05846887454390525817871093750
-0.12574891746044158935546875000
0.00570567976683378219604492188
0.00704768020659685134887695312
-0.09289433807134628295898437500
0.02876559644937515258789062500
-0.09002528339624404907226562500
0.06237192824482917785644531250
-0.03352607414126396179199218750
0.01310225576162338256835937500
0.02122485265135765075683593750
0.07110025733709335327148437500
-0.01179431844502687454223632812
0.03590836375951766967773437500
0.02572198398411273956298828125
-0.07504253089427947998046875000
-0.07055412977933883666992187500
0.02022997662425041198730468750
0.00950212124735116958618164062
-0.06469976902008056640625000000
-0.04745139554142951965332031250
0.04516298696398735046386718750
-0.01014055125415325164794921875
0.04630859196186065673828125000
-0.02575481683015823364257812500
-0.01466574613004922866821289062
-0.05173193290829658508300781250
0.03662578016519546508789062500
0.11597464978694915771484375000
0.02664865553379058837890625000
0.16590289771556854248046875000
-0.08022733777761459350585937500
0.06340505182743072509765625000
-0.08647882193326950073242187500
0.33847275376319885253906250000
0.00009171155397780239582061768
-0.11853116750717163085937500000
0.04491114988923072814941406250
-0.03338762372732162475585937500
0.09796553850173950195312500000
-0.17284336686134338378906250000
-0.03908398747444152832031250000
0.01079069450497627258300781250
0.13925796747207641601562500000
-0.07990062981843948364257812500
-0.03009112924337387084960937500
-0.02033346705138683319091796875
-0.05235140398144721984863281250
-0.05647115036845207214355468750
0.01075949799269437789916992188
0.05291538313031196594238281250
-0.08380141109228134155273437500
0.01401957124471664428710937500
0.02786432951688766479492187500
0.08340492099523544311523437500
-0.04164592921733856201171875000
0.17231784760951995849609375000
-0.01205287594348192214965820312
-0.01150657422840595245361328125
0.10935972630977630615234375000
-0.07772438973188400268554687500
0.09257820248603820800781250000
0.13519883155822753906250000000
0.03350726515054702758789062500
-0.11734148114919662475585937500
0.10816625505685806274414062500
0.00666843727231025695800781250
0.10292893648147583007812500000
0.04542695358395576477050781250
-0.00790073908865451812744140625
-0.06340958178043365478515625000
0.01605440676212310791015625000
0.02877626009285449981689453125
-0.06625676900148391723632812500
-0.02206080220639705657958984375
-0.06569618731737136840820312500
-0.03938274458050727844238281250
-0.04210114106535911560058593750
-0.02933175489306449890136718750
0.02533167973160743713378906250
0.07669743895530700683593750000
0.29832959175109863281250000000
0.10936845839023590087890625000
-0.08507972210645675659179687500
-0.03785260766744613647460937500
0.03907451033592224121093750000
0.00722232321277260780334472656
-0.12403596192598342895507812500
0.02097192965447902679443359375
0.09370947629213333129882812500
0.15768891572952270507812500000
0.03076583333313465118408203125
-0.05349009856581687927246093750
-0.03722772002220153808593750000
0.04505540058016777038574218750
-0.05902193486690521240234375000
0.03576273843646049499511718750
-0.01881076209247112274169921875
0.10632505267858505249023437500
0.03923985362052917480468750000
-0.07585403323173522949218750000
-0.02225203253328800201416015625
-0.13000781834125518798828125000
0.08784024417400360107421875000
-0.04150358214974403381347656250
0.02837071381509304046630859375
-0.02801864966750144958496093750
-0.03025820292532444000244140625
-0.03279113769531250000000000000
-0.04040987789630889892578125000
0.09758747369050979614257812500
0.10576233267784118652343750000
-0.11129754036664962768554687500
-0.02317852154374122619628906250
-0.03062153793871402740478515625
-0.11948292702436447143554687500
0.05568116903305053710937500000
0.04484682902693748474121093750
-0.05937092751264572143554687500
-0.00863515771925449371337890625
-0.03168726339936256408691406250
0.07693938910961151123046875000
0.00088217447046190500259399414
-0.03941359743475914001464843750
0.06436044722795486450195312500
-0.06402947008609771728515625000
0.03946875780820846557617187500
-0.18873882293701171875000000000
0.03235502168536186218261718750
0.00463679572567343711853027344
-0.01956903375685214996337890625
-0.07099067419767379760742187500
-0.02809564210474491119384765625
0.08813442289829254150390625000
-0.06975711137056350708007812500
0.10128790885210037231445312500
0.08432371914386749267578125000
0.06915529072284698486328125000
0.11555116623640060424804687500
0.00425936002284288406372070312
0.01475360244512557983398437500
-0.09777744859457015991210937500
-0.01110946200788021087646484375
-0.01302273664623498916625976562
0.01675608381628990173339843750
0.01388256717473268508911132812
0.05056144297122955322265625000
-0.12010062485933303833007812500
0.01560504455119371414184570312
0.06957269459962844848632812500
0.06616461277008056640625000000
0.15579780936241149902343750000
0.09680438786745071411132812500
-0.06050948798656463623046875000
-0.06495375931262969970703125000
0.08627659082412719726562500000
-0.01950661838054656982421875000
0.18527990579605102539062500000
0.01995786838233470916748046875
-0.06651947647333145141601562500
0.00718280207365751266479492188
-0.00481734983623027801513671875
0.21924433112144470214843750000
-0.00833666976541280746459960938
-0.09075150638818740844726562500
-0.04062989726662635803222656250
0.04763096570968627929687500000
-0.00652676587924361228942871094
0.03287344425916671752929687500
0.00355064426548779010772705078
0.02113819494843482971191406250
-0.12933397293090820312500000000
-0.02273145690560340881347656250
-0.02055556885898113250732421875
-0.03315892815589904785156250000
-0.03002596832811832427978515625
-0.01454702764749526977539062500
-0.04868920519948005676269531250
0.00181644130498170852661132812
-0.04915337637066841125488281250
0.08066493272781372070312500000
-0.01028545014560222625732421875
0.00107512471731752157211303711
-0.07603918761014938354492187500
0.14227995276451110839843750000
-0.03187533468008041381835937500
-0.02773346006870269775390625000
0.02547812089323997497558593750
0.09945282340049743652343750000
-0.04186423867940902709960937500
-0.02291378565132617950439453125
0.04806718602776527404785156250
-0.05286251008510589599609375000
0.03316697105765342712402343750
0.02098664082586765289306640625
0.01998894661664962768554687500
-0.10841321200132369995117187500
-0.01080237235873937606811523438
0.02886625006794929504394531250
0.12015023082494735717773437500
0.06231415644288063049316406250
-0.03075955808162689208984375000
0.01764211617410182952880859375
-0.03503695130348205566406250000
0.00812879391014575958251953125
-0.07781624048948287963867187500
-0.09412002563476562500000000000
0.15209008753299713134765625000
0.08656976372003555297851562500
0.04506552591919898986816406250
-0.03008834831416606903076171875
0.03085974045097827911376953125
-0.03338019922375679016113281250
0.12048016488552093505859375000
0.07657676190137863159179687500
0.00581849506124854087829589844
-0.02779289335012435913085937500
-0.12565836310386657714843750000
0.04987428337335586547851562500
0.06905782222747802734375000000
0.12598010897636413574218750000
0.01377131231129169464111328125
0.04546606168150901794433593750
-0.12948794662952423095703125000
-0.00542465690523386001586914062
-0.13999813795089721679687500000
0.03968545794486999511718750000
0.03103402256965637207031250000
-0.01871740259230136871337890625
-0.04877952486276626586914062500
0.22256378829479217529296875000
-0.00067690067226067185401916504
0.03692545741796493530273437500
-0.07967737317085266113281250000
0.00613484997302293777465820312
0.03690240904688835144042968750
-0.00434645963832736015319824219
0.21174401044845581054687500000
-0.18683201074600219726562500000
0.00362389697693288326263427734
0.00234529282897710800170898438
0.05836756527423858642578125000
0.04145445674657821655273437500
-0.05066516622900962829589843750
0.05180685222148895263671875000
-0.07321102172136306762695312500
-0.01760117709636688232421875000
0.01484383828938007354736328125
0.03031784482300281524658203125
0.05464616790413856506347656250
0.01218628417700529098510742188
0.17253214120864868164062500000
0.00126547098625451326370239258
0.03245143964886665344238281250
-0.14208438992500305175781250000
-0.00295237987302243709564208984
-0.09534057974815368652343750000
0.10232883691787719726562500000
-0.17172135412693023681640625000
-0.10811440646648406982421875000
0.04431718215346336364746093750
0.00172657519578933715820312500
-0.00324181979522109031677246094
-0.01998173817992210388183593750
-0.05259687080979347229003906250
-0.02648919448256492614746093750
-0.09043146669864654541015625000
-0.07240135967731475830078125000
0.02905272878706455230712890625
0.05940025299787521362304687500
0.02117774449288845062255859375
0.03784958273172378540039062500
-0.16318641602993011474609375000
0.07991182804107666015625000000
-0.02193120680749416351318359375
-0.22775857150554656982421875000
-0.05286619812250137329101562500
-0.06323084980249404907226562500
-0.11903633177280426025390625000
-0.20031072199344635009765625000
0.12717336416244506835937500000
-0.00165909365750849246978759766
0.01507287006825208663940429688
0.11564073711633682250976562500
0.08121421188116073608398437500
-0.00344109977595508098602294922
-0.03180217742919921875000000000
0.18585745990276336669921875000
-0.09385387599468231201171875000
-0.06963261961936950683593750000
-0.30331909656524658203125000000
-0.05311455205082893371582031250
-0.06975308060646057128906250000
-0.00706016924232244491577148438
0.19849249720573425292968750000
-0.14910925924777984619140625000
-0.14530672132968902587890625000
-0.03304716572165489196777343750
0.04966368898749351501464843750
-0.07895565778017044067382812500
0.07266212254762649536132812500
0.06325780600309371948242187500
-0.00736389588564634323120117188
-0.08176214247941970825195312500
-0.06331306695938110351562500000
-0.27243107557296752929687500000
-0.03476646542549133300781250000
0.18278880417346954345703125000
0.00041603573481552302837371826
-0.01934151165187358856201171875
0.17567138373851776123046875000
0.06471201032400131225585937500
0.03965136408805847167968750000
-0.08207164704799652099609375000
0.04708399251103401184082031250
-0.07933638244867324829101562500
-0.14471447467803955078125000000
-0.03689943999052047729492187500
0.03392776101827621459960937500
0.17443968355655670166015625000
0.02325113490223884582519531250
-0.11570083349943161010742187500
-0.04705134034156799316406250000
0.02848259545862674713134765625
-0.02596049942076206207275390625
0.05302029848098754882812500000
-0.04154848679900169372558593750
-0.00165288313291966915130615234
0.25357541441917419433593750000
0.08530372381210327148437500000
-0.01753174886107444763183593750
-0.07114810496568679809570312500
-0.02419236302375793457031250000
0.11690076440572738647460937500
-0.03129589930176734924316406250
0.11214040219783782958984375000
0.11487214267253875732421875000
-0.10443130135536193847656250000
0.07015337049961090087890625000
0.00284699280746281147003173828
0.06063234806060791015625000000
-0.04789768904447555541992187500
-0.05321635678410530090332031250
-0.01709509082138538360595703125
0.03281485661864280700683593750
0.00406175944954156875610351562
-0.02499068528413772583007812500
-0.03928035870194435119628906250
0.00151368975639343261718750000
0.04342167824506759643554687500
-0.13625733554363250732421875000
-0.01217101328074932098388671875
-0.07144595682621002197265625000
-0.07600175589323043823242187500
-0.04577001184225082397460937500
-0.01537799462676048278808593750
-0.05199749395251274108886718750
0.01338237151503562927246093750
-0.00627873372286558151245117188
-0.03560071066021919250488281250
-0.00340626924298703670501708984
-0.06487699598073959350585937500
-0.01203181128948926925659179688
0.07812806963920593261718750000
-0.08901572227478027343750000000
-0.07648914307355880737304687500
0.26837280392646789550781250000
0.07749345898628234863281250000
0.00755513273179531097412109375
0.01101510785520076751708984375
0.01694695837795734405517578125
0.05687105655670166015625000000
0.10501708835363388061523437500
0.11790397018194198608398437500
-0.07167150080204010009765625000
0.00540547072887420654296875000
-0.03217300027608871459960937500
0.02477154135704040527343750000
0.01823094859719276428222656250
0.03966562449932098388671875000
-0.00619800761342048645019531250
-0.19548389315605163574218750000
-0.03540708124637603759765625000
-0.07567282021045684814453125000
0.02948442846536636352539062500
0.07914376258850097656250000000
0.05228146538138389587402343750
-0.03064217977225780487060546875
-0.00061417469987645745277404785
0.05174476653337478637695312500
-0.04610524326562881469726562500
-0.00819151010364294052124023438
0.08413936942815780639648437500
-0.01695791818201541900634765625
-0.20015409588813781738281250000
-0.00488264346495270729064941406
0.01858257502317428588867187500
0.02890554070472717285156250000
-0.10961866378784179687500000000
-0.02325444109737873077392578125
-0.04940175265073776245117187500
-0.01501221209764480590820312500
0.12534162402153015136718750000
0.22590054571628570556640625000
-0.00369545537978410720825195312
0.04680838063359260559082031250
0.01125317811965942382812500000
0.04963506385684013366699218750
0.02015386149287223815917968750
-0.00888780876994132995605468750
-0.05799190327525138854980468750
-0.03553783148527145385742187500
0.10385908931493759155273437500
0.00519950594753026962280273438
-0.07501494884490966796875000000
0.10835187137126922607421875000
0.02675639465451240539550781250
0.07977044582366943359375000000
-0.04220144823193550109863281250
0.05405779927968978881835937500
-0.12717169523239135742187500000
0.03435865044593811035156250000
-0.09358238428831100463867187500
-0.15357446670532226562500000000
0.12191941589117050170898437500
0.01048214733600616455078125000
-0.02849430404603481292724609375
0.03899177536368370056152343750
0.09471276402473449707031250000
-0.10109801590442657470703125000
0.17705214023590087890625000000
0.00422248337417840957641601562
-0.02479134500026702880859375000
-0.10312399268150329589843750000
0.00215513282455503940582275391
0.08966529369354248046875000000
0.03212492540478706359863281250
-0.15062747895717620849609375000
0.00196228967979550361633300781
-0.02069851569831371307373046875
-0.12586294114589691162109375000
0.17825451493263244628906250000
-0.02617503143846988677978515625
0.07669503241777420043945312500
0.10032292455434799194335937500
0.01274947077035903930664062500
0.12043966352939605712890625000
-0.15757079422473907470703125000
-0.08278259634971618652343750000
-0.03051131404936313629150390625
0.15478923916816711425781250000
-0.01657893508672714233398437500
0.06692858040332794189453125000
0.06709244102239608764648437500
-0.02630615979433059692382812500
-0.05548628047108650207519531250
0.00754844769835472106933593750
-0.02674155309796333312988281250
0.08331860601902008056640625000
0.06912946701049804687500000000
0.17151448130607604980468750000
-0.04180935025215148925781250000
0.11585008352994918823242187500
-0.11577234417200088500976562500
0.13143518567085266113281250000
0.11935620754957199096679687500
-0.06543599814176559448242187500
0.05371239036321640014648437500
0.01000501401722431182861328125
-0.05480829253792762756347656250
-0.01648240163922309875488281250
-0.00046972106792964041233062744
0.08562199771404266357421875000
-0.09883415699005126953125000000
-0.25937086343765258789062500000
0.01880481094121932983398437500
0.02623758465051651000976562500
-0.04948150366544723510742187500
-0.00645015155896544456481933594
0.04863873124122619628906250000
-0.12125761061906814575195312500
-0.16572785377502441406250000000
0.03121531568467617034912109375
0.00011544596054591238498687744
0.00754672242328524589538574219
0.01302636880427598953247070312
0.14322090148925781250000000000
-0.00598308676853775978088378906
0.07173834741115570068359375000
-0.08038459718227386474609375000
0.12968960404396057128906250000
0.03696447983384132385253906250
0.01100613828748464584350585938
-0.02466391772031784057617187500
-0.06978233903646469116210937500
-0.28569093346595764160156250000
0.07480409741401672363281250000
0.08423867076635360717773437500
0.04235873743891716003417968750
-0.07238908857107162475585937500
-0.07727456837892532348632812500
0.10959121584892272949218750000
-0.04128477349877357482910156250
-0.07208734750747680664062500000
-0.06700402498245239257812500000
0.00609239703044295310974121094
-0.01316766813397407531738281250
-0.06802216172218322753906250000
0.12546132504940032958984375000
-0.10599861294031143188476562500
-0.05245867371559143066406250000
0.06874495744705200195312500000
0.07737463712692260742187500000
-0.02336089499294757843017578125
-0.19580982625484466552734375000
-0.02167738787829875946044921875
-0.04409923031926155090332031250
0.10277950763702392578125000000
0.08236087858676910400390625000
-0.00858989264816045761108398438
-0.19102419912815093994140625000
-0.02756299637258052825927734375
-0.07159230113029479980468750000
-0.00215834612026810646057128906
0.03353454545140266418457031250
0.00315094785764813423156738281
0.14130902290344238281250000000
-0.00171884382143616676330566406
-0.11015833914279937744140625000
-0.02214163355529308319091796875
0.02350113540887832641601562500
-0.06139524281024932861328125000
0.01250744052231311798095703125
-0.05835345387458801269531250000
-0.08317645639181137084960937500
0.03732930868864059448242187500
-0.04648692905902862548828125000
0.04588914662599563598632812500
0.02947295270860195159912109375
0.03414318710565567016601562500
0.10562951862812042236328125000
-0.00821514241397380828857421875
-0.04606440663337707519531250000
-0.02427683956921100616455078125
-0.09555633366107940673828125000
0.03532572463154792785644531250
0.08150315284729003906250000000
-0.15208943188190460205078125000
-0.18955294787883758544921875000
0.00495196692645549774169921875
-0.05349485203623771667480468750
-0.12638878822326660156250000000
0.02577404864132404327392578125
0.02772068418562412261962890625
-0.01413120143115520477294921875
0.16370849311351776123046875000
-0.03736276552081108093261718750
-0.11104810982942581176757812500
0.00426438543945550918579101562
-0.03533662110567092895507812500
0.01568962074816226959228515625
0.16162088513374328613281250000
-0.09929762035608291625976562500
-0.01248030830174684524536132812
0.02525388263165950775146484375
-0.03914669156074523925781250000
-0.25770819187164306640625000000
-0.05235214903950691223144531250
-0.00664844131097197532653808594
-0.00032760901376605033874511719
-0.07549649477005004882812500000
0.05660910159349441528320312500
-0.07340729981660842895507812500
-0.06856496632099151611328125000
-0.18026891350746154785156250000
-0.02213497646152973175048828125
-0.07359645515680313110351562500
-0.03715753927826881408691406250
0.17194475233554840087890625000
-0.00794414244592189788818359375
-0.06185913830995559692382812500
-0.04348621517419815063476562500
0.10017020255327224731445312500
0.15220929682254791259765625000
-0.10030049085617065429687500000
-0.00779864238575100898742675781
-0.03751593828201293945312500000
-0.05682798475027084350585937500
0.08494907617568969726562500000
0.06376450508832931518554687500
-0.00911536347121000289916992188
-0.04430947080254554748535156250
-0.12606379389762878417968750000
0.21745878458023071289062500000
-0.05164660140872001647949218750
-0.08949465304613113403320312500
0.03687501326203346252441406250
0.12085396796464920043945312500
-0.02450987510383129119873046875
-0.03491249680519104003906250000
-0.00279882480390369892120361328
-0.10956593602895736694335937500
0.42541128396987915039062500000
0.07671283930540084838867187500
0.07868034392595291137695312500
-0.03040350787341594696044921875
0.06642057001590728759765625000
0.03932727128267288208007812500
0.05893366783857345581054687500
-0.04653282091021537780761718750
-0.05807139724493026733398437500
0.10719588398933410644531250000
0.07791785150766372680664062500
-0.07249500602483749389648437500
0.00533227669075131416320800781
-0.04024416208267211914062500000
0.19775883853435516357421875000
0.03052568621933460235595703125
-0.13186232745647430419921875000
-0.01953571476042270660400390625
0.02334507182240486145019531250
-0.02982586994767189025878906250
-0.29678502678871154785156250000
0.09401702135801315307617187500
-0.10396313667297363281250000000
-0.02063275501132011413574218750
-0.02796296589076519012451171875
-0.13270337879657745361328125000
0.07261644303798675537109375000
0.01620112545788288116455078125
-0.00800546724349260330200195312
0.05773978680372238159179687500
0.00252260593697428703308105469
-0.04351308569312095642089843750
-0.02350979857146739959716796875
0.03612751886248588562011718750
0.08299444615840911865234375000
0.06243713572621345520019531250
-0.02862888574600219726562500000
-0.07414770871400833129882812500
0.07401836663484573364257812500
-0.05082285776734352111816406250
0.01389706693589687347412109375
0.05872498080134391784667968750
-0.04992873966693878173828125000
-0.07926535606384277343750000000
0.03302789106965065002441406250
-0.02982617355883121490478515625
-0.19662204384803771972656250000
0.00214899680577218532562255859
0.13280309736728668212890625000
-0.06960405409336090087890625000
-0.05374056473374366760253906250
0.01419377513229846954345703125
-0.01782099343836307525634765625
0.03538824617862701416015625000
-0.10485712438821792602539062500
0.08591343462467193603515625000
-0.00041672491352073848247528076
-0.01957218162715435028076171875
0.00240721227601170539855957031
-0.09589222818613052368164062500
-0.06625535339117050170898437500
-0.00037252518814057111740112305
-0.07329618185758590698242187500
-0.11627745628356933593750000000
0.08433698862791061401367187500
0.10084705799818038940429687500
0.11006386578083038330078125000
-0.04637053236365318298339843750
-0.00968437641859054565429687500
-0.10048255324363708496093750000
-0.01493346970528364181518554688
-0.08574867993593215942382812500
0.05259125679731369018554687500
0.01561125740408897399902343750
0.14252200722694396972656250000
0.06321822851896286010742187500
0.10547737777233123779296875000
-0.00328879407607018947601318359
-0.11250529438257217407226562500
-0.02434138581156730651855468750
0.04621100425720214843750000000
-0.00845090206712484359741210938
-0.17289033532142639160156250000
-0.01858578808605670928955078125
0.00246426789090037345886230469
-0.13904251158237457275390625000
0.00650668097659945487976074219
-0.14484603703022003173828125000
-0.06163587048649787902832031250
0.02229592017829418182373046875
0.13916140794754028320312500000
0.07965678721666336059570312500
0.01009474601596593856811523438
0.02380203455686569213867187500
0.01859735324978828430175781250
-0.03137912601232528686523437500
0.03404686227440834045410156250
0.06580913811922073364257812500
-0.16717396676540374755859375000
-0.06636098027229309082031250000
0.02588188275694847106933593750
0.00300947506912052631378173828
0.00693065440282225608825683594
0.04278505221009254455566406250
-0.09659281373023986816406250000
0.07166630774736404418945312500
0.16051203012466430664062500000
-0.10818623006343841552734375000
0.01451245695352554321289062500
-0.01411783788353204727172851562
-0.13621871173381805419921875000
-0.08191506564617156982421875000
-0.20052193105220794677734375000
-0.05972163006663322448730468750
-0.05836533010005950927734375000
0.00460352562367916107177734375
-0.13368098437786102294921875000
0.00009181313362205401062965393
-0.04650982469320297241210937500
-0.00298153725452721118927001953
0.09043082594871520996093750000
0.03834284842014312744140625000
-0.03616928681731224060058593750
0.11192987114191055297851562500
0.11008378863334655761718750000
0.01965061575174331665039062500
-0.01382744312286376953125000000
-0.07014732062816619873046875000
-0.20607662200927734375000000000
-0.05880413949489593505859375000
0.04993386566638946533203125000
-0.14934854209423065185546875000
-0.00110161828342825174331665039
0.05449804663658142089843750000
0.09864654392004013061523437500
0.06705842167139053344726562500
-0.04131328687071800231933593750
0.04494860023260116577148437500
0.03226181864738464355468750000
-0.16827137768268585205078125000
-0.14833989739418029785156250000
0.01302371453493833541870117188
0.04482424259185791015625000000
0.05665227025747299194335937500
0.00380444852635264396667480469
-0.01978204213082790374755859375
-0.00339149078354239463806152344
-0.03036247007548809051513671875
0.22386357188224792480468750000
-0.01875784993171691894531250000
0.00278368871659040451049804688
-0.00993705354630947113037109375
0.09084624052047729492187500000
-0.20803606510162353515625000000
0.01709808595478534698486328125
-0.04244530200958251953125000000
-0.09769263863563537597656250000
0.04293895140290260314941406250
-0.04115479812026023864746093750
0.04430814459919929504394531250
0.01807842031121253967285156250
-0.01318806502968072891235351562
-0.10759691148996353149414062500
0.16818724572658538818359375000
-0.07344986498355865478515625000
-0.01664046011865139007568359375
-0.07460113614797592163085937500
0.05970955267548561096191406250
-0.01620724610984325408935546875
-0.00403825333341956138610839844
0.03871712088584899902343750000
0.20750975608825683593750000000
-0.04957543686032295227050781250
-0.05603703483939170837402343750
-0.03982462361454963684082031250
-0.03349601477384567260742187500
0.18367484211921691894531250000
-0.00411901669576764106750488281
-0.00868628267198801040649414062
-0.03605397045612335205078125000
0.09600248932838439941406250000
0.05766436085104942321777343750
0.03449584916234016418457031250
0.14994913339614868164062500000
0.00934766884893178939819335938
0.04431682080030441284179687500
0.00715486099943518638610839844
-0.07401235401630401611328125000
0.11691386252641677856445312500
0.08203231543302536010742187500
-0.00436815712600946426391601562
0.03770662844181060791015625000
0.03619598224759101867675781250
-0.19572912156581878662109375000
-0.26400822401046752929687500000
0.00918714702129364013671875000
0.00776089634746313095092773438
-0.02130836248397827148437500000
-0.07637605071067810058593750000
0.10890054702758789062500000000
0.13117675483226776123046875000
-0.16430048644542694091796875000
0.07705540210008621215820312500
0.05892611294984817504882812500
0.03718718886375427246093750000
0.05299713835120201110839843750
-0.17707984149456024169921875000
-0.01344627980142831802368164062
-0.04558729752898216247558593750
0.01707593910396099090576171875
-0.06748319417238235473632812500
-0.02052108198404312133789062500
-0.02690911665558815002441406250
-0.03841359913349151611328125000
-0.01256689149886369705200195312
0.04503913223743438720703125000
0.04061263054609298706054687500
-0.02755370177328586578369140625
0.00033808071748353540897369385
0.10453909635543823242187500000
0.28423169255256652832031250000
0.02249521203339099884033203125
0.04247572645545005798339843750
-0.12680189311504364013671875000
-0.06064731255173683166503906250
-0.12148529291152954101562500000
0.03472323715686798095703125000
0.01099636591970920562744140625
-0.03618703782558441162109375000
0.14703778922557830810546875000
0.07494399696588516235351562500
-0.18114081025123596191406250000
-0.19233766198158264160156250000
-0.04878432303667068481445312500
0.02710161544382572174072265625
-0.01466975454241037368774414062
-0.06175951287150382995605468750
0.03742864727973937988281250000
0.03953503072261810302734375000
-0.03166951239109039306640625000
0.12701286375522613525390625000
-0.09457479417324066162109375000
0.00449904613196849822998046875
0.09486366063356399536132812500
0.17638958990573883056640625000
0.01437767408788204193115234375
0.01796577125787734985351562500
-0.00584814185276627540588378906
0.07245813310146331787109375000
-0.01889322139322757720947265625
-0.00444247946143150329589843750
0.06158412620425224304199218750
0.00514105195179581642150878906
-0.05328638479113578796386718750
-0.12563215196132659912109375000
-0.02106926403939723968505859375
0.04444848001003265380859375000
-0.08592115342617034912109375000
0.01134481001645326614379882812
-0.08099739253520965576171875000
0.02243445813655853271484375000
0.04951501265168190002441406250
-0.08777658641338348388671875000
0.13847583532333374023437500000
0.00313613121397793292999267578
0.09502986073493957519531250000
-0.05587990954518318176269531250
-0.07423295825719833374023437500
-0.09572648257017135620117187500
0.00397510360926389694213867188
0.16386507451534271240234375000
0.00275739887729287147521972656
-0.02661488018929958343505859375
0.14934022724628448486328125000
-0.03942216560244560241699218750
-0.00580697879195213317871093750
-0.04271454364061355590820312500
0.13728910684585571289062500000
0.02822901494801044464111328125
-0.00612599728628993034362792969
0.06201077997684478759765625000
-0.09186425060033798217773437500
0.04243699833750724792480468750
0.02750604972243309020996093750
-0.10106693953275680541992187500
0.02262632176280021667480468750
0.04832591116428375244140625000
0.04671959206461906433105468750
0.06516626477241516113281250000
0.04464163258671760559082031250
0.06105319038033485412597656250
0.01897628791630268096923828125
0.18842639029026031494140625000
-0.11567928642034530639648437500
-0.02490080520510673522949218750
-0.09707850962877273559570312500
-0.06786727160215377807617187500
0.04185277968645095825195312500
0.04170740395784378051757812500
-0.00746269011870026588439941406
-0.04124975204467773437500000000
-0.02102850936353206634521484375
0.02614303864538669586181640625
0.02516565099358558654785156250
0.03426359966397285461425781250
0.00550663843750953674316406250
0.04745009168982505798339843750
0.06075499206781387329101562500
-0.00373863428831100463867187500
0.01186116598546504974365234375
-0.04870554432272911071777343750
0.01455921586602926254272460938
-0.01251127943396568298339843750
0.11648508906364440917968750000
0.05593462660908699035644531250
0.01465586666017770767211914062
0.06133785471320152282714843750
-0.06059734150767326354980468750
-0.09813987463712692260742187500
-0.07233445346355438232421875000
0.02275636419653892517089843750
-0.14060933887958526611328125000
-0.11278252303600311279296875000
-0.02573445066809654235839843750
-0.04816594347357749938964843750
-0.05721760168671607971191406250
0.14436280727386474609375000000
0.01738105528056621551513671875
-0.00991982221603393554687500000
-0.02284011244773864746093750000
0.25214114785194396972656250000
-0.05889013037085533142089843750
-0.09618844836950302124023437500
0.04592292755842208862304687500
0.05014642328023910522460937500
-0.05126301199197769165039062500
0.01105148810893297195434570312
-0.01995126157999038696289062500
0.09676855057477951049804687500
-0.09399545937776565551757812500
0.14308376610279083251953125000
-0.08032912760972976684570312500
0.01840030215680599212646484375
-0.23120719194412231445312500000
0.00871320348232984542846679688
-0.11038755625486373901367187500
-0.07307263463735580444335937500
0.12479229271411895751953125000
0.23841783404350280761718750000
0.07593027502298355102539062500
-0.11897204816341400146484375000
0.01126645319163799285888671875
0.08178427070379257202148437500
0.11824793368577957153320312500
0.09469152241945266723632812500
-0.06444730609655380249023437500
-0.13469092547893524169921875000
-0.09711965173482894897460937500
-0.08497499674558639526367187500
0.03259756788611412048339843750
-0.06383162736892700195312500000
-0.01658523641526699066162109375
-0.02313047647476196289062500000
-0.06443250924348831176757812500
0.11069714277982711791992187500
0.02701254934072494506835937500
-0.06507926434278488159179687500
0.08240348845720291137695312500
-0.02838638052344322204589843750
0.06069746240973472595214843750
-0.02932196855545043945312500000
-0.00280335568822920322418212891
0.01935434713959693908691406250
-0.02116465382277965545654296875
-0.07499393820762634277343750000
-0.20393265783786773681640625000
-0.04061949998140335083007812500
-0.10370849072933197021484375000
0.08318331092596054077148437500
-0.07434614002704620361328125000
-0.07577791810035705566406250000
-0.12236309796571731567382812500
0.02022415399551391601562500000
0.00710997870191931724548339844
-0.18665271997451782226562500000
0.06178918853402137756347656250
0.00473584793508052825927734375
-0.05338674783706665039062500000
0.15467433631420135498046875000
-0.06703791022300720214843750000
-0.10460863262414932250976562500
0.10226158052682876586914062500
0.09907499700784683227539062500
-0.02153365314006805419921875000
0.05615973100066184997558593750
0.10414826124906539916992187500
0.01159925945103168487548828125
-0.01298598293215036392211914062
0.00212670676410198211669921875
0.04334191977977752685546875000
0.06287258118391036987304687500
0.07956465333700180053710937500
-0.09070172160863876342773437500
0.18810833990573883056640625000
-0.13274304568767547607421875000
-0.13068008422851562500000000000
0.13475190103054046630859375000
0.08984284847974777221679687500
0.02070104330778121948242187500
0.02927953004837036132812500000
-0.00251561193726956844329833984
-0.06064616143703460693359375000
0.03584798797965049743652343750
-0.13339817523956298828125000000
-0.02441371604800224304199218750
0.12270468473434448242187500000
-0.10912667214870452880859375000
-0.13042798638343811035156250000
-0.03997820615768432617187500000
-0.08869946748018264770507812500
-0.08081116527318954467773437500
0.07981461286544799804687500000
-0.02720688842236995697021484375
0.07777075469493865966796875000
-0.00072743697091937065124511719
-0.03163347393274307250976562500
0.03724636882543563842773437500
-0.06453903019428253173828125000
0.06693673878908157348632812500
-0.03634905815124511718750000000
-0.08133981376886367797851562500
-0.02793485112488269805908203125
0.12012981623411178588867187500
-0.04159353300929069519042968750
0.01904045045375823974609375000
0.01635857857763767242431640625
-0.07069651037454605102539062500
0.19678112864494323730468750000
-0.12705509364604949951171875000
0.04403847083449363708496093750
-0.02526134252548217773437500000
0.02332688681781291961669921875
0.03046165965497493743896484375
-0.08619534969329833984375000000
0.03968204557895660400390625000
-0.05149350687861442565917968750
0.04398187994956970214843750000
-0.02380176447331905364990234375
-0.00944737065583467483520507812
-0.00941280554980039596557617188
0.05730941146612167358398437500
-0.02858566120266914367675781250
-0.06449352204799652099609375000
0.02558843605220317840576171875
-0.04891386628150939941406250000
0.02139493077993392944335937500
0.05774176120758056640625000000
-0.05652654543519020080566406250
0.01352288946509361267089843750
0.06699124723672866821289062500
0.06014005094766616821289062500
-0.05809572711586952209472656250
-0.13816332817077636718750000000
0.00743713276460766792297363281
0.06878799945116043090820312500
0.08421287685632705688476562500
-0.14409638941287994384765625000
-0.07243870198726654052734375000
0.05269045010209083557128906250
-0.04080811515450477600097656250
0.08434131741523742675781250000
0.05661680921912193298339843750
0.03720469772815704345703125000
0.12065110355615615844726562500
-0.02792224101722240447998046875
-0.04843327403068542480468750000
-0.24304319918155670166015625000
-0.08696570247411727905273437500
-0.00737646175548434257507324219
0.07268159091472625732421875000
0.03096260502934455871582031250
-0.06088514253497123718261718750
0.13757920265197753906250000000
0.13835103809833526611328125000
0.07973837107419967651367187500
-0.05806312710046768188476562500
-0.00060465978458523750305175781
0.00921316072344779968261718750
-0.01657786406576633453369140625
0.00393891334533691406250000000
0.13039648532867431640625000000
-0.00943554565310478210449218750
0.17409439384937286376953125000
0.01275260187685489654541015625
0.03452858328819274902343750000
0.10574535280466079711914062500
0.06223895773291587829589843750
0.02634353376924991607666015625
0.03760330751538276672363281250
0.00069331756094470620155334473
-0.16218303143978118896484375000
-0.00742460507899522781372070312
0.00072902475949376821517944336
-0.26133006811141967773437500000
0.15011830627918243408203125000
-0.10237441211938858032226562500
-0.00001141380016633775085210800
0.07145641744136810302734375000
-0.01569087803363800048828125000
-0.03658662736415863037109375000
0.01567872241139411926269531250
-0.03850753605365753173828125000
0.08639147877693176269531250000
0.03414297103881835937500000000
0.08963921666145324707031250000
0.01486615743488073348999023438
0.05406072735786437988281250000
-0.00582722667604684829711914062
0.04403427243232727050781250000
0.07945385575294494628906250000
0.03739988803863525390625000000
-0.14236232638359069824218750000
0.00053108215797692537307739258
-0.03742914274334907531738281250
-0.09160127490758895874023437500
0.01628888584673404693603515625
0.06847352534532546997070312500
-0.07553533464670181274414062500
-0.00653176009654998779296875000
-0.08500315248966217041015625000
0.01355476956814527511596679688
0.03942101821303367614746093750
0.24458287656307220458984375000
-0.20830695331096649169921875000
0.05782747268676757812500000000
0.01998715102672576904296875000
-0.01664032228291034698486328125
-0.13294878602027893066406250000
0.02820999361574649810791015625
-0.07287809252738952636718750000
-0.09776826202869415283203125000
0.03890366852283477783203125000
-0.00021436059614643454551696777
-0.01715969294309616088867187500
-0.05142160877585411071777343750
-0.01514526456594467163085937500
0.08059296756982803344726562500
0.10291651636362075805664062500
-0.07204103469848632812500000000
-0.09767370671033859252929687500
-0.08811663091182708740234375000
-0.07232856750488281250000000000
0.07435712963342666625976562500
-0.07349894195795059204101562500
0.13426978886127471923828125000
-0.02231835201382637023925781250
-0.05060674250125885009765625000
-0.06650993227958679199218750000
0.02496636100113391876220703125
0.10718121379613876342773437500
0.14512075483798980712890625000
0.20684906840324401855468750000
-0.08851956576108932495117187500
0.02203804999589920043945312500
0.08440636843442916870117187500
-0.06293214112520217895507812500
0.07279119640588760375976562500
-0.03722835332155227661132812500
-0.00877789687365293502807617188
-0.10624251514673233032226562500
-0.02571046352386474609375000000
0.10151764750480651855468750000
-0.00053177529480308294296264648
-0.15962937474250793457031250000
0.04408205300569534301757812500
-0.01473754737526178359985351562
-0.12750293314456939697265625000
0.09837365895509719848632812500
0.06074874475598335266113281250
0.10760095715522766113281250000
0.00714397430419921875000000000
-0.08351173251867294311523437500
-0.09833130985498428344726562500
-0.10272564738988876342773437500
-0.10026761889457702636718750000
0.06314066797494888305664062500
0.18543535470962524414062500000
0.00458734482526779174804687500
-0.05144675821065902709960937500
-0.01058260165154933929443359375
-0.00274184928275644779205322266
0.07609810680150985717773437500
-0.09050139039754867553710937500
-0.07796812802553176879882812500
0.08003720641136169433593750000
0.14377804100513458251953125000
0.07135127484798431396484375000
0.03651509806513786315917968750
-0.00070318731013685464859008789
-0.11475276947021484375000000000
0.00594209320843219757080078125
0.00850413180887699127197265625
0.00898557715117931365966796875
0.10144753754138946533203125000
0.33327734470367431640625000000
0.03765166550874710083007812500
0.12375286221504211425781250000
-0.07522910833358764648437500000
0.00382957258261740207672119141
0.06894044578075408935546875000
-0.06959570944309234619140625000
-0.02228903584182262420654296875
-0.02520373277366161346435546875
-0.03304370120167732238769531250
0.03654218092560768127441406250
0.02206715196371078491210937500
0.15308375656604766845703125000
0.07523173093795776367187500000
-0.06542313843965530395507812500
0.00975686311721801757812500000
0.03444454073905944824218750000
0.02642531320452690124511718750
0.06722116470336914062500000000
-0.00682943360880017280578613281
-0.02953667752444744110107421875
0.02574717998504638671875000000
0.02206819131970405578613281250
0.01437077671289443969726562500
-0.14097240567207336425781250000
-0.04792536422610282897949218750
0.09071230888366699218750000000
0.35232520103454589843750000000
0.16444604098796844482421875000
-0.04406896978616714477539062500
-0.02089097537100315093994140625
0.08201009780168533325195312500
-0.04039156809449195861816406250
0.01178156584501266479492187500
0.08972662687301635742187500000
0.00609321752563118934631347656
-0.06275438517332077026367187500
-0.00235430989414453506469726562
0.07100919634103775024414062500
0.00137512804940342903137207031
-0.00875365640968084335327148438
0.04344556853175163269042968750
0.00419528037309646606445312500
-0.07531663775444030761718750000
-0.02060540392994880676269531250
0.00788574758917093276977539062
-0.02391413412988185882568359375
-0.02467210218310356140136718750
-0.08880525082349777221679687500
0.01652150228619575500488281250
0.08637164533138275146484375000
0.06441351026296615600585937500
-0.12190530449151992797851562500
0.01432394795119762420654296875
0.05508934333920478820800781250
-0.07091277837753295898437500000
0.25982815027236938476562500000
0.02214774675667285919189453125
0.00909985322505235671997070312
-0.03256275504827499389648437500
-0.00886173546314239501953125000
-0.22951415181159973144531250000
-0.00436391402035951614379882812
-0.02406062930822372436523437500
0.07289235293865203857421875000
-0.00685302121564745903015136719
0.03603079542517662048339843750
-0.08475545048713684082031250000
0.04621356353163719177246093750
0.05691510066390037536621093750
-0.10078226029872894287109375000
0.03866925090551376342773437500
0.05814610421657562255859375000
-0.05578243732452392578125000000
0.00625231489539146423339843750
0.04334741830825805664062500000
0.10544317215681076049804687500
0.03467342630028724670410156250
-0.03717742115259170532226562500
0.04908106103539466857910156250
-0.10990559309720993041992187500
-0.02934278734028339385986328125
0.03469700738787651062011718750
0.01500084064900875091552734375
0.02752711810171604156494140625
-0.04425923153758049011230468750
0.05290483683347702026367187500
0.04474007710814476013183593750
0.11896255612373352050781250000
0.11583727598190307617187500000
-0.01580449193716049194335937500
-0.02220479398965835571289062500
0.04731044918298721313476562500
-0.09618139266967773437500000000
-0.07979404181241989135742187500
0.07511757314205169677734375000
0.00394679326564073562622070312
0.08251130580902099609375000000
-0.10194755345582962036132812500
0.09532565623521804809570312500
-0.07501523941755294799804687500
-0.05378140136599540710449218750
0.04040265455842018127441406250
-0.01352303940802812576293945312
0.10996425896883010864257812500
0.00321314460597932338714599609
-0.00743349594995379447937011719
-0.03998364880681037902832031250
0.07292458415031433105468750000
0.05030108243227005004882812500
0.08322056382894515991210937500
0.02291248738765716552734375000
-0.06406443566083908081054687500
0.03219575062394142150878906250
-0.01454458106309175491333007812
-0.03474935889244079589843750000
-0.10569705069065093994140625000
0.00642036832869052886962890625
0.01516773551702499389648437500
0.08331154286861419677734375000
0.02479708939790725708007812500
-0.12135080248117446899414062500
0.06302242726087570190429687500
0.28967693448066711425781250000
0.11335235089063644409179687500
0.03057351708412170410156250000
0.02259311452507972717285156250
0.04573567584156990051269531250
-0.11661237478256225585937500000
-0.07599817961454391479492187500
-0.05882070213556289672851562500
0.08128646761178970336914062500
0.02535566687583923339843750000
-0.15889094769954681396484375000
-0.02096315100789070129394531250
-0.05079542472958564758300781250
0.00970002170652151107788085938
0.01236300263553857803344726562
-0.07383966445922851562500000000
0.08044415712356567382812500000
0.02262161485850811004638671875
-0.01224947255104780197143554688
0.00820387806743383407592773438
0.05727264657616615295410156250
0.02513138763606548309326171875
-0.10969092696905136108398437500
0.11925037205219268798828125000
-0.05336489155888557434082031250
0.00626776413992047309875488281
0.08941970765590667724609375000
-0.02261895500123500823974609375
0.00124758935999125242233276367
0.06493648141622543334960937500
0.00696926796808838844299316406
0.06701596081256866455078125000
-0.25939020514488220214843750000
-0.06242784485220909118652343750
0.10492046177387237548828125000
0.00030039483681321144104003906
-0.01616391353309154510498046875
-0.00662563461810350418090820312
0.00376961170695722103118896484
-0.00603132927790284156799316406
-0.07740210741758346557617187500
0.26330795884132385253906250000
0.12730395793914794921875000000
0.05529239401221275329589843750
-0.08679941296577453613281250000
-0.14681573212146759033203125000
-0.00574010983109474182128906250
0.01993153430521488189697265625
0.08056771010160446166992187500
-0.02908003143966197967529296875
-0.02465977333486080169677734375
-0.13807484507560729980468750000
0.05798094347119331359863281250
0.05181910842657089233398437500
0.03934853151440620422363281250
-0.19324465095996856689453125000
0.00175778754055500030517578125
-0.11466868966817855834960937500
0.06489571928977966308593750000
0.00392398750409483909606933594
-0.07478141039609909057617187500
-0.06904871016740798950195312500
0.26940634846687316894531250000
-0.14666981995105743408203125000
-0.21703433990478515625000000000
0.06558727473020553588867187500
-0.11081240326166152954101562500
0.05356387048959732055664062500
-0.05865601077675819396972656250
0.04077259823679924011230468750
-0.15669010579586029052734375000
0.05588059872388839721679687500
0.00877167657017707824707031250
0.05540741980075836181640625000
-0.01596962474286556243896484375
0.21634863317012786865234375000
0.04197667539119720458984375000
0.07270683348178863525390625000
0.08554008603096008300781250000
-0.05073072016239166259765625000
-0.03165633231401443481445312500
-0.18202875554561614990234375000
-0.04000813141465187072753906250
-0.02712678536772727966308593750
0.14827263355255126953125000000
-0.05173342674970626831054687500
0.05228785425424575805664062500
-0.03335890918970108032226562500
-0.01911473646759986877441406250
0.00663690129294991493225097656
-0.07915324717760086059570312500
-0.06061364710330963134765625000
0.00091834692284464836120605469
0.09298230707645416259765625000
0.17720805108547210693359375000
-0.03223477303981781005859375000
-0.03831326961517333984375000000
0.06225727126002311706542968750
0.17374233901500701904296875000
-0.20051166415214538574218750000
-0.05470075458288192749023437500
-0.10898509621620178222656250000
0.04803171381354331970214843750
0.04184038937091827392578125000
0.09115353971719741821289062500
-0.01632003672420978546142578125
0.02196723781526088714599609375
0.17952752113342285156250000000
0.04095965623855590820312500000
0.04085534811019897460937500000
-0.06653298437595367431640625000
0.00705029582604765892028808594
0.03845838457345962524414062500
0.11093362420797348022460937500
-0.04964729025959968566894531250
-0.04796975851058959960937500000
0.01466328185051679611206054688
0.13875274360179901123046875000
-0.15574438869953155517578125000
-0.05198179930448532104492187500
0.05654621496796607971191406250
0.12517689168453216552734375000
0.18112868070602416992187500000
0.02483073621988296508789062500
0.01323396153748035430908203125
-0.00137694028671830892562866211
-0.18897123634815216064453125000
0.20449349284172058105468750000
0.01879408955574035644531250000
0.04261166974902153015136718750
0.08249016106128692626953125000
0.10181273519992828369140625000
0.19103118777275085449218750000
-0.22744455933570861816406250000
-0.03447013348340988159179687500
0.02028203755617141723632812500
0.03027861006557941436767578125
-0.02176495082676410675048828125
-0.13617780804634094238281250000
0.03456478938460350036621093750
-0.20377758145332336425781250000
0.05969429388642311096191406250
0.16261146962642669677734375000
0.15680763125419616699218750000
0.09796445071697235107421875000
-0.03947634622454643249511718750
-0.05334553495049476623535156250
0.01070543285459280014038085938
0.08663276582956314086914062500
0.00078686251072213053703308105
0.15214368700981140136718750000
-0.02193503640592098236083984375
