-7.651852369308471680e-01
8.920467644929885864e-02
-1.950140856206417084e-02
-3.487738072872161865e-01
5.185582637786865234e-01
-7.694621384143829346e-02
1.088153645396232605e-01
-4.593494534492492676e-01
-1.556191682815551758e+00
9.060142040252685547e-01
-7.285550236701965332e-03
-2.376608699560165405e-01
4.306755363941192627e-01
-3.486159443855285645e-01
3.558207154273986816e-01
-1.915334314107894897e-01
-2.771277427673339844e-01
-1.034814864397048950e-01
-7.030346989631652832e-01
6.221842765808105469e-01
1.824351400136947632e-01
-3.056039214134216309e-01
-1.985050588846206665e-01
1.618446469306945801e+00
1.522775650024414062e+00
2.327577397227287292e-02
1.115409806370735168e-01
5.984043478965759277e-01
7.392390966415405273e-01
-9.593195468187332153e-02
-4.366337060928344727e-01
-1.294687986373901367e-01
6.872433237731456757e-03
-1.803699135780334473e-01
1.510158479213714600e-01
-1.992064416408538818e-01
3.332157433032989502e-01
-3.843615353107452393e-01
-1.355129778385162354e-01
-2.063143998384475708e-01
5.402423739433288574e-01
-8.780147135257720947e-02
9.302973151206970215e-01
-9.788654446601867676e-01
7.379899621009826660e-01
6.294900178909301758e-02
1.022926345467567444e-01
7.381371855735778809e-01
3.341522812843322754e-01
1.469206511974334717e-01
-1.769382879137992859e-02
1.043804168701171875e+00
3.666475713253021240e-01
-1.323120296001434326e-01
-6.357903033494949341e-02
5.254450812935829163e-02
-1.793376654386520386e-01
-1.591145992279052734e-02
3.290934860706329346e-01
8.150600194931030273e-01
6.217849254608154297e-01
-6.482060551643371582e-01
-1.051861524581909180e+00
-4.540838897228240967e-01
-2.477537244558334351e-01
2.112051695585250854e-01
1.623031795024871826e-01
7.652733474969863892e-02
-1.621865481138229370e-01
4.035511314868927002e-01
-4.395106434822082520e-02
1.301896423101425171e-01
-1.878067702054977417e-01
-1.632719993591308594e+00
-6.452728509902954102e-01
1.406470239162445068e-01
8.569052815437316895e-02
-3.469194173812866211e-01
1.974231123924255371e+00
3.216930329799652100e-01
3.435414433479309082e-01
-6.267395615577697754e-01
-4.598471820354461670e-01
-2.834255434572696686e-02
9.657919406890869141e-01
-2.857006788253784180e-01
-2.799823284149169922e-01
7.886973023414611816e-01
2.103984653949737549e-01
-3.724006116390228271e-01
1.249390602111816406e+00
2.525656521320343018e-01
-2.062728442251682281e-02
1.565559059381484985e-01
5.422351360321044922e-01
1.016332030296325684e+00
3.544623851776123047e-01
-5.697368383407592773e-01
6.939109563827514648e-01
-2.963700890541076660e-01
3.207209408283233643e-01
2.212306112051010132e-01
2.615622282028198242e-01
-3.598906993865966797e-01
2.477987408638000488e-01
-5.927519798278808594e-01
-7.124533653259277344e-01
6.357746720314025879e-01
7.027570605278015137e-01
-3.396831452846527100e-01
-8.920816779136657715e-01
9.501813054084777832e-01
5.847322940826416016e-01
2.809303104877471924e-01
-1.365179568529129028e-01
1.474315077066421509e-01
4.476183354854583740e-01
-8.666487932205200195e-01
-1.495321542024612427e-01
3.366766870021820068e-01
-9.684296324849128723e-03
5.316781401634216309e-01
3.397562205791473389e-01
-6.108347177505493164e-01
-8.136607706546783447e-03
-2.042665958404541016e+00
-1.139662861824035645e-01
5.998207330703735352e-01
