1.960802823305130005e-02
7.826457917690277100e-02
8.672328293323516846e-02
-1.565593481063842773e-01
-7.748922705650329590e-02
-1.326394826173782349e-01
-1.509093046188354492e-01
-1.350724976509809494e-02
1.429548300802707672e-02
-1.379064172506332397e-01
-9.089685045182704926e-03
1.497645080089569092e-01
3.340573608875274658e-02
-2.687215209007263184e-01
3.666808130219578743e-03
-6.594394147396087646e-02
8.551649004220962524e-02
-1.246685162186622620e-01
-1.849922984838485718e-01
-2.979997661896049976e-04
2.513845078647136688e-02
-2.071933075785636902e-02
5.129469931125640869e-02
-1.093968600034713745e-01
1.394513696432113647e-01
1.902671530842781067e-02
-4.676179587841033936e-02
8.308008313179016113e-02
-4.390460997819900513e-02
-7.500199973583221436e-02
-1.195200681686401367e-01
-1.312629431486129761e-01
7.103087007999420166e-02
-1.064133569598197937e-01
-7.566155493259429932e-02
-2.093904018402099609e-01
-4.630160331726074219e-02
1.240001320838928223e-01
2.601889893412590027e-03
-1.867068558931350708e-01
1.722395271062850952e-01
4.335783794522285461e-02
-1.346358060836791992e-01
2.347621619701385498e-01
-8.912528865039348602e-03
4.418816044926643372e-02
1.088579073548316956e-01
3.317914530634880066e-02
-5.782497674226760864e-02
-2.190233580768108368e-02
3.185254931449890137e-01
3.247129172086715698e-02
1.945021376013755798e-02
1.163510456681251526e-01
2.693092077970504761e-02
-1.386083066463470459e-01
6.905905157327651978e-02
1.148660704493522644e-01
2.643004059791564941e-02
9.798428416252136230e-02
1.192920804023742676e-01
-6.116084381937980652e-02
-1.771269738674163818e-02
-3.983406722545623779e-02
-1.489042341709136963e-01
1.372453570365905762e-01
4.582154378294944763e-02
-6.050331890583038330e-02
2.830146346241235733e-03
1.841864362359046936e-02
-2.230449467897415161e-01
1.472867578268051147e-01
1.021052747964859009e-01
-1.016511097550392151e-01
-2.277355268597602844e-02
-1.398890167474746704e-01
2.905360981822013855e-02
6.726867705583572388e-02
2.110869139432907104e-01
7.989315688610076904e-02
6.852166354656219482e-02
-1.055947765707969666e-01
9.623777866363525391e-02
-4.202149063348770142e-02
5.427654460072517395e-02
-1.420824080705642700e-01
-1.037062928080558777e-01
-1.077528148889541626e-01
5.251438543200492859e-02
-8.343251049518585205e-02
3.464668989181518555e-02
7.437007874250411987e-02
-7.451847195625305176e-02
5.662329494953155518e-02
-8.330820500850677490e-02
-5.487506091594696045e-02
-1.662974990904331207e-02
8.384677022695541382e-02
1.040669381618499756e-01
2.903591468930244446e-02
-1.220218762755393982e-01
1.129593476653099060e-01
-1.707814075052738190e-02
4.615266248583793640e-02
5.793758481740951538e-02
-5.465667322278022766e-02
-9.770751744508743286e-02
1.583064943552017212e-01
1.745138689875602722e-02
-3.638928756117820740e-02
9.820767492055892944e-02
-5.020613595843315125e-02
8.103966712951660156e-02
2.752774860709905624e-03
2.020248211920261383e-02
5.084869638085365295e-02
-1.795703470706939697e-01
1.218734495341777802e-02
2.474431134760379791e-02
1.531863957643508911e-02
1.930236667394638062e-01
1.173985302448272705e-01
2.378818579018115997e-02
5.900623276829719543e-02
-9.155491739511489868e-02
3.830957412719726562e-02
7.074599713087081909e-02
-3.383924067020416260e-02
