-7.729079574346542358e-02
5.994572862982749939e-02
-2.587612569332122803e-01
-2.219000309705734253e-01
-5.885873362421989441e-02
-2.672276273369789124e-02
-2.599448859691619873e-01
2.318736165761947632e-01
-3.868808969855308533e-02
-5.863096192479133606e-02
3.206007182598114014e-02
2.909523546695709229e-01
-1.591277420520782471e-01
2.087192982435226440e-02
1.984506845474243164e-01
-2.898665517568588257e-02
-2.030300498008728027e-01
5.262631550431251526e-02
-8.383937925100326538e-02
7.761508226394653320e-02
-1.391064524650573730e-01
-2.135140299797058105e-01
1.650431305170059204e-01
7.310997694730758667e-02
1.934883147478103638e-01
-2.517943680286407471e-01
1.634558290243148804e-02
7.267177850008010864e-02
-1.807019561529159546e-01
-1.531549990177154541e-01
-1.510612815618515015e-01
-3.782919645309448242e-01
-2.137038707733154297e-01
1.858476316556334496e-04
-1.194110233336687088e-02
-1.258733719587326050e-01
-9.049083292484283447e-02
-4.789212718605995178e-02
-4.609805643558502197e-01
-5.991863831877708435e-02
-1.537176668643951416e-01
-1.763779297471046448e-02
4.608362540602684021e-02
-6.753019988536834717e-02
-2.160777896642684937e-01
-3.209836184978485107e-01
-2.921503186225891113e-01
-5.227745696902275085e-02
-4.312377795577049255e-02
-1.108601093292236328e-01
1.504239290952682495e-01
1.638437360525131226e-01
9.828431904315948486e-02
4.959771037101745605e-02
-1.415507346391677856e-01
-3.961081430315971375e-02
1.043101400136947632e-01
-2.818769812583923340e-01
-4.536884650588035583e-02
2.840596437454223633e-01
-1.166465282440185547e-01
-1.920608729124069214e-01
-1.869761496782302856e-01
-2.103286981582641602e-02
-2.174710035324096680e-01
1.575316637754440308e-01
-1.203479431569576263e-02
1.072402074933052063e-01
-3.259535878896713257e-02
7.967165112495422363e-02
-2.831938266754150391e-01
-1.734054274857044220e-02
1.355921775102615356e-01
7.002038508653640747e-02
-1.499644368886947632e-01
1.173333544284105301e-02
-9.360854327678680420e-02
6.158702448010444641e-02
2.337982133030891418e-02
-4.641548171639442444e-02
-1.559704989194869995e-01
2.670568972826004028e-02
-2.355059981346130371e-02
1.278893351554870605e-01
-1.054037138819694519e-01
-4.218488931655883789e-02
-2.344281524419784546e-01
-2.290472537279129028e-01
-3.749922290444374084e-02
-2.210240066051483154e-01
5.671211704611778259e-02
8.728997409343719482e-02
-2.012331187725067139e-01
1.328483782708644867e-02
-3.929458558559417725e-02
-2.048826776444911957e-02
1.598644405603408813e-01
3.332414105534553528e-02
7.010475546121597290e-02
1.830803751945495605e-01
1.528950687497854233e-02
-6.234698370099067688e-02
5.582691729068756104e-02
-2.161338627338409424e-01
1.988751590251922607e-01
-2.910453975200653076e-01
2.845659852027893066e-03
1.930222660303115845e-02
-1.422711461782455444e-01
1.017338875681161880e-02
5.611161142587661743e-02
-1.284640580415725708e-01
-4.159459844231605530e-02
-1.319493353366851807e-01
-8.500909805297851562e-02
6.157758459448814392e-02
-4.720766097307205200e-02
-1.367418915033340454e-01
-1.593309789896011353e-01
4.081765562295913696e-02
6.637000292539596558e-02
-1.478652060031890869e-01
1.308724880218505859e-01
-2.669280171394348145e-01
-3.151841759681701660e-01
1.155224144458770752e-01
-1.590334475040435791e-01
1.142420396208763123e-01
