0.02884523384273052215576171875
0.06038840487599372863769531250
0.01227267086505889892578125000
0.07545036077499389648437500000
-0.00408544298261404037475585938
0.06814458221197128295898437500
0.04223238304257392883300781250
-0.01318050082772970199584960938
-0.05476548522710800170898437500
-0.18261587619781494140625000000
-0.03957091271877288818359375000
-0.09997519105672836303710937500
-0.03646362572908401489257812500
-0.06794178485870361328125000000
0.17275433242321014404296875000
-0.08607514202594757080078125000
-0.01265338528901338577270507812
0.03560486063361167907714843750
-0.05308575928211212158203125000
-0.03281591087579727172851562500
-0.05370082333683967590332031250
0.07966118305921554565429687500
0.01362848468124866485595703125
0.04151260480284690856933593750
0.06178778782486915588378906250
0.07594243437051773071289062500
-0.06852690875530242919921875000
0.03784492984414100646972656250
-0.03794686496257781982421875000
0.00354848871938884258270263672
0.02424991317093372344970703125
0.00046585162635892629623413086
0.01117355283349752426147460938
0.03901761025190353393554687500
0.00383929815143346786499023438
-0.03621678426861763000488281250
0.06006412580609321594238281250
0.10220024734735488891601562500
-0.00085371988825500011444091797
0.03443386405706405639648437500
-0.03931273892521858215332031250
0.11933123320341110229492187500
-0.05943576246500015258789062500
0.04727508500218391418457031250
-0.05362865328788757324218750000
0.01487884763628244400024414062
-0.00027904225862585008144378662
-0.03845215588808059692382812500
0.04360755160450935363769531250
-0.00980282668024301528930664062
-0.03086602687835693359375000000
0.02715717256069183349609375000
0.04479010030627250671386718750
-0.17046503722667694091796875000
0.00703004794195294380187988281
-0.00045738750486634671688079834
0.01036297529935836791992187500
0.01163520570844411849975585938
-0.03543673083186149597167968750
0.06693471968173980712890625000
-0.02197820879518985748291015625
-0.02049511484801769256591796875
0.07488451153039932250976562500
0.07080324739217758178710937500
-0.02345233596861362457275390625
-0.10155761241912841796875000000
-0.01660870388150215148925781250
-0.03463162854313850402832031250
-0.05146417766809463500976562500
0.00248299632221460342407226562
0.03338275477290153503417968750
0.11721428483724594116210937500
-0.05850611627101898193359375000
0.03634339570999145507812500000
0.07692761719226837158203125000
-0.01807927712798118591308593750
-0.00983983650803565979003906250
-0.19891528785228729248046875000
-0.01975258812308311462402343750
-0.01384227909147739410400390625
0.01399111375212669372558593750
0.15575887262821197509765625000
-0.01106231380254030227661132812
-0.09200561791658401489257812500
-0.00377846672199666500091552734
-0.07956481724977493286132812500
-0.02116769738495349884033203125
-0.04530192166566848754882812500
0.02171394415199756622314453125
0.00298819527961313724517822266
0.00947895180433988571166992188
0.04845264926552772521972656250
0.08800380676984786987304687500
-0.01963785663247108459472656250
0.09541384130716323852539062500
0.01573566533625125885009765625
0.04328905045986175537109375000
0.09570141881704330444335937500
-0.02882582508027553558349609375
0.01845106109976768493652343750
0.03852115944027900695800781250
-0.06668012589216232299804687500
0.11393748223781585693359375000
0.03355901688337326049804687500
0.06705626100301742553710937500
0.05785361677408218383789062500
0.02062890492379665374755859375
0.04485119879245758056640625000
-0.05934928730130195617675781250
-0.01926028355956077575683593750
-0.06849058717489242553710937500
0.09904766827821731567382812500
0.07259825617074966430664062500
-0.05528086051344871520996093750
-0.01258691400289535522460937500
-0.00581658724695444107055664062
-0.07168136537075042724609375000
-0.01495527103543281555175781250
0.05642398819327354431152343750
-0.10499367862939834594726562500
-0.00206656684167683124542236328
-0.04028431326150894165039062500
-0.06579343229532241821289062500
0.09949227422475814819335937500
0.00877841655164957046508789062
0.01115028373897075653076171875
-0.00389378890395164489746093750
0.28906428813934326171875000000
0.13090284168720245361328125000
0.09108029305934906005859375000
0.05941086634993553161621093750
0.06041513755917549133300781250
0.04939826205372810363769531250
-0.00108107214327901601791381836
0.04877477511763572692871093750
0.16125565767288208007812500000
-0.01079066842794418334960937500
-0.00811146479099988937377929688
0.07410226017236709594726562500
0.05952514708042144775390625000
0.06449902802705764770507812500
0.05368153750896453857421875000
-0.06713952869176864624023437500
0.05213007330894470214843750000
-0.07432045787572860717773437500
0.00420767720788717269897460938
0.06112247332930564880371093750
0.00824552495032548904418945312
-0.03120954334735870361328125000
0.05472952127456665039062500000
0.07202777266502380371093750000
0.00065464788349345326423645020
0.00998046062886714935302734375
-0.02530931867659091949462890625
-0.05152669548988342285156250000
0.00188878586050122976303100586
0.03362980857491493225097656250
-0.11101943254470825195312500000
-0.07376910746097564697265625000
0.12557753920555114746093750000
0.02165799587965011596679687500
0.16964767873287200927734375000
0.01083977054804563522338867188
0.09826960414648056030273437500
0.16006323695182800292968750000
0.00420725764706730842590332031
-0.04490547254681587219238281250
-0.12094525992870330810546875000
0.10260369628667831420898437500
-0.02025509998202323913574218750
0.08781524747610092163085937500
-0.00396953010931611061096191406
0.05956211313605308532714843750
0.00043862013262696564197540283
0.02899380028247833251953125000
0.04761065542697906494140625000
0.09499309211969375610351562500
-0.04800699278712272644042968750
-0.06073125824332237243652343750
0.02735844254493713378906250000
0.01353667210787534713745117188
-0.31462982296943664550781250000
0.09406667947769165039062500000
-0.00106893305201083421707153320
-0.00620969012379646301269531250
0.04734227806329727172851562500
-0.06210494786500930786132812500
0.02008285932242870330810546875
-0.00667854072526097297668457031
0.11156795173883438110351562500
-0.06716733425855636596679687500
0.26122081279754638671875000000
0.04475117474794387817382812500
0.12030500918626785278320312500
0.03490011766552925109863281250
0.10821752995252609252929687500
0.05849620327353477478027343750
0.05562309548258781433105468750
-0.01982145942747592926025390625
0.11939743906259536743164062500
0.07241738587617874145507812500
-0.06737159192562103271484375000
-0.04177516698837280273437500000
0.05562235042452812194824218750
0.04632249474525451660156250000
0.04280867800116539001464843750
-0.08710864186286926269531250000
-0.07335015386343002319335937500
-0.00545244943350553512573242188
-0.01038027741014957427978515625
-0.06529578566551208496093750000
-0.06156698614358901977539062500
0.07007974386215209960937500000
0.04568735882639884948730468750
-0.01490460708737373352050781250
0.02499839290976524353027343750
-0.04017345607280731201171875000
0.07546453177928924560546875000
-0.07851612567901611328125000000
0.04152334108948707580566406250
0.02362646162509918212890625000
0.06388982385396957397460937500
0.06282100826501846313476562500
0.06095541268587112426757812500
0.10159724950790405273437500000
-0.02795027568936347961425781250
-0.01538927387446165084838867188
0.05403811857104301452636718750
0.13483388721942901611328125000
0.03761305660009384155273437500
0.04224810749292373657226562500
-0.15222445130348205566406250000
-0.04545863345265388488769531250
0.12324077636003494262695312500
0.04863369837403297424316406250
0.04717030376195907592773437500
-0.07079370319843292236328125000
-0.17360658943653106689453125000
-0.07692094147205352783203125000
0.00435755727812647819519042969
0.09408455342054367065429687500
0.14872962236404418945312500000
0.02885923534631729125976562500
0.01868447288870811462402343750
0.11714957654476165771484375000
0.05510914325714111328125000000
-0.07073488831520080566406250000
0.02808795869350433349609375000
0.04879186302423477172851562500
0.04003765806555747985839843750
0.01210178248584270477294921875
-0.00775150489062070846557617188
0.10494393110275268554687500000
-0.02666909806430339813232421875
0.04116395115852355957031250000
-0.15344850718975067138671875000
0.08556970208883285522460937500
0.00692675309255719184875488281
0.01906402222812175750732421875
-0.03542477265000343322753906250
0.02909681387245655059814453125
0.13658110797405242919921875000
-0.00440838513895869255065917969
0.06443834304809570312500000000
0.02741189114749431610107421875
-0.05231877416372299194335937500
0.05184651538729667663574218750
0.00038217622204683721065521240
-0.02944771759212017059326171875
0.00258368812501430511474609375
0.07180362194776535034179687500
-0.04518011584877967834472656250
0.02625021897256374359130859375
-0.05043479800224304199218750000
0.06671826541423797607421875000
-0.01487400941550731658935546875
-0.01981447450816631317138671875
-0.01006881799548864364624023438
-0.02395728230476379394531250000
0.05680774897336959838867187500
-0.00149249040987342596054077148
-0.01566858403384685516357421875
-0.02158246003091335296630859375
0.08698049187660217285156250000
-0.03593474254012107849121093750
0.01271453220397233963012695312
0.02516296878457069396972656250
0.01413133088499307632446289062
0.02211952209472656250000000000
-0.07220266014337539672851562500
0.03310665488243103027343750000
-0.03465287387371063232421875000
0.04497877880930900573730468750
-0.00837820768356323242187500000
0.00408505508676171302795410156
-0.05215864628553390502929687500
-0.01889417506754398345947265625
-0.01642467454075813293457031250
0.07378503680229187011718750000
0.00581971742212772369384765625
0.07424772530794143676757812500
0.08284489065408706665039062500
0.01982439681887626647949218750
0.04539728537201881408691406250
-0.01717981696128845214843750000
-0.06815669685602188110351562500
-0.02972500957548618316650390625
-0.01263720821589231491088867188
0.06857029348611831665039062500
-0.04701442644000053405761718750
0.02579262666404247283935546875
0.04715350270271301269531250000
0.00357473362237215042114257812
0.06535990536212921142578125000
0.02179958485066890716552734375
0.05570629984140396118164062500
0.03617554157972335815429687500
0.04983163997530937194824218750
0.00237264391034841537475585938
0.01678215339779853820800781250
-0.01882448419928550720214843750
-0.02158484607934951782226562500
0.05222380533814430236816406250
-0.06566877663135528564453125000
-0.00730287563055753707885742188
0.00075754144927486777305603027
0.01366094965487718582153320312
-0.02593644894659519195556640625
0.04216869920492172241210937500
0.01160996314138174057006835938
0.00910094380378723144531250000
-0.01771819964051246643066406250
-0.06123204529285430908203125000
0.04075935855507850646972656250
0.03569593653082847595214843750
-0.00867963023483753204345703125
0.01259308308362960815429687500
0.02702435851097106933593750000
0.00174911716021597385406494141
0.05126516148447990417480468750
0.02738797850906848907470703125
0.06656980514526367187500000000
0.02060796506702899932861328125
-0.00940649490803480148315429688
-0.01872778683900833129882812500
0.05315509438514709472656250000
0.01910525746643543243408203125
0.11236109584569931030273437500
0.05191297456622123718261718750
0.03145269304513931274414062500
-0.03594736754894256591796875000
-0.02296649664640426635742187500
-0.05814002081751823425292968750
-0.00659856945276260375976562500
0.03908905386924743652343750000
0.03995493799448013305664062500
0.01222774852067232131958007812
-0.01690082624554634094238281250
-0.01906779222190380096435546875
0.08106131106615066528320312500
0.02372965775430202484130859375
-0.01308803353458642959594726562
0.10559733211994171142578125000
-0.02052995562553405761718750000
0.03145514428615570068359375000
0.01198914647102355957031250000
0.06849877536296844482421875000
0.05621851980686187744140625000
0.03856052085757255554199218750
0.02323393896222114562988281250
0.10666133463382720947265625000
0.01397926919162273406982421875
-0.03282495215535163879394531250
0.00696322508156299591064453125
0.00175287551246583461761474609
-0.04872149601578712463378906250
-0.00208726176060736179351806641
-0.03589800372719764709472656250
0.01456864271312952041625976562
0.00542483199387788772583007812
-0.02473610267043113708496093750
-0.04074057191610336303710937500
0.03526162728667259216308593750
0.19122956693172454833984375000
0.27320706844329833984375000000
-0.11025667935609817504882812500
-0.07442205399274826049804687500
0.00098742253612726926803588867
-0.02234182506799697875976562500
0.01500056870281696319580078125
-0.10253288596868515014648437500
-0.10513786226511001586914062500
-0.00842276401817798614501953125
0.00805603712797164916992187500
0.00226639281027019023895263672
-0.08342099189758300781250000000
-0.00374183082021772861480712891
-0.03343645483255386352539062500
-0.00323405489325523376464843750
0.00481991609558463096618652344
-0.00461728405207395553588867188
-0.04669499769806861877441406250
-0.07891387492418289184570312500
-0.02154506742954254150390625000
-0.00039335724432021379470825195
-0.04577303677797317504882812500
0.00274209328927099704742431641
0.00031729516922496259212493896
0.23574811220169067382812500000
-0.01024670619517564773559570312
0.00098179385531693696975708008
-0.24156334996223449707031250000
-0.10192767530679702758789062500
0.01628923416137695312500000000
0.00585718080401420593261718750
0.23173487186431884765625000000
0.10070575773715972900390625000
-0.07413239032030105590820312500
0.00819816906005144119262695312
-0.11767072975635528564453125000
0.01790062710642814636230468750
0.01906425692141056060791015625
-0.09874558448791503906250000000
0.00490157492458820343017578125
0.19217351078987121582031250000
-0.03962038084864616394042968750
-0.07402481883764266967773437500
-0.03728831931948661804199218750
-0.05006291717290878295898437500
-0.10182078182697296142578125000
0.00190539541654288768768310547
0.02402919158339500427246093750
-0.13919481635093688964843750000
-0.07933615148067474365234375000
-0.00007358224684139713644981384
0.05209515616297721862792968750
-0.09373506158590316772460937500
0.00307213328778743743896484375
-0.09840196371078491210937500000
-0.07159253209829330444335937500
-0.01560118049383163452148437500
-0.08361171185970306396484375000
0.05464589595794677734375000000
0.08098814636468887329101562500
-0.14683499932289123535156250000
0.01034823060035705566406250000
0.00891473609954118728637695312
-0.00282335840165615081787109375
-0.04448754340410232543945312500
-0.03544350340962409973144531250
-0.00109639205038547515869140625
0.04751775413751602172851562500
0.06989406794309616088867187500
-0.09640651196241378784179687500
-0.04025394842028617858886718750
-0.10991404205560684204101562500
-0.00265411101281642913818359375
0.02294843457639217376708984375
-0.04676176607608795166015625000
-0.09013109654188156127929687500
0.06875383108854293823242187500
-0.00726262480020523071289062500
0.03130321949720382690429687500
0.00302158202975988388061523438
-0.05727450922131538391113281250
0.00181698007509112358093261719
-0.02985798940062522888183593750
-0.02290393970906734466552734375
-0.03400107473134994506835937500
0.10849837213754653930664062500
0.00690364744514226913452148438
-0.04047169536352157592773437500
0.12341172993183135986328125000
-0.03553926572203636169433593750
0.00317047280259430408477783203
-0.09792992472648620605468750000
0.00874350313097238540649414062
-0.05987239629030227661132812500
-0.01289866957813501358032226562
-0.06298620998859405517578125000
-0.00144403812009841203689575195
0.04622123017907142639160156250
-0.04873892292380332946777343750
0.02447861619293689727783203125
-0.04740938916802406311035156250
-0.02489971555769443511962890625
-0.06431857496500015258789062500
0.00406535901129245758056640625
-0.00412249797955155372619628906
-0.09840822219848632812500000000
0.08517177402973175048828125000
-0.01186881773173809051513671875
-0.04288103803992271423339843750
0.00377884809859097003936767578
-0.07552329450845718383789062500
-0.01934419386088848114013671875
-0.07061177492141723632812500000
-0.00001678998160059563815593719
-0.03919050097465515136718750000
-0.01010582689195871353149414062
-0.04741596803069114685058593750
-0.00307218707166612148284912109
-0.00778430700302124023437500000
-0.01287101581692695617675781250
-0.13849429786205291748046875000
-0.12399647384881973266601562500
-0.04748728498816490173339843750
-0.01650311611592769622802734375
-0.10435846447944641113281250000
0.06108282506465911865234375000
-0.07903874665498733520507812500
0.06822831183671951293945312500
0.07668250799179077148437500000
-0.03286395594477653503417968750
-0.04045163467526435852050781250
-0.00901233032345771789550781250
-0.12534300982952117919921875000
-0.09882219135761260986328125000
0.06258540600538253784179687500
-0.00094449979951605200767517090
-0.01367645710706710815429687500
-0.01528141554445028305053710938
-0.10507597774267196655273437500
-0.09008297324180603027343750000
-0.12109159678220748901367187500
-0.00950693432241678237915039062
0.16528944671154022216796875000
-0.00351232732646167278289794922
0.04253721237182617187500000000
0.03327681496739387512207031250
0.01595578715205192565917968750
0.03054400533437728881835937500
-0.04321792721748352050781250000
0.05111842602491378784179687500
-0.07307314872741699218750000000
0.04961528629064559936523437500
-0.00634982809424400329589843750
-0.02773196436464786529541015625
0.00768018094822764396667480469
-0.09446912258863449096679687500
-0.12526334822177886962890625000
-0.05788710713386535644531250000
-0.05150372162461280822753906250
0.04591541737318038940429687500
0.03702420741319656372070312500
-0.08447602391242980957031250000
-0.00323174544610083103179931641
0.04594605043530464172363281250
-0.02991962060332298278808593750
-0.01433738600462675094604492188
0.05571238324046134948730468750
-0.02868101559579372406005859375
0.04867559298872947692871093750
0.00799527112394571304321289062
-0.06008422002196311950683593750
-0.05973567068576812744140625000
-0.10054901987314224243164062500
-0.04176663607358932495117187500
-0.02065115608274936676025390625
0.02790857292711734771728515625
0.07768835872411727905273437500
0.02954671718180179595947265625
-0.04940409585833549499511718750
-0.00390394497662782669067382812
-0.02308586984872817993164062500
-0.20586778223514556884765625000
-0.06642027944326400756835937500
-0.12391181290149688720703125000
-0.03601598367094993591308593750
-0.01664971001446247100830078125
-0.00661606667563319206237792969
0.13791400194168090820312500000
0.02054617553949356079101562500
0.01493167318403720855712890625
-0.04645052924752235412597656250
0.20339266955852508544921875000
0.04679497331380844116210937500
-0.11073271930217742919921875000
-0.06587489694356918334960937500
-0.03007502481341361999511718750
0.00687327422201633453369140625
0.01847259514033794403076171875
-0.00699712848290801048278808594
-0.09487348049879074096679687500
0.00439479341730475425720214844
-0.06664204597473144531250000000
-0.00613230979070067405700683594
0.01179238036274909973144531250
-0.04338702186942100524902343750
-0.04121834784746170043945312500
-0.07115457206964492797851562500
-0.03524409607052803039550781250
0.02243116311728954315185546875
0.06663570553064346313476562500
0.07241256535053253173828125000
0.00336799165233969688415527344
-0.01671268232166767120361328125
-0.08708944916725158691406250000
0.09590161591768264770507812500
0.02388183027505874633789062500
0.04331954941153526306152343750
-0.02014092355966567993164062500
-0.02060450613498687744140625000
-0.08084677159786224365234375000
0.02549540810286998748779296875
-0.05089012533426284790039062500
0.00332233007065951824188232422
-0.11784487962722778320312500000
-0.12210109084844589233398437500
-0.02981055900454521179199218750
-0.05142014101147651672363281250
-0.01391316298395395278930664062
0.03588459268212318420410156250
-0.01406124420464038848876953125
-0.07185393571853637695312500000
-0.06984030455350875854492187500
0.00258845812641084194183349609
0.00660277763381600379943847656
0.06114089116454124450683593750
-0.19241154193878173828125000000
-0.08591700345277786254882812500
-0.04996601864695549011230468750
-0.06102127581834793090820312500
-0.08964575082063674926757812500
-0.15185444056987762451171875000
0.14061395823955535888671875000
0.01389063335955142974853515625
-0.02717309445142745971679687500
-0.01976524479687213897705078125
-0.08253207802772521972656250000
0.08498918265104293823242187500
-0.05695775151252746582031250000
-0.06455589085817337036132812500
-0.09981224685907363891601562500
-0.00245607201941311359405517578
0.03132905438542366027832031250
0.02248441986739635467529296875
-0.17830178141593933105468750000
0.05531168729066848754882812500
0.04714565724134445190429687500
0.03568564727902412414550781250
0.08004996180534362792968750000
-0.08946567028760910034179687500
-0.00891519803553819656372070312
-0.03124991245567798614501953125
-0.08898551017045974731445312500
-0.03981474414467811584472656250
0.00481463782489299774169921875
0.02348542958498001098632812500
-0.00678837159648537635803222656
-0.04342067241668701171875000000
0.00686641270294785499572753906
0.05025849863886833190917968750
0.05905655026435852050781250000
-0.03380216285586357116699218750
0.02093194238841533660888671875
-0.06235301122069358825683593750
0.03065994009375572204589843750
-0.08705108612775802612304687500
0.11937402933835983276367187500
0.02404159866273403167724609375
0.01547256764024496078491210938
-0.05892148986458778381347656250
0.00622331956401467323303222656
-0.03940298780798912048339843750
-0.03018837235867977142333984375
-0.04393790289759635925292968750
-0.01682044751942157745361328125
-0.06775037199258804321289062500
-0.08617468923330307006835937500
-0.03184625133872032165527343750
-0.11717762798070907592773437500
0.08320986479520797729492187500
-0.00643993495032191276550292969
-0.03884856775403022766113281250
0.08290810883045196533203125000
0.07580125331878662109375000000
-0.00311160646378993988037109375
0.01242858637124300003051757812
0.06734495609998703002929687500
-0.04416440054774284362792968750
-0.03626426681876182556152343750
0.06234468892216682434082031250
-0.04174118116497993469238281250
-0.09012183547019958496093750000
-0.06130311638116836547851562500
0.02270494028925895690917968750
0.00553696043789386749267578125
0.01240969449281692504882812500
0.05434769019484519958496093750
0.05642876774072647094726562500
0.17539946734905242919921875000
0.04759161546826362609863281250
-0.02086921595036983489990234375
-0.00757866399362683296203613281
-0.06781465560197830200195312500
0.00866710487753152847290039062
0.03583924099802970886230468750
-0.01646398566663265228271484375
0.06246296688914299011230468750
-0.02548162080347537994384765625
0.01037294790148735046386718750
0.01013999246060848236083984375
0.24267332255840301513671875000
-0.05301548168063163757324218750
-0.00429092859849333763122558594
-0.06168896704912185668945312500
-0.07172393798828125000000000000
0.01980109326541423797607421875
-0.11821467429399490356445312500
0.06951573491096496582031250000
-0.14568448066711425781250000000
-0.01648780144751071929931640625
0.09454335272312164306640625000
-0.05465593189001083374023437500
0.00468670669943094253540039062
-0.00175616890192031860351562500
-0.10258872061967849731445312500
0.02995391003787517547607421875
-0.01269054878503084182739257812
0.05374731495976448059082031250
0.02014589495956897735595703125
0.06386423856019973754882812500
0.06607526540756225585937500000
0.02718511782586574554443359375
0.11783982813358306884765625000
-0.05768611282110214233398437500
0.10586572438478469848632812500
0.05210926011204719543457031250
-0.01806200295686721801757812500
0.10039559751749038696289062500
-0.07194391638040542602539062500
-0.05457879602909088134765625000
-0.01862461119890213012695312500
0.07756766676902770996093750000
0.03712340816855430603027343750
-0.08386491984128952026367187500
-0.14901897311210632324218750000
0.03570510074496269226074218750
0.09090010076761245727539062500
-0.02035042829811573028564453125
0.05122784152626991271972656250
-0.06321870535612106323242187500
-0.07574559748172760009765625000
0.00278362235985696315765380859
0.05398101732134819030761718750
0.04837298020720481872558593750
0.06648450344800949096679687500
-0.00905997212976217269897460938
-0.09908150881528854370117187500
-0.07236160337924957275390625000
-0.11636827141046524047851562500
-0.06760347634553909301757812500
-0.05315852537751197814941406250
0.00303623639047145843505859375
0.00651428708806633949279785156
0.02194517292082309722900390625
0.04850961267948150634765625000
0.08702195435762405395507812500
-0.00729529792442917823791503906
0.01967113465070724487304687500
0.07011078298091888427734375000
0.03090444579720497131347656250
0.04089008271694183349609375000
-0.14723238348960876464843750000
0.01651252061128616333007812500
0.03515272960066795349121093750
0.20369893312454223632812500000
-0.00009304372360929846763610840
0.13015747070312500000000000000
0.07987637072801589965820312500
0.11166369915008544921875000000
-0.04558380320668220520019531250
0.09453345090150833129882812500
0.03297575563192367553710937500
-0.07157093286514282226562500000
0.04855705425143241882324218750
-0.04388994351029396057128906250
-0.06044931337237358093261718750
-0.03221518173813819885253906250
-0.05167284235358238220214843750
-0.03513459861278533935546875000
-0.03579417988657951354980468750
-0.07877098768949508666992187500
0.12796244025230407714843750000
0.00415988732129335403442382812
-0.06958448886871337890625000000
-0.00050542410463094711303710938
0.05923303961753845214843750000
-0.01165904197841882705688476562
0.06738785654306411743164062500
-0.09652628004550933837890625000
0.06557220965623855590820312500
0.00869735516607761383056640625
-0.11791935563087463378906250000
0.00522161228582262992858886719
0.06953318417072296142578125000
-0.08533582091331481933593750000
-0.00950490869581699371337890625
-0.01259417179971933364868164062
-0.11631907522678375244140625000
0.05009208247065544128417968750
0.04278567433357238769531250000
-0.01108752842992544174194335938
0.18091815710067749023437500000
-0.05932206660509109497070312500
-0.02508789114654064178466796875
0.18349531292915344238281250000
0.01535552926361560821533203125
0.03522311896085739135742187500
0.03185502439737319946289062500
-0.08742424100637435913085937500
0.11145813763141632080078125000
0.02027806825935840606689453125
0.07936560362577438354492187500
-0.01688993163406848907470703125
0.00165249465499073266983032227
0.22987443208694458007812500000
0.05525412783026695251464843750
0.02898530848324298858642578125
0.08748040348291397094726562500
0.09626942127943038940429687500
-0.06000080332159996032714843750
0.02530885301530361175537109375
-0.02458084560930728912353515625
0.12369621545076370239257812500
0.01129607949405908584594726562
-0.00150768144521862268447875977
-0.07399758696556091308593750000
0.09070034325122833251953125000
-0.00412418879568576812744140625
0.03014777414500713348388671875
0.08343823254108428955078125000
0.12536740303039550781250000000
-0.07478648424148559570312500000
-0.10278792679309844970703125000
0.06762119382619857788085937500
0.03514894470572471618652343750
0.04541314020752906799316406250
0.17139153182506561279296875000
0.02922060713171958923339843750
0.00876636803150177001953125000
-0.02415338158607482910156250000
-0.05748901516199111938476562500
-0.03563607856631278991699218750
0.07096015661954879760742187500
-0.00599442841485142707824707031
-0.02741389162838459014892578125
0.00525390356779098510742187500
-0.06431387364864349365234375000
-0.03752783685922622680664062500
0.05923877283930778503417968750
0.02813644893467426300048828125
0.03466048464179039001464843750
-0.06465791910886764526367187500
0.02396389283239841461181640625
-0.04978938028216361999511718750
-0.00088170508388429880142211914
-0.06189804524183273315429687500
0.08389416337013244628906250000
0.08303204923868179321289062500
-0.18506015837192535400390625000
-0.02819345146417617797851562500
0.15294584631919860839843750000
0.08127750456333160400390625000
-0.05084875598549842834472656250
0.04477777332067489624023437500
0.06399198621511459350585937500
-0.06665331125259399414062500000
-0.02731614373624324798583984375
-0.10849425941705703735351562500
0.16719050705432891845703125000
-0.02561546675860881805419921875
-0.01728229969739913940429687500
-0.06639575213193893432617187500
-0.00698466086760163307189941406
0.06815693527460098266601562500
0.06681626290082931518554687500
0.06421042978763580322265625000
-0.10047686845064163208007812500
-0.12058818340301513671875000000
-0.03041793033480644226074218750
-0.06319390237331390380859375000
-0.00724534923210740089416503906
-0.09614879637956619262695312500
-0.05940033122897148132324218750
-0.11802257597446441650390625000
-0.00931602623313665390014648438
-0.10481130331754684448242187500
0.05769909918308258056640625000
0.05424798280000686645507812500
-0.01181913260370492935180664062
-0.02080884389579296112060546875
0.09158857166767120361328125000
0.01573144458234310150146484375
-0.00409813178703188896179199219
0.02754835598170757293701171875
-0.00141204684041440486907958984
0.00949363410472869873046875000
0.08257476985454559326171875000
-0.03071139939129352569580078125
0.10201967507600784301757812500
0.00786076579242944717407226562
0.06134642288088798522949218750
0.02422871068120002746582031250
0.17728249728679656982421875000
-0.01752344518899917602539062500
-0.00291699776425957679748535156
-0.06490524113178253173828125000
-0.00730518763884902000427246094
-0.09359161555767059326171875000
-0.00341472029685974121093750000
0.01732876151800155639648437500
-0.01807655766606330871582031250
0.04483053833246231079101562500
0.12010146677494049072265625000
0.01152346655726432800292968750
0.00756372371688485145568847656
0.09455168247222900390625000000
0.03024582751095294952392578125
-0.04739385843276977539062500000
0.10975611209869384765625000000
0.00152842758689075708389282227
-0.01222966983914375305175781250
0.06420988589525222778320312500
-0.11365969479084014892578125000
-0.04510599747300148010253906250
0.07540212571620941162109375000
-0.09108058363199234008789062500
0.05498543381690979003906250000
0.01723368652164936065673828125
0.05239480361342430114746093750
0.06648731976747512817382812500
-0.03749380633234977722167968750
0.00832887459546327590942382812
0.00888441968709230422973632812
-0.02291540428996086120605468750
0.01241001300513744354248046875
0.05199928209185600280761718750
0.12100112438201904296875000000
0.12528717517852783203125000000
-0.06776485592126846313476562500
0.00236589414998888969421386719
-0.00947539322078227996826171875
0.06124917417764663696289062500
0.12349243462085723876953125000
-0.01154177729040384292602539062
0.01312575489282608032226562500
-0.08836425095796585083007812500
-0.15285265445709228515625000000
0.11690534651279449462890625000
-0.07127801328897476196289062500
-0.03584548085927963256835937500
-0.03506993502378463745117187500
0.09548075497150421142578125000
-0.04918758571147918701171875000
0.03360614553093910217285156250
0.01184218749403953552246093750
0.04212258756160736083984375000
0.09958997368812561035156250000
-0.02829791791737079620361328125
-0.02421656809747219085693359375
-0.18818493187427520751953125000
0.01928287558257579803466796875
0.05002656206488609313964843750
0.03932812437415122985839843750
-0.02374057658016681671142578125
0.10672052949666976928710937500
-0.14373055100440979003906250000
-0.03234299272298812866210937500
0.03053235262632369995117187500
-0.05435083806514739990234375000
-0.00370246847160160541534423828
0.26277509331703186035156250000
0.03975644335150718688964843750
-0.04676938802003860473632812500
-0.00999043509364128112792968750
0.01006292738020420074462890625
-0.08748133480548858642578125000
-0.10333279520273208618164062500
0.08538658916950225830078125000
0.10906034708023071289062500000
-0.06295439600944519042968750000
-0.02050243504345417022705078125
-0.01786031201481819152832031250
0.00041823476203717291355133057
0.00991750508546829223632812500
0.04049255698919296264648437500
0.11402282863855361938476562500
0.04919838532805442810058593750
-0.20480647683143615722656250000
-0.01870719902217388153076171875
0.11348095536231994628906250000
0.05185376107692718505859375000
-0.01736879721283912658691406250
0.04113803431391716003417968750
0.05133743211627006530761718750
-0.03131613880395889282226562500
0.00759989954531192779541015625
0.19178868830204010009765625000
-0.04956673830747604370117187500
-0.00111666263546794652938842773
-0.05881687626242637634277343750
0.08412989974021911621093750000
0.03043502755463123321533203125
0.22801402211189270019531250000
-0.07210756838321685791015625000
0.00301621924154460430145263672
0.06631252169609069824218750000
-0.00086786894826218485832214355
0.01161451172083616256713867188
0.01405708491802215576171875000
0.14998055994510650634765625000
-0.10632626712322235107421875000
0.05798105522990226745605468750
0.21389044821262359619140625000
0.01927210763096809387207031250
0.07195204496383666992187500000
-0.02848759852349758148193359375
-0.05734958127140998840332031250
0.05240782722830772399902343750
0.06325899064540863037109375000
0.03307872265577316284179687500
0.07798318564891815185546875000
0.01882511936128139495849609375
0.03806817159056663513183593750
-0.05129169300198554992675781250
-0.09555646032094955444335937500
0.04061672091484069824218750000
0.01008302718400955200195312500
-0.00619829539209604263305664062
0.07876358926296234130859375000
0.06225752085447311401367187500
-0.05490482598543167114257812500
0.04358879104256629943847656250
0.08211775869131088256835937500
0.08768668025732040405273437500
0.00165070709772408008575439453
-0.04961896687746047973632812500
0.04883610457181930541992187500
-0.02950974181294441223144531250
0.03763947263360023498535156250
0.05995009094476699829101562500
0.04340683668851852416992187500
0.04560863971710205078125000000
0.00209392653778195381164550781
-0.10895721614360809326171875000
0.01925307326018810272216796875
-0.03252585604786872863769531250
0.01598510704934597015380859375
0.03457572683691978454589843750
-0.02106311172246932983398437500
0.13032375276088714599609375000
0.01258572377264499664306640625
0.04863409325480461120605468750
0.00859324075281620025634765625
-0.05385665223002433776855468750
0.01762747950851917266845703125
-0.00571281742304563522338867188
0.04697669297456741333007812500
-0.01088444795459508895874023438
-0.01662559248507022857666015625
0.05450053140521049499511718750
0.04663968831300735473632812500
0.03159631043672561645507812500
-0.06774061918258666992187500000
0.08728870004415512084960937500
0.03946098685264587402343750000
0.06376713514328002929687500000
-0.03836449608206748962402343750
0.04946061596274375915527343750
0.00235621002502739429473876953
0.05811697989702224731445312500
0.13333880901336669921875000000
0.05277777463197708129882812500
0.03586274385452270507812500000
0.03713257983326911926269531250
0.21301746368408203125000000000
0.02157100103795528411865234375
-0.02604693546891212463378906250
0.05064347013831138610839843750
0.09835357964038848876953125000
0.02717650495469570159912109375
0.00308260903693735599517822266
0.14332398772239685058593750000
0.05058000981807708740234375000
0.05654960870742797851562500000
-0.20193119347095489501953125000
0.01948472857475280761718750000
0.11927481740713119506835937500
0.10442933440208435058593750000
0.05062416568398475646972656250
0.02150391787290573120117187500
0.09744402021169662475585937500
0.07303632795810699462890625000
0.04858957231044769287109375000
0.03732955455780029296875000000
0.04515110328793525695800781250
-0.04377351328730583190917968750
0.08264455199241638183593750000
0.00347025296650826930999755859
-0.16682945191860198974609375000
0.09996939450502395629882812500
0.04196159169077873229980468750
-0.07660658657550811767578125000
-0.03176388144493103027343750000
0.01224279683083295822143554688
-0.04471120983362197875976562500
0.06136707589030265808105468750
0.02592795155942440032958984375
-0.02004206739366054534912109375
-0.03599602356553077697753906250
0.05078319460153579711914062500
0.01078127883374691009521484375
0.04426772892475128173828125000
0.13518245518207550048828125000
-0.08284757286310195922851562500
-0.07939883321523666381835937500
0.11455234885215759277343750000
0.07926174253225326538085937500
-0.11269560456275939941406250000
0.08459812402725219726562500000
0.04077558964490890502929687500
0.04847676679491996765136718750
0.04080952331423759460449218750
-0.03719612210988998413085937500
0.00566965760663151741027832031
0.02280719392001628875732421875
0.04193387925624847412109375000
0.06750931590795516967773437500
-0.05878705903887748718261718750
0.20713321864604949951171875000
-0.02032791264355182647705078125
-0.05654299259185791015625000000
-0.01741817593574523925781250000
0.11424301564693450927734375000
-0.00268788076937198638916015625
-0.02745086885988712310791015625
0.05919694155454635620117187500
0.00437012594193220138549804688
0.07094287127256393432617187500
0.08352790772914886474609375000
-0.02601045928895473480224609375
0.02090532146394252777099609375
0.11630646884441375732421875000
0.15181480348110198974609375000
0.04625328257679939270019531250
-0.01599520072340965270996093750
0.00284335575997829437255859375
-0.02431959845125675201416015625
0.05963658168911933898925781250
0.10634063929319381713867187500
-0.14796651899814605712890625000
0.03423878550529479980468750000
-0.11821863055229187011718750000
0.07683909684419631958007812500
0.06241375207901000976562500000
-0.14183369278907775878906250000
-0.04910729080438613891601562500
-0.06463946402072906494140625000
0.01727939397096633911132812500
-0.14257764816284179687500000000
-0.03951896727085113525390625000
0.01143165864050388336181640625
-0.10729985684156417846679687500
0.04613474383950233459472656250
-0.01071731559932231903076171875
0.03564213216304779052734375000
-0.00934581831097602844238281250
-0.04826000705361366271972656250
-0.03801556676626205444335937500
0.07013075798749923706054687500
-0.00080822833115234971046447754
-0.05925717204809188842773437500
0.13614107668399810791015625000
-0.05073049291968345642089843750
-0.01371678430587053298950195312
0.02820166572928428649902343750
-0.06923031061887741088867187500
0.02702732197940349578857421875
-0.06304255127906799316406250000
-0.14350412786006927490234375000
-0.05016638711094856262207031250
-0.03748036921024322509765625000
0.06110404059290885925292968750
-0.05712771788239479064941406250
-0.04314587265253067016601562500
-0.06525159627199172973632812500
-0.01088464166969060897827148438
-0.00218742364086210727691650391
0.04121458157896995544433593750
0.00494698341935873031616210938
-0.01404420752078294754028320312
0.05968020111322402954101562500
-0.00117646483704447746276855469
0.10666148364543914794921875000
-0.02397814951837062835693359375
0.03303002938628196716308593750
0.05423853173851966857910156250
0.02270205505192279815673828125
-0.01746209710836410522460937500
-0.11929842084646224975585937500
-0.06817237287759780883789062500
0.02189163304865360260009765625
-0.00179008848499506711959838867
-0.16393339633941650390625000000
-0.06342764943838119506835937500
-0.08800591528415679931640625000
-0.05480069294571876525878906250
0.00355723151005804538726806641
-0.00558498967438936233520507812
0.02272786572575569152832031250
0.04719476401805877685546875000
-0.05153566226363182067871093750
-0.12031646817922592163085937500
-0.00633564451709389686584472656
-0.03101977147161960601806640625
-0.11056048423051834106445312500
0.01885689236223697662353515625
-0.07177812606096267700195312500
-0.08781670033931732177734375000
-0.04580075293779373168945312500
0.03948341682553291320800781250
0.11209301650524139404296875000
0.19345058500766754150390625000
-0.03888427838683128356933593750
0.05266987904906272888183593750
-0.09054347872734069824218750000
0.01521844416856765747070312500
0.07201673090457916259765625000
-0.05801128223538398742675781250
-0.04557903483510017395019531250
0.04414448142051696777343750000
-0.06866102665662765502929687500
0.08265446126461029052734375000
-0.09128354489803314208984375000
0.05977232754230499267578125000
-0.06213773414492607116699218750
-0.00304682645946741104125976562
-0.01745110377669334411621093750
0.06665815412998199462890625000
0.01091377530246973037719726562
-0.06287368386983871459960937500
0.02277816087007522583007812500
0.11246761679649353027343750000
0.05010261386632919311523437500
0.02677206508815288543701171875
-0.05574546754360198974609375000
0.18207512795925140380859375000
-0.01677697896957397460937500000
-0.09590368717908859252929687500
0.00720146950334310531616210938
-0.03650002554059028625488281250
0.01077266875654458999633789062
0.06476837396621704101562500000
0.01010617241263389587402343750
-0.06595755368471145629882812500
-0.10395266115665435791015625000
-0.04404627159237861633300781250
0.06625744700431823730468750000
-0.03407264128327369689941406250
-0.16554507613182067871093750000
-0.03881591185927391052246093750
-0.00941006559878587722778320312
0.04529271647334098815917968750
-0.14567019045352935791015625000
0.10232856869697570800781250000
0.02137000486254692077636718750
-0.10231229662895202636718750000
-0.08717092871665954589843750000
0.13391618430614471435546875000
0.05138953030109405517578125000
-0.01802815496921539306640625000
-0.03891054913401603698730468750
0.03867471963167190551757812500
0.07355715334415435791015625000
0.02496282942593097686767578125
-0.04380979016423225402832031250
0.00237465952523052692413330078
-0.30362385511398315429687500000
-0.00216628937050700187683105469
-0.01067986525595188140869140625
-0.01432088576257228851318359375
0.04581244289875030517578125000
0.00454469723626971244812011719
0.09826315194368362426757812500
-0.01318646129220724105834960938
-0.05329515412449836730957031250
-0.02369843050837516784667968750
-0.12318228185176849365234375000
-0.02465498074889183044433593750
-0.11263398081064224243164062500
0.20456214249134063720703125000
0.04089472442865371704101562500
-0.07247841358184814453125000000
-0.13707505166530609130859375000
0.08483128994703292846679687500
-0.00225597317330539226531982422
0.00234493473544716835021972656
-0.09263526648283004760742187500
-0.01655972003936767578125000000
-0.03799774870276451110839843750
-0.00722133927047252655029296875
-0.08073513954877853393554687500
0.03456344082951545715332031250
-0.02479926683008670806884765625
-0.11179878562688827514648437500
0.03827473893761634826660156250
-0.10680291056632995605468750000
-0.05614617839455604553222656250
-0.05056316405534744262695312500
-0.05116494745016098022460937500
-0.02678333409130573272705078125
-0.01087807118892669677734375000
-0.00877987500280141830444335938
-0.02787851169705390930175781250
-0.02839778549969196319580078125
0.05036049708724021911621093750
-0.04053307324647903442382812500
0.01712196879088878631591796875
-0.06290108710527420043945312500
-0.02228954620659351348876953125
0.05324091389775276184082031250
-0.03625495359301567077636718750
0.01078377384692430496215820312
0.04511394351720809936523437500
0.06107735261321067810058593750
-0.05126763507723808288574218750
-0.02768164686858654022216796875
-0.16863089799880981445312500000
-0.06840635836124420166015625000
0.01591389626264572143554687500
0.03650830313563346862792968750
-0.31421235203742980957031250000
-0.08756552636623382568359375000
0.03636097535490989685058593750
0.03511751443147659301757812500
-0.10648338496685028076171875000
-0.03521053120493888854980468750
0.01980130374431610107421875000
-0.06425415724515914916992187500
0.00072105985600501298904418945
0.13816949725151062011718750000
0.20349027216434478759765625000
-0.06685795634984970092773437500
-0.06472793966531753540039062500
-0.08959067612886428833007812500
-0.01517928112298250198364257812
-0.01840643957257270812988281250
-0.01487876288592815399169921875
0.02115944400429725646972656250
-0.09154760092496871948242187500
-0.09052363038063049316406250000
0.01121871452778577804565429688
0.04091176763176918029785156250
-0.06911142915487289428710937500
-0.03864600509405136108398437500
-0.22540554404258728027343750000
0.08561030030250549316406250000
-0.07047009468078613281250000000
-0.02937592938542366027832031250
-0.06249983236193656921386718750
0.00589368818327784538269042969
-0.06851866096258163452148437500
-0.05549942702054977416992187500
-0.05188470333814620971679687500
-0.08518095314502716064453125000
-0.08119063824415206909179687500
0.04892866313457489013671875000
-0.07357994467020034790039062500
0.13134369254112243652343750000
-0.10445352643728256225585937500
-0.03978279605507850646972656250
-0.02242620661854743957519531250
0.09220512211322784423828125000
0.01367225218564271926879882812
-0.01952418871223926544189453125
-0.05144684761762619018554687500
-0.08935295045375823974609375000
-0.00695132790133357048034667969
-0.06156173720955848693847656250
0.00222251610830426216125488281
0.01563522964715957641601562500
-0.01510270591825246810913085938
-0.08813682198524475097656250000
-0.02790278010070323944091796875
-0.04482727125287055969238281250
0.10000132769346237182617187500
0.02648148685693740844726562500
0.03574039041996002197265625000
0.00825914274901151657104492188
-0.04431467130780220031738281250
-0.00739964656531810760498046875
-0.08575981855392456054687500000
-0.03373100608587265014648437500
-0.02586185000836849212646484375
-0.00470082461833953857421875000
0.10825881361961364746093750000
-0.01272451784461736679077148438
-0.20531217753887176513671875000
0.02649538218975067138671875000
0.00774283893406391143798828125
-0.00868909060955047607421875000
-0.03073666058480739593505859375
0.01938797719776630401611328125
0.02148184925317764282226562500
0.05070212483406066894531250000
0.24346752464771270751953125000
-0.08483789116144180297851562500
-0.05046462267637252807617187500
0.01263546105474233627319335938
0.01160388533025979995727539062
0.01323447935283184051513671875
0.06672903150320053100585937500
-0.02718829177320003509521484375
0.08964657038450241088867187500
0.04570531472563743591308593750
0.02144110016524791717529296875
0.11460214108228683471679687500
-0.05304282531142234802246093750
-0.00987436622381210327148437500
-0.00972183514386415481567382812
0.00367441051639616489410400391
-0.03940070420503616333007812500
-0.01168212853372097015380859375
-0.04505155608057975769042968750
-0.05453974008560180664062500000
-0.01571123860776424407958984375
-0.06076019257307052612304687500
-0.00539418822154402732849121094
0.00280289631336927413940429688
0.03284174948930740356445312500
-0.04736272618174552917480468750
0.01598322764039039611816406250
0.04845342412590980529785156250
0.03653998300433158874511718750
0.02119215577840805053710937500
0.00041466596303507685661315918
-0.07156921178102493286132812500
-0.04507463052868843078613281250
0.01723487116396427154541015625
-0.01553171593695878982543945312
-0.03390710428357124328613281250
0.00423564948141574859619140625
0.00926579162478446960449218750
-0.05856030806899070739746093750
-0.06886205077171325683593750000
-0.09139806032180786132812500000
-0.01349541917443275451660156250
-0.02315560169517993927001953125
0.00592086277902126312255859375
0.01886671967804431915283203125
-0.04103262349963188171386718750
0.01893756166100502014160156250
0.00172061764169484376907348633
0.04338058829307556152343750000
0.01434016134589910507202148438
0.07236525416374206542968750000
-0.07263271510601043701171875000
-0.05369915440678596496582031250
-0.00117776554543524980545043945
-0.55340814590454101562500000000
0.00878211017698049545288085938
-0.01635444164276123046875000000
-0.03573712334036827087402343750
0.03592704609036445617675781250
-0.01282685156911611557006835938
0.03910510614514350891113281250
-0.11254024505615234375000000000
0.03818518668413162231445312500
0.02316009253263473510742187500
0.51630127429962158203125000000
-0.00702076870948076248168945312
-0.02894892171025276184082031250
-0.08531901240348815917968750000
0.07018085569143295288085937500
0.01934693939983844757080078125
-0.09600495547056198120117187500
0.00278666405938565731048583984
-0.03425995633006095886230468750
-0.07194171100854873657226562500
-0.01464769337326288223266601562
0.00795302912592887878417968750
-0.06234551221132278442382812500
0.02686507441103458404541015625
-0.05134306475520133972167968750
-0.08183141797780990600585937500
-0.10779851675033569335937500000
0.06664066016674041748046875000
-0.07858666777610778808593750000
0.03919034078717231750488281250
-0.00763527769595384597778320312
0.03777999803423881530761718750
0.09618797898292541503906250000
0.01992246881127357482910156250
0.03288562968373298645019531250
-0.03862412273883819580078125000
-0.02826290391385555267333984375
-0.00934044551104307174682617188
0.03370570391416549682617187500
0.01370684430003166198730468750
-0.01459689065814018249511718750
0.00999333336949348449707031250
0.03388067334890365600585937500
-0.00271554850041866302490234375
-0.06016539782285690307617187500
0.00049584126099944114685058594
0.09073229879140853881835937500
0.00100714387372136116027832031
0.01297335047274827957153320312
-0.04466087371110916137695312500
-0.05305030569434165954589843750
-0.16670912504196166992187500000
-0.07261728495359420776367187500
-0.11537531018257141113281250000
-0.08309827744960784912109375000
-0.00081376015441492199897766113
0.00949722900986671447753906250
0.00045880774268880486488342285
0.03485457971692085266113281250
0.00633468013256788253784179688
-0.00728593952953815460205078125
-0.01644442044198513031005859375
-0.00085168302757665514945983887
0.03644491732120513916015625000
-0.08298943191766738891601562500
0.06677909195423126220703125000
-0.05921836942434310913085937500
-0.06242790445685386657714843750
-0.00475856987759470939636230469
-0.00431537395343184471130371094
-0.03371023759245872497558593750
-0.01534578669816255569458007812
-0.01741614192724227905273437500
0.04784925282001495361328125000
0.12516535818576812744140625000
-0.02365455590188503265380859375
0.07898367941379547119140625000
-0.00767100881785154342651367188
0.06142985448241233825683593750
-0.06712301820516586303710937500
0.16002196073532104492187500000
0.04340851306915283203125000000
-0.01181212998926639556884765625
-0.02435034513473510742187500000
-0.03791362792253494262695312500
-0.01589999347925186157226562500
0.09206502884626388549804687500
-0.01763975806534290313720703125
-0.02664721943438053131103515625
0.11637192219495773315429687500
-0.01345471851527690887451171875
-0.05145266279578208923339843750
-0.09965696185827255249023437500
0.07994169741868972778320312500
0.03255933523178100585937500000
0.00346365896984934806823730469
0.09552536904811859130859375000
-0.15026292204856872558593750000
-0.12134061008691787719726562500
0.07968543469905853271484375000
-0.09109348803758621215820312500
-0.15165938436985015869140625000
0.02453148737549781799316406250
0.07349221408367156982421875000
-0.15450817346572875976562500000
-0.04735491797327995300292968750
0.08639130741357803344726562500
-0.03336894884705543518066406250
0.01712994091212749481201171875
-0.00280708307400345802307128906
0.05537191033363342285156250000
0.18233184516429901123046875000
0.03949464857578277587890625000
-0.05378495156764984130859375000
-0.00160381780005991458892822266
-0.00252079265192151069641113281
0.05719397589564323425292968750
0.04383060336112976074218750000
0.08782378584146499633789062500
0.11888018995523452758789062500
0.04358880966901779174804687500
0.08429531008005142211914062500
0.02792810648679733276367187500
-0.05899490416049957275390625000
-0.22311207652091979980468750000
-0.03333511948585510253906250000
-0.02037003077566623687744140625
-0.01666951179504394531250000000
-0.11499131470918655395507812500
0.11998095363378524780273437500
-0.05463213473558425903320312500
0.00973907019942998886108398438
0.14078472554683685302734375000
0.06420002877712249755859375000
-0.03601233661174774169921875000
0.02137822844088077545166015625
-0.05301601812243461608886718750
-0.00172186759300529956817626953
0.15157784521579742431640625000
0.08995991945266723632812500000
-0.02859636768698692321777343750
0.07562051713466644287109375000
-0.01139161083847284317016601562
0.01284726336598396301269531250
0.12647365033626556396484375000
-0.05140151083469390869140625000
0.06227166950702667236328125000
0.05093845352530479431152343750
0.05363779515027999877929687500
0.01935996115207672119140625000
0.01444805786013603210449218750
-0.01690710335969924926757812500
-0.07287017256021499633789062500
-0.03581060841679573059082031250
-0.00106594257522374391555786133
0.09689417481422424316406250000
0.00635878555476665496826171875
0.03513253852725028991699218750
0.10358393937349319458007812500
-0.05220716446638107299804687500
0.04278864711523056030273437500
0.04444253072142601013183593750
0.04493472725152969360351562500
-0.02956875413656234741210937500
-0.01046709343791007995605468750
0.00080549268750473856925964355
0.07688491046428680419921875000
-0.04198542237281799316406250000
0.07447409629821777343750000000
0.00477453693747520446777343750
-0.04991677403450012207031250000
-0.22862829267978668212890625000
-0.02845016866922378540039062500
-0.11519340425729751586914062500
0.08180287480354309082031250000
-0.02910503000020980834960937500
-0.08778726309537887573242187500
0.12691038846969604492187500000
0.05678802728652954101562500000
0.00444492418318986892700195312
0.02196193300187587738037109375
0.01514948904514312744140625000
-0.07787316292524337768554687500
0.06839722394943237304687500000
0.01026495546102523803710937500
-0.05085838213562965393066406250
0.12939688563346862792968750000
0.08513316512107849121093750000
-0.04341979324817657470703125000
0.18310688436031341552734375000
0.01940621808171272277832031250
-0.11427313834428787231445312500
0.02672432549297809600830078125
-0.04068573936820030212402343750
-0.09139113128185272216796875000
0.05699934437870979309082031250
0.07870960980653762817382812500
0.04302414879202842712402343750
-0.01771981827914714813232421875
0.02565090171992778778076171875
0.02113729715347290039062500000
-0.01143371686339378356933593750
-0.06327437609434127807617187500
0.08095414191484451293945312500
0.08568543940782546997070312500
0.08053277432918548583984375000
-0.02877764962613582611083984375
-0.03525026515126228332519531250
0.04595630615949630737304687500
0.00853175669908523559570312500
0.08472184836864471435546875000
0.08341030031442642211914062500
-0.04840293154120445251464843750
-0.02844699285924434661865234375
0.15124315023422241210937500000
0.02384435944259166717529296875
-0.00036320340586826205253601074
-0.01387021690607070922851562500
-0.07837931066751480102539062500
0.00419279281049966812133789062
0.04950883984565734863281250000
-0.04507775977253913879394531250
-0.08803093433380126953125000000
0.03448909521102905273437500000
-0.04697421938180923461914062500
-0.01173673477023839950561523438
-0.02235718630254268646240234375
-0.02886690013110637664794921875
0.10801164060831069946289062500
0.03105314448475837707519531250
0.02778734453022480010986328125
0.00820400193333625793457031250
-0.03825657442212104797363281250
0.01459345594048500061035156250
-0.08047340810298919677734375000
-0.07285288721323013305664062500
-0.05233896896243095397949218750
-0.00687654595822095870971679688
0.02797810174524784088134765625
0.03225429356098175048828125000
0.01507417205721139907836914062
0.12333969771862030029296875000
-0.03051265887916088104248046875
0.10607540607452392578125000000
0.09369288384914398193359375000
0.01987428218126296997070312500
0.00060380221111699938774108887
0.02383698336780071258544921875
-0.12228394299745559692382812500
0.05578720942139625549316406250
-0.03417608886957168579101562500
0.09022737294435501098632812500
0.11514408141374588012695312500
-0.02430099807679653167724609375
0.08782401680946350097656250000
0.07852532714605331420898437500
0.01327038276940584182739257812
0.02684583328664302825927734375
0.01445870846509933471679687500
0.01583224721252918243408203125
-0.05932515859603881835937500000
0.00330170523375272750854492188
-0.00131460849661380052566528320
0.07152491807937622070312500000
0.01452777441591024398803710938
0.12231448292732238769531250000
-0.19451712071895599365234375000
0.04836754128336906433105468750
-0.04087960720062255859375000000
0.13095594942569732666015625000
0.08312017470598220825195312500
-0.01014233194291591644287109375
-0.07342088222503662109375000000
0.02787983790040016174316406250
0.05699805542826652526855468750
-0.11537599563598632812500000000
0.03054537437856197357177734375
0.03068994358181953430175781250
0.04710637778043746948242187500
-0.00747434562072157859802246094
-0.12206361442804336547851562500
0.00918887741863727569580078125
0.02036255411803722381591796875
0.03324718028306961059570312500
-0.08964398503303527832031250000
0.02968302927911281585693359375
0.01937246322631835937500000000
0.07103769481182098388671875000
-0.01411255821585655212402343750
0.03746049478650093078613281250
0.04508930444717407226562500000
0.01067548803985118865966796875
-0.02497400902211666107177734375
0.05944352596998214721679687500
-0.01055241469293832778930664062
0.03263878822326660156250000000
-0.08463083207607269287109375000
0.01572120562195777893066406250
0.00498247006908059120178222656
-0.00618870370090007781982421875
-0.04836192727088928222656250000
0.02527464367449283599853515625
0.04580283910036087036132812500
0.11855228990316390991210937500
-0.06171509623527526855468750000
0.00241668662056326866149902344
0.13892844319343566894531250000
-0.04517820477485656738281250000
0.06419269740581512451171875000
0.01090766955167055130004882812
0.14825884997844696044921875000
-0.02648088894784450531005859375
0.11684976518154144287109375000
0.01074901036918163299560546875
0.04856007173657417297363281250
0.01675510779023170471191406250
0.10081218928098678588867187500
0.02207509241998195648193359375
0.00326780602335929870605468750
0.09756312519311904907226562500
-0.06386369466781616210937500000
-0.06508064270019531250000000000
-0.02694123052060604095458984375
0.01733356341719627380371093750
0.10500463098287582397460937500
0.03339313343167304992675781250
-0.05197772011160850524902343750
-0.03889308124780654907226562500
-0.09898504614830017089843750000
0.04799300432205200195312500000
0.12712128460407257080078125000
-0.05422479286789894104003906250
-0.07166706770658493041992187500
-0.03080489300191402435302734375
0.11273242533206939697265625000
0.03972283378243446350097656250
-0.09054129570722579956054687500
-0.00939291529357433319091796875
0.02283998765051364898681640625
0.00749782053753733634948730469
-0.04656196758151054382324218750
0.04801107570528984069824218750
-0.06252890080213546752929687500
0.00352855306118726730346679688
0.02377788536250591278076171875
0.09054668247699737548828125000
-0.02349576540291309356689453125
-0.04165625944733619689941406250
-0.00804599653929471969604492188
-0.03266114741563796997070312500
-0.05248185619711875915527343750
0.06929214298725128173828125000
-0.07100886851549148559570312500
-0.04340467229485511779785156250
-0.19509328901767730712890625000
-0.01913641393184661865234375000
0.00004276909749023616313934326
-0.19263082742691040039062500000
-0.06025429442524909973144531250
0.10261044651269912719726562500
-0.04214187338948249816894531250
-0.01673898845911026000976562500
0.17201800644397735595703125000
-0.03504385799169540405273437500
0.08007457107305526733398437500
-0.00296368496492505073547363281
-0.09175201505422592163085937500
-0.13870456814765930175781250000
-0.09431926161050796508789062500
-0.00580041529610753059387207031
-0.09037294238805770874023437500
0.02782433666288852691650390625
-0.05208043381571769714355468750
0.04529261961579322814941406250
0.14017280936241149902343750000
0.01352488249540328979492187500
0.02316513098776340484619140625
0.13586024940013885498046875000
-0.09008451551198959350585937500
-0.03351094946265220642089843750
-0.12411057204008102416992187500
-0.00014651656965725123882293701
0.00231759436428546905517578125
0.00839706603437662124633789062
0.02129154093563556671142578125
0.06656582653522491455078125000
0.10535584390163421630859375000
-0.04004845023155212402343750000
0.00364373880438506603240966797
0.01003263052552938461303710938
-0.02168590016663074493408203125
-0.02483217976987361907958984375
-0.06001330167055130004882812500
0.01008040364831686019897460938
-0.06082068011164665222167968750
0.00784359592944383621215820312
-0.08277577161788940429687500000
-0.08483227342367172241210937500
0.07793755829334259033203125000
0.06240832060575485229492187500
0.04200504720211029052734375000
-0.02298270910978317260742187500
0.11509387940168380737304687500
-0.02482496388256549835205078125
-0.12701824307441711425781250000
0.03317758813500404357910156250
0.07302012294530868530273437500
0.05289592966437339782714843750
-0.09498446434736251831054687500
0.03732674196362495422363281250
-0.02141881175339221954345703125
-0.02491739578545093536376953125
-0.12341015040874481201171875000
0.01031329575926065444946289062
-0.03648878633975982666015625000
-0.01857403293251991271972656250
0.12784731388092041015625000000
-0.05275656282901763916015625000
-0.02956448309123516082763671875
-0.01641583628952503204345703125
0.06254573166370391845703125000
-0.03515586629509925842285156250
0.03659126162528991699218750000
0.04057496786117553710937500000
0.13879188895225524902343750000
0.02464205771684646606445312500
-0.02302726916968822479248046875
-0.06675929576158523559570312500
-0.00843840837478637695312500000
0.04994157701730728149414062500
-0.06510870903730392456054687500
0.03788596764206886291503906250
-0.16587547957897186279296875000
0.05449764803051948547363281250
-0.03353318572044372558593750000
-0.04866951331496238708496093750
0.08344978839159011840820312500
-0.03854124620556831359863281250
-0.07250533252954483032226562500
-0.05015982687473297119140625000
-0.01897062174975872039794921875
0.01034974027425050735473632812
-0.05571807920932769775390625000
0.03154025599360466003417968750
0.09365213662385940551757812500
0.07971379905939102172851562500
-0.00520546501502394676208496094
0.12918606400489807128906250000
-0.07882359623908996582031250000
-0.04997422918677330017089843750
-0.08395019173622131347656250000
-0.01015970483422279357910156250
0.05567072704434394836425781250
-0.05511051416397094726562500000
-0.01224979571998119354248046875
-0.02179036289453506469726562500
0.06068303436040878295898437500
0.01088260393589735031127929688
-0.15471534430980682373046875000
-0.03084105066955089569091796875
0.00420569581910967826843261719
0.00403883541002869606018066406
0.02801468968391418457031250000
-0.00311439158394932746887207031
-0.08668683469295501708984375000
0.00022047648963052779436111450
0.01333287078887224197387695312
-0.01298576872795820236206054688
0.03218404948711395263671875000
-0.11159443855285644531250000000
0.00993313454091548919677734375
-0.02274314872920513153076171875
0.15988560020923614501953125000
-0.04225720465183258056640625000
0.01710496470332145690917968750
0.02304024249315261840820312500
-0.01471447572112083435058593750
0.06006424874067306518554687500
-0.02802812866866588592529296875
0.00913311820477247238159179688
0.01570811681449413299560546875
0.00896301213651895523071289062
-0.04416078701615333557128906250
0.00445026438683271408081054688
0.02300938963890075683593750000
-0.04469085484743118286132812500
-0.00692410767078399658203125000
-0.00281182583421468734741210938
0.04598451405763626098632812500
0.00857870187610387802124023438
-0.01702823862433433532714843750
0.03137405216693878173828125000
-0.14015714824199676513671875000
0.00169504166115075349807739258
-0.02566960081458091735839843750
0.01108232606202363967895507812
0.03466968983411788940429687500
-0.02634871192276477813720703125
0.03594459965825080871582031250
0.05736352503299713134765625000
-0.06955167651176452636718750000
-0.00617789477109909057617187500
-0.07344727963209152221679687500
-0.01302218716591596603393554688
0.04382273554801940917968750000
0.03457316383719444274902343750
-0.07579798996448516845703125000
0.02347692474722862243652343750
0.07437840104103088378906250000
-0.01745996624231338500976562500
-0.00566222006455063819885253906
-0.02834212407469749450683593750
-0.01110123563557863235473632812
0.06140286847949028015136718750
-0.09623535722494125366210937500
-0.00192620675079524517059326172
0.02829773910343647003173828125
0.09803231060504913330078125000
0.10826178640127182006835937500
0.03289340808987617492675781250
0.04285738244652748107910156250
-0.00082766194827854633331298828
-0.06046948581933975219726562500
-0.00780047755688428878784179688
0.10468446463346481323242187500
-0.22150246798992156982421875000
0.02088605798780918121337890625
-0.01821024529635906219482421875
0.03827400878071784973144531250
-0.01757768541574478149414062500
0.01896147057414054870605468750
0.00036811537574976682662963867
0.12208119779825210571289062500
-0.07545035332441329956054687500
0.01240449305623769760131835938
-0.00192800792865455150604248047
0.08322079479694366455078125000
0.10298708081245422363281250000
-0.01842125318944454193115234375
-0.05831551179289817810058593750
-0.04164472967386245727539062500
-0.08922949433326721191406250000
0.02652817964553833007812500000
-0.03036721795797348022460937500
-0.02776944264769554138183593750
0.00704350695013999938964843750
0.01185798738151788711547851562
-0.02701274678111076354980468750
0.12200318276882171630859375000
-0.08434435725212097167968750000
-0.03305739536881446838378906250
0.00811507739126682281494140625
-0.31362414360046386718750000000
-0.04450338706374168395996093750
0.07160917669534683227539062500
0.01012169569730758666992187500
-0.00858327187597751617431640625
0.02303601056337356567382812500
-0.07906807214021682739257812500
0.05181346833705902099609375000
0.00179020920768380165100097656
0.00657842494547367095947265625
0.09694240987300872802734375000
-0.02358318120241165161132812500
-0.00844341423362493515014648438
-0.13828550279140472412109375000
0.03478433191776275634765625000
0.11748295277357101440429687500
0.04935652390122413635253906250
-0.00779629778116941452026367188
0.00060300825862213969230651855
-0.10699249058961868286132812500
-0.01957910135388374328613281250
0.06228216737508773803710937500
-0.02821860648691654205322265625
-0.08539625257253646850585937500
-0.03494836017489433288574218750
-0.06850239634513854980468750000
0.05751451104879379272460937500
0.10595332086086273193359375000
-0.12054608762264251708984375000
0.00737659167498350143432617188
-0.08183221518993377685546875000
-0.07017578184604644775390625000
0.01631814427673816680908203125
0.05850555002689361572265625000
0.04269899055361747741699218750
-0.02859191596508026123046875000
0.13804738223552703857421875000
-0.03366851434111595153808593750
0.04082259163260459899902343750
-0.00550954835489392280578613281
-0.06900527328252792358398437500
0.04994334280490875244140625000
-0.00595941208302974700927734375
0.02654176764190196990966796875
-0.01087946537882089614868164062
0.02660945430397987365722656250
0.00730938836932182312011718750
-0.08509571105241775512695312500
0.01625827141106128692626953125
0.00420983042567968368530273438
0.09126878529787063598632812500
0.08462414145469665527343750000
-0.03730497136712074279785156250
0.06975717842578887939453125000
0.02008861862123012542724609375
0.07470996677875518798828125000
0.05947251990437507629394531250
0.05011063441634178161621093750
-0.07351455092430114746093750000
0.06348399817943572998046875000
0.01063626725226640701293945312
-0.00461940141394734382629394531
-0.01527539547532796859741210938
0.09611324965953826904296875000
-0.00260292971506714820861816406
-0.00412933016195893287658691406
0.08124060928821563720703125000
0.01367139909416437149047851562
0.11711913347244262695312500000
-0.01436160970479249954223632812
0.01750745996832847595214843750
0.08991068601608276367187500000
0.00316390022635459899902343750
0.01676330901682376861572265625
0.08058977127075195312500000000
0.00659745652228593826293945312
-0.00487389182671904563903808594
-0.05417325347661972045898437500
-0.01486603915691375732421875000
0.11088740080595016479492187500
0.06187024712562561035156250000
0.01020768377929925918579101562
-0.01695413142442703247070312500
0.00853596627712249755859375000
0.09442086517810821533203125000
0.05951023474335670471191406250
0.04348144680261611938476562500
-0.04914070665836334228515625000
0.20806749165058135986328125000
0.11552880704402923583984375000
0.09776449948549270629882812500
-0.10484286397695541381835937500
0.01755225099623203277587890625
0.06187035143375396728515625000
-0.08401809632778167724609375000
0.03587152063846588134765625000
0.09839146584272384643554687500
-0.11133559048175811767578125000
-0.04504247382283210754394531250
-0.08754472434520721435546875000
0.11191622912883758544921875000
-0.11686339229345321655273437500
0.05105787515640258789062500000
0.03780419379472732543945312500
-0.02483266964554786682128906250
-0.03209478408098220825195312500
0.02799091860651969909667968750
0.11582837253808975219726562500
-0.06095945835113525390625000000
-0.05436117574572563171386718750
0.09726072102785110473632812500
0.02447283826768398284912109375
0.05660094693303108215332031250
0.05803806707262992858886718750
0.03068929910659790039062500000
-0.03996582329273223876953125000
-0.10815739631652832031250000000
0.00108260370325297117233276367
-0.10339643061161041259765625000
0.16281378269195556640625000000
0.08068163692951202392578125000
0.03113513067364692687988281250
-0.09082379192113876342773437500
0.00562792224809527397155761719
-0.01982616819441318511962890625
0.07020049542188644409179687500
-0.02667535468935966491699218750
0.04470545798540115356445312500
0.02171374857425689697265625000
0.00965294614434242248535156250
-0.03604424372315406799316406250
0.08157826215028762817382812500
0.07372854650020599365234375000
-0.00245665619149804115295410156
0.09808598458766937255859375000
-0.00847537722438573837280273438
0.14240752160549163818359375000
0.02957586571574211120605468750
-0.04266406595706939697265625000
-0.00843068212270736694335937500
-0.11926178634166717529296875000
-0.00031948884134180843830108643
-0.00612300448119640350341796875
-0.05037350580096244812011718750
-0.08487737923860549926757812500
0.07935476303100585937500000000
-0.11552963405847549438476562500
0.05411101877689361572265625000
-0.05120062828063964843750000000
0.01584887877106666564941406250
0.00243541598320007324218750000
-0.03064589574933052062988281250
-0.11501204967498779296875000000
0.07177429646253585815429687500
0.10017165541648864746093750000
0.05235565453767776489257812500
0.08654054999351501464843750000
0.06727633625268936157226562500
-0.02135271765291690826416015625
-0.06363649666309356689453125000
0.00022268971952144056558609009
0.07781608402729034423828125000
-0.17885446548461914062500000000
0.00175992120057344436645507812
0.03756762668490409851074218750
0.05490471050143241882324218750
0.01432021334767341613769531250
0.00547505216673016548156738281
-0.06281886994838714599609375000
-0.01977831125259399414062500000
-0.03121760115027427673339843750
0.06063516438007354736328125000
0.16637861728668212890625000000
-0.10217326134443283081054687500
-0.01818897388875484466552734375
0.08733673393726348876953125000
0.01682696118950843811035156250
0.07948166131973266601562500000
0.06354978680610656738281250000
-0.03521184250712394714355468750
-0.03189656883478164672851562500
0.02377710305154323577880859375
0.06542752683162689208984375000
0.01171362493187189102172851562
-0.04363334551453590393066406250
-0.01603273861110210418701171875
0.01035504601895809173583984375
-0.09074673801660537719726562500
0.01731532439589500427246093750
0.00934588164091110229492187500
-0.04865131154656410217285156250
-0.00454582832753658294677734375
-0.02750084735453128814697265625
-0.06778196245431900024414062500
-0.03937831521034240722656250000
0.07314871996641159057617187500
-0.00815996620804071426391601562
-0.00518700946122407913208007812
0.01236847788095474243164062500
0.05419037863612174987792968750
-0.11581167578697204589843750000
0.03674515709280967712402343750
0.10422179847955703735351562500
0.06670226156711578369140625000
-0.02010680735111236572265625000
-0.00864921975880861282348632812
0.02849622815847396850585937500
-0.01823439821600914001464843750
-0.03042601235210895538330078125
0.03693072125315666198730468750
-0.00839300453662872314453125000
0.02937648259103298187255859375
0.17446452379226684570312500000
-0.03334511071443557739257812500
0.08723245561122894287109375000
0.02864098735153675079345703125
-0.19485837221145629882812500000
-0.02859229594469070434570312500
0.09411332756280899047851562500
-0.02208906784653663635253906250
0.03297743573784828186035156250
0.10014722496271133422851562500
-0.03825733065605163574218750000
0.03696595132350921630859375000
0.09653738141059875488281250000
0.01734765805304050445556640625
0.11912167072296142578125000000
-0.02812921069562435150146484375
-0.00709430035203695297241210938
0.04195271804928779602050781250
-0.01704847626388072967529296875
0.14764234423637390136718750000
-0.03427673876285552978515625000
0.01755090616643428802490234375
-0.15189565718173980712890625000
-0.19685927033424377441406250000
0.04407607391476631164550781250
-0.03321332484483718872070312500
0.04064911231398582458496093750
-0.02438644878566265106201171875
-0.03193091228604316711425781250
0.05727309361100196838378906250
-0.03178171440958976745605468750
0.02426755055785179138183593750
-0.05149114504456520080566406250
0.05009986460208892822265625000
0.02345920540392398834228515625
-0.07640521973371505737304687500
0.05861422419548034667968750000
0.00682741543278098106384277344
0.06488702446222305297851562500
-0.02033358812332153320312500000
0.01355937030166387557983398438
-0.03161489218473434448242187500
0.05031476542353630065917968750
0.02362900599837303161621093750
0.08608999103307723999023437500
-0.01319691352546215057373046875
0.02372565120458602905273437500
-0.03291899710893630981445312500
-0.02922099828720092773437500000
-0.07674738764762878417968750000
-0.10436533391475677490234375000
0.02829055860638618469238281250
-0.03860365226864814758300781250
0.04000862687826156616210937500
-0.36596053838729858398437500000
-0.06198263540863990783691406250
-0.03892799466848373413085937500
0.11977156996726989746093750000
-0.18577224016189575195312500000
0.03177713602781295776367187500
-0.08804522454738616943359375000
0.01411024574190378189086914062
0.03335630893707275390625000000
-0.03846141323447227478027343750
0.05140087753534317016601562500
0.00964989047497510910034179688
-0.00101325579453259706497192383
0.08539942651987075805664062500
-0.06799404323101043701171875000
-0.12030814588069915771484375000
-0.00932614970952272415161132812
0.06228831410408020019531250000
0.01734385639429092407226562500
0.07163693755865097045898437500
0.10378057509660720825195312500
-0.04785732179880142211914062500
0.05985921248793601989746093750
-0.00282738148234784603118896484
-0.21094314754009246826171875000
-0.04801572486758232116699218750
0.13688918948173522949218750000
-0.04181992262601852416992187500
-0.08912704885005950927734375000
0.03097143769264221191406250000
-0.04519793391227722167968750000
0.03338276594877243041992187500
0.01542256399989128112792968750
0.04647412896156311035156250000
0.25147709250450134277343750000
0.03704101964831352233886718750
-0.01338920276612043380737304688
0.10393815487623214721679687500
-0.08854410797357559204101562500
-0.10562732070684432983398437500
0.02845362201333045959472656250
-0.01302239298820495605468750000
0.05159249529242515563964843750
0.18032188713550567626953125000
-0.03642801567912101745605468750
-0.03487717732787132263183593750
-0.00072439137147739529609680176
-0.00580670731142163276672363281
0.11010807752609252929687500000
-0.02154625393450260162353515625
0.00328364805318415164947509766
0.14047795534133911132812500000
-0.01746171526610851287841796875
0.08344856649637222290039062500
0.05728276446461677551269531250
-0.00725561799481511116027832031
0.04856930300593376159667968750
0.05550369620323181152343750000
-0.01960542425513267517089843750
-0.00663918489590287208557128906
-0.02703453041613101959228515625
-0.00131408707238733768463134766
-0.06919436156749725341796875000
0.02844233810901641845703125000
0.08495803177356719970703125000
-0.00801360700279474258422851562
-0.04057732596993446350097656250
-0.04205655306577682495117187500
-0.09186506271362304687500000000
-0.01246722042560577392578125000
-0.12203618139028549194335937500
-0.05635323002934455871582031250
0.03238325566053390502929687500
-0.02924216724932193756103515625
0.27176687121391296386718750000
-0.01729889959096908569335937500
-0.04164892062544822692871093750
0.06481079012155532836914062500
-0.05555537343025207519531250000
-0.03653093799948692321777343750
0.00967093650251626968383789062
0.04284388199448585510253906250
-0.02722302637994289398193359375
-0.15575724840164184570312500000
-0.08171894401311874389648437500
0.21158190071582794189453125000
0.09067416191101074218750000000
0.08425100147724151611328125000
0.13011881709098815917968750000
0.05575432628393173217773437500
-0.03293041139841079711914062500
0.26349699497222900390625000000
0.10342440009117126464843750000
0.08012473583221435546875000000
0.11121082305908203125000000000
0.06424830853939056396484375000
0.14028170704841613769531250000
-0.15185062587261199951171875000
-0.09947672486305236816406250000
0.02082673460245132446289062500
-0.01042060088366270065307617188
-0.01853604987263679504394531250
0.17865206301212310791015625000
-0.09424090385437011718750000000
-0.00311133614741265773773193359
-0.04256552457809448242187500000
-0.01933739706873893737792968750
0.02317008748650550842285156250
0.02561694383621215820312500000
-0.01458262465894222259521484375
-0.02756615728139877319335937500
0.00447134766727685928344726562
0.02554590068757534027099609375
-0.04342895001173019409179687500
0.08214128017425537109375000000
-0.09611021727323532104492187500
0.11925697326660156250000000000
-0.03945977985858917236328125000
0.14112240076065063476562500000
-0.14529681205749511718750000000
0.01921563595533370971679687500
-0.06644055992364883422851562500
0.05153927952051162719726562500
0.02354615554213523864746093750
-0.06659740954637527465820312500
0.07035637646913528442382812500
-0.04875963553786277770996093750
0.12791945040225982666015625000
0.00267508975230157375335693359
-0.04241430014371871948242187500
0.13937777280807495117187500000
-0.06636673957109451293945312500
0.03096912615001201629638671875
0.04335156083106994628906250000
0.18317389488220214843750000000
0.02569486759603023529052734375
0.01483521144837141036987304688
0.12577532231807708740234375000
0.10465453565120697021484375000
0.09458569437265396118164062500
-0.00669877231121063232421875000
0.12871497869491577148437500000
0.05224128067493438720703125000
0.01070929877460002899169921875
0.08527997136116027832031250000
0.05410036072134971618652343750
0.04275479540228843688964843750
-0.01405846979469060897827148438
-0.02654758840799331665039062500
0.11231850832700729370117187500
-0.06024423241615295410156250000
0.03955346718430519104003906250
-0.02196381054818630218505859375
0.08754985034465789794921875000
0.02800571359694004058837890625
0.04505181312561035156250000000
-0.01831166073679924011230468750
-0.06908883154392242431640625000
0.02988067083060741424560546875
0.04634846001863479614257812500
0.03973775729537010192871093750
0.00637918338179588317871093750
-0.04714769870042800903320312500
-0.05701809003949165344238281250
-0.07379866391420364379882812500
0.00920285936444997787475585938
-0.01546897739171981811523437500
0.01773305237293243408203125000
-0.08966410905122756958007812500
0.00061061902670189738273620605
0.00483724009245634078979492188
0.05058464780449867248535156250
0.03309154883027076721191406250
0.07346499711275100708007812500
-0.01170002203434705734252929688
-0.02748242765665054321289062500
0.00032532145269215106964111328
-0.00605191476643085479736328125
-0.01495014131069183349609375000
-0.02136672846972942352294921875
0.01667948625981807708740234375
0.08663459122180938720703125000
0.04913212731480598449707031250
0.03153117373585700988769531250
-0.06883442401885986328125000000
0.09649404138326644897460937500
0.06786475330591201782226562500
-0.00357386609539389610290527344
0.01987772062420845031738281250
0.02626797556877136230468750000
0.03783727437257766723632812500
0.04037679731845855712890625000
-0.04505937919020652770996093750
-0.01432191021740436553955078125
-0.02805084176361560821533203125
-0.00409427052363753318786621094
-0.03556380420923233032226562500
-0.05903910845518112182617187500
-0.05371031537652015686035156250
0.01935691386461257934570312500
0.01103871501982212066650390625
0.04265260323882102966308593750
0.07228122651576995849609375000
0.05071786418557167053222656250
0.04972494021058082580566406250
0.04756403341889381408691406250
0.43958446383476257324218750000
0.05172787234187126159667968750
0.07637107372283935546875000000
0.03917718306183815002441406250
-0.04543697461485862731933593750
0.00501710548996925354003906250
-0.00959782768040895462036132812
-0.00951363425701856613159179688
-0.07622569799423217773437500000
0.03544066101312637329101562500
-0.41508522629737854003906250000
0.03551296144723892211914062500
0.07230814546346664428710937500
0.11166582256555557250976562500
-0.05814468488097190856933593750
-0.01809255033731460571289062500
-0.01456825342029333114624023438
0.03795689716935157775878906250
-0.18477058410644531250000000000
-0.02709552459418773651123046875
0.08273352682590484619140625000
0.02498247474431991577148437500
0.04097115993499755859375000000
-0.01138849556446075439453125000
-0.02208721451461315155029296875
0.03590773418545722961425781250
0.09347345679998397827148437500
0.03682904317975044250488281250
0.05863338336348533630371093750
-0.04178950935602188110351562500
0.03076946921646595001220703125
-0.01824640296399593353271484375
-0.01930406317114830017089843750
-0.06686476618051528930664062500
0.04628225415945053100585937500
0.04873223602771759033203125000
-0.00311528565362095832824707031
0.07788430154323577880859375000
0.01459275186061859130859375000
0.00923056341707706451416015625
-0.07880134880542755126953125000
0.01206298824399709701538085938
0.04395401105284690856933593750
-0.04602898284792900085449218750
0.00699575804173946380615234375
-0.05186991766095161437988281250
0.04685852676630020141601562500
0.04125569760799407958984375000
0.05442713573575019836425781250
0.05921641737222671508789062500
0.05929798632860183715820312500
0.10339901596307754516601562500
-0.00967632140964269638061523438
-0.01732832565903663635253906250
-0.03865341842174530029296875000
0.07475079596042633056640625000
0.02620264701545238494873046875
-0.07030719518661499023437500000
0.08433812856674194335937500000
-0.01564005576074123382568359375
0.08888769149780273437500000000
0.00974927563220262527465820312
-0.01541024539619684219360351562
0.03932341560721397399902343750
0.03535480052232742309570312500
-0.03340636566281318664550781250
-0.07659105956554412841796875000
0.07443146407604217529296875000
0.06626168638467788696289062500
0.02690136991441249847412109375
-0.03758364170789718627929687500
-0.06286413967609405517578125000
-0.00784359034150838851928710938
0.01349368505179882049560546875
-0.03492522239685058593750000000
0.00943407043814659118652343750
-0.02918347902595996856689453125
-0.09729770570993423461914062500
0.08515030145645141601562500000
0.00415212567895650863647460938
-0.05021829530596733093261718750
0.00428384076803922653198242188
-0.03657013550400733947753906250
-0.03496658056974411010742187500
0.07586990296840667724609375000
-0.11461453139781951904296875000
-0.08772327005863189697265625000
-0.16828985512256622314453125000
0.06583499908447265625000000000
0.10920410603284835815429687500
0.08730176836252212524414062500
-0.00772641040384769439697265625
0.00438801711425185203552246094
0.04964173212647438049316406250
-0.04841776192188262939453125000
0.00323740090243518352508544922
-0.00058981205802410840988159180
0.04841917380690574645996093750
-0.00235955184325575828552246094
0.02626790478825569152832031250
0.05868114903569221496582031250
-0.07490471005439758300781250000
-0.02058525383472442626953125000
-0.01355482731014490127563476562
-0.00020697730360552668571472168
0.01212151162326335906982421875
0.05455575883388519287109375000
-0.00980363227427005767822265625
0.02881975658237934112548828125
-0.00169560639187693595886230469
-0.03050589561462402343750000000
0.03964713588356971740722656250
0.09682752192020416259765625000
0.05365495756268501281738281250
-0.01598366349935531616210937500
-0.00622553331777453422546386719
-0.05980561301112174987792968750
0.00176004797685891389846801758
0.05863742530345916748046875000
0.05260351300239562988281250000
0.06224657595157623291015625000
0.00682153040543198585510253906
-0.04073426872491836547851562500
-0.00177147937938570976257324219
0.02003958448767662048339843750
-0.00730947358533740043640136719
-0.00769492471590638160705566406
-0.02020359784364700317382812500
0.09199918806552886962890625000
0.02473614923655986785888671875
0.00241468800231814384460449219
-0.06326349824666976928710937500
-0.00131444237194955348968505859
0.00093305355403572320938110352
0.03154672309756278991699218750
-0.04869060963392257690429687500
-0.01430384349077939987182617188
-0.07625328004360198974609375000
-0.24411006271839141845703125000
0.02476267702877521514892578125
-0.18328200280666351318359375000
-0.16643851995468139648437500000
-0.05614086985588073730468750000
-0.09720833599567413330078125000
-0.08648983389139175415039062500
-0.01677177287638187408447265625
-0.18781432509422302246093750000
0.00714607164263725280761718750
0.00086657603969797492027282715
0.04257142171263694763183593750
-0.07789683341979980468750000000
0.00445846468210220336914062500
0.18050132691860198974609375000
0.06673207134008407592773437500
0.00665128743276000022888183594
-0.03073411993682384490966796875
0.07741360366344451904296875000
0.03836998715996742248535156250
-0.04640234634280204772949218750
-0.00853867363184690475463867188
-0.04697321355342864990234375000
-0.02123364992439746856689453125
-0.03663504123687744140625000000
0.00841531902551651000976562500
0.11011701077222824096679687500
0.06320028007030487060546875000
-0.05280331894755363464355468750
0.13378582894802093505859375000
-0.00445716222748160362243652344
-0.12416303157806396484375000000
-0.00362931494601070880889892578
0.05404079705476760864257812500
-0.04683688282966613769531250000
0.01073782891035079956054687500
-0.07227954268455505371093750000
-0.04032754898071289062500000000
0.02222046628594398498535156250
-0.01294688414782285690307617188
-0.01814077422022819519042968750
0.06118716299533843994140625000
-0.02463185787200927734375000000
-0.02627877518534660339355468750
-0.07373514026403427124023437500
-0.05058418959379196166992187500
0.02735224366188049316406250000
-0.00834666937589645385742187500
0.00779520161449909210205078125
-0.03931035846471786499023437500
-0.08099418878555297851562500000
-0.06908238679170608520507812500
-0.02890015952289104461669921875
-0.00511617446318268775939941406
-0.12093857675790786743164062500
-0.14335650205612182617187500000
0.14813707768917083740234375000
-0.02778222411870956420898437500
-0.07327669113874435424804687500
-0.02062086760997772216796875000
-0.01975976489484310150146484375
-0.00403237994760274887084960938
0.01071569230407476425170898438
0.01030838489532470703125000000
0.10478330403566360473632812500
-0.05287639796733856201171875000
-0.10423604398965835571289062500
0.11618915200233459472656250000
0.01948637515306472778320312500
-0.12931282818317413330078125000
0.10716397315263748168945312500
-0.00803871825337409973144531250
0.01308202277868986129760742188
0.04249617457389831542968750000
0.06867090612649917602539062500
-0.00180474203079938888549804688
0.08135685324668884277343750000
0.07653242349624633789062500000
0.00002298055915161967277526855
0.11819335818290710449218750000
0.05873242765665054321289062500
-0.00785536784678697586059570312
0.03556548058986663818359375000
-0.05459329113364219665527343750
0.06586039811372756958007812500
0.04889990016818046569824218750
0.10156962275505065917968750000
-0.01103111635893583297729492188
-0.14019888639450073242187500000
-0.11896467953920364379882812500
-0.00468452414497733116149902344
-0.06143415346741676330566406250
-0.01635845564305782318115234375
-0.07726625353097915649414062500
-0.05117129907011985778808593750
0.03735700622200965881347656250
-0.00969318766146898269653320312
-0.00158319191541522741317749023
0.02764535695314407348632812500
-0.01236361544579267501831054688
-0.04026044160127639770507812500
-0.02385529130697250366210937500
-0.09711802750825881958007812500
-0.04334861785173416137695312500
0.24243302643299102783203125000
-0.13689613342285156250000000000
0.06284172087907791137695312500
0.08102297037839889526367187500
-0.00480194855481386184692382812
0.01509114541113376617431640625
-0.05054092407226562500000000000
0.09058061242103576660156250000
0.03612768277525901794433593750
0.00269351946189999580383300781
-0.12700366973876953125000000000
0.04701274633407592773437500000
-0.00806479807943105697631835938
0.05613917857408523559570312500
0.18985308706760406494140625000
0.06413637101650238037109375000
0.05894621461629867553710937500
-0.01156644895672798156738281250
-0.01026234403252601623535156250
-0.02644171752035617828369140625
0.00420585973188281059265136719
0.10857570916414260864257812500
-0.08071167021989822387695312500
0.02084618620574474334716796875
-0.10084599256515502929687500000
-0.03763551637530326843261718750
0.13487909734249114990234375000
0.17150753736495971679687500000
-0.12416239082813262939453125000
0.02109911665320396423339843750
0.00767383212223649024963378906
0.05258714035153388977050781250
-0.00528902700170874595642089844
-0.07112343609333038330078125000
-0.01318937540054321289062500000
-0.12816876173019409179687500000
-0.17301177978515625000000000000
-0.06080394610762596130371093750
-0.03895081207156181335449218750
0.06679000705480575561523437500
0.03196112066507339477539062500
-0.01748979277908802032470703125
-0.18001377582550048828125000000
0.01561730727553367614746093750
-0.00226415880024433135986328125
-0.04336413368582725524902343750
0.08337123692035675048828125000
0.03533707186579704284667968750
0.00319777894765138626098632812
-0.02758037485182285308837890625
-0.07557842135429382324218750000
-0.13099958002567291259765625000
-0.05367245525121688842773437500
0.04772104322910308837890625000
-0.02711579389870166778564453125
-0.06072643771767616271972656250
-0.07589045166969299316406250000
-0.04837601631879806518554687500
0.01237472984939813613891601562
0.05362585559487342834472656250
-0.03733064234256744384765625000
-0.10894645750522613525390625000
0.00531348958611488342285156250
-0.12558506429195404052734375000
-0.16812758147716522216796875000
-0.04861331731081008911132812500
0.12280423939228057861328125000
-0.02447785250842571258544921875
-0.04510655626654624938964843750
0.11281558126211166381835937500
0.02997913770377635955810546875
-0.13809362053871154785156250000
0.06224802881479263305664062500
-0.11474844068288803100585937500
-0.02709803916513919830322265625
-0.03718160465359687805175781250
-0.02313016355037689208984375000
-0.04032472148537635803222656250
-0.08303591609001159667968750000
0.18408393859863281250000000000
-0.02212628163397312164306640625
0.09251745045185089111328125000
-0.16024863719940185546875000000
-0.00516574084758758544921875000
0.04450598731637001037597656250
-0.10526134818792343139648437500
0.06226707249879837036132812500
0.10476235300302505493164062500
0.17822113633155822753906250000
0.01155630685389041900634765625
-0.05697636306285858154296875000
0.02755507454276084899902343750
0.02937056869268417358398437500
0.00247977580875158309936523438
0.07689342647790908813476562500
0.03018518537282943725585937500
0.05740785971283912658691406250
-0.00974451564252376556396484375
0.00882944837212562561035156250
-0.02122021466493606567382812500
-0.06710402667522430419921875000
-0.00912103522568941116333007812
-0.01112894900143146514892578125
-0.03061538748443126678466796875
-0.01032824907451868057250976562
0.06530504673719406127929687500
0.06273084133863449096679687500
-0.01746093295514583587646484375
0.05954619497060775756835937500
-0.01972603797912597656250000000
-0.01442074403166770935058593750
0.03699781745672225952148437500
0.01027069892734289169311523438
-0.04934930428862571716308593750
0.02054576762020587921142578125
0.01763190142810344696044921875
-0.05496748909354209899902343750
0.01999265328049659729003906250
-0.03262206912040710449218750000
0.00588183198124170303344726562
-0.06385159492492675781250000000
-0.06914627552032470703125000000
-0.04049637541174888610839843750
-0.01332730054855346679687500000
0.03914261236786842346191406250
-0.08550158143043518066406250000
0.06077664718031883239746093750
-0.02400720119476318359375000000
0.00141023623291403055191040039
0.05663576722145080566406250000
-0.09331548959016799926757812500
-0.03822172060608863830566406250
0.04896298423409461975097656250
0.01529224682599306106567382812
-0.06728272885084152221679687500
-0.01778207905590534210205078125
-0.11028437316417694091796875000
0.02059909328818321228027343750
0.06414806097745895385742187500
0.01828057132661342620849609375
0.01005399413406848907470703125
-0.03577996045351028442382812500
0.01439450122416019439697265625
-0.00132732593920081853866577148
0.11426999419927597045898437500
0.01153589319437742233276367188
0.00373415928333997726440429688
-0.03315114974975585937500000000
0.01854512654244899749755859375
-0.00266226264648139476776123047
-0.02472104504704475402832031250
-0.00207749754190444946289062500
-0.00055121048353612422943115234
-0.00863832514733076095581054688
-0.05641693621873855590820312500
0.03777864947915077209472656250
0.06136868149042129516601562500
-0.11597803980112075805664062500
-0.01324898283928632736206054688
0.00239852862432599067687988281
0.01279852166771888732910156250
-0.02497451938688755035400390625
0.08567228913307189941406250000
0.03450442478060722351074218750
-0.00423847697675228118896484375
0.03608726337552070617675781250
0.01112609263509511947631835938
-0.05811576545238494873046875000
0.00276596378535032272338867188
-0.00580769916996359825134277344
0.05723878741264343261718750000
0.03187959268689155578613281250
-0.04823454096913337707519531250
0.07195924222469329833984375000
-0.10545048117637634277343750000
0.06252232939004898071289062500
-0.03581661731004714965820312500
0.02826142311096191406250000000
-0.05703486129641532897949218750
-0.04063834622502326965332031250
-0.11267916113138198852539062500
0.00641711615025997161865234375
0.12063063681125640869140625000
-0.00687763746827840805053710938
0.03240313380956649780273437500
0.04635027423501014709472656250
-0.06714425981044769287109375000
0.06405103951692581176757812500
-0.03455467522144317626953125000
0.05744845792651176452636718750
0.03424815461039543151855468750
-0.14317795634269714355468750000
0.03103241883218288421630859375
0.01384699437767267227172851562
0.01369649078696966171264648438
-0.03954211622476577758789062500
-0.01955536380410194396972656250
-0.01146019902080297470092773438
0.04445844516158103942871093750
-0.04258928820490837097167968750
-0.07265291363000869750976562500
0.06517461687326431274414062500
-0.02390588633716106414794921875
-0.07776040583848953247070312500
0.02401966601610183715820312500
0.01428035646677017211914062500
0.01529612485319375991821289062
-0.09714910387992858886718750000
-0.00519310683012008666992187500
0.01585615612566471099853515625
-0.00792133435606956481933593750
-0.08121339231729507446289062500
-0.02319748699665069580078125000
-0.03291975334286689758300781250
0.02920119650661945343017578125
-0.05304415524005889892578125000
0.16916802525520324707031250000
0.04237134009599685668945312500
0.05572469159960746765136718750
-0.02677983604371547698974609375
-0.10007437318563461303710937500
0.05911521986126899719238281250
0.06360628455877304077148437500
-0.06403685361146926879882812500
0.10520900040864944458007812500
0.03926450014114379882812500000
0.06466457992792129516601562500
0.04294458031654357910156250000
0.01484899129718542098999023438
0.03259195759892463684082031250
0.03554163128137588500976562500
0.10036819428205490112304687500
0.07853867113590240478515625000
-0.00122425693552941083908081055
0.01188647281378507614135742188
0.04901897534728050231933593750
-0.03125334531068801879882812500
-0.02963112108409404754638671875
0.01850591786205768585205078125
-0.08607062697410583496093750000
0.06889135390520095825195312500
0.02409727498888969421386718750
-0.00269058742560446262359619141
0.04542007297277450561523437500
0.06518674641847610473632812500
0.13438144326210021972656250000
-0.01169687882065773010253906250
-0.03932769969105720520019531250
-0.06405602395534515380859375000
-0.03092548437416553497314453125
-0.03368978202342987060546875000
-0.00971456710249185562133789062
0.05711431801319122314453125000
-0.01640119403600692749023437500
-0.07524067163467407226562500000
-0.06185421720147132873535156250
-0.01203462947160005569458007812
-0.03196488693356513977050781250
-0.04073093831539154052734375000
0.00545436562970280647277832031
-0.02409107796847820281982421875
0.02288714796304702758789062500
0.00293878326192498207092285156
-0.00515017006546258926391601562
0.03835481032729148864746093750
0.00729678664356470108032226562
-0.04833537712693214416503906250
-0.05526352301239967346191406250
0.02007887139916419982910156250
0.01351518929004669189453125000
-0.14643399417400360107421875000
0.06884129345417022705078125000
0.00494081946089863777160644531
-0.01649033278226852416992187500
0.01801206544041633605957031250
-0.02005779556930065155029296875
-0.06265048682689666748046875000
-0.01668840274214744567871093750
-0.05464299395680427551269531250
0.02086945064365863800048828125
0.06508415937423706054687500000
0.04288810491561889648437500000
0.04890356585383415222167968750
0.01931225694715976715087890625
0.00290407123975455760955810547
0.03329381719231605529785156250
0.10577702522277832031250000000
-0.00671352818608283996582031250
-0.01323186978697776794433593750
-0.12556515634059906005859375000
-0.02959319204092025756835937500
0.04948292672634124755859375000
0.07907360047101974487304687500
0.00803559366613626480102539062
-0.09935984760522842407226562500
0.04113239422440528869628906250
-0.01433613523840904235839843750
0.04708242788910865783691406250
-0.02921597845852375030517578125
-0.00019722641445696353912353516
0.02138165198266506195068359375
-0.01215169299393892288208007812
0.02194922603666782379150390625
-0.00295801530592143535614013672
-0.02149658836424350738525390625
0.06453106552362442016601562500
-0.01614430919289588928222656250
-0.04076988622546195983886718750
-0.00126010843086987733840942383
-0.00635103369131684303283691406
0.00071295513771474361419677734
-0.00244741723872721195220947266
0.03197521343827247619628906250
-0.14695526659488677978515625000
-0.04882530868053436279296875000
0.00364025123417377471923828125
0.04610934481024742126464843750
-0.00988501403480768203735351562
-0.02280345186591148376464843750
-0.04606485739350318908691406250
-0.27905699610710144042968750000
-0.03655241802334785461425781250
0.05581231787800788879394531250
0.06245104223489761352539062500
-0.04723710939288139343261718750
0.00978057365864515304565429688
-0.09026902168989181518554687500
0.05383104830980300903320312500
-0.03397733345627784729003906250
0.01819957606494426727294921875
-0.24773120880126953125000000000
-0.03633154928684234619140625000
0.03030717931687831878662109375
0.09959211200475692749023437500
-0.05662247166037559509277343750
0.00776380486786365509033203125
-0.01032603252679109573364257812
-0.10039833188056945800781250000
0.00483940122649073600769042969
0.11666934192180633544921875000
-0.05451343581080436706542968750
-0.02370845898985862731933593750
-0.05112396180629730224609375000
0.01880629360675811767578125000
0.06286992877721786499023437500
-0.05074737966060638427734375000
-0.05493957921862602233886718750
-0.02657110616564750671386718750
-0.01457899902015924453735351562
-0.07525766640901565551757812500
-0.04379899054765701293945312500
